#Parameter# /_0 {300,342} 1641601 ZERO_GRAD
-1.65389812e+00 -1.04508465e-02 +6.73964545e-02 +2.15276815e-02 +4.94443290e-02 +3.72124910e-02 -3.47641073e-02 -1.55369716e-03 +1.66215926e-01 +1.94321536e-02 -1.22674577e-01 -9.05291498e-01 +4.24145423e-02 +1.10932373e-01 +3.13473314e-01 -7.71385431e-02 -6.04267307e-02 -1.25057116e-01 -7.01513663e-02 +4.92181070e-02 +9.26460773e-02 -1.03706427e-01 -4.08307724e-02 -5.83063848e-02 -9.91976708e-02 +1.65378228e-01 -9.92272124e-02 -4.79169600e-02 -1.55339992e-04 +1.26369789e-01 +4.68169004e-02 +2.02544201e-02 +5.73717020e-02 -2.94054132e-02 +1.44364759e-01 +4.99834791e-02 -9.00228918e-02 -1.18762121e-01 +3.68353464e-02 +5.81903905e-02 -6.98143765e-02 -8.84037986e-02 -2.44877115e-02 -2.48714234e-03 +1.17214974e-02 +1.99850440e-01 -8.91763568e-02 -1.75773621e-01 -6.87982596e-04 -1.40033707e-01 -3.18353996e-02 -8.22448209e-02 -4.81312871e-02 +2.13309135e-02 +2.55447458e-02 -1.03021845e-01 -2.50552706e-02 +5.66842258e-02 +1.06871249e-02 -7.62617663e-02 +7.65770376e-02 -1.29286274e-02 +2.30899379e-01 -2.62715053e-02 +9.14832577e-02 +1.61962926e-01 +1.57869123e-02 -5.17604239e-02 -1.54893950e-01 -2.55907346e-02 +4.97816429e-02 +4.31878045e-02 -4.26776037e-02 -2.04720404e-02 -8.61481056e-02 +2.68419445e-01 +8.90892372e-03 +1.29428118e-01 -7.95133598e-03 +8.40918571e-02 -9.70709547e-02 +9.59116444e-02 +1.82845201e-02 -2.31651926e+00 +2.22768821e-02 +9.66555998e-02 +6.74412996e-02 -1.49732664e-01 +1.11505101e-02 -2.94444710e-02 +5.79452030e-02 +1.70761496e-01 -1.40679125e-02 +1.87956225e-02 +3.95892225e-02 +7.73107111e-02 -9.14293975e-02 -1.38202161e-01 -9.01990905e-02 -5.08052595e-02 +8.30738172e-02 -3.38745601e-02 -1.26610845e-01 +2.77954433e-02 -8.60935599e-02 -7.57087171e-02 +2.20189825e-01 +1.01312473e-02 -1.89283770e-02 +1.81563087e-02 -2.00898089e-02 -5.89404777e-02 +5.12892455e-02 -7.24959597e-02 +5.57214431e-02 -5.79286832e-03 -4.90188897e-02 -9.12846178e-02 +4.48014811e-02 -6.59269020e-02 -1.65221263e-02 -5.14635146e-02 -9.07815248e-02 -6.48090169e-02 -5.85495271e-02 +3.86220142e-02 -1.66617446e-02 +5.02684750e-02 -4.11000699e-02 +8.05674586e-03 +5.83735742e-02 +4.37595770e-02 +7.38249719e-02 +7.57963434e-02 -2.72639934e-02 +3.10741991e-01 -5.37076481e-02 +2.91091233e-01 -1.22413307e-03 +2.21536905e-02 -9.32005346e-02 +8.68167281e-02 +3.01075820e-02 -7.01246560e-02 +4.23219847e-03 -2.18734935e-01 +8.67345557e-02 -4.67651300e-02 +5.00261411e-03 +9.05403942e-02 +8.56111720e-02 -1.90841372e-03 -5.11031598e-02 -8.02885070e-02 +1.09146528e-01 +4.95570861e-02 +3.30058634e-02 -1.00214496e-01 -2.40161624e-02 -1.62655339e-02 +3.21674645e-01 -1.00769080e-01 -9.33130234e-02 -7.69447461e-02 +1.75198063e-01 -2.19622217e-02 +7.26084262e-02 -6.96557947e-03 -1.62232101e-01 +1.02855727e-01 -1.00899279e-01 +5.42026460e-02 -7.52792135e-02 -3.64662409e-02 -2.22508386e-02 +3.75592671e-02 -7.06314519e-02 -4.29969355e-02 -1.03456281e-01 +7.88904876e-02 +1.93869397e-02 -3.47095379e-03 +2.31687412e-01 -6.94854632e-02 +1.36293788e-02 -7.73357973e-02 +1.53244724e-02 +6.67953640e-02 +3.49603174e-03 -6.07508644e-02 +4.20833938e-02 +1.95265129e-01 -1.91190526e-01 -4.73804437e-02 +4.40950040e-03 +1.30340129e-01 -2.16521062e-02 +8.06474388e-02 +4.53497283e-02 -5.99790737e-02 +3.81562971e-02 -5.93571849e-02 +1.31986700e-02 -3.59998941e-02 -9.61265713e-02 -4.64959024e-03 -8.69223475e-02 +1.16409091e-02 +7.30716214e-02 +4.99171652e-02 +1.00118160e-01 -8.75436291e-02 -3.85069065e-02 +8.77356250e-03 +2.71018967e-02 +6.08355068e-02 -2.42276415e-02 -4.44462113e-02 +1.09211951e-01 -1.01648131e-03 -5.61701246e-02 -2.43407756e-01 -3.83685790e-02 -4.40953206e-03 -3.46406437e-02 +7.52490573e-03 -1.19318172e-01 +1.80095732e-02 -9.71357524e-02 +8.19405392e-02 +7.49252853e-04 +1.11323178e-01 -2.66931783e-02 -2.06394330e-01 +6.59773275e-02 -5.66214100e-02 +3.74012738e-02 +1.07774436e-01 +6.16697147e-02 -1.03207104e-01 -5.08070737e-02 -4.24618632e-01 +8.35381895e-02 +9.70846638e-02 -1.89232174e-02 -1.63794935e-01 -9.98398289e-02 -4.87448201e-02 -6.97244518e-03 +3.63416113e-02 -1.29874097e-02 -4.01929505e-02 +2.97480170e-02 -5.59083652e-03 -1.14820246e-02 -5.78143820e-02 -1.79515257e-02 +3.23314369e-02 +1.40373316e-02 -1.57144308e-01 +2.48383835e-01 +4.04964387e-02 -9.86778736e-02 -1.04364991e-01 -1.09992564e-01 +1.20484389e-01 -7.55340280e-03 -7.25555643e-02 -8.03346112e-02 +8.42369273e-02 -1.56230517e-02 -8.85453746e-02 +1.39522925e-01 +6.16960786e-03 +2.29729503e-01 -1.50756508e-01 +7.77834728e-02 +8.19434132e-03 -5.97644329e-01 +6.10597283e-02 -6.42713457e-02 +6.55425414e-02 -8.97264928e-02 +1.55341864e-01 +1.43369893e-02 +7.61854947e-02 -8.21010396e-02 -1.40597507e-01 +1.26555758e-02 -8.58555287e-02 -2.02161781e-02 -1.01581566e-01 +2.96449140e-02 -8.63192156e-02 +5.02108112e-02 +1.45723009e-02 +1.70308314e-02 -7.46743307e-02 +1.06410317e-01 +2.81417578e-01 -1.10359418e+00 -1.47125706e-01 +2.82221269e-02 +6.40789652e-03 -2.88587920e-02 -3.31700705e-02 -2.71719247e-02 -1.11480383e-03 -3.73328060e-01 +6.48562685e-02 +3.81257432e-03 -3.95004312e-03 +5.78195453e-02 +1.65995955e-01 -3.62223953e-01 +4.74244282e-02 +3.86310145e-02 +1.72060786e-03 -2.44027078e-01 -7.02466443e-02 +2.85097156e-02 -1.09554656e-01 +1.00308171e-04 -2.49592233e-02 +9.72271431e-04 -5.66197447e-02 -6.59888268e-01 -8.76889974e-02 -1.12832680e-01 -2.69650549e-01 -1.23051079e-02 -5.47260121e-02 -1.56957403e-01 +5.42909279e-02 +1.75009519e-01 +5.26448637e-02 -5.47069646e-02 -7.52210319e-02 -4.51869890e-02 -6.84661046e-02 -7.23158242e-03 +1.50567219e-02 -5.87107949e-02 +1.34974346e-02 +1.20165914e-01 -2.51634538e-01 -3.46592790e-03 -1.25824183e-01 -1.51341949e-02 -4.42254506e-02 -8.09787661e-02 +5.70143536e-02 -4.64308858e-02 -8.89434591e-02 +3.73621434e-02 -5.30362464e-02 -8.08574706e-02 -8.23013484e-02 -2.57602006e-01 -1.51071716e-02 -6.41992316e-02 +1.83771819e-01 -1.46295071e-01 -6.85053542e-02 -9.39438164e-01 +6.56329701e-03 -2.42885995e+00 -6.97810531e-01 -6.09179378e-01 +5.06598949e-02 -3.56323496e-02 +3.11274342e-02 -8.15409794e-02 +5.11814989e-02 -8.45781267e-02 -9.81295407e-02 +1.13898201e-03 +7.05733448e-02 +3.83731239e-02 -3.21206264e-02 +9.68851596e-02 +6.65172860e-02 +7.17598125e-02 -1.15142576e-01 +2.01841909e-02 +3.74265052e-02 +3.07319011e-03 +6.54702587e-03 -6.18231073e-02 -2.03418523e-01 +8.01508278e-02 +1.35279864e-01 -6.00190014e-02 -2.86343526e-02 +1.88927855e-02 -1.07529707e-01 -1.25237837e-01 +1.31699011e-01 -9.94259641e-02 +1.62767805e-02 -2.24118177e-02 -6.71798065e-02 -1.57671988e+00 +4.43151779e-03 -4.40757088e-02 -6.65163994e-02 -1.79786891e-01 -7.37061426e-02 -1.59902245e-01 +9.72645823e-03 -4.59562615e-02 +6.93740919e-02 +1.63087100e-02 -3.92289385e-02 +4.80377078e-02 +7.30349869e-02 +1.43209286e-02 +6.04164861e-02 -1.25114582e-02 -3.75920981e-02 -3.54905128e-02 -1.58603340e-01 +1.80088952e-02 -1.37642354e-01 +4.70461324e-02 +3.08913346e-02 +4.21729572e-02 -1.26817793e-01 -2.66605437e-01 +9.33880173e-03 +7.68804103e-02 -1.00483075e-01 -1.00643061e-01 -7.40337148e-02 -1.06475823e-01 -4.85542953e-01 -1.92190498e-01 -3.44352354e-03 -7.76888058e-02 +6.35180175e-02 -4.55694422e-02 -6.02900460e-02 -2.48245113e-02 +5.63927628e-02 +3.58008035e-02 -2.84390241e-01 -4.08611633e-02 +9.12713706e-02 -6.06682412e-02 -2.39467174e-02 +5.40232239e-03 -9.03203934e-02 +8.12442824e-02 -1.24599598e-02 -1.58812201e+00 +3.75574008e-02 +1.12058092e-02 -1.05140001e-01 +4.57752906e-02 -8.74334052e-02 -2.73965776e-01 -3.22111297e+00 -9.06033739e-02 +3.35123651e-02 -1.21651940e-01 -1.28855640e-02 -5.65337241e-01 +8.42187926e-02 -4.17108983e-02 -9.42145139e-02 +4.64611165e-02 -5.24410456e-02 -2.68866792e-02 -1.00879436e-02 -1.35371638e-02 -8.36509988e-02 -4.40728754e-01 -6.28046095e-02 -6.11380711e-02 +1.85996488e-01 +5.34555316e-03 +2.22341288e-02 -8.70648548e-02 +7.66555816e-02 -6.66844368e-01 +5.92404306e-02 -5.30384742e-02 -9.59199145e-02 +5.65275326e-02 -1.62348486e-02 +2.85746343e-03 -1.14989318e-02 +3.85342911e-02 +3.19169909e-02 +1.81083858e-01 -2.39205882e-01 -6.97538033e-02 +5.13428934e-02 -4.67414781e-02 -1.51587948e-02 +2.26435419e-02 -1.69602007e-01 -7.03481883e-02 -8.60862350e+00 +2.43491512e-02 -1.51905626e-01 +1.63130596e-01 +5.25257848e-02 -6.50522932e-02 -3.96873616e-02 -6.56630456e-01 +1.46459863e-01 -1.03391670e-01 +9.77362040e-03 -1.68384239e-02 -8.56716856e-02 -5.15908338e-02 -5.61715886e-02 -1.27438679e-01 +1.74526181e-02 -8.80436078e-02 -1.51727736e-01 +1.66602444e-03 -3.46583039e-01 +7.35458657e-02 -7.31719434e-02 -3.07695307e-02 -2.71295071e-01 -3.20420600e-02 -8.19650739e-02 +5.08129820e-02 -1.18819093e-02 +7.78039768e-02 -3.27269174e-02 -1.74167562e+00 -7.39564225e-02 +1.92686124e-03 +7.50854835e-02 -1.33949101e-01 -9.93834734e-02 -1.72695722e-02 +4.92292531e-02 +1.50212441e-02 -9.33544785e-02 +1.30227087e-02 +5.15543520e-02 -1.29501671e-01 -7.09356666e-02 -2.71672872e-03 -4.67349339e+00 +2.99666505e-02 -1.70538113e-01 +7.50190578e-03 +2.63007078e-02 -4.12694514e-02 -1.22059256e-01 -8.88197497e-02 +7.98497945e-02 +3.38687301e-02 -7.65619874e-01 -2.56127805e-01 +4.52565178e-02 -1.89800020e-02 -2.33746693e-02 +1.33472130e-01 -2.09847063e-01 +5.51297516e-02 -5.67584187e-02 +1.70641810e-01 -7.43249878e-02 -1.67869136e-01 -4.94837314e-02 -3.36364508e-01 +1.47594050e-01 +1.75733399e-02 +3.73816401e-01 -2.66946480e-02 +3.27062383e-02 -2.98664975e+00 -1.31709026e-02 -7.22024357e-03 +3.65756601e-02 -6.72546923e-02 +1.19587779e-01 +8.21781904e-02 -1.36680394e-01 -1.01007514e-01 +1.07226502e-02 +6.77746162e-03 -6.66491091e-02 +6.59224838e-02 -2.73048934e-02 +2.79273074e-02 +4.45036292e-02 +2.55892165e-02 -3.89763415e-02 -5.90539165e-02 -3.55323125e-03 -9.59198847e-02 -3.41952220e-02 +2.15122133e-01 -6.59261122e-02 +1.11106513e-02 +1.02614000e-01 -4.36775908e-02 -1.39926365e-02 -5.48864231e-02 -4.68826927e-02 +3.13130058e-02 +9.28389560e-03 +1.24895439e-01 -3.24170858e-01 -9.98262316e-03 +4.15527076e-02 +1.91959769e-01 -7.37273972e-03 +8.96547586e-02 -7.12880865e-02 -1.40483335e-01 -3.83190587e-02 -1.12284675e-01 +6.09253235e-02 +7.16723427e-02 +3.98448631e-02 +1.38739020e-01 -6.07808158e-02 +2.43393853e-01 -8.20952952e-02 -4.95632738e-02 -1.41109347e-01 +9.17522609e-02 -1.58236325e-01 -6.38387278e-02 +4.83064214e-03 -4.76179749e-01 +1.94047838e-02 +7.61007518e-02 -4.52168286e-02 -3.01959440e-02 -5.19599319e-02 +9.61917490e-02 +3.65011282e-02 +4.40149680e-02 +1.09264500e-01 -6.50008693e-02 +3.90895754e-02 +9.04223472e-02 -2.02158049e-01 -2.66116038e-02 +1.71945095e-01 +4.21916619e-02 -7.12623149e-02 +4.67242524e-02 -9.89226997e-03 -1.83874648e-02 +9.77097750e-02 -9.70829371e-03 +4.50564735e-02 -2.87890464e-01 -1.20314993e-02 -8.22255313e-02 -2.86558680e-02 +6.85103461e-02 +9.62025523e-02 -9.76263657e-02 -1.46481097e-01 +6.54844567e-02 -1.14725925e-01 -4.49174903e-02 -1.72946826e-01 +6.75669089e-02 -2.83991620e-02 -7.83368647e-02 -3.48153561e-02 +1.29846498e-01 +1.12769036e-02 -2.69163260e-03 -1.20611057e-01 +7.54770711e-02 +2.61746962e-02 +1.32295378e-02 -4.45855856e-02 +7.34442025e-02 +4.43751626e-02 +9.78102759e-02 -1.68906644e-01 -9.30617750e-02 +1.61396682e-01 -7.21766055e-02 +1.47333875e-01 -6.86515272e-02 +3.31653692e-02 +9.14851017e-03 +8.56230929e-02 +4.91740629e-02 +4.46689911e-02 +3.57725210e-02 -1.87857091e-01 +2.43366100e-02 -2.22757116e-01 +3.99369113e-02 +7.34913815e-03 +7.69533217e-03 -3.73507757e-03 -6.86084032e-02 +1.07319988e-01 -1.07106812e-01 -3.57776135e-03 +1.38087988e-01 +8.77542943e-02 +8.32890645e-02 +4.46159393e-02 +1.06648179e-02 -2.42400076e-02 -1.30956331e-02 -5.51364198e-03 +3.10777854e-02 -6.89591691e-02 +7.65460217e-03 -3.08626890e-02 +9.39298198e-02 -1.46244913e-02 +9.69741419e-02 +7.36166984e-02 +4.48060296e-02 +2.65833046e-02 -8.88818726e-02 -5.14513589e-02 +4.86387163e-02 +7.33247325e-02 -1.08729221e-01 +6.97548389e-02 +1.45409675e-02 +2.91215591e-02 -4.93888259e-02 +2.18726277e-01 +1.88146740e-01 +3.11987773e-02 +9.61531997e-02 +6.83489144e-02 -7.63625000e-03 +9.45842043e-02 +1.39664987e-03 -8.35849345e-02 -7.89463967e-02 -1.24397255e-01 -2.46880695e-01 +8.19563642e-02 +1.26224458e-01 +7.70117864e-02 -6.16214722e-02 -8.59734416e-02 +9.43239778e-02 -5.03263436e-02 -1.55991107e-01 +5.65406755e-02 +1.23830931e-02 +6.24528527e-02 +5.94926812e-02 +4.00375947e-02 +1.41970009e-01 +4.82881814e-02 +1.97361186e-02 -3.20702940e-02 -7.68777728e-02 +1.82178512e-01 +2.88935959e-01 -6.48040324e-02 +1.46741793e-01 -2.64334470e-01 +1.07637964e-01 +5.98335778e-03 -7.55467340e-02 +8.10986310e-02 +1.50421122e-03 -2.52062753e-02 +1.80356562e-01 -9.08618569e-02 -3.16842049e-02 -4.30165827e-02 -8.50274488e-02 +1.06327131e-01 +2.61986628e-02 +9.53239053e-02 +8.29137210e-03 +8.57000500e-02 +3.21752243e-02 -7.19472617e-02 -3.17899622e-02 -3.72820571e-02 +2.78818198e-02 -1.29962325e-01 -6.36056215e-02 -2.34611370e-02 +6.29824176e-02 +5.03910370e-02 +2.46556364e-02 +2.94520315e-02 -2.51717027e-02 +1.75143145e-02 -2.69680042e-02 -2.50693083e-01 +1.99523345e-02 +1.50967613e-01 +6.54777214e-02 +1.22103982e-01 -1.53413683e-01 -4.78429608e-02 -8.87962878e-02 +2.36991104e-02 -1.78266242e-01 -4.92592417e-02 -8.21608528e-02 +3.31396013e-02 +8.98981392e-02 -6.89483434e-02 +5.75467423e-02 -4.83534783e-02 +8.13196003e-02 -1.43812373e-01 -7.55969137e-02 -2.32743368e-01 -3.98544706e-02 -3.48320566e-02 -8.80504102e-02 -3.71091776e-02 -5.02102748e-02 +1.96282536e-01 +1.29106104e-01 +9.62504596e-02 +4.98138107e-02 +3.74579499e-03 +4.24012206e-02 +4.67053205e-02 -4.43999209e-02 -5.89704290e-02 +9.36877728e-02 -1.28765926e-01 +1.16105296e-01 +7.78692439e-02 +3.27127986e-02 +1.05741523e-01 +3.58965658e-02 -3.16596925e-01 +9.94635299e-02 -3.87321830e-01 +7.60284588e-02 +6.97054062e-03 +9.29045770e-03 +6.69360980e-02 +6.87653422e-02 -2.32633933e-01 -4.61687222e-02 +2.62195598e-02 +3.05301957e-02 +1.40992194e-01 +4.15069051e-02 +2.23073810e-01 +6.33110525e-04 -6.05690256e-02 +1.58023998e-01 +2.77526919e-02 -3.81192453e-02 +4.90660109e-02 +3.61490883e-02 +1.40007049e-01 -7.09528401e-02 +8.39120224e-02 -1.66677251e-01 -3.47788595e-02 +3.17442454e-02 +9.32051837e-02 +8.86177197e-02 -7.08853528e-02 -3.79583873e-02 +1.61303639e-01 +1.63553767e-02 -8.01461264e-02 +9.73977506e-01 +6.66430546e-03 -5.08216433e-02 +9.48063210e-02 -1.92490555e-02 -1.47647142e-01 +9.44291241e-03 +6.26295246e-03 -2.59717088e-02 +1.29134402e-01 +6.58488646e-03 +1.20457381e-01 -8.57219994e-02 -5.48379030e-03 +7.77966902e-02 +7.13807195e-02 -1.21827662e-01 +2.93947011e-02 +8.77021253e-02 +4.64963876e-02 -5.51767573e-02 -7.37332478e-02 -1.51237118e+00 -1.18309952e-01 +1.24430731e-02 +7.63484389e-02 -1.19406007e-01 -1.09983236e-01 +4.82969312e-03 +4.49225754e-02 +1.32301033e-01 -2.29895189e-02 +2.84025017e-02 -9.88249779e-01 +5.42587116e-02 +8.35635066e-02 +1.54478371e-01 +5.69141395e-02 -1.37736037e-01 -1.81756333e-01 -2.49275751e-02 -1.66064184e-02 +1.45563215e-01 -9.66476351e-02 +6.15900606e-02 -1.24228440e-01 -1.53790876e-01 +1.58048913e-01 -8.96966979e-02 +3.59145291e-02 +6.31453246e-02 +1.99123040e-01 -4.40494344e-02 +4.02014926e-02 -1.32221365e-02 +7.80502036e-02 +2.05120355e-01 -8.70394483e-02 +9.31048184e-04 -6.88534509e-03 +6.89725429e-02 -9.83192101e-02 +2.65148040e-02 +4.91449703e-03 +1.17565375e-02 +2.21988931e-02 -2.46430878e-02 +3.04582387e-01 -2.03432757e-02 -2.90796280e-01 -3.40187340e-03 -1.64681286e-01 -1.22613339e-02 -1.78599134e-02 -2.10060198e-02 -1.05455546e-02 -1.77928954e-02 -1.02304362e-01 -1.52976774e-02 -3.59409265e-02 +1.57790273e-01 -4.40175505e-03 +8.56987238e-02 -1.81687221e-01 +2.06252232e-01 -6.87184036e-02 -7.60560483e-02 +1.73911288e-01 -1.93672758e-02 -1.86549202e-01 -5.09083681e-02 +7.65408203e-02 -3.77112553e-02 -3.00392155e-02 +5.73445950e-03 -8.46000090e-02 +3.31546441e-02 +2.90172011e-01 -2.86726113e-02 +1.62579507e-01 +5.89491725e-02 +3.81145813e-02 +3.08186933e-02 +9.82036069e-03 -8.66095722e-02 -2.30821085e+00 +1.19921286e-02 +5.51717095e-02 +1.04860105e-01 +1.15703875e-02 -2.97330413e-02 +7.16628656e-02 +9.06989127e-02 +1.53777316e-01 +1.47448182e-02 -7.15507567e-02 -2.74129398e-02 +8.75270590e-02 +4.28541526e-02 -2.16870867e-02 -9.18529779e-02 +2.84335371e-02 -3.43213382e-04 +6.84159324e-02 -6.17163554e-02 -2.16461122e-02 +1.65547170e-02 -4.72948253e-02 +1.41295478e-01 +1.28471568e-01 -4.54460233e-02 +7.60721192e-02 -6.64313287e-02 +4.10067998e-02 +7.70957246e-02 +7.27218166e-02 -7.59536326e-02 +3.03094033e-02 -7.30505809e-02 -7.31028011e-03 +3.99403460e-02 -7.74163678e-02 -5.25614619e-02 -2.04024762e-02 +5.05415052e-02 -1.28026202e-01 -3.24420705e-02 +4.91617136e-02 +8.01103376e-03 +1.75543711e-01 +1.19418524e-01 -1.24266129e-02 -6.20275736e-02 -1.86356436e-02 +2.43065357e-02 -3.64105180e-02 +8.27774929e-05 +3.77235621e-01 +2.83238012e-02 +2.26962119e-01 +8.04466307e-02 +7.84732103e-02 +1.36251450e-02 -8.68648067e-02 -2.79217232e-02 -1.06140554e-01 -8.66373330e-02 -1.90151215e-01 +9.92869884e-02 -5.22459038e-02 -7.25191645e-03 -8.25666711e-02 +2.62809843e-02 -4.99617122e-02 +4.03151847e-02 -7.24555925e-02 -1.43831456e-02 +1.98327191e-02 -3.21786031e-02 -1.22433873e-02 +2.85598952e-02 -1.34914011e-01 +1.99799314e-01 -1.79822687e-02 +3.32425982e-02 +4.65498008e-02 +2.02107489e-01 -1.52685121e-02 +7.18972366e-03 +7.32570142e-02 -5.63376881e-02 +4.33653928e-02 -8.72336552e-02 +2.81943250e-02 +4.49375324e-02 +6.54916242e-02 -5.50936162e-02 +3.63405645e-02 -7.77210668e-02 -8.38466883e-02 -4.29443531e-02 +1.56056613e-01 -4.50644381e-02 -7.93714169e-03 +2.29744896e-01 -4.27976623e-02 -1.14807254e-02 -5.98960295e-02 -9.67702270e-03 +1.27875343e-01 -6.24138527e-02 +7.82736093e-02 -9.35331360e-02 +2.04078376e-01 -2.47070268e-01 +1.38177527e-02 +8.76916349e-02 -5.04566282e-02 -8.07246491e-02 +7.81022161e-02 -9.36853811e-02 -1.73705388e-02 +6.53923526e-02 -1.79539882e-02 +3.72533314e-02 -5.45063801e-02 +7.86603242e-02 +1.22482769e-01 -4.87989560e-02 +2.46066060e-02 -7.07889497e-02 +6.16642311e-02 +2.25916639e-01 +3.63759347e-03 -3.46557610e-03 -6.17762934e-03 -1.85798202e-02 -1.84670165e-02 +7.82134105e-03 +5.32973632e-02 +7.28899762e-02 -4.27859314e-02 +2.99825007e-03 -2.10925877e-01 -6.83153272e-02 +3.77366953e-02 -8.48299041e-02 -6.37620091e-02 -3.98740470e-02 -1.46980220e-02 -7.25244433e-02 -9.89766940e-02 +3.81002165e-02 +1.32474050e-01 +4.07626405e-02 -1.80280328e-01 +7.54638836e-02 -1.35291014e-02 -1.04386527e-02 +1.80728450e-01 -7.50844926e-02 -3.06162313e-02 +3.83135900e-02 -4.96048182e-01 -7.26179555e-02 +1.56437829e-01 -3.44303511e-02 -1.81157753e-01 -1.07401088e-01 +8.67304578e-02 -7.79569298e-02 -4.87770773e-02 -7.51310214e-02 -9.70828459e-02 -1.95997581e-02 -3.24417725e-02 -3.93985100e-02 -1.81034226e-02 -1.97954681e-02 -2.14059860e-03 -1.22383777e-02 -1.68821067e-01 +2.66645283e-01 +2.84417048e-02 -5.74891604e-02 -5.98205067e-02 -1.13922335e-01 -1.29771503e-02 -6.88446686e-02 +3.94712901e-03 -1.10955559e-01 +2.46310569e-02 -3.44116725e-02 +1.98337082e-02 +9.62515697e-02 +5.72005287e-02 +1.97977543e-01 -2.01765433e-01 +8.20173323e-02 -6.19528815e-02 -4.80711073e-01 -7.67008662e-02 -7.02351257e-02 -2.88551431e-02 -1.04804844e-01 +1.64167866e-01 -4.95962724e-02 +1.44898444e-01 -2.32852269e-02 +1.50471320e-02 +5.97315542e-02 -4.84565794e-02 +1.85918380e-02 -4.96075340e-02 -8.87000263e-02 -9.93779078e-02 -4.89679687e-02 +6.70656338e-02 -7.26616830e-02 -9.77396294e-02 +1.30416796e-01 +2.61988312e-01 -5.43014817e-02 -6.08228259e-02 +6.22335635e-02 -2.54653115e-02 +1.11541592e-01 +8.21159706e-02 -1.01670310e-01 +9.16083995e-03 -1.12265736e-01 -2.47721607e-03 +5.31879067e-02 -5.85686564e-02 +1.04531117e-01 +5.44166982e-01 -3.60555127e-02 +7.94986039e-02 +1.00897685e-01 +8.69081169e-02 -1.72576636e-01 +5.29363193e-02 -5.10582253e-02 +9.10141096e-02 -2.98884772e-02 +1.03480197e-01 +3.50900054e-01 -1.32901609e-01 -2.24140678e-02 -2.91530527e-02 +2.57390011e-02 -2.38387495e-01 +1.13025159e-02 -1.33658648e-01 -2.35395774e-01 -4.79563735e-02 -2.46680528e-01 -3.57282981e-02 -6.98521314e-03 -2.79260091e-02 -1.71266571e-02 +4.82162386e-02 +6.10585175e-02 +1.35261919e-02 -3.15347984e-02 +6.16679108e-03 -5.58926798e-02 +1.63219236e-02 -1.60146132e-02 -1.88598067e-01 -3.10334004e-02 +1.12468041e-01 +8.84927437e-02 +1.04714103e-01 +5.93733080e-02 -3.97825651e-02 +4.19256091e-02 +7.85155669e-02 +8.93739983e-02 +7.88868442e-02 -2.29744464e-01 +8.18451196e-02 +2.21217908e-02 +6.59190476e-01 +2.71908939e-01 +7.36814514e-02 -1.61252826e-01 -2.37563863e-01 +6.19865730e-02 -2.52133440e-02 -1.93535969e-01 +7.85063282e-02 -2.89929435e-02 +2.69876346e-02 -6.63264794e-03 +8.12365487e-02 +1.26520529e-01 +1.43171385e-01 -2.94257491e-03 +1.01825207e-01 -1.68841053e-02 -1.44939115e-02 +5.27313761e-02 +3.82000983e-01 +5.63837886e-02 -5.05263321e-02 -2.17945259e-02 +1.61851987e-01 -9.54547450e-02 +8.47384334e-02 +5.51384650e-02 +1.92995921e-01 +6.55947700e-02 +2.21073776e-01 -7.11480342e-03 +9.52749252e-02 -5.39931394e-02 +8.35111588e-02 +3.27471527e-04 +1.03881573e-02 -1.75629228e-01 -1.67277291e-01 -6.15222901e-02 -5.76752685e-02 -2.21123826e-02 +2.20144447e-03 +5.12515306e-02 +4.62881960e-02 +8.13315362e-02 +7.15600774e-02 +1.59190148e-01 -4.25032899e-02 -4.43142541e-02 +3.77593599e-02 -4.61382493e-02 -6.16572946e-02 +6.88670576e-02 -1.27946334e-02 -3.13018970e-02 -3.89681533e-02 -7.32017457e-02 +1.66100375e-02 -6.35682344e-02 +4.88975905e-02 +8.54187310e-02 +1.20035633e-01 +4.20358032e-02 +6.33756146e-02 -1.07353497e-02 -1.95659213e-02 -1.21746920e-01 -9.21702087e-02 +4.95787896e-02 -4.17130999e-02 +6.76617399e-02 -3.91659960e-02 -1.51072396e-02 +3.18576321e-02 +7.97307193e-02 +1.74547687e-01 +5.64929061e-02 +7.02155158e-02 +8.46430212e-02 +8.67516845e-02 -5.48362285e-02 -5.44520840e-03 +2.79036770e-03 -3.01814497e-01 -1.86375096e-01 +7.19634667e-02 +6.41674548e-02 +2.74228342e-02 +4.02503274e-02 +6.64146841e-02 -1.47147318e-02 +2.30206773e-02 +2.37333123e-02 +6.26175255e-02 +1.03194788e-01 +2.84306500e-02 +6.01313859e-02 -3.45298611e-02 +2.97946364e-01 -1.16529219e-01 +1.31791858e-02 -8.46999325e-03 +1.03683963e-01 +3.14752519e-01 -3.67588885e-02 -5.23171760e-02 +1.83793738e-01 -2.16370732e-01 +2.44567752e+00 +1.26789689e-01 +9.43565443e-02 +1.30071202e-02 -1.05912518e-03 +6.22923858e-02 +2.85548102e-02 -3.39598060e-02 +6.67743981e-02 +5.48321784e-01 +9.85703468e-02 +5.25460303e-01 +1.86131857e-02 -4.71088327e-02 -3.61034311e-02 -2.54169945e-02 -5.07299230e-02 +1.74591526e-01 -2.81897280e-02 +7.22477883e-02 -5.85074015e-02 -9.29888487e-02 +2.18444288e-01 -5.42248152e-02 +1.03689599e+00 +6.43307939e-02 +2.08870005e-02 -4.41616662e-02 -5.65732569e-02 -7.37796277e-02 -3.89923751e-02 -2.75723189e-01 +6.73718899e-02 -1.71797633e-01 -9.67488158e-03 -9.52745788e-03 +2.41892427e-01 -4.32606675e-02 +3.26733366e-02 +2.03497633e-02 -2.27226272e-01 +3.37459594e-01 -2.68040933e-02 -4.51355651e-02 +1.00212753e-01 -6.07026182e-02 +5.32272607e-02 -3.48170064e-02 +2.55967118e-02 -7.88333416e-02 +8.88007358e-02 -6.17244244e-01 -5.75131550e-03 -7.05112815e-02 -2.54160222e-02 +6.96297409e-03 +8.99329316e-03 +8.83742720e-02 +4.16005701e-02 -6.62198737e-02 +8.07831734e-02 -4.27077375e-02 +7.78126195e-02 +1.07670337e-01 +1.41144812e-01 +8.79322365e-02 -8.66511315e-02 -1.65356204e-01 +2.85408720e-02 +1.29947262e-02 +9.24511030e-02 +2.61768937e-01 +3.76605801e-02 -1.99100450e-01 +9.10887122e-02 -6.77823052e-02 +1.04657613e-01 +1.05524912e-01 +4.08961289e-02 +1.15943246e-01 +1.15508057e-01 -1.62168846e-01 -3.90469469e-02 +1.00039162e-01 +3.88486683e-02 +7.72887170e-02 -3.66563201e-02 +4.74366039e-01 +5.21828746e-03 -1.23501331e-01 -2.10905164e-01 +7.69609809e-02 -6.63328543e-03 +8.66624713e-02 +2.13601530e-01 +1.58506989e-01 +1.45081580e-02 +6.28196970e-02 -7.18174316e-03 -4.66560014e-02 +8.24526250e-02 +6.15284406e-02 +2.03101471e-01 +9.76461291e-01 +8.01504552e-02 +2.77246356e+00 +9.81388167e-02 +6.43913671e-02 -5.56322688e-04 +8.56294706e-02 +4.36430844e-03 +1.95529964e-02 +2.39623353e-01 +1.45939797e-01 +3.22966017e-02 +7.18505308e-02 +7.33535066e-02 +2.27596849e-01 +4.03576903e-02 +6.99530244e-02 +6.56606928e-02 -7.07401708e-02 -3.30046229e-02 +8.35875720e-02 -1.35679613e-03 +2.61708386e-02 +9.87733006e-02 +3.64844538e-02 -1.42219767e-01 +8.55589937e-03 +1.47382170e-01 -1.10836830e-02 +4.37500216e-02 -2.93231979e-02 -6.72226101e-02 +1.48031697e-01 -7.50361010e-02 -9.74824373e-03 +1.43347025e-01 -1.80865359e-02 -6.00492507e-02 -2.30077446e-01 +1.64005812e-02 -1.08655363e-01 +1.04947217e-01 +1.65145248e-02 +7.21414089e-02 -8.57739374e-02 -2.09769771e-01 +6.47889525e-02 -1.44728079e-01 +1.01555839e-01 +8.41340274e-02 +1.52781293e-01 +1.77479208e-01 -9.97247025e-02 +2.15493053e-01 +8.82451162e-02 -6.83179572e-02 +3.67838629e-02 +9.28573404e-03 -2.12652117e-01 -1.58338472e-01 -3.09751015e-02 -4.74386990e-01 -8.33065882e-02 +4.26139981e-02 -4.28945757e-02 +2.07479391e-02 +5.25720557e-03 -4.74305032e-03 -7.03866631e-02 +5.75299971e-02 +5.80059290e-02 -1.17861137e-01 +1.18701205e-01 +2.12294031e-02 -1.66204959e-01 -4.71990220e-02 +5.61898276e-02 -1.54004451e-02 +9.63168964e-02 -4.24036682e-02 +7.16699958e-02 +5.64494468e-02 -5.69119602e-02 -4.49402593e-02 +7.08362088e-02 -1.11928195e-01 -1.42037042e-03 -7.13484082e-03 -1.35421962e-01 +2.04492286e-01 -4.14190106e-02 -1.89902425e-01 -2.40693018e-01 +4.06410508e-02 -6.20739684e-02 -1.43324047e-01 -2.12611649e-02 +7.30863810e-02 +6.31411597e-02 -7.59696914e-03 +3.08347009e-02 +4.66393903e-02 -1.68688700e-01 -7.53824115e-02 -6.89614145e-03 -3.07462234e-02 +4.32719812e-02 -5.21197021e-02 -2.51572225e-02 +2.80892942e-02 +2.93079321e-03 +5.24632400e-03 -1.66370437e-01 -1.53118923e-01 +3.53250392e-02 -1.29047027e-02 +2.03231543e-01 -6.49143904e-02 -2.31293477e-02 +1.07273236e-01 -1.25360796e-02 -9.61047858e-02 +8.52270499e-02 -3.18482220e-02 -1.34813875e-01 +2.32634712e-02 -1.67661503e-01 -2.45560668e-02 +2.90071443e-02 +3.81365754e-02 +4.78673652e-02 +6.32495135e-02 -5.49597740e-02 -1.46805361e-01 +9.00598913e-02 +6.89222887e-02 +2.56867781e-02 +1.40043003e-02 +3.38692665e-02 +8.33638310e-02 +6.47487342e-02 -6.37113750e-02 +2.26788479e-03 -7.43095670e-03 +5.48612885e-02 +1.65458303e-02 -1.49656599e-02 +1.99789181e-02 -4.09733318e-02 -7.29833469e-02 +1.36968493e-01 -7.09223002e-02 -3.08280904e-02 +8.89953524e-02 -8.98280740e-02 +5.84792756e-02 +1.55320644e-01 -1.39286280e-01 +8.25727955e-02 -6.24593943e-02 -1.00131705e-02 +6.19586615e-04 +2.27066621e-01 +1.48252383e-01 +1.84379786e-01 +2.20981706e-02 -2.02087536e-02 -4.11318839e-02 -7.96765164e-02 -5.17932437e-02 +8.29416588e-02 +1.33379428e-02 -1.80744305e-01 -2.64279842e-01 +7.30112493e-02 +1.15663409e-01 -2.85371225e-02 -4.90490831e-02 -5.68865091e-02 -7.66220614e-02 +1.91009156e-02 -1.27610385e-01 +7.99804702e-02 +3.48109417e-02 +8.68599340e-02 -4.70839627e-02 +3.66027206e-02 +1.83633119e-01 -1.48038315e-02 -7.74996728e-03 +7.93857574e-02 -1.40624657e-01 +2.01516524e-01 +3.20730418e-01 -1.44182658e-02 -4.55837417e-03 -1.99382529e-01 +9.60555971e-02 +2.36066338e-02 -2.00656876e-02 +6.58504944e-03 +5.08984923e-02 -2.30198205e-02 +1.06254280e-01 +3.73302065e-02 -1.69258602e-02 +5.22028245e-02 +5.94633780e-02 -3.79390307e-02 +3.86381708e-02 -2.12794021e-02 +5.58419898e-02 -5.83486222e-02 +1.02921315e-01 -7.15752468e-02 +3.05103641e-02 -4.20509614e-02 +4.18161564e-02 -8.65939856e-02 -1.38670906e-01 -2.14134138e-02 -1.41020771e-02 +6.84904084e-02 -2.24290304e-02 +8.86611789e-02 +6.74478486e-02 +7.91471526e-02 +8.51581395e-02 -1.56221077e-01 +5.70918471e-02 +6.84044287e-02 -2.28007324e-02 +1.30654216e-01 +1.39957285e-02 +1.92135908e-02 +9.22346860e-02 +2.39737481e-02 -3.37627113e-01 +4.28472733e-04 -4.75120135e-02 +3.22790109e-02 -5.15220389e-02 -9.29843113e-02 -3.62453982e-02 +8.12139064e-02 +9.73717347e-02 -8.78428966e-02 +5.85121289e-02 -1.97336301e-01 -4.39359397e-02 +3.23359147e-02 -9.21871662e-02 +5.21736853e-02 +9.24260542e-02 +1.64161518e-01 -3.66328955e-02 +1.61680579e-02 +1.70668382e-02 -9.09647867e-02 -7.32502416e-02 +1.07564200e-02 -7.14544505e-02 +9.19125527e-02 +9.94750112e-02 -2.04820648e-01 +2.85766702e-02 -5.84749542e-02 +1.01813683e-02 +1.05762817e-01 +2.15546247e-02 -3.31211090e-01 -2.43551265e-02 -4.82897282e-01 +5.49171828e-02 +6.30260035e-02 -7.88422450e-02 +9.24631059e-02 -4.15212698e-02 -2.32108757e-01 -8.28465633e-03 -3.64216301e-03 +4.52335812e-02 +1.60716891e-01 +6.76753074e-02 +1.90161988e-01 -6.19927272e-02 -1.93008199e-01 +2.11388350e-01 +2.97897141e-02 -1.42311119e-02 +2.72639059e-02 -1.18034845e-02 +1.96074829e-01 +4.45078053e-02 +2.84940265e-02 -1.48669749e-01 +2.44680736e-02 +1.00272819e-01 +7.14051947e-02 +7.91847557e-02 +1.03069514e-01 -8.42285454e-02 +1.46297812e-01 -5.74340038e-02 +8.54506791e-02 +9.33339596e-01 +3.79158705e-02 -2.38223840e-02 +7.67283514e-02 +1.15663268e-01 -3.08028655e-03 -5.67960106e-02 +1.52950455e-02 -1.70674659e-02 +3.48965563e-02 +6.13842644e-02 -6.05609268e-03 -2.83689750e-03 -5.16879410e-02 +8.16228539e-02 -1.23505630e-02 -4.80214022e-02 +9.54835787e-02 +3.78115550e-02 -3.97449248e-02 -4.94926833e-02 +6.32901713e-02 -1.67707157e+00 -1.57918241e-02 +2.89120693e-02 +1.64075997e-02 +2.48547699e-02 -1.49280518e-01 -1.04293361e-01 -5.24904691e-02 +2.68357098e-01 -1.06260106e-01 +5.05856909e-02 -8.07671010e-01 +1.98665522e-02 +1.24218501e-01 +1.92816034e-01 -7.44325817e-02 -9.77789387e-02 -6.24524914e-02 +1.08010828e-01 +6.63459152e-02 +3.45069058e-02 -1.66267499e-01 +2.45134123e-02 -1.48410335e-01 -5.28818108e-02 +3.91139202e-02 -2.78044697e-02 +6.81358725e-02 +1.26755321e-02 +1.99953869e-01 +2.70625055e-02 -3.93206589e-02 +7.14061633e-02 -5.35654426e-02 +1.38373435e-01 -8.00210387e-02 +3.19481194e-02 -1.12667963e-01 +5.85121438e-02 -3.94086586e-03 -5.89494444e-02 +4.68317270e-02 +6.86416179e-02 +1.51607906e-02 -5.16639650e-02 +2.49464467e-01 -9.20000225e-02 -2.73536265e-01 +3.39736752e-02 -1.64026045e-03 -1.33156041e-02 -8.87298305e-03 -6.76423907e-02 -2.85371132e-02 -3.07647251e-02 -9.98819172e-02 +9.40244738e-03 -8.01600814e-02 +4.30650488e-02 +3.90568636e-02 -9.65035036e-02 -5.99620827e-02 +1.49480820e-01 +6.64051548e-02 +4.83815819e-02 +1.20326214e-01 +4.15749103e-02 -1.68050796e-01 -1.26589313e-01 +3.15148495e-02 -3.51727307e-02 +6.73043728e-02 -6.95961863e-02 -9.88465846e-02 +5.42977229e-02 +2.12992474e-01 -1.02044240e-01 +1.41504541e-01 +4.84405942e-02 +6.76381290e-02 +5.58214374e-02 +9.35317427e-02 +6.47111312e-02 -2.24280953e+00 -3.46764326e-02 +1.30198091e-01 +6.66425973e-02 +2.36777067e-02 +6.79064076e-03 -6.18815944e-02 -6.65351972e-02 +9.01417807e-02 +1.45757888e-02 -4.68245298e-02 +1.42790508e-02 +2.34545078e-02 -1.59173626e-02 -1.61103100e-01 -3.15441266e-02 -5.66670336e-02 -9.05679762e-02 -3.55424806e-02 -8.06849003e-02 -7.20978230e-02 -6.17759675e-03 +8.51489510e-03 +2.60473132e-01 -1.48164239e-02 +2.26645116e-02 +5.66589683e-02 +3.61233503e-02 +8.50119889e-02 -4.15522046e-02 +8.33914652e-02 +4.67693573e-03 -8.38045254e-02 -1.22423619e-01 +1.11913998e-02 +2.60040979e-03 -3.92532051e-02 +2.97559239e-02 -3.70327383e-02 -2.80585345e-02 -1.93248019e-02 +5.23432940e-02 +4.36600810e-03 -9.02943015e-02 +1.77584648e-01 -6.05377369e-04 -1.00133739e-01 +4.41973768e-02 -6.92048892e-02 -2.66604535e-02 +1.01427101e-02 +7.79029503e-02 +3.82970512e-01 +6.27500713e-02 +2.64111519e-01 -7.50973541e-03 +2.78621856e-02 +1.48791727e-02 -2.11222358e-02 -9.10853744e-02 -5.07806381e-03 +1.98454019e-02 -2.14021459e-01 +5.51220961e-02 -4.12662290e-02 -9.69591960e-02 +2.36650044e-03 +2.01447913e-03 +4.76402566e-02 -4.69884984e-02 -6.36598766e-02 +3.81598920e-02 -1.02568552e-01 -4.62554581e-03 +1.15909753e-02 -3.65522392e-02 +6.69704936e-03 +1.80966645e-01 -9.42301080e-02 -6.70061335e-02 -1.52721358e-02 +9.47408006e-02 +7.66685531e-02 +1.06371596e-01 -7.07736239e-02 -9.93946195e-02 -2.99169049e-02 -1.92224085e-01 +9.72696096e-02 +4.28483188e-02 +5.39097302e-02 +3.88864651e-02 +6.29044622e-02 +7.88242929e-03 -2.84085423e-03 +7.21003935e-02 +8.84428546e-02 +5.37006930e-02 -6.37100935e-02 +1.06536321e-01 -9.28698182e-02 +6.39456585e-02 +3.11818868e-02 -5.51091842e-02 +6.43932670e-02 -3.00115719e-02 -2.87022181e-02 +3.54419276e-02 +1.77317500e-01 -2.73720860e-01 -8.26411322e-02 +1.43010572e-01 +1.19634487e-01 -1.05737582e-01 -9.49963108e-02 -8.78944397e-02 -4.42047790e-02 +3.13950926e-02 +1.05059482e-02 +5.34371696e-02 -1.88058317e-01 -6.91579804e-02 +1.38548836e-01 -1.16707824e-01 -7.98846409e-03 -2.67655682e-03 -1.75036490e-02 +1.15180261e-01 -5.99024929e-02 -4.17424478e-02 -6.20748550e-02 -4.04066220e-03 -4.60613184e-02 +2.80878600e-02 +3.41691859e-02 +2.49820184e-02 -1.04787342e-01 -4.42192890e-02 -1.68707654e-01 -1.99364778e-02 +7.84728155e-02 +9.35512558e-02 -8.91358219e-03 +5.17017357e-02 +1.15254082e-01 -3.41367386e-02 -8.36722031e-02 +2.73546949e-02 +1.74436301e-01 +2.08416637e-02 -4.08983007e-02 +1.47538707e-01 -9.03046578e-02 -9.71080884e-02 +6.89188913e-02 -4.48844135e-02 -1.01387652e-03 +7.57655129e-02 -3.55867028e-01 +7.95876235e-02 +1.27636179e-01 +6.27283752e-02 -2.68343210e-01 -9.65261459e-02 -2.77016166e-04 -8.55614394e-02 +5.75457513e-02 -7.25784227e-02 -3.96550968e-02 -4.76164296e-02 -4.81066070e-02 +1.08764376e-02 +5.76583063e-03 -2.97497418e-02 +2.74900775e-02 +6.30811080e-02 -1.71236679e-01 +1.75737053e-01 -5.53677119e-02 -7.90682584e-02 +7.65122920e-02 -1.02923401e-01 +1.73876565e-02 +7.21110031e-02 -1.56371202e-02 -5.52253649e-02 +1.28109843e-01 -2.39424054e-02 -1.02188759e-01 +1.08788133e-01 -8.82010013e-02 +1.30992934e-01 -4.26405035e-02 -2.00204328e-02 -4.18875217e-02 -4.79163200e-01 +9.89975873e-03 +4.61627617e-02 -2.84087919e-02 -6.62657991e-02 +8.77969265e-02 -5.57532683e-02 +1.74836054e-01 -3.05353906e-02 -9.97265056e-02 -9.86270532e-02 -1.15533605e-01 -6.28785640e-02 +4.20502126e-02 -2.80951932e-02 +2.58989651e-02 -7.05363676e-02 +3.37552535e-03 -6.20485796e-03 +4.24671993e-02 +1.09024877e-02 +1.56254962e-01 -2.58000866e-02 +2.16240380e-02 +6.54808581e-02 +2.85520926e-02 +6.21650256e-02 -8.75134766e-03 -1.50006682e-01 +1.00295022e-01 -8.67971033e-02 -6.16190806e-02 -7.23982081e-02 +1.03645267e-04 +1.11453258e-01 +5.49505115e-01 -9.88252535e-02 -9.86712426e-03 +1.65457964e-01 +8.75149369e-02 -2.83544034e-01 -2.94688493e-02 -1.97000161e-01 +2.20414042e-01 -5.01308311e-03 +2.34359890e-01 +2.50951678e-01 -4.90829460e-02 +6.94859475e-02 -6.14189431e-02 -3.47074308e-02 -2.65461832e-01 +6.21315017e-02 -1.34650514e-01 -1.25553101e-01 -7.47577325e-02 -1.95986852e-01 +7.89628550e-02 -7.33365268e-02 +8.25585723e-02 +1.09869972e-01 +9.66827199e-02 +8.85640010e-02 +8.96129832e-02 +4.46981303e-02 +7.56837130e-02 -7.08402842e-02 -1.93119515e-02 -6.05247766e-02 -1.66538641e-01 +7.19937533e-02 +1.16856962e-01 -1.53097901e-02 -1.74835287e-02 +7.74981529e-02 -1.54913710e-02 -5.51983379e-02 +2.12575383e-02 +4.74689752e-02 -2.52636080e-03 -3.42585564e-01 +9.06542502e-03 +7.65936896e-02 +7.97845066e-01 +2.66012460e-01 -7.69983009e-02 -1.07776828e-01 -1.36999279e-01 -1.12658247e-01 -1.46933571e-01 -1.52191281e-01 -1.02788471e-02 +3.06763686e-02 +4.92125601e-02 +9.15947258e-02 +1.18264243e-01 +1.21294923e-01 +2.87661433e-01 -4.57502566e-02 +8.39553401e-02 +5.87877929e-02 +8.10655355e-02 +7.88277462e-02 +3.97566110e-01 -6.80486336e-02 -2.15719864e-01 -7.54651800e-02 +1.88186005e-01 -6.20595664e-02 +7.09597170e-02 +2.79673971e-02 +1.85580596e-01 +6.48675933e-02 +1.99411765e-01 +6.66777641e-02 -2.04212070e-02 -3.87763008e-02 -7.99205154e-02 -2.71372795e-02 +1.18609536e-02 -1.37697458e-01 -7.74042606e-02 +3.96655966e-03 +7.22273290e-02 -1.15617933e-02 +6.83859512e-02 +2.85011884e-02 -7.15963170e-02 +1.90119922e-01 +1.46861926e-01 +1.59630060e-01 +8.46384317e-02 -2.45989785e-02 +7.02686310e-02 +1.54809924e-02 +2.46413853e-02 +3.61475721e-02 -5.36858626e-02 -1.42903272e-02 +6.69011250e-02 +4.50609550e-02 +1.04484167e-02 +1.00029811e-01 +9.63749364e-02 +9.18845013e-02 +1.90795645e-01 +1.33461654e-02 +1.04086787e-01 -8.34902897e-02 -2.32463628e-02 -1.07405176e-02 +9.76427719e-02 +4.49658744e-03 -4.77121063e-02 -2.80115623e-02 +9.56797302e-02 +5.76649532e-02 +4.88868169e-02 +1.31371900e-01 +4.15892303e-02 +3.88382114e-02 +7.19924644e-02 +8.02591220e-02 -8.11247304e-02 +8.88275951e-02 -5.94309568e-02 -1.15319453e-02 -1.84555367e-01 -1.49435446e-01 -8.65637511e-02 +4.67370637e-02 +4.89287414e-02 +9.60713476e-02 -5.94902448e-02 +9.92769003e-02 +5.93998395e-02 +2.54896320e-02 -6.59656674e-02 -3.65674458e-02 +1.81042310e-02 -7.67691340e-03 +6.19816817e-02 +4.30587351e-01 +3.52919847e-02 +6.21164329e-02 +5.79056144e-02 +7.96598420e-02 +3.13870817e-01 -6.67078197e-02 -5.94550259e-02 +1.23496488e-01 -1.81055069e-01 +2.34432745e+00 +1.06953695e-01 -5.90381632e-03 -5.26941642e-02 -5.39551862e-02 +4.36641984e-02 +6.56158328e-02 +7.00478181e-02 -4.94956747e-02 +6.15621984e-01 +5.41155189e-02 +5.08300781e-01 -2.05706991e-02 +7.14623928e-03 -3.94610688e-02 +6.32146671e-02 -5.43015357e-03 +2.40817908e-02 +4.61170077e-02 +1.35314777e-01 +1.85957495e-02 +5.28369471e-02 +1.26491532e-01 +7.39721116e-03 +8.96812737e-01 +9.52469260e-02 +5.77557422e-02 -8.82996693e-02 +3.61193419e-02 -2.28983015e-02 +9.97970179e-02 -1.28973112e-01 -3.33740003e-02 -2.15385899e-01 -4.90205809e-02 +8.16981890e-04 +3.85298759e-01 -1.62639674e-02 -1.41506316e-02 +6.54012412e-02 -1.05534770e-01 +4.20036167e-01 +3.85730825e-02 +5.98796085e-02 -5.04357405e-02 +6.72828928e-02 +1.23914383e-01 +2.06225850e-02 -6.52174577e-02 -9.22581330e-02 -5.16698211e-02 -5.63404918e-01 -2.02625860e-02 +7.16856048e-02 +8.25485885e-02 +2.81549003e-02 -6.61361441e-02 -2.43721996e-02 +2.16775626e-01 -4.34522554e-02 -7.62157813e-02 -1.61357239e-01 -5.39357923e-02 -7.30725974e-02 +1.34100363e-01 +2.75863567e-03 +6.30374476e-02 -1.11271240e-01 +3.29362676e-02 -7.23027065e-02 +7.08231004e-03 +1.24702558e-01 -5.93630560e-02 -1.76616952e-01 +1.41437516e-01 -1.81565374e-01 -1.63725186e-02 -3.88471410e-02 +4.32223827e-02 +1.33767277e-01 +1.56564489e-01 -2.91468129e-02 +9.27102342e-02 +6.14114366e-02 -6.95584342e-02 +7.94760957e-02 +5.30081503e-02 +3.70407075e-01 +4.39978056e-02 -1.47021443e-01 -2.23038971e-01 +2.79988442e-02 +7.48905465e-02 -7.86043033e-02 +1.67214289e-01 +2.34243304e-01 -3.10592484e-02 -3.99394482e-02 +1.29205026e-02 +6.07992597e-02 +9.92692262e-02 -7.65735134e-02 +1.78512886e-01 +9.90656376e-01 +3.82980146e-02 +2.72398114e+00 -5.07348292e-02 +6.80724606e-02 +3.23461406e-02 +4.39922512e-02 -4.73489566e-03 +5.96666448e-02 +1.71816543e-01 -2.38652341e-02 -5.56566268e-02 -1.14683490e-02 +3.95822041e-02 +3.36575329e-01 -1.63497068e-02 -5.01587987e-02 -4.45030741e-02 +9.82432887e-02 +1.84624735e-03 -6.32723346e-02 -1.48693668e-02 +4.13459316e-02 +3.55735049e-02 -4.56071422e-02 -8.92438591e-02 +1.68708265e-01 -4.04170513e-01 -1.15702800e-01 -6.11287467e-02 +5.90933822e-02 -2.55382974e-02 -1.94951758e-01 -9.55449760e-01 +4.80552204e-02 -3.26954275e-01 +2.44460497e-02 +9.26268985e-04 -2.71942187e-02 -1.03863589e-01 -1.30850375e-01 -1.42399222e-01 -3.11616119e-02 -2.45884344e-01 -8.06255646e+01 -1.46812546e+00 -6.71170726e-02 -1.15349576e-01 -6.91994905e-01 -1.51374042e-01 -5.69243312e-01 -4.05292302e-01 -2.96197444e-01 +2.22282968e-02 -6.04446605e-02 +2.02968717e-02 -1.85411260e-01 -6.49235100e-02 -3.99038047e-02 -9.35987830e-01 +2.10501999e-02 -8.89130123e-03 +2.74556130e-02 -1.94464121e-02 -1.04759177e-02 -2.36349925e-01 -3.08112316e-02 -6.42151386e-02 -1.34410873e-01 -1.14141703e-02 -1.19642973e-01 -6.37991130e-01 -4.16208357e-01 +5.97662404e-02 -3.10935378e-01 -7.87181333e-02 -4.59148020e-01 +4.06651385e-02 -2.41615221e-01 -8.10022652e-02 +2.94328332e-02 +4.38974239e-02 +3.28453965e-02 +1.68933384e-02 -8.87182429e-02 -7.29709506e-01 -3.56658958e-02 +6.06020167e-02 -5.46020925e-01 -7.64369631e+00 -1.02128938e-01 -2.26475403e-01 +2.97935377e-03 -1.71616244e+00 +2.55965143e-02 -1.39270186e-01 -1.74083304e+00 -9.88952294e-02 -3.37590091e-02 -3.83660793e-02 +4.37001325e-02 -2.16943383e-01 -2.23700762e+00 +7.77182952e-02 -1.01795435e+00 -9.21341777e-02 -5.88007942e-02 -2.01625824e-02 -4.91754711e-01 +1.52277900e-03 -4.95749235e-01 +1.14046596e-02 -4.01848942e-01 +1.85552120e-01 -2.52811849e-01 -4.69933040e-02 -5.40727234e+01 -8.13328568e-03 -5.55813134e-01 -8.94631296e-02 +5.13758138e-02 -8.93219486e-02 -6.31278055e-03 -3.66942473e-02 -8.16286504e-01 -7.83788040e-02 -3.04941565e-01 -4.27759476e-02 +2.47267243e-02 -7.27089524e-01 -7.07525015e-02 +4.39453535e-02 -9.10262764e-02 -1.76864231e+00 -5.82406712e+00 -3.22278857e-01 -4.94287796e-02 -6.08872958e-02 -6.99371323e-02 -5.67999855e-02 +3.47210951e-02 -2.44331006e-02 +6.10851049e-02 -1.32024422e-01 -9.99035686e-02 -1.06249824e-01 -1.28750270e-02 +3.82047296e-02 -1.31332412e-01 +4.39797975e-02 -6.03239179e-01 -5.56323566e-02 +6.86315149e-02 -3.61401215e-03 -5.17144799e-01 +8.53596069e-03 -2.02919826e-01 -3.28890800e-01 +2.27126735e-03 -8.65655988e-02 -5.93636222e-02 +9.68200807e-03 -5.85795604e-02 -2.85463125e-01 -1.76827028e-01 -3.34847867e-02 -8.72898027e-02 -8.67249817e-02 -6.27024695e-02 +3.38727459e-02 -8.75355750e-02 -9.70270187e-02 -8.16911697e-01 -3.71686113e-03 +5.61653823e-02 -1.49361312e-01 +9.62577388e-02 -1.02973342e-01 +7.42676929e-02 -7.59673044e-02 +4.25026342e-02 -1.46350968e+00 -6.85515180e-02 +5.13394102e-02 -5.00079282e-02 -4.51517664e-02 +1.93697505e-03 -3.94087386e+00 -6.51201665e-01 +1.03051970e-02 +3.14032957e-02 -1.52519095e+00 -1.52248487e-01 +1.01188704e-01 +2.35771872e-02 -6.96273804e-01 -8.44638646e-02 -4.73667812e+00 +5.10473829e-03 -2.88157705e-02 -1.16613254e-01 +4.74594682e-02 -5.73990270e-02 -5.77051401e+00 +1.61233824e-02 +9.97956283e-03 -1.80716085e+00 +8.60332847e-02 -5.47995996e+00 -5.29669642e-01 +7.43018687e-02 -4.83778231e-02 -3.53531614e-02 -1.40944138e-01 -1.53431702e+00 -1.42437201e-02 -2.76239932e-01 -5.96504547e-02 +4.74605337e-02 -1.41265821e+00 +3.12223588e-03 -1.84203684e+00 -4.28965501e-03 -2.72923931e-02 -1.80791710e-02 -9.42720398e-02 -3.59292068e-02 -1.04025222e-01 -5.36753476e-01 -1.72515847e-02 -1.20727517e-01 +8.80439281e-02 +6.04026876e-02 -1.63904190e+00 +6.73158243e-02 +3.14413495e-02 -1.23824589e-02 -8.75091851e-01 -6.37222528e-02 -4.98078801e-02 -1.31596364e-02 -2.69265249e-02 +5.84571362e-02 -8.66787583e-02 -9.10714120e-02 -1.26941279e-01 -2.56059736e-01 +3.54567729e-02 +7.21539706e-02 +3.58082205e-02 -3.07573962e+00 -1.52608491e-02 -1.59889281e-01 -4.61689867e-02 +1.05364084e-01 -4.37800169e-01 -1.19207241e-01 -3.97214293e-02 -4.00758833e-01 +5.46241514e-02 -1.03098512e-01 -1.96780062e+00 -2.28270125e-02 -4.53287959e-02 -1.27734616e-01 -1.90090999e-01 -7.16362074e-02 +9.50074568e-03 -1.91288531e+00 -9.74700004e-02 -5.24726570e-01 -1.19569734e-01 -4.58464891e-01 -2.81314135e-01 -9.71512347e-02 +8.04329962e-02 -5.14143085e+00 -3.11457664e-01 -9.37962458e-02 -1.08720057e-01 -1.52854277e-02 -2.87855859e-03 -2.98011452e-01 +5.90483397e-02 -3.24004483e+00 -6.58437014e-02 -4.39409703e-01 -9.85160023e-02 -5.68039753e-02 -4.02498469e-02 +2.40751766e-02 -1.46019593e-01 -5.85929298e+00 -3.43579077e-03 +1.72845572e-02 +7.69154504e-02 +1.42901540e-01 -1.08961895e-01 -6.24877140e-02 -1.87860239e+00 -6.07209980e-01 -1.12292552e+00 -7.32533574e-01 -6.12500049e-02 +2.28256937e-02 -8.78805891e-02 -8.73483792e-02 +9.02013108e-02 +2.42146035e-03 -2.51950353e-01 -4.04627115e-01 +3.40488404e-02 -9.01485026e-01 -2.57857025e-01 -1.79571375e-01 +4.67528887e-02 -3.88415344e-02 +1.37225613e-02 -6.24852963e-02 -9.25769284e-02 -3.95659208e-02 -1.53096557e-01 +8.48916844e-02 +9.23684519e-03 -3.97013826e-03 -2.63181686e-01 -3.98421556e-01 -1.50101101e+00 -5.76026067e-02 +5.65651059e-02 +4.83521223e-02 +6.03286177e-02 -1.27135277e-01 -7.68015161e-02 +3.35727260e-02 +2.57335275e-01 -1.39198294e-02 -1.19143330e-01 -9.05494153e-01 -1.71809793e-02 +7.65998438e-02 +1.42769247e-01 +1.67062208e-02 -1.32308319e-01 -1.01126030e-01 +9.52260271e-02 +4.62506302e-02 +3.67712490e-02 -9.10476446e-02 -7.18725845e-02 -9.27398279e-02 -5.69625720e-02 -1.74262095e-02 -5.56672774e-02 -8.07920024e-02 +2.42330730e-02 +1.76627159e-01 -9.92027819e-02 +3.89891700e-03 +4.34503630e-02 +6.85990006e-02 +8.45440701e-02 -3.54119204e-02 +4.53743711e-03 -1.69286244e-02 +6.26889244e-02 -1.06671542e-01 -3.54451798e-02 +6.92790151e-02 -1.50535246e-02 +8.74379370e-03 +6.03606226e-03 +1.81992248e-01 +5.58878668e-02 -2.85204798e-01 +7.18698557e-03 -6.33325428e-02 +9.07338504e-03 -5.00059314e-02 -1.35878648e-03 -3.73602882e-02 -6.05028123e-02 +7.24444613e-02 -2.21637338e-02 +4.77846041e-02 +8.90581682e-02 -3.28729451e-02 -6.40213042e-02 -1.38089672e-01 +1.94446027e-01 -8.45759585e-02 -6.33803681e-02 +1.89375922e-01 +5.45437932e-02 -1.66852325e-01 -2.10747227e-01 +3.35190119e-03 +2.85138246e-02 -3.66436727e-02 +4.43000160e-03 +7.99484551e-02 -3.43879797e-02 +3.17416817e-01 -7.00010434e-02 +4.70732674e-02 +2.15940196e-02 +7.07412465e-03 +6.96351565e-03 +8.44817385e-02 -9.78827998e-02 -2.17398977e+00 -9.79110301e-02 +1.53686523e-01 +8.22549909e-02 +3.90070006e-02 +6.79536089e-02 +1.17763594e-01 -5.97963557e-02 +5.56418113e-02 +4.12235595e-02 -6.50882572e-02 -5.32931499e-02 -5.44599816e-02 -5.84010519e-02 -1.23839669e-01 -9.18553397e-02 +2.57382393e-02 +4.06602658e-02 -5.68281636e-02 -1.84447840e-01 -5.76173048e-03 -9.37978551e-02 +3.43217351e-03 +2.42679119e-01 -4.27903011e-02 -8.35646540e-02 +5.64108491e-02 +2.20500585e-03 -5.96817210e-02 -1.08366124e-02 +3.92689928e-02 +1.52185103e-02 +6.11705855e-02 -1.32113323e-01 +6.62574917e-02 +1.82531163e-01 -8.91286973e-03 +3.19209858e-03 +3.18551622e-02 -3.60812284e-02 +1.34315854e-02 -5.32042943e-02 -2.81449151e-03 -5.63318729e-02 +1.75995290e-01 +1.09866828e-01 -1.26887739e-01 -5.94664589e-02 +4.43121605e-02 -3.20838317e-02 -8.08422044e-02 +1.19610839e-02 +3.12921643e-01 +5.68532124e-02 +3.28238070e-01 +1.46247139e-02 +5.01947440e-02 +7.29980543e-02 -2.66557038e-02 +6.40811548e-02 -2.07521301e-02 -2.61521041e-02 -3.27686250e-01 +5.50782345e-02 -5.39964624e-02 +3.62371393e-02 +5.25630079e-03 -3.00953016e-02 -5.69598638e-02 -3.90327014e-02 -3.67590375e-02 +8.65653530e-02 -8.65842178e-02 +5.41724749e-02 -3.65153439e-02 +1.67042129e-02 -2.36808471e-02 +3.06013852e-01 -1.42665610e-01 +2.56855544e-02 +2.64518261e-02 +1.08277313e-01 +6.94353357e-02 +6.36919886e-02 -3.42733264e-02 -1.32706091e-01 +1.52614238e-02 -4.18086201e-02 +5.63132204e-02 +5.00709713e-02 -4.97553684e-02 +3.94332521e-02 -5.50110303e-02 +6.58678822e-03 +7.04988092e-03 +2.09219959e-02 +1.24931999e-01 -8.85903649e-03 +5.07838316e-02 +1.65841997e-01 -7.15803802e-02 +3.80902737e-02 +1.72223672e-02 -3.50186601e-02 +1.91479579e-01 -3.34390663e-02 -1.75592359e-02 +7.77079836e-02 +3.12700085e-02 -1.92171901e-01 +6.00006257e-04 +1.95335951e-02 +1.06557421e-02 -3.31041999e-02 -9.63080153e-02 -1.30419759e-02 +6.95928046e-03 -3.80275436e-02 -2.65939273e-02 +8.53210613e-02 -1.12236969e-01 -9.38578695e-02 +5.22459000e-02 -6.31790087e-02 -2.85819061e-02 -2.98856013e-02 -2.98537854e-02 +1.13198929e-01 -9.54040810e-02 -9.33792219e-02 -8.05430636e-02 +3.39880325e-02 -6.20202720e-03 -2.72363033e-02 -1.29689071e-02 +1.92358065e-02 -6.71236403e-03 +3.50898392e-02 -1.99287772e-01 -9.01918188e-02 -1.26704192e-02 +6.70211390e-02 +4.60581742e-02 -1.63366925e-02 +6.63851276e-02 -1.15447469e-01 -7.97149986e-02 -7.63109624e-02 +1.81658924e-01 -1.05240762e-01 -1.89363018e-01 +2.48857513e-01 -5.52466139e-02 -5.94102629e-02 +1.82270232e-04 +1.33035565e-02 -8.23192820e-02 -2.05244171e-03 -3.92944396e-01 +4.44532111e-02 +1.40054509e-01 +1.86580904e-02 -3.16081434e-01 -1.01129506e-02 -1.00168303e-01 -3.99297588e-02 -5.85683286e-02 +2.55669542e-02 +1.72670931e-02 -4.88973968e-02 +1.55949022e-03 -9.86340791e-02 -1.27147779e-01 -7.84570426e-02 +5.03651686e-02 +2.96687689e-02 -1.40704662e-01 +1.70057550e-01 +3.65542360e-02 -1.39291827e-02 -9.88563150e-03 -4.54105251e-02 +9.93979722e-02 -2.27317959e-02 +5.69289923e-02 -6.18323758e-02 +1.34678734e-02 -2.30689310e-02 -5.51707931e-02 +9.20826867e-02 -4.95814607e-02 +3.14420283e-01 -2.14513466e-01 +2.13165525e-02 -9.73858982e-02 -5.65367401e-01 -8.51240605e-02 +8.41074158e-03 -7.11705461e-02 -1.72425918e-02 +1.55631408e-01 +1.84621271e-02 +2.27275088e-01 -3.59619670e-02 +4.04538726e-03 +1.56294405e-02 +4.08514915e-03 +6.22123405e-02 +9.63430014e-03 -6.27922714e-02 -7.72388950e-02 -3.70966010e-02 -6.95294589e-02 -5.43070659e-02 -1.01206400e-01 +5.79370968e-02 +2.61363536e-01 -1.03217649e+00 +1.70543250e-02 -3.86404134e-02 -1.85750052e-02 -6.63390309e-02 -1.39523685e-01 -1.34056464e-01 +6.35076240e-02 -3.28335583e-01 -1.23439036e-01 -8.05298090e-02 -6.76765665e-02 -2.75091305e-02 +6.32435456e-02 -2.07054049e-01 +8.03497210e-02 -3.00459322e-02 -1.06430255e-01 -2.35789940e-01 -8.35887436e-03 -2.60856990e-02 -2.03821957e-01 -8.84861797e-02 -7.31901228e-02 -4.63658832e-02 -1.21590734e-01 -5.40479004e-01 +1.62525641e-04 -5.80288880e-02 -3.38172585e-01 -6.75431490e-02 -1.10215150e-01 -8.07941332e-02 -6.37882501e-02 +1.63287431e-01 -7.03615174e-02 -3.55430208e-02 +4.28589918e-02 -1.55136451e-01 -9.23570991e-02 -1.89035442e-02 +3.30410711e-02 +5.01194745e-02 +2.93301083e-02 +2.61152145e-02 -2.29357198e-01 -1.44647146e-02 -2.38024697e-01 -8.21500923e-03 -1.10115558e-02 -6.66360408e-02 +7.05132633e-02 -6.30005375e-02 +1.62518546e-02 +4.96787652e-02 +1.17826192e-02 +8.63713995e-02 +5.38952313e-02 -1.95563301e-01 +9.92801506e-03 -2.85083186e-02 +2.24668741e-01 -2.32269183e-01 -8.16386715e-02 -8.81820738e-01 +5.02574146e-02 -2.42953753e+00 -6.92965746e-01 -7.72432148e-01 +2.10269261e-02 +5.61915599e-02 -4.64477837e-02 +1.76858250e-02 -1.10366337e-01 +4.43249755e-02 -5.35161346e-02 -5.88949509e-02 +4.41541635e-02 +4.37510610e-02 +9.63028297e-02 -2.50882227e-02 +1.23911120e-01 +2.47056447e-02 -1.33060619e-01 -2.70079672e-02 -3.23991291e-02 +7.53991008e-02 -3.15787690e-03 -6.62435889e-02 -1.72518313e-01 +2.31204871e-02 +1.10677570e-01 -9.54045951e-02 -7.45996088e-02 +3.92694175e-02 -8.32214281e-02 -3.47622819e-02 +5.33744087e-03 +5.56729026e-02 +8.49720910e-02 -5.87406121e-02 -9.61162150e-02 -1.56729245e+00 -8.57786164e-02 -4.09095548e-03 -6.35267571e-02 -2.32777521e-02 -5.15379719e-02 -3.68877477e-03 +8.53381529e-02 +4.88947034e-02 +4.12483290e-02 +3.81754115e-02 -5.36665320e-02 -3.30865197e-02 -5.53243980e-02 +5.74100874e-02 +4.63903509e-02 -1.27097517e-01 -6.78174868e-02 +8.95369798e-02 -2.04256829e-02 +7.49378279e-02 -1.53900320e-02 +3.03188376e-02 -6.33779839e-02 -7.94465840e-02 -9.38403755e-02 -1.96559653e-01 -7.94413611e-02 +1.65129025e-02 -5.75932935e-02 +1.88505407e-02 +4.77318242e-02 +6.36876300e-02 -3.43732029e-01 -3.09163425e-02 -4.93447483e-03 +9.49270576e-02 -3.29145901e-02 +3.59865092e-02 +3.43991593e-02 +5.90568362e-03 +7.85111915e-03 +3.50441062e-03 -2.65777469e-01 -5.01130447e-02 -8.38239565e-02 -2.69749444e-02 -6.76277131e-02 +8.03742465e-03 -1.00740083e-01 -9.07221660e-02 +1.95333101e-02 -1.41284311e+00 -5.46767749e-02 -1.04751661e-01 -6.63020238e-02 -1.58996461e-03 +7.38037080e-02 -2.27549136e-01 -3.29733515e+00 -3.10222078e-02 +6.73047677e-02 -2.60033727e-01 +9.25387070e-02 -5.30413091e-01 -5.76321036e-02 -1.32086784e-01 -1.70053139e-01 +1.14994757e-01 -8.74771848e-02 -5.55360839e-02 -8.03385973e-02 -6.22901283e-02 -4.77461629e-02 -3.40358198e-01 -4.35886644e-02 +5.75636029e-02 +9.84464679e-03 -5.39863156e-03 -5.18570393e-02 -4.64335177e-03 -6.47293255e-02 -6.24927163e-01 -9.35111137e-04 -4.05450836e-02 -2.64877435e-02 +2.42410842e-02 -4.57840003e-02 +8.23987946e-02 +6.71000779e-02 -4.39245068e-02 +8.75530839e-02 +1.57757968e-01 -1.93135306e-01 -1.06125697e-01 -3.85555625e-02 +1.83948372e-02 -1.41994003e-02 -6.34794533e-02 -1.30805463e-01 +4.71189432e-02 -8.68457794e+00 +8.90721008e-02 -1.28672913e-01 +5.72507493e-02 +4.89256307e-02 +2.34397221e-02 -4.73656729e-02 -5.23172677e-01 +5.91559894e-02 +3.58681940e-02 -9.52749476e-02 -2.99238022e-02 +7.54021183e-02 +4.76637930e-02 +2.88630147e-02 -2.55689095e-03 +1.15090944e-02 -1.20139206e-02 -2.87583292e-01 +6.11974373e-02 -4.97637480e-01 -8.61685276e-02 -2.24766266e-02 +6.07349072e-03 -3.02792132e-01 -6.58958182e-02 +5.33398949e-02 -2.09976286e-02 -1.33161545e-01 +5.04134670e-02 -1.28465265e-01 -1.78649926e+00 -2.50003301e-02 -2.11085025e-02 +6.48557171e-02 -3.96352448e-02 -9.59688425e-02 +2.50329990e-02 -4.90719229e-02 -2.48099118e-02 -1.73244849e-01 +4.50006202e-02 +2.17267666e-02 -2.31302343e-02 -9.14439652e-03 +1.07482087e-03 -4.71959209e+00 -3.63129610e-03 -1.00975260e-01 -1.39183879e-01 +5.23887835e-02 +8.04767236e-02 -1.32742941e-01 +7.39105698e-03 -8.96932036e-02 +5.16025722e-03 -7.59184480e-01 -3.86313915e-01 -3.51512805e-02 +2.69073825e-02 -2.16950607e-02 +1.73769053e-02 -1.84672698e-01 -6.41365424e-02 -7.06890002e-02 +1.27782464e-01 -6.46307245e-02 -1.04905725e-01 -9.00792256e-02 -3.44684631e-01 +2.90656406e-02 +1.36567717e-02 +4.19381768e-01 -2.47052889e-02 +4.74364795e-02 -3.13029313e+00 +6.45592660e-02 +1.13785025e-02 +3.44871059e-02 -9.22620704e-04 +9.39559191e-03 -4.31672968e-02 -9.98283774e-02 -1.43329844e-01 -5.21680340e-03 +2.79675554e-02 -3.01525230e-03 +8.70522112e-02 +8.81060362e-02 -2.48935930e-02 +8.66247639e-02 +5.75521924e-02 -1.94487479e-02 -6.01440556e-02 -3.58495787e-02 -1.20350912e-01 +1.08041458e-01 +2.71454483e-01 +6.06311187e-02 -2.88514812e-02 +4.85805459e-02 -1.75998590e-04 +1.95898656e-02 -6.49183989e-02 +7.47236833e-02 +1.10562600e-01 +6.86110929e-02 +4.05230522e-02 -2.32173875e-01 +4.13411409e-02 -1.14537597e-01 +5.09252064e-02 -4.03419398e-02 -6.16451874e-02 -1.17533403e-02 -1.17596343e-01 +2.48099286e-02 -9.35235843e-02 +2.59519666e-02 +1.65439639e-02 +1.38711914e-01 +6.58004805e-02 -1.76764891e-01 +2.39246979e-01 +8.20946917e-02 +7.12524951e-02 -1.18265249e-01 -3.55008096e-02 -9.90896523e-02 -9.34857279e-02 +6.59483820e-02 -4.43119377e-01 -3.74430120e-02 +1.62636954e-02 -5.78705631e-02 -2.37926701e-03 +4.02258262e-02 +1.09200235e-02 -2.00917739e-02 +1.07688978e-01 +9.53707173e-02 -1.30548656e-01 +1.23492964e-01 +7.21971840e-02 -2.83676326e-01 +8.80005769e-03 +1.02593966e-01 -3.63566913e-02 -2.79302690e-02 -3.37935351e-02 -6.35146350e-03 +5.86357526e-02 +4.71355803e-02 +4.24891561e-02 -6.91591948e-02 -2.81288058e-01 -4.65890355e-02 -4.59324755e-02 -6.89584091e-02 +2.44334668e-01 -3.02369520e-02 -1.34469330e-01 -7.03800023e-02 +1.04620889e-01 +6.71171099e-02 -2.05842495e-01 -4.43068147e-02 -4.33083400e-02 -5.45441844e-02 +5.51835410e-02 -4.00953926e-02 -1.04549285e-02 +5.68746915e-03 -6.81023821e-02 -7.41097517e-03 +1.17727906e-01 -7.53090680e-02 +6.87515363e-02 +6.57853559e-02 +3.87765747e-03 +3.19014452e-02 +9.67407301e-02 -5.59751019e-02 -1.58825278e-01 +6.33943751e-02 +9.97553170e-02 +1.24795139e-01 +5.69452904e-02 +1.33869961e-01 +5.74084409e-02 -2.82945130e-02 +1.73667129e-02 +3.95112187e-02 -6.40010759e-02 -1.17739797e-01 -2.37293728e-02 -2.31148973e-01 +1.84885561e-02 -5.88125102e-02 -6.66783154e-02 -5.28325923e-02 +4.19845618e-02 +2.33841147e-02 -2.74970401e-02 -2.65715253e-02 +1.45018697e-02 -8.20130035e-02 +6.04525991e-02 +1.11678941e-02 +9.68499258e-02 +8.50273296e-02 +8.89423564e-02 +8.37676674e-02 +8.51932317e-02 +1.01517625e-01 -8.16405267e-02 -7.85318241e-02 +2.81715915e-02 +1.28805816e-01 -7.43901059e-02 +5.27801178e-03 +2.19983738e-02 +6.53763339e-02 -2.96138041e-02 -4.68762778e-03 +1.05053626e-01 +1.48188695e-01 -1.53052807e-01 -2.29774993e-02 +8.68769363e-02 -7.77434260e-02 +6.13218918e-02 +3.04245651e-01 +1.29313499e-01 +1.74774423e-01 +5.39543480e-03 +5.65184355e-02 -5.69407716e-02 +7.60984868e-02 +7.21896812e-02 -2.49918550e-02 +9.54093039e-02 -1.49372607e-01 -2.43447796e-01 +8.76989588e-02 -1.64217204e-02 +5.59627032e-03 +3.28654610e-02 +1.04074024e-01 -2.05795188e-03 +3.67579944e-02 -7.56652355e-02 +5.49685881e-02 -6.27109185e-02 +2.70352811e-02 +7.82332662e-03 +6.16887920e-02 +2.25104526e-01 +1.96838342e-02 +8.60059187e-02 +5.01854941e-02 -6.04638597e-03 +1.78663060e-01 +2.69621819e-01 +3.97067629e-02 -7.52098113e-03 -1.58293903e-01 +1.65517882e-01 +2.28945576e-02 -7.36163855e-02 -5.42115271e-02 -6.82763085e-02 +1.35726025e-02 +2.49625891e-01 -1.72936283e-02 -2.12017670e-02 -1.02120265e-01 -1.77212339e-02 +4.81388122e-02 +5.41736372e-02 +4.16555302e-03 +7.11183175e-02 +6.25025705e-02 +4.99387383e-02 -1.01841062e-01 +7.39070447e-03 -1.62085760e-02 +1.77769512e-02 +1.78074930e-02 -1.14868030e-01 -2.22823070e-03 -1.97200496e-02 +1.83312103e-01 +1.39012397e-03 +7.55358534e-03 +2.76839565e-02 +1.40600614e-02 -2.56407466e-02 -1.81490421e-01 +9.12685394e-02 +9.40621346e-02 -9.19167511e-03 +1.30111903e-01 -3.62595245e-02 +3.00059821e-02 -3.40838954e-02 +7.90516753e-03 -2.50024945e-01 -3.33134644e-02 +1.25776809e-02 +8.26243758e-02 +4.69290428e-02 -1.72564597e-03 -4.65130061e-02 +9.12504941e-02 +8.00657645e-02 +1.08509501e-02 +5.59301786e-02 -1.57475829e-01 +5.41245714e-02 +2.30254363e-02 +2.99281105e-02 -3.16794291e-02 -2.59086620e-02 +1.77604005e-01 +1.17246576e-01 +7.18298852e-02 +7.16767460e-02 -6.38790950e-02 -6.54985160e-02 +8.74677524e-02 -2.22679805e-02 -8.15558359e-02 +8.69959779e-03 -1.49441615e-01 +8.23155642e-02 +1.02381997e-01 -2.59583909e-02 +3.48259807e-02 +5.06777391e-02 -3.62267584e-01 +1.03380956e-01 -4.20269579e-01 +1.26436970e-03 -3.63925211e-02 -2.77623180e-02 +1.18443884e-01 +5.93947200e-03 -2.58028418e-01 +1.18179172e-01 +1.33378893e-01 -2.74275802e-02 +1.19256765e-01 +8.86151288e-03 +2.24272087e-01 -7.14454800e-02 -4.34624963e-02 +1.61486983e-01 +9.05966982e-02 -8.24692026e-02 -6.26851097e-02 -2.64991773e-03 +1.72783196e-01 +6.89994693e-02 +7.32796565e-02 -6.00643232e-02 +1.40423581e-01 +1.62498072e-01 +1.00183919e-01 +1.17678128e-01 +3.18871327e-02 -9.27854851e-02 +1.08578071e-01 +8.25785771e-02 +9.71794594e-03 +9.56736684e-01 +1.00242980e-01 +8.58339891e-02 -3.61659117e-02 +1.87447686e-02 -1.34965882e-01 -5.75183816e-02 -7.66561478e-02 +4.64241654e-02 +9.44307670e-02 -6.83515221e-02 +6.77989274e-02 -1.37398019e-02 +7.07099913e-03 +5.13663553e-02 +2.58480851e-02 +5.20833768e-02 +5.41576780e-02 -6.99865445e-03 -6.97052702e-02 -1.95387006e-01 +2.45318376e-02 -1.55829358e+00 -1.26271009e-01 +8.83641616e-02 +7.70590827e-02 -1.40116727e-02 -1.22185253e-01 -8.31161141e-02 -7.47598633e-02 +2.43366972e-01 -5.16577847e-02 -1.14207186e-01 -9.77258980e-01 +4.51293550e-02 +1.00588305e-02 +2.25974053e-01 +1.43944593e-02 +2.32312102e-02 -1.64512582e-02 -7.59675056e-02 +2.30946336e-02 +8.75158906e-02 -4.63718958e-02 +3.71253155e-02 -4.20790724e-02 -8.55314955e-02 +2.07299795e-02 -5.04807942e-02 +5.73034175e-02 +3.22794057e-02 +2.23287538e-01 +1.33886533e-02 -9.29138437e-02 +1.55109346e-01 -7.08938166e-02 +1.25690088e-01 +1.63935069e-02 -6.21057898e-02 -8.89617875e-02 -3.66714932e-02 -5.36381118e-02 +5.15704229e-02 +5.64872324e-02 -4.54588644e-02 +4.52886857e-02 +1.12379149e-01 +2.13162601e-01 -8.62660538e-03 -2.12819755e-01 +2.38629207e-02 +8.79133400e-03 +6.99425414e-02 -7.47659355e-02 -1.94087811e-02 -7.35952854e-02 +7.16068149e-02 -9.76568758e-02 +4.81983088e-02 -8.87519941e-02 +6.02568835e-02 -2.68629044e-02 +4.77946410e-03 -1.32470757e-01 +2.31165469e-01 +4.77834754e-02 -4.81461324e-02 +1.60281107e-01 -6.25103265e-02 -1.84234917e-01 -1.43599078e-01 -8.64998158e-03 +1.40711004e-02 -1.75604373e-02 -7.20259026e-02 +4.30265293e-02 -8.85742605e-02 +2.28611469e-01 -4.39671203e-02 +2.74716765e-02 -1.07738048e-01 -3.65963802e-02 +2.98742503e-02 -6.05338924e-02 +1.82443131e-02 -2.31095600e+00 +2.97390688e-02 +1.11280680e-01 +1.00709163e-01 +4.02257033e-02 -9.49541926e-02 -4.91834059e-02 -9.72505435e-02 +3.97598445e-02 -1.17444117e-02 -1.95910670e-02 +7.78388083e-02 -6.89614564e-02 -3.27127799e-02 -2.93421596e-02 +5.23024127e-02 +6.58154814e-03 +8.37929994e-02 +6.40727282e-02 -1.70040995e-01 +8.75293836e-02 +4.55044694e-02 +4.66661155e-02 +2.35513821e-01 +5.93936183e-02 +8.05822089e-02 -4.04133424e-02 -4.24318351e-02 -1.54728303e-02 +3.32301855e-02 -6.87709004e-02 -7.04604015e-03 -3.29175480e-02 -1.25139788e-01 -1.03231505e-01 +1.45528957e-01 -8.69020894e-02 +5.93971089e-02 -8.00441355e-02 +7.06153363e-02 -8.22526142e-02 +6.84452727e-02 -2.89440178e-03 +1.21230530e-02 +1.49460003e-01 +1.06436625e-01 -6.10985933e-03 -1.25678256e-01 -9.28120539e-02 +3.31468917e-02 -2.19811574e-02 +8.62001255e-02 +3.04606110e-01 -4.14138567e-03 +3.91518980e-01 +9.62377191e-02 -3.72736976e-02 +7.13212341e-02 +1.74062755e-02 -8.56628045e-02 -9.33400020e-02 +7.07179010e-02 -1.74252704e-01 +1.48019016e-01 +1.59511380e-02 -6.67582918e-03 +1.80127937e-02 +5.61422855e-02 +6.97035939e-02 -8.85755755e-03 +6.62508383e-02 +5.75575344e-02 +4.19806689e-02 +6.22677132e-02 +6.46491498e-02 -6.38942122e-02 -1.56407535e-01 +2.13379174e-01 +2.08679102e-02 +9.11890995e-04 -6.48600534e-02 +2.59423077e-01 +1.29314929e-01 +6.39253408e-02 -2.12161690e-02 -7.61591867e-02 -1.53251523e-02 -9.89968479e-02 +1.23146676e-01 -2.65297573e-02 +5.36417067e-02 +1.92201436e-02 -1.43290944e-02 -6.17923960e-02 +7.99467862e-02 -5.25327139e-02 +1.01862028e-01 +2.62450818e-02 -7.28783384e-02 +2.08211511e-01 +7.09690303e-02 -2.82874499e-02 +9.17161852e-02 +2.17609052e-02 +1.52036294e-01 -8.52814782e-03 -9.73403379e-02 +3.43345143e-02 +1.43928468e-01 -2.12377638e-01 +8.14887509e-02 +7.33739883e-02 +5.21879233e-02 -5.05999438e-02 -5.02635203e-02 -2.94071827e-02 +7.75218830e-02 -2.60676797e-02 +9.94074866e-02 +4.00587171e-02 -1.35034487e-01 -1.87127814e-02 +1.83651432e-01 +3.88101004e-02 -4.19806615e-02 +5.06154858e-02 -9.15762484e-02 +1.34591877e-01 -8.30556154e-02 +6.51792437e-02 +5.07832728e-02 +3.52193676e-02 -6.83140755e-02 +3.02071311e-02 -4.36638296e-03 -4.03942540e-03 -1.10959969e-01 -5.81704872e-03 -1.67340785e-01 -5.32414615e-02 +2.90577225e-02 +1.02605512e-02 +4.30170707e-02 -1.02007262e-01 +1.13760710e-01 +3.56543921e-02 +2.75887772e-02 -8.36896151e-03 +1.37840614e-01 -1.60513334e-02 -1.01010852e-01 +1.61693439e-01 -4.76682037e-02 +3.16176913e-03 +1.12844676e-01 -9.77460369e-02 -3.47156986e-03 +1.98628477e-04 -4.37737197e-01 -3.23097669e-02 +1.64071873e-01 +2.34359894e-02 -3.43026280e-01 -8.91988799e-02 +1.76388491e-02 -1.72749870e-02 -7.97035247e-02 -1.11508362e-01 -1.18461773e-01 +9.10003856e-03 -4.67269644e-02 +7.96759278e-02 -1.23588713e-02 -2.25970382e-03 +2.36230008e-02 -5.32503016e-02 -1.83724195e-01 +3.27673912e-01 -6.78625256e-02 -3.33389640e-02 +3.96661200e-02 -7.94042051e-02 +6.82054367e-03 +8.52584168e-02 +3.09426617e-03 -5.38852327e-02 -3.43006477e-02 +6.37916028e-02 +1.51961287e-02 +2.31720239e-01 -1.14120901e-01 +2.20942542e-01 -1.15872517e-01 +5.08667678e-02 +2.24139020e-02 -5.96181452e-01 -1.87505689e-02 -2.98871994e-02 -7.89404660e-02 -6.09907135e-03 +1.49516702e-01 -7.93060511e-02 +2.14436203e-01 -3.55672427e-02 -3.16358954e-02 -6.16829172e-02 -5.40008955e-02 -7.17642903e-02 -4.92952950e-02 +3.94288339e-02 +3.72875780e-02 -1.31886363e-01 -1.10516641e-02 -3.07247490e-02 +3.80399153e-02 +6.13948740e-02 +1.24820992e-01 +5.52833080e-02 +3.96969393e-02 +5.51268458e-02 +3.92244011e-02 -4.10512090e-02 +5.51256239e-02 -1.14957713e-01 -5.39639257e-02 -5.51895276e-02 -4.86636534e-02 -4.45131585e-02 -1.25016168e-01 +4.30183038e-02 +5.35427690e-01 +1.94409527e-02 +1.28187397e-02 +1.60704166e-01 +7.75042772e-02 -3.18761230e-01 +1.81981307e-02 -1.61204025e-01 +1.80962726e-01 -3.42359617e-02 +1.14479579e-01 +2.01793104e-01 -1.55818895e-01 -8.51999745e-02 +9.25920997e-03 +4.07938026e-02 -1.61109090e-01 +2.11137254e-02 -3.71930115e-02 -2.10865796e-01 -2.90532447e-02 -2.94300616e-01 -3.71095166e-02 -8.15794915e-02 -6.52350858e-02 +5.73623106e-02 +3.26273553e-02 -8.05816650e-02 -8.14917237e-02 +6.45741597e-02 -6.75826967e-02 -6.52778074e-02 -4.40882985e-03 +1.28217563e-02 -8.23482051e-02 +1.03504233e-01 +6.76662028e-02 -3.39921713e-02 +9.56456065e-02 +4.32637036e-02 +3.31515446e-03 -4.10222150e-02 +4.72669043e-02 -4.41080369e-02 -1.32521754e-03 -3.63326937e-01 +5.15163057e-02 +1.01603329e-01 +6.76792741e-01 +3.97910535e-01 +2.25530751e-02 -1.38246462e-01 -1.06541276e-01 -4.50530536e-02 -2.39239912e-02 -1.57656983e-01 +5.98275773e-02 -6.44287094e-02 -8.82138088e-02 +7.05179945e-02 -4.46321033e-02 -7.91849103e-03 +3.16336066e-01 -4.28528488e-02 -4.97861532e-03 +2.50330027e-02 -1.14254719e-02 -4.76600453e-02 +3.48410934e-01 +2.78050154e-02 -1.00839853e-01 +2.43941117e-02 +8.76440704e-02 -2.20048845e-01 +6.07655458e-02 -3.84242162e-02 +1.67692646e-01 -6.90639168e-02 +3.08192044e-01 -7.03697151e-04 -6.97211027e-02 -6.02472052e-02 -2.56279130e-02 -7.45480284e-02 -2.30885092e-02 -5.19628562e-02 -1.33633673e-01 -7.15724798e-03 +1.36664335e-03 -1.66505963e-01 +1.20191388e-01 +8.26137215e-02 +6.02061264e-02 +2.01582581e-01 +1.08091906e-01 +1.75601184e-01 -7.28096813e-02 +7.24684745e-02 -6.84553608e-02 +3.74229811e-02 +1.45620676e-02 +5.96782565e-02 +2.36792881e-02 +6.06854334e-02 +6.65835221e-04 +6.26754612e-02 +8.83199051e-02 +3.61349769e-02 -3.55898738e-02 -3.51444595e-02 +1.36272609e-01 +6.11106418e-02 -8.16538110e-02 -3.29669937e-02 -8.07560533e-02 +5.35268150e-02 +4.37072366e-02 -1.02641888e-01 +8.01048949e-02 -9.11765024e-02 +8.98444839e-03 +9.24860686e-02 -2.33603511e-02 +1.43621564e-01 +1.48660257e-01 -3.71803157e-02 +7.16973394e-02 +1.03668869e-03 +1.30589446e-03 -8.22034031e-02 +4.74751145e-02 -8.67017284e-02 -1.32180914e-01 -2.55917460e-01 +5.03988639e-02 +7.88807496e-02 +6.95753917e-02 -1.28867393e-02 +7.48292357e-02 -4.57558706e-02 +1.26993796e-02 -4.49740477e-02 -3.46979052e-02 +8.18270892e-02 -6.00762926e-02 +7.06059393e-03 -1.98508278e-02 +4.35401022e-01 -1.30290717e-01 -7.03986883e-02 +2.42182855e-02 +1.36916144e-02 +2.04801202e-01 +1.82296336e-02 -1.82257146e-02 +1.88178957e-01 -1.15015216e-01 +2.37283325e+00 +2.41270605e-02 +4.19553742e-03 -7.37490430e-02 -7.45802149e-02 +3.08186142e-03 +2.01451227e-01 +6.85893595e-02 +3.12173404e-02 +5.03088593e-01 -7.13521540e-02 +5.33038735e-01 +2.51861801e-03 -2.69311536e-02 -5.98855130e-02 +9.97293461e-03 +2.35702898e-02 +6.47572875e-02 -4.09790426e-02 +5.73275946e-02 -2.95776688e-02 -7.84498751e-02 +1.09223895e-01 +6.25201762e-02 +9.59558189e-01 -7.11165890e-02 +9.97331291e-02 +1.39697362e-02 +7.59970024e-02 +3.79356965e-02 -5.20725213e-02 -1.60325706e-01 +4.39066663e-02 -6.30077422e-02 +8.01864266e-02 -7.44913444e-02 +3.76236498e-01 +8.10408294e-02 -9.03916359e-03 +1.98201835e-02 -2.30503693e-01 +4.93606269e-01 +3.18275169e-02 -2.96779089e-02 -5.78309484e-02 -4.72308770e-02 +9.00937095e-02 -3.49606127e-02 +8.03025346e-03 +8.82697757e-03 +4.24242113e-04 -5.67512035e-01 +3.15810926e-02 +2.20612865e-02 +5.52207306e-02 -1.84624400e-02 -5.17074354e-02 -9.94833782e-02 +9.59767476e-02 -2.22998019e-02 -7.35650510e-02 -1.26853496e-01 +8.48211199e-02 +9.41832438e-02 +1.10070482e-01 +1.05173653e-02 -5.70812961e-03 -1.65497854e-01 -3.27300504e-02 -7.97314867e-02 +2.23700479e-02 +2.38889486e-01 +8.98584630e-03 -1.99061230e-01 +7.81273935e-03 -2.31877834e-01 +3.19656841e-02 +3.84609886e-02 +9.22096819e-02 +8.04803893e-02 +7.78549984e-02 -1.57547504e-01 +7.77932778e-02 +4.27475199e-02 -4.32369635e-02 -1.91599838e-02 +8.81342217e-02 +4.14662242e-01 -6.17962964e-02 -2.30050787e-01 -1.10117972e-01 -5.27232103e-02 +6.58413321e-02 +8.51504654e-02 +1.99256256e-01 +2.24358931e-01 +3.42410095e-02 -6.45664707e-02 -6.46330342e-02 -1.49269560e-02 +1.19870946e-01 +2.84280870e-02 +6.98136464e-02 +1.10405838e+00 +3.90476137e-02 +2.76081181e+00 -3.68087459e-03 +5.01500554e-02 +4.46547307e-02 -3.61396633e-02 +2.76638493e-02 +3.19261663e-02 +8.78810361e-02 +1.04376182e-01 +2.20785607e-02 +1.03157304e-01 +6.45088702e-02 +3.56968522e-01 -8.46755877e-02 -6.17628396e-02 -6.88628852e-02 +5.48896715e-02 -3.26944441e-02 +6.84076846e-02 +5.29781096e-02 +5.09318002e-02 +8.63141045e-02 -2.38720197e-02 -1.08947255e-01 +5.71399815e-02 -3.14158529e-01 -2.34375000e-01 -2.67059747e-02 -8.37235153e-02 +5.07125966e-02 -2.93277860e-01 -9.73586261e-01 +3.74841504e-02 -3.96043211e-01 +1.70642585e-02 -1.20384455e-01 -1.29738554e-01 -1.57518685e-01 -2.08074510e-01 -1.87500089e-01 +4.13464047e-02 -1.99622884e-01 -8.04832993e+01 -1.29457808e+00 +5.27074421e-03 -7.81077594e-02 -5.92825353e-01 -3.32018621e-02 -5.22421062e-01 -3.77660990e-01 -1.80338725e-01 -4.18044440e-02 -3.06868814e-02 -7.78189003e-02 -8.32735598e-02 +7.76821189e-03 -1.49569944e-01 -9.32942867e-01 -6.82427362e-02 +1.20651526e-02 +4.45461385e-02 -6.29134476e-02 +5.28386533e-02 -1.65267885e-01 -1.02653824e-01 -5.37282638e-02 -1.01889439e-01 +1.04827173e-02 +5.64193428e-02 -5.87760508e-01 -4.42367852e-01 -5.49947210e-02 -3.40659410e-01 +7.13650137e-02 -4.80568469e-01 -5.72656561e-03 -1.66000143e-01 +2.43340265e-02 -5.60240895e-02 -7.35603273e-02 +2.20487658e-02 -1.03097431e-01 -6.52177483e-02 -6.11864328e-01 -2.72098053e-02 -1.08900070e-02 -6.47405028e-01 -7.70980263e+00 -4.55967858e-02 -3.25194627e-01 -7.34693483e-02 -1.72829866e+00 -1.47459432e-02 -2.14541823e-01 -1.67916238e+00 -7.97690004e-02 -5.96470162e-02 +4.86234948e-02 -1.03570573e-01 -1.41368330e-01 -2.18402290e+00 -9.38356072e-02 -9.72297549e-01 +5.42408675e-02 -5.22567630e-02 -5.10180928e-03 -4.50893670e-01 -4.43647318e-02 -5.54838955e-01 +5.66104092e-02 -5.31329095e-01 +2.27861807e-01 -1.45543203e-01 -5.99189401e-02 -5.41252213e+01 +7.69403204e-02 -5.35039544e-01 -3.70030180e-02 +7.57986903e-02 -4.83422279e-02 +2.70720460e-02 -1.10873595e-01 -9.22085404e-01 -2.06947118e-01 -3.39849859e-01 +1.04152225e-02 -9.31784883e-02 -5.72697759e-01 -1.61494706e-02 +6.32548630e-02 -6.57507107e-02 -1.67617285e+00 -5.88056755e+00 -3.24666291e-01 -1.01456814e-01 -5.86799122e-02 -1.39081478e-02 +5.46869189e-02 +7.22291619e-02 -9.95203927e-02 +5.23832254e-02 -9.49274935e-03 +5.04865870e-02 -2.14638725e-01 -2.63802595e-02 +2.00183839e-02 -2.51401603e-01 -7.61266053e-02 -5.24669707e-01 +4.44940664e-02 +7.04439031e-03 -5.94891608e-02 -5.20324051e-01 -2.47576414e-03 -1.35992914e-01 -3.41513693e-01 +4.72715683e-02 -3.12195416e-03 -6.32417575e-02 +1.23000396e-02 -1.41056851e-01 -3.58580798e-01 -2.69766152e-01 +6.45604432e-02 -1.27157085e-02 -4.67285402e-02 +5.80327623e-02 -1.24980502e-01 -7.03764260e-02 +8.10996071e-02 -7.72483289e-01 -1.45874903e-01 +1.78785920e-02 -1.34260640e-01 +6.50500357e-02 -2.18412355e-02 -6.14920557e-02 +7.14724436e-02 +8.54726043e-03 -1.39916122e+00 +9.37592424e-03 +3.01586743e-03 +2.59352587e-02 -8.62783287e-03 -1.27879366e-01 -4.06362009e+00 -6.65202558e-01 +8.12185705e-02 -1.07848635e-02 -1.65487182e+00 +1.57278799e-03 +1.90794915e-01 +3.87549140e-02 -6.05867803e-01 -1.43586218e-01 -4.66495275e+00 +2.92256325e-02 -5.37429713e-02 +2.37866603e-02 -3.80231440e-03 -1.11293092e-01 -5.68487501e+00 +5.18785417e-03 +1.45707279e-02 -1.75887036e+00 -6.81769326e-02 -5.62615633e+00 -4.32559639e-01 -2.19703540e-02 -2.21317150e-02 -7.68031329e-02 -1.02838859e-01 -1.59447896e+00 +1.19788796e-02 -2.28323653e-01 +5.92487417e-02 +6.60370886e-02 -1.31759715e+00 +5.27846441e-02 -1.83548951e+00 +2.98970267e-02 -1.89602137e-01 -7.90948644e-02 -2.14757491e-02 +6.67252019e-02 -1.00263588e-01 -3.87282312e-01 +2.60690041e-02 -1.43270388e-01 -3.25113349e-02 +5.92368394e-02 -1.65866625e+00 -4.90284786e-02 -8.64954069e-02 -9.75771770e-02 -9.19535875e-01 -1.02828415e-02 -7.42990747e-02 -1.56552233e-02 -7.34651238e-02 -7.44939446e-02 -9.62702092e-03 -3.43855768e-02 -8.01936314e-02 -2.67396867e-01 +1.72344875e-02 +8.85553956e-02 +6.10838383e-02 -3.23613787e+00 +2.41678022e-02 -3.91578078e-02 +1.35415131e-02 +4.22508605e-02 -5.39859593e-01 -1.23565763e-01 -7.01578557e-02 -5.24560273e-01 +5.46605475e-02 -4.25956696e-02 -1.85300124e+00 -9.08290073e-02 +8.57686345e-03 -1.14788890e-01 -1.48818135e-01 +8.56730342e-02 -5.30897528e-02 -1.93054438e+00 -7.52793327e-02 -5.08978963e-01 -2.29937479e-01 -3.40380996e-01 -3.06049049e-01 -2.35966481e-02 +7.22510889e-02 -5.24580336e+00 -2.58151770e-01 +1.91907436e-02 -9.85653624e-02 -3.82700264e-02 -7.07549974e-03 -2.12388217e-01 -2.61211935e-02 -3.16696286e+00 -5.64207733e-02 -3.69944632e-01 -1.57283515e-01 -9.36950743e-02 -3.94288041e-02 -7.47536346e-02 -1.40148714e-01 -5.80696297e+00 -4.21975367e-02 -1.90024637e-03 -7.16132224e-02 +1.74805328e-01 -2.51469344e-01 +4.48750891e-02 -1.89566791e+00 -6.27369583e-01 -1.02964377e+00 -6.09065056e-01 -7.31308088e-02 -2.19570249e-02 -1.04970336e-01 -3.75218764e-02 -4.48462665e-02 +1.86274596e-03 -1.68971345e-01 -2.40218565e-01 -4.92714308e-02 -9.29079354e-01 -2.13542178e-01 -2.67075092e-01 -6.20766617e-02 -4.26386595e-02 -3.72668542e-02 -6.87369257e-02 +8.10959563e-03 +6.32078126e-02 -1.14935562e-01 -3.63598205e-02 +1.25645250e-02 -6.32647425e-02 -2.05736220e-01 -3.73433322e-01 -1.55982149e+00 -3.01454663e-02 -8.68699029e-02 -7.15800002e-02 -1.97493657e-02 +1.05094705e-02 -2.96579655e-02 -6.94035068e-02 +2.56543070e-01 +3.49516305e-03 -7.26499185e-02 -8.14516425e-01 -5.78488261e-02 +4.78831716e-02 +1.46484345e-01 -4.94875312e-02 -7.32083768e-02 -1.28046721e-01 -3.24115269e-02 -1.39347101e-02 +1.86690450e-01 -1.68300137e-01 -6.91586360e-02 -3.75435911e-02 -1.67756632e-01 +7.90487677e-02 -1.45720616e-01 -6.34487569e-02 -1.00148953e-01 +1.58221975e-01 -1.29818879e-02 -1.68034993e-02 +1.08890355e-01 +8.07141140e-02 +7.98622221e-02 +2.74208356e-02 -8.96525383e-02 -4.29617129e-02 +7.01317862e-02 -2.58086324e-02 +8.93079117e-02 +3.86217535e-02 -7.69307166e-02 -2.58146767e-02 -2.51051392e-02 +2.19320238e-01 +6.06233776e-02 -1.17548332e-01 -1.33972876e-02 -1.18738726e-01 +4.62150276e-02 +4.29506674e-02 +5.12773767e-02 +4.36697640e-02 -5.88296838e-02 -1.09007685e-02 -1.39852790e-02 +3.23442630e-02 +1.19646296e-01 +6.20671324e-02 -9.06192735e-02 -8.45688488e-03 +1.94895595e-01 +7.08144754e-02 +2.06016470e-03 +9.59930420e-02 +6.12337552e-02 -4.84912954e-02 -1.84424996e-01 +1.55738741e-02 -8.01537111e-02 +2.82631628e-02 +8.06962401e-02 +4.07613516e-02 +2.11217464e-03 +2.93832690e-01 -5.97554259e-02 -7.61798862e-03 +6.72986507e-02 -6.95414767e-02 +1.29081914e-02 +7.99359158e-02 -5.69363087e-02 -2.24084973e+00 +6.72090426e-02 +1.79713175e-01 +1.17066279e-02 -1.11272283e-01 -4.29841541e-02 -5.74421212e-02 +5.78112341e-03 +1.05023257e-01 +3.12271398e-02 +5.91635657e-03 -3.64025752e-03 +1.35541623e-02 -3.77618475e-03 -4.24569771e-02 -2.30724849e-02 -1.01541772e-01 +5.22645675e-02 +2.35018767e-02 -1.65412441e-01 -3.12938057e-02 -6.70479727e-04 -4.79090512e-02 +2.51226723e-01 +3.68876867e-02 -7.99953118e-02 +3.74326333e-02 -9.05288681e-02 +7.57158846e-02 -1.72978770e-02 -8.65902845e-03 +2.07524225e-02 +1.05614392e-02 -6.61125854e-02 +2.63650175e-02 +1.25614062e-01 -6.79883510e-02 -6.91296756e-02 +3.48376930e-02 +1.25281969e-02 -4.47973348e-02 +8.29216167e-02 +7.86937624e-02 -8.87552127e-02 +9.47343633e-02 +4.74689268e-02 -4.97240052e-02 -8.75073820e-02 -9.39273760e-02 -5.13170548e-02 -5.41794300e-02 -6.47187009e-02 +2.81526774e-01 -8.69947672e-02 +2.71060318e-01 +8.20509866e-02 +3.94181311e-02 -3.64598632e-02 -2.73107588e-02 +7.36771375e-02 +3.57293636e-02 -1.84461765e-03 -1.88303426e-01 +3.35982032e-02 +4.19233963e-02 -5.45401610e-02 +1.46530522e-02 +8.08989033e-02 -6.05923720e-02 +6.64409176e-02 -3.80003043e-02 +7.37024471e-02 -1.27686700e-02 -8.12762678e-02 +4.84266840e-02 -3.46622653e-02 -9.66399536e-02 +1.97409466e-01 -1.06667019e-01 -7.32777864e-02 +8.88285935e-02 +2.01882064e-01 -2.81309467e-02 -8.12794641e-02 +4.47553620e-02 -3.84034514e-02 -2.92049348e-02 -1.70244381e-01 +1.19685255e-01 +4.68394943e-02 -4.80624028e-02 +6.83606714e-02 -5.41362204e-02 +6.60634115e-02 +4.75661457e-02 -5.31477779e-02 +1.12409770e-01 -9.23612192e-02 +1.06699867e-02 +2.35814556e-01 -7.70354867e-02 +2.54710205e-02 +7.86704943e-02 -3.23488675e-02 +6.02042414e-02 -5.80152795e-02 -8.93595964e-02 -5.64896390e-02 +5.21054082e-02 -1.49017021e-01 -6.06031790e-02 +1.41219735e-01 +1.05258878e-02 -4.39318903e-02 +6.60016239e-02 -5.57365306e-02 -8.40304233e-03 -8.53735730e-02 +4.88921143e-02 +6.78068921e-02 -1.57921880e-01 -1.58767365e-02 +9.19496492e-02 +3.72698717e-02 -5.74370064e-02 -5.71608031e-03 +1.36900106e-02 +1.17799684e-01 +4.22982499e-02 -3.16597894e-02 +3.52798142e-02 +2.01116838e-02 -6.76111653e-02 -4.28976817e-03 -3.06855608e-02 -6.24151826e-02 -1.22695647e-01 +6.56346902e-02 -1.75681874e-01 -7.92392343e-02 -1.33365225e-02 +6.00240640e-02 +2.56866459e-02 -6.61537051e-02 +1.30628929e-01 +3.24166305e-02 +2.99590663e-03 -9.47010219e-02 +7.56838694e-02 +2.76187528e-02 -5.79064973e-02 +2.21725807e-01 -1.02863275e-01 -9.00607482e-02 +3.68013494e-02 -1.08295843e-01 +1.56651046e-02 +6.28546700e-02 -3.94484848e-01 -5.25721945e-02 +7.95791298e-02 -7.99832568e-02 -3.49058002e-01 -1.47847217e-02 +8.02760124e-02 +4.33834605e-02 +7.13946577e-03 -1.43983327e-02 +1.31745907e-02 -1.07051045e-01 -7.02851936e-02 +3.06012593e-02 -8.13395903e-02 +3.50737907e-02 -6.15913011e-02 -9.13082138e-02 -1.21271990e-01 +2.87639976e-01 +3.83567996e-02 +6.34758128e-03 -5.54950582e-03 -1.70047745e-01 +1.72588184e-01 -5.13397306e-02 -5.32868803e-02 +1.70175526e-02 -2.93193664e-02 -6.74930438e-02 -6.58045560e-02 +1.10250376e-01 +7.84404054e-02 +2.31135145e-01 -1.45217732e-01 -4.74572778e-02 +7.12108463e-02 -5.93454301e-01 -4.25912738e-02 -4.52555791e-02 +1.45793997e-03 -7.65102878e-02 +1.71671987e-01 -2.09671333e-02 +1.57765314e-01 +1.79492719e-02 -8.76855031e-02 -1.37006203e-02 +1.96328908e-02 -4.40337732e-02 +6.45881370e-02 -1.44087048e-02 -1.86738092e-02 -2.13031266e-02 +7.64516592e-02 +2.05701124e-02 +5.26942126e-02 +6.59469217e-02 +1.92845583e-01 -1.03293550e+00 -1.54616103e-01 -4.67954054e-02 -1.19359354e-02 -1.20017640e-01 -2.00532004e-01 -5.00988513e-02 -5.29219285e-02 -4.00117069e-01 -1.45021314e-02 -9.71372575e-02 -5.21289837e-03 -9.21373665e-02 +1.44692600e-01 -2.46574312e-01 +2.29089390e-02 -1.06894813e-01 -5.01209162e-02 -1.20833330e-01 +6.40327930e-02 -8.14969763e-02 -7.56864026e-02 +7.49309966e-03 -8.66644830e-02 +8.23464897e-03 -1.19966269e-01 -6.78188801e-01 +7.25530684e-02 +9.13778134e-03 -2.84163952e-01 -6.24676980e-02 -8.31784979e-02 -1.17957138e-01 +1.61641254e-03 +1.82498977e-01 +1.02222227e-02 +8.08347315e-02 -1.21998135e-02 -1.14098050e-01 -1.42848799e-02 +6.96635917e-02 -1.11613333e-01 -6.01784848e-02 -1.48541750e-02 +1.47852018e-01 -1.91832677e-01 +4.33669761e-02 -2.34700650e-01 +5.94007075e-02 +3.84402182e-03 +6.14588819e-02 -2.42624036e-03 -1.60011798e-02 -1.83452610e-02 +4.04283814e-02 -9.75280926e-02 +7.32608661e-02 -2.77308305e-03 -1.82865173e-01 -7.68734515e-02 -6.20507747e-02 +2.05173507e-01 -2.60713309e-01 -2.32879017e-02 -8.85112166e-01 +7.08695618e-04 -2.50005913e+00 -6.55009925e-01 -7.84764826e-01 +6.37179986e-02 +1.51495794e-02 -8.36237147e-02 +5.35219163e-02 -7.73309171e-02 -1.35937914e-01 -1.12953559e-01 -1.47490250e-02 -6.97962046e-02 -4.79371846e-02 -4.59412374e-02 +4.34146002e-02 +1.14239126e-01 -5.67759983e-02 -1.52774706e-01 -2.48174854e-02 +4.68621589e-02 +1.86190587e-02 -1.66935921e-02 +1.50544876e-02 -2.03286424e-01 +5.30574396e-02 +1.39129475e-01 -1.96769014e-02 -9.38973725e-02 +3.68104130e-02 +4.38010059e-02 -9.48825479e-02 +1.75199389e-01 -3.35008167e-02 +1.17333166e-01 -2.54975613e-02 +2.92279758e-02 -1.43564165e+00 +1.41492877e-02 +2.79004741e-02 -5.23104146e-02 -1.76512942e-01 -8.71248469e-02 -5.45974821e-02 -2.79977769e-02 +7.35551119e-02 +8.69657323e-02 -2.78311484e-02 +4.15685140e-02 -6.28527403e-02 -6.99141845e-02 -1.08904392e-01 -7.46457502e-02 +1.35779427e-02 -5.25958985e-02 +4.37573157e-02 -1.78462490e-01 +5.30683494e-04 -7.61771724e-02 +6.65980801e-02 +7.43635148e-02 -8.82037953e-02 -9.65345874e-02 -1.49853662e-01 -4.03800160e-02 +7.16522634e-02 -9.04901922e-02 +6.72689080e-02 -8.62774774e-02 +5.56520633e-02 -4.81455714e-01 -1.18395321e-01 -1.15488619e-01 +1.56902708e-02 -3.65833454e-02 +5.96373761e-03 -3.46654616e-02 -5.23327887e-02 -8.09498206e-02 -6.10119030e-02 -1.75131932e-01 -1.72297418e-01 -7.11794645e-02 -1.23229418e-02 +6.49610087e-02 +8.84439703e-03 -1.98839381e-02 -9.91834700e-02 -4.30636257e-02 -1.56218374e+00 +1.92024410e-02 +5.55223320e-04 -3.30086537e-02 -5.26496097e-02 -2.43875477e-02 -1.82152405e-01 -3.17467213e+00 -7.42045045e-02 +7.24860430e-02 -8.36170465e-02 +1.40616760e-01 -4.88000304e-01 -7.65306652e-02 -2.17286889e-02 -3.28287706e-02 +1.62999183e-01 -3.22705097e-02 -2.60833874e-02 -1.08476602e-01 -9.27398428e-02 +2.73185819e-02 -3.91208708e-01 +7.48366416e-02 -9.41828489e-02 +1.61112547e-01 -1.34398285e-02 +9.13590640e-02 -7.97872990e-02 +2.17578616e-02 -6.49438083e-01 +9.06896666e-02 -3.12192738e-02 -2.19416618e-02 -1.86961517e-03 -1.42737746e-01 +5.93899051e-03 +1.64965931e-02 +1.43423498e-01 -6.71699569e-02 +1.13699079e-01 -2.37577021e-01 -1.38210863e-01 -5.98024614e-02 -1.22772977e-02 -8.20921138e-02 +4.93062250e-02 -2.30790332e-01 -5.68586476e-02 -8.62495327e+00 +5.89996018e-02 -1.17800478e-02 +1.77279651e-01 +7.91350380e-02 +8.61877501e-02 -8.64389613e-02 -6.36337101e-01 +2.02967271e-01 +6.83875531e-02 -1.82903763e-02 +2.21776068e-02 +3.52743268e-02 -1.13943405e-01 +5.27219810e-02 +3.55802923e-02 +1.62005931e-01 -6.79460391e-02 -2.79481679e-01 +7.39480788e-03 -4.22505617e-01 -7.72168934e-02 +7.94582888e-02 +3.99525873e-02 -2.87302643e-01 -1.23999469e-01 +2.53970493e-02 -2.46705897e-02 -1.96831122e-01 -2.51712762e-02 -9.89066139e-02 -1.79485512e+00 +1.09938690e-02 +9.85990278e-03 +4.32353318e-02 -8.94425064e-02 +7.84335658e-02 -3.62037756e-02 -6.47705644e-02 +5.20336106e-02 -8.56254548e-02 -9.84489843e-02 -4.59984457e-03 -6.32541552e-02 +8.45114440e-02 -8.70087892e-02 -4.73767948e+00 -3.14566828e-02 -6.48191944e-03 +6.09969907e-03 +2.83384398e-02 -4.42686565e-02 -1.06822915e-01 -4.10570726e-02 -7.75442868e-02 -7.48573765e-02 -9.22169566e-01 -2.71900982e-01 +5.29808253e-02 -3.94416861e-02 +7.30133504e-02 +8.09685737e-02 -8.86723399e-02 +7.39106461e-02 -8.55597109e-02 +1.40034735e-01 +7.21077248e-03 -1.09375805e-01 -1.05389960e-01 -3.46745282e-01 +1.25906035e-01 -1.46408021e-01 +4.53539014e-01 +9.76305734e-03 +2.02094615e-02 -3.01176834e+00 +2.12882813e-02 -1.35068847e-02 +5.53874299e-02 -6.24656156e-02 +7.67745674e-02 +1.00493640e-01 +2.41284724e-02 -1.17823206e-01 -2.97587514e-02 +2.98424158e-02 +4.08269390e-02 -2.11229231e-02 -7.49634951e-02 +4.40156460e-02 +3.42942663e-02 -2.63984930e-02 +2.76413895e-02 +8.58910978e-02 +6.42106533e-02 -1.25513703e-01 -7.84980655e-02 -3.07155222e-01 -1.62469894e-01 +3.62245068e-02 +9.46653914e-03 +2.89741252e-02 -2.22001135e-01 -8.26362491e-01 -7.98660889e-02 -4.29887801e-01 +3.50219235e-02 -4.29095142e-02 -8.84646699e-02 -1.72444806e-01 -2.45139018e-01 -1.79170057e-01 -6.83253706e-02 -2.10328326e-01 -8.06000595e+01 -1.33582449e+00 -7.79160038e-02 -8.80431011e-02 -5.34011364e-01 -4.75504808e-02 -6.15597486e-01 -3.34298044e-01 -2.80411541e-01 +9.68075730e-03 -9.82084796e-02 -2.41115559e-02 -1.50199756e-01 +6.39964789e-02 -4.11604531e-02 -8.53428721e-01 -4.51836325e-02 -5.68444058e-02 +2.68023065e-03 +5.85433617e-02 -2.50297431e-02 -2.50885129e-01 -8.36128090e-03 +5.91721125e-02 -6.69672564e-02 +7.10982010e-02 -7.56291747e-02 -5.87428391e-01 -4.53311235e-01 +2.40857601e-02 -3.01943421e-01 +8.47285390e-02 -6.13421321e-01 +2.70410925e-02 -7.75664002e-02 -3.04224547e-02 -1.02921084e-01 +6.74026310e-02 +2.94762515e-02 -1.25784978e-01 -4.02862467e-02 -7.22733438e-01 +3.87503244e-02 -8.47680902e-04 -5.36300182e-01 -7.56113195e+00 +5.90509959e-02 -2.46076271e-01 +1.08779766e-01 -1.62147284e+00 -1.17366761e-01 -2.51917720e-01 -1.59661210e+00 -1.28452731e-02 -4.25858125e-02 +2.37404313e-02 -3.20537910e-02 -1.22097038e-01 -2.10895300e+00 +3.74273807e-02 -1.04349732e+00 +7.72607001e-03 +7.63285020e-03 -4.93738726e-02 -3.39405060e-01 -8.29970688e-02 -5.85482955e-01 -6.44884482e-02 -5.12157321e-01 +1.52959168e-01 -2.60614008e-01 +6.39440864e-02 -5.42218208e+01 -4.20884229e-02 -5.88023186e-01 -6.71119839e-02 -3.51002738e-02 -1.56176556e-02 -2.08981130e-02 +2.33376063e-02 -7.89869845e-01 -1.49298921e-01 -3.35909784e-01 +1.65155157e-02 -6.40504211e-02 -7.03256726e-01 +1.23104155e-02 -1.15453666e-02 -4.76391502e-02 -1.71684122e+00 -5.92167091e+00 -1.84276134e-01 +6.21603727e-02 +4.88407016e-02 -7.57466443e-03 +5.51003776e-02 -8.68430212e-02 +7.09272325e-02 -7.58812021e-05 -2.27288194e-02 -4.63347398e-02 -8.41390938e-02 -8.67507830e-02 +2.60134339e-02 -2.42148101e-01 -5.95896505e-02 -5.54413080e-01 -8.54959339e-02 -4.80787717e-02 -3.44707668e-02 -4.14903492e-01 +2.49592471e-03 -2.63999045e-01 -4.29735333e-01 -5.78552037e-02 +2.61549354e-02 -6.75072968e-02 +4.71689440e-02 -1.79573838e-02 -3.78120929e-01 -2.90703952e-01 -6.65361583e-02 +5.09342225e-03 +3.94635126e-02 +7.00116083e-02 -2.62046251e-02 +8.34935829e-02 -9.97763425e-02 -8.07546556e-01 -1.77485451e-01 -8.37950408e-02 -5.45270965e-02 -3.13372724e-02 -3.10368240e-02 -5.90809248e-02 +4.37831841e-02 +5.95684908e-02 -1.48146379e+00 -1.13784082e-01 +7.29850382e-02 -5.51584885e-02 +8.38511586e-02 -1.39312878e-01 -3.97555375e+00 -7.00140834e-01 +2.34693550e-02 -7.93001652e-02 -1.62381661e+00 -1.87058095e-02 +6.62084967e-02 -8.52488205e-02 -6.10003471e-01 -3.79193835e-02 -4.60502005e+00 +8.95667821e-02 +6.83579296e-02 +1.47721218e-02 -2.07588896e-02 -8.09967145e-02 -5.61581659e+00 +5.98327406e-02 +2.52498388e-02 -1.75948966e+00 +1.94275267e-02 -5.59474659e+00 -4.19332564e-01 +6.97999075e-02 -2.58549452e-02 +3.31216305e-02 -1.90911427e-01 -1.51868212e+00 -3.61475814e-03 -2.74518669e-01 +8.59814361e-02 +3.99885187e-03 -1.37791061e+00 +5.39518371e-02 -1.87755859e+00 -1.84293464e-02 -1.81285739e-01 -9.45687070e-02 -2.68098116e-02 -4.26332541e-02 +3.89369181e-03 -5.12317121e-01 -9.75812078e-02 -3.55158076e-02 -6.55280203e-02 +2.68882569e-02 -1.81053066e+00 +7.90147285e-04 -6.45390376e-02 -5.24664447e-02 -9.24899638e-01 +4.50685620e-02 +7.67375827e-02 -7.87067115e-02 +5.08175455e-02 -5.37128709e-02 -1.40986532e-01 +6.81980327e-03 +7.51965586e-03 -1.20700471e-01 -1.04856960e-01 +1.75709069e-01 -7.81363472e-02 -3.19059062e+00 +2.27743294e-02 -1.14416994e-01 -1.58097550e-01 +7.35726506e-02 -5.77319801e-01 +2.40153931e-02 +1.97163597e-02 -4.54488903e-01 -1.06054373e-01 +2.36715972e-02 -1.82319403e+00 -1.09386630e-02 +1.75978411e-02 -2.43189469e-01 -1.87910989e-01 +2.40193051e-03 +4.01887931e-02 -2.07936311e+00 +3.08446717e-02 -4.57435697e-01 -1.50393590e-01 -4.26721901e-01 -2.16802344e-01 +3.70096005e-02 +7.71354139e-02 -5.13577318e+00 -3.87855977e-01 -4.57212031e-02 -2.02954516e-01 +1.47799938e-03 +8.55779275e-02 -1.50108978e-01 -2.95592491e-02 -3.26815987e+00 -3.60679775e-02 -3.09755325e-01 -1.67874977e-01 -1.35401472e-01 +2.80170590e-02 -1.89830922e-02 -1.59896631e-02 -5.85137129e+00 +6.19815141e-02 +6.20854311e-02 +5.39945252e-02 +1.71806365e-01 -2.30259001e-01 -4.88795601e-02 -1.97099400e+00 -6.20564878e-01 -1.14535367e+00 -5.68436503e-01 -3.97874489e-02 -8.65275338e-02 -2.60014217e-02 +7.94343427e-02 -8.79749954e-02 -2.61136051e-02 -2.02674910e-01 -3.41396809e-01 -8.93686339e-02 -8.55067968e-01 -1.06121451e-01 -2.26566255e-01 -5.33187948e-02 -7.15641603e-02 +3.42149325e-02 -9.80955958e-02 +2.53029261e-02 -5.05848415e-02 -1.05649576e-01 +1.28451642e-02 -2.34846305e-02 +1.34989917e-02 -3.35792303e-01 -3.54016781e-01 -1.59232557e+00 +2.14901846e-02 +2.61141863e-02 -7.15526193e-02 +2.91965492e-02 +1.27647649e-02 +9.68864374e-03 -4.65440005e-02 +2.10701793e-01 +7.43526965e-02 -1.06725372e-01 -8.12397063e-01 -1.07535370e-01 +2.89847646e-02 +1.34245127e-01 +8.88195820e-03 +1.25722750e-03 -1.15113422e-01 -4.02743369e-02 -5.47924377e-02 +3.03038713e-02 -1.32227421e-01 -3.96331660e-02 -1.61434278e-01 -1.11014113e-01 +1.28739461e-01 -1.43518904e-02 +1.47341881e-02 +6.57709464e-02 +1.54055357e-01 +2.09257845e-02 -1.19409584e-01 +8.41515809e-02 +2.66913716e-02 +2.34372720e-01 -9.55147669e-02 -6.83865026e-02 +2.49195490e-02 -9.01886001e-02 -7.78638795e-02 -2.03452110e-02 -7.64517933e-02 -3.47818583e-02 +4.01591659e-02 -4.91558462e-02 +2.73138434e-01 +3.50150950e-02 -1.69638738e-01 -3.78656969e-03 -1.90319791e-02 -3.95929888e-02 -6.15551844e-02 +6.23588823e-02 +1.16782160e-02 +7.58108497e-02 -5.05482778e-02 -8.23786333e-02 +3.71883251e-02 +1.34841874e-01 -7.47822747e-02 -8.05922300e-02 -1.33262813e-01 +1.21317089e-01 -1.98291279e-02 +6.58476949e-02 +4.39661555e-02 +1.24263190e-01 -8.80265236e-02 -5.48798107e-02 +1.00069568e-01 +6.85476288e-02 +4.25940417e-02 +8.82322863e-02 -6.46220073e-02 +1.21163698e-02 +1.56580821e-01 +1.23481285e-02 +1.08235165e-01 -2.99478080e-02 +3.91160995e-02 -5.00411876e-02 +2.82581523e-02 +2.25922838e-02 -2.33541894e+00 -6.44136593e-02 +7.24488348e-02 +5.97508177e-02 -1.26745012e-02 +4.12117392e-02 +7.69276842e-02 +8.47508013e-02 +1.69687569e-02 -2.04904005e-02 -7.41457343e-02 +1.69890709e-02 +7.34081119e-02 -3.15525495e-02 -1.44234840e-02 +1.68874189e-02 -1.39340371e-01 -7.53587335e-02 +6.98667616e-02 -2.03943327e-01 +9.89100188e-02 +2.00623386e-02 +5.12269177e-02 +2.37209797e-01 +3.14112753e-02 -7.72889843e-03 -1.19051831e-02 -9.31232646e-02 +1.08171096e-02 +5.98762594e-02 +5.12160696e-02 -8.91862810e-02 +1.90186705e-02 +4.11915146e-02 +3.63526233e-02 +1.13142304e-01 +2.76860036e-03 +8.74801353e-02 -7.73604438e-02 -2.76715979e-02 -1.43921301e-01 -3.58179584e-02 -5.87183200e-02 +1.29946200e-02 +2.15319879e-02 +4.73035760e-02 -3.06750741e-02 -6.75598457e-02 +7.70293623e-02 -5.84311076e-02 -6.68480471e-02 -7.42290467e-02 +2.50210851e-01 -6.39585918e-03 +3.12550485e-01 +5.10031916e-02 +4.14387397e-02 +2.33783461e-02 -9.90402251e-02 -7.12199435e-02 +3.68903987e-02 +5.87967187e-02 -3.49147111e-01 -2.90671643e-02 -9.45449620e-02 -3.53433341e-02 +3.38420607e-02 -7.66646490e-02 -8.74056593e-02 -3.23200296e-03 -6.24229051e-02 +7.75827914e-02 +4.64488156e-02 -6.26019835e-02 +6.28906414e-02 +5.51696569e-02 +1.89793278e-02 +2.52717763e-01 -7.89409056e-02 +7.17975348e-02 -2.92597394e-02 +9.91014764e-02 +1.40171070e-02 +6.05410635e-02 -8.04726854e-02 -1.54850915e-01 +1.39599383e-01 -1.32754594e-01 +7.89397880e-02 -7.16726184e-02 +2.58861911e-02 -4.40971889e-02 +4.31411080e-02 -6.29184544e-02 -3.13247181e-02 -9.64944437e-02 +5.32706790e-02 +3.90514433e-02 -1.00692376e-01 +2.22792447e-01 -8.08510259e-02 -1.00659706e-01 +1.20372940e-02 -5.56001021e-03 +1.67805821e-01 +6.24079481e-02 +5.32767810e-02 -5.70381545e-02 +2.07016289e-01 -1.06796280e-01 -9.44444761e-02 +1.58276588e-01 -5.84026836e-02 -6.00295849e-02 -9.47694257e-02 -3.21067572e-02 +8.71876702e-02 +1.47873200e-02 -6.13965541e-02 -2.43629459e-02 -1.69132829e-01 +2.01626476e-02 +1.00197770e-01 +2.65793037e-02 +2.05138661e-02 +1.08650625e-02 -5.29999435e-02 +1.71735764e-01 +2.60029696e-02 +7.80380443e-02 +2.63172574e-02 -3.61299478e-02 +6.80672079e-02 -6.25656825e-03 -4.32779938e-02 +1.03071511e-01 -5.60800061e-02 +7.77870184e-03 -2.70582974e-01 -9.03954878e-02 -3.84181626e-02 -8.62682164e-02 -1.97045486e-02 -1.03763968e-01 +1.34051129e-01 +3.05741094e-02 +5.36308549e-02 +9.63800121e-03 +4.26476784e-02 -8.47113803e-02 -5.72998486e-02 +1.29059121e-01 +8.32947195e-02 +5.73403947e-02 +1.11964233e-01 +7.07579553e-02 -7.90639594e-02 -5.74958846e-02 -4.89930212e-01 -6.58050040e-03 +5.76157533e-02 -1.68779697e-02 -2.45680049e-01 -7.74713457e-02 +6.03916422e-02 -5.46860844e-02 -5.40217906e-02 +9.07720241e-05 -2.83301212e-02 -8.74755252e-03 +7.19298646e-02 -7.90843219e-02 -7.13888407e-02 -4.45708483e-02 +9.98435020e-02 +7.91452378e-02 -1.06869563e-01 +2.12130919e-01 +5.05305715e-02 +2.52284650e-02 -2.65090484e-02 -5.24539649e-02 +1.50838867e-02 -8.78779516e-02 +5.78452609e-02 -1.34053975e-01 +4.61005373e-03 -6.03827722e-02 -6.43513799e-02 +2.40883991e-01 +4.67106588e-02 +1.45665050e-01 -2.01143205e-01 -6.36374205e-02 -9.02430341e-02 -6.15486205e-01 -2.34888662e-02 +7.95918480e-02 -4.36092541e-02 -1.11733437e-01 +1.51630193e-01 +5.19777983e-02 +9.23298597e-02 -8.04593861e-02 +1.03494450e-02 +5.44951111e-02 +5.38694672e-02 -5.21813259e-02 +3.20810564e-02 +4.76258136e-02 +8.14786330e-02 -1.21771060e-01 -1.63731240e-02 +7.14972392e-02 +2.56413203e-02 +3.35249156e-02 +1.35053247e-01 +7.23272040e-02 +6.49566054e-02 +5.81326298e-02 -5.30949272e-02 -7.22285658e-02 -3.18946354e-02 -8.00087824e-02 +6.47763163e-02 -6.85690716e-02 +5.64450920e-02 -1.70340911e-02 -1.43589303e-02 +1.59483120e-01 +4.92407918e-01 +3.33798528e-02 -4.55068722e-02 +1.51515096e-01 +1.25287414e-01 -2.06146970e-01 +1.23587372e-02 -5.80634587e-02 +2.07879275e-01 -9.14784521e-03 +1.04275279e-01 +3.24139029e-01 -2.52665505e-02 +5.05014285e-02 +6.98953718e-02 +4.44189236e-02 -2.55592972e-01 -1.01301791e-02 -7.23120421e-02 -4.73507047e-02 -6.24575131e-02 -2.60848135e-01 -1.57849248e-02 -2.96373479e-02 -4.02697362e-02 +1.16114758e-01 +8.29860270e-02 -6.85317069e-02 -2.74836156e-03 +3.68928574e-02 +8.12870264e-02 -5.25394492e-02 -5.51569238e-02 +1.33603606e-02 -1.98030129e-01 -5.17909927e-03 +1.21947512e-01 -5.28694652e-02 +2.71433312e-02 +4.02921326e-02 -4.53902148e-02 +2.82639526e-02 -8.14139023e-02 -8.23976249e-02 +8.38248059e-02 -2.20129013e-01 +1.12037770e-02 +7.45064300e-03 +7.31078446e-01 +4.33716208e-01 -4.89982404e-02 -1.15257934e-01 -1.81844726e-01 +5.52048907e-03 -1.28308460e-01 -1.95746347e-01 -3.13672423e-02 +3.98495384e-02 -3.16285715e-02 +6.26290515e-02 +4.09895889e-02 +1.56174168e-01 +1.85730562e-01 +6.04487881e-02 +8.06799605e-02 +4.44166251e-02 +7.81908780e-02 -1.20912828e-02 +2.90470183e-01 +6.80521131e-02 -2.11667284e-01 +4.83779684e-02 +1.44928798e-01 -1.68347523e-01 +8.41373652e-02 +4.18233965e-03 +2.76650846e-01 +2.58213822e-02 +2.85045087e-01 +8.55216160e-02 -6.48825169e-02 -8.49929750e-02 +3.09391823e-02 +3.54287662e-02 -1.02303714e-01 -1.77319080e-01 -1.02197984e-02 +8.34385380e-02 +5.10627292e-02 -5.95263317e-02 +4.23661880e-02 +8.33127834e-03 +5.84932305e-02 +1.20825268e-01 +1.03258528e-01 +1.25355229e-01 -3.71940830e-03 -4.06117737e-02 +7.98517764e-02 +2.78149284e-02 -8.10685977e-02 -4.70207073e-02 +8.96555111e-02 -2.10048407e-02 +1.03665330e-01 -1.09108118e-02 +3.32111865e-02 -6.87429383e-02 +1.07264206e-01 +8.92779753e-02 +1.77082047e-01 -7.27698579e-02 +4.41750884e-02 -3.76976095e-02 -4.58615161e-02 -1.05405644e-01 -7.53513128e-02 -6.46405295e-03 -1.11044291e-02 -1.04504768e-02 -6.93847910e-02 -4.91151586e-03 -6.07457235e-02 +4.83220145e-02 +4.34916653e-02 -8.32469165e-02 -3.24464478e-02 +2.11901292e-02 -7.97438994e-02 -4.04942147e-02 +8.15682039e-02 +2.10126713e-02 -2.31571555e-01 -1.84109613e-01 -2.76889373e-02 -6.15312085e-02 -1.75226387e-02 -3.71517763e-02 +6.70409501e-02 +8.02972540e-02 +6.14433438e-02 -1.36935547e-01 -4.47982512e-02 -4.02043723e-02 -2.38262005e-02 +6.21129107e-03 +1.28076136e-01 +4.07835931e-01 -1.21905856e-01 -2.21664645e-02 +4.10517938e-02 +8.21127817e-02 +3.33414793e-01 +3.30354273e-02 +4.07417268e-02 +2.55665243e-01 -1.55319557e-01 +2.42207193e+00 +7.71398627e-05 -6.34089625e-03 +2.15072203e-02 +9.27397907e-02 -1.49649112e-02 +1.27101958e-01 +9.20773000e-02 -1.58490296e-02 +6.50906086e-01 -5.07750176e-02 +6.73683882e-01 -4.78601456e-03 +4.60867099e-02 +1.23111662e-02 -2.47056340e-03 +4.21571955e-02 +1.02531344e-01 -5.90092354e-02 +2.29822681e-03 -7.60004669e-02 -8.27326439e-03 +1.39183268e-01 -4.59117023e-03 +1.05103767e+00 -6.32191524e-02 +4.14716313e-04 +1.30494209e-02 +8.20096955e-02 -6.45297319e-02 +4.89890985e-02 -1.77004665e-01 +8.85418504e-02 -1.42269984e-01 +5.13628460e-02 -7.93825835e-03 +3.65635902e-01 -2.32467204e-02 -5.45099378e-02 -3.91997471e-02 -8.57351795e-02 +4.79325145e-01 -8.27606693e-02 +6.06881157e-02 +2.91744433e-02 +8.01306590e-02 +3.31905708e-02 +7.01074451e-02 -7.38213062e-02 -7.92876333e-02 -5.79699315e-02 -6.35718822e-01 -4.68502529e-02 -6.19544908e-02 -1.16835032e-02 +7.10851774e-02 +9.92057920e-02 +7.66805038e-02 +5.05198129e-02 +1.29344761e-02 +3.58471796e-02 -1.20708063e-01 -6.66735098e-02 -6.42056018e-02 +1.60649866e-01 -1.82206146e-02 +1.90255996e-02 -1.23143010e-01 +3.40315066e-02 -3.37319337e-02 +1.02220103e-01 +2.60347605e-01 -6.66925237e-02 -2.77196735e-01 +4.07280773e-02 -9.50475112e-02 +1.51650356e-02 -5.79644330e-02 +1.31012276e-02 -4.54343902e-03 +2.09647581e-01 -1.06147282e-01 +2.02816315e-02 +3.47254127e-02 -6.73185140e-02 +1.23277813e-01 +5.44647984e-02 +5.17174840e-01 -5.17053120e-02 -1.68807089e-01 -2.38208055e-01 -3.69344801e-02 +8.02635476e-02 -7.55810812e-02 +7.13498965e-02 +2.56106049e-01 -6.09908774e-02 -6.52389973e-02 +2.85870135e-02 +3.09089087e-02 +1.55927509e-01 -6.38793223e-03 +1.86761826e-01 +1.13618135e+00 +8.51780176e-02 +2.68471503e+00 +2.55641900e-02 -3.89190093e-02 -5.16591780e-02 +2.82912422e-02 -8.90902616e-03 -5.81075102e-02 +1.03354953e-01 +1.16214305e-01 +3.10219415e-02 +7.12714642e-02 -9.86167602e-03 +3.44541639e-01 +9.78942588e-02 +3.53311002e-02 -3.86981182e-02 +1.12195592e-02 +4.75053936e-02 -7.39605725e-03 -2.62421407e-02 -3.70515771e-02 -3.34374420e-02 -5.92619479e-02 -1.81546301e-01 +3.65879275e-02 +1.11501932e-01 -5.26445033e-03 +3.19932364e-02 +2.68394202e-02 -5.98505288e-02 +7.17962980e-02 -7.59842023e-02 +1.69344489e-02 +2.49008299e-03 +8.26158300e-02 -2.75711566e-02 -2.56302953e-01 +1.91978682e-02 -9.46921483e-03 +5.51055744e-02 -2.33017597e-02 -1.67207370e-04 -4.54381928e-02 -6.60787374e-02 +2.22870130e-02 -8.30143914e-02 +5.64884171e-02 +1.02918901e-01 +3.55074890e-02 +9.31752175e-02 +1.42333647e-02 +1.23593405e-01 +1.00598373e-01 -5.35195768e-02 -3.02135907e-02 -4.35295217e-02 -1.24547124e-01 -1.85128197e-01 -1.52249532e-02 -4.19837773e-01 -5.05776815e-02 +7.89915118e-03 +4.55056839e-02 +4.00470719e-02 +8.32676291e-02 -8.44657719e-02 -4.55074385e-02 +7.57732689e-02 +1.19861064e-03 -1.57173455e-01 +7.35559911e-02 -5.94930537e-02 -2.19309449e-01 -3.71928811e-02 +4.90245558e-02 -6.01426736e-02 +7.44247362e-02 +4.91345376e-02 -3.13970484e-02 +9.64333415e-02 -3.21665034e-02 +1.28022015e-01 -7.10750371e-02 -1.17927395e-01 +2.99978796e-02 +5.40199541e-02 +4.68530506e-02 +2.32084036e-01 +7.67851919e-02 -1.11739561e-01 -8.78424421e-02 +3.58319022e-02 -1.14598304e-01 -5.65118454e-02 -2.03382164e-01 +9.87240821e-02 +1.86549630e-02 -9.32216793e-02 +2.49054981e-04 -5.12159988e-02 -1.26298413e-01 -1.86255295e-02 -2.25921394e-03 +5.95131367e-02 +7.07529113e-02 +8.99354741e-03 +1.58607513e-02 +1.91375054e-03 +4.82819080e-02 +1.00504011e-01 -1.69913754e-01 -5.91160692e-02 +1.51492923e-01 +7.24599138e-02 +1.45587072e-01 +1.84764490e-02 -2.39288844e-02 -3.87892313e-02 +2.23183706e-02 -3.47277336e-03 -2.27410924e-02 -5.18747233e-02 -9.38639194e-02 +4.59357128e-02 -1.72354653e-01 -5.51386504e-03 +7.70716667e-02 -7.74947405e-02 -2.59064008e-02 +3.98923010e-02 -7.72781149e-02 -8.58271495e-02 -7.67567195e-03 +2.01519784e-02 -1.50878187e-02 +7.18464255e-02 +9.28687528e-02 +3.64456475e-02 +2.20247488e-02 +1.61890276e-02 -1.29534714e-02 +1.11449189e-01 +6.97321966e-02 -9.46390480e-02 -6.94984719e-02 +4.55459543e-02 +1.21664718e-01 +4.97462526e-02 +6.52577579e-02 +4.39704992e-02 +1.03275850e-01 -8.53342935e-02 +5.30741513e-02 +1.61845297e-01 +2.13703718e-02 -3.00259087e-02 +6.05232604e-02 -2.24146470e-02 -7.49838948e-02 -4.34420295e-02 +1.74185351e-01 +1.43964097e-01 +5.41013144e-02 -3.69273382e-03 +5.50992526e-02 -9.48709715e-03 +2.16585435e-02 +8.60027522e-02 -5.36846258e-02 -4.72726114e-02 -1.79262370e-01 -1.56839058e-01 -4.82760072e-02 +5.48771434e-02 +1.16918813e-02 -5.33647127e-02 +8.87506921e-03 -4.74617518e-02 -3.32792435e-04 -1.48914739e-01 +8.90053883e-02 -7.92722702e-02 +2.25464851e-02 +2.93029007e-02 +2.25644582e-03 +2.12509647e-01 +1.18254691e-01 +7.40273967e-02 +3.58774401e-02 -1.07432045e-01 +1.80373117e-01 +2.33951494e-01 -6.43039262e-03 +5.40149845e-02 -2.91409671e-01 +1.89991429e-01 -1.22116618e-01 -6.68980321e-03 +4.04185206e-02 -6.23245090e-02 -2.98310835e-02 +1.73015520e-01 +8.27315301e-02 +9.71763954e-02 +8.05954337e-02 +8.88650417e-02 +1.94708258e-02 +1.41068706e-02 +8.02278668e-02 -8.82997885e-02 +6.83024339e-03 -1.31238624e-02 -1.03318803e-01 +2.18091849e-02 -3.97475846e-02 -6.09144866e-02 -2.35360768e-02 -1.48815647e-01 -2.63877697e-02 -4.60747536e-03 +8.27317759e-02 +5.94151467e-02 +9.85829160e-02 -7.02736108e-03 +2.93425433e-02 +9.45430025e-02 -2.25940287e-01 +4.42277044e-02 +2.33113930e-01 +5.65357879e-02 +1.40512139e-01 -1.57296151e-01 +4.00983579e-02 +1.00244991e-01 -3.07293199e-02 -2.88492203e-01 +2.54143905e-02 -7.97401443e-02 -1.75470244e-02 +2.01871488e-02 +6.78465515e-02 +5.24385683e-02 +2.32955553e-02 -7.43497610e-02 -1.22532122e-01 +5.28275687e-03 -2.40034878e-01 +1.58555936e-02 +2.92476472e-02 +9.96537693e-03 +1.13463968e-01 +3.81002910e-02 +1.72112808e-01 +4.12556194e-02 -5.06484285e-02 +5.08725792e-02 -1.33002937e-01 -6.21721856e-02 +9.41232368e-02 -6.54305965e-02 -6.80776983e-02 -7.34739006e-04 -1.40210643e-01 +8.56675133e-02 -6.69085234e-02 +9.08513069e-02 +1.92372818e-02 +1.91396978e-02 -3.40958148e-01 +5.19001484e-02 -3.89677823e-01 +1.23228431e-01 