#Parameter# /_0 {200,342} 1094401 ZERO_GRAD
-9.07941759e-02 -5.59808798e-02 -6.28724769e-02 -2.01389059e-01 +8.60777721e-02 +4.82718050e-02 -1.61377825e-02 +2.58491356e-02 +3.06864977e-02 +1.42228469e-01 +1.31349601e-02 -5.10350168e-02 +1.01789482e-01 +7.19362870e-02 -9.12568793e-02 +1.95668370e-01 -3.04383505e-02 +7.55760893e-02 +1.48398012e-01 -6.67416826e-02 -2.09482431e+00 +3.06956619e-02 -1.04371369e-01 +6.67307675e-02 +2.50167519e-01 -1.00235090e-01 +1.03904970e-03 +7.54756778e-02 +2.28693876e-02 +8.38851258e-02 -5.67155927e-02 -2.73153961e-01 -9.07925814e-02 +1.41820880e-02 +6.63101673e-02 -1.11456685e-01 +1.08413287e-01 +1.72977045e-01 +3.22911054e-01 +3.32869917e-01 +4.67832461e-02 -2.88941879e-02 -8.02888721e-02 -9.59772319e-02 +1.74625039e-01 +8.47055390e-02 +1.97507013e-02 -6.40469939e-02 +1.09388709e-01 -5.88253178e-02 +6.99222237e-02 +1.80696741e-01 +1.65278077e-01 -9.48633701e-02 +5.30648120e-02 +5.75099513e-02 +9.44366157e-02 +1.46433994e-01 +1.80226788e-01 +1.04979523e-01 +8.20681751e-02 +2.89691463e-02 +6.82453141e-02 +6.25805929e-02 -1.00043632e-01 +1.13708682e-01 -3.34337093e-02 +2.07056361e-03 -1.78382285e-02 +1.67298272e-01 -1.08874124e-02 +2.41096988e-02 +5.80577180e-02 +3.06579679e-01 +3.65906358e-02 -1.13836629e-02 -7.53628388e-02 +6.20818399e-02 +2.46105660e-02 -6.72582313e-02 +6.72751516e-02 -3.31878513e-02 -4.45486326e-03 -8.96977037e-02 -9.60417539e-02 +7.58882752e-03 -5.19685857e-02 +2.33730320e-02 +9.91585702e-02 -7.23022502e-03 -3.38588585e-03 -1.05621368e-01 +6.99376836e-02 +1.77447274e-01 -9.40699354e-02 +1.63799480e-01 +9.73358080e-02 +8.43437240e-02 +3.82233933e-02 +5.22261262e-02 +2.88572192e-01 -6.42309245e-03 -1.00885622e-01 +1.05390839e-01 +9.09979939e-02 +6.18685521e-02 +8.37666467e-02 +1.95777286e-02 +9.45154354e-02 +1.61186337e-01 -7.79848471e-02 -7.68659413e-02 -3.18882577e-02 -3.71188857e-02 -1.08997732e-01 -6.97935969e-02 -1.57736130e-02 +7.70012811e-02 +6.00056238e-02 +1.89193055e-01 +1.80661112e-01 -2.45616689e-01 +7.70117529e-03 +9.46534611e-03 +4.36744615e-02 +6.95789605e-02 -1.03547372e-01 +1.98630933e-02 +1.26817554e-01 +1.75780430e-01 +7.56825358e-02 +8.47176239e-02 +9.80759561e-02 -5.57964947e-03 +3.18687111e-02 +6.99370280e-02 +2.74669260e-01 -6.36515766e-02 +9.23858956e-02 +5.13682105e-02 +1.51453212e-01 -5.40225655e-02 -5.55982813e-02 +2.66417749e-02 +1.07306214e-02 +3.11008096e-01 +1.81633189e-01 -2.45819986e-02 +1.88994240e-02 +2.28016213e-01 -4.42335829e-02 -8.56907815e-02 +2.42577046e-01 -2.22432256e-01 +1.75880834e-01 -2.75396369e-02 +3.33377302e-01 -3.28308567e-02 -9.23771225e-03 -4.76143993e-02 +1.49311960e-01 -2.94138324e-02 -9.99529213e-02 +3.98854092e-02 -8.15608352e-02 -5.38771190e-02 -1.30673703e-02 +1.22642718e-01 +3.81040454e-01 +2.14539066e-01 +1.12171471e-01 +3.15121077e-02 -2.35218549e+00 -7.08097741e-02 -1.57102942e-02 +1.19944155e-01 -1.10684738e-01 -2.24708244e-02 +9.20907855e-02 -1.07930703e-02 +4.84349430e-02 +1.73035655e-02 +6.91204295e-02 +3.97314318e-02 -5.91367446e-02 -6.12312704e-02 +8.78369883e-02 +9.52245593e-02 +2.51545548e-01 +2.23462924e-01 -6.61943257e-02 +5.70936536e-04 -2.23611500e-02 -7.92071372e-02 -4.25653756e-02 -4.34339568e-02 -3.27347256e-02 +8.02280605e-02 +1.18049644e-02 -6.30433261e-02 -2.17308588e-02 -1.13245204e-01 +7.76196048e-02 -4.46617186e-01 +2.98689473e-02 -6.05316088e-02 -1.17206303e-02 +6.55137375e-02 -1.93146896e-02 -1.00595951e-01 +7.25299343e-02 -3.58116925e-02 +1.95780456e-01 -2.77780276e-02 -1.46209717e-01 -1.32573709e-01 -4.17402238e-02 -1.17486842e-01 -1.21892788e-01 -1.07496828e-02 +1.12315051e-01 -1.39718987e-02 +2.23956890e-02 -8.15190673e-02 +7.78751001e-02 +6.07996471e-02 +3.56466626e-03 -3.35358344e-02 -9.81568694e-02 -4.84613031e-02 -1.98223982e-02 -2.61754704e+00 -5.69878630e-02 +2.52829976e-02 +9.30298716e-02 -1.38879299e-01 -1.79927349e-01 -1.02942310e-01 -9.99406874e-02 -3.47136527e-01 -2.62371469e-02 -1.39412940e-01 +1.43064149e-02 -4.33825999e-02 +6.14878088e-02 +4.95447144e-02 -6.01549214e-03 -3.40560339e-02 +6.24217764e-02 -5.17966300e-02 +1.06262416e-01 +2.52260566e-01 -1.20533876e-01 +4.63479534e-02 +4.28589620e-02 +1.69732034e-01 -5.09637445e-02 -6.19046856e-03 -9.27999169e-02 -1.28795743e-01 +1.61666662e-01 -7.56303687e-03 -1.29532620e-01 +8.02126303e-02 -6.77686632e-02 -3.04878175e-01 -5.94953012e+00 -1.07315689e-01 +3.06270458e-02 -1.11875065e-01 -1.60772130e-01 +5.06086349e-02 -2.30542626e-02 -9.38762903e-01 +1.97791718e-02 -1.31081223e-01 +3.73779498e-02 +1.92332730e-01 +9.74656940e-02 -3.44913714e-02 +4.11132984e-02 -8.12117085e-02 -5.90389520e-02 +8.15281644e-03 -1.50907906e-02 +4.74305265e-02 +5.99906892e-02 -5.17224483e-02 +1.33503765e-01 -2.65935928e-01 -7.09527582e-02 -1.39120109e-02 -4.37817350e-02 -1.05305620e-01 -6.59333169e-02 +1.44115156e-02 +8.78990665e-02 +3.59015837e-02 +4.42185923e-02 +6.90003112e-02 -3.57672244e-01 +5.87044731e-02 -4.77477908e-02 -2.71809131e-01 +6.07827865e-02 +5.38227223e-02 +9.30615440e-02 -1.05074957e-01 -8.66160020e-02 -3.17454734e-03 +3.96315455e-02 -8.86190906e-02 +2.18817815e-02 +5.39090708e-02 -5.23325652e-02 -1.07218742e-01 -9.19403136e-02 -1.87570632e-01 -1.02686092e-01 +1.80005506e-01 -5.53737320e-02 -1.92353934e-01 -8.85158032e-02 -7.25549906e-02 -3.28561217e-02 -1.66221306e-01 +2.79298914e-03 -2.69591883e-02 -1.92663223e-01 +1.07916193e-02 -7.56394044e-02 -1.35041386e-01 -1.40169151e-02 -4.36252356e-02 +6.15472272e-02 -6.12631813e-02 -1.91574097e-01 +5.14809005e-02 +8.81090108e-03 -8.98772404e-02 -1.12134770e-01 -8.59853700e-02 +8.82298201e-02 -2.69582979e-02 +7.72567391e-02 -1.72375888e-01 +1.75537437e-01 -1.61902279e-01 +5.31887017e-05 +4.61418889e-02 +9.35112834e-02 -3.65603268e-02 +9.96521860e-02 -2.25938034e+00 -1.56721026e-01 -6.35050610e-02 +1.24093682e-01 +9.24377963e-02 -2.05200296e-02 -2.07874570e-02 -4.78319749e-02 +9.43503156e-02 +7.84037784e-02 -7.36043900e-02 -1.47700593e-01 -1.91492170e-01 -7.84115121e-02 -2.00475097e-01 -2.15476248e-02 -2.72184938e-01 -2.54119813e-01 +6.06689751e-02 -1.05328810e+00 +3.92929763e-02 +6.29630014e-02 -8.80694762e-02 -1.18101612e-01 -9.36038345e-02 -2.16872722e-01 +2.84595210e-02 -1.55584693e-01 +9.82677639e-02 +3.49068791e-02 -2.43750177e-02 -1.04125269e-01 +9.01954919e-02 -1.31323755e-01 -1.41388476e-01 -4.59137350e-01 -3.14478427e-01 +4.80066314e-02 -6.27631173e-02 +3.86512950e-02 -3.56444195e-02 -4.24949527e-02 -9.89181921e-02 -5.34474701e-02 -1.83369488e-01 -1.12177052e-01 -3.78531292e-02 +3.09836026e-02 +3.40587646e-02 -8.18575919e-02 -8.01422298e-02 -1.88982382e-01 +1.01912841e-01 +1.89978648e-02 +7.56624565e-02 +1.28206452e-02 +1.19962633e-01 -1.54791966e-01 +9.03033186e-03 -4.73428182e-02 -1.31118950e-02 +1.66321043e-02 -5.38925305e-02 +5.17174078e-04 -6.89091459e-02 -2.74606049e-01 +1.06708847e-01 -1.72568291e-01 +5.36893755e-02 +1.00611694e-01 -1.99664887e-02 -2.18745902e-01 +1.88026559e-02 +1.50334341e-02 -3.26438546e-02 -1.62008789e-03 -1.90715864e-01 -2.32753400e-02 +9.48701441e-01 -1.12146050e-01 +9.41481888e-02 -3.31687070e-02 -6.47226050e-02 +4.30456027e-02 -3.61095726e-01 +1.11529998e-01 +9.98326764e-02 +7.30138347e-02 -2.12348670e-01 -1.73320666e-01 +6.26249760e-02 +8.50365758e-02 -8.98497179e-02 +3.69111151e-02 +1.02142990e-01 -1.54234067e-01 +9.34446827e-02 -8.04788172e-02 -4.52062368e-01 -7.58399442e-02 +5.44110760e-02 +4.25915532e-02 +5.49182855e-02 +3.50754298e-02 -3.66958901e-02 -6.50348887e-02 -1.20148167e-01 -1.30474925e-01 -7.93651342e-02 +1.79970209e-02 -7.89964944e-02 -9.14043188e-02 +8.98514017e-02 +9.59486440e-02 +1.04008712e-01 +5.22457995e-02 -2.42270660e-02 -1.82329968e-01 +6.30877465e-02 -6.01269566e-02 -3.38203549e-01 +9.89999399e-02 -2.12185442e-01 +9.67201814e-02 +6.12131208e-02 +2.13816483e-02 +5.96664436e-02 +7.20655322e-02 -4.63256566e-03 -6.47239462e-02 -2.20067743e-02 +4.67877388e-02 -1.93927810e-01 +4.18552905e-02 -1.45717889e-01 -1.23676322e-01 -4.27301507e-03 +7.86352307e-02 +4.94327508e-02 -6.25769049e-02 -4.26073149e-02 -5.97893680e-03 +1.43696681e-01 -4.24705185e-02 -5.53469080e-03 +3.86997461e-02 +9.25719291e-02 +1.54884115e-01 -4.60905656e-02 +5.57319261e-02 +1.38329476e-01 -4.04296443e-02 +8.50091456e-04 +2.85613984e-02 -1.75442640e-02 -2.80966640e-01 -1.86622605e-01 -1.01944052e-01 -7.99481273e-02 +6.50886968e-02 -2.08980846e-03 -7.65066445e-02 +6.35974705e-02 -4.49911058e-02 -1.07903779e-01 -1.86534137e-01 -1.13466270e-01 +4.32056040e-02 -1.22102406e-02 -4.93542887e-02 -9.63869691e-02 +4.60641943e-02 -5.63020185e-02 -5.53299077e-02 +1.89664233e-02 -1.18515626e-01 -4.36367653e-02 +1.19954295e-01 +3.75487618e-02 -5.66663295e-02 +5.42910732e-02 -7.40206167e-02 -2.26782821e-02 -1.96395293e-01 -2.31424421e-02 -4.26896736e-02 +3.65768000e-02 -5.18022059e-03 +8.82435217e-02 -1.44004971e-02 +6.23484068e-02 -7.33156353e-02 -1.75942048e-01 -5.26408255e-02 -9.64635226e-04 -1.57771613e-02 +7.74938464e-02 -8.69875178e-02 -8.05797353e-02 -1.66961104e-01 -1.21634133e-01 +1.00820765e-01 +7.58984387e-02 -7.75476217e-01 -3.19004357e-02 +1.01131223e-01 +2.84033418e-02 +8.36839527e-03 -1.55885860e-01 +7.90914055e-03 +1.17990889e-01 -4.84086573e-03 -1.89259514e-01 -1.02908025e-02 +2.62704561e-03 +1.17840938e-01 -1.15868397e-01 +1.65002972e-01 +6.66318834e-02 +4.41611558e-01 +1.07006952e-02 -1.39906332e-02 +1.29475504e-01 -5.99553324e-02 -7.73717463e-02 +2.99592167e-01 -2.37831980e-01 -1.50366515e-01 -1.67113811e-01 +9.72929820e-02 +1.13752767e-01 -7.66842142e-02 +2.99337730e-02 +4.12473530e-02 -1.04500279e-01 +6.96335286e-02 -1.18443631e-01 -2.33606920e-02 +4.41034772e-02 +5.46584912e-02 -2.40517184e-01 +8.78757332e-04 +6.59879074e-02 -3.63881607e-03 -9.72521752e-02 +3.77291664e-02 +7.46651888e-02 +3.39092314e-02 +7.69979209e-02 -7.29130507e-02 -2.54595727e-02 +4.08944413e-02 +2.64406987e-02 -9.76539999e-02 -1.01729348e-01 +1.02111518e-01 +1.96968511e-01 +1.18351147e-01 +7.41267279e-02 +1.01227559e-01 +1.62319094e-02 -6.85043409e-02 +5.25715128e-02 -1.27760565e-03 +6.74809143e-02 -8.20928346e-03 -3.52675393e-02 -2.09823966e+00 -2.11705640e-02 -2.36243401e-02 +5.29467054e-02 +2.29838252e-01 -5.04475869e-02 +2.52971500e-02 +3.88179757e-02 +1.27501696e-01 +1.73455685e-01 -4.02903073e-02 -2.73746967e-01 -5.35974875e-02 -1.04928248e-01 -1.01655334e-01 -1.31519526e-01 +2.04620779e-01 +1.32393390e-01 +2.37492621e-01 +2.85483837e-01 +4.01488952e-02 +3.35164927e-03 -2.72241626e-02 +6.28542528e-02 +2.04581439e-01 -2.66529955e-02 -8.35418254e-02 -5.04391640e-03 +9.90895778e-02 +2.12086597e-03 +1.69507861e-01 +1.52887657e-01 +3.30338925e-02 -9.53556597e-02 -7.49925226e-02 +7.29572996e-02 +6.67522699e-02 +1.23624869e-01 +1.88795879e-01 +6.42782897e-02 +1.53493479e-01 -7.56837800e-02 +2.42500100e-02 +7.25466236e-02 -5.35134971e-02 +5.25597706e-02 -7.31413141e-02 +5.81262000e-02 -9.61682424e-02 -2.50864848e-02 +8.64058137e-02 -5.06206974e-02 +3.58586945e-02 +1.83855861e-01 -8.72577429e-02 +8.64697695e-02 -1.44260759e-02 +2.01439142e-01 -1.13592921e-02 -6.07342869e-02 -2.84867939e-02 -2.05496838e-03 +2.12468803e-02 -1.00784786e-02 -1.78083498e-02 +1.13880768e-01 +8.70008245e-02 +1.34770811e-01 +1.48231611e-01 +1.54248923e-01 -4.12984118e-02 -6.60661459e-02 +7.13549927e-02 -2.45198365e-02 +6.93199188e-02 +2.29577068e-02 -7.83620924e-02 +9.64612067e-02 +5.63781708e-02 -3.75159942e-02 +4.27736551e-01 +7.37126842e-02 -3.97952273e-02 +1.50097534e-01 +9.83271562e-03 -7.83495829e-02 +9.07614157e-02 -3.86326127e-02 +1.19849429e-01 +6.18017390e-02 +5.52843325e-03 -1.84870642e-02 +1.01753455e-02 -1.11728683e-01 -5.06085344e-02 +4.14075376e-03 -1.31711056e-02 +1.82559311e-01 +1.26507342e-01 +1.83240354e-01 +2.22750813e-01 -5.80271594e-02 +3.84920612e-02 -1.13409892e-01 +4.06100601e-02 +2.45346427e-02 +3.48027609e-02 +1.78057581e-01 +1.59526914e-01 -1.42995883e-02 +1.47525258e-02 -1.04996100e-01 +7.64164329e-02 +9.42828283e-02 -5.90883084e-02 -1.20719196e-02 +1.62257746e-01 -1.06844129e-02 +1.72841512e-02 -7.38936588e-02 +1.19677581e-01 -2.47752573e-02 +9.03636869e-03 -6.72687888e-02 +1.61646858e-01 +2.57447004e-01 +1.10370010e-01 -4.09306586e-02 +7.14860708e-02 +9.55150574e-02 -1.52335688e-01 -3.98460738e-02 +8.50656703e-02 -8.50494280e-02 +1.38964161e-01 +3.59514914e-02 +2.52941400e-01 -1.04978666e-01 +5.16531281e-02 -1.42596975e-01 +7.78325424e-02 -1.24175780e-01 -9.79233608e-02 +4.67542857e-02 -3.22233401e-02 -2.44206280e-01 -1.09777257e-01 +2.50246644e-01 +3.19450855e-01 +1.37112245e-01 +1.33474216e-01 -1.08391903e-02 -2.48376560e+00 +4.84584868e-02 -6.34838119e-02 +1.77143693e-01 -6.76998049e-02 +6.44274876e-02 +8.42811242e-02 +1.41168609e-01 +1.91869900e-01 +1.14264764e-01 +3.95572968e-02 -7.35430717e-02 -5.81087619e-02 +8.18210319e-02 +3.85113135e-02 +1.31635249e-01 +2.85656244e-01 +2.68620908e-01 -1.12027004e-02 -2.69876160e-02 -6.34822920e-02 -4.51636314e-03 -2.97141727e-02 -3.23656499e-02 +8.48759413e-02 +1.30260050e-01 +7.84607977e-02 +2.10872367e-02 -1.22526297e-02 -8.07479993e-02 -2.98761688e-02 -2.30894089e-01 -2.81280465e-03 -6.42361194e-02 +6.74681515e-02 +9.93768275e-02 +3.16046290e-02 +1.85802996e-01 -1.57752056e-02 +1.50191458e-02 +3.19431663e-01 +1.08917532e-02 +4.71424907e-02 +2.43299846e-02 +1.02438271e-01 +2.13238597e-02 -3.30659181e-01 +1.03394493e-01 -1.38311788e-01 -1.66815985e-02 +1.01900287e-01 -8.18857774e-02 -5.13866022e-02 +1.42691359e-01 +1.20282970e-01 -4.14768346e-02 -7.71118775e-02 -1.98327914e-01 -2.03784462e-02 -1.03214040e-01 -1.94368526e-01 -8.36000498e-03 -1.62604656e-02 -1.33773506e-01 -3.45962122e-02 -6.57175958e-01 +1.90244004e-01 +3.21615264e-02 +6.04660101e-02 -2.17389673e-01 -4.52392995e-02 -2.62260549e-02 +1.22607211e-02 +2.90417261e-02 +9.35031697e-02 +2.55372934e-02 -2.14541499e-02 -8.55109915e-02 +6.28282845e-01 -2.90069818e-01 +1.86434984e-02 +1.05542704e-01 +4.17453796e-02 +6.06528878e-01 +1.03249885e-01 +1.52301908e-01 +8.41854140e-02 -7.89633468e-02 -1.07614830e-01 -5.48544452e-02 +1.63702607e-01 -7.14901760e-02 -6.22827224e-02 +5.52145392e-02 -1.90384001e-01 -5.43513224e-02 +8.63430649e-02 -1.67121693e-01 -4.47702438e-01 -6.93327188e-02 +9.23220515e-02 -4.40042347e-01 -3.71587276e-02 -3.56141627e-01 -5.46176825e-03 +2.68965483e-01 +9.18454975e-02 -2.43420023e-02 -1.26444651e-02 -7.79630691e-02 +7.76986266e-03 -1.03090011e-01 -7.00563341e-02 -1.10980935e-01 -7.20838318e-03 -1.55505732e-01 +1.14610247e-01 +1.22701369e-01 -1.89545006e-02 +2.02524457e-02 +7.34784305e-02 +7.55070671e-02 +8.37928150e-03 -7.26006925e-02 -9.75310628e-04 -9.70111508e-03 +1.03057235e-01 -2.07366031e-02 -2.01102361e-01 -7.15784952e-02 -2.28752233e-02 +5.13134822e-02 -8.20468590e-02 -5.37683032e-02 +2.25013010e-02 +1.84255928e-01 -3.97361159e-01 -9.44807008e-02 -4.35049832e-02 +7.04810023e-02 -7.02771842e-02 +1.02680042e-01 +2.70839036e-02 -5.88463508e-02 +1.42077044e-01 -2.78288454e-01 -3.59262638e-02 +1.37637071e-02 +5.87489940e-02 +1.72905177e-01 +6.55748695e-02 -1.47960326e-02 +8.63783881e-02 -1.80957168e-01 +8.49021003e-02 -4.14101928e-02 -1.45811483e-01 -1.40310794e-01 -2.97638513e-02 +4.07554246e-02 +5.59334643e-02 +2.83890329e-02 +8.37627649e-02 -1.81645662e-01 -1.47936761e-01 -6.73191249e-03 +3.56160328e-02 +5.96033409e-02 -6.51475340e-02 +5.78706935e-02 +1.29866516e-02 -8.28743502e-02 +3.54165882e-02 -2.12499231e-01 -1.08240239e-01 +1.47024114e-02 +2.67295670e-02 +1.49395093e-01 -1.20838240e-01 +4.97321896e-02 -1.47888273e-01 -1.91967741e-01 +1.28944993e-01 -2.05794163e-02 -2.25694090e-01 +9.09056962e-02 -3.84452790e-02 +1.12162836e-01 +2.88559105e-02 -3.85323055e-02 -9.40702930e-02 +6.00994751e-02 -3.39072868e-02 -3.93753409e-01 -5.49537241e-02 -2.02728912e-01 +1.37320429e-01 -3.81637305e-01 -9.57390480e-03 -5.91990091e-02 -4.80932277e-03 +8.40290114e-02 +2.47237179e-02 -8.79654810e-02 -4.15822640e-02 +4.01279889e-02 +4.93946373e-02 -2.17326656e-01 -2.28965804e-01 -7.25740269e-02 +9.68041494e-02 -7.35766292e-02 -1.82429999e-02 +3.19442339e-02 -1.18853159e-01 -3.44104946e-01 -3.52040529e-02 -2.66278982e-01 +8.32812339e-02 +3.44568267e-02 -7.39897192e-02 -1.94955885e-01 +1.12459781e-02 -4.99751344e-02 -9.13896412e-02 +3.79243419e-02 +2.87695006e-02 +7.35708792e-03 +1.28258560e-02 -6.61863387e-02 -5.56540266e-02 -9.65928286e-02 -1.83190763e-01 +1.07360817e-01 +2.95943078e-02 +4.83657792e-02 -1.39411896e-01 +4.96094627e-03 -7.46424943e-02 -5.65452352e-02 -8.54633898e-02 -8.19737017e-02 -1.72975566e-02 +9.06803552e-03 +2.87567470e-02 -6.15292303e-02 -3.35448772e-01 +3.35792080e-03 -3.15670133e-01 +1.10731788e-01 -9.56497565e-02 +6.94110543e-02 -1.17650121e-01 +1.22747764e-01 -8.17673430e-02 -1.64150298e-01 +3.99111072e-03 -4.65364009e-02 +9.27338004e-02 +9.70899761e-01 -1.94246337e-01 +4.26405258e-02 +3.42202224e-02 -2.67010611e-02 -6.89584911e-02 -2.98361361e-01 -2.85814423e-02 +2.72160321e-01 -3.60396802e-02 -2.40260899e-01 -5.52384518e-02 -4.62025478e-02 +5.47523610e-02 +1.01936109e-01 -2.47664265e-02 +2.72237211e-02 -1.52218163e-01 -1.75489895e-02 +9.85900238e-02 -3.73374224e-01 -1.05869658e-01 -2.34555341e-02 +1.37303367e-01 -1.94079522e-02 -3.66451591e-02 -1.13084018e-01 -3.48063372e-02 -1.25253573e-01 -4.08951491e-02 -5.65925986e-02 +4.05855440e-02 -2.35909037e-02 +2.10033599e-02 +1.63734425e-02 +1.12784505e-01 +1.21692799e-01 +1.24070169e-02 -1.79978386e-02 -2.41619557e-01 -5.29556535e-02 +1.04959220e-01 -2.37374425e-01 -6.96539357e-02 -3.71639371e-01 +9.25562754e-02 -1.30875811e-01 -3.26517746e-02 -4.98535708e-02 -6.61172764e-03 -3.77895136e-04 -7.30818585e-02 -3.91298272e-02 +3.05376155e-03 -1.09940454e-01 +8.30106810e-02 -8.78335163e-02 -8.39313045e-02 +1.02621816e-01 +1.08927391e-01 +1.52845174e-01 -4.38654684e-02 -7.33362138e-02 -1.04835749e-01 +3.69591936e-02 +4.95536029e-02 -3.54766585e-02 -1.16865104e-02 +1.45549878e-01 +1.41185895e-01 +1.70159284e-02 -3.07015274e-02 +5.98546416e-02 +9.92653742e-02 +1.16065986e-01 -7.15838671e-02 -4.89368401e-02 -1.87860578e-01 -4.73992303e-02 -7.90376775e-03 +9.81031358e-02 +4.42950130e-02 -5.26955836e-02 +2.69227456e-02 +1.29172090e-03 +3.90624776e-02 -1.54496223e-01 -1.40489608e-01 -1.13911130e-01 -1.43482208e-01 +7.48115554e-02 -7.56563502e-04 -7.52089396e-02 +1.34597421e-01 -8.33765417e-02 -1.73909329e-02 -1.84287116e-01 -1.64133683e-01 -8.55376497e-02 -1.21325599e-02 +1.03799039e-02 +5.98395430e-02 +6.62147403e-02 +2.46646125e-02 -5.48260845e-02 -1.09392755e-01 +5.20873256e-03 +2.57668868e-02 -1.62804034e-02 -4.70804907e-02 -6.87474459e-02 -6.67032078e-02 -2.74294298e-02 -8.58547166e-02 -1.31362036e-01 -8.68825093e-02 +8.22537169e-02 -3.74395400e-02 -2.28901040e-02 -1.18934169e-01 +4.69617285e-02 -7.46553019e-02 -1.07757345e-01 +2.10969858e-02 -1.31606427e-03 -8.46349895e-01 +8.62398148e-02 -5.43159060e-02 +4.21401896e-02 -4.45338786e-02 -1.70569286e-01 -5.02118766e-02 +2.13444196e-02 +3.25470753e-02 -1.57357633e-01 +1.26519278e-01 -1.61496267e-01 +7.52454530e-03 -1.10236958e-01 +1.53692186e-01 +6.01695478e-02 +5.78007936e-01 +1.48286652e-02 +1.08054082e-03 +1.56125594e-02 -1.29220374e-02 -5.61762713e-02 +1.55419901e-01 -5.29233478e-02 -1.00678943e-01 -2.00412884e-01 -7.51937032e-02 +1.01633541e-01 -7.76409730e-02 -7.00882226e-02 +3.00832000e-03 -8.26356113e-02 +5.97843193e-02 -2.50873178e-01 +3.19484323e-02 -4.13292460e-02 +9.33099017e-02 -2.71660954e-01 +6.63595125e-02 +6.59294426e-03 +7.48892948e-02 -6.73063844e-02 +9.99231488e-02 +5.28599434e-02 -1.17058875e-02 -9.44001675e-02 -9.25178900e-02 -3.36286612e-02 +9.93559286e-02 -5.45233525e-02 +3.26258987e-02 +4.59827669e-02 +6.56155050e-02 +2.29893148e-01 +1.06415823e-01 +1.54565964e-02 +1.31880745e-01 -1.02116585e-01 -1.18220322e-01 +1.95665121e-01 -3.76038253e-02 +3.14522907e-02 +1.29783154e-01 -7.83884432e-03 -2.23251271e+00 +8.69515911e-02 +8.31827670e-02 -9.91731361e-02 +3.27431262e-01 -7.57639036e-02 +7.52066970e-02 +7.11655691e-02 +1.44261271e-01 +1.20253682e-01 -8.95831287e-02 -3.80546510e-01 -9.18959156e-02 +2.27491688e-02 +4.55036163e-02 -6.50917888e-02 +9.63379070e-02 +1.23515986e-01 +2.47351199e-01 +3.34254771e-01 +1.04218172e-02 +7.11068735e-02 -1.28102630e-01 -7.71418661e-02 +4.20243889e-02 +4.57841530e-02 +7.02050850e-02 -2.00960133e-02 +6.20701574e-02 -1.20725609e-01 +7.73408115e-02 +1.47592291e-01 +1.92676172e-01 +6.80607632e-02 +1.17216539e-03 +1.81246564e-01 -5.94292618e-02 +2.16148123e-01 +1.91150546e-01 +1.67880177e-01 +1.95801005e-01 +2.19073296e-02 -1.06992371e-01 -6.95288852e-02 -1.08572781e-01 +1.52116688e-02 -1.31522492e-01 -1.19391568e-01 -6.50415793e-02 +1.61264524e-01 +8.26663822e-02 +7.83538632e-03 -8.36321712e-02 +2.03089327e-01 -1.19498959e-02 +2.15193280e-03 -8.02201852e-02 +1.65671319e-01 +2.87708193e-02 -1.77119672e-02 +2.57877987e-02 -2.18996201e-02 +2.91643217e-02 -1.65072978e-02 +9.24725905e-02 +1.34659469e-01 +2.65103877e-02 -3.97531949e-02 +1.62956834e-01 +1.73502594e-01 +1.13210287e-02 -5.88323735e-02 -1.66354291e-02 +1.41843870e-01 +5.14193662e-02 +3.79334353e-02 -7.58021623e-02 +8.08193609e-02 -2.85701044e-02 +9.16897058e-02 +2.92017370e-01 +3.46547551e-02 +9.77761224e-02 +1.27447322e-01 +1.36279557e-02 +2.28651194e-03 -7.10489079e-02 +8.54415521e-02 +4.17246632e-02 +8.99915621e-02 +7.62588605e-02 -1.08106852e-01 +7.75267705e-02 -8.80395100e-02 -4.91615571e-02 -2.18520593e-02 -1.49608359e-01 +2.11241424e-01 -4.35957611e-02 +2.88941264e-01 +2.01899156e-01 -2.04867646e-01 -8.28135088e-02 +3.32997516e-02 +6.50631636e-02 +5.31442128e-02 +1.84733681e-02 +1.89281821e-01 +2.84684271e-01 +1.15880638e-01 -1.01417072e-01 -4.11854833e-02 -3.04466970e-02 +5.61515950e-02 -9.47538540e-02 +3.80343981e-02 +1.33271828e-01 +3.28168869e-02 -9.06437114e-02 -5.05718291e-02 +6.71660081e-02 -7.39000514e-02 +4.18117940e-02 -1.23031223e-02 +1.66087393e-02 +2.44551763e-01 +4.16015610e-02 -7.04280138e-02 +1.90693755e-02 +1.84541613e-01 -8.72040242e-02 -9.38994512e-02 +6.53111562e-02 -1.47668138e-01 +1.42864093e-01 +6.32049814e-02 +3.31246853e-01 -5.74914850e-02 +2.31462847e-02 -4.43007275e-02 +9.11040902e-02 -4.76476923e-02 -9.12861377e-02 -1.17988037e-02 -3.22528253e-03 -1.51953951e-01 -8.63471553e-02 +2.12440088e-01 +3.22776318e-01 +1.00684233e-01 +1.20504104e-01 +6.24861047e-02 -2.45298004e+00 -6.25592768e-02 +7.06830770e-02 -4.62674710e-04 +4.21396829e-02 -6.40968159e-02 +2.17589997e-02 +6.53278232e-02 +1.44234285e-01 +5.94893843e-02 -2.53675915e-02 +5.98711777e-04 -9.98790860e-02 +6.67972714e-02 +1.12080149e-01 +2.09257647e-01 +2.16083497e-01 +2.68834442e-01 -1.56400111e-02 -9.93554592e-02 +2.75665037e-02 +1.40679730e-02 +6.82378113e-02 +7.69438222e-02 -1.13733880e-01 +1.76230504e-03 -1.04011945e-01 -9.96609777e-02 +2.17856448e-02 +7.25303665e-02 +2.95920856e-02 -2.39122987e-01 +6.90074861e-02 -7.57810324e-02 -5.33169731e-02 +2.12148931e-02 -1.37119338e-01 +8.61861929e-02 -6.16452172e-02 +1.56106409e-02 +2.68073946e-01 +3.99404094e-02 +1.03292741e-01 +9.54650566e-02 +1.05746031e-01 +1.21637315e-01 -3.30650687e-01 +6.74331710e-02 +2.24772636e-02 +9.40037519e-02 -8.66621956e-02 +9.92528424e-02 -6.85105920e-02 +6.27630726e-02 -5.12656271e-02 +5.70264421e-02 -1.29862621e-01 -1.73548535e-01 -1.49718234e-02 -1.29546180e-01 -1.90620884e-01 +8.28533396e-02 -9.30538177e-02 -7.31392205e-03 -2.43568681e-02 -6.85242355e-01 +9.20827501e-03 -1.43376976e-01 +5.99767342e-02 -2.85763234e-01 +5.91573231e-02 +7.97090083e-02 +1.95261613e-01 +9.18115750e-02 -3.69523540e-02 +4.76686135e-02 +4.17100191e-02 +8.36874545e-02 +6.09511495e-01 -2.59113252e-01 +4.35124040e-02 -5.87222874e-02 +8.88603330e-02 +6.18648291e-01 -6.72921613e-02 -3.17213237e-02 +3.40305753e-02 -6.21066205e-02 -8.85534585e-02 -5.98650128e-02 +5.38184196e-02 -6.45422861e-02 +9.13158953e-02 -1.43285366e-02 -2.15489820e-01 +1.19213434e-02 -9.58093479e-02 -2.19482958e-01 -2.62320518e-01 +1.00038424e-01 -5.83371408e-02 -2.96205014e-01 +3.83774564e-02 -2.26896256e-01 -5.30764870e-02 +1.25018999e-01 -7.18875229e-02 +1.40458578e-02 +9.51325521e-02 +8.14710483e-02 -2.88138483e-02 +9.41772833e-02 +8.79459903e-02 -1.89035073e-01 +6.55343086e-02 -7.83633962e-02 +1.83344141e-01 +2.34590054e-01 +8.20311308e-02 +1.00574397e-01 -7.35947937e-02 +8.13583210e-02 -2.35161036e-02 -2.43633073e-02 +4.75449301e-02 +7.92004466e-02 -4.20122407e-02 -6.80621713e-03 -3.32522422e-01 +1.28627196e-02 +2.20493134e-03 -1.09614968e-01 -2.41623912e-02 +1.00992151e-01 -8.57672468e-03 +1.23196349e-01 -3.59345585e-01 -2.65226960e-01 +6.59275949e-02 +6.09536767e-02 +8.49412009e-02 +8.26560706e-03 -9.61054116e-03 +3.72759365e-02 +1.70355603e-01 -3.12534153e-01 -2.14660279e-02 +2.01496622e-03 +1.29768103e-01 +8.65149945e-02 +5.23273274e-03 -2.18167007e-02 -4.19717096e-02 -6.51138052e-02 +6.57549724e-02 -1.96561947e-01 -2.51682878e-01 -9.01190788e-02 +4.09195982e-02 +9.99189690e-02 +4.00956757e-02 +6.09228313e-02 -6.20386675e-02 -2.41290584e-01 -2.40566686e-01 +2.59791482e-02 +1.72522701e-02 +6.72575235e-02 +3.24393883e-02 +2.99246106e-02 +7.12946104e-03 -6.25586212e-02 -2.12818906e-02 -2.46709883e-01 -9.81634334e-02 +1.88447520e-01 +5.00592589e-02 +9.91999432e-02 -7.53611624e-02 -3.15850116e-02 -7.32701868e-02 -3.21744263e-01 +2.19567835e-01 +9.83326808e-02 -3.36166620e-01 +6.25778316e-03 +3.74104194e-02 -5.00116460e-02 +1.36554554e-01 -4.03726585e-02 +7.43317604e-02 +2.55270928e-01 -7.44445994e-02 -4.85055447e-01 +1.20746650e-01 -9.44659784e-02 +1.49154933e-02 -3.19997489e-01 +6.57086968e-02 +2.47504432e-02 -4.42895014e-03 +8.76901448e-02 +6.49187788e-02 +5.70152840e-03 -1.46308569e-02 -6.16945885e-02 +1.24329418e-01 -2.98207730e-01 -2.15264916e-01 -1.71618730e-01 +7.81116858e-02 +1.13413401e-01 -3.23867612e-02 +2.61139832e-02 -1.19387470e-01 -1.79207489e-01 +1.19990548e-02 -2.33613864e-01 +4.30698022e-02 +2.79338118e-02 +1.33839294e-01 -3.49998713e-01 +2.38903612e-02 +8.61913189e-02 -4.61821258e-02 -1.30909719e-02 +8.94923694e-03 +9.43900049e-02 -3.31385843e-02 -2.83868462e-02 +5.37974723e-02 +1.24976058e-02 -7.60654509e-01 -7.53217041e-02 +4.34955768e-02 -6.41401932e-02 -3.86909366e-01 -1.09066851e-01 -3.80161226e-01 -5.56685925e-02 -3.80493015e-01 -9.93673876e-02 -9.19394568e-02 -1.63474822e+00 -4.61148024e-02 -1.57626539e-01 -5.25629878e-01 -1.03151664e-01 -3.10070634e-01 +5.08354455e-02 +1.14297569e-02 -3.37944403e-02 -1.52065143e-01 +8.27487707e-02 -3.92789254e-03 -2.07482052e+00 +1.20547637e-01 -7.53875256e-01 -4.04547080e-02 -2.71155238e-02 +7.95948580e-02 -9.32708606e-02 +4.43930402e-02 +8.32560211e-02 -4.19930667e-01 +6.47853613e-02 -3.40478510e-01 -1.06876239e-01 -8.86878818e-02 -3.51632059e-01 -4.36391443e-01 +8.94004256e-02 -1.68402776e-01 -2.10563913e-02 +5.93041815e-02 -8.17029795e-05 -3.70007575e-01 -2.94213947e-02 -1.65715706e+00 -1.65056810e-02 -8.21967959e-01 +8.45468864e-02 -9.60159302e-02 -1.21738732e+00 +7.89803863e-02 -3.34420800e-01 -5.44108868e-01 -3.06093574e-01 -9.88562927e-02 +9.60927922e-03 -1.02874315e+00 -2.02550460e-02 +2.38371659e-02 -1.42895424e+00 -7.20638260e-02 -5.68016469e-02 +3.51545848e-02 -4.39834706e-02 -1.69780457e+00 -3.02188210e-02 -7.39803165e-02 -2.24481210e-01 -5.50478026e-02 -7.36262277e-02 -1.13096446e-01 -4.79073822e-02 -9.14538875e-02 +8.64876583e-02 +5.74671254e-02 -9.74502601e-03 -2.21199542e-02 -4.32363525e-02 +1.83796994e-02 -1.13363065e-01 -8.25945958e-02 -5.58700860e-01 -6.04580700e-01 -3.85522223e+00 -2.23015845e-02 -1.80326372e-01 -8.91661867e-02 -1.43749571e+00 +8.65228772e-02 +5.30690849e-02 +6.82566464e-02 -1.84531197e-01 -7.46304616e-02 -1.08153395e-01 -3.17449830e-02 -9.83982533e-02 +9.12902281e-02 -3.02173078e-01 -8.68537053e-02 -8.20071697e-02 -8.21370259e-02 -6.64124429e-01 -6.73336312e-02 -7.18848631e-02 -3.69538777e-02 -8.46590847e-02 -1.06244482e-01 -9.20515209e-02 +7.45751411e-02 +7.98013955e-02 +7.55596459e-02 +6.98553920e-02 -1.05647612e+00 +4.19917032e-02 -1.16423357e+00 -2.28500252e+01 -7.91346058e-02 -4.13467846e-04 -8.23103786e-02 -2.74226785e-01 -9.95291173e-02 -1.15319550e-01 -6.68347105e-02 -1.99918244e-02 -1.10001087e-01 -2.48098075e-01 +7.66844153e-02 -1.00697279e-01 -4.26517893e-03 +2.63436865e-02 -1.65695012e-01 -6.65723830e-02 +5.46084940e-02 +2.40339004e-02 -3.04869503e-01 +1.04631320e-01 +8.89830366e-02 -5.47461137e-02 -8.80161021e-03 -6.38208315e-02 -8.16211291e-03 -1.95090503e-01 +4.50217053e-02 -7.84469619e-02 -3.09410781e-01 +3.86993587e-02 +4.55535669e-03 -6.32767975e-01 -4.39874113e-01 -3.70709337e-02 -6.06144071e-01 +3.08580026e-02 -7.00997412e-02 +4.43390571e-02 -1.23651397e+00 -1.14384997e+00 -1.02413818e-01 -1.06723428e+00 -1.24968827e-01 +1.04057811e-01 -1.94200099e-01 -3.16297412e-01 -1.77608132e-01 -5.81057556e-02 -1.40441939e-01 -8.78184568e-03 -2.61523664e-01 +3.97841670e-02 -6.64342940e-02 +2.46558845e-01 +3.34723294e-02 -3.73716559e-03 +1.88418135e-01 -1.29780382e-01 -2.46695191e-01 -1.71534762e-01 -2.31493525e-02 +3.84663008e-02 +5.05484082e-02 -1.09316766e-01 +1.14371054e-01 -4.07698125e-01 -4.13940996e-01 -6.68981075e-01 +2.26801056e-02 -7.74123371e-02 -2.80353930e-02 -2.14918256e-01 +8.27322062e-03 +8.08276013e-02 -7.85903782e-02 -2.27652803e-01 -1.12939119e-01 +1.03472336e-03 +2.79567204e-02 +6.92808107e-02 -2.49507814e-03 -8.72236863e-02 +6.50424585e-02 +8.96212608e-02 +4.94016707e-02 -1.92053486e-02 +9.18040350e-02 +2.77202129e-01 +3.39050777e-02 -2.51079779e-02 +1.66418180e-01 -1.11878384e-02 -1.13455914e-01 +4.62606661e-02 +4.19451371e-02 -5.17355092e-03 +7.67991841e-02 -9.14111435e-02 -2.10006022e+00 +8.44080970e-02 +1.37493648e-02 -5.50197950e-03 +2.18256503e-01 -8.12203437e-02 +6.48195520e-02 +8.78705680e-02 +8.65473673e-02 +9.94214118e-02 +5.15703559e-02 -2.89594203e-01 -7.04151299e-03 -6.77767321e-02 +6.12229668e-02 -4.75887321e-02 +1.29246533e-01 +2.76650637e-01 +1.29999772e-01 +2.34659165e-01 -6.33225143e-02 +1.42182680e-02 -6.59558624e-02 -7.57808611e-02 +1.57344177e-01 +2.57612243e-02 +6.60449564e-02 -1.14714541e-01 +1.71235979e-01 -4.83840145e-03 +9.88654420e-03 +1.54042214e-01 +5.54846153e-02 -1.04964018e-01 +6.29621521e-02 +9.58998874e-03 +7.37995803e-02 +7.78129250e-02 +9.34756845e-02 +8.96509439e-02 +1.38290852e-01 -1.12539083e-02 -1.16310492e-01 -9.86559168e-02 +3.20717022e-02 +1.51807055e-01 -1.06718391e-02 -1.09810442e-01 +1.03920825e-01 +7.61344135e-02 +2.58911531e-02 +2.85826679e-02 -7.85586759e-02 +1.90369993e-01 -1.00188352e-01 -2.65300293e-02 -9.22457874e-02 +1.95527911e-01 +1.83858331e-02 -1.24275368e-02 -4.24126089e-02 -1.05266936e-01 -9.49889980e-03 -3.22709270e-02 +2.56694723e-02 +8.72163028e-02 +4.34993431e-02 +1.04844049e-01 +2.63346136e-01 -1.72441565e-02 -3.00388001e-02 -1.15641467e-01 -2.53551337e-03 +8.89874622e-02 -9.48932767e-02 +1.61849141e-01 -1.03991576e-01 +6.76571503e-02 -9.45308805e-02 -5.30700982e-02 +4.26237136e-01 +2.90259272e-02 +1.01290559e-02 +2.24613547e-01 -9.88426730e-02 +3.97098847e-02 +8.26886669e-02 +2.15427652e-02 +2.17900187e-01 +1.69078186e-01 +7.68736452e-02 -2.40526274e-02 +4.82772999e-02 +7.97139332e-02 +3.34135331e-02 +5.81085272e-02 -9.83802751e-02 +1.71628475e-01 +3.18099894e-02 +2.67061055e-01 +1.65467754e-01 -8.22868869e-02 +1.77521128e-02 -9.18436795e-02 +4.29255888e-02 +8.96850824e-02 +2.35853624e-02 +1.02792546e-01 +2.46106669e-01 +1.64519101e-01 -2.14008149e-02 +4.12388286e-03 +5.68469353e-02 -3.83567251e-02 +8.86136144e-02 -1.05739245e-02 +2.32262090e-01 -1.11519463e-01 +1.21539580e-02 -7.10350201e-02 +1.32597163e-01 -4.73539252e-03 +3.15054879e-02 -2.50871442e-02 +6.71919733e-02 +2.83718884e-01 +8.72974992e-02 +6.42311126e-02 -5.95958065e-03 +2.71984488e-01 -1.85803637e-01 -6.41116723e-02 +1.47360429e-01 -2.21951038e-01 +1.84107587e-01 +2.25903690e-02 +2.76324779e-01 -6.64771944e-02 +3.39653902e-02 -1.13428168e-01 +6.16307519e-02 -1.97321028e-01 +3.26444469e-02 +1.61025748e-02 -1.31541491e-01 -1.30925357e-01 +3.56527753e-02 +2.17667237e-01 +3.61687124e-01 +5.32239452e-02 +1.49798468e-01 +3.69063090e-03 -2.46622515e+00 -5.57679981e-02 +5.75070791e-02 +1.14805391e-02 +3.94533668e-03 +7.86235332e-02 +1.08003378e-01 -2.76848841e-02 +6.41421527e-02 +6.42045289e-02 -8.14054608e-02 +6.60209879e-02 +2.83016395e-02 +2.55351029e-02 +4.77890018e-03 +2.17888132e-01 +2.15194643e-01 +2.67219484e-01 +5.84743358e-02 +7.92170465e-02 +7.30910897e-02 +3.08587346e-02 -3.59920487e-02 -1.09171674e-01 +7.94172212e-02 +1.23989776e-01 -8.98192227e-02 -3.91547419e-02 +8.47707912e-02 +3.64647359e-02 -9.56521928e-02 -4.92431283e-01 +4.44152541e-02 -1.04414731e-01 +6.55024275e-02 +2.38630008e-02 -8.79687667e-02 -6.62010675e-03 -9.97861475e-03 +4.65739779e-02 +7.07727522e-02 +3.43450122e-02 +5.09728529e-02 -7.26304501e-02 +1.90435480e-02 +1.11741340e-02 -9.62476283e-02 -3.66570195e-04 -5.43781221e-02 +7.13806897e-02 -2.51986496e-02 +5.48160113e-02 -1.53813828e-02 +2.98973713e-02 -6.09724037e-02 -1.12479553e-01 +6.52486309e-02 -2.09191039e-01 +7.63147995e-02 -2.45570540e+00 +7.86552057e-02 -8.06255341e-02 -3.20260450e-02 -7.23259151e-03 -1.96990460e-01 -2.13816360e-01 -1.13975666e-01 -2.53646046e-01 -1.23795651e-01 -1.38484240e-01 -2.66581745e-04 +7.67354891e-02 -1.85029916e-02 +7.11427405e-02 -5.80929816e-02 -9.87725556e-02 +4.48766202e-02 +3.71624343e-02 +7.55452737e-02 +1.48372158e-01 -6.14880808e-02 -9.14044008e-02 +4.36025895e-02 +2.28906512e-01 -7.45296553e-02 +1.63663030e-02 +3.93343065e-03 -3.26156095e-02 +1.63604409e-01 -5.64375110e-02 -3.48736756e-02 -1.55745335e-02 +5.09050973e-02 -1.95430100e-01 -5.93097305e+00 +9.83910635e-03 -9.50443223e-02 -1.34458154e-01 -3.44154865e-01 -7.28366245e-03 -9.15865377e-02 -8.54608893e-01 -4.76677492e-02 +3.28020677e-02 -9.81278345e-02 +1.88764438e-01 -8.48189592e-02 +8.26470107e-02 +6.75936937e-02 -1.28534408e-02 +5.42638041e-02 +9.20152292e-02 +5.48332259e-02 +7.18563870e-02 -8.03063214e-02 +7.37751052e-02 +1.29159972e-01 -3.25413048e-01 +1.80981606e-02 -1.64690554e-01 +9.27236751e-02 +5.80860637e-02 +1.12425713e-02 -9.64166224e-02 -8.63620415e-02 +1.59175217e-01 +3.92093062e-02 -1.61487404e-02 -4.89609301e-01 -6.86919838e-02 -1.19832912e-02 -3.30410033e-01 -9.54362768e-05 -1.77201889e-02 +2.77461503e-02 -1.05828881e-01 -1.00455411e-01 -5.40373065e-02 +8.62096250e-02 -1.01610728e-01 -6.66867420e-02 -2.21894053e-03 +1.24730356e-02 +1.89998075e-02 -6.00784905e-02 -6.31803945e-02 -2.52863795e-01 +1.44744813e-01 -6.85606971e-02 -1.45049263e-02 -6.84614927e-02 +8.73194933e-02 -6.55508190e-02 +1.51283657e-02 +6.40154583e-03 -9.17300135e-02 -1.21350601e-01 +5.32598607e-02 -9.90891680e-02 -3.84576060e-02 -1.06372818e-01 +7.19625801e-02 +5.97355142e-02 -1.58795435e-02 -2.35143289e-01 -4.19073291e-02 +5.95924854e-02 +1.48025295e-02 +3.07055600e-02 -1.35830501e-02 +4.77123819e-02 +5.89604452e-02 -2.09032334e-02 -3.55470628e-01 -8.62140558e-04 +2.80908234e-02 -1.20593384e-01 -6.28710911e-02 -8.80729780e-02 -6.97930530e-03 +6.78348392e-02 -2.20936775e+00 -8.86474103e-02 +1.21993050e-02 +4.22167443e-02 -9.30075869e-02 +7.53719136e-02 -2.13557966e-02 -1.37170330e-01 +4.01519388e-02 -3.86073776e-02 -2.18276214e-02 -1.13139139e-03 -2.80729294e-01 +4.85457964e-02 -2.58141994e-01 -2.91742217e-02 -1.54018059e-01 -1.91468909e-01 -4.15426865e-02 -1.23483813e+00 +5.66617474e-02 +5.42419069e-02 +1.91889203e-03 +3.50010791e-03 -5.62485382e-02 -2.34858885e-01 -6.99215978e-02 -2.30009913e-01 +7.70323351e-02 +6.58111274e-02 -9.89644602e-03 -6.95282668e-02 -5.19439206e-02 -4.86332625e-02 -1.79810047e-01 -3.00108850e-01 -3.26780051e-01 +2.30090450e-02 -1.67715177e-02 -7.30840415e-02 -2.00637251e-01 +1.31236417e-02 +6.36648610e-02 +3.59383412e-02 -9.89343822e-02 -8.77957139e-03 -8.99190828e-02 -4.44082469e-02 +9.18053761e-02 +3.32379853e-03 -7.66222253e-02 -1.76759183e-01 -3.76346409e-02 -6.57883659e-02 +6.84271827e-02 -6.62664771e-02 +1.60666466e-01 -1.54387072e-01 +1.11575089e-01 -8.21897909e-02 +3.57962288e-02 +1.99031713e-03 +6.90913759e-03 +1.07903540e-01 +8.30639452e-02 -3.14952821e-01 -9.62486863e-02 -1.85570836e-01 +7.07925782e-02 +5.42373918e-02 +1.13857768e-01 -1.76427811e-01 +1.02012113e-01 +2.91238781e-02 +7.09732110e-03 +2.73230914e-02 -6.52552769e-02 +1.58487670e-02 +9.39624250e-01 -1.39680356e-01 +8.07506219e-03 -9.56254974e-02 +1.34095743e-01 +5.57424612e-02 -2.82537162e-01 +1.08321372e-03 +9.48216021e-02 +3.63039635e-02 -2.12898701e-01 -2.58494020e-01 +5.59953190e-02 +1.89077705e-02 +6.53495342e-02 +1.57275889e-02 -3.08955722e-02 -1.36230648e-01 +9.42895338e-02 -6.77067712e-02 -3.36676210e-01 -1.00772642e-01 +8.54624212e-02 -3.94899100e-02 -9.95597914e-02 -6.21859059e-02 -4.77801897e-02 -8.25653970e-02 +3.28795090e-02 -1.55196264e-01 -6.34133294e-02 +1.08886641e-02 +1.63596999e-02 +9.56563205e-02 +5.30255102e-02 +1.21891581e-01 +9.28871185e-02 -8.06874111e-02 -1.60072088e-01 -1.31699294e-01 -4.93027009e-02 +6.75601959e-02 -3.25678468e-01 +4.55689104e-03 -3.71212840e-01 -7.96876475e-02 +2.18768753e-02 +1.16238529e-02 +6.87757507e-02 -1.03282414e-01 -1.15494039e-02 +9.97501239e-03 -8.16827361e-03 -4.58955951e-02 -9.55793932e-02 +1.05066732e-01 -9.71962884e-02 -1.61234811e-01 -8.33309721e-03 +9.44590941e-02 +8.44296589e-02 +2.43658349e-02 -2.70334966e-02 +4.32689264e-02 +5.83170131e-02 -7.09595624e-03 -7.81061314e-03 +8.84314347e-03 -5.63751124e-02 +1.32605001e-01 -4.27400246e-02 -2.11901981e-02 +1.34786308e-01 +6.87928870e-02 -1.13891615e-02 -2.97280978e-02 -8.13091472e-02 -1.44153312e-01 -1.85920760e-01 -4.84842658e-02 +2.68539358e-02 -7.61740208e-02 +1.26980886e-01 -3.64850722e-02 +1.01741314e-01 -2.65247822e-02 -2.49469250e-01 -9.67012122e-02 -1.82628751e-01 +5.18588629e-03 -1.12935007e-01 +3.29720676e-02 +1.07071437e-01 -5.13677336e-02 -1.79431155e-01 +6.98869005e-02 -1.18472755e-01 -1.01214215e-01 -4.69426587e-02 +5.99770062e-02 -2.08863094e-02 -4.57941741e-02 +4.94487174e-02 +1.08055733e-01 +4.77367453e-02 -4.08824310e-02 -4.78197597e-02 -7.30660185e-02 +1.81799140e-02 +3.98112275e-02 +3.80332731e-02 +2.98821287e-05 +5.73068634e-02 -1.36170253e-01 -6.68320507e-02 -1.25203401e-01 -1.87922735e-02 -1.93184556e-03 +1.23756655e-01 -2.03511149e-01 -1.88287590e-02 -2.33629197e-01 -1.51105210e-01 +1.06437691e-01 -3.19256224e-02 -8.02647948e-01 -4.24533412e-02 +7.25231767e-02 +7.62868822e-02 -2.47420445e-02 -1.69137225e-01 +1.06825255e-01 -1.28608884e-03 +7.82583058e-02 -2.00215176e-01 -4.48534749e-02 +1.71988513e-02 +3.77517566e-02 -2.79708833e-01 -2.45388318e-02 +4.12434936e-02 +4.98017222e-01 +6.94657564e-02 +5.73547743e-02 +6.28937557e-02 -3.29184383e-02 -8.45309868e-02 +2.23048031e-01 -1.77219093e-01 -1.47697136e-01 -1.42347127e-01 +8.71875063e-02 +2.00731494e-02 +8.55474919e-03 -8.50749016e-03 -6.00031689e-02 -9.83533412e-02 +1.50676444e-01 -1.32957801e-01 +1.03479661e-01 +1.09730475e-01 -4.18393277e-02 -1.56230450e-01 -8.75419453e-02 +9.09919366e-02 -4.36142944e-02 -1.21542960e-01 -2.97084507e-02 +9.86446440e-02 -9.59870592e-02 -3.75576951e-02 +3.95756364e-02 -1.90028965e-01 +5.12697101e-02 -2.64150128e-02 +1.23747597e-02 +7.86187947e-02 +1.03565075e-01 +2.25976676e-01 +1.24172270e-01 -6.06655553e-02 +5.23440465e-02 +4.31015417e-02 +2.92843562e-02 +2.42843404e-01 -1.88722322e-03 -6.83154166e-02 -1.66685786e-02 +8.79446566e-02 -2.10527396e+00 +7.16380402e-02 -6.54332265e-02 -9.96743217e-02 +2.20850632e-01 -1.43052384e-01 -6.10007010e-02 +1.85348153e-01 +6.65431768e-02 +6.65476248e-02 +3.34796542e-03 -4.30282950e-01 +2.58934125e-02 -7.24443868e-02 -8.89040902e-02 +4.91228737e-02 +1.68939486e-01 +1.71326280e-01 +1.15901448e-01 +2.85718292e-01 -9.51173306e-02 +8.88122916e-02 -9.51641873e-02 +5.15923537e-02 +7.74222314e-02 -6.47851974e-02 +4.37235311e-02 +3.24479528e-02 +1.57230735e-01 +4.15600836e-02 +1.23390434e-02 +2.36832961e-01 +1.90690324e-01 -3.12620364e-02 +3.46005037e-02 +1.60907045e-01 +2.80188415e-02 +2.20392242e-01 +1.01749167e-01 +1.89259484e-01 +1.04552507e-01 -1.06826127e-01 -5.43966219e-02 -5.40985838e-02 -9.58649963e-02 -1.29504791e-02 -1.66578755e-01 -1.15997724e-01 +2.44061574e-02 +1.28446996e-01 +9.67295468e-02 +3.80671620e-02 +4.20797393e-02 +1.97899103e-01 -3.77783701e-02 -5.24875149e-02 -4.23287004e-02 +6.85085282e-02 +7.60426372e-02 +2.09487006e-02 -7.58204609e-02 +6.78278580e-02 +3.85073759e-02 +6.11790344e-02 -9.66444686e-02 +6.85961321e-02 +4.78875600e-02 +9.79536865e-03 +1.84971079e-01 +9.72840860e-02 -3.10142227e-02 -4.10610363e-02 -6.41162470e-02 +1.73087656e-01 -5.02327345e-02 +7.38795847e-02 -5.60749136e-02 -2.64639612e-02 +7.48087317e-02 -8.10616985e-02 +2.65569985e-01 -4.10582125e-02 +3.62798497e-02 +2.26716861e-01 +7.51164630e-02 +3.06852013e-02 +7.45622888e-02 +1.62925031e-02 +2.91840956e-02 +4.19392735e-02 +3.39375883e-02 +2.48247627e-02 +1.91257079e-03 +7.47404173e-02 +1.92116182e-02 +4.94359657e-02 -5.72724640e-02 +1.57696128e-01 +9.90002453e-02 +1.17476307e-01 +5.41336760e-02 -8.91745687e-02 +3.46039422e-02 -8.58964622e-02 +7.20014945e-02 -2.81472616e-02 -7.49302208e-02 +9.22104642e-02 +2.90073365e-01 +3.87221538e-02 +2.23829225e-02 +2.75101978e-02 -9.24443677e-02 -1.01624906e-01 +6.24818204e-04 +1.71270043e-01 +2.86008626e-01 -4.04662974e-02 -5.85223325e-02 -3.45791541e-02 +1.59660250e-01 -5.78312250e-03 -5.99457882e-02 +3.33258957e-02 +2.07650531e-02 +2.99223036e-01 +3.76898758e-02 +7.37420619e-02 +8.42243060e-02 +2.33406439e-01 -1.81740582e-01 -9.46083665e-02 +1.94819927e-01 -1.34664392e-02 +1.50968820e-01 +9.72144380e-02 +3.79732072e-01 -4.52749431e-02 +5.55802435e-02 -1.09198041e-01 +1.02972865e-01 -1.91840500e-01 -2.71224622e-02 -8.42338428e-02 +2.73235925e-02 -1.63610578e-01 +7.68331960e-02 +1.21615879e-01 +3.43476892e-01 +1.64041758e-01 +9.33751464e-02 +6.15475774e-02 -2.38095331e+00 -7.07046911e-02 -9.87304896e-02 -1.59673598e-02 -9.66589898e-02 -2.19133012e-02 +7.30666518e-02 -9.86809656e-03 +2.40859240e-01 +1.32381380e-01 +2.94936262e-02 +4.64717783e-02 +2.24270709e-02 +5.31819314e-02 -5.70662729e-02 +1.66046396e-01 +2.61032552e-01 +2.78683245e-01 -1.09294392e-01 +4.04512025e-02 +1.91087760e-02 +6.26306087e-02 +3.92310359e-02 -2.19780263e-02 +7.88889527e-02 +2.05256678e-02 +1.09593058e-02 -9.53534395e-02 +3.19668390e-02 +1.69351995e-02 +4.78462037e-03 -1.61328524e-01 +6.19822480e-02 +7.71310478e-02 -7.48816952e-02 -6.71198219e-02 -7.54773617e-02 +1.91219568e-01 -3.44639942e-02 +3.74361128e-02 +2.90822893e-01 +6.22987859e-02 +2.17826366e-02 +1.60453320e-01 -7.27576315e-02 -5.88969439e-02 -3.47182870e-01 +6.21409081e-02 -1.09775983e-01 +2.86452603e-02 +5.73263839e-02 -7.50536323e-02 -1.42559469e-01 +1.82696968e-01 -1.49080446e-02 +4.41569686e-02 +8.71926267e-03 -1.37925282e-01 +3.15333009e-02 +1.81552470e-02 -1.42527014e-01 +3.48785333e-02 -8.09774473e-02 +5.69670126e-02 -3.84227931e-02 -7.71300912e-01 +1.68502480e-01 -9.33231190e-02 -7.60875689e-03 -2.69482374e-01 +2.17145626e-02 +9.07439962e-02 +1.71514199e-04 +1.06909290e-01 -4.10422459e-02 +6.17065318e-02 +3.33190113e-02 +4.00570408e-02 +5.41049480e-01 -2.84979403e-01 -2.13927366e-02 -5.93189662e-03 +2.69828346e-02 +6.62171841e-01 +5.12215830e-02 +9.54600647e-02 +1.94147378e-01 -1.15204230e-02 +2.48027816e-02 +5.04636467e-02 +4.63283174e-02 -6.99189231e-02 -2.44633183e-02 -8.97410035e-04 -6.34274632e-02 +2.20934432e-02 -8.23717937e-02 -1.72156274e-01 -3.32384855e-01 +1.86381284e-02 +5.77394664e-03 -3.88186514e-01 -7.41302371e-02 -1.84214011e-01 +2.12049019e-02 +9.09444019e-02 -7.96727017e-02 +7.65368268e-02 +8.17815512e-02 +9.49012265e-02 +1.05721720e-01 -1.99661236e-02 +4.25941721e-02 -3.67065370e-02 +7.57968575e-02 -1.11676589e-01 +1.38312250e-01 +1.96126133e-01 +8.04035217e-02 +1.42928004e-01 +3.09952423e-02 +1.65621296e-01 -4.97559048e-02 -8.78516510e-02 -7.03158751e-02 -1.04479375e-03 +6.11419007e-02 +1.37534603e-01 -3.77008975e-01 -9.48595628e-02 +2.71662883e-02 -1.19094543e-01 +2.55855042e-02 +1.10569529e-01 +3.78538631e-02 +1.43195853e-01 -3.70824546e-01 -7.54357576e-02 +6.67934567e-02 +1.01605847e-01 +6.83440492e-02 +9.01857093e-02 +8.37106407e-02 -3.33405994e-02 +1.10974811e-01 -3.20422024e-01 -1.21985942e-01 -1.57304555e-01 +1.30118161e-01 +1.15854286e-01 -3.96437338e-03 -1.40239513e-02 +2.17922926e-02 -2.45867237e-01 -8.36535022e-02 -1.33683279e-01 -1.65103287e-01 -1.94219351e-01 -5.34082502e-02 -3.30818519e-02 +6.17161170e-02 -8.77444148e-02 -5.75172082e-02 -8.16322342e-02 -1.47305772e-01 +8.16512667e-03 +8.64647329e-03 +2.04422604e-02 +5.12519181e-02 +2.73184925e-02 -6.35407567e-02 -7.89465383e-02 +4.86508645e-02 -2.58792520e-01 -3.66475545e-02 -9.43149999e-03 +5.91274239e-02 -2.41037961e-02 -2.25557432e-01 +2.83415094e-02 -1.80010319e-01 -3.57530087e-01 +2.55277038e-01 -8.74009728e-02 -2.09627479e-01 +6.75546750e-02 +2.64523607e-02 +1.38436835e-02 +6.51249215e-02 -9.26429406e-02 -1.88949537e-02 +5.26412539e-02 -2.47557871e-02 -3.90370369e-01 +1.00576214e-01 -1.58352599e-01 +1.01916708e-01 -3.72005135e-01 -7.70247355e-02 -8.59059170e-02 +3.03224232e-02 +1.03761703e-01 -5.95441796e-02 -1.51439548e-01 +6.52711168e-02 +2.37588417e-02 +1.06190883e-01 -1.21645540e-01 -1.17861971e-01 -1.77685231e-01 +6.49824664e-02 +2.48786733e-02 +4.70781513e-03 +1.05001472e-01 +1.17329899e-02 -1.86127335e-01 -5.58191817e-03 -1.92168802e-01 +2.52313148e-02 +3.46779898e-02 -6.80324361e-02 -2.09598929e-01 +1.04712717e-01 +1.09774627e-01 +8.70120600e-02 -1.06284223e-01 +3.33658978e-02 +7.17113167e-02 +3.05893272e-02 -4.53704447e-02 -1.15467645e-02 +1.29685730e-01 -6.96043193e-01 -1.04726084e-01 -7.69724026e-02 +5.90969734e-02 -3.32713813e-01 -9.10443366e-02 -3.21863770e-01 -1.00680098e-01 -5.31448185e-01 -7.34978169e-02 -4.90574799e-02 -1.52368760e+00 -5.50324060e-02 -1.36592120e-01 -5.44078171e-01 +2.32939161e-02 -3.42898667e-01 -3.94566543e-02 +2.11434662e-02 -6.92766383e-02 -2.67003834e-01 -7.16304630e-02 -8.64243954e-02 -2.04173803e+00 +4.82135378e-02 -7.78297126e-01 +1.32911801e-02 -5.87414717e-03 -8.93658996e-02 +4.18913364e-02 -5.65154888e-02 +7.95936398e-03 -2.40874618e-01 +2.02674702e-01 -1.93211719e-01 +7.78785534e-03 +2.60356460e-02 -2.75726795e-01 -3.57933879e-01 -9.47247967e-02 -2.53363788e-01 -1.72352903e-02 +4.35801670e-02 +9.39990580e-02 -4.99763846e-01 -1.12417318e-01 -1.73934662e+00 +6.89233020e-02 -7.95729816e-01 -1.82250272e-02 -1.90247521e-02 -1.07605982e+00 -7.63386339e-02 -3.61675590e-01 -5.06284773e-01 -3.65465283e-01 +7.78591959e-03 +2.27004308e-02 -1.05640996e+00 -5.14177456e-02 +3.94279286e-02 -1.26274908e+00 -8.05915445e-02 -1.48338765e-01 +3.94245796e-03 +1.84320509e-02 -1.64387691e+00 -1.10978596e-02 -6.25400022e-02 -2.06471398e-01 -3.31846662e-02 -3.96901555e-02 -4.90427203e-02 -2.13193864e-01 -6.05822019e-02 +4.17967699e-02 +6.09192997e-02 +4.52326685e-02 -2.40221843e-02 +7.14526698e-02 -3.96883525e-02 -1.69166923e-01 +7.62527511e-02 -6.77451193e-01 -5.83974600e-01 -3.87626147e+00 -4.20074761e-02 -2.23189369e-01 +2.34064572e-02 -1.57652843e+00 -7.45768324e-02 +1.02908380e-01 -3.29215042e-02 -2.54577726e-01 +9.09068808e-02 +5.65951355e-02 -1.51961148e-02 -3.73689421e-02 +1.88801363e-02 -1.99636817e-01 -3.04932036e-02 -6.11513704e-02 -6.97600543e-02 -6.20408654e-01 -7.74048939e-02 -1.77568689e-01 -2.25855261e-02 -9.62589532e-02 +6.80341292e-03 -9.41225588e-02 +2.71164272e-02 +7.52151459e-02 +1.02377728e-01 -4.04198579e-02 -1.04818773e+00 +3.39829028e-02 -1.10183251e+00 -2.28047848e+01 -1.84926167e-02 -9.86999273e-02 -2.89332191e-03 -3.71412456e-01 -1.42827872e-02 +8.31216723e-02 +6.72624335e-02 -1.69851389e-02 +1.32302204e-02 -2.20927849e-01 -2.86902729e-02 +2.96016689e-02 -5.39908707e-02 +3.55877317e-02 -9.41738412e-02 -4.57943268e-02 -7.13058710e-02 -4.81205918e-02 -4.45474446e-01 +9.72445309e-02 -9.70745552e-03 -9.88247767e-02 -6.73937276e-02 -9.71677303e-02 -1.08558491e-01 -2.00495720e-01 -1.14153540e-02 +2.38698050e-02 -2.66865879e-01 +6.80340230e-02 -2.01431662e-02 -6.23363793e-01 -4.51518804e-01 +3.53040621e-02 -6.33626878e-01 -9.64433104e-02 +3.37195061e-02 -7.66886324e-02 -1.24219584e+00 -1.18170393e+00 -5.84592484e-02 -1.12494349e+00 +2.56705862e-02 +5.32174669e-03 -1.56730279e-01 -2.49873787e-01 -1.83234662e-01 +2.77006663e-02 -2.82021761e-01 +6.50665909e-02 -2.58327901e-01 -1.03572041e-01 -3.85662392e-02 +2.69497782e-01 -6.60858974e-02 -6.03133813e-02 +1.55423060e-01 +1.50013482e-02 -1.26659617e-01 -3.42056185e-01 +2.96426080e-02 +6.67020380e-02 -7.29808956e-02 +3.45373563e-02 -8.30618441e-02 -4.50413913e-01 -2.97436833e-01 -6.70798838e-01 -6.11702949e-02 -2.16203108e-02 -9.85834822e-02 -1.41661465e-01 +1.81112196e-02 +9.76687483e-03 +6.04040399e-02 -3.41451466e-01 -4.16995026e-02 -6.79544881e-02 -2.93241031e-02 -1.05061010e-01 -5.69737516e-02 -8.12285841e-02 +1.26820073e-01 +4.54816744e-02 -7.31470138e-02 -9.45287719e-02 +1.50553763e-01 +2.62849480e-01 +2.07963474e-02 +2.16734335e-02 +1.87837645e-01 -6.47831261e-02 -1.35841861e-03 +1.57436490e-01 +2.08770623e-03 +6.18397854e-02 +1.00956541e-02 -8.38480666e-02 -2.23234892e+00 -1.12434262e-02 +5.41851041e-04 -1.11130355e-02 +2.24194437e-01 -6.18311688e-02 +8.55723172e-02 +9.84829292e-02 +1.25207484e-01 +6.44871518e-02 -8.73007402e-02 -3.59683484e-01 +4.98430841e-02 +7.11802319e-02 +4.50414605e-02 -1.22778155e-01 +7.91593418e-02 +2.72594601e-01 +3.13292742e-01 +2.57073462e-01 -5.34629859e-02 +5.30147702e-02 -1.18606679e-01 +7.11638341e-03 +1.55288875e-01 -2.42860187e-02 -7.16146305e-02 +4.86130118e-02 +6.20674901e-02 -9.43317041e-02 +5.81574719e-03 +2.95023888e-01 +1.52031377e-01 +7.61812553e-02 -6.05742522e-02 +4.40862998e-02 +6.05005622e-02 +2.44422972e-01 +7.04216585e-02 +9.64475796e-02 +5.92990816e-02 +3.73235680e-02 -7.55805224e-02 -2.47442704e-02 +4.84220050e-02 +1.42331913e-01 -2.04801992e-01 -5.58182970e-02 +7.22810626e-02 +3.44336666e-02 +9.69543383e-02 -2.18095519e-02 -7.02605471e-02 +2.89295167e-01 -3.40373889e-02 +5.52828126e-02 -9.64518487e-02 +2.22670913e-01 -2.31950451e-02 -7.28003308e-02 +1.73234660e-02 -1.16476845e-02 -8.77214223e-02 -7.47109950e-02 -1.28628062e-02 +1.02524236e-01 -5.66715896e-02 -5.56605086e-02 +2.55289316e-01 +1.58841312e-01 -9.70588401e-02 -6.83853403e-02 -5.29331639e-02 +2.75924262e-02 -5.42745702e-02 +7.52640292e-02 -1.04661942e-01 -7.23884553e-02 +2.60413103e-02 +2.44235955e-02 +2.87503421e-01 +1.95569061e-02 +1.34969074e-02 +2.45318368e-01 -6.11705333e-02 -6.34297729e-02 -1.01686239e-01 -6.08080178e-02 +4.46649976e-02 +1.38022065e-01 +4.09805849e-02 -3.96414772e-02 +4.04650941e-02 -1.13526724e-01 -1.04909681e-01 -2.97200549e-02 -7.54973432e-03 +7.89543539e-02 +1.23961389e-01 +8.90671238e-02 +4.81555648e-02 -1.63625941e-01 -1.09309241e-01 -7.77014196e-02 +5.70212267e-02 +6.36888519e-02 -7.42091313e-02 +1.14757061e-01 +1.95983663e-01 -2.60692276e-02 +3.31889801e-02 +7.90853351e-02 -1.86944976e-02 -1.06261179e-01 -3.38912047e-02 +1.53734595e-01 +1.00089014e-01 -4.51447554e-02 -4.33209762e-02 -7.74678811e-02 +1.29114836e-01 -8.97268504e-02 -5.35515957e-02 -8.06531385e-02 +6.74602389e-02 +2.00060114e-01 +9.53156129e-02 +3.48643921e-02 -1.16399802e-01 +1.56317592e-01 -1.92304954e-01 +2.04701796e-02 +8.66191834e-02 -8.04681033e-02 +1.45786017e-01 -6.92449287e-02 +2.17708841e-01 -1.15593337e-01 +3.62339616e-02 -5.19610010e-02 +8.76786932e-02 -2.13545576e-01 +6.00451082e-02 -4.27733921e-02 -7.66796172e-02 -1.17482744e-01 -3.49031296e-03 +9.57457721e-02 +2.19481349e-01 +3.10830921e-02 +2.70953447e-01 -1.07877538e-01 -2.38238621e+00 +4.84203324e-02 -6.13278337e-02 +1.43196568e-01 -1.12609133e-01 +6.17221929e-02 +9.01725665e-02 +6.25460818e-02 +1.39244810e-01 +2.57357694e-02 -9.47410017e-02 -9.40040350e-02 -6.14979714e-02 +1.58926081e-02 -5.87888472e-02 +1.39980689e-01 +2.08157375e-01 +1.35876298e-01 -4.46811691e-03 -6.66615646e-03 +8.87719318e-02 -8.67281929e-02 -8.14950690e-02 +5.97934574e-02 +5.14419563e-02 -6.88729435e-03 +3.16000879e-02 -8.72113854e-02 +3.42920162e-02 -1.31264061e-01 -7.86903054e-02 -4.56998348e-01 +1.70279771e-01 -8.61829426e-03 -9.59246010e-02 +6.07338473e-02 -1.83000848e-01 -4.85341400e-02 -3.90393659e-02 -9.08748135e-02 +1.57634482e-01 +5.87325804e-02 -1.18023582e-01 -1.31464571e-01 +1.42808100e-02 -1.58125386e-02 -6.85813054e-02 +8.52921531e-02 -3.45099904e-03 +8.57731476e-02 -5.63658476e-02 +4.38175686e-02 -6.26848489e-02 -8.07339251e-02 +2.80994847e-02 -1.78730249e-01 -9.44614410e-02 -6.31217957e-02 +2.65979208e-02 -2.61796451e+00 +1.36942804e-01 -1.62162352e-02 -7.79716894e-02 -1.46001220e-01 -2.06863016e-01 -1.81420922e-01 -9.00407881e-02 -4.15366560e-01 -9.94646102e-02 -1.12837911e-01 +8.15583020e-02 -1.15698250e-02 +5.04748337e-02 +8.99411738e-02 +4.51943837e-02 -6.81850985e-02 +4.14333828e-02 +2.00726315e-02 +1.30474791e-01 +1.80428505e-01 -1.24744885e-01 -9.07701179e-02 -2.00663228e-02 +1.88099682e-01 +2.02881964e-03 -4.03079651e-02 -4.06032428e-02 -3.72875296e-02 +1.57268658e-01 -1.00610442e-01 -3.31664346e-02 +8.54697451e-02 +4.02559787e-02 -3.91569704e-01 -5.89461470e+00 -2.05811318e-02 +3.63307558e-02 -1.38967693e-01 -2.61741102e-01 -1.13356560e-01 -1.58706140e-02 -8.12083840e-01 +7.86601901e-02 -7.69931376e-02 -1.00250199e-01 +1.54298022e-01 -3.73410732e-02 -8.14317390e-02 +5.51964454e-02 -8.19213912e-02 -5.73822372e-02 +1.08233932e-03 -7.58412061e-03 +6.34630471e-02 +7.28864316e-03 -6.31763116e-02 +2.41519809e-02 -2.99234927e-01 -7.76402652e-02 -5.47826961e-02 -4.95721176e-02 -4.23914380e-02 +3.19804214e-02 -1.01244405e-01 -8.63290429e-02 +1.81959122e-01 +5.90094477e-02 +8.17539394e-02 -4.31101471e-01 +2.88017970e-02 -7.42948204e-02 -1.91552311e-01 -2.54346640e-03 -3.74112055e-02 +3.12792249e-02 -5.77333309e-02 -3.60945910e-02 -1.28376022e-01 +8.29413608e-02 -5.69831505e-02 +6.42695799e-02 +7.93670397e-03 +2.71495953e-02 -1.25149265e-02 +3.09882257e-02 -4.98015471e-02 -2.45350108e-01 +3.27258557e-01 -1.49781425e-02 -7.94013217e-02 +4.61741500e-02 +6.99838325e-02 -1.10436872e-01 -1.17260411e-01 -5.71648180e-02 +8.66151750e-02 -8.74174386e-02 +7.89289623e-02 +1.87468342e-02 -5.20174280e-02 +5.82188964e-02 -8.16538483e-02 +6.68623373e-02 -1.38714060e-01 -2.78581560e-01 +5.14456071e-02 +4.49247733e-02 +1.53421732e-02 -2.62709223e-02 -8.22056178e-03 +1.38228033e-02 +9.74580720e-02 -1.93460267e-02 -1.56430408e-01 -5.39671862e-03 -5.73677570e-02 +5.28782830e-02 -4.67376374e-02 +6.28251061e-02 -4.32540849e-02 +6.16962500e-02 -2.26780152e+00 -8.64000693e-02 +2.21864134e-02 +1.34954959e-01 +6.56243339e-02 -7.17569441e-02 +5.98181300e-02 -5.28425239e-02 +1.48753360e-01 -9.11107063e-02 +4.17593606e-02 -8.70931894e-03 -2.58220792e-01 -8.95778686e-02 -2.80087501e-01 -1.13087922e-01 -2.86060303e-01 -1.48639604e-01 -5.04533686e-02 -1.07709682e+00 +7.20290542e-02 -1.06388889e-01 +2.08004229e-02 +3.64937857e-02 -7.31314123e-02 -1.65064812e-01 -2.29406040e-02 -2.13475093e-01 +9.75147337e-02 +4.40693423e-02 +3.23591046e-02 +1.72329918e-02 +2.96088457e-02 -7.32901394e-02 -2.77404100e-01 -3.04420501e-01 -1.52642608e-01 +6.01878278e-02 -4.62697186e-02 -8.85407161e-03 -1.50741294e-01 -1.00983709e-01 +5.42951422e-03 -2.01816913e-02 -1.09318353e-01 -3.83410342e-02 +1.70725526e-03 +8.31198171e-02 -1.03903763e-01 +9.69224498e-02 +8.87349695e-02 -6.96882784e-01 -5.31093441e-02 -8.68777931e-02 +7.33174384e-02 -3.42424452e-01 -2.29660124e-01 -4.62752342e-01 -9.62426364e-02 -4.64572936e-01 +9.02835503e-02 -4.60412651e-02 -1.52992463e+00 -7.16348663e-02 -2.63143051e-02 -6.27613425e-01 -9.03670266e-02 -3.51693362e-01 -3.47753875e-02 +4.66694124e-02 +2.48222090e-02 -1.13759376e-01 -8.27838704e-02 -9.29387286e-02 -2.09076071e+00 +9.48799700e-02 -7.07167327e-01 -6.24691248e-02 +2.11350005e-02 -4.59927507e-02 -4.29355446e-03 -2.78845187e-02 +1.98247489e-02 -2.30213657e-01 +2.14158967e-01 -2.89844036e-01 -1.33655891e-01 +1.18483948e-02 -2.66446471e-01 -3.63407403e-01 -6.00207075e-02 -3.19451779e-01 -1.51765263e-02 -8.97132084e-02 +6.84697479e-02 -4.63587940e-01 -1.55736789e-01 -1.73844790e+00 +1.99413337e-02 -8.87289107e-01 +4.77173515e-02 -7.43169188e-02 -1.08634651e+00 -1.50859170e-02 -4.22422022e-01 -5.09836495e-01 -3.62279445e-01 -2.88829431e-02 +8.07508901e-02 -1.00645590e+00 +3.32136005e-02 -6.15496002e-02 -1.27933466e+00 -7.06642643e-02 -7.64699057e-02 -1.09795123e-01 -4.09482904e-02 -1.67149222e+00 -4.90589291e-02 -9.98615399e-02 -4.02455151e-01 +4.45294455e-02 -1.88686311e-01 -7.15294778e-02 -2.09229112e-01 +3.01960930e-02 -1.71225276e-02 +5.44515066e-03 +2.11316813e-02 -1.06135741e-01 -3.14629003e-02 +5.48843630e-02 -2.63557494e-01 +3.95509712e-02 -7.15777993e-01 -6.35392547e-01 -3.88820148e+00 -1.12902366e-01 -2.58911908e-01 -2.38636862e-02 -1.51390004e+00 -2.87379399e-02 +8.39936361e-02 -9.28680524e-02 -2.33969435e-01 +8.22141394e-02 -9.21461210e-02 -4.81817173e-03 +2.65732240e-02 +5.06845117e-02 -2.22421438e-01 +2.52322443e-02 -1.05762474e-01 +6.23856932e-02 -7.15787292e-01 -6.52058572e-02 -2.94592138e-02 -8.32004286e-03 -8.70806202e-02 -4.40954696e-03 +5.88341281e-02 -9.32676122e-02 -6.27445728e-02 +2.60284282e-02 -5.53587861e-02 -1.15245771e+00 -8.95073265e-03 -1.24660277e+00 -2.28161812e+01 +1.77906863e-02 -5.52459918e-02 -2.03514006e-02 -3.43116015e-01 +5.54479472e-02 -2.64729615e-02 -5.09284474e-02 -7.91290998e-02 -3.31603317e-03 -2.81988502e-01 -9.31353197e-02 -1.02985702e-01 +1.10663259e-02 +6.64153099e-02 -9.58849192e-02 +5.63341044e-02 +4.25881036e-02 +8.60392451e-02 -3.12634915e-01 -1.16723860e-02 +6.00633770e-03 +4.71487604e-02 -1.86945617e-01 -2.55890757e-01 -1.01424672e-01 -1.68558389e-01 -4.85542677e-02 -6.89598843e-02 -2.61049688e-01 +6.70578331e-02 -4.73362803e-02 -6.16068184e-01 -5.30418456e-01 +1.66444127e-02 -5.27586281e-01 +7.50646368e-02 +5.68904988e-02 -1.34828076e-01 -1.33463395e+00 -1.18467271e+00 -7.79072940e-02 -9.51951861e-01 -1.41242132e-01 +1.57011256e-01 -2.11374536e-01 -2.84551948e-01 -1.17384136e-01 -1.47591442e-01 -2.61765629e-01 +6.87130727e-03 -3.45436841e-01 -6.90024346e-02 -7.14510828e-02 +2.32333675e-01 -2.24337652e-02 -2.40960866e-02 +1.95795894e-01 -3.90642881e-03 -2.15205029e-01 -3.31336886e-01 +2.31537540e-02 -4.86255437e-02 -1.28900602e-01 -2.21806131e-02 -1.38902012e-02 -5.05652428e-01 -3.50557476e-01 -7.95191586e-01 -8.82487372e-02 +4.24406119e-02 -1.05486050e-01 -2.44686946e-01 -5.97322918e-02 +3.47594731e-02 -5.69471680e-02 -2.88606316e-01 -6.02552816e-02 +7.34898150e-02 -1.59511417e-02 +7.40130022e-02 -6.28374368e-02 -1.31308651e-02 +5.97635843e-03 +5.29303625e-02 +6.75121183e-03 -4.05920595e-02 +2.05613915e-02 +3.24098676e-01 +1.61835089e-01 -1.13402210e-01 +7.75932968e-02 -6.87268674e-02 -1.02756657e-01 +1.36872694e-01 -7.25194067e-02 -9.94844213e-02 +7.63081163e-02 +5.17931730e-02 -2.13247585e+00 +5.26066869e-02 -7.97179565e-02 -2.92627756e-02 +2.35433280e-01 -4.75315303e-02 -4.60497588e-02 +1.60803109e-01 +8.56161267e-02 +1.20582156e-01 -8.62403139e-02 -2.64533073e-01 -8.42343345e-02 -2.46502515e-02 +7.28794709e-02 -1.32091507e-01 +1.63271591e-01 +1.76270694e-01 +3.09498578e-01 +3.26008826e-01 -3.52388397e-02 +8.08620676e-02 -3.32270078e-02 -3.22678052e-02 +9.54080075e-02 -5.82996458e-02 -2.80047208e-02 +8.57270509e-02 +2.54913777e-01 -7.10974410e-02 +1.72218204e-01 +1.29786029e-01 +9.85819697e-02 -4.70402278e-02 -5.10080829e-02 +9.75928009e-02 -1.30779035e-02 +8.64305496e-02 +2.19758064e-01 +1.28160091e-03 +1.69905484e-01 -7.21862540e-02 +7.31263682e-02 +5.55176921e-02 -7.91330542e-03 +6.75987378e-02 -1.65578812e-01 -4.57721986e-02 +6.02590442e-02 +1.37624979e-01 -6.43210635e-02 -1.02484457e-01 -5.16985133e-02 +3.46186161e-01 +8.64660069e-02 +4.86234091e-02 +2.04866156e-02 +5.08343764e-02 -6.99414909e-02 -1.03348747e-01 +1.77719258e-02 -3.14958617e-02 +7.69451633e-02 -1.90534454e-03 +1.08479324e-03 +1.75386891e-01 -1.10071916e-02 -1.50877051e-02 +2.05070809e-01 +1.38859585e-01 -9.56728384e-02 -8.73037055e-02 +2.27924762e-03 -1.59484819e-02 -1.02316283e-01 +4.72218432e-02 +5.21864928e-02 -5.01705930e-02 -5.26127918e-03 +4.47637923e-02 +4.18600470e-01 -9.76216570e-02 +6.94572926e-02 +2.49217957e-01 +1.99881550e-02 +5.16950749e-02 -3.24068568e-03 +1.02242306e-02 +1.47334188e-01 +1.65553659e-01 -1.83823716e-03 -2.81588361e-02 +7.86953047e-02 -1.01553053e-01 -7.06370100e-02 -5.23784235e-02 -2.50686146e-02 +2.23879263e-01 -6.80474341e-02 +8.23837593e-02 +2.10479155e-01 -1.08481303e-01 -9.32734907e-02 +2.47452762e-02 +8.90396461e-02 +7.45558441e-02 -7.02225789e-02 +5.69827892e-02 +1.99499115e-01 +6.18250407e-02 +7.92011321e-02 -2.40664613e-02 -1.81473407e-03 +6.51960224e-02 +6.34942129e-02 +3.47472653e-02 +2.38964215e-01 -3.81225422e-02 +2.33146921e-02 +3.67205627e-02 +9.83890221e-02 -2.55738609e-02 -2.26387219e-03 -4.42382433e-02 -3.05189881e-02 +2.46983051e-01 +1.34212151e-01 +3.80526744e-02 +4.19837646e-02 +1.60771862e-01 -2.41092499e-02 -1.75173301e-02 +2.64441103e-01 -4.83755656e-02 +2.59352475e-01 -7.86369145e-02 +3.77594709e-01 +2.68086586e-02 -5.03953286e-02 -3.17871198e-02 +1.03424773e-01 -3.03851515e-02 +6.12710938e-02 -1.30606994e-01 -4.11190242e-02 -1.02528095e-01 -9.12696868e-02 +1.53663009e-01 +3.83417189e-01 +2.43104044e-02 +2.07637072e-01 -1.05373152e-02 -2.54171014e+00 +5.05629778e-02 -2.42959261e-02 +1.79920718e-01 -2.93882843e-02 +6.90204874e-02 +1.07998803e-01 +1.13232262e-01 +8.77986997e-02 +1.13835134e-01 -1.19485827e-02 +5.54904900e-02 +2.42546964e-02 +3.76851745e-02 +2.54510548e-02 +1.12106413e-01 +2.15873346e-01 +8.44387859e-02 +8.21867436e-02 +7.16466382e-02 +4.13170978e-02 +6.01060912e-02 +2.64051743e-02 -1.09621026e-01 +9.08949152e-02 -4.05785330e-02 -2.93123350e-02 -6.58669397e-02 +2.01763329e-03 -2.50231586e-02 -8.41636434e-02 -1.11586124e-01 +8.13258532e-03 -8.74739513e-02 +1.58238430e-02 +8.51414651e-02 -1.33944601e-01 +6.05528094e-02 +4.64662537e-02 -6.61924332e-02 +3.24427038e-01 -4.30241562e-02 +5.07243872e-02 +9.54143032e-02 +1.02241173e-01 +4.57291417e-02 -2.69115180e-01 +7.24532083e-02 -1.01289995e-01 -3.10817007e-02 +3.47997658e-02 +4.27033193e-02 -1.16709389e-01 +1.35224521e-01 -2.22770628e-02 +3.53516974e-02 +1.30806398e-02 -1.46552384e-01 -3.83151919e-02 +6.77069789e-03 -1.81049630e-02 -1.01080295e-02 -5.62559851e-02 -6.48513734e-02 -5.17183170e-02 -8.44660461e-01 +1.03464201e-01 -7.85729885e-02 -2.91186981e-02 -2.69120753e-01 +3.21587324e-02 +7.09700137e-02 +1.96710274e-01 +8.87155160e-02 -2.36206893e-02 +1.97729003e-03 +9.39921066e-02 -7.91928768e-02 +4.82999355e-01 -1.57411262e-01 +1.08650021e-01 +5.97387776e-02 +5.64664938e-02 +7.45235741e-01 +5.57688996e-02 +6.33146148e-03 -2.31960532e-03 +1.06826112e-01 -8.14440846e-02 +9.86927599e-02 +5.11839427e-02 +5.01274280e-02 -2.78496090e-02 +1.32360507e-03 -2.39770904e-01 -4.67239022e-02 -4.38944660e-02 -1.98971525e-01 -3.32218438e-01 +1.00454248e-01 +1.02308191e-01 -2.66112268e-01 +4.19910662e-02 -3.43190879e-01 +1.07578412e-01 +2.21161157e-01 +1.28359906e-02 +2.50934269e-02 +2.55439840e-02 -3.06202900e-02 +6.52156249e-02 +8.73485133e-02 -9.15414914e-02 -1.76934332e-01 +2.38802508e-02 -1.52262464e-01 +4.91355881e-02 +3.10638338e-01 +8.57337266e-02 +1.21258296e-01 +5.62289469e-02 -3.69095220e-03 +1.01353593e-01 -1.84305094e-03 +6.19904958e-02 +1.65419541e-02 -2.55449489e-02 +4.87320460e-02 -2.14458317e-01 +8.92139226e-02 -3.53523344e-02 +4.66207191e-02 -8.01942945e-02 +1.91422999e-02 -8.98855999e-02 +6.46775439e-02 -3.16073954e-01 -2.28551582e-01 +4.97735329e-02 -2.55227238e-02 +1.06646821e-01 +3.44140269e-02 +4.27018590e-02 +1.04424834e-01 +2.15759858e-01 -3.46813679e-01 -1.77079305e-01 -1.69425920e-01 +1.07288107e-01 +1.05201945e-01 +9.72546637e-02 +3.03960461e-02 +1.46657810e-01 -1.04287103e-01 -7.92469457e-03 -2.05292478e-01 -3.33440214e-01 -5.56103699e-02 +3.60411145e-02 +9.43919346e-02 +7.02691078e-02 +6.77146241e-02 +4.64465767e-02 -7.46246427e-02 -1.10033154e-01 +9.21410397e-02 -3.90940299e-03 -9.04144272e-02 -7.15234354e-02 +3.33109386e-02 +8.57144073e-02 +5.88350333e-02 -1.75795201e-02 -1.65830672e-01 +5.13778850e-02 +6.89807013e-02 +3.91083620e-02 -1.88873410e-02 -8.15153122e-02 +8.38997588e-02 -1.47503763e-01 -2.06727818e-01 +2.14917049e-01 +5.68527393e-02 -3.55323344e-01 -1.16038257e-02 +9.68487412e-02 -7.09690973e-02 +1.39957657e-02 +1.18530225e-02 -5.55980019e-02 +1.46613359e-01 +7.62556940e-02 -3.81426454e-01 +4.52769063e-02 -1.68136567e-01 +8.89940038e-02 -3.81452203e-01 -1.16223739e-02 -4.99566644e-02 +1.00023560e-01 +7.77368322e-02 -7.67339021e-02 -8.55138749e-02 -9.16453451e-02 +8.75529721e-02 -7.06051067e-02 -3.22918296e-01 -1.80825278e-01 -1.65691197e-01 +4.56879102e-02 +4.23926674e-02 +9.25006270e-02 +6.44079745e-02 +2.28981432e-02 -3.68927449e-01 +4.26605977e-02 -3.39143455e-01 -6.87235817e-02 +3.01958993e-02 +3.86050418e-02 -2.05432281e-01 -3.60879526e-02 -2.20027938e-02 +9.01150629e-02 -2.56911982e-02 +1.36814816e-02 -9.23107043e-02 -6.15082905e-02 +1.20550133e-02 +5.58026917e-02 -1.26877815e-01 -2.06017733e-01 -7.94077441e-02 +4.56350408e-02 +3.86738069e-02 -3.54033336e-02 +2.09443420e-02 -2.02746332e-01 -7.22192675e-02 +5.27171530e-02 +3.00511885e-02 +1.76512320e-02 -8.15844536e-02 +6.72645569e-02 +3.85103077e-02 -1.85094640e-01 -5.98279573e-02 -1.42907321e-01 +1.09939009e-01 +2.24892944e-02 -3.32464091e-02 -9.69256461e-02 +1.13597177e-01 -8.47759843e-02 -1.15973659e-01 +1.59984268e-02 -1.82591975e-01 -6.56128004e-02 +9.17044640e-01 -1.79437727e-01 +9.64872390e-02 -6.34770840e-02 +7.70628676e-02 -9.97870713e-02 -2.66107440e-01 +1.12606309e-01 +1.53816789e-01 -8.21229815e-02 -2.81640112e-01 -8.55064094e-02 +9.38242599e-02 -1.19230412e-01 +9.10629705e-02 +2.55051646e-02 +9.29135755e-02 -1.04693897e-01 +5.16789407e-03 +5.75736873e-02 -3.90387177e-01 -3.43244225e-02 +2.87636626e-03 -9.24876798e-03 +6.90481141e-02 -1.94556173e-02 -1.07863523e-01 +3.74108274e-03 -1.03428744e-01 -1.16053499e-01 +6.18972480e-02 +1.67692248e-02 -3.35112400e-02 +9.73766968e-02 +5.47202118e-02 +1.59731150e-01 +5.93379559e-03 -3.95442285e-02 -8.16100687e-02 -1.83670208e-01 +3.12160887e-02 -3.32789868e-02 -3.82068664e-01 +1.03082076e-01 -3.82437140e-01 -3.75374546e-03 -4.59447987e-02 +7.53772184e-02 +4.32705469e-02 +5.38326055e-02 -9.37465671e-03 -5.13380356e-02 +9.26959887e-02 +2.75840051e-02 -1.06440656e-01 -1.01651303e-01 -1.31500602e-01 -1.16903476e-01 -4.94957156e-03 -4.49961051e-02 +3.46256271e-02 +1.13864347e-01 -6.01825453e-02 +8.47202074e-03 +1.00086577e-01 +7.99929649e-02 -8.64674449e-02 -2.79579815e-02 -6.39196951e-03 +6.26247600e-02 +4.35235258e-03 -6.58188853e-03 +1.45866632e-01 +6.61924183e-02 +1.87432561e-02 -4.27516699e-02 +8.31597075e-02 -1.51344806e-01 -7.34475031e-02 +1.00508958e-01 -1.08145531e-02 -9.37272906e-02 -7.94657096e-02 -6.21374249e-02 -5.11929169e-02 +1.40032604e-01 -4.39727902e-02 -1.67405590e-01 -1.10925928e-01 -2.78082322e-02 +7.34567940e-02 +8.49390104e-02 +1.09034739e-01 +1.10945560e-01 -7.03130662e-02 +8.97490978e-02 -1.79759353e-01 +1.63378026e-02 -5.08858040e-02 +6.16809800e-02 -6.56212866e-02 -8.45721886e-02 +3.24451290e-02 +1.10139877e-01 -5.96888587e-02 -3.21380496e-02 -1.34721464e-02 -7.32492059e-02 -3.01990062e-02 -7.17137009e-02 +1.00468345e-01 -7.75209293e-02 -8.26306865e-02 -1.46432042e-01 -1.64978385e-01 -1.07732199e-01 -2.64057033e-02 +4.02748398e-02 +1.30672932e-01 -2.82720447e-01 +2.91168410e-02 -1.99123934e-01 -1.61304489e-01 +6.36451468e-02 +6.21508881e-02 -7.43404150e-01 +2.78312992e-02 -1.28737865e-02 +3.04215252e-02 -3.02145239e-02 -1.52989417e-01 +5.00271805e-02 +1.16164200e-01 -5.86183779e-02 -2.16123313e-01 -3.36096920e-02 +3.03533580e-02 +4.06942777e-02 -2.72702843e-01 +1.15561366e-01 +9.14469212e-02 +6.14235282e-01 -5.49817085e-02 +5.12615032e-02 +6.26176596e-02 -7.79958442e-02 -1.14432545e-02 +3.17890108e-01 -5.08812703e-02 -1.23536080e-01 -1.43853873e-01 -3.49431299e-02 -8.04920718e-02 +2.70962883e-02 -5.06750010e-02 +1.05366006e-01 -2.10700735e-01 +1.13968909e-01 -1.37229785e-01 +9.85502973e-02 +4.22160188e-03 +4.24713306e-02 -1.54373378e-01 -7.37277567e-02 +7.23353252e-02 -2.01607775e-02 -4.96726669e-02 +7.35302791e-02 +4.25406396e-02 -3.15153063e-03 +4.07828987e-02 -8.44516307e-02 -2.79752582e-01 +8.36303178e-03 +2.24360432e-02 -6.86113760e-02 +4.40907776e-02 +2.70476401e-01 +3.06070137e+00 +1.40339687e-01 -1.80409122e-02 +5.86753070e-01 -8.11348930e-02 -5.39349318e-02 +5.54805696e-01 +6.67712763e-02 +6.33680895e-02 -3.54139507e-01 -8.82187039e-02 -2.96944320e-01 +7.98570886e-02 +1.71365831e-02 +4.08754423e-02 +2.34720275e-01 +3.54563333e-02 +9.93733257e-02 +3.64531636e-01 +9.00353119e-02 +2.41483927e-01 +7.10437372e-02 +4.09715205e-01 -1.78469062e-01 +2.80259531e-02 -1.59748979e-02 +7.38291293e-02 +5.81122875e-01 -2.53539413e-01 +1.52510059e+00 +3.34546447e+00 +1.07341640e-01 -2.70427555e-01 -4.22964275e-01 -2.66504325e-02 +6.39243245e-01 +4.03609313e-02 -8.61771107e-02 +7.10554570e-02 +3.78780842e-01 -5.64832687e-02 +5.70545673e-01 -3.28902364e-01 +3.67700845e-01 -5.08626141e-02 +5.06762341e-02 +8.43510389e-01 +4.53400649e-02 +1.00466025e+00 +5.67131281e-01 +3.27062637e-01 +6.98400335e-03 +6.96283206e-02 +3.31990421e-01 -6.69097677e-02 -3.38594280e-02 +3.45137089e-01 +1.48984164e-01 -2.87685767e-02 +1.18695214e-01 +9.62500572e-02 -7.94801340e-02 +1.79511793e-02 -5.17885238e-02 +2.64518052e-01 -8.17586184e-02 -2.10722655e-01 +1.10093497e-01 +4.15809423e-01 -3.02681010e-02 -2.90124640e-02 +1.00341208e-01 -1.02856025e-01 -1.76204219e-02 -7.82961473e-02 -1.72853991e-02 +1.21897496e-01 +1.00417070e-01 -1.29955232e-01 +3.17469180e-01 +2.32055855e+00 +1.10838868e-01 +2.24960506e-01 -1.51973190e-02 +2.88210720e-01 +3.69349979e-02 +6.65968180e-01 +7.94439018e-02 -5.93423378e-03 +1.97950322e-02 +9.35914814e-02 +1.29520404e+00 +3.94507218e-03 -9.71563682e-02 +2.05049682e+00 -8.00386816e-02 +1.12432294e-01 +1.23657078e-01 +1.89225495e-01 -2.58868665e-01 +1.27356634e-01 +2.21358705e-02 +8.62704739e-02 +3.37848663e-02 +1.20646264e-02 +3.45192887e-02 -2.99468394e-02 -2.29125097e-03 -8.96743219e-03 +1.08886257e-01 -7.92900473e-02 +3.68788660e-01 +1.17082097e-01 +8.90216976e-02 +6.85731694e-03 -8.81140027e-03 -1.39425501e-01 +1.00015759e-01 -2.73723584e-02 +4.67424542e-02 +1.31341834e-02 +3.93223688e-02 +1.09526582e-01 -3.92141342e-02 -4.06378210e-02 -6.45594671e-02 -3.48095186e-02 +2.56946087e-01 -9.21256095e-02 +1.19022079e-01 +6.96397349e-02 +3.60592365e-01 +4.55949418e-02 -2.62302370e-03 -4.90507595e-02 +1.40781000e-01 +7.07087338e-01 +6.43614605e-02 +3.21070850e-01 +1.39404878e-01 +1.01568890e+00 -6.79196298e-01 -6.48943260e-02 +9.70671102e-02 +7.44713470e-02 +3.54755759e+00 -8.08872059e-02 -2.82526225e-01 +2.78139170e-02 +3.21760820e-03 +6.11711554e-02 +2.60184407e-01 -2.57268399e-01 -6.34668097e-02 +1.83100045e-01 +6.04334660e-02 -3.24210644e-01 +2.37242252e-01 +6.24640942e-01 +2.16078115e+00 +7.20076635e-03 +2.00329018e+00 -1.28484322e-02 -8.51932615e-02 -4.36570216e-03 +1.27165727e-02 +2.07661524e-01 +5.23362905e-02 +2.74682101e-02 +1.03377700e+00 -3.42800729e-02 +1.33995280e-01 +7.20882341e-02 +1.07642107e-01 -4.79170084e-02 -1.36129614e-02 +6.30522072e-02 -4.03685197e-02 -4.91595119e-02 +2.11272717e+00 +1.24709293e-01 +1.39668629e-01 +4.56610955e-02 +1.33598838e-02 -2.96922445e-01 +8.66190568e-02 +5.09393737e-02 -7.16635510e-02 +7.62191340e-02 +1.41681554e-02 -5.09545766e-03 +7.97446147e-02 -2.98109036e-02 +6.84941113e-02 -3.12377155e-01 +5.74035309e-02 +4.37645614e-02 +7.11479187e-02 -8.87713507e-02 -8.06836318e-03 +1.37786448e-01 -1.07209839e-01 +6.62459135e-02 +2.35391647e-01 +4.49437760e-02 -5.96666150e-02 +8.06310773e-02 -5.59654310e-02 +1.11678831e-01 -2.81388491e-01 +7.40921423e-02 -2.81528458e-02 +6.90622479e-02 +1.82517543e-02 -3.64110693e-02 -1.03330992e-01 +7.55331889e-02 -5.02139144e-02 +4.21248898e-02 -7.87063986e-02 -5.43066524e-02 -4.48243134e-02 -1.81421936e-02 -3.39115486e-02 +7.94608146e-02 -7.02463612e-02 -1.42620429e-01 -1.22207552e-01 -8.11504722e-01 +1.09033421e-01 -1.30707636e-01 +9.12614763e-02 -1.89089268e-01 -1.12469703e-01 +1.07378084e-02 +1.21215336e-01 +5.49210515e-03 -3.61424461e-02 +4.37774099e-02 +6.12409003e-02 -2.58020721e-02 +4.83380705e-01 -2.55751133e-01 +4.56519611e-02 +6.59531495e-03 +1.04356878e-01 +6.25137269e-01 +7.18447566e-02 +1.55135393e-01 -8.65669455e-03 +6.21694215e-02 -3.16151492e-02 -3.36923897e-02 -1.40352091e-02 -1.76643766e-02 +9.16404948e-02 +1.42169595e-01 -1.15159839e-01 -9.21845529e-03 +5.75354174e-02 -2.37351596e-01 -4.18376923e-01 -6.32339623e-03 -7.09685087e-02 -4.32585537e-01 +7.54410923e-02 -2.97936708e-01 -6.93074763e-02 +1.63806677e-01 -9.90552977e-02 -2.24640425e-02 -7.13923424e-02 -4.20167390e-03 -3.43954116e-02 -1.80759616e-02 -5.42847849e-02 -2.06416786e-01 +8.85065049e-02 -1.99716911e-02 -1.52133778e-02 +1.47301212e-01 +2.59584021e-02 -7.63057126e-03 +2.26545036e-02 +4.63953912e-02 -5.22605143e-02 +4.43402852e-04 -1.96686070e-02 +1.01014726e-01 +8.80291462e-02 -5.16669899e-02 -2.91441083e-01 -6.76740035e-02 +5.97195067e-02 +3.60774621e-02 -4.07559350e-02 +1.06884047e-01 +1.69612430e-02 +7.39103556e-02 -3.26467752e-01 -2.31823459e-01 +1.03935406e-01 +1.11871451e-01 +6.56883270e-02 +1.48436865e-02 -2.87493784e-02 +5.25925588e-03 +1.07628331e-01 -3.01255107e-01 -8.11397508e-02 -1.01334147e-01 +6.32653534e-02 +1.37796566e-01 +6.35300726e-02 +5.89588005e-03 +1.30408198e-01 -1.68075562e-01 +2.53589060e-02 -1.75866514e-01 -1.94910690e-01 -8.27232376e-02 +5.44109307e-02 +1.07606955e-01 +3.37095559e-02 -8.55852067e-02 -9.42171440e-02 -1.07595131e-01 -1.70160770e-01 -5.66989444e-02 +5.73284738e-02 +1.04769506e-01 +9.43399072e-02 +9.16157067e-02 +5.55963591e-02 +7.84764811e-02 -6.54400233e-03 -2.81725585e-01 +2.54869666e-02 +1.41944677e-01 +9.96393412e-02 +1.59337431e-01 -2.36330628e-01 +1.91035122e-02 -7.59562403e-02 -2.65752673e-01 +1.81999922e-01 -3.40112336e-02 -2.42777571e-01 +5.11388294e-02 -2.98919994e-02 +5.31434715e-02 +1.36716545e-01 +6.71340525e-02 +1.04052224e-03 +1.32442802e-01 -6.84237555e-02 -4.01915014e-01 +8.02889094e-02 -2.22464710e-01 +1.86517388e-01 -4.09441680e-01 +4.75611612e-02 -8.40477124e-02 +1.18967742e-01 +1.39193144e-02 +9.17831808e-02 -1.53609321e-01 +3.40683050e-02 +5.08169048e-02 +1.34727834e-02 -1.55250117e-01 -1.92041278e-01 -2.28751730e-02 -1.01646977e-02 -4.98570912e-02 -7.82962516e-02 +1.91541836e-02 -1.54898494e-01 -3.65344822e-01 -5.68236895e-02 -3.16477150e-01 -5.25739528e-02 -4.22780849e-02 +1.04990676e-01 -1.73303425e-01 +4.86866646e-02 +4.18734401e-02 +4.92348662e-03 -6.62851036e-02 +2.61161048e-02 -1.09854173e-02 -1.02284715e-01 -7.44590536e-02 -6.94366172e-02 -1.01167217e-01 -8.17285478e-02 +1.53188026e-02 -3.08682844e-02 -4.03291211e-02 -5.97045012e-02 +1.12117097e-01 -1.52287148e-02 -6.55637160e-02 +2.34395973e-02 -4.22259644e-02 -1.62177645e-02 +9.78354644e-03 +4.79125008e-02 +3.58340517e-02 -2.71758735e-01 +3.80715653e-02 -1.69137657e-01 +1.40200453e-02 +7.52736926e-02 +7.47639015e-02 -1.25568718e-01 +4.46125399e-03 +8.59482810e-02 -2.71356832e-02 +7.25275055e-02 -1.24871008e-01 -2.82385889e-02 +9.03019786e-01 -8.43330249e-02 +1.11957267e-01 -1.18449042e-02 +1.25713602e-01 -3.91503572e-02 -2.30736896e-01 +4.99146432e-03 +2.58353949e-01 -2.19879951e-02 -2.48718739e-01 -1.98099613e-01 -7.52135785e-03 +5.83070330e-02 -2.40867510e-02 +7.88057670e-02 -9.49248299e-02 -2.68168822e-02 -6.63760826e-02 -1.79596955e-03 -4.01144832e-01 -4.90201935e-02 +4.10319827e-02 -1.77024174e-02 -4.43215258e-02 -5.90409264e-02 +5.20536117e-02 +1.76916681e-02 +3.07814740e-02 +1.84555650e-02 +6.17095381e-02 +9.96194184e-02 -4.21518683e-02 +6.97040334e-02 +6.96234331e-02 +1.93087965e-01 -6.25107263e-04 -6.81630373e-02 -1.10329069e-01 -2.22737327e-01 +1.06369965e-01 +1.02928557e-01 -3.24098378e-01 +1.01020306e-01 -1.98084235e-01 +5.08252531e-02 -4.61957157e-02 -6.06862977e-02 +5.29366061e-02 -6.65926486e-02 +6.37479499e-03 +8.74560699e-02 -2.39020716e-02 -2.72475649e-02 -2.08652066e-03 +4.45462093e-02 -4.65866998e-02 -1.56102151e-01 +1.61384061e-01 +9.33727100e-02 +5.38346469e-02 +1.65910088e-02 -1.16393678e-01 +1.56402811e-02 +1.40590474e-01 +9.05254409e-02 -1.07293397e-01 -8.88777059e-03 +2.00911146e-02 +1.00429125e-01 -7.36206248e-02 +2.59347465e-02 +1.13136336e-01 -7.40238428e-02 +8.51492956e-02 -2.34576184e-02 -4.21257094e-02 -1.70621753e-01 -6.38349652e-02 +6.74487948e-02 -4.39358465e-02 +1.05514601e-01 +1.61197186e-02 +3.63762677e-02 -8.41409937e-02 -6.03327760e-03 -6.66383654e-02 -1.10025406e-01 -3.07975411e-01 -7.37582222e-02 -5.35121597e-02 +7.98467621e-02 -1.81772169e-02 +2.71303095e-02 -7.66754597e-02 -6.38501197e-02 -5.15746418e-03 -1.05697960e-01 -7.67157748e-02 +4.26010974e-02 -2.26437468e-02 +6.46709725e-02 +5.33521734e-03 -2.87131239e-02 -8.37969929e-02 -1.52221099e-01 +2.37045996e-02 +2.27980272e-04 -6.66071719e-04 -2.92721689e-02 -1.08379358e-02 -1.44232986e-02 +2.55690664e-02 -1.11802995e-01 -1.38910398e-01 -1.76847041e-01 +5.91899604e-02 +3.66276726e-02 +8.98596272e-02 -1.55871436e-01 -6.70277104e-02 -1.88858792e-01 -2.28911936e-01 +1.83481708e-01 +8.89380947e-02 -7.70636261e-01 -4.50335816e-02 -4.73203091e-03 -5.58781251e-02 +2.39950120e-02 -2.61400938e-01 +9.09882039e-02 +8.35621729e-02 +6.80685714e-02 -1.81714505e-01 +1.35802761e-01 +2.50903587e-03 +5.46964854e-02 -1.95573509e-01 +1.69081956e-01 +8.19044113e-02 +5.94144762e-01 -3.90791483e-02 +3.96611373e-04 +1.06216356e-01 -6.97920239e-03 +3.77343222e-02 +3.17744434e-01 -2.49292642e-01 -6.49287030e-02 -1.50028452e-01 +6.83084689e-03 +5.80142885e-02 -1.47256972e-02 +2.02624798e-02 +1.22215286e-01 -6.69078976e-02 +1.21723451e-01 -1.81712002e-01 +1.16084881e-01 +4.90552038e-02 -5.35485521e-02 -1.83300570e-01 +6.76882640e-02 -7.36683281e-03 -6.96682781e-02 +4.43669595e-02 -5.11187420e-04 +8.53599906e-02 +6.70451596e-02 +6.93258047e-02 +6.36760965e-02 -4.03367430e-01 +1.63362212e-02 +3.89140733e-02 -4.48295698e-02 -7.65084848e-02 +3.21524739e-01 +3.06530809e+00 +2.06742287e-01 +9.72368717e-02 +6.69331014e-01 +1.52190384e-02 -3.43409069e-02 +5.25295615e-01 +5.96634336e-02 +1.25022262e-01 -4.11339909e-01 -2.14113723e-02 -4.64965224e-01 -4.49977852e-02 +8.40159059e-02 +8.47276151e-02 +1.29678294e-01 -1.28421886e-02 +8.57201517e-02 +4.76363719e-01 +8.49009380e-02 +2.72543758e-01 -7.41134956e-02 +3.20407778e-01 -3.28478992e-01 -9.67302453e-03 +3.82804684e-02 +7.21878707e-02 +4.46892738e-01 -2.86047369e-01 +1.51506639e+00 +3.23247266e+00 -5.69796935e-03 -3.72069001e-01 -4.91898894e-01 -1.01872951e-01 +6.32581592e-01 -7.08459169e-02 -5.22413366e-02 +3.25122923e-02 +3.51935267e-01 +5.72416820e-02 +6.03689373e-01 -2.81298578e-01 +4.42545503e-01 -5.51845990e-02 -2.13343110e-02 +7.72355795e-01 +7.83514231e-02 +9.44676936e-01 +5.27005494e-01 +4.59178686e-01 -4.78332900e-02 -6.32559657e-02 +3.41237098e-01 +6.72941655e-02 +2.65784413e-02 +4.35937583e-01 +1.11985110e-01 +7.70957768e-02 +5.28180785e-02 -1.45460442e-02 -2.25428864e-01 -4.26085442e-02 -5.16281985e-02 +1.44737095e-01 +7.56820440e-02 -2.39018932e-01 -6.32100776e-02 +3.78697902e-01 -4.81574237e-02 +4.61867154e-02 +4.13635336e-02 -4.54998091e-02 +4.33931090e-02 +8.48610103e-02 +7.61122257e-02 +7.06118643e-02 -3.66441980e-02 -1.00218840e-02 +4.71379817e-01 +2.35048747e+00 -1.51043786e-02 +1.91179797e-01 -6.84126616e-02 +1.54673934e-01 -1.03296176e-01 +4.96645629e-01 -8.85033794e-03 -8.66385847e-02 -1.08573064e-01 -1.68009419e-02 +1.13965893e+00 +8.68896246e-02 +3.20308320e-02 +2.05659389e+00 +8.63308683e-02 +3.67736667e-02 -6.42269775e-02 +2.40430877e-01 -2.06919938e-01 +8.23061839e-02 -5.08855879e-02 +4.77794819e-02 -1.49646364e-02 +1.82960462e-02 +2.91545819e-02 -3.94924432e-02 -4.64609005e-02 +7.85413235e-02 -3.60092334e-02 -1.33008108e-01 +4.27972257e-01 +1.75139740e-01 -4.44792435e-02 -5.61763123e-02 +1.12585267e-02 -1.35463834e-01 -8.85041803e-02 -2.50580464e-03 +7.56624788e-02 +7.36180693e-02 -4.66132760e-02 +1.85018361e-01 +9.58721712e-02 -7.39401802e-02 -9.43591669e-02 +7.21002594e-02 +3.68127793e-01 -6.31534085e-02 -1.66802248e-03 +1.11975022e-01 +3.06223750e-01 -1.94797143e-02 +5.20577095e-02 +5.38026765e-02 +1.76982507e-02 +7.22022712e-01 -5.58514185e-02 +3.51120532e-01 +1.22414127e-01 +1.13184714e+00 -4.93607879e-01 +3.44299302e-02 +1.43634826e-01 +1.94645282e-02 +3.49721003e+00 +8.37654769e-02 -3.97112697e-01 -2.14652419e-02 -3.26215960e-02 -8.90191935e-04 +2.84828246e-01 -4.07105982e-01 +2.79161818e-02 +2.29787514e-01 +7.01359212e-02 -2.10696548e-01 +1.69654354e-01 +4.55461890e-01 +1.97164607e+00 -5.17365858e-02 +1.93341684e+00 +6.48725852e-02 +6.54290989e-02 +1.85153596e-02 +1.18018538e-01 +1.93410888e-01 +1.05558060e-01 +1.24387212e-01 +9.46462512e-01 -1.35624304e-01 +2.04016864e-01 -9.03372690e-02 +7.53896013e-02 +9.42936242e-02 -4.80121151e-02 +9.57370400e-02 -1.17460091e-03 -5.09815291e-02 +2.14015675e+00 +1.01585187e-01 +1.46323830e-01 -6.65902421e-02 -4.79743071e-02 -3.62460762e-01 +9.01873633e-02 +9.14736837e-02 +7.76175782e-02 +1.59277126e-01 +7.04164952e-02 -8.61517265e-02 -2.41719279e-02 -3.13378461e-02 +7.20426589e-02 -1.60488531e-01 +1.44006595e-01 +7.70267174e-02 -7.06833601e-02 +9.39972028e-02 -9.65535641e-03 +5.81434742e-02 -5.74535467e-02 -5.93097992e-02 +3.12913150e-01 -2.94809677e-02 +9.02319252e-02 +8.98270383e-02 +5.48671419e-03 +6.68205023e-02 -3.00262481e-01 -7.55305886e-02 +1.71972055e-03 -1.42135182e-02 -2.47692373e-02 -5.36303315e-03 -2.08132014e-01 +1.38691708e-01 +1.13718987e-01 +6.65218979e-02 -1.05333291e-01 -3.59544568e-02 +7.87185058e-02 -5.78889884e-02 -1.39295697e-01 +5.38128316e-02 +8.18812177e-02 -5.49757183e-02 -9.11947154e-03 -8.37124825e-01 -2.46538338e-03 -8.18528607e-02 +4.94358577e-02 -1.51311442e-01 -1.20092323e-02 +8.13802257e-02 +1.66730165e-01 -3.34658250e-02 +8.27226192e-02 +4.40477654e-02 +2.78123040e-02 +3.99350747e-02 +5.98551929e-01 -3.27077746e-01 +3.06085814e-02 +7.17942491e-02 +3.24552841e-02 +7.20461667e-01 +1.14436023e-01 +1.33427322e-01 +1.36643499e-01 +8.48376378e-02 -1.45017073e-01 -8.40194151e-02 +1.35586306e-01 -4.97460999e-02 +3.52988467e-02 +7.09361508e-02 -1.61447167e-01 -1.04272775e-01 +7.03059360e-02 -2.05962017e-01 -3.20863605e-01 -7.32146204e-02 +6.40583634e-02 -3.41684043e-01 +2.33183037e-02 -2.70161331e-01 -2.89374609e-02 +1.43750086e-01 +2.08955873e-02 -7.42797479e-02 -5.49659617e-02 +8.23324174e-02 -5.11155352e-02 +6.62908554e-02 -9.14809778e-02 -1.67238086e-01 +7.64098614e-02 +3.49853300e-02 +1.33365005e-01 +1.35825932e-01 +3.26084159e-02 +8.74970295e-03 +1.08177401e-01 +2.70177368e-02 +7.77251720e-02 +6.14464134e-02 +8.44621509e-02 +4.71378528e-02 -2.84377839e-02 +1.32318333e-01 -3.68471444e-01 -1.33687425e-02 +4.24786694e-02 +1.35587630e-04 +5.09413518e-02 +1.31772105e-02 -2.26626378e-02 +1.58573970e-01 -3.37632954e-01 -2.51276910e-01 -9.83991195e-03 +7.85696656e-02 +5.57728261e-02 +6.66752011e-02 -1.52554587e-02 +2.11632065e-02 +1.25019372e-01 -2.55905151e-01 -1.59421712e-01 -9.97405797e-02 +1.66155323e-01 +1.45355180e-01 -7.23775402e-02 +3.12812775e-02 +1.02810785e-01 -2.48266771e-01 -6.28074184e-02 -1.67873189e-01 -3.22595000e-01 -9.88816023e-02 +1.00740688e-02 -8.86936933e-02 +8.55639279e-02 +1.44057546e-03 +1.88254137e-02 -8.10986087e-02 -1.59299269e-01 -7.32928589e-02 +4.32732143e-02 +1.64157934e-02 +2.18986422e-02 -2.77700997e-03 -9.48320404e-02 -2.61019506e-02 +5.50643913e-02 -2.30056748e-01 -7.08104949e-03 +4.90962379e-02 +3.71138752e-02 +9.52371061e-02 -1.24466099e-01 +5.95095893e-03 -8.12866464e-02 -2.55757660e-01 +1.70415297e-01 -2.49316096e-02 -3.02292377e-01 -2.89343242e-02 +5.38600236e-02 -1.76721420e-02 +1.52220175e-01 -9.24755540e-03 -7.81330653e-03 +1.98308572e-01 +5.56153469e-02 -4.20840561e-01 +4.93789949e-02 -1.85830966e-01 +5.26167043e-02 -2.61474788e-01 -7.83426464e-02 -7.38578811e-02 +7.90854245e-02 -3.52952592e-02 +1.02972969e-01 -7.85689503e-02 -3.69949569e-03 +9.72761363e-02 +1.97779275e-02 -2.95781285e-01 -9.90327895e-02 -1.17038175e-01 -3.55305299e-02 -3.40296663e-02 +4.87276092e-02 +6.50067180e-02 -1.34669542e-01 -2.27084294e-01 +4.26508747e-02 -3.14384311e-01 +7.35193267e-02 +4.93625104e-02 +8.44213217e-02 -1.96671218e-01 -1.10669658e-02 -1.68571086e-03 +4.36166413e-02 -1.52128682e-01 -6.96316510e-02 -6.39646724e-02 +7.54206702e-02 -2.74790302e-02 -2.40475573e-02 +1.47832334e-01 -6.83975697e-01 +8.92741531e-02 -6.68306649e-02 -5.79722561e-02 -3.72572988e-01 -1.56702086e-01 -4.64152604e-01 +8.04043859e-02 -5.09669185e-01 -1.99231356e-02 -5.20370081e-02 -1.59283972e+00 +2.00473443e-02 -6.42524213e-02 -6.67521298e-01 -1.06456108e-01 -3.04423183e-01 -4.01580483e-02 -3.35392691e-02 +4.63977158e-02 -2.54275650e-01 +1.04728751e-02 -7.89158791e-02 -2.03722382e+00 +1.32826775e-01 -7.49615073e-01 -8.42536613e-02 -1.24588944e-01 -7.07193911e-02 +1.08314659e-02 +6.43961430e-02 +8.61444995e-02 -3.99995804e-01 +1.36960357e-01 -1.95321187e-01 +1.22202456e-03 -2.04338990e-02 -3.99635971e-01 -3.00724536e-01 +3.92906033e-02 -2.03449711e-01 -3.39860916e-02 +8.14657509e-02 -6.73373267e-02 -3.50766331e-01 -1.57765418e-01 -1.64949727e+00 +4.33329977e-02 -8.10390949e-01 -5.93375647e-03 +5.94310611e-02 -1.12139535e+00 +8.24743286e-02 -2.91514248e-01 -6.11570835e-01 -3.08866560e-01 -8.85047987e-02 +3.89206186e-02 -1.06118274e+00 +3.54518853e-02 +8.44461471e-02 -1.44179082e+00 -4.64200340e-02 -7.30722817e-03 -4.38480675e-02 +3.99191752e-02 -1.67916596e+00 -7.59849623e-02 -6.37415349e-02 -2.26044729e-01 -8.66190195e-02 -8.09006318e-02 -1.06387526e-01 -4.30897959e-02 +5.56960292e-02 +4.03925702e-02 +2.46306974e-03 -5.71864657e-02 -3.59213166e-02 +9.74918678e-02 -1.51853934e-02 -1.25429258e-01 -2.75953319e-02 -5.98093569e-01 -6.13834739e-01 -3.75581908e+00 +6.73748851e-02 -2.30244190e-01 -2.50109960e-03 -1.56408870e+00 -1.87537819e-02 +3.30074616e-02 +8.20700675e-02 -2.81233728e-01 -8.03855583e-02 -5.02551571e-02 -1.00182004e-01 -3.61241624e-02 +4.46616113e-02 -3.15169156e-01 +1.98699236e-02 -9.35008824e-02 -6.11589057e-03 -6.59394264e-01 -4.53886911e-02 -2.36696731e-02 -5.34317419e-02 +5.91694936e-02 +6.37324080e-02 -5.69707043e-02 -7.03060851e-02 -7.76261762e-02 +1.02884598e-01 +5.92653342e-02 -1.20430899e+00 +1.85363606e-01 -1.12449884e+00 -2.28161011e+01 +8.16787556e-02 +9.41930786e-02 -1.05502479e-01 -2.77258605e-01 -8.83863568e-02 -4.00335565e-02 +1.28401130e-01 +1.95849617e-03 +4.25036624e-02 -2.59745151e-01 +5.85906655e-02 -7.84819126e-02 -9.62979123e-02 +9.04048514e-03 -8.34162310e-02 -2.10507605e-02 +3.54532106e-03 -5.31540699e-02 -3.61720055e-01 +1.68395620e-02 +4.51389998e-02 -7.79655203e-03 -1.76013976e-01 -6.37889877e-02 -9.51892808e-02 -1.05927907e-01 -1.08051687e-01 -1.27710283e-01 -2.61921912e-01 -1.81376021e-02 -1.31179199e-01 -5.64972341e-01 -5.35718739e-01 -1.10296622e-01 -6.27295732e-01 +5.71804196e-02 +2.57297810e-02 +2.38064304e-02 -1.38783979e+00 -1.09215581e+00 -1.12255864e-01 -1.09739387e+00 -1.41581923e-01 +5.86919375e-02 -1.45547584e-01 -2.83596069e-01 -1.86915413e-01 -1.12067349e-02 -1.87344477e-01 +9.26212221e-03 -2.12439999e-01 +6.43856525e-02 +3.90637890e-02 +2.05207586e-01 -4.96058585e-03 -1.09959565e-01 +9.48200002e-02 -1.08210973e-01 -2.01959193e-01 -2.30676606e-01 -8.56510326e-02 -4.37362418e-02 -2.37646475e-02 +1.52630713e-02 +7.33808205e-02 -4.37363297e-01 -3.26099724e-01 -7.04755604e-01 +6.78224536e-03 -1.94344670e-02 +2.40987036e-02 -1.46057531e-01 -1.08630881e-01 -6.83574900e-02 +8.17343444e-02 -2.45091647e-01 -1.47991240e-01 -7.39954412e-02 -5.92377000e-02 +7.96556287e-03 +4.02966216e-02 -1.69452980e-01 +9.38884318e-02 +5.25135845e-02 +7.42297918e-02 -1.13410354e-01 +1.42994016e-01 +1.95289835e-01 +1.33476466e-01 -2.77725458e-02 +1.42802373e-01 +8.06740113e-03 -3.87503430e-02 +4.54566553e-02 -7.60407671e-02 +5.49746864e-02 +1.55232742e-01 -1.07432388e-01 -2.23745847e+00 -4.45958823e-02 +3.49843167e-02 +6.89322129e-02 +2.51965731e-01 -1.05510302e-01 +7.90166110e-03 +7.23916292e-02 +5.17826453e-02 +3.08007952e-02 -4.32433933e-02 -2.97992945e-01 -1.04044676e-01 -9.04293805e-02 +3.56204584e-02 +3.89852151e-02 +1.07695259e-01 +1.95387810e-01 +1.86994776e-01 +2.29225606e-01 -9.08345133e-02 -2.00630375e-03 -2.02071354e-01 +5.55065870e-02 +1.20346405e-01 +9.14506689e-02 -5.63609414e-02 -2.29599997e-02 +1.31082490e-01 -1.53315708e-01 +1.27129763e-01 +1.84915930e-01 +2.18093231e-01 +8.52683410e-02 -1.01417871e-02 +3.33452597e-02 -9.44129229e-02 +1.54386118e-01 +5.35850152e-02 +3.70487124e-02 +2.53290311e-02 +7.92268366e-02 -6.96040019e-02 -1.11569777e-01 +5.46772182e-02 +1.02956854e-01 -8.22786242e-03 -4.92800400e-02 -5.23647144e-02 +1.00940384e-01 +5.32961190e-02 -1.02032624e-01 -6.63388371e-02 +3.47274899e-01 -7.57366866e-02 +2.95829121e-02 +9.94270667e-02 +9.10962299e-02 +6.58620074e-02 +9.87947732e-02 +3.53842601e-02 +3.27300355e-02 +8.73754174e-02 +4.65724953e-02 +4.95102033e-02 +1.90409690e-01 +2.81324424e-02 +3.38911526e-02 +5.56104109e-02 +9.43655148e-02 -1.78138670e-02 +2.16796175e-02 -1.14816830e-01 -1.44814542e-02 +1.08874543e-02 +1.05094798e-01 -1.85987521e-02 -1.03150412e-01 +2.28851428e-03 -2.39545014e-02 +3.46624792e-01 +8.87971744e-02 +4.26110066e-02 +2.22532347e-01 +6.89269453e-02 +6.02880046e-02 +4.88397554e-02 +6.72287494e-02 +1.66362375e-01 +1.83791578e-01 -4.57044952e-02 -6.07045293e-02 -2.43308023e-02 +3.52208391e-02 +5.38024213e-03 -7.48372227e-02 -1.78028140e-02 +1.05946712e-01 +3.45828235e-02 +1.50570706e-01 +1.90844014e-01 -2.53558546e-01 +9.29519907e-03 +6.73465878e-02 -1.07034259e-01 +1.49135724e-01 -5.08337878e-02 -5.86320786e-03 +1.35791078e-01 +4.44703884e-02 -1.19807392e-01 +8.34871083e-04 +8.50822777e-02 +3.23946252e-02 +1.82098746e-02 +2.76617967e-02 +1.03856377e-01 +6.28056237e-03 +6.31439611e-02 -4.72988077e-02 +3.53172747e-03 -9.09521133e-02 -7.66551718e-02 +2.51345485e-02 +1.72342770e-02 +1.91683501e-01 -1.00250142e-02 +1.11288689e-02 -5.51391505e-02 +1.64694250e-01 -8.93888324e-02 -8.65980163e-02 +1.15905143e-01 -3.79102714e-02 +3.04286659e-01 -2.64520589e-02 +1.94002539e-01 -2.54184920e-02 +7.43628368e-02 -1.25692055e-01 +1.95478022e-01 -4.87994552e-02 -2.72352900e-02 -6.72474504e-02 -2.30434141e-03 -2.44171113e-01 -5.56554236e-02 +2.70360231e-01 +3.43886822e-01 +3.25939953e-02 +2.24897623e-01 -7.14579597e-02 -2.35590100e+00 -8.31120238e-02 +5.13518415e-02 -2.39429623e-02 -1.07852370e-01 -6.20985776e-02 +7.34474733e-02 +7.63617083e-02 +2.05398798e-01 +5.46425059e-02 -5.04496060e-02 -6.08980618e-02 +2.54397541e-02 +3.07967458e-02 -5.77355511e-02 +3.96066420e-02 +2.58456737e-01 +2.08648548e-01 -6.76742345e-02 -2.10499670e-02 +4.10593227e-02 +4.15300136e-04 +4.89101149e-02 -3.91708910e-02 -6.77389279e-02 +8.04714635e-02 +7.34172538e-02 -3.14645618e-02 +1.79324578e-02 +8.07248354e-02 +1.06995493e-01 -2.90362865e-01 +7.45005533e-02 +6.86046928e-02 +1.75064765e-02 +7.85234272e-02 -7.72957131e-03 +1.01346545e-01 +1.22912070e-02 +5.28998266e-04 +2.97580570e-01 -5.89022115e-02 -6.23890646e-02 +4.22490910e-02 +2.91753318e-02 -4.23251316e-02 -3.62628132e-01 -6.98208511e-02 -3.85254063e-02 +8.41206014e-02 +4.64948826e-02 +9.05614197e-02 -9.29957479e-02 +1.34955108e-01 -6.49961531e-02 +9.55057070e-02 -1.32403001e-01 -5.93163371e-02 +2.97461655e-02 -1.04672939e-01 -3.36866193e-02 -5.62345758e-02 -3.46393883e-02 -9.90371257e-02 -1.51182428e-01 -6.55507386e-01 +1.12098187e-01 -5.21634780e-02 +2.35541910e-02 -3.10250372e-01 -8.72453451e-02 +4.70160656e-02 +8.03930834e-02 +3.31457355e-03 -4.43747900e-02 +4.34950627e-02 +2.54833954e-03 -7.95940608e-02 +6.16139233e-01 -1.91969752e-01 +1.32481381e-01 +3.33276168e-02 +6.51083812e-02 +5.61575592e-01 -2.05543190e-02 +1.00824475e-01 +1.02484629e-01 -5.06691076e-03 -1.22819483e-01 -7.00480342e-02 +8.57103914e-02 +2.49358322e-02 +9.34668779e-02 +6.65732473e-02 -1.95576042e-01 -3.06229312e-02 -6.31135851e-02 -6.72685206e-02 -3.72315466e-01 +2.47463398e-03 +5.53448871e-02 -3.18376631e-01 -2.74935330e-04 -1.85974330e-01 +7.86518306e-02 +9.40298587e-02 -8.86965776e-04 +2.88815796e-02 +4.34488729e-02 -3.99085209e-02 +4.96199541e-02 +2.69256141e-02 -3.87172922e-02 -3.73401605e-02 +7.34662861e-02 -3.50653082e-02 +3.49545851e-02 +2.79754490e-01 +1.36707112e-01 +1.72078758e-01 -7.82460421e-02 -3.57825309e-02 +1.96227804e-02 -4.71607931e-02 +6.73256591e-02 -2.29159687e-02 +7.30306283e-03 -5.64919077e-02 -4.06470835e-01 +1.02319404e-01 -7.70557821e-02 -1.20994179e-02 +1.04233839e-01 +4.63761389e-02 +1.06301233e-01 -1.07461018e-02 -2.46752486e-01 -2.49392137e-01 -6.51278049e-02 -7.00433776e-02 +5.08065261e-02 +6.51810169e-02 +3.40728983e-02 +3.88410874e-02 +1.09070286e-01 -2.10686818e-01 -1.96383432e-01 -2.74573714e-02 +9.10757035e-02 +2.07865044e-01 -5.00310659e-02 -4.03842144e-02 +3.47866118e-02 -2.03790441e-01 +1.03976823e-01 -9.94470939e-02 -2.31034562e-01 -3.64541039e-02 +1.00216508e-01 +8.40133503e-02 -5.54393679e-02 +2.30317935e-02 -5.42540429e-03 -1.91884950e-01 -1.09346166e-01 +3.69755179e-02 +6.15516119e-02 +4.97593284e-02 +8.10125470e-02 -6.99179024e-02 +7.79772224e-03 -8.54737908e-02 -8.10242295e-02 -2.37161070e-01 -4.00179476e-02 +4.97850925e-02 +3.10308598e-02 +1.52164802e-01 -1.21328421e-01 +9.02431235e-02 -1.12648129e-01 -3.25609922e-01 +1.30826131e-01 +3.23506538e-03 -2.27957636e-01 +7.79011399e-02 +2.75621526e-02 -5.79983406e-02 +3.84987667e-02 -1.32590577e-01 -3.47940698e-02 +5.03605083e-02 +7.65360892e-02 -4.89207357e-01 -6.32466450e-02 -2.13911623e-01 +1.84749395e-01 -3.83631021e-01 +3.14700268e-02 +1.05603546e-01 +9.21874419e-02 -3.17068584e-02 -5.58235906e-02 -1.31865039e-01 -2.27160081e-02 -7.26045743e-02 -6.24709949e-02 -2.22827181e-01 -1.33570686e-01 -1.62597954e-01 +9.91275162e-02 +1.73076533e-03 +1.00331597e-01 -6.28431737e-02 -5.37385494e-02 -2.50487417e-01 -9.42333788e-03 -3.50104809e-01 +8.78958181e-02 +1.03336543e-01 -2.22806036e-02 -3.51648390e-01 -5.80201596e-02 +1.03567824e-01 +3.95662934e-02 -1.34258717e-01 +1.43811386e-02 -4.35714908e-02 +5.77855185e-02 +9.87845473e-04 -3.10879461e-02 -1.26657709e-01 -2.14989409e-01 -7.02348426e-02 -1.09064728e-02 -8.74757618e-02 -9.49976407e-03 +4.11117673e-02 -1.18850060e-01 +7.79905692e-02 -2.23564878e-02 +4.94104847e-02 +6.70308713e-03 +4.75110076e-02 -4.00517359e-02 +4.68663573e-02 -3.39910954e-01 -5.68388291e-02 -1.31324023e-01 +6.84944093e-02 +6.57678545e-02 +7.59948790e-02 -9.72517878e-02 +1.44182816e-01 +1.41987449e-03 -4.09087501e-02 +6.43097013e-02 -1.74758002e-01 -6.15081750e-02 +8.96775007e-01 -5.93054779e-02 +7.31291100e-02 +5.12756780e-02 +1.12204581e-01 -1.25093669e-01 -2.74681687e-01 +1.20594785e-01 +7.74307474e-02 +9.37724113e-02 -2.45908916e-01 -7.38156736e-02 -4.10951413e-02 +7.99456909e-02 -6.73725903e-02 +6.07965961e-02 -2.82619819e-02 -4.44388092e-02 +1.31093487e-01 +3.43789347e-02 -3.94162059e-01 -7.21615627e-02 +1.78868473e-02 +1.30794391e-01 -4.34715152e-02 -3.03406641e-02 +1.26561802e-02 -2.93896031e-02 +6.38426989e-02 -6.14032708e-02 +2.28409804e-02 +4.27308939e-02 +1.09432913e-01 -1.34364711e-02 -5.22390902e-02 +2.20815644e-01 +8.22126418e-02 +5.36803193e-02 -2.44449656e-02 -1.61802977e-01 -4.77879159e-02 +3.00100609e-03 -3.02221507e-01 +5.19552119e-02 -2.98798800e-01 -7.93991163e-02 -3.82419117e-02 +7.40088746e-02 +2.56565623e-02 +2.13458017e-03 -6.01774193e-02 +7.59205967e-02 -4.36511375e-02 +2.79508121e-02 -6.52652755e-02 -6.29300475e-02 -1.22869074e-01 -1.89230070e-01 +1.18920067e-02 +6.24061525e-02 +8.92509669e-02 +3.40748243e-02 +1.34134842e-02 +5.44557087e-02 +9.61481258e-02 -7.82034174e-02 -1.04377046e-01 +2.36935299e-02 -4.84712161e-02 +5.59476167e-02 +3.54993977e-02 -6.70434013e-02 +5.76919690e-02 -3.06251608e-02 -2.53326129e-02 -1.29936151e-02 +7.56032392e-02 -2.36633122e-01 -2.03770604e-02 -3.73617448e-02 -4.17961441e-02 -1.90987345e-02 +2.83884406e-02 -6.55119568e-02 +5.34802489e-02 +1.30441204e-01 -2.18432292e-01 -1.37799561e-01 -1.78392112e-01 -1.24193795e-01 -5.05212061e-02 +3.21797356e-02 +8.69944394e-02 -2.38592327e-02 -1.68796107e-01 +9.36054587e-02 -2.87390798e-02 -9.75887626e-02 -3.72705795e-02 +8.24277997e-02 +1.22609094e-01 -5.99127188e-02 +1.05317399e-01 +9.49879661e-02 +5.38717173e-02 -1.05644815e-01 +8.14748481e-02 +5.74863106e-02 +7.36818463e-02 +1.95880514e-03 +3.29764411e-02 +3.98433842e-02 +9.50332433e-02 -8.10823888e-02 -2.16185376e-01 -7.61865079e-02 +7.73728170e-05 -8.29599202e-02 +1.27966434e-01 -2.59258986e-01 -3.67461774e-03 -1.72877818e-01 -1.30748570e-01 +1.38564736e-01 +3.75070460e-02 -6.96013391e-01 -3.51721495e-02 -6.38405681e-02 +7.94931948e-02 -1.02661356e-01 -2.54223198e-01 -3.05278972e-02 -7.69006163e-02 +1.19385228e-01 -9.49684009e-02 -6.84647122e-03 -1.36989534e-01 +4.41401154e-02 -2.97944963e-01 +1.32467523e-02 +1.07329823e-01 +5.22839308e-01 +1.05921462e-01 -6.62219077e-02 +1.38241202e-01 +1.12365529e-01 -1.69207947e-03 +1.39399514e-01 -1.98672086e-01 +3.98177886e-03 -6.84601218e-02 +4.48900647e-03 -7.00577199e-02 +2.18081307e-02 -5.26751466e-02 -3.63067910e-02 -1.13414839e-01 +9.70281661e-02 -9.92268249e-02 -1.76170059e-02 +4.13808152e-02 +7.98842534e-02 -2.19873071e-01 +7.40070418e-02 -7.92681053e-03 -2.93730199e-02 +3.58753689e-02 -1.73605960e-02 -2.66572740e-02 +7.94434175e-02 +5.92429154e-02 -8.09967741e-02 -4.10769433e-01 +8.19056407e-02 +4.48279157e-02 +8.26668441e-02 -5.12280408e-03 +3.01585287e-01 +2.96065164e+00 +1.03359938e-01 +7.22261891e-02 +7.35132992e-01 -8.93040448e-02 +9.04879346e-03 +5.50072253e-01 -3.54135185e-02 +1.47823751e-01 -3.79017383e-01 +6.95938990e-03 -4.54471499e-01 -8.87384862e-02 +9.87631306e-02 -3.74791771e-02 +7.50928074e-02 +1.85469553e-01 -8.75140354e-03 +3.78939599e-01 +1.41954988e-01 +2.75142461e-01 -8.00032169e-02 +4.66000617e-01 -2.45688096e-01 +9.15343408e-03 -2.44307965e-02 -9.59964916e-02 +4.94298637e-01 -2.07213908e-01 +1.63822365e+00 +3.18974280e+00 +1.19648002e-01 -2.54577488e-01 -5.56593835e-01 -6.74193054e-02 +6.41349852e-01 +1.05407923e-01 +9.66082066e-02 -7.85867125e-02 +3.54770154e-01 +7.58203194e-02 +5.48777461e-01 -2.59837687e-01 +3.88072431e-01 +6.64949417e-02 -7.73493713e-03 +8.36984754e-01 -6.76934235e-03 +9.20525372e-01 +6.19434297e-01 +4.94808614e-01 -1.59425251e-02 +5.16494410e-03 +3.84827137e-01 +2.38984469e-02 -7.18891993e-02 +3.44610006e-01 +1.68690652e-01 +1.37139753e-01 -4.82816435e-02 -8.35493580e-02 -9.72789600e-02 -1.50306486e-02 -3.95161770e-02 +1.77225679e-01 +7.03758374e-02 -2.68795431e-01 +5.00758402e-02 +3.72400075e-01 +3.05339526e-02 -5.46937361e-02 +3.30759510e-02 -3.41008641e-02 -3.91738750e-02 +3.39903012e-02 +9.07258764e-02 +1.53773546e-01 -8.43099207e-02 +7.19088018e-02 +3.25261772e-01 +2.38154960e+00 -5.48602231e-02 +3.45782280e-01 +1.77715495e-02 +2.96502113e-01 +8.52701999e-03 +6.11971736e-01 +3.11786346e-02 +1.42313996e-02 +4.56901453e-02 +6.71273470e-02 +1.27532542e+00 -4.16207798e-02 +4.84164283e-02 +1.99071884e+00 -3.18821929e-02 +6.96545094e-03 +8.23647436e-03 +2.31688529e-01 -2.73736298e-01 +6.92691188e-04 -1.44104203e-02 -3.18494625e-02 -5.74696101e-02 -7.08018392e-02 +7.73021281e-02 -2.37944480e-02 -5.90358563e-02 -3.78030688e-02 +1.61099471e-02 -2.51659360e-02 +4.55776393e-01 +3.05056751e-01 +6.07106388e-02 +1.10543936e-01 +3.54147814e-02 -7.90481791e-02 -1.31080700e-02 +6.10755049e-02 +1.28148779e-01 +6.30876049e-02 +2.65950132e-02 +1.60530210e-01 +7.31477141e-02 +1.86515599e-02 -4.65006381e-02 +2.90263612e-02 +2.41103068e-01 +1.03269219e-01 -1.32844765e-02 +5.46534732e-02 +2.53760904e-01 +7.20347762e-02 +5.68576567e-02 -5.61895296e-02 -6.22421838e-02 +6.66823566e-01 +1.24138631e-01 +2.59154379e-01 -7.76740629e-03 +9.70174909e-01 -6.74579322e-01 +6.05872497e-02 -2.99544986e-02 -3.07197757e-02 +3.38820529e+00 -3.11785117e-02 -2.70416349e-01 +6.87395707e-02 -5.19566126e-02 +5.03864214e-02 +3.47048044e-01 -3.19807887e-01 -7.57558793e-02 +1.59153104e-01 +9.03069004e-02 -2.90050983e-01 +4.30250615e-02 +5.84552884e-01 +2.09543014e+00 -1.73064530e-01 +1.99411094e+00 -2.54979022e-02 +1.50092160e-02 +1.00579232e-01 +3.81933376e-02 +1.08530968e-01 +1.08588047e-01 -6.50006405e-04 +1.05899847e+00 -9.28914323e-02 +2.22844586e-01 -2.49081422e-02 +9.63560119e-02 +1.11009795e-02 +5.52936271e-02 +8.87144133e-02 +2.00420581e-02 +1.28121778e-01 +2.17843151e+00 +2.39284374e-02 +3.52116488e-02 +6.13764040e-02 +1.24356396e-01 -3.75513971e-01 -6.87916949e-02 +1.18075544e-02 +1.09564103e-01 +1.77785028e-02 +4.88467328e-02 -8.11092649e-03 -3.00881267e-02 -4.79725562e-02 +3.46044488e-02 -1.45889178e-01 +2.68687364e-02 +7.92620778e-02 -1.62939448e-02 -8.15369636e-02 -9.86414626e-02 +8.42056647e-02 -4.25614864e-02 -7.93440174e-03 +2.57958442e-01 +5.08896858e-02 +4.41642627e-02 +5.85118830e-02 -5.97678777e-03 -3.40888537e-02 -2.43746385e-01 +5.33324331e-02 -1.43332958e-01 +6.26817122e-02 -8.54681246e-03 +4.93341796e-02 -8.79934281e-02 +8.25698003e-02 -5.52902892e-02 +5.89116812e-02 +4.03284356e-02 -1.58844337e-01 +1.07619844e-01 +5.81817999e-02 -9.26574022e-02 +6.30805865e-02 -7.92303458e-02 -2.29225308e-02 -8.75654295e-02 -7.81885982e-01 +1.12658106e-01 +3.32018957e-02 -6.05855370e-04 -1.47889733e-01 -3.87883931e-02 +9.63687673e-02 +1.18952999e-02 +4.05915082e-02 -8.96830559e-02 