#Parameter# /_0 {200,342} 1094401 ZERO_GRAD
+6.41360581e-02 -3.48269314e-01 +5.06023085e-03 +1.02517329e-01 +2.91486867e-02 -1.85584322e-01 -5.40005744e-01 -6.85729384e-01 +5.73924556e-02 +5.20178722e-03 +3.94876823e-02 -1.72559738e-01 +1.19414739e-01 +1.04961984e-01 -2.21110120e-01 -5.95325883e-03 -2.36259073e-01 -3.53218466e-02 +7.56610036e-02 +8.74481201e-02 +3.17222208e-01 -9.10506304e-03 +6.99010119e-02 +5.74020669e-02 +1.13476776e-01 -3.18460971e-01 -4.06637698e-01 +9.59861428e-02 +1.70115507e+00 +1.78450078e-01 -8.74646902e-02 +3.95416431e-02 -9.65903178e-02 +3.26141529e-02 -2.27157548e-01 -1.22657567e-01 +9.11171734e-02 +1.26570955e-01 +4.57591470e-03 -4.90125529e-02 +3.22261103e-03 -1.15268026e-02 +1.33547917e-01 +9.61601883e-02 -8.57791528e-02 -1.51660085e-01 +3.03631842e-01 +9.48496684e-02 -2.12691724e-02 -9.71322227e-03 +9.87128392e-02 -3.02109212e-01 -1.37165487e-01 +4.77350131e-02 -6.16539875e-03 -4.23194081e-01 -2.20671818e-02 -5.46661951e-02 -1.55505121e-01 -8.19636285e-02 -3.19387168e-01 -1.09898761e-01 +2.55251080e-01 +5.19470610e-02 +9.07938182e-02 -6.76615238e-02 -2.59056628e-01 -1.09251142e-01 -4.48464528e-02 -1.83159932e-02 -8.27446207e-03 -9.20364559e-02 -2.01627221e-02 -2.53312197e-02 -8.72775391e-02 +2.24562827e-02 -3.95241529e-02 -8.83188322e-02 +5.19076213e-02 -2.37957295e-02 +1.01054206e-01 +2.54544914e-02 +5.46772331e-02 -2.64452308e-01 +3.03207859e-02 -1.85049828e-02 -1.48732662e-02 -1.31018892e-01 -6.68318272e-02 -1.33173153e-01 +7.79637575e-01 -3.03917050e-01 -2.26707637e-01 -4.16888684e-01 -2.28551943e-02 -2.30719093e-02 -3.88619959e-01 -3.11728716e-01 -2.59632040e-02 -4.96176690e-01 +5.73153198e-02 -7.18725398e-02 -2.72712171e-01 -1.20875373e-01 -1.35631904e-01 -5.23607545e-02 +1.16280355e-01 -1.46682218e-01 -8.37769434e-02 +3.61611024e-02 +1.85269749e+00 -2.35856473e-01 +8.42374414e-02 -1.23011112e-01 +3.22193629e-03 +8.16880837e-02 +1.48656256e-02 -5.52781969e-02 -1.99664176e-01 -9.66917351e-02 -5.03441691e-01 -1.50626794e-01 +7.66867101e-02 -2.74170756e-01 -4.72285926e-01 -1.27297401e-01 -5.78735992e-02 -1.24151722e-01 +2.17005201e-02 -2.62924209e-02 +8.44646692e-02 -8.23372230e-02 +7.02143610e-02 -3.11443713e-02 +2.00228635e-02 +9.34293121e-03 -1.92041650e-01 +5.21290675e-02 +1.03664927e-01 +6.23806156e-02 -2.48323288e-03 -3.73813510e-02 -5.40873110e-01 +3.60380578e+00 -1.34327069e-01 +8.97382274e-02 +9.36688706e-02 -4.08506319e-02 -4.01782155e-01 +4.97300744e-01 +1.04016006e-01 -6.45533130e-02 -2.11678818e-03 +2.04014946e-02 +8.77162814e-02 +5.61071858e-02 -7.73732737e-02 -3.13668549e-01 +3.18570361e-02 +4.88310456e-02 -2.78874803e-02 -1.14369299e-02 +7.97417015e-02 -2.34198064e-01 -3.94956581e-02 -8.08083639e-02 -7.59199727e-03 -5.56234896e-01 -2.30605051e-01 -4.55778278e-03 -3.32490541e-03 +5.80076128e-02 -4.16137874e-01 +6.77951872e-02 -2.25782529e-01 -1.53447874e-03 +5.57532981e-02 -4.77769636e-02 +2.47677907e-01 -4.22098441e-03 -9.06649977e-02 -1.31562680e-01 -2.34754942e-02 -3.92382801e-01 -4.07429412e-02 +2.45375652e-02 -2.90907025e-02 -6.01966865e-02 -1.14990279e-01 -1.75803825e-01 -7.63779506e-02 +2.55222432e-02 +1.65880006e-03 -1.25605194e-02 +1.96723878e-01 -2.61011608e-02 -9.15446430e-02 +8.49917009e-02 -1.14617839e-01 +5.68018556e-02 +4.56501842e-02 -1.63303867e-01 +2.34314147e-02 -9.40864906e-02 -3.04385219e-02 +3.69353026e-01 +1.93089079e-02 +2.20740154e-01 +3.38330507e-01 +6.38602078e-02 +6.77782148e-02 +4.85156566e-01 +3.07679060e-03 +3.21359485e-01 -6.64853826e-02 +2.52755340e-02 -5.56957647e-02 +3.03064082e-02 -1.11532873e-02 -1.20586669e-03 -2.57104244e-02 -9.38047320e-02 +1.44564528e-02 +8.21089074e-02 +1.05832033e-02 +3.39545548e-01 +2.34414607e-01 +2.82722581e-02 +8.87390971e-02 +7.52700716e-02 -3.17011103e-02 -4.60773520e-02 +2.59220656e-02 -9.85859707e-02 -1.95703641e-01 +4.72719043e-01 +1.73645809e-01 -3.91822169e-03 -9.99037400e-02 -3.02102417e-02 -6.12539351e-02 -1.01602517e-01 -2.13649627e-02 +4.58137654e-02 +1.36909597e-02 -2.09999806e-03 -1.68990150e-01 +1.01075202e-01 +3.84621625e-03 +1.62737131e-01 +5.90920039e-02 -3.37207228e-01 -2.05719564e-02 -1.16802171e-01 -9.13440585e-02 +2.18619332e-01 -6.80296794e-02 -1.00463182e-01 -8.16333815e-02 +6.42503873e-02 -6.28456593e-01 +7.59502724e-02 +3.78027081e-01 +1.71914607e-01 +7.36552104e-02 +3.79925929e-02 +3.01296562e-01 -6.86481968e-02 -1.58047192e-02 +8.02434459e-02 +9.63397026e-02 +2.04490244e-01 -5.42487353e-02 -6.38290942e-02 -1.08731598e-01 -2.09973995e-02 -1.47348389e-01 +2.67139599e-02 +2.03994084e-02 -6.39010742e-02 +8.32169056e-02 -8.80092457e-02 -9.37403291e-02 +1.38363065e-02 +1.24648539e-02 +9.11306366e-02 -4.36263271e-02 +1.04687363e-02 -3.80116776e-02 +5.09803668e-02 +1.01691119e-01 -1.92567781e-01 -1.04901016e-01 -9.93078947e-02 +8.62279609e-02 +7.27840289e-02 +4.00113583e-01 -3.45525503e-01 -6.38304837e-03 -2.02607810e-01 -7.28783086e-02 +1.44447125e-02 -7.04059452e-02 +8.33475441e-02 -1.98428407e-01 -6.80851936e-02 +4.74461824e-01 +5.95676899e-03 +6.77455589e-02 -9.57046673e-02 -3.20311159e-01 -1.14805482e-01 -6.04187837e-03 -2.19381861e-02 +4.66439761e-02 +6.98141530e-02 +4.22024131e-02 -5.08459099e-02 +9.74969789e-02 -6.50240928e-02 +7.47471005e-02 -1.08475387e-02 +7.88509324e-02 -9.21729878e-02 +4.00273979e-01 -2.05914434e-02 +7.91786164e-02 +9.00966525e-02 +7.92965069e-02 -1.06452957e-01 -5.58189750e-01 -5.79114631e-02 -6.62560984e-02 -8.35806355e-02 +8.96206498e-02 +7.88241029e-02 +9.92197022e-02 -1.03845939e-01 +8.76420364e-02 +2.66843557e-01 -8.78923163e-02 -7.60795921e-02 +9.28865895e-02 -1.35658547e-01 +2.62720063e-02 +3.03476043e-02 -9.27419737e-02 +3.05053927e-02 -7.04257667e-01 -2.57149816e-01 -5.40246107e-02 +5.08951060e-02 -7.60769621e-02 -1.15979128e-01 +7.66548067e-02 +2.30557118e-02 +8.64607915e-02 +1.64947554e-01 +5.90503663e-02 +6.92712888e-02 -1.26522016e-02 -9.58638340e-02 +2.64453189e-03 -2.16889709e-01 -2.35506091e-02 -7.97176659e-02 +2.26007178e-02 -3.67737025e-01 -8.28069746e-02 +7.28788227e-02 -4.68804054e-02 -1.25462249e-01 +7.59765133e-02 +1.33178920e-01 -1.28962368e-01 -9.28065088e-03 +2.46227030e-02 +3.75750288e-02 -2.29943141e-01 +2.81863399e-02 +8.96331295e-02 -1.41304275e-02 +7.01747686e-02 +3.01226407e-01 -6.86810240e-02 -7.42800068e-03 -7.70371631e-02 +2.42822338e-02 +1.86848715e-02 -1.53981999e-01 -1.23503596e-01 +7.21081197e-02 +6.72255978e-02 +1.53537333e-01 +1.13616943e-01 +8.26395899e-02 +7.90294781e-02 -1.27974615e-01 +4.77473326e-02 -4.31739613e-02 -6.45414591e-02 +2.35359408e-02 -3.34391706e-02 -8.05533081e-02 +5.51515855e-02 -5.27830184e-01 +2.12956786e-01 +6.73222244e-02 +6.31295741e-02 +2.29679310e-04 -6.80417120e-02 +7.85506591e-02 -8.00947025e-02 +4.40519340e-02 -1.52887389e-01 -9.38350409e-02 +1.73723623e-01 -3.45279202e-02 -6.75194561e-02 +5.64913265e-02 +1.07488848e-01 -8.26564897e-03 -6.37092665e-02 +4.75392230e-02 -5.19583561e-02 +2.58332670e-01 -1.37756929e-01 +8.01845342e-02 +3.25325847e-01 +3.57197784e-02 -1.25996962e-01 -8.79350677e-02 +8.09401423e-02 +1.24549521e-02 -5.96591197e-02 -2.47595251e-01 -8.63409936e-02 -1.32385969e-01 +4.53913100e-02 -9.30804387e-03 -8.07998702e-02 -5.72327301e-02 -4.96159196e-02 +4.16190177e-02 +8.90093446e-02 -9.77459177e-02 +3.76679480e-01 -6.37870654e-02 -1.68193597e-02 +8.23439509e-02 -3.94755602e-02 +8.52376148e-02 -1.16515160e-01 +3.91226672e-02 -1.19799525e-01 -4.92277861e-01 -6.28810003e-02 +4.11611497e-02 -1.57072693e-02 -8.72271284e-02 -3.72707546e-01 +5.08771166e-02 +3.41082752e-01 +1.44691411e-02 -6.87000901e-02 +5.75509109e-02 -6.97121546e-02 -1.47238374e-02 +9.08558294e-02 -1.08860217e-01 -8.60777497e-02 -9.14568081e-02 -6.82583498e-03 -5.88971935e-02 +8.07915628e-02 +2.39451509e-02 -9.77322385e-02 +2.39576753e-02 +6.49497658e-02 -9.48968306e-02 +1.72858313e-02 +1.42108845e-02 +1.33676445e-02 +1.30821422e-01 -1.84285026e-02 -8.25217888e-02 +6.92087561e-02 -1.31854370e-01 -8.79098177e-02 +4.01471518e-02 -6.94732010e-01 -5.37115596e-02 +1.89719796e-01 +1.74931824e-01 -6.40386790e-02 -5.54703362e-02 -8.23717341e-02 -3.19143459e-02 +7.79049918e-02 +1.15146920e-01 -2.98763756e-02 -1.04323409e-01 -1.49010599e-01 +8.90683532e-02 -3.18329394e-01 -8.32897332e-03 -1.23957835e-01 -3.73169221e-03 +7.51874596e-02 +8.71407017e-02 +1.84956100e-02 +6.69589117e-02 +1.79834627e-02 +6.81726262e-02 -1.17966555e-01 -6.25115409e-02 -1.14876265e-02 -1.01013280e-01 +4.23704386e-02 +4.32251170e-02 -4.49133217e-01 -5.41719832e-02 +7.62116536e-02 -4.57612202e-02 +2.68305719e-01 -1.03260927e-01 -2.57627033e-02 -1.30472541e-01 -7.10957274e-02 +8.33069719e-03 -1.43612695e+00 +9.80272740e-02 +5.25954599e-03 +4.68893535e-02 +4.26162817e-02 -1.19920477e-01 +5.26988320e-02 -9.25181881e-02 +6.05083406e-02 -2.68759042e-01 -3.94601822e-02 +1.80002004e-02 +2.37158120e-01 -6.11440241e-01 -1.08196713e-01 +2.08008811e-02 -9.11720917e-02 +4.54583801e-02 +1.54276520e-01 -2.37252653e-01 -8.54938179e-02 -8.25230256e-02 +4.39526886e-02 -2.17906828e-03 +6.96363002e-02 -4.11440358e-02 -8.14947784e-02 -2.16032699e-01 +1.83313519e-01 -4.74454686e-02 -3.42731401e-02 -1.03267387e-01 +2.65773926e-02 -1.10251501e-01 -9.51679721e-02 -4.02250327e-02 -5.57279661e-02 -5.18905185e-02 +4.55844551e-01 -1.05863929e-01 -5.08894883e-02 -1.57446146e-01 -4.30258334e-01 -7.95951635e-02 -8.24176967e-02 -1.14868814e-02 -6.44053295e-02 +7.47533813e-02 -1.41166925e-01 +5.45273088e-02 +6.40072003e-02 -8.26279521e-02 +9.40803252e-03 +2.32543424e-02 +4.94534336e-02 -3.93267758e-02 +3.42144072e-02 +6.09807298e-02 +4.15129587e-02 -4.92895842e-02 -1.26978531e-01 +3.80177945e-02 -9.76372510e-02 -9.69109908e-02 -6.77986085e-01 +3.00860825e-06 -1.14080332e-01 -4.14031819e-02 -9.38439593e-02 +1.32790077e-02 -1.01833127e-01 +5.80861606e-02 -1.54215340e-02 -7.28107095e-02 +8.49415269e-03 +1.57492161e-01 -3.71325880e-01 -6.71605617e-02 +3.12227398e-01 -5.04685491e-02 +1.06854383e-02 -1.46591306e-01 -2.32965834e-02 +2.11111188e-01 +6.20053224e-02 -7.97863156e-02 +9.24916342e-02 +1.56499550e-03 -5.08790240e-02 -8.58511552e-02 +1.29080005e-02 -7.90772438e-02 +7.75640458e-02 -4.42324467e-02 -1.11700743e-01 +2.15210170e-01 -1.98592231e-01 -1.25108942e-01 +6.70165241e-01 +2.75184691e-01 +7.00097010e-02 +5.68831451e-02 -9.36597511e-02 -4.35668789e-02 +4.88607734e-02 +5.64885139e-02 +1.04134701e-01 -5.47761247e-02 +4.86721769e-02 -2.49941777e-02 +3.62229459e-02 -1.59037728e-02 -3.61237526e-02 -1.78370345e-02 -6.73989803e-02 -1.03034265e-01 +3.00141960e-01 -9.21456069e-02 -9.81519818e-02 +2.48930052e-01 +8.24633911e-02 -3.62366825e-01 +5.30946292e-02 -6.06714599e-02 +6.43008053e-02 -1.33649325e+00 +8.17380100e-02 +4.44606207e-02 -2.38547727e-01 +1.93996995e-03 +2.03590840e-01 +3.98838669e-02 +1.39351058e+00 +7.81606510e-02 -2.48128474e-02 +6.06792271e-02 -1.07017830e-01 -9.88428965e-02 -1.92603637e-02 -9.55314413e-02 +6.01831302e-02 -5.57118542e-02 +7.17531070e-02 -9.31493938e-02 +2.98671592e-02 +5.73151037e-02 -1.09486565e-01 +3.88061441e-02 +2.55970545e-02 +6.46574609e-03 +5.65466322e-02 -5.13018928e-02 +5.53843565e-02 -2.59513974e-01 -1.98569801e-03 +1.71406269e-02 -6.63611144e-02 -1.15197010e-01 -6.76767156e-02 -3.07636373e-02 +6.46961868e-01 -3.68336201e-01 +6.31804392e-02 -1.63296744e-01 -6.64486215e-02 -1.02516837e-01 -1.87300682e-01 +1.19320109e-01 -1.14461422e-01 +1.78080518e-02 +4.10208702e-02 -5.12763262e-02 -2.54822411e-02 +3.25808115e-02 -1.16557479e-01 -9.77075249e-02 +1.78851992e-01 -5.33948019e-02 -1.15917690e-01 -4.56364378e-02 +4.97054666e-01 +7.15801120e-02 +3.02628968e-02 -3.52635950e-01 +4.28770669e-02 -9.30186212e-02 -8.61452669e-02 +6.58646598e-02 +7.76827149e-03 -9.49070007e-02 -5.13458550e-01 +1.91597454e-02 -7.80528188e-02 -8.90706629e-02 -1.25787422e-01 +4.79694121e-02 -9.31772366e-02 +1.41507804e-01 -4.01015207e-02 -1.71342269e-01 +1.70234106e-02 +4.92142374e-03 -8.76966119e-02 -3.37788314e-02 +2.36833468e-01 +8.48104358e-02 -5.31265549e-02 -2.09837127e-02 +3.54304984e-02 +3.61560732e-01 -9.10048187e-02 -1.20643862e-01 -3.91197145e-01 +7.06755340e-01 -5.65524260e-03 -9.15307179e-02 +2.14723311e-03 -6.74334615e-02 +2.37809885e-02 +3.37732285e-01 -1.54848641e-03 +9.10996944e-02 -7.60093033e-02 +4.98049930e-02 +1.91953201e-02 +7.60892257e-02 -2.15077605e-02 +9.14782211e-02 +3.81747603e-01 -7.12441579e-02 -5.28851338e-02 -1.00747488e-01 -1.08734369e-01 -6.59432039e-02 -9.32332221e-03 +4.45166416e-02 -5.12536429e-02 -1.79539764e+00 -2.78219461e-01 +5.38047291e-02 -4.31827344e-02 +1.38994545e-01 -4.98977005e-01 +1.99916616e-01 -1.11212954e-01 +1.56904235e-02 -6.14851303e-02 -8.45539048e-02 +4.75411713e-02 -1.11820653e-01 -6.74433485e-02 -5.57619780e-02 +3.11895460e-02 -2.09206969e-01 -8.79178345e-02 +3.26706171e-02 -6.51153475e-02 +7.05374703e-02 +3.14996839e-02 +1.42970392e-02 +3.72934826e-02 +8.93244445e-02 -2.08538044e-02 +8.36807564e-02 +2.70751059e-01 -4.19401042e-02 -1.79939792e-02 +2.16977939e-01 +1.96694002e-01 -6.12372905e-02 -6.03537448e-02 -8.95260945e-02 -1.05585180e-01 +6.60573542e-02 +6.85958937e-02 +4.14139509e-01 +3.39003913e-02 +9.86748040e-02 +2.02235118e-01 -5.85018285e-02 -1.03798434e-01 +5.15650570e-01 -2.87363417e-02 +3.26505214e-01 -6.74472377e-02 -7.77538121e-02 -1.41749561e-01 +8.72841552e-02 -1.08609781e-01 +6.80982843e-02 -5.75089864e-02 +4.61231209e-02 -8.17446411e-02 -9.88312662e-02 -3.89398672e-02 +3.13380599e-01 +1.54472858e-01 -8.51592571e-02 +7.41290972e-02 +6.00078031e-02 -9.36429054e-02 +5.51233254e-02 -6.88603595e-02 +7.57181346e-02 -8.15725848e-02 +4.81392682e-01 +2.27096438e-01 +7.54387453e-02 +6.28369302e-02 +4.56194058e-02 +7.18506575e-02 +1.00558449e-03 -1.92401055e-02 +5.87928900e-03 +4.69118841e-02 +6.03202172e-02 -2.11391792e-01 -2.10903105e-04 -3.80043313e-02 +1.09124295e-01 -8.38625208e-02 -2.01096162e-01 +4.87958342e-02 +3.11976783e-02 -2.14914413e-04 +3.04956406e-01 -9.36900973e-02 -1.71772078e-01 -1.44387230e-01 -8.61801729e-02 -6.27305627e-01 +5.69006167e-02 +2.87955940e-01 +1.92557707e-01 -9.69475731e-02 -3.11838649e-02 +3.27202320e-01 -4.06562872e-02 -8.43592733e-02 +4.19535325e-04 +2.22807601e-02 +1.11793645e-01 +6.54571131e-02 +1.46796564e-02 -2.50722039e-02 -7.98338130e-02 -1.48349451e-02 -1.13279589e-01 -1.01470135e-01 +2.94959955e-02 -9.18824524e-02 +4.26342264e-02 -5.26568517e-02 -1.85079649e-01 +3.30066145e-03 +4.14502099e-02 -8.10499787e-02 +5.52873127e-02 +8.56030509e-02 -1.07647292e-01 +4.52927500e-02 -2.12928042e-01 -2.33728439e-01 +2.06276290e-02 -6.25584573e-02 +8.46415013e-02 +3.15660536e-01 -1.91993386e-01 -3.89580056e-02 -3.20013523e-01 -2.91979108e-02 +2.78245825e-02 -7.10779652e-02 +7.95369297e-02 -1.60918310e-01 -1.69941243e-02 +5.15250862e-01 -1.32390290e-01 +5.58277220e-02 -5.94547614e-02 -2.30973020e-01 -2.04161435e-01 +7.36008584e-02 +4.43953276e-02 -1.57899652e-02 -1.07837543e-01 +6.86915815e-02 +1.85436122e-02 +1.53949976e-01 +6.71181232e-02 +2.15062022e-01 -7.84448534e-02 -4.91218157e-02 -4.43486795e-02 +3.86276335e-01 +1.57136228e-02 +1.01456344e-02 +1.04214519e-01 -6.91717640e-02 +8.11101794e-02 -6.73197091e-01 -1.09632863e-02 -4.88318503e-02 -1.54654235e-02 +2.85436660e-01 -9.16472301e-02 +2.10534334e-01 -1.67376511e-02 -1.07766241e-01 +2.89479792e-01 -9.42019150e-02 -7.26460367e-02 -2.51990184e-02 -2.89388746e-02 +1.78249888e-02 +4.48447019e-02 +7.76786283e-02 +1.60495825e-02 -7.29776561e-01 -2.06242859e-01 -4.30941917e-02 +2.50830501e-03 +3.55929546e-02 -2.76578777e-02 +8.27755630e-02 -2.47166213e-02 -9.27823276e-05 +2.12400183e-01 +5.18196039e-02 -1.08157936e-02 -7.08999624e-03 -7.45121986e-02 -4.96638231e-02 -2.72062033e-01 +3.79972309e-02 -8.70355684e-03 +9.15944651e-02 -3.25161457e-01 -2.43817200e-03 -8.10787827e-02 +5.59745841e-02 -1.36101678e-01 +1.96310550e-01 +2.24321142e-01 -2.61180460e-01 +5.35758995e-02 +7.59567767e-02 +1.40409414e-02 -1.28301933e-01 +2.05505593e-03 -4.61830832e-02 +7.91968033e-02 +2.83039473e-02 +1.59703553e-01 -4.85325120e-02 -1.04257300e-01 +6.02276996e-03 -1.27539625e-02 +6.70515141e-03 -8.74472484e-02 +2.19735000e-02 -1.12785004e-01 +8.29011872e-02 +8.34010690e-02 +1.07239194e-01 +5.73714897e-02 +6.52640685e-02 -1.14816211e-01 -5.01255840e-02 -4.82270308e-02 -1.93606538e-03 -4.07006517e-02 +1.02471530e-01 +5.92604689e-02 -1.39988605e-02 -5.15048265e-01 +1.64544299e-01 -3.38033080e-01 -2.52822071e-01 +8.34520161e-02 +7.99471661e-02 +1.38148412e-01 -7.55066946e-02 -3.59745443e-01 +4.55954950e-03 -1.46317785e-03 -2.32045397e-01 -9.49152857e-02 -4.47114706e-02 +1.02490567e-01 +2.00795997e-02 -9.01423767e-02 +4.73914109e-02 +5.63549288e-02 -5.44781089e-02 -1.77853853e-01 -3.49814802e-01 +7.07572401e-02 +4.10289243e-02 -1.10269979e-01 -8.93075541e-02 -4.58405279e-02 +3.27066630e-02 -8.88004806e-03 +3.48661430e-02 -1.70730188e-01 -1.27493709e-01 -1.21912807e-01 -8.62183124e-02 +7.31594115e-02 +7.57628456e-02 +6.63606003e-02 -2.90481132e-02 +1.08147845e-01 +8.93239379e-02 -6.83782697e-02 +7.70153403e-01 -6.63578436e-02 +6.06025830e-02 -1.89948827e-01 +7.13946596e-02 -1.19928010e-01 -1.28309969e-02 +3.49877849e-02 +3.08086257e-02 -5.23048043e-01 -1.50620844e-02 +3.69893163e-02 -2.47102425e-01 +7.79813454e-02 -6.31836176e-01 +8.12437683e-02 -4.78778154e-01 -1.10079080e-01 +4.09499444e-02 +6.88366741e-02 -2.20036849e-01 -5.61616048e-02 -4.44256067e-02 +7.09479526e-02 -5.91889210e-02 -1.69786766e-01 +3.65608074e-02 -1.24122672e-01 -6.59227818e-02 +1.06088452e-01 -2.01317798e-02 -1.22793213e-01 +1.05155651e-02 -2.85543650e-02 +3.06982873e-03 -5.88662922e-02 +7.49443248e-02 +1.69830434e-02 -4.10087332e-02 -1.69875264e-01 -3.11902585e-03 +6.30335242e-04 +1.60842501e-02 -3.51843685e-02 -4.81980383e-01 -3.09000432e-01 -8.53715688e-02 +1.97029151e-02 +7.01567382e-02 -9.23612565e-02 -2.95836926e-01 -2.44200245e-01 +3.05535756e-02 -1.23664096e-01 -9.02959630e-02 +4.46865968e-02 -1.42577693e-01 +5.00789210e-02 -3.50058168e-01 +8.43295828e-02 +1.51155610e-02 +2.68831886e-02 -9.25767124e-02 -7.85486177e-02 -2.96333283e-01 -1.48249194e-01 +7.96607509e-02 -1.52919456e-01 -1.05912881e-02 -7.67100677e-02 -8.07166472e-02 +6.84412643e-02 -2.52343804e-01 -1.21530015e-02 -4.84008878e-01 -9.34722424e-02 -5.38871512e-02 -9.97059643e-02 -5.20855784e-02 -9.55623016e-03 +6.91109821e-02 -2.80357540e-01 +3.07267476e-02 -6.08831197e-02 -4.81604546e-01 +5.08528464e-02 +1.84236299e-02 +2.16108058e-02 -2.31812254e-01 +2.53803059e-02 -1.28823832e-01 -6.64678365e-02 -3.60517949e-02 -3.02747458e-01 +9.27477423e-03 +1.55194268e-01 +3.45342278e-01 -5.30894756e-01 +5.97447678e-02 +6.37320578e-02 -6.87361211e-02 +4.66170236e-02 -1.31622329e-01 -3.50695103e-01 +5.75229675e-02 +7.58825094e-02 -6.25052974e-02 +2.40878183e-02 +4.84817550e-02 +9.09083709e-02 +5.40077128e-02 -6.30216479e-01 -1.02604888e-01 -5.64064970e-03 +4.48540412e-02 -5.69992103e-02 -6.76172674e-02 -2.97476709e-01 +8.67665485e-02 +1.02547787e-01 -5.26476949e-02 -1.55567050e-01 +7.76689291e-01 +7.97854736e-04 +1.09559767e-01 -2.96957076e-01 -4.12235647e-01 -9.76148695e-02 -1.06588684e-01 -2.21447721e-02 +6.59174845e-02 -8.72464180e-02 -1.47784844e-01 +1.53700458e-02 -2.60289982e-02 +8.88564344e-03 -5.55686690e-02 -4.24982756e-01 +1.86790321e-02 +5.58196679e-02 -2.79053934e-02 +3.80953327e-02 -6.74063852e-03 -1.79131627e-01 +9.68545377e-02 +4.24556434e-02 -1.01534009e-01 -2.96082824e-01 -7.69319892e-01 -9.32353437e-02 +2.97503192e-02 -2.21999303e-01 -2.19657794e-01 -4.25291993e-02 -1.37483150e-01 -1.96214214e-01 +6.48074150e-02 -6.36708513e-02 +8.61126781e-02 -1.19920716e-01 -5.16075253e-01 -7.05730677e-01 -8.48727301e-02 +5.97868823e-02 -4.06272039e-02 -3.12627196e-01 -8.44030529e-02 +8.11712220e-02 -2.07643107e-01 +8.03324580e-02 -3.58705372e-01 +3.20063233e-02 +2.40829121e-02 +9.48992744e-02 +3.06292415e-01 -4.67438363e-02 -8.53781775e-02 +1.28233386e-02 +3.31933759e-02 -3.50010067e-01 -3.83747011e-01 -3.73462811e-02 +1.70103705e+00 +1.48450658e-01 -1.55274034e-01 +6.47767168e-03 +6.12162799e-02 +1.03504770e-02 -1.50302455e-01 -4.77886461e-02 +1.56091303e-02 +1.02054290e-01 +3.04220105e-03 -4.56960686e-02 +7.21861050e-03 -7.70567060e-02 +2.99715288e-02 -7.04263672e-02 +8.74581188e-02 -8.82578418e-02 +3.29968542e-01 +4.50798310e-02 -5.55170402e-02 -1.06412552e-01 +9.06235054e-02 -3.49609375e-01 -6.03558198e-02 -7.42234588e-02 -1.23431697e-01 -4.60402340e-01 +3.08233704e-02 -1.11985676e-01 -1.97294727e-01 +1.51325506e-03 -2.57239074e-01 -4.78595644e-02 +2.21657947e-01 +9.01538283e-02 +6.38246238e-02 -4.27978951e-03 -3.01033318e-01 +8.61178115e-02 -9.15706083e-02 +4.39501777e-02 -1.30998015e-01 +6.03037216e-02 -1.00329548e-01 -1.00903496e-01 -1.55500874e-01 -9.76865296e-04 -1.72484174e-01 +7.52575248e-02 -1.02135070e-01 -4.24971581e-02 +7.30786771e-02 +1.19214132e-01 -6.79167137e-02 -2.64496297e-01 -8.91086087e-02 -9.36577842e-02 +4.77822088e-02 -2.09934354e-01 -7.42888451e-02 +1.40630938e-02 +7.30128467e-01 -2.94964969e-01 -2.17194930e-01 -4.32659924e-01 +6.13327362e-02 +9.90221649e-02 -3.40112805e-01 -1.60555273e-01 +5.82648329e-02 -4.07414168e-01 +9.16769579e-02 -1.82481743e-02 -2.65094310e-01 -2.21873224e-02 -7.38110095e-02 -9.11939368e-02 +5.93595766e-02 -9.26980283e-03 -3.12292688e-02 -2.13866998e-02 +1.71504152e+00 -2.21931651e-01 -3.23164165e-02 -1.33248225e-01 -1.24724619e-01 +5.13049066e-02 -1.06928714e-01 +7.38629475e-02 -2.00729415e-01 -6.75547495e-02 -5.13706744e-01 -1.74695405e-03 +6.52130181e-03 -2.33901203e-01 -3.50655705e-01 -1.35745928e-01 -9.05300602e-02 -6.41512424e-02 -2.50612982e-02 -8.44954252e-02 +1.58962216e-02 -7.94683099e-02 -5.58313914e-02 -9.76262242e-02 -8.47160891e-02 -6.56251460e-02 -3.14880490e-01 -7.77925178e-02 -2.66882908e-02 +8.84528011e-02 +6.06193990e-02 +7.19363168e-02 -6.28943801e-01 +3.70977902e+00 +4.76074259e-04 -4.83733090e-03 +7.78620914e-02 +8.74847397e-02 -4.42480981e-01 +5.12282670e-01 -1.60494726e-02 +1.00129738e-01 +6.00379705e-02 -1.06418967e-01 +1.16532408e-01 -5.83333708e-02 +6.27456382e-02 -2.70552397e-01 +3.09795793e-02 -4.81968485e-02 +2.22269613e-02 +3.26981694e-02 +1.08141653e-01 -1.79438502e-01 +9.63813439e-03 -7.35241249e-02 +8.19663033e-02 -5.78392446e-01 -2.25604445e-01 -7.20220432e-02 +2.85610016e-02 +3.32503691e-02 -5.06428897e-01 +6.04859628e-02 -2.39593819e-01 -2.78528873e-02 +4.26892973e-02 -9.91510525e-02 +2.35206276e-01 -5.74424751e-02 +7.85138905e-02 +4.35950458e-02 -1.36952415e-01 -3.67277592e-01 +7.68193528e-02 +5.53199649e-02 -3.24272625e-02 -3.08238361e-02 -1.43625721e-01 -3.40858638e-01 +9.25144479e-02 -1.09161548e-02 -1.32826731e-01 +7.72584276e-03 +2.70277560e-01 +6.80652075e-03 -4.35438305e-02 +1.43322186e-03 -1.41753167e-01 +9.80381295e-02 -8.64721611e-02 -1.96666703e-01 +2.39752196e-02 -7.88697228e-02 -3.16722319e-02 +4.38011646e-01 -7.64217600e-02 +9.48218554e-02 +3.24642211e-01 -8.77577662e-02 +3.41478065e-02 +4.78845090e-01 +5.90856597e-02 +3.95366341e-01 +5.33232391e-02 +5.85902296e-02 -1.43014446e-01 -1.66537240e-02 -7.42118508e-02 -7.69800246e-02 +3.22153158e-02 -1.42479520e-02 +9.12412256e-02 -4.95578945e-02 +9.46983974e-03 +3.46100450e-01 +1.21886469e-01 +4.36266884e-02 +8.89483541e-02 -1.16059668e-01 -4.15506065e-02 +2.73181740e-02 +1.63287017e-02 +7.37131834e-02 -1.19932987e-01 +4.01195884e-01 +1.04036018e-01 -5.96688613e-02 -1.03005208e-01 -6.87167719e-02 +6.47743419e-02 -9.08853859e-03 -1.07606255e-01 -1.04215339e-01 +8.09857622e-02 +3.00362557e-02 -1.69043779e-01 +3.66196781e-02 +3.48530314e-03 +1.77611217e-01 +9.75191668e-02 -2.20587179e-01 -2.90760887e-03 +2.86235679e-02 +9.07350183e-02 +2.26891875e-01 -9.84874368e-02 -1.27412707e-01 -9.07795727e-02 -4.88086045e-02 -5.88122964e-01 +5.82865812e-02 +3.16349655e-01 +9.91775095e-02 -3.08593698e-02 +5.49747460e-02 +3.43049526e-01 -1.16436347e-01 -9.15699005e-02 -2.52731163e-02 +7.54719228e-02 +1.75520912e-01 -8.20368305e-02 -2.13523973e-02 -1.23683080e-01 -1.09441563e-01 -1.47410855e-01 +4.63220552e-02 +8.30401257e-02 -5.67073822e-02 -7.98318163e-02 -5.86538315e-02 +8.50115940e-02 -1.39730871e-01 -3.12403478e-02 -5.09602576e-02 +4.23393361e-02 +4.15075831e-02 +9.65315327e-02 -1.02507494e-01 +1.00320190e-01 -1.23615474e-01 -9.27037522e-02 -1.19357988e-01 -1.01338707e-01 +2.97868922e-02 +3.98295075e-01 -2.32207105e-01 -8.00373927e-02 -3.53027076e-01 -5.93427382e-02 -8.45048055e-02 -1.65613785e-01 +6.54446110e-02 -2.80263931e-01 -1.02899119e-01 +5.82156360e-01 -1.24945894e-01 -5.04583530e-02 +2.64635161e-02 -2.26751119e-01 -5.91469742e-02 -9.45580751e-02 -2.11923150e-03 -1.00974731e-01 +6.20302632e-02 +6.20126389e-02 +3.14625911e-02 +9.06206742e-02 +5.27287200e-02 +2.57699728e-01 +4.15440015e-02 +2.24436652e-02 +8.43168050e-02 +3.96061301e-01 -8.35807845e-02 +5.43939602e-03 -2.74245478e-02 +9.69280824e-02 +4.86133248e-02 -7.10549891e-01 -4.82956544e-02 +7.30870739e-02 -8.96455944e-02 +2.83021748e-01 +4.05205861e-02 +2.81526387e-01 -1.82014797e-03 +1.16515076e-02 +2.25974813e-01 -1.01228349e-01 -1.08979084e-01 -3.19558941e-02 -2.08733715e-02 -3.90350781e-02 -7.94403534e-03 +5.79920635e-02 +9.45936441e-02 -6.95091784e-01 -3.23045403e-01 -4.84425016e-03 +8.17839727e-02 -7.45556876e-02 -5.03945388e-02 +8.14831853e-02 -6.55211955e-02 -1.02932006e-01 +2.85721242e-01 +1.03692912e-01 -1.14885382e-01 -8.50970075e-02 +5.14924563e-02 -1.05287910e-01 -4.13218319e-01 +5.50800860e-02 +5.53507321e-02 +5.91178648e-02 -2.61200398e-01 -6.65742233e-02 +6.64942106e-03 +8.77682120e-02 -1.89992920e-01 +5.01213372e-02 +3.05438675e-02 -1.92260176e-01 +1.80898346e-02 +4.75451946e-02 +1.36681264e-02 -8.44331458e-02 +6.85998201e-02 +8.99052769e-02 -7.27756172e-02 +6.11667186e-02 +1.03893280e-01 -5.65610686e-03 -4.06716438e-03 +1.81358797e-03 +9.34662819e-02 +1.00260526e-01 -2.06724241e-01 -1.03090040e-01 -7.72150233e-02 +5.90502843e-02 +1.08278148e-01 +1.13105506e-01 -2.55755968e-02 -1.06372256e-02 -4.92530055e-02 -1.35022283e-01 +9.01120231e-02 -7.65361041e-02 -1.62198633e-01 -3.37203033e-02 -3.32885087e-02 +8.65439400e-02 -6.03771508e-01 +1.23672552e-01 -2.79537141e-01 -3.54161173e-01 +2.82077473e-02 +1.80983022e-02 +1.35756740e-02 +6.63679317e-02 -1.94836900e-01 +4.33988348e-02 +5.94958141e-02 -2.83775061e-01 -2.61765942e-02 +1.91121977e-02 +1.64791215e-02 -4.95006330e-02 -2.24071176e-04 -5.19005656e-02 +1.18558899e-01 -1.49777131e-02 -1.21737368e-01 -3.88476729e-01 +2.42895130e-02 -8.66289958e-02 -1.40257925e-01 -2.05085620e-01 -1.94829833e-02 -8.77281427e-02 +1.07909650e-01 -4.10069972e-02 -2.28971511e-01 -1.28724754e-01 -1.42449141e-01 -3.36960517e-02 -5.87163307e-02 +2.80816704e-02 +2.93236841e-02 -9.04703960e-02 +2.08847914e-02 +8.31528306e-02 +5.50229587e-02 +9.04875457e-01 -8.87677446e-02 -7.63895437e-02 -7.93077722e-02 -7.17714503e-02 -9.29318219e-02 +6.98938146e-02 -5.72298840e-02 -1.14091538e-01 -5.05331993e-01 +5.35713211e-02 +8.36685374e-02 -2.36078382e-01 +8.29901397e-02 -6.70156062e-01 +5.70106022e-02 -3.56507957e-01 -1.34535536e-01 +5.63636795e-02 +9.53387171e-02 -1.66700915e-01 -7.69416988e-02 +2.43594907e-02 -7.94355944e-02 -3.87542993e-02 -2.40091503e-01 +9.86170992e-02 -1.74073633e-02 +7.57888481e-02 +2.36576535e-02 -1.09807797e-01 -1.04982086e-01 -2.87114605e-02 +9.82389413e-03 -7.37787932e-02 +6.82195276e-02 +6.67294785e-02 +5.79532646e-02 +6.65743873e-02 -1.16028145e-01 +6.61308616e-02 +5.24940081e-02 -1.77735537e-02 -3.98172112e-03 -4.26191390e-01 -2.77321339e-01 -1.37388930e-01 +1.11052506e-02 -8.24076589e-03 +6.26716986e-02 -3.66812050e-01 -1.96344852e-01 -6.84694648e-02 -2.03969881e-01 -9.42883790e-02 -9.93972868e-02 -2.01656416e-01 +8.46495554e-02 -3.88549715e-01 +1.04057319e-01 +1.17249219e-02 -5.95943034e-02 -6.57956675e-02 -4.53080051e-02 -3.10127586e-01 -8.11725557e-02 -2.42194347e-02 -1.50763556e-01 +3.40658352e-02 -9.44898501e-02 +8.08212087e-02 -4.05306742e-02 -2.50646979e-01 -7.04672560e-02 -3.99046361e-01 +4.87844050e-02 -8.79632384e-02 -1.04223780e-01 +1.08956411e-01 -9.56025496e-02 +5.60927391e-02 -3.01210374e-01 +6.95585683e-02 +2.23293789e-02 -5.82793832e-01 -2.34628413e-02 -4.72731926e-02 +8.59538913e-02 -2.67279893e-01 +1.73718333e-02 -1.27850562e-01 +3.49892266e-02 +7.08154887e-02 -3.72125983e-01 -9.46662202e-02 +1.13526091e-01 +2.57301390e-01 -4.64365929e-01 +3.14872786e-02 -6.11208659e-03 -6.12253770e-02 +1.00196041e-01 -7.93222487e-02 -4.53741729e-01 +4.34662551e-02 -1.73739791e-02 -7.60668982e-03 +2.25189514e-02 +2.21966263e-02 +1.78440213e-02 -1.12181313e-01 -4.84409809e-01 -2.31661260e-01 +7.81397894e-02 +1.39787421e-02 -1.49029549e-02 +9.50678810e-03 -3.11735809e-01 +6.55448362e-02 +7.37840384e-02 -5.30007891e-02 -1.92843139e-01 +8.47066164e-01 -5.57734147e-02 +1.00343138e-01 -2.92844206e-01 -3.76342267e-01 -2.11961702e-01 -2.05900505e-01 +4.27452102e-02 +4.30774055e-02 +1.30748637e-02 -2.20086873e-01 -4.26634960e-02 -7.96368867e-02 -4.60163830e-03 -8.66529241e-04 -3.41940045e-01 +6.37006089e-02 +8.18883702e-02 -5.99270947e-02 -1.27911083e-02 +1.46239270e-02 -1.92559898e-01 +1.06197625e-01 -8.96568969e-02 -4.52331789e-02 -2.15791836e-01 -7.24023998e-01 -9.82208475e-02 +1.20717231e-02 -1.83043405e-01 -2.61867195e-01 -2.66261809e-02 +5.99908605e-02 -3.14506680e-01 +9.57372114e-02 +2.11726651e-02 -5.60632488e-03 -4.16610017e-02 -3.94892126e-01 -7.05149770e-01 -8.55920762e-02 +1.16035081e-02 +1.54632516e-03 -2.69037336e-01 -5.12697175e-02 +5.33106253e-02 -1.68032333e-01 +4.62301373e-02 -2.23716572e-01 -6.59012347e-02 +8.74588341e-02 +5.56433387e-03 +2.71963328e-01 +4.16617049e-03 +7.83284977e-02 -1.17672468e-03 +3.08084581e-02 -2.40506202e-01 -4.05502796e-01 -1.07048592e-02 +1.72594523e+00 +1.51745453e-01 -5.33500351e-02 +2.54805852e-03 +2.68786661e-02 -7.04782037e-03 -7.39648938e-02 -2.89710611e-02 +1.68529615e-01 -6.85709789e-02 -7.46784285e-02 +1.00459732e-01 -1.19614117e-01 -5.49746864e-02 -1.18232407e-02 +3.54835726e-02 -5.39068468e-02 -1.17722526e-01 +1.44014597e-01 +1.01700462e-01 +1.12582697e-02 -5.21289222e-02 -2.28705034e-02 -3.31619292e-01 -7.74745047e-02 +1.19433682e-02 +4.58676480e-02 -5.23673534e-01 +2.44527049e-02 -1.86516970e-01 -2.40046903e-01 -3.43379080e-02 -3.01361382e-01 -7.10868090e-02 +1.71792343e-01 +4.69913296e-02 +9.40104574e-02 -8.67869556e-02 -2.17816889e-01 -7.72249699e-02 +5.28149540e-03 -3.78490463e-02 -9.84596387e-02 -2.89947391e-02 -1.68070998e-02 -8.39747488e-02 -6.47583902e-02 +1.25954092e-01 -5.89424893e-02 -5.29037826e-02 -1.45258740e-01 -2.51904372e-02 -9.05723721e-02 +1.19406367e-02 -4.24984992e-02 -2.34202921e-01 +4.34292592e-02 +1.03254221e-01 +4.90001813e-02 -3.94759066e-02 -3.83381732e-02 +1.68171991e-02 +6.70081854e-01 -2.26201177e-01 -1.81402639e-01 -4.43540990e-01 +2.70699784e-02 +2.81194616e-02 -4.00827557e-01 -1.73811793e-01 +4.67628054e-02 -3.23781043e-01 -1.94897912e-02 -1.08648218e-01 -2.99805462e-01 +4.93694171e-02 +6.43893257e-02 +2.82471050e-02 +2.23173007e-01 -1.87929109e-01 -4.02618609e-02 -2.98703313e-02 +1.82710135e+00 -3.42806965e-01 +7.64286593e-02 -2.48101309e-01 -1.05058394e-01 +8.49211439e-02 +6.82702241e-03 -1.03720695e-01 -1.97530046e-01 -4.52984385e-02 -5.40087759e-01 +4.83535491e-02 +5.32823764e-02 -2.11159304e-01 -3.99251848e-01 -3.07977013e-02 +1.58866774e-02 +3.51811908e-02 +3.65010723e-02 -5.73051572e-02 +7.47980177e-02 -1.54721411e-02 -8.24413635e-03 +2.53581684e-02 +7.96340853e-02 -1.28918231e-01 -2.25086421e-01 -1.33853378e-02 -2.44235657e-02 -3.72621007e-02 +7.04141632e-02 -6.28104210e-02 -4.85722870e-01 +3.70135427e+00 -4.30218726e-02 -5.37620336e-02 +4.77613956e-02 -3.84340845e-02 -3.76632571e-01 +5.50096393e-01 +7.19207991e-03 +5.32716475e-02 -3.54301743e-02 -7.66042545e-02 -5.97534850e-02 +8.56710300e-02 +4.37749475e-02 -1.98794261e-01 -4.68282029e-02 -3.97685468e-02 -1.30602315e-01 -3.23398486e-02 -4.48852032e-02 -1.99700549e-01 -8.25549960e-02 -3.20684761e-02 -2.02293638e-02 -5.87660313e-01 -2.42241502e-01 -4.53776121e-02 -7.35487342e-02 +7.14240223e-02 -4.73797500e-01 -6.94114948e-03 -3.40337753e-01 -4.21094373e-02 +6.09832183e-02 +4.02736366e-02 +2.10507616e-01 -1.08498394e-01 -2.71787494e-02 -1.22084869e-02 +6.71557114e-02 -4.51433837e-01 +3.71653102e-02 +6.97494969e-02 +1.14211261e-01 +2.84763761e-02 -1.56522572e-01 -2.86184072e-01 -7.73450583e-02 -7.74157643e-02 -2.23199790e-03 +2.27727555e-02 +3.49361897e-01 -3.23325507e-02 -4.99384254e-02 +3.73056456e-02 -3.26497220e-02 -5.70712835e-02 -8.04416463e-02 -1.89984679e-01 -6.96496218e-02 -8.99584740e-02 -9.37243327e-02 +5.59217513e-01 +6.19056486e-02 +1.21347204e-01 +2.63418227e-01 -5.73579296e-02 -9.92160589e-02 +3.55750889e-01 -2.33802814e-02 +2.90715367e-01 +3.42566073e-02 -4.54812050e-02 -4.78574857e-02 +4.22489122e-02 -1.07802637e-01 +7.50797093e-02 -3.21120513e-03 -2.26284135e-02 +6.10547923e-02 -1.98783074e-02 +5.12785129e-02 +2.90529788e-01 +2.16571674e-01 +2.50209179e-02 +1.76524833e-01 -3.52838337e-02 -5.38732409e-02 +7.64368055e-03 -2.27430388e-02 +8.15801769e-02 -6.05731569e-02 +5.50082684e-01 +2.04359114e-01 -9.49804783e-02 -7.90040344e-02 -7.07084388e-02 +5.97448908e-02 -8.43180493e-02 -3.10139190e-02 -8.95578228e-03 +2.73432266e-02 +2.64912527e-02 -1.34202883e-01 -1.02648087e-01 -1.57425590e-02 +2.83549517e-01 -2.13142522e-02 -3.66316795e-01 -7.25347474e-02 -1.97664164e-02 -1.59058049e-02 +2.70868063e-01 -2.16795411e-02 -6.25141710e-02 -6.72614649e-02 -6.02281578e-02 -6.08481944e-01 +8.62288624e-02 +3.71822536e-01 +2.20151052e-01 -7.78669864e-02 +6.87301904e-02 +2.34710962e-01 -3.69943120e-02 +1.02765309e-02 -4.56628352e-02 +3.30537604e-03 +9.96489078e-02 -2.38106083e-02 +7.54871592e-02 -1.22650288e-01 -3.68323438e-02 -1.48044378e-01 -8.88823569e-02 +2.50997371e-03 -1.07125826e-01 -5.28264418e-02 -4.86125983e-02 -5.12096509e-02 -2.14679148e-02 +4.75050695e-02 +6.61172122e-02 +8.91296417e-02 +2.65793186e-02 -9.28303748e-02 +6.00708686e-02 +1.67757235e-02 -1.03495561e-01 -2.18728542e-01 -1.54936329e-01 -6.40266538e-02 -2.48411181e-03 +3.31644297e-01 -2.34545767e-01 +4.13412787e-02 -2.72067487e-01 +6.30870238e-02 -1.11711569e-01 -9.01856422e-02 +3.56898196e-02 -1.40774354e-01 -9.52187181e-02 +4.19520587e-01 -1.27775669e-01 +1.33427847e-02 -5.03779063e-03 -3.37921947e-01 -1.68896779e-01 -1.82717517e-02 -1.32208765e-01 +3.62137519e-02 +6.68330416e-02 -1.24218598e-01 +9.05298740e-02 +1.30709812e-01 -9.50171351e-02 +2.05149084e-01 -5.63379005e-02 +2.90001486e-03 +7.67581910e-02 +5.07012546e-01 -1.98804215e-02 -2.28722412e-02 -4.14033756e-02 -2.76068167e-04 -4.08202298e-02 -6.58480406e-01 -8.61946046e-02 -7.88906217e-02 -8.90835524e-02 +1.91659823e-01 -8.74122977e-02 +1.85235918e-01 +8.75913501e-02 -4.10956983e-03 +3.45899880e-01 +8.56185928e-02 -4.17721383e-02 -6.05225451e-02 -7.08585903e-02 -5.30583672e-02 -6.36646524e-02 +6.55045584e-02 +5.85000403e-02 -5.65037847e-01 -2.27037594e-01 +7.48582780e-02 +6.81868419e-02 -2.95973159e-02 +1.38914236e-03 -5.75905629e-02 -9.41503346e-02 +5.04880846e-02 +2.96853811e-01 +2.06868857e-01 -2.71236710e-02 -1.28771029e-02 -1.09115146e-01 +4.45007831e-02 -2.95766264e-01 -3.00813355e-02 +3.24713737e-02 -5.52868890e-03 -2.53394127e-01 -8.12104419e-02 -5.98631985e-02 -3.44485343e-02 -1.25828683e-01 +1.90525070e-01 +1.06038056e-01 -2.53889471e-01 +9.35911983e-02 -2.88847741e-02 -6.41019717e-02 -8.79148841e-02 -7.83291236e-02 -4.98257466e-02 +9.48053300e-02 +6.76833242e-02 +1.74916133e-01 +2.69921608e-02 -6.53319061e-02 +6.04351657e-03 +5.90314604e-02 +6.95058098e-03 -2.09137991e-01 -9.14538875e-02 +8.15279856e-02 +2.48814579e-02 +9.82266739e-02 +1.94108889e-01 -2.93829218e-02 +1.93131790e-02 -1.96236953e-01 -2.92225778e-02 +8.79850909e-02 -9.96115431e-02 +1.00867800e-01 -5.92903187e-03 +3.12401503e-02 -1.08878138e-02 -4.09219444e-01 +1.45711392e-01 +4.75081839e-02 +3.31214443e-02 +6.31795824e-02 -2.30658315e-02 +4.45684493e-02 +8.73956922e-03 -3.62320640e-03 -7.07081631e-02 -1.14819154e-01 +2.01993242e-01 -6.51385486e-02 -5.07466272e-02 +7.79833794e-02 +1.45413661e-02 +6.05780780e-02 -5.79415075e-02 -2.65988614e-02 -2.16841567e-02 +1.07947588e-01 -1.33134276e-01 -1.54464645e-02 +3.84841532e-01 -8.12631194e-03 -1.17888320e-02 -6.55974522e-02 +7.90568069e-02 +3.10705360e-02 -7.46787339e-02 -2.89879799e-01 +2.28383671e-02 -1.15640119e-01 -1.86613351e-02 +6.33576661e-02 +7.38805905e-02 +5.67456670e-02 -3.59247113e-03 +3.08771599e-02 -2.08598375e-02 -2.15281397e-02 +3.98675829e-01 -8.84284005e-02 -9.95084122e-02 +1.86016679e-01 -6.94121346e-02 +1.35628313e-01 +2.94489749e-02 -5.78744411e-02 -4.86457236e-02 -5.51080763e-01 -3.96673428e-03 +2.58110184e-03 -7.35044777e-02 -1.42404646e-01 -3.07446212e-01 -1.06468834e-01 +3.57909262e-01 +2.13634763e-02 -5.01868054e-02 -4.82861698e-02 -6.94232136e-02 -8.69804248e-02 -1.02496870e-01 -5.71666025e-02 -6.83882609e-02 +4.28506732e-03 +8.49610940e-02 -9.09186229e-02 -2.61141881e-02 -1.10344067e-01 +2.20741145e-02 +1.44104483e-02 +2.86878124e-02 +4.17556353e-02 -3.69258970e-02 -1.03505962e-01 +2.47511566e-02 +1.12208694e-01 -9.16600004e-02 -7.27005452e-02 +4.55435785e-03 +1.37851983e-02 +3.78539190e-02 -8.42381269e-02 -7.32755184e-01 +4.84073982e-02 +1.62446618e-01 +1.75658554e-01 +3.90923284e-02 -6.04147241e-02 -1.28912315e-01 -1.17473707e-01 +3.89735363e-02 -2.84489319e-02 -2.85596922e-02 -9.75805745e-02 -1.62985548e-02 +6.43598884e-02 -2.95867175e-01 -1.33749945e-02 +7.41950572e-02 -2.51071956e-02 -2.16215551e-02 +2.26611141e-02 -8.79466608e-02 -1.67917479e-02 +1.04346022e-03 -8.37061629e-02 +1.45498076e-02 -3.28540429e-02 -7.22144023e-02 +9.00171977e-03 +3.73071507e-02 +5.41077293e-02 -4.07303959e-01 -1.15972102e-01 +1.91436056e-02 +5.52307218e-02 +2.00098321e-01 +6.37375861e-02 -9.24419761e-02 -2.25416943e-01 -7.72113586e-03 -8.74729976e-02 -1.46437407e+00 +5.62334135e-02 +1.43096419e-02 +1.15117153e-04 +3.99264991e-02 +1.46318628e-02 +9.53258201e-02 -3.32503766e-02 +5.11836857e-02 -1.83164984e-01 +4.65496778e-02 -8.19836184e-02 +3.12757552e-01 -5.33199847e-01 +7.56144640e-04 +7.71575943e-02 +5.40586859e-02 -9.90465805e-02 +1.98187977e-01 -1.31756157e-01 -1.65552385e-02 -3.74721624e-02 -9.48308334e-02 -1.36077359e-01 +2.80822963e-02 +4.11689691e-02 -6.93143830e-02 -1.80168346e-01 +2.00825214e-01 +3.72055396e-02 -4.63502035e-02 -9.52280909e-02 +7.36736655e-02 -2.42237836e-01 -7.71061927e-02 +5.46929892e-03 -7.96322301e-02 -2.82506086e-02 +4.16249633e-01 -8.89184549e-02 +7.17710480e-02 -2.65648097e-01 -4.41860437e-01 +8.65129679e-02 -9.84656289e-02 -4.49673943e-02 -5.99159375e-02 +7.76271895e-02 -8.21863785e-02 +7.96987638e-02 -7.92264566e-02 -2.57933494e-02 -4.91767973e-02 +2.67848689e-02 +2.37616561e-02 +4.20374144e-03 +7.21199885e-02 +5.23050688e-02 +1.03568621e-01 -7.08445758e-02 -1.31263033e-01 -6.24828041e-02 +4.90014479e-02 -2.51003414e-01 -6.82085037e-01 -8.29923525e-02 +3.14817727e-02 +7.06916228e-02 -4.18062657e-02 -2.66395397e-02 +1.22860568e-02 -3.03455312e-02 -1.18033886e-02 -4.64309081e-02 -1.11952260e-01 +5.76929189e-02 -3.10377955e-01 +1.75229982e-02 +2.31246933e-01 -2.21567415e-02 +7.21135661e-02 -1.73741758e-01 -3.33320946e-02 +3.02744150e-01 -9.07430425e-02 +9.75915864e-02 +9.95391607e-02 -9.20417383e-02 -7.13824481e-02 -9.67799649e-02 +2.07509231e-02 -6.94271624e-02 +3.92276887e-03 -1.98421758e-02 -2.24481933e-02 +1.03151798e-01 -1.99819475e-01 -1.27780825e-01 +6.33433342e-01 +1.83895975e-01 +1.82646036e-01 +3.82320881e-02 -2.81129237e-02 +4.01383452e-02 -6.03269041e-02 +3.85440402e-02 +2.39998654e-01 -1.64261237e-02 -9.34599862e-02 +3.48078609e-02 +6.46012649e-02 +8.26829746e-02 -1.28170580e-01 -1.24987485e-02 +2.46234275e-02 -4.59648669e-02 +2.96743542e-01 -9.97854471e-02 -3.50091793e-02 +1.63680077e-01 -9.31582153e-02 -3.59839737e-01 -1.71664879e-02 -7.22723603e-02 -4.01701853e-02 -1.21428323e+00 -1.00701638e-01 +8.08270834e-03 -1.81756437e-01 +5.61600830e-03 +1.24532320e-02 -4.29638550e-02 +1.45032406e+00 +1.76009819e-01 +3.46749020e-03 +7.21815005e-02 -1.84103385e-01 -8.34110528e-02 +6.08613677e-02 -1.20105650e-02 -9.11217257e-02 -1.20583743e-01 -8.36621225e-02 -2.92614028e-02 +1.67108444e-03 +9.70454738e-02 -1.46161561e-04 +6.07183911e-02 -4.81545832e-03 -7.87246376e-02 +1.42405601e-02 -1.09337516e-01 +8.06826204e-02 -2.24420071e-01 +9.52278897e-02 -1.15240393e-02 +4.49388251e-02 +9.43352748e-03 +3.73211578e-02 +3.76458839e-02 +7.30434179e-01 -5.26779056e-01 +1.21896446e-01 -1.87613979e-01 +5.82594648e-02 -6.25167862e-02 -1.65283978e-02 +1.15625240e-01 -3.12807076e-02 +3.68887335e-02 +7.87433609e-02 -9.75871552e-03 +3.34949046e-02 -1.12943500e-01 -5.05224057e-02 -9.40522552e-02 +2.08420902e-01 -1.48211885e-03 -1.01164937e-01 +3.22617777e-02 +5.01729727e-01 +3.29735503e-02 +2.07934417e-02 -2.25901574e-01 -9.64020938e-03 -1.62735637e-02 +6.09123781e-02 +4.71157953e-02 +6.46082859e-04 +9.42283124e-03 -5.09359419e-01 +9.01464559e-03 +8.83143768e-02 -5.77977039e-02 -2.20812276e-01 +6.44029826e-02 +8.43328014e-02 +8.25367942e-02 -8.54925439e-02 -1.89230889e-01 +2.11796928e-02 +1.75934448e-03 +3.99733596e-02 -9.45337117e-02 +1.53045744e-01 +2.24277116e-02 -8.39221925e-02 +9.57438648e-02 -3.49912308e-02 +1.79209307e-01 +9.02053863e-02 +6.25783801e-02 -4.34743822e-01 +7.07229853e-01 +2.00084001e-02 +6.58778101e-03 +2.41131168e-02 -1.86617691e-02 +3.59700248e-02 +3.78157943e-01 -4.39199768e-02 +3.34566496e-02 -7.51704946e-02 -9.53997765e-03 +9.38213915e-02 -1.06411003e-01 -2.97974348e-02 -6.29384210e-03 +3.02815676e-01 -6.21614903e-02 -4.85867970e-02 +6.63008317e-02 -1.24918044e-01 -6.92922771e-02 +7.62071833e-03 -1.45656634e-02 +5.33227250e-02 -1.74905205e+00 -1.48131788e-01 -8.54284614e-02 -5.48524074e-02 +1.23121180e-02 -4.54892337e-01 +1.92242682e-01 +4.73533608e-02 -1.13611624e-01 +7.47784078e-02 +5.58640733e-02 +9.63573307e-02 -3.56108397e-02 -5.89604303e-03 -8.38446394e-02 -5.83544858e-02 -2.09747791e-01 -4.38716114e-02 -6.16445355e-02 -1.07519910e-01 -2.69903410e-02 +2.29969807e-02 +5.47333695e-02 +3.72699164e-02 -2.22529680e-03 -1.21233992e-01 +4.33444679e-02 +3.19551200e-01 +3.52178700e-02 +2.14970522e-02 +3.16046268e-01 +1.89235657e-01 -7.91023821e-02 +5.17248362e-02 -2.31510311e-01 -6.13532588e-02 -7.20676826e-03 -1.20800473e-01 +4.59636003e-01 -6.42139688e-02 +8.99868831e-02 +3.01566124e-01 -1.00638323e-01 -1.01235524e-01 +5.24239123e-01 -6.48796782e-02 +3.87345463e-01 -5.58435433e-02 -7.02648386e-02 -1.92739367e-01 -1.01224497e-01 +5.40399272e-03 -7.25647658e-02 -7.21006617e-02 -1.05236478e-01 +2.38675028e-02 +3.16730846e-04 -4.73264754e-02 +2.51678824e-01 +5.93077801e-02 +5.66981100e-02 +2.10743830e-01 -7.09845498e-02 -1.04262523e-01 +7.58964643e-02 -4.13987003e-02 +3.90669331e-02 -2.21529409e-01 +5.45064628e-01 +1.60237938e-01 -3.73658203e-02 -1.57943985e-03 +5.02971523e-02 +3.93604711e-02 -6.14264123e-02 +6.57798871e-02 -6.07386194e-02 +4.33510020e-02 -6.14884533e-02 -1.76027611e-01 -7.77096078e-02 -9.98578519e-02 +2.40434289e-01 +8.80960599e-02 -1.82711452e-01 -2.94543412e-02 +1.65926348e-02 -5.18817678e-02 +1.36252955e-01 +8.01724866e-02 +3.47516919e-03 -3.66252242e-03 -9.76700038e-02 -5.02338469e-01 -2.91714948e-02 +2.71578610e-01 +6.88771829e-02 -6.07087687e-02 +9.04165581e-02 +2.36312434e-01 -3.23806815e-02 +8.96470472e-02 +5.08181676e-02 -9.61944610e-02 +1.89366370e-01 -4.16728780e-02 -5.40093035e-02 +6.59014937e-03 -7.75159150e-02 -1.37365580e-01 -1.01959728e-01 -3.18792537e-02 -1.09894775e-01 -1.00083351e-01 +5.53014204e-02 -8.88366178e-02 +1.27438614e-02 -8.24791044e-02 +6.28179908e-02 -3.21300291e-02 +4.12287042e-02 +3.73374860e-05 +6.73746914e-02 +8.49544778e-02 -1.69610053e-01 -2.33172417e-01 -1.17322832e-01 -1.05759159e-01 +5.77323139e-02 +4.77335334e-01 -1.94443375e-01 -1.13529369e-01 -3.42965245e-01 -3.49688902e-02 +6.11669570e-02 -2.02790737e-01 +2.85783540e-02 -1.14507824e-01 -1.70344412e-02 +5.58571577e-01 -1.91046726e-02 +9.52128507e-03 +3.66517156e-02 -1.69799492e-01 -2.38553405e-01 -1.15709476e-01 -1.33005053e-01 -7.63706937e-02 -5.21011911e-02 +4.05582227e-02 -1.16663380e-02 +1.55334458e-01 +2.07556310e-04 +2.24067643e-01 -6.32401258e-02 -8.84861499e-02 +7.13416189e-02 +3.07601184e-01 +5.52717894e-02 -1.57442000e-02 +1.09657273e-01 -1.83649231e-02 -1.05764449e-01 -6.85335696e-01 +7.27187376e-03 +3.46112847e-02 +2.60155313e-02 +2.00060725e-01 +8.60883966e-02 +2.97839820e-01 +8.71553421e-02 -1.18241169e-01 +1.98942527e-01 +9.25582796e-02 -1.03289410e-01 +8.27410370e-02 -1.12627797e-01 -4.35450859e-02 -3.96365412e-02 -3.90457697e-02 +7.49673322e-02 -7.04937160e-01 -3.44663382e-01 +8.34589079e-02 -9.53572895e-03 +7.68646821e-02 +3.61796319e-02 -2.19658762e-02 +6.65719137e-02 +4.09385711e-02 +2.06618443e-01 +2.21858919e-01 +5.32351136e-02 -7.06136152e-02 -9.66445135e-04 -4.13088724e-02 -3.56774271e-01 -5.60277477e-02 +1.80226623e-03 -4.39908123e-03 -2.47351751e-01 +7.97626004e-02 -8.36332664e-02 +6.05078265e-02 -1.35159701e-01 +1.31941378e-01 +1.73630685e-01 -1.99645162e-01 +5.46033382e-02 -9.27698240e-02 +3.46031971e-02 -2.14578867e-01 -1.10822022e-01 -9.57474951e-03 -9.19855386e-02 +5.99297136e-02 +1.65870711e-01 -1.05371431e-01 +1.30873863e-02 +7.71833658e-02 -3.73985916e-02 -1.65257715e-02 -6.48931339e-02 -5.72093055e-02 -1.18055664e-01 -6.21824600e-02 +1.26998201e-01 +4.53812964e-02 +3.81265916e-02 -1.56906471e-02 -1.79151893e-01 +1.68711711e-02 -2.15925965e-02 -7.21727312e-02 +7.11514503e-02 -9.86379087e-02 +8.96941051e-02 +8.28054249e-02 -3.89887780e-01 +1.46972492e-01 +2.36640885e-01 +3.66063118e-02 -1.03683464e-01 -6.94789439e-02 +2.96631567e-02 +3.48702148e-02 +6.97769150e-02 -9.08508524e-03 -3.85520272e-02 +1.12978086e-01 -8.07796717e-02 -7.27770552e-02 -7.72941709e-02 +9.15122628e-02 -2.56375615e-02 -5.83607107e-02 +4.91713248e-02 +4.81765904e-02 +2.67360181e-01 -1.65739313e-01 +6.02295734e-02 +3.33870560e-01 -3.82160656e-02 -1.33616105e-01 +9.19786189e-03 +5.80170117e-02 -1.04994267e-01 -1.39744088e-01 -2.97468662e-01 -6.65867701e-02 -1.37723118e-01 +2.01555751e-02 -9.86804068e-02 -3.82455885e-02 -1.76487025e-02 -3.23198400e-02 -5.06310500e-02 -9.32485331e-04 -3.56496423e-02 +4.12165672e-01 -1.00635186e-01 +9.80599076e-02 +1.17275551e-01 +1.00176800e-02 +1.68872893e-01 -9.08882990e-02 -8.47401917e-02 +1.00116488e-02 -5.89203537e-01 +4.23481576e-02 +1.05187140e-01 +4.08665687e-02 +2.81203743e-02 -3.50935161e-01 +6.94901347e-02 +3.11980903e-01 +7.29231685e-02 +3.23801413e-02 +1.73597541e-02 +7.39868805e-02 -5.05118221e-02 +2.25923434e-02 +1.33026429e-02 +3.00062671e-02 +4.26825546e-02 -2.50433907e-02 +7.70307928e-02 -2.93776877e-02 +3.40412222e-02 -2.24885531e-02 +6.66005835e-02 -4.07271795e-02 +3.88969965e-02 -4.06406857e-02 -3.91067304e-02 +5.53863384e-02 +2.90695131e-02 -6.42136410e-02 -4.52627204e-02 -5.13660163e-02 -8.10016319e-02 +3.59490216e-02 +1.72788519e-02 -6.92898691e-01 +4.38783094e-02 +1.67657122e-01 +1.60399139e-01 +8.03446248e-02 -1.02768749e-01 -1.56454533e-01 +2.41199229e-02 -3.07004806e-02 +1.30058676e-01 +6.35088654e-03 -6.32897988e-02 -1.14323772e-01 -5.25733493e-02 -3.09395492e-01 +6.22214302e-02 -3.42713594e-02 -7.91020170e-02 -9.49688330e-02 -1.01829164e-01 -7.83076733e-02 +1.74991086e-01 -1.11802250e-01 -9.49967057e-02 -9.40513313e-02 -5.42421974e-02 -1.04093939e-01 +4.66886871e-02 +6.18901812e-02 +3.29706743e-02 -5.47667384e-01 -3.63629609e-02 -1.98774263e-02 +9.77772251e-02 +1.99418321e-01 -8.91994033e-03 -1.22753099e-01 -2.23019302e-01 -1.35437073e-02 -4.91016991e-02 -1.43098807e+00 +9.94040519e-02 +1.68705415e-02 -3.04936934e-02 +6.61211237e-02 -3.08268275e-02 +1.01582065e-01 -9.25916210e-02 +1.85749829e-02 -3.74855965e-01 -3.81152630e-02 +3.56440223e-03 +3.97190481e-01 -6.08163059e-01 -1.80668235e-02 +9.91125628e-02 -5.01218140e-02 -8.28316435e-02 +1.26339629e-01 -2.34086215e-01 -2.71001626e-02 +2.42442191e-02 -2.42028330e-02 -1.14328578e-01 -1.10884801e-01 +9.47061926e-02 +7.64397606e-02 -3.04621875e-01 +1.51396748e-02 +3.66970897e-02 +5.82337454e-02 -6.93645552e-02 -3.48446555e-02 -1.44003034e-01 -9.72403362e-02 -2.64001582e-02 +1.19489129e-03 +8.92456342e-03 +4.07524347e-01 +1.78370792e-02 -8.84413123e-02 -2.65147835e-01 -4.86110747e-01 -1.62942987e-02 -8.84505734e-02 -9.53051895e-02 +7.61404932e-02 +3.94538790e-02 -4.08231653e-02 +2.04827823e-02 -8.06948468e-02 -3.21524814e-02 +2.78102290e-02 -1.56686842e-01 +6.93047866e-02 +3.58865745e-02 -5.78247681e-02 -9.99511182e-02 +9.30757672e-02 -2.93189976e-02 -1.40027657e-01 -7.07350597e-02 +6.71451166e-02 -1.17858738e-01 -7.60188103e-01 -1.43919438e-01 +8.43348820e-03 -2.23936066e-02 +6.86901882e-02 +6.57616556e-02 +4.62043211e-02 +1.56088516e-01 +7.10174143e-02 -6.68671355e-02 -9.61365700e-02 +1.72461644e-01 -3.74573112e-01 -1.53826699e-01 +1.51907861e-01 -6.56255856e-02 +8.30877125e-02 -2.04223916e-01 -6.60470054e-02 +1.82839796e-01 -5.28554991e-02 -6.36423528e-02 +3.69154848e-02 -8.03808309e-03 +8.67035910e-02 -3.89622040e-02 -6.28671050e-02 -6.59777299e-02 +7.90246821e-04 +5.07637262e-02 -1.05598718e-01 +1.64202422e-01 -3.14490199e-01 -4.37761424e-03 +7.42321312e-01 +2.19164327e-01 +1.51889369e-01 +7.63959426e-04 +4.22008373e-02 -7.37794116e-02 -2.76443902e-02 +2.29352247e-02 +1.39858976e-01 -3.79544906e-02 -5.29231355e-02 -1.02410754e-02 -7.13354051e-02 -2.74753496e-02 -5.11771999e-02 -3.45854908e-02 -3.18940952e-02 -3.48345526e-02 +2.70937502e-01 +1.42966341e-02 -2.29279008e-02 +1.37225047e-01 +7.28952736e-02 -2.57992327e-01 +4.74717505e-02 -2.57475972e-02 -3.25826295e-02 -1.28302324e+00 -1.10238865e-01 +1.76936463e-02 -2.20775247e-01 +3.00605465e-02 +4.38676700e-02 -9.40122977e-02 +1.49539351e+00 +1.32126480e-01 +7.47297630e-02 +7.02478457e-03 -2.22123265e-01 +3.26128863e-03 -3.30053642e-02 -1.50098680e-02 +5.87699972e-02 +2.01973524e-02 +5.20679653e-02 -7.30972737e-02 -3.95717174e-02 -5.25950380e-02 -1.10191874e-01 -4.25036736e-02 +4.75580990e-02 -5.47905974e-02 -2.25035138e-02 +2.11415980e-02 -3.02435607e-02 -9.10182670e-02 -4.74459156e-02 +4.41533774e-02 -8.75639394e-02 +5.72317056e-02 +6.55128509e-02 -3.72676998e-02 +7.67496824e-01 -5.31036019e-01 +4.30507623e-02 -8.13883394e-02 -7.79579133e-02 +5.48647568e-02 -5.00191040e-02 +1.43031320e-02 -1.55731943e-02 +1.07778251e-01 +2.54390016e-02 +5.25167026e-03 -6.60517812e-03 +5.32373153e-02 -9.81144048e-03 -4.52311821e-02 +2.69747108e-01 -3.22042182e-02 +6.59771413e-02 +7.66582936e-02 +5.48526585e-01 +5.43376692e-02 +9.93371755e-02 -3.60293776e-01 -9.45548899e-03 -8.89111608e-02 +2.59792316e-03 -5.40977456e-02 +8.16634856e-04 -5.70751987e-02 -4.39478070e-01 +4.11991626e-02 +5.49599305e-02 +5.63348234e-02 -2.19308734e-01 -4.19350863e-02 +3.30279469e-02 +8.86290520e-02 +4.57090847e-02 -2.04672709e-01 +1.42353280e-02 -5.84477512e-03 -5.27176186e-02 +1.44115300e-03 +1.60835534e-01 -8.71437192e-02 -8.32631961e-02 +9.82853249e-02 +8.69646519e-02 +2.02727154e-01 +7.17741475e-02 +4.57444713e-02 -4.12047446e-01 +5.63914955e-01 +2.58434042e-02 +6.25927746e-02 -7.58558288e-02 -2.67717373e-02 +1.56041339e-01 +4.67018515e-01 +9.68108233e-03 -1.03584751e-01 -8.21503401e-02 -9.12633613e-02 -9.18230265e-02 -7.00759813e-02 +4.80300114e-02 -1.69138890e-02 +3.85689914e-01 -2.06638239e-02 +8.88859015e-03 -2.50542443e-02 +6.42803535e-02 -6.75136968e-02 -1.08674958e-01 -9.03109610e-02 -3.44877839e-02 -1.89469790e+00 -2.94832140e-01 -3.81144471e-02 -7.41913468e-02 +1.44855514e-01 -3.49625707e-01 +7.89351016e-02 +1.92591585e-02 +5.60516156e-02 +5.90761453e-02 +3.76738645e-02 +1.89163730e-01 -7.47619346e-02 +3.17059793e-02 -3.46880332e-02 +5.45708127e-02 -3.71845692e-01 +6.32957071e-02 +8.47813413e-02 +8.94363038e-03 +3.35351378e-02 +1.42525081e-02 +9.04215872e-02 +4.49923612e-02 -5.70749352e-03 -5.33181243e-02 -3.28306742e-02 +4.49357480e-01 +4.67903949e-02 -1.05812266e-01 +2.12506294e-01 +3.74376811e-02 +1.98693797e-02 -2.33028792e-02 -2.17744872e-01 +9.40323174e-02 -2.17063949e-02 +5.73617034e-02 +5.06401479e-01 +5.16760163e-02 +2.41311550e-01 +2.68213272e-01 +7.92165175e-02 +6.62961975e-02 +4.22681302e-01 +3.47704664e-02 +3.21090341e-01 -1.12097137e-01 -9.41831395e-02 -3.16636786e-02 -3.15029360e-02 +1.41764823e-02 -1.31624117e-02 +2.33998802e-02 -2.63073314e-02 +5.50725795e-02 +2.08902376e-04 -5.46464883e-02 +2.33643174e-01 +1.74129710e-01 -2.65735667e-03 +5.08545339e-02 -1.28106713e-01 -3.01685892e-02 -9.76737030e-03 +3.61105241e-02 -4.23374698e-02 -1.67021692e-01 +5.27075171e-01 +1.08656503e-01 -5.35796583e-03 -8.64707958e-03 +4.54748385e-02 -5.12926979e-03 -6.22258149e-02 +6.54821023e-02 +8.30239505e-02 -3.49612422e-02 -5.94757460e-02 -5.00845872e-02 +3.94648798e-02 +5.39930277e-02 +1.38107628e-01 -5.78453653e-02 -3.62723768e-01 -7.88403004e-02 +2.84726545e-02 +3.75909805e-02 +3.02635223e-01 -1.72528643e-02 +2.83816401e-02 -3.76767255e-02 -4.43359762e-02 -6.48396254e-01 -1.51859028e-02 +2.34157592e-01 +2.50053018e-01 -5.73559366e-02 +2.08745450e-02 +1.65629610e-01 +5.58202937e-02 -1.12689231e-02 -4.36661616e-02 +8.79683197e-02 +1.79052204e-01 +6.56877831e-02 +3.59407403e-02 -1.01944711e-03 +6.98153973e-02 -5.66371493e-02 -2.69884374e-02 -8.22959840e-03 -8.71538892e-02 -7.39480183e-02 +6.56306073e-02 -6.29147515e-02 -6.87697828e-02 -6.07736707e-02 -6.82604015e-02 +3.24348994e-02 -1.28062116e-02 +3.11250240e-02 -1.80763379e-02 +2.64263758e-03 -4.74356674e-02 -1.29722074e-01 -1.41562417e-01 +9.16598961e-02 -7.31650367e-02 +3.80831540e-01 -2.75566995e-01 +4.37373556e-02 -2.27112979e-01 +2.20430531e-02 +6.89535588e-02 -2.86841933e-02 -6.90832362e-02 -9.53750834e-02 +1.88727360e-02 +6.07234180e-01 +7.55571872e-02 -6.91490322e-02 +1.65291748e-03 -2.22650617e-01 -2.40802407e-01 -7.48775452e-02 +5.06341383e-02 +1.59261320e-02 +1.43833198e-02 -2.63139345e-02 +3.05019636e-02 +1.96777627e-01 -1.36841191e-02 +2.33078718e-01 +4.89398576e-02 +8.09691697e-02 +6.92292228e-02 +4.96148467e-01 -1.23072863e-01 +2.99285073e-02 +1.62699699e-01 +8.55630264e-02 -5.11740483e-02 -7.07362235e-01 -1.01767078e-01 -1.04157954e-01 -1.61049026e-03 +2.79142618e-01 +6.18997850e-02 +1.19442783e-01 -1.12035967e-01 +4.83372472e-02 +2.80844063e-01 +4.90241498e-02 +6.87055886e-02 -2.71198731e-02 -1.44520700e-02 +6.14857301e-03 +2.02180259e-02 -5.57124242e-02 +7.66071901e-02 -6.59503162e-01 -3.17864925e-01 +2.66359597e-02 -1.42642474e-02 -4.49616127e-02 -3.88130285e-02 -1.99613869e-02 +5.11684194e-02 +9.49976742e-02 +2.76260167e-01 +2.07907215e-01 +4.40200903e-02 -5.63847795e-02 +2.67188717e-02 +8.85325763e-03 -3.77860934e-01 -6.71133026e-02 -1.22678615e-01 +5.28145656e-02 -2.47632161e-01 +1.87617131e-02 -6.64001331e-03 -5.20600416e-02 -1.59138054e-01 +1.96927488e-01 +2.36475587e-01 -2.63017505e-01 +6.59364313e-02 +6.02115914e-02 -3.04429680e-02 -8.69703665e-02 +5.10086007e-02 -6.29925504e-02 +3.45125273e-02 -3.63155007e-02 +1.66120633e-01 +6.18376955e-02 -2.76010502e-02 -7.19764233e-02 -6.55090287e-02 -3.66859250e-02 -1.97304830e-01 +1.36861680e-02 -5.46847284e-03 -3.38530540e-02 +1.78187475e-01 +6.90093488e-02 +9.35673714e-02 -7.98853301e-03 -1.40584469e-01 +1.36392675e-02 -6.24588802e-02 +4.61319387e-02 -1.46758765e-01 +2.42860056e-02 +1.43096503e-02 -1.57843325e-02 -4.86193299e-01 +2.47453809e-01 -2.57242322e-01 -3.13599795e-01 +9.16243345e-02 -6.07698560e-02 +9.07865912e-02 -5.27655371e-02 -3.48386139e-01 +2.62648147e-02 +3.44791077e-02 -2.45431200e-01 +5.63623197e-02 -8.59244466e-02 +2.04851087e-02 +2.26294771e-02 -1.52611304e-02 +6.94641024e-02 -8.00490677e-02 +5.31618185e-02 -1.99154720e-01 -3.78264397e-01 +9.19929054e-03 +4.50660400e-02 -1.11802481e-01 -1.59168124e-01 +9.90281329e-02 +7.44491294e-02 -6.27603829e-02 -7.19444603e-02 -2.71947503e-01 -3.03928733e-01 -1.25759020e-01 +4.77177650e-02 -4.16102521e-02 +5.73789142e-02 -8.89646336e-02 +8.04217607e-02 -2.56920978e-02 -3.99706960e-02 +8.07780549e-02 +7.35772371e-01 +9.66599435e-02 +3.68293338e-02 -7.55229592e-02 +8.48346353e-02 +1.75104216e-02 -1.08196370e-01 -4.10496704e-02 +9.18643996e-02 -4.18228269e-01 -6.34157285e-02 +7.07661659e-02 -1.91188157e-01 -7.17172027e-03 -6.43632293e-01 -1.25184013e-02 -4.22181159e-01 -2.82840222e-01 -6.86058551e-02 +8.28790218e-02 -1.00501932e-01 +4.23356108e-02 -3.15768085e-02 -1.50856115e-02 -8.46950784e-02 -8.70871842e-02 +7.41780847e-02 -1.38049275e-01 -1.02915592e-01 -1.67529639e-02 -5.03729433e-02 +3.15517150e-02 -2.89217476e-02 -1.20142661e-02 +3.64800170e-02 -1.11037381e-01 +3.05134207e-02 +1.42329291e-01 +3.58788036e-02 -1.04103804e-01 -3.22112143e-02 -1.14553012e-02 -7.25323916e-04 +8.92987996e-02 -5.54267228e-01 -1.64574116e-01 -1.13256879e-01 +1.20679088e-01 +7.85779133e-02 -1.82626471e-02 -2.18122691e-01 -2.37995699e-01 -8.35179351e-03 -1.69129908e-01 +9.18381512e-02 -9.40444618e-02 -2.17656031e-01 -3.36442254e-02 -3.64489943e-01 +1.03192635e-01 -9.53597873e-02 +3.60938832e-02 -1.29176140e-01 +7.61166885e-02 -3.23072016e-01 -1.01333104e-01 +5.10132760e-02 -1.81499898e-01 -1.73725095e-02 -3.44791636e-02 -7.40370303e-02 -7.93846846e-02 -7.63271675e-02 +7.10538924e-02 -3.76896858e-01 -9.29301009e-02 -4.83251996e-02 -9.76488218e-02 -3.15714478e-02 +5.87325655e-02 -2.02623801e-03 -2.21440583e-01 -7.21723139e-02 +4.14412506e-02 -5.50969422e-01 -8.00093859e-02 +1.02689281e-01 +4.17091772e-02 -3.18605125e-01 -3.99474762e-02 -1.40156791e-01 -8.16353112e-02 +2.16172524e-02 -3.38741094e-01 -7.06735104e-02 +8.00809786e-02 +3.28397691e-01 -5.92903554e-01 +8.65093619e-02 +1.03701591e-01 +3.09298038e-02 +1.72668751e-02 -1.54004052e-01 -3.06549281e-01 +8.90297368e-02 -3.69319506e-02 -9.15010199e-02 -4.03447188e-02 -5.69079705e-02 +8.55854303e-02 +4.90390249e-02 -6.50546849e-01 -6.25578091e-02 +8.58515352e-02 +2.84229387e-02 +9.58877206e-02 -4.80631888e-02 -3.02526087e-01 +4.28482518e-02 -1.65618509e-02 -6.64088503e-02 -2.69595087e-01 +8.02325904e-01 +1.59601774e-02 -6.17862958e-03 -3.16782176e-01 -3.30063850e-01 -2.77985811e-01 -1.90186575e-01 +3.53671052e-02 -1.90685056e-02 +3.92802432e-02 -1.62842199e-01 +5.04173078e-02 +6.47983253e-02 +5.37136048e-02 -3.39991339e-02 -3.53323191e-01 +1.04077332e-01 -1.31365713e-02 +1.05704412e-01 +1.07090756e-01 +2.34793983e-02 -1.74850628e-01 -6.29758984e-02 +7.38029554e-03 -9.55904052e-02 -2.61523366e-01 -8.08955669e-01 -8.49184990e-02 -5.78693077e-02 -1.25706166e-01 -1.33248091e-01 -4.29770872e-02 -1.35708690e-01 -2.70396382e-01 -4.77609076e-02 -9.12950486e-02 -5.81488088e-02 -3.15626264e-02 -5.34101665e-01 -6.55460656e-01 -6.06432036e-02 +4.03829589e-02 -4.03678380e-02 -3.17156941e-01 +3.41090709e-02 +1.51664972e-01 -1.96101397e-01 -1.96774881e-02 -3.49312156e-01 -1.58035953e-03 +7.83807561e-02 -7.14600086e-02 +3.11902702e-01 +3.96316536e-02 -6.28433377e-02 +5.31515703e-02 +1.08363554e-01 -2.79568970e-01 -3.84938210e-01 +5.22948317e-02 +1.77326560e+00 +4.47032787e-02 +3.23989950e-02 +1.18538640e-01 +5.19475192e-02 +6.00490570e-02 -6.53956831e-02 -1.03427544e-01 +1.92266074e-04 -6.16344325e-02 +3.80359031e-02 +8.76936503e-03 -8.03852826e-02 +2.96978150e-02 +1.16542771e-01 -3.40359122e-03 -2.30079647e-02 -2.23533493e-02 +2.06038192e-01 +2.07436346e-02 +5.20375669e-02 -1.65385872e-01 -6.97138160e-02 -4.66055930e-01 -1.48031950e-01 -5.80082461e-02 -4.36698385e-02 -5.35116315e-01 +9.49481968e-03 -7.08389282e-02 -2.79352516e-01 -7.08555430e-02 -3.51944357e-01 -7.16124997e-02 +9.69835073e-02 -1.02640269e-02 +9.27633122e-02 +2.45825038e-03 -3.56791139e-01 +3.49343382e-02 +8.34636539e-02 +1.31265428e-02 -2.55900761e-03 -8.34565051e-03 +6.43948838e-02 -4.93049324e-02 -1.49631232e-01 +3.94111499e-02 -1.65288717e-01 -1.65607464e-02 -1.53466746e-01 +7.62339607e-02 -8.95071253e-02 -6.28243163e-02 +7.57232308e-02 -3.40203464e-01 +3.64075452e-02 -5.44315167e-02 -8.71144794e-03 -1.80461720e-01 -8.66563618e-02 -1.37155607e-01 +7.36254096e-01 -3.08346033e-01 -9.03628170e-02 -3.53514045e-01 +5.04248515e-02 +6.50683418e-02 -3.92217904e-01 -1.59330964e-01 +6.70791268e-02 -3.19411695e-01 -8.19942504e-02 -1.62979156e-01 -1.79191321e-01 +2.35287677e-02 -2.61150524e-02 +7.78278708e-02 +1.75247997e-01 -1.19681977e-01 -6.50943294e-02 -9.84063521e-02 +1.83006001e+00 -3.23893189e-01 +8.40615109e-02 -2.48493716e-01 -1.05840512e-01 -6.25979975e-02 +2.68215463e-02 +3.55768912e-02 -1.59409374e-01 +5.87582998e-02 -5.15548885e-01 -9.49596167e-02 +7.30600432e-02 -3.31804574e-01 -3.70194465e-01 -1.05219133e-01 -1.10781774e-01 +5.12671396e-02 -7.45457737e-03 +1.01494137e-02 +8.06526989e-02 -4.67888676e-02 +8.55448171e-02 +7.47206137e-02 -1.94872227e-02 +1.64185073e-02 -2.09035456e-01 +1.10174544e-01 -1.71012934e-02 -7.30529279e-02 -3.05259861e-02 +3.80611001e-03 -4.72872734e-01 +3.55693150e+00 -9.44787040e-02 -9.42033008e-02 +1.03414143e-02 +8.62413049e-02 -4.22710747e-01 +4.73539025e-01 +3.65110300e-03 +8.27628449e-02 +7.69260526e-02 -5.18487208e-02 -6.94775134e-02 +7.24428445e-02 -9.21781361e-02 -1.85852647e-01 -1.28113270e-01 -5.12912124e-02 -1.34249657e-01 -4.53445911e-02 -6.52232021e-02 -1.81700036e-01 +4.10835370e-02 +1.19481765e-01 -2.86705308e-02 -4.29811031e-01 -1.01415284e-01 -5.65704405e-02 -4.27185819e-02 +2.23596357e-02 -4.41268533e-01 -1.07221350e-01 -2.19062552e-01 -1.08916476e-01 -1.56229613e-02 -4.71581984e-03 +1.94025874e-01 -1.53635973e-02 +1.99046489e-02 +2.92174821e-03 -1.23786554e-01 -3.83571953e-01 +3.55995707e-02 +2.99165659e-02 -6.79737702e-02 -3.55663151e-02 -2.10288793e-01 -3.51004004e-01 +8.50739479e-02 +1.02914893e-03 -9.61107314e-02 +1.74590535e-02 +2.20390469e-01 +4.94983457e-02 -1.43716797e-01 -9.41446424e-03 -1.32078618e-01 -7.25652426e-02 -7.95171782e-02 -1.91519082e-01 +8.22283104e-02 +5.97935356e-02 +1.83375948e-03 +4.52593356e-01 +6.07225150e-02 +8.36326182e-02 +1.70307174e-01 -2.58824080e-02 +5.91828786e-02 +4.21628058e-01 +1.74862742e-02 +4.36914861e-01 +2.11292189e-02 +5.09631373e-02 -2.89972927e-02 -7.48697147e-02 -1.33378161e-02 -3.69899385e-02 -7.42039084e-03 -3.69237512e-02 -6.21089526e-02 -5.02375513e-02 -5.40714972e-02 +3.54648829e-01 +1.23522423e-01 -7.66103715e-02 +1.38581380e-01 -1.23506179e-03 -1.48128867e-01 -8.14163834e-02 -2.70720646e-02 +3.26658636e-02 -2.13974684e-01 +5.15992105e-01 +2.87153404e-02 +8.76414403e-02 -5.83687127e-02 -7.54563417e-03 +2.87387837e-02 -1.85377654e-02 -7.40433186e-02 +3.92139563e-03 -7.31380433e-02 +4.94030491e-02 -1.37024224e-01 -2.66193394e-02 +1.77558176e-02 +1.87069044e-01 +8.52116346e-02 -3.02458197e-01 -1.01296581e-01 -3.21714841e-02 -1.66986752e-02 +1.49916410e-01 -3.67999598e-02 -7.64931515e-02 -4.34222296e-02 +8.14460032e-03 -5.49344361e-01 -5.12391068e-02 +4.14595872e-01 +1.81855902e-01 -8.21044222e-02 -9.45227221e-03 +2.87631094e-01 -1.24955006e-01 +5.09735309e-02 -8.55176523e-02 +8.79013985e-02 +2.30367079e-01 -5.09307273e-02 +6.24865629e-02 +2.91825570e-02 +3.59432101e-02 +1.14646647e-02 -1.02973759e-01 +4.38992679e-02 +6.81565404e-02 -5.60073033e-02 -7.67671391e-02 +8.92089903e-02 -1.28668502e-01 +6.67231306e-02 +9.58721787e-02 -1.02980055e-01 +7.53912479e-02 -8.92171413e-02 +4.68384549e-02 +9.24156830e-02 -9.94266197e-02 -6.89743832e-02 -1.56126752e-01 -6.71633705e-02 +5.31008355e-02 +4.41705525e-01 -3.63675475e-01 +4.83856313e-02 -1.89208940e-01 +7.93000460e-02 -8.13295841e-02 -6.37125075e-02 -1.09889675e-02 -9.57081318e-02 -8.24330598e-02 +6.00861311e-01 +6.79510310e-02 -2.26902328e-02 +4.58412170e-02 -2.51404762e-01 -2.05607980e-01 +5.63615784e-02 -6.05916455e-02 -1.15218960e-01 -2.22188216e-02 +4.30199131e-02 -9.38772857e-02 +1.00851335e-01 +1.46765811e-02 +7.23192319e-02 +4.59287353e-02 -4.99882363e-03 -9.14808065e-02 +3.39318812e-01 -1.17783226e-01 +6.67872727e-02 +1.11830547e-01 +9.49935392e-02 -6.89548105e-02 -6.59057319e-01 +6.18875474e-02 +7.73126036e-02 -1.01262912e-01 +1.20833196e-01 -1.08533762e-01 +2.67511904e-01 -5.34769185e-02 +7.53581822e-02 +3.57849598e-01 -1.05965078e-01 +6.96588531e-02 -1.69678405e-02 -5.88945858e-03 +3.77874747e-02 -4.20586653e-02 -3.61157656e-02 +4.08615060e-02 -5.38046420e-01 -1.51756614e-01 -3.09079550e-02 -5.41993007e-02 +3.18426788e-02 +6.40378669e-02 +3.75190973e-02 -1.74220148e-02 -6.37944117e-02 +1.92108124e-01 +1.38088554e-01 -3.72283608e-02 +8.76755789e-02 +4.47132029e-02 -7.13958293e-02 -2.25238919e-01 -1.99419968e-02 -6.39342442e-02 -5.75779974e-02 -2.75644481e-01 -2.19178908e-02 -1.71396639e-02 -1.08705617e-01 -1.28092602e-01 +1.87530264e-01 +1.76860556e-01 -2.22026646e-01 +6.48158640e-02 -1.09807029e-01 -5.50759919e-02 -1.09171547e-01 +6.11127503e-02 +3.95101607e-02 -3.39420736e-02 +2.38142386e-02 +2.88938910e-01 +2.56115403e-02 +8.50249231e-02 +6.27603056e-03 -6.36772811e-02 -2.89194006e-02 -1.06903590e-01 +4.07550205e-03 -1.19012095e-01 +5.86026646e-02 +1.41636088e-01 +6.81409091e-02 +4.33595292e-02 +8.29484686e-02 -2.03389809e-01 +1.72595736e-02 +7.48777390e-02 -8.71686041e-02 -1.62573740e-01 +5.24279810e-02 +2.99515873e-02 +8.90267864e-02 -5.18213272e-01 +1.04784444e-01 -2.40945250e-01 -1.60538763e-01 +1.01252802e-01 +7.65189007e-02 -4.34935130e-02 +3.11601739e-02 -2.60713756e-01 +2.64305025e-02 +9.83124375e-02 -2.32788637e-01 +8.01542401e-02 +1.97831105e-04 +4.48673926e-02 -4.69505088e-03 -5.23620285e-02 -3.79496589e-02 -3.94864306e-02 +5.64344116e-02 -1.78478166e-01 -3.21053237e-01 +9.99454334e-02 -7.43217319e-02 -1.18277073e-01 -2.49014094e-01 +8.50371122e-02 +7.45886564e-02 -5.58367781e-02 +1.82126425e-02 -1.98016062e-01 -2.57954985e-01 -1.66599602e-01 -1.10971378e-02 -5.20963280e-04 +2.03792732e-02 -8.21771771e-02 -8.29562098e-02 +1.08286828e-01 -6.18092939e-02 -3.55980061e-02 +7.59987175e-01 -2.15028338e-02 -4.31055948e-02 -6.08466603e-02 -6.75495267e-02 -6.78113028e-02 -5.52504808e-02 +9.18594748e-03 -4.36458066e-02 -5.24746120e-01 +3.37101333e-02 -6.42613545e-02 -2.36971095e-01 +5.70419244e-03 -5.76303601e-01 -4.36228625e-02 -3.50237221e-01 -2.13807493e-01 +7.14056194e-02 -1.58132575e-02 -8.77695978e-02 -9.20202583e-02 -1.81973632e-02 -5.98730147e-02 +1.95031557e-02 -3.86426561e-02 +2.12307870e-02 -9.27492753e-02 -3.62543762e-02 -5.35464548e-02 -1.17627913e-02 +1.27037922e-02 -4.70347293e-02 +8.52869600e-02 -3.01234573e-02 -3.67731345e-03 -3.60563137e-02 +2.98349392e-02 +2.49519050e-02 -2.73463458e-01 +7.79703334e-02 -5.05418591e-02 -3.13764289e-02 -1.17525108e-01 -4.28433895e-01 -3.10368836e-01 -8.27937946e-02 +2.05700453e-02 -1.39919184e-02 +2.50136037e-03 -3.53464961e-01 -1.58719972e-01 -4.87552769e-02 -2.27925405e-01 +7.17576221e-02 -8.15451890e-02 -2.20572233e-01 +4.99175787e-02 -3.98317575e-01 -9.62045342e-02 -9.36172009e-02 -4.07159626e-02 -2.71085724e-02 -5.70128970e-02 -1.59312323e-01 -5.09696454e-02 -5.41845076e-02 -2.00772062e-01 -8.69922563e-02 +1.63835157e-02 +2.70601977e-02 -1.10170588e-01 -2.10952565e-01 -8.07697047e-03 -4.90532607e-01 -7.72904009e-02 +3.42707932e-02 -1.75432891e-01 -2.49691159e-02 +2.36403551e-02 +3.49185504e-02 -1.85034171e-01 -2.74532009e-02 -1.11902431e-01 -4.93419230e-01 -4.45942581e-02 -1.36245252e-03 -3.93666476e-02 -2.12415248e-01 -9.29815993e-02 -1.56451389e-02 -6.04807585e-02 +1.18249618e-02 -3.26643527e-01 +6.70911446e-02 +8.39076191e-02 +3.06023598e-01 -4.18298632e-01 -7.27735013e-02 -3.12737597e-04 -6.05700314e-02 +8.40741172e-02 -1.41959488e-01 -4.22146440e-01 -7.75819495e-02 +5.10828272e-02 -5.02563789e-02 -1.87261365e-02 +4.79246266e-02 +6.70987666e-02 -5.76708093e-02 -5.71922958e-01 -2.13407561e-01 +9.98335630e-02 -4.96239811e-02 +8.74292552e-02 -4.79857735e-02 -2.67229557e-01 -8.19556788e-02 +1.10577658e-01 -2.76125539e-02 -1.31018460e-01 +6.87818766e-01 -2.05388721e-02 +3.45222764e-02 -3.00033152e-01 -4.58981842e-01 -2.32779801e-01 -1.87730297e-01 +4.44718264e-02 -2.20398363e-02 -7.47584403e-02 -1.83841571e-01 +2.75905002e-02 +5.77230826e-02 -1.03018224e-01 -9.29425284e-02 -3.18522096e-01 -6.10301457e-02 +6.54910356e-02 +7.06790909e-02 +2.76192371e-02 -1.27688004e-03 -2.56376505e-01 -4.40568365e-02 -9.57881212e-02 +7.17811808e-02 -2.14825481e-01 -8.19884539e-01 +7.22365528e-02 -9.79810506e-02 -3.33535075e-01 -2.24336088e-01 +6.88997954e-02 -1.22024454e-01 -3.98121089e-01 -7.25783408e-02 +1.00392431e-01 -5.83097488e-02 -6.10540472e-02 -3.77150685e-01 -5.43197274e-01 +8.81931558e-02 +2.89720651e-02 -4.57244329e-02 -3.28756064e-01 +9.48898941e-02 -1.36564421e-02 -1.69289649e-01 +4.82684523e-02 -3.07658345e-01 +5.10214083e-03 +9.22608525e-02 -4.26952131e-02 +2.71578729e-01 +5.60658015e-02 +9.20020044e-02 +1.18099144e-02 +1.60071719e-02 -3.19302917e-01 -2.89680451e-01 +1.17616959e-01 +1.69477487e+00 +8.57271850e-02 -1.34977594e-01 +1.00722790e-01 -9.03934985e-02 +9.32062219e-04 -1.38658643e-01 -3.29466276e-02 +7.34213293e-02 -3.62646692e-02 -2.22283020e-03 +6.84995130e-02 -1.34551868e-01 +1.43036908e-02 +8.83317217e-02 -7.38448873e-02 +9.40821096e-02 -7.57528841e-02 +1.60307080e-01 +2.71267295e-02 -8.18882361e-02 -8.30838680e-02 -1.78917013e-02 -4.28044260e-01 -7.22365528e-02 +1.11879908e-01 +1.51129616e-02 -5.34777641e-01 -2.29624137e-02 -1.97766647e-01 -1.27112821e-01 -1.62159145e-01 -2.32821301e-01 -2.92222854e-02 +1.80928275e-01 +2.72632055e-02 -1.70744658e-02 -6.46453053e-02 -2.13596180e-01 -4.70466204e-02 +1.04371421e-01 +1.65687762e-02 -4.38865647e-02 +5.69984466e-02 -2.90425718e-02 +2.09786296e-02 -1.26782224e-01 -1.35914758e-02 -1.10967740e-01 -7.06899911e-02 +3.92664634e-02 +2.04171743e-02 +1.06228702e-01 +1.19687608e-02 +6.33812919e-02 -3.51004094e-01 +2.29518372e-03 -1.78182106e-02 -5.97801320e-02 -1.20834149e-01 -7.81827569e-02 -2.24811491e-03 +5.78927815e-01 -2.71583915e-01 -1.47931129e-01 -3.51276040e-01 +4.43808809e-02 -7.46076033e-02 -3.92686635e-01 -2.60375410e-01 +7.00612664e-02 -3.75086039e-01 -7.76362941e-02 -1.69709131e-01 -2.57647306e-01 +2.78974976e-03 +5.77496039e-03 +3.90407164e-03 +1.99758008e-01 -1.14731133e-01 +6.82292320e-03 +2.66413689e-02 +1.87630558e+00 -3.86967629e-01 +1.28584802e-01 -2.56457239e-01 +3.59049961e-02 +8.08922946e-02 +4.64241691e-02 +2.55578198e-02 -2.33879641e-01 +2.18126811e-02 -4.91477966e-01 -9.01939198e-02 -9.67041869e-03 -2.59975642e-01 -2.95412540e-01 -8.42272341e-02 -1.58944875e-01 -1.88566074e-02 -7.50059634e-02 +2.68524531e-02 +1.08632132e-01 +3.28154676e-03 -4.37865704e-02 +1.09574236e-01 +4.03583460e-02 -1.30606040e-01 -2.62653261e-01 +4.56937067e-02 +9.59407091e-02 -5.53054560e-04 -2.89630853e-02 -8.88613760e-02 -5.75489879e-01 +3.62767124e+00 -1.17781699e-01 -9.51584205e-02 +4.51508127e-02 -1.00762263e-01 -4.66660887e-01 +5.83448410e-01 +2.11946201e-02 -5.87181859e-02 -4.23444156e-03 +1.91259962e-02 -5.53280003e-02 +1.28291234e-01 -1.03405923e-01 -2.33953252e-01 -6.19969778e-02 +2.88707241e-02 -8.71639997e-02 +3.23870927e-02 +1.03223614e-01 -2.91510016e-01 -8.47192034e-02 -2.53765304e-02 -9.13664401e-02 -5.34515977e-01 -2.16203123e-01 -7.21525028e-02 +5.14428727e-02 +1.42485023e-01 -5.09315848e-01 -7.87780061e-03 -2.66664118e-01 -5.13785146e-02 +2.41864976e-02 +6.64537922e-02 +1.62977099e-01 -6.80391071e-03 +6.96479082e-02 +5.81163764e-02 +7.03007169e-03 -4.41221446e-01 +4.30420600e-02 -2.82039065e-02 -1.64405741e-02 -2.76474636e-02 -1.84792474e-01 -2.25000322e-01 +3.63900177e-02 +1.13395574e-02 +2.17415038e-02 -1.23095393e-01 +2.87935168e-01 -8.64421129e-02 -1.02718703e-01 +2.02398635e-02 +6.43378298e-04 +9.68131125e-02 +4.82485332e-02 -3.11117738e-01 +9.56571475e-03 -2.96824928e-02 +7.38289580e-02 +3.87143373e-01 +2.55731866e-02 -3.00043017e-01 -3.92152034e-02 +1.55008445e-03 +1.11259215e-01 +1.04818010e+00 -8.73015970e-02 -6.60547391e-02 -4.16731164e-02 -8.11951235e-03 -2.91857034e-01 +3.10446993e-02 +2.32351515e-02 -1.63155887e-02 -1.07887611e-01 -6.10035658e-02 +7.35500827e-02 +1.79768987e-02 +2.19888929e-02 +5.27638644e-02 -5.17890342e-02 +5.00693321e-02 -6.82370961e-02 -2.47632787e-01 -1.17840961e-01 -2.80173067e-02 -5.86786568e-02 +4.77603450e-02 -6.08194508e-02 +1.29755533e+00 +2.39751376e-02 -8.61074924e-02 -8.11394230e-02 +9.50435996e-02 -6.32809103e-02 -4.27888781e-02 -3.97889577e-02 +7.50607029e-02 +8.18421319e-02 -2.36497670e-02 -4.98792417e-02 +4.84858006e-02 +2.67710127e-02 -1.08057417e-01 -7.43967891e-02 -1.52567044e-01 +6.87693506e-02 -8.41043741e-02 -5.73055558e-02 -1.82076007e-01 -4.48275246e-02 +1.91134401e-02 -2.23042279e-01 +1.06548831e-01 -5.67727923e-01 +3.79851498e-02 -4.54093307e-01 -8.07201564e-02 +5.76039497e-03 -6.84600472e-02 -1.18586481e-01 -5.77935064e-03 +9.07537192e-02 +4.18305211e-02 +8.85694101e-02 -7.29640797e-02 +3.58515535e-03 +6.85617328e-02 +3.52119841e-02 +2.80402992e-02 +1.35039747e-01 -4.74593528e-02 +4.17417521e-03 -9.11283195e-02 +2.22683717e-02 +4.57509309e-02 -8.73917565e-02 -1.52077088e-02 +4.34544086e-02 -6.16251528e-02 +1.85322557e-02 -7.19532967e-02 -3.86520512e-02 +9.67259705e-02 -8.40687230e-02 -3.45865071e-01 -1.27281293e-01 -4.87725474e-02 -8.43618289e-02 -2.90662423e-02 +2.43272543e-01 -4.36190099e-01 +5.91607206e-02 -4.19141829e-01 -2.43469514e-02 -6.80228993e-02 -1.55307710e-01 -4.55630682e-02 -2.81775951e-01 +3.35553549e-02 +1.12531674e+00 +7.13882893e-02 -5.62352948e-02 -2.74489727e-02 -4.22243893e-01 -2.43344232e-01 +9.38646682e-03 -1.53651580e-01 +4.60287146e-02 +8.87647495e-02 -2.45128255e-02 -7.80756399e-02 -1.57421395e-01 +7.00616613e-02 -5.68586141e-02 +2.78911795e-02 +2.93259546e-02 -9.00452659e-02 +5.70345104e-01 -7.78346434e-02 +6.69591278e-02 -1.05264209e-01 +4.68964465e-02 +5.83963878e-02 -4.74377424e-01 +9.89460424e-02 +1.03696153e-01 +3.44038568e-02 -2.94081215e-02 -7.71844015e-02 +3.23862098e-02 -1.95865743e-02 +8.15809332e-03 +6.41177744e-02 -8.76092166e-03 -7.21597821e-02 -8.56445432e-02 -4.79164012e-02 +3.16720493e-02 +8.29195008e-02 -8.90374780e-02 -2.92972997e-02 -8.56331944e-01 -4.93157715e-01 -8.53396878e-02 -6.69181347e-02 +8.29506442e-02 -4.10800949e-02 +8.90628546e-02 -4.43191119e-02 +6.99166507e-02 -2.82606006e-01 -1.26328617e-01 +5.00901043e-02 +6.78253099e-02 +9.84851718e-02 +1.16288655e-01 -2.07211629e-01 -4.51293252e-02 +4.34118696e-02 +5.02763242e-02 -4.76388723e-01 +2.55401433e-02 +4.30645384e-02 +4.95111272e-02 -7.80757889e-02 -1.72018856e-01 -3.52479070e-02 -1.05308302e-01 +1.04674973e-01 -7.23783523e-02 -3.39840204e-02 -8.83707181e-02 -3.95818427e-02 -3.84192653e-02 -7.40249157e-02 +7.47259557e-02 -1.21934637e-01 +7.84409642e-02 -5.44280186e-02 -5.33629097e-02 -1.20466445e-02 -9.13437679e-02 -1.57201409e-01 -6.90919831e-02 +8.57772529e-02 -6.68360293e-02 -9.74952877e-02 -6.92779720e-02 -5.17961755e-02 -5.98928705e-02 -3.00006926e-01 -1.22891052e-03 -2.50120386e-02 +5.78491502e-02 -1.84620515e-01 -5.59607670e-02 +1.05697200e-01 +3.33224125e-02 -5.24555624e-01 +8.08174908e-02 -2.86460429e-01 -2.37057105e-01 +8.22293088e-02 +8.37130696e-02 -2.14125821e-03 -8.62027258e-02 -1.98644698e-01 -1.08603887e-01 -2.55043656e-02 -1.23830631e-01 -1.17721155e-01 +4.84196953e-02 -3.29382643e-02 -4.33996096e-02 +4.34756167e-02 +3.12087294e-02 +1.08946107e-01 +9.28204954e-02 -1.52781293e-01 -2.03390196e-01 +9.67744738e-02 -6.14093393e-02 -2.75606334e-01 -1.58887431e-01 +8.57178867e-02 -6.10862561e-02 +9.08097476e-02 -8.46812502e-02 -1.49763793e-01 -1.38268560e-01 -2.20829472e-01 +2.64772922e-02 +4.80143726e-02 -3.75462696e-02 -1.00056753e-01 -9.99218076e-02 +3.74619141e-02 +1.01937711e-01 -5.44780940e-02 +8.45401108e-01 -6.40364587e-02 +6.15217015e-02 -1.18358046e-01 -9.58125740e-02 +6.98999688e-02 -1.04060754e-01 -8.81057680e-02 +8.06903169e-02 -4.14442986e-01 +8.23247433e-02 +3.54224294e-02 -2.60503083e-01 +2.80479435e-02 -6.39350235e-01 +5.71810342e-02 -4.20114309e-01 -2.39170909e-01 +4.21570763e-02 +1.13598071e-01 -1.66079611e-01 +5.59563041e-02 -2.12551374e-02 +8.69256333e-02 -7.75469840e-02 -1.84742227e-01 -3.53397094e-02 +4.87488555e-03 +7.85153583e-02 +4.08491902e-02 -8.57010707e-02 -5.99258905e-03 -4.42788638e-02 +1.08704843e-01 -2.76659266e-03 -4.03239764e-02 +1.41395759e-02 +2.13960670e-02 -5.40564209e-03 -1.42283186e-01 -4.05559428e-02 +3.64470184e-02 -4.98756953e-02 -6.29504621e-02 -5.24366021e-01 -2.71568328e-01 +5.56209348e-02 +1.02483131e-01 -5.42175919e-02 +3.28567885e-02 -2.64985621e-01 -1.26063302e-01 -5.80014773e-02 -1.10155858e-01 -6.41321242e-02 -1.91314872e-02 -1.47210598e-01 -3.79763953e-02 -4.03493404e-01 -3.16909477e-02 -1.06543511e-01 -8.62255543e-02 +1.38887893e-02 -1.58108380e-02 -2.46829689e-01 -1.28650576e-01 +5.45670800e-02 -2.30778947e-01 +2.30359714e-02 +3.61134261e-02 -8.16360041e-02 -7.90602062e-04 -8.12378451e-02 -4.24085185e-02 -3.26219976e-01 +2.51148231e-02 -9.40155089e-02 -9.92622226e-02 +2.70349309e-02 -1.52319614e-02 +8.44460130e-02 -2.79325664e-01 -7.01431334e-02 -5.78938685e-02 -5.55299699e-01 -3.36977877e-02 -1.77531913e-02 +6.41374215e-02 -1.09564289e-01 -8.35051239e-02 +1.35832587e-02 -8.71626213e-02 -6.62000701e-02 -3.52520376e-01 +4.10023630e-02 +7.78692439e-02 +3.41832191e-01 -4.88037199e-01 +8.37924704e-02 +7.69673064e-02 +4.82382961e-02 -9.89406481e-02 -2.08403334e-01 -2.97207743e-01 +7.67090321e-02 -7.59011433e-02 +6.81200027e-02 +5.97337931e-02 +3.23050730e-02 +1.10496625e-01 +1.66485645e-02 -4.90318686e-01 -2.19974160e-01 +6.72212541e-02 -1.42610222e-01 +9.18964017e-03 +2.86608525e-02 -3.48793209e-01 -5.46565093e-03 +6.98720198e-03 +3.40937227e-02 -2.66790181e-01 +7.15286672e-01 -5.07145822e-02 +1.76859982e-02 -3.39543670e-01 -3.65417808e-01 -2.69608080e-01 -1.88181460e-01 +2.59954240e-02 -3.05988956e-02 +5.36561683e-02 -1.54707164e-01 +3.63313816e-02 -1.01490639e-01 +5.34905344e-02 -1.63971856e-02 -3.23155165e-01 +6.52782917e-02 -8.07174742e-02 -8.63736309e-03 +1.11701898e-02 -5.27795851e-02 -1.51170343e-01 +7.32628256e-02 -1.84475463e-02 -2.41173133e-02 -3.09738249e-01 -7.02118039e-01 +7.23017603e-02 -7.74146393e-02 -2.34661013e-01 -1.10726185e-01 +9.74682868e-02 -1.31623402e-01 -3.37702781e-01 -3.96019332e-02 +4.77123484e-02 +2.26104651e-02 -1.38039604e-01 -4.96797413e-01 -6.82127714e-01 +1.87462457e-02 +1.53441504e-02 -2.90969871e-02 -2.03971550e-01 +6.57035708e-02 +4.82013375e-02 -1.32195294e-01 +2.00132420e-03 -2.30102301e-01 -6.28112182e-02 +7.62195233e-03 -6.01211265e-02 +3.05860400e-01 +9.56690591e-03 +9.14124176e-02 +3.15554477e-02 +1.20656088e-01 -2.59186566e-01 -2.43080884e-01 -6.61837161e-02 +1.60226917e+00 +1.65214807e-01 +3.90744186e-04 -1.26109063e-03 -9.41381752e-02 +5.52554652e-02 -1.28028676e-01 -1.71271563e-01 +6.83667809e-02 -8.99191294e-03 +9.09600183e-02 +7.88497627e-02 -6.66879788e-02 +5.37375510e-02 +2.58801542e-02 +7.19895288e-02 +8.35245103e-03 -1.86167970e-01 +1.65561005e-01 +1.04858913e-01 -2.39006132e-02 -1.51771903e-01 +2.18494865e-03 -4.33432162e-01 -1.03820801e-01 +7.94543251e-02 -4.10238653e-02 -5.05100012e-01 +8.21727887e-02 -9.31004584e-02 -1.79990888e-01 -1.36549994e-01 -3.14272612e-01 +2.61110254e-02 +1.99691445e-01 +3.67880575e-02 +5.74722439e-02 +4.06354330e-02 -2.28676200e-01 -3.91921401e-02 +6.21846318e-02 -5.68698347e-02 +7.14036599e-02 -3.66535969e-02 +2.39147209e-02 +9.08233002e-02 -1.26635686e-01 +2.45864280e-02 -2.03302160e-01 +7.53639117e-02 +1.08871069e-02 +3.31159569e-02 -1.07088313e-02 +1.10801369e-01 +2.81330682e-02 -3.73073548e-01 -8.78433697e-03 +1.03462666e-01 -1.09111667e-01 -2.08347738e-01 -2.60656439e-02 -5.36146127e-02 +7.68162668e-01 -1.93389058e-01 -2.06602335e-01 -5.03950536e-01 -5.64051904e-02 -8.24981108e-02 -3.90156180e-01 -1.58258677e-01 -5.62516190e-02 -3.20015281e-01 +6.29115850e-03 -1.43738985e-01 -2.43947446e-01 +6.41426146e-02 +2.96338797e-02 +1.23031829e-02 +1.70299277e-01 -3.81638892e-02 +7.57123763e-03 +6.32369369e-02 +1.79476237e+00 -2.37831056e-01 +3.11913844e-02 -1.79274559e-01 -1.31986111e-01 -7.16478899e-02 -3.26675288e-02 -1.20036244e-01 -2.27429166e-01 -2.26430465e-02 -5.41311860e-01 -1.18748575e-01 +2.78542098e-02 -2.20359296e-01 -4.40640837e-01 +3.28290239e-02 -2.14363020e-02 +7.67050907e-02 -3.10231168e-02 -9.42999348e-02 +6.19651563e-02 -4.32946486e-03 -6.37961775e-02 -8.64197686e-02 +3.71106714e-02 -1.35454446e-01 -3.45788717e-01 -8.87602568e-02 +1.01347148e-01 +1.48642454e-02 +2.99752597e-03 -7.43254051e-02 -5.17418981e-01 +3.61848903e+00 +1.07351914e-02 -6.12807367e-03 +8.98257736e-03 +7.53078684e-02 -5.19040287e-01 +5.30667424e-01 -5.00460006e-02 +8.54209661e-02 +4.13263626e-02 -6.59035519e-02 -7.20989555e-02 -3.94268148e-02 -9.79525000e-02 -1.25826463e-01 +2.39009950e-02 -4.26206775e-02 -4.38779704e-02 -8.53372067e-02 +3.06007788e-02 -2.49741971e-01 +7.21745864e-02 -3.56062055e-02 +1.02077916e-01 -5.83983839e-01 -2.10602894e-01 -5.96803725e-02 -9.63310897e-02 +1.31869525e-01 -5.32652259e-01 -3.66565771e-03 -2.58039206e-01 -1.11828096e-01 +9.99587923e-02 +2.93174125e-02 +1.47213399e-01 +2.06128284e-02 -7.34149590e-02 +6.76679313e-02 +3.81179387e-03 -4.35066611e-01 +6.88211396e-02 +9.89301875e-02 -2.44301297e-02 +2.24401988e-03 -9.15069282e-02 -2.51097560e-01 +8.36338326e-02 -1.22796603e-01 -1.34001859e-02 +2.60346872e-03 +3.47301006e-01 +3.49727310e-02 -1.14621639e-01 +1.70997493e-02 +8.05544294e-03 +8.59514028e-02 -6.38916939e-02 -2.44912252e-01 +3.03791594e-02 +5.70399985e-02 +4.59123105e-02 +5.28271139e-01 +7.75023364e-03 +5.40052652e-02 +2.23260865e-01 -1.85379256e-02 -1.08860329e-01 +4.23280358e-01 +5.59614077e-02 +4.37910467e-01 -5.58113679e-02 -8.55485424e-02 -1.60833955e-01 +6.22763932e-02 -3.07020135e-02 -7.24381655e-02 -6.30356511e-03 -2.01457255e-02 +2.37198286e-02 -5.00304066e-02 +1.55747505e-02 +3.03351790e-01 +2.38467410e-01 -2.88873799e-02 +9.97460186e-02 -4.03080024e-02 -1.90038517e-01 +5.34440856e-03 +4.89695668e-02 -1.01158895e-01 -1.91729009e-01 +5.40951073e-01 +7.56841823e-02 -4.39840369e-03 +6.92894608e-02 -9.23659578e-02 -5.49718849e-02 -7.76928961e-02 -1.41389556e-02 -6.02670833e-02 -1.67644944e-03 -3.44108157e-02 -4.27641869e-02 -5.99243939e-02 -8.29643905e-02 +1.85203925e-01 +5.66121563e-02 -2.42097929e-01 -7.77189732e-02 -1.23996250e-01 -7.71381706e-02 +3.01454544e-01 +1.44282058e-02 -4.05442305e-02 -7.28884563e-02 -8.41818526e-02 -5.12831986e-01 +1.79758817e-02 +3.56464356e-01 +1.83658376e-01 -9.51690748e-02 +3.04781254e-02 +2.01508105e-01 +6.82831258e-02 -2.01396272e-02 -2.39925236e-02 -1.04593307e-01 +2.24697307e-01 -4.63461690e-02 -8.30047056e-02 -2.01400202e-02 -7.57702067e-02 -5.93227223e-02 -1.14181899e-01 +8.08163285e-02 +2.48687156e-02 +7.22304136e-02 +6.18990324e-02 -7.21510723e-02 -1.13561161e-01 +4.10307124e-02 +1.45807245e-03 -1.93406865e-02 -1.29179666e-02 -1.27490740e-02 -3.25221121e-02 +1.11295477e-01 -1.94069475e-01 -1.08155064e-01 -7.56406561e-02 +7.71715343e-02 +8.51462111e-02 +3.65153700e-01 -1.71198547e-01 -1.22244596e-01 -3.40735823e-01 +9.29318592e-02 -1.96532682e-02 -1.67147011e-01 -5.43557853e-02 -9.60216597e-02 -3.56628932e-02 +4.89275336e-01 -1.10961996e-01 -1.19021915e-01 +6.61427528e-02 -2.50701338e-01 -1.57146603e-01 +6.51293527e-03 -5.99532500e-02 +3.91653776e-02 -9.29249823e-03 +8.24429747e-03 -4.56171855e-02 +6.68173581e-02 -6.03533722e-02 +2.32015520e-01 -4.78451028e-02 -2.92745549e-02 +8.33289698e-02 +4.37097400e-01 -7.13541312e-03 +4.70714411e-03 +3.87156606e-02 +5.24057169e-03 +6.22490793e-02 -6.95078194e-01 -6.58849860e-03 +5.51557317e-02 +7.15204701e-02 +1.71650976e-01 -1.09653912e-01 +2.13560507e-01 -1.01008721e-01 -7.12205768e-02 +2.76945770e-01 -1.31032486e-02 -7.35908225e-02 -6.19046800e-02 -9.56695154e-02 +9.49831679e-04 +8.15651640e-02 -7.21054971e-02 +9.32558551e-02 -6.26966834e-01 -3.03706408e-01 -6.08171262e-02 +7.90679455e-02 -1.87460370e-02 -9.40831751e-02 -1.17177060e-02 -5.91890514e-02 -6.35209009e-02 +1.69164538e-01 +1.71820983e-01 +7.43993977e-03 +4.50887419e-02 +4.91348580e-02 -7.47155696e-02 -3.27932060e-01 -2.94158850e-02 -1.47099234e-02 +8.38738233e-02 -3.71509582e-01 -6.54481798e-02 +4.59701866e-02 +6.69595506e-03 -8.60192254e-02 +1.15304403e-01 +1.35465816e-01 -2.07039699e-01 +2.60805450e-02 -5.57969846e-02 -1.64602567e-02 -8.86113644e-02 +5.09605482e-02 +6.87776878e-02 +3.85517925e-02 -5.39611951e-02 +9.99283269e-02 +8.78507048e-02 +1.05103083e-01 -3.83993238e-02 -8.13108981e-02 -2.21575666e-02 -1.48708448e-01 -7.29215816e-02 -1.30031887e-03 -8.81051198e-02 +7.62570128e-02 +1.86450824e-01 +8.57682601e-02 -6.47692829e-02 -4.43802439e-02 -3.06602865e-02 +5.23401611e-02 +4.53364551e-02 +5.98710589e-02 +3.81388632e-03 +7.50409365e-02 +8.66767950e-03 -4.09479618e-01 +1.84125543e-01 +2.21918330e-01 -7.55812898e-02 -2.74055563e-02 -8.06067977e-03 +1.13081940e-01 -1.02329105e-01 +4.42760028e-02 +3.41175273e-02 +9.19935200e-03 +1.09807467e-02 +3.44978832e-02 -3.41903232e-02 +7.88365901e-02 -8.08903128e-02 -2.54561789e-02 +7.26946592e-02 -1.13972940e-01 -1.08166046e-01 +1.23899139e-01 -2.17430517e-01 +6.17962182e-02 +5.05597651e-01 -7.57265538e-02 -1.03914671e-01 +7.26385415e-02 -8.38944465e-02 -1.00542769e-01 -4.64227796e-02 -2.30768174e-01 +7.89728761e-03 -1.80911854e-01 -9.14616436e-02 +8.60906243e-02 -1.06963538e-01 +2.72449460e-02 -8.59909505e-02 -4.73104827e-02 -1.05522409e-01 +4.11240272e-02 +4.91121441e-01 -1.62533484e-02 +5.28711788e-02 +2.36593485e-01 -2.87405285e-03 +6.01928346e-02 +5.07983491e-02 +3.59066622e-03 -4.08579595e-02 -5.53710282e-01 +6.76710997e-03 +1.17155155e-02 +9.91493836e-02 -1.24201179e-01 -4.37132269e-01 -2.16671657e-02 +3.49848539e-01 -9.32706967e-02 -7.93001577e-02 -8.87984484e-02 +1.64804757e-02 -1.64068043e-02 -8.33112076e-02 -1.38764456e-01 -7.33514205e-02 +3.34419273e-02 +7.32489377e-02 +6.63841739e-02 +6.03497215e-02 -7.20983669e-02 +2.45501269e-02 +3.84212268e-04 -7.36662671e-02 +8.61982349e-03 -9.84299928e-02 -9.95988920e-02 +4.39480543e-02 +1.67984083e-01 +4.27421331e-02 -3.67432944e-02 +8.19770899e-03 -1.04938909e-01 +4.95018288e-02 +5.38251474e-02 -7.65474141e-01 -3.14840823e-02 +7.74990097e-02 +5.87995797e-02 -5.50268702e-02 -1.33346403e-02 +1.30718909e-02 -1.90196875e-02 -1.03959057e-03 +1.52883768e-01 -6.85313866e-02 -3.78420576e-02 +2.35325675e-02 +7.45263323e-02 -2.78039992e-01 -6.82692751e-02 -1.02761261e-01 -4.82646599e-02 -7.11307675e-02 -8.38905456e-04 -5.41120544e-02 +4.19335999e-02 -1.17168896e-01 -6.30607530e-02 -1.00497030e-01 +7.41679743e-02 -9.98193771e-02 +7.00195134e-02 +1.04794530e-02 -8.88097286e-02 -5.44488370e-01 -8.59316811e-02 -2.24599894e-02 +5.85593134e-02 +1.94526106e-01 -5.25857247e-02 -9.17052478e-02 -9.14707705e-02 -9.29662734e-02 -1.29033223e-01 -1.37460673e+00 -1.86126344e-02 +5.95666189e-03 -3.79866138e-02 -5.53978495e-02 -5.30166440e-02 +1.04257710e-01 +2.11661533e-02 -3.54039669e-02 -3.49207789e-01 +5.20208757e-03 -9.17515159e-02 +2.01051578e-01 -6.72656119e-01 +3.53428088e-02 -4.15406190e-02 +8.24321508e-02 -8.43148306e-02 +4.34553474e-02 -3.28881979e-01 +4.66235094e-02 +7.44605362e-02 +8.60456526e-02 -1.80545747e-02 +8.55955407e-02 +2.98840012e-02 -2.84266565e-02 -1.88468531e-01 +2.14325175e-01 +1.75919421e-02 -1.14106014e-01 -1.04406886e-01 +4.57591377e-02 -2.26930380e-01 -9.68040153e-02 -6.26239330e-02 -5.64684346e-02 +1.33029846e-02 +4.29020226e-01 +9.78949070e-02 -3.03860940e-02 -2.35065743e-01 -3.47286791e-01 +3.55969369e-02 -3.27893682e-02 -1.08798752e-02 +8.00152645e-02 +9.66702923e-02 -2.21015289e-01 -9.74967927e-02 +4.15228382e-02 -1.19857743e-01 +3.07329725e-02 +3.61245796e-02 +9.40419957e-02 -3.65774445e-02 +8.80597830e-02 +6.31184876e-02 +1.09486997e-01 -8.64596814e-02 -9.59628150e-02 +2.12018024e-02 +5.24224564e-02 -2.02866212e-01 -7.57734478e-01 -2.65877731e-02 -1.15236990e-01 +2.00099256e-02 -2.97274664e-02 -4.07512747e-02 -1.26036748e-01 -3.34485918e-01 +3.82670052e-02 -7.46963844e-02 -3.93707901e-02 -1.42738139e-02 -4.87145752e-01 -5.51746070e-01 -6.20968901e-02 -7.88306147e-02 -7.01351091e-02 -1.52622044e-01 +4.21926426e-03 +7.09180720e-03 -1.50617495e-01 +5.91157824e-02 -3.96593183e-01 -1.14319794e-01 +7.82370195e-02 -1.04112849e-02 +1.60714865e-01 +4.06174175e-02 +7.74347503e-03 -1.61035396e-02 -1.27725992e-02 -3.18804741e-01 -3.66889626e-01 -3.93478163e-02 +1.76240003e+00 +1.63928512e-02 -7.46508390e-02 +5.42873815e-02 -1.05393929e-02 -1.00371309e-01 -2.14740664e-01 -1.70042455e-01 -2.36245506e-02 -5.05607352e-02 +2.26938371e-02 +7.23163113e-02 -1.32358849e-01 -3.47552588e-03 +5.08756712e-02 -9.41093713e-02 +5.18470816e-02 -1.37271449e-01 +2.04506904e-01 -2.87989788e-02 +2.37468872e-02 -3.65691097e-03 +8.23093429e-02 -4.81631815e-01 -8.13107491e-02 +7.38176405e-02 -8.39862153e-02 -5.09632945e-01 -6.93681240e-02 -1.94963917e-01 -2.28417829e-01 -9.42764282e-02 -3.12741876e-01 -4.91568930e-02 +2.39763483e-01 +1.38846457e-01 +1.04390435e-01 -4.51703044e-03 -2.31687263e-01 -3.30524258e-02 -1.28411017e-02 -5.04568554e-02 -1.00874640e-01 -9.38283652e-02 +7.82842468e-03 +2.01629549e-02 -1.34003937e-01 -1.19669847e-02 -1.33244589e-01 +4.93718684e-02 -4.22640964e-02 -4.20193374e-02 -7.28444010e-02 +8.92226771e-02 +5.16788848e-02 -3.28080118e-01 +9.11974907e-02 +7.09515112e-03 +7.71321356e-02 -1.63490981e-01 +8.37401599e-02 -1.81536227e-01 +6.71261549e-01 -3.52219582e-01 -2.25726008e-01 -3.26236546e-01 +3.11906729e-02 +3.81497741e-02 -2.09367454e-01 -1.61522627e-01 -1.01812914e-01 -3.11081588e-01 +8.81463513e-02 -4.61832322e-02 -2.33791947e-01 -1.18363336e-01 +3.77081223e-02 +1.25784287e-02 +2.16916665e-01 -1.78829640e-01 -2.88391747e-02 -1.71834584e-02 +1.77599037e+00 -2.26175994e-01 +5.99154606e-02 -1.38425261e-01 +2.65251435e-02 +1.05542175e-01 -3.57459462e-03 -7.86511526e-02 -9.20411497e-02 -8.84462707e-03 -4.82645303e-01 -1.38294503e-01 -6.81701526e-02 -2.11183622e-01 -4.01974171e-01 -6.73925830e-03 -5.52635305e-02 +5.85757056e-03 +3.45280766e-02 +1.12920133e-02 +5.96064590e-02 -1.71066616e-02 -3.20725702e-03 +1.02977984e-01 -8.97142291e-02 -1.67738423e-01 -2.25018576e-01 -1.31030185e-02 +2.45218677e-03 +6.86957389e-02 -7.98082501e-02 +3.53132300e-02 -4.76384580e-01 +3.59760880e+00 +3.79421711e-02 -9.83774010e-03 +1.05018154e-01 +1.00064494e-01 -3.43308508e-01 +5.80215335e-01 +7.84749463e-02 +1.13238068e-03 +2.29643658e-02 -8.76740962e-02 +7.46074021e-02 +6.31910264e-02 -6.72283024e-02 -2.74511844e-01 -9.11549479e-03 -2.96358746e-02 -9.29748937e-02 -8.05916637e-02 +6.06058426e-02 -2.05656052e-01 -7.80230910e-02 -5.75888790e-02 +3.25572304e-02 -5.62137842e-01 -1.46669060e-01 +1.20637037e-01 -1.02170659e-02 +1.11914478e-01 -4.10150766e-01 -7.53513202e-02 -2.93899626e-01 -7.36590326e-02 -6.67039976e-02 -1.07289162e-02 +1.19405359e-01 -1.05438940e-01 -2.16706228e-02 -7.55232871e-02 -6.58187643e-02 -3.32028449e-01 +9.82497036e-02 -6.10116310e-02 -2.32289475e-03 -5.82965352e-02 -2.30538458e-01 -3.74510616e-01 +7.15745538e-02 +1.53131681e-02 -1.34980649e-01 -2.16988176e-02 +2.84354240e-01 -2.56631579e-02 -1.16102193e-02 -8.79453346e-02 -1.67742502e-02 +4.63220738e-02 -7.89942667e-02 -2.16796458e-01 -6.15895949e-02 -2.81731747e-02 -8.68175998e-02 +5.56712866e-01 +5.32899052e-02 +2.07594976e-01 +3.51824284e-01 -7.01042637e-02 -9.10361633e-02 +3.32027853e-01 -2.90220492e-02 +3.20564628e-01 -4.09829468e-02 -1.26294211e-01 -5.17216735e-02 +6.72035217e-02 +7.39361569e-02 -5.97102940e-02 +8.92105624e-02 +6.33008108e-02 -3.27182077e-02 -3.39734703e-02 -7.34673366e-02 +2.98492342e-01 +2.28180826e-01 -5.67968786e-02 +2.28987321e-01 -9.70887467e-02 -1.59579307e-01 +1.69310030e-02 -8.81637782e-02 +7.94320256e-02 -2.20414609e-01 +4.82823551e-01 +6.96647540e-02 +6.56503020e-03 +4.63982522e-02 +8.48077163e-02 -5.99045344e-02 -6.17972761e-02 +8.05241168e-02 -8.42142329e-02 +5.83839491e-02 -3.91231701e-02 -1.97816625e-01 +1.70204751e-02 -1.98164806e-02 +2.76891202e-01 +6.65061548e-02 -3.05883437e-01 +7.79980496e-02 +1.39849586e-02 +3.62037830e-02 +1.90553188e-01 +3.67379449e-02 -5.58937117e-02 -6.12051832e-03 -2.97747552e-02 -5.24238408e-01 -1.00127496e-01 +2.92883575e-01 +2.31952205e-01 +9.65168606e-03 +2.01383736e-02 +3.17458421e-01 -9.90465432e-02 -6.05444238e-02 -1.04221620e-01 -1.07573248e-01 +1.25764921e-01 +4.38182848e-03 +2.62247548e-02 +2.26958320e-02 -4.86329794e-02 +1.87866371e-02 +5.74060455e-02 -3.09395883e-02 +8.28422722e-04 -4.87855934e-02 +6.16860017e-02 -6.00250587e-02 -6.31021860e-04 -6.88751577e-04 +7.20766559e-02 +3.23488079e-02 +2.57610325e-02 -9.47980210e-02 +5.69188669e-02 -2.79391017e-02 -5.22678979e-02 -7.00589567e-02 -1.32257998e-01 -1.03985228e-01 -1.61626469e-02 +3.46113712e-01 -1.70895278e-01 -2.20375811e-03 -3.30341280e-01 +2.64332555e-02 -2.96925530e-02 -1.94121450e-01 -7.00946618e-03 -1.44481212e-01 +4.28195391e-03 +6.14162207e-01 -5.71924001e-02 -8.26488528e-03 +7.15688542e-02 -1.93466514e-01 -1.25799000e-01 +3.87995727e-02 -1.35168627e-01 -7.75680616e-02 +4.98466939e-02 -5.97140789e-02 -3.56858820e-02 +1.95437625e-01 +1.36000002e-02 +9.83557701e-02 -9.01565775e-02 +2.86400020e-02 +9.49575081e-02 +4.22827542e-01 +6.66283071e-02 +2.30765715e-02 +8.97711739e-02 +9.00368989e-02 -9.71647128e-02 -6.08398616e-01 +6.85945451e-02 -3.82075347e-02 +6.01406246e-02 +2.14281574e-01 -1.29770534e-02 +1.08372055e-01 +8.74085650e-02 +8.75486732e-02 +3.56652915e-01 -3.20652314e-02 +9.33091268e-02 -1.03219740e-01 -3.68087068e-02 +4.08523418e-02 -3.66946124e-02 -8.81304741e-02 -1.05021529e-01 -6.01735532e-01 -3.03963929e-01 +8.63661803e-03 +5.86885251e-02 +2.83001419e-02 -9.48322378e-03 -5.29557429e-02 +2.98261140e-02 +6.73996359e-02 +1.91862941e-01 +1.23683594e-01 -3.56805921e-02 +7.25898966e-02 -5.16784862e-02 +4.68213968e-02 -3.41636926e-01 -5.03067998e-03 -4.99796197e-02 -3.77793908e-02 -3.55050415e-01 +2.89307199e-02 -5.63514698e-03 +9.77178589e-02 -1.87999994e-01 +2.09593922e-01 +1.14648148e-01 -1.11588188e-01 +1.14157582e-02 -6.25106022e-02 +6.90696687e-02 -2.04186305e-01 -4.56983820e-02 +2.49941684e-02 +5.46694547e-02 -9.63145643e-02 +1.50274992e-01 -9.18056592e-02 -7.40568936e-02 -6.98064864e-02 +6.05199933e-02 -7.60798482e-03 -1.55678898e-01 -3.80660817e-02 -4.06569317e-02 -1.05764933e-01 +1.93268433e-01 +1.57922164e-01 +6.05028346e-02 +4.03453968e-03 -1.46615729e-01 -1.33067191e-01 -3.33309988e-03 -1.12564959e-01 +1.34597376e-01 -7.62378126e-02 +6.43218905e-02 -2.58209202e-02 -5.21068811e-01 +2.07465678e-01 +2.01929733e-01 +4.87867184e-02 +4.96504530e-02 -9.16488841e-02 +3.21539640e-02 +4.10402380e-02 +1.59108311e-01 -1.21284582e-01 -8.31570551e-02 +1.76750243e-01 -9.13727731e-02 +1.53166419e-02 -7.67490268e-02 -2.34367102e-02 -7.67396539e-02 -9.38928351e-02 -2.55610831e-02 -2.96463055e-04 +1.46423057e-01 -1.57030791e-01 -1.16194822e-01 +4.11403507e-01 +6.14750460e-02 -1.16384283e-01 -6.56518620e-03 +1.56073319e-02 +2.61443499e-02 +2.95544453e-02 -2.75765479e-01 -1.17639616e-01 -6.62182644e-02 -2.07009614e-02 +8.59818310e-02 +2.07988527e-02 -9.79237109e-02 -5.02138510e-02 -6.62632361e-02 +6.79442436e-02 +4.32456955e-02 +5.37309170e-01 -2.24848725e-02 +7.93278664e-02 +1.96963057e-01 -8.34129602e-02 +6.14853799e-02 -1.01482332e-01 -8.43667760e-02 -7.42825493e-02 -6.64990485e-01 -6.60109222e-02 +3.31922658e-02 -4.56481986e-03 -8.08708929e-03 -4.41472262e-01 -7.53152370e-02 +4.49719369e-01 -6.84385523e-02 +2.85795219e-02 -9.62840579e-03 +5.04774339e-02 +3.68569754e-02 -5.66702224e-02 +3.01655997e-02 -8.02574232e-02 -2.29736008e-02 +5.26145622e-02 -1.80292444e-03 -7.01159984e-02 +7.72568062e-02 -1.17093302e-01 +4.62608635e-02 -9.26098078e-02 -1.08521737e-01 +8.28464255e-02 +6.96529681e-03 -6.69964626e-02 +5.43754585e-02 -9.12280604e-02 -8.51366520e-02 +2.49696821e-02 -7.82258138e-02 -5.48719876e-02 +2.43560299e-02 -7.48928010e-01 -8.63198414e-02 +1.90810904e-01 +9.04971883e-02 -8.39606151e-02 -1.22572206e-01 -1.71570033e-01 -5.97675666e-02 -9.80486348e-02 +1.30048767e-01 -6.68837652e-02 -1.27117783e-02 +3.05251312e-02 -1.08938485e-01 -3.01777214e-01 -9.04270113e-02 -6.04670718e-02 -9.83975083e-02 -1.15068182e-02 +2.12770104e-02 -4.58059795e-02 +5.55184819e-02 -2.70288326e-02 +8.68727639e-02 -1.05979942e-01 -9.01130885e-02 -2.19116863e-02 +5.02667986e-02 -1.49809076e-02 +7.91080445e-02 -4.64559257e-01 +1.55648822e-02 -8.40974897e-02 -4.82751839e-02 +2.06651539e-01 +5.17522916e-02 -1.18881196e-01 -2.31481582e-01 -6.45650700e-02 +4.79350127e-02 -1.34578502e+00 -2.89260224e-02 +5.19300960e-02 +1.57130994e-02 +9.41159800e-02 +4.32132557e-02 +2.21087962e-01 -1.41760297e-02 -6.85382485e-02 -2.37485230e-01 +9.83042084e-03 +3.61807682e-02 +2.76374668e-01 -5.47960997e-01 -6.96050599e-02 +7.95191303e-02 -7.45338760e-03 +4.45193052e-03 +6.38056621e-02 -2.07825407e-01 -7.67479166e-02 +8.38927850e-02 +8.57533365e-02 -1.36268228e-01 +2.95760185e-02 +6.89554438e-02 -1.06986791e-01 -1.64856091e-01 +1.15431853e-01 +2.40045357e-02 +4.72092517e-02 -9.55353677e-02 +6.13384359e-02 -1.24203645e-01 -4.44673412e-02 -1.61397941e-02 -2.67883902e-03 -5.55133298e-02 +2.78563768e-01 -9.78245493e-03 -8.14570859e-02 -7.84960538e-02 -4.06163484e-01 -6.34709448e-02 +5.42350598e-02 -1.12434462e-01 +4.00929712e-02 +7.37164961e-03 -1.14556067e-01 +9.68760159e-03 +5.94464540e-02 -1.10284008e-01 +4.12538229e-03 -1.28113404e-01 +2.58952696e-02 -9.64105278e-02 +5.43572986e-03 -1.02721497e-01 +3.96608710e-02 -5.47913238e-02 +1.22664114e-02 +6.48169443e-02 +6.11664774e-03 -2.20545724e-01 -7.01877058e-01 -1.09561533e-02 +5.11060394e-02 -5.96391363e-03 -9.89233851e-02 +3.93349491e-02 -2.52239276e-02 -2.56270409e-01 +8.63544941e-02 +1.59537829e-02 -9.25334021e-02 -1.57893673e-01 -5.17781377e-01 -6.31500185e-01 +6.24937415e-02 +5.80193615e-03 +9.93415043e-02 -2.63497353e-01 +1.18677638e-01 +5.73968776e-02 -2.01502755e-01 -6.99365661e-02 -2.48160452e-01 +1.27930650e-02 +9.78145152e-02 -4.01651580e-03 +3.06032509e-01 -1.78014778e-03 +9.78720486e-02 +6.36789873e-02 +1.00910701e-01 -2.81263143e-01 -4.04860824e-01 +3.42314355e-02 +1.65964377e+00 +2.64740102e-02 -8.73221979e-02 -6.64732307e-02 -8.69752392e-02 +7.24626631e-02 -1.75843909e-01 -9.82041657e-02 +1.20491087e-01 +4.17733528e-02 -8.03044066e-02 +3.99630368e-02 -1.13117523e-01 +9.28741917e-02 -2.20205765e-02 +3.23135071e-02 +6.32905122e-03 -7.33103305e-02 +2.47381255e-01 +6.50803186e-03 -2.41996013e-02 -5.03055193e-02 -2.71258298e-02 -4.73422915e-01 -2.86997408e-02 +7.68559426e-02 -1.23332553e-01 -4.65763092e-01 +3.94524522e-02 -8.83124471e-02 -9.96093601e-02 -1.73617631e-01 -2.39572853e-01 -1.51668727e-01 +2.46910870e-01 +1.16756558e-01 +8.40121433e-02 -5.34246415e-02 -3.42094094e-01 -2.94253211e-02 +5.56258671e-03 -5.78385219e-02 -1.71810109e-02 +3.22076231e-02 -1.03355370e-01 +7.16252774e-02 -6.38307557e-02 -6.04235334e-03 -4.31587659e-02 +8.00331756e-02 -1.51891723e-01 -4.57814820e-02 +4.82561626e-02 +1.88237652e-02 +2.09084428e-05 -4.13095295e-01 -3.18013765e-02 +7.48382658e-02 +1.66441947e-02 -6.41339123e-02 +5.19336909e-02 -4.52130809e-02 +6.04612827e-01 -3.53511035e-01 -2.18651116e-01 -4.01421517e-01 +8.81223008e-02 -5.30157201e-02 -3.24958056e-01 -2.84320951e-01 -9.45560485e-02 -3.78156990e-01 -2.45090090e-02 -1.65396005e-01 -2.86115825e-01 +2.26883348e-02 +2.74687670e-02 -3.66789289e-02 +3.73073816e-02 -5.02398536e-02 +9.83141512e-02 -5.41128181e-02 +1.73415124e+00 -2.41453007e-01 -3.17838266e-02 -1.85990334e-01 -1.43201217e-01 -1.78398248e-02 -9.90717784e-02 -7.77956545e-02 -2.63432920e-01 -1.01068541e-01 -4.72214043e-01 -2.63033975e-02 -4.11632173e-02 -3.16804916e-01 -3.11131388e-01 -1.62393246e-02 -1.62329469e-02 -3.40689719e-02 +3.37537914e-03 +1.42930020e-02 +1.51536256e-01 -6.01105727e-02 -7.30782514e-03 +1.09461285e-02 +4.38340195e-02 -1.04081266e-01 -3.29058498e-01 +6.79365098e-02 +9.26726684e-02 +2.19103266e-02 -5.49595132e-02 +5.77072427e-02 -5.19497931e-01 +3.70764160e+00 -2.90165190e-02 -2.21796390e-02 +5.30224219e-02 -1.61998030e-02 -4.83188093e-01 +5.16697288e-01 +8.65694210e-02 -8.67619962e-02 -7.79884309e-02 -1.29528940e-02 -3.97836640e-02 +1.18712768e-01 +3.12866531e-02 -1.85208574e-01 -1.43640637e-01 +4.91622090e-02 +9.35082976e-03 +3.03426534e-02 +5.02298810e-02 -2.85866737e-01 -7.58086611e-03 -6.66924194e-02 -1.03659637e-01 -5.85668564e-01 -1.33163676e-01 +1.16201587e-01 -7.14995712e-02 +5.44851013e-02 -5.26440263e-01 -3.67088094e-02 -3.28438938e-01 +7.47069493e-02 +8.03865120e-02 -6.08894378e-02 +1.50076762e-01 +2.61087939e-02 +7.15385824e-02 -1.32006826e-03 -7.55674541e-02 -3.83605152e-01 +9.45701450e-02 +5.74406870e-02 -5.75473905e-02 -4.58521545e-02 -1.45909324e-01 -3.63615334e-01 +7.18020350e-02 -1.31329298e-01 +3.60407420e-02 -1.11036219e-01 +2.21080288e-01 +2.89062597e-02 +2.43299808e-02 +1.82084143e-02 -2.42341757e-02 +2.58038882e-02 +8.15637261e-02 -2.19239831e-01 +9.38051417e-02 +9.01331455e-02 +3.00419168e-03 +3.94047350e-01 -7.38159046e-02 -2.21440852e-01 +5.44137657e-02 +3.98586178e-03 -8.96273628e-02 +1.06563818e+00 -1.83840282e-02 +6.27514422e-02 +1.21886373e-01 +1.45428870e-02 -4.35911208e-01 -8.31649527e-02 -4.93922122e-02 -2.15017237e-02 -1.27483040e-01 +9.95869935e-03 +5.56190014e-02 -4.75452952e-02 +9.49262530e-02 -6.61008209e-02 -8.76668766e-02 +3.79291661e-02 -5.95354885e-02 -2.96104282e-01 -7.15669692e-02 -5.89612015e-02 -8.78398120e-02 +7.93205500e-02 +7.65193254e-02 +1.37564862e+00 -1.35443103e-03 -4.55526002e-02 +9.06708241e-02 +7.39064515e-02 +1.23620167e-01 -7.79662579e-02 +5.08694425e-02 +1.06719285e-01 -6.58683404e-02 -3.91617566e-02 -4.29305062e-02 