#Parameter# /_0 {200,342} 1094401 ZERO_GRAD
+2.57982820e-01 +1.28539994e-01 -9.47110578e-02 +7.95572922e-02 +3.11128367e-02 -2.16145888e-01 -2.57962965e-03 +3.91943753e-02 -1.60569116e-01 +3.68029736e-02 +8.32485314e-03 -5.94591424e-02 +1.14144929e-01 -1.93341332e-03 -5.13645895e-02 -4.07849737e-02 +1.24593049e-01 +1.44332051e-01 +5.45615889e-03 +1.03289530e-01 -1.04631014e-01 +8.64152759e-02 +3.18049267e-02 -7.47607723e-02 -7.61907622e-02 +8.81643407e-03 +1.37322754e-01 +1.68492153e-01 +2.02511013e-01 +1.66655201e-02 -1.50701860e-02 -4.92890090e-01 +1.12693742e-01 +1.02798462e-01 -8.11186656e-02 +6.90086633e-02 -1.08860917e-01 +5.70085198e-02 -2.17851866e-02 +6.19505495e-02 -5.86526394e-02 +5.20128757e-03 +1.23231441e-01 +4.48379889e-02 +4.26047705e-02 -2.54848469e-02 -1.17546089e-01 -3.00343540e-02 -1.21926134e-02 -1.16545292e-04 +1.52739868e-01 -6.85645491e-02 -7.65766725e-02 +1.96918607e-01 +1.01002626e-01 -4.25762497e-02 +5.12809493e-03 +1.18007861e-01 +1.51500925e-01 +1.41786840e-02 -5.84733374e-02 -1.13838175e-02 -3.58222611e-02 +1.21086098e-01 +1.43747665e-02 -4.84279506e-02 +5.87502494e-03 +1.88400865e-01 +9.65684801e-02 -1.48198046e-02 -1.10795617e-01 +4.22280282e-02 +8.33819062e-02 +5.95751628e-02 -4.88404259e-02 +9.37243458e-03 +9.76021439e-02 +2.42603142e-02 +1.01140868e-02 -5.19439997e-03 +9.55118146e-03 -6.23025037e-02 -7.97971487e-02 -4.27041389e-03 -1.15115186e-02 -3.03201918e-02 +2.20782280e-01 +2.50209589e-03 +1.14974216e-01 -3.48664001e-02 +3.59628089e-02 -1.41878262e-01 +3.54001038e-02 +2.16720790e-01 -9.79008377e-02 +1.38665080e-01 +9.03814360e-02 -4.04226333e-02 +7.22894073e-02 +2.44010568e-01 +2.39505880e-02 +8.73331577e-02 -3.60118635e-02 +5.73373772e-03 -2.07951665e-02 +8.51972774e-02 -1.47839844e-01 +7.69799650e-02 +1.61152780e-02 -1.49019854e-02 -1.38905272e-01 +8.34117979e-02 +4.53825714e-03 +4.16861214e-02 +8.73619467e-02 -1.98672675e-02 +4.44705859e-02 +2.44446486e-01 -7.81726986e-02 +5.99587522e-02 -4.78912443e-02 +5.00785559e-03 -4.00948115e-02 +5.34302928e-02 +8.55284277e-03 -2.98567507e-02 +7.04324245e-02 -3.99900787e-02 +1.80743620e-01 +2.89644320e-02 +1.10451490e-01 +2.24030353e-02 -5.81550524e-02 -7.02380240e-02 -1.01299342e-02 +3.31688553e-01 -8.74461979e-02 +1.49080697e-02 +1.42084926e-01 -1.15169354e-01 +9.46786180e-02 -5.32648899e-02 +1.17216200e-01 -1.08870424e-01 +1.45740226e-01 +1.37796313e-01 +1.41721144e-01 +7.69653916e-02 +1.57178819e-01 -3.97858657e-02 +1.40206218e-01 -1.12232892e-02 +8.52005705e-02 +6.41078800e-02 +1.55888677e-01 -4.85763652e-03 +9.91444513e-02 -2.37222365e-03 -1.02517970e-01 +5.01691662e-02 +1.49897054e-01 -1.29147679e-01 -1.95747968e-02 +2.54697710e-01 -4.09432650e-02 +4.38037105e-02 +5.35413399e-02 +1.45376667e-01 -2.90396810e-02 +1.44396722e-01 -8.49533007e-02 -3.85888964e-02 +1.96223855e-01 +7.13248923e-02 +8.13981369e-02 +9.95624159e-03 -8.47359002e-02 -6.24257661e-02 +1.85711518e-01 -9.18092504e-02 +5.11747748e-02 +9.28965434e-02 -6.34007622e-03 +3.38135585e-02 -4.47351001e-02 +2.99591068e-02 -2.12229807e-02 +2.46481374e-02 +2.70571917e-01 -2.70060599e-02 +6.52074143e-02 +5.17321900e-02 +1.58242825e-02 +5.80455884e-02 +1.81467563e-01 -2.15135023e-01 +1.16832763e-01 +9.97456238e-02 +1.19711161e-01 +9.56367850e-02 -1.07278481e-01 -1.48695707e-01 -5.69082201e-02 -4.41593975e-02 -1.95050508e-01 -9.39838827e-01 +9.45776328e-02 -9.48197916e-02 -4.30821776e-01 +2.80059827e-03 +5.15660308e-02 +6.40703179e-03 -2.49580462e-02 -1.05614021e-01 +5.49312867e-02 +1.28111746e-02 +3.45280282e-02 -1.42284214e-01 +1.54664814e-02 +5.76411784e-02 -8.76999460e-03 -1.03664793e-01 +5.29619977e-02 +7.01808184e-02 +1.06834888e-03 -1.16216972e-01 -8.13664403e-03 -8.06954429e-02 -1.86530817e-02 +5.82190640e-02 -8.69642869e-02 +6.24720417e-02 -8.57952889e-03 -4.60252650e-02 +3.71833406e-02 +7.05290437e-02 +1.38283551e-01 +2.14351639e-02 -7.70182908e-02 +6.37161732e-02 -5.24164177e-02 +5.65981939e-02 -4.69613820e-02 +1.10819913e-03 +1.61413968e-01 -6.54747188e-02 -3.75651978e-02 +8.55689347e-02 -1.02049023e-01 -3.54591906e-02 -5.20950705e-02 -6.59245551e-02 +4.56325663e-03 +9.88982618e-02 -1.27011806e-01 +1.68326914e-01 -4.26769294e-02 +3.66014838e-02 -2.50100549e-02 -3.64295393e-02 +1.38393156e-02 +8.96864161e-02 +4.29723673e-02 -2.62312740e-01 +7.00298399e-02 -1.06944293e-01 -3.48199606e-02 -1.51676372e-01 +6.59895241e-02 -9.30791944e-02 -1.22724104e+00 +9.47931260e-02 -9.40308720e-02 -7.55342394e-02 +9.29427519e-03 +6.11125939e-02 +7.87010863e-02 +6.29551560e-02 -1.86546668e-02 +5.65155111e-02 -5.47377653e-02 -9.89564881e-02 -5.35937883e-02 +3.47491540e-02 -6.06037118e-02 +1.81569811e-02 +6.81807846e-02 +5.92144094e-02 -5.16874082e-02 -1.84567347e-01 -2.17287213e-01 +1.32963702e-01 +4.31369394e-02 -3.01617205e-01 +2.44083747e-01 -2.08252102e-01 -1.93259139e-02 -2.58267615e-02 +2.85640433e-02 -1.66911870e-01 -5.38671985e-02 +1.87779844e-01 +1.63749736e-02 +6.91371188e-02 -1.53923368e+00 -8.45936686e-02 -2.05234432e+00 -2.74046883e-03 +1.31100997e-01 -3.27040069e-02 +1.03045009e-01 +6.62600175e-02 +1.72280878e-01 +1.00005999e-01 +7.41807744e-02 -7.67076984e-02 +1.32972477e-02 -2.46492284e-03 +6.77209422e-02 +2.13977024e-01 +9.50867385e-02 +1.59296449e-02 +1.40497340e-02 -3.12235337e-02 +2.42529914e-01 -7.75225908e-02 -4.19269055e-02 +3.20382714e-02 +1.66677423e-02 +1.57364756e-01 +3.72024588e-02 -9.01838467e-02 -3.39736007e-02 +1.88087255e-01 -7.11148605e-02 +1.82094090e-02 +3.30327824e-02 +1.19970836e-01 +8.49080607e-02 +1.65799230e-01 +1.34673655e-01 -1.33379370e-01 -1.76639095e-01 +5.14907613e-02 +6.52657300e-02 +2.48367935e-02 -4.79730994e-01 +1.09930068e-01 -1.19372495e-02 +6.27653301e-02 -9.15989503e-02 -2.76931413e-02 +4.82933596e-02 +9.58332196e-02 -1.34119317e-01 +2.58008912e-02 +1.45026026e-02 -1.00475177e-01 -3.11178637e+00 +5.66238835e-02 -1.20079601e+00 +1.28967613e-01 +1.38136186e-02 -2.18232661e-01 +1.53885514e-01 +1.00149356e-01 +8.01888332e-02 -6.83650196e-01 +4.87851165e-03 +1.25595614e-01 -1.70772411e-02 -7.74462894e-02 -3.07295402e-03 -4.76979390e-02 -2.67465692e-02 +1.36135548e-01 -8.50167871e-02 +2.30445378e-02 -1.89869508e-01 +8.31028074e-02 +4.18666517e-03 -8.32986906e-02 +3.14821526e-02 -3.43835801e-02 +8.69265795e-02 +7.19705317e-03 -1.61523923e-01 -4.65825014e-02 -1.86912164e-01 -1.64487764e-01 +9.96116623e-02 +4.18597199e-02 -7.30178803e-02 +2.87274346e-02 -6.87666936e-03 -9.30956304e-02 -6.20431565e-02 -1.34025395e-01 -2.96667241e-03 +4.22088914e-02 -1.54762149e-01 -7.05276653e-02 -4.08706032e-02 -4.33704592e-02 -5.81616163e-02 -2.10213110e-01 -1.01146258e-01 -6.66752085e-02 -1.03886999e-01 -9.75360498e-02 -8.18176344e-02 -2.23445028e-01 -5.40004782e-02 -7.91548565e-02 -5.82435243e-02 +7.17551261e-02 +4.08323556e-02 +3.22470129e-01 -1.24618866e-01 -7.83446990e-03 +4.54672351e-02 -1.51926400e-02 -8.94242004e-02 -5.44229560e-02 -3.79838645e-02 -4.53942120e-02 -5.45831099e-02 -2.50872731e-01 -1.73768014e-01 +4.59012464e-02 -7.01723173e-02 +1.56510162e+00 -1.31342873e-01 +3.83049212e-02 +9.14269239e-02 +1.74356523e-04 -1.38671815e-01 -2.29371190e-02 +5.75951450e-02 -4.48348559e-02 +8.06339085e-02 +8.75776261e-02 -4.22559865e-02 -1.22766502e-01 -1.26456380e-01 +3.09478957e-02 +4.20681499e-02 -6.66275173e-02 +7.08473772e-02 +4.62959446e-02 -1.74175128e-01 -7.50191286e-02 -2.12952141e-02 +6.65835217e-02 -1.13768272e-01 -2.00687811e-01 -1.65562943e-01 -4.52352427e-02 -8.85528848e-02 +6.00240752e-02 +6.29256666e-02 -1.02213636e-01 +5.73279373e-02 +1.41013458e-01 +9.52959731e-02 +9.01623666e-02 +1.58380009e-02 -1.68193072e-01 -8.07156488e-02 +7.81568959e-02 +5.27211666e-01 -8.55552498e-03 +8.71635079e-02 +4.22304496e-02 -1.17997773e-01 +1.14863999e-02 +2.03590970e-02 -7.42810145e-02 +6.50425032e-02 +6.91104010e-02 -6.09264337e-02 +8.68662074e-02 +7.30312467e-02 -8.49647522e-02 -6.54895902e-02 -8.11728984e-02 -1.61448382e-02 -9.01807323e-02 +2.33337823e-02 -9.17553753e-02 -1.34360284e-01 -1.32403910e-01 -2.36474723e-01 +1.17187060e-01 -8.86009187e-02 -2.28489339e-01 +1.52640091e-02 +5.18757254e-02 -1.35908216e-01 +7.52102137e-02 +7.08168298e-02 -1.35541543e-01 -1.38179902e-02 -8.92600343e-02 +1.66479141e-01 -1.31568581e-01 -1.23744123e-01 -7.14853480e-02 -2.27646716e-02 -1.19997330e-01 -2.06005543e-01 -1.37371659e-01 -5.57544082e-02 -4.98379953e-02 +1.04737051e-01 -1.84384675e-03 -3.41086835e-02 -4.81898114e-02 -8.57146680e-02 -1.71877928e-02 +2.57034432e-02 -1.03065670e-02 +9.90151837e-02 -4.07121517e-02 -1.89540625e-01 -2.36305878e-01 +1.06321648e-01 -1.42176330e-01 +3.89164733e-03 -1.20536357e-01 -1.19479768e-01 -1.05200939e-01 -1.41645819e-02 -1.82029843e-01 +3.46845984e-02 -1.65611237e-01 -3.08189820e-02 +3.35430056e-02 -2.53296405e-01 -1.18197620e-01 -6.14140071e-02 -5.22512533e-02 -1.01007223e-01 +5.09178415e-02 -1.57835200e-01 +3.45378816e-02 +4.94542830e-02 -7.04284832e-02 -1.35459736e-01 -2.78285556e-02 -2.06757709e-02 -1.43093258e-01 -1.46108821e-01 +8.40375870e-02 -2.36480571e-02 -5.05580381e-02 -1.03828020e-01 +1.32291643e-02 +6.34837523e-02 -8.89282003e-02 -1.05341457e-01 -1.91130489e-01 -2.22970635e-01 -1.16477333e-01 -1.37144580e-01 -1.97501495e-01 -5.06128892e-02 +1.94659814e-01 +5.10722809e-02 -2.11056516e-01 +1.61740612e-02 -1.61982123e-02 +2.68567979e-01 -7.98793957e-02 -6.34379685e-02 -9.49387327e-02 +9.79116559e-02 -1.80983078e-02 -1.68985069e-01 -5.54725789e-02 -7.83583373e-02 +3.15869525e-02 -4.34820615e-02 -2.54003759e-02 -2.42908224e-02 -1.37175828e-01 -4.74423096e-02 -3.60576287e-02 +9.05407127e-03 -1.71025604e-01 -6.27903864e-02 -1.26501396e-01 -2.07388047e-02 -1.34892985e-01 -9.44389552e-02 -3.65395546e-02 -1.27836347e-01 -7.51665533e-02 -1.37168333e-01 +7.48833194e-02 +2.46413976e-01 +1.35752425e-01 +7.35894293e-02 +6.48120791e-02 +1.89571679e-01 -2.26154789e-01 +5.83735406e-02 +7.78096095e-02 -2.75331080e-01 +8.03815108e-03 +4.16312814e-02 -8.65323097e-02 +1.44963935e-01 -7.08186403e-02 -2.83220988e-02 +4.27508280e-02 +9.88205969e-02 +1.16393991e-01 +7.32652918e-02 +4.40738313e-02 +2.83379015e-02 +4.73422296e-02 -5.01731895e-02 +5.05138151e-02 +2.71486714e-02 -2.21692249e-02 +1.22569345e-01 +1.76619440e-01 +4.21551988e-03 +3.16472887e-03 +8.28822851e-02 -4.18372780e-01 +4.77895848e-02 -2.92753205e-02 +1.22532481e-02 +1.86271425e-02 -6.70963079e-02 -3.34635265e-02 +9.89809185e-02 -9.08559561e-02 +4.92883399e-02 -5.84626310e-02 +5.76162226e-02 +1.01830505e-01 +1.49120262e-03 +2.36824676e-02 +4.86230617e-03 -7.83959497e-03 +1.80254225e-02 -7.42290914e-02 +2.14666396e-01 -8.09147581e-02 -2.96042743e-03 +1.32472128e-01 +1.11303672e-01 -3.26449685e-02 +5.38288467e-02 +1.08051307e-01 +9.14809629e-02 +2.06318796e-02 +8.00373629e-02 +5.89771904e-02 -3.50137688e-02 +1.77799359e-01 +4.37933169e-02 +7.67319128e-02 -1.92670226e-02 +1.98263928e-01 -1.00880250e-01 -3.06091122e-02 -1.51567861e-01 +1.76412210e-01 -3.70578608e-04 -6.50787428e-02 +1.04926087e-01 -5.42127490e-02 +1.52592286e-02 +4.40549329e-02 +2.57234853e-02 -3.34881879e-02 -7.16262683e-02 +7.14071617e-02 -6.59947321e-02 +6.31645769e-02 -6.71640038e-02 +7.54024684e-02 +4.11625020e-02 +1.09771900e-01 +2.46724263e-01 -1.64880276e-01 +1.55918360e-01 -8.07874203e-02 -9.83886272e-02 +2.67399013e-01 -3.05974595e-02 +1.87656954e-01 +1.14735097e-01 -4.03058119e-02 -4.44430783e-02 +1.64431676e-01 -6.00347370e-02 -2.75292993e-02 -2.50714701e-02 +3.70951071e-02 +3.42555903e-02 +1.70339120e-03 -6.00942634e-02 +1.39107436e-01 -7.70368129e-02 -5.38351834e-02 -2.67450005e-01 +5.94914071e-02 -4.41331826e-02 +1.06124379e-01 +8.35763291e-03 +8.51012319e-02 +8.53838176e-02 +2.40370661e-01 +3.70455086e-02 -1.35635007e-02 +4.37755659e-02 +1.00134574e-01 +3.27239335e-02 +1.75876528e-01 -1.61099359e-02 +5.18669486e-02 +1.08074415e-02 -1.63478032e-02 +1.14387006e-01 +8.58104527e-02 +1.63479179e-01 -2.00891271e-02 -9.25043076e-02 -7.68557787e-02 -9.51371808e-03 +3.33819300e-01 +8.81315693e-02 +8.73939469e-02 -8.25579930e-03 -9.58522707e-02 +1.85459424e-02 +7.13131353e-02 +6.03824779e-02 -6.62731826e-02 -5.07503934e-02 +1.76947564e-01 +1.46587789e-01 +7.05422387e-02 +1.21537380e-01 +1.16496840e-02 +5.10341711e-02 -3.72194760e-02 +4.36367728e-02 -4.06918526e-02 +1.23170465e-01 +1.23536982e-01 -1.94638036e-02 +2.25187372e-02 -8.20074677e-02 +6.59334660e-02 +8.62337574e-02 -1.37976199e-01 -8.01248662e-03 +1.65082350e-01 +3.48352455e-02 -4.42712829e-02 +6.32364079e-02 +1.69837251e-01 -7.18757510e-02 +2.88868397e-01 +4.31649238e-02 -8.51244628e-02 +8.01685229e-02 +8.63439739e-02 +8.60676691e-02 -1.64858978e-02 +3.23599242e-02 -1.22259418e-02 +1.38544142e-01 -3.17698717e-02 -4.86276746e-02 -2.50677262e-02 -1.05723694e-01 -1.03214733e-01 -2.43101455e-02 +2.51732301e-02 -3.81010547e-02 -1.00747518e-01 +1.17684446e-01 +6.25226647e-03 +1.89725116e-01 +1.45310694e-02 -1.23992451e-02 +1.72823027e-01 +1.42383948e-01 -1.55208766e-01 +1.02479663e-02 -2.99310172e-03 +4.79334034e-02 -5.38613424e-02 -1.76501855e-01 -2.71723196e-02 +8.48019943e-02 +9.28689241e-02 -1.71620890e-01 -2.69395232e-01 -1.29197035e-02 +1.06183633e-01 -2.04718366e-01 +3.55335372e-03 -1.92125933e-03 -1.11588895e-01 +1.67609990e-01 -8.51721540e-02 +6.57547712e-02 +1.38280522e-02 -6.28234148e-02 +8.43095854e-02 -2.91259915e-01 +5.05052414e-03 -5.27658835e-02 +1.06746942e-01 -1.31200492e-01 -9.18673873e-02 +7.86568150e-02 +8.45591649e-02 -1.36938304e-01 -1.58512339e-01 -2.40269393e-01 -6.43459186e-02 +9.11094695e-02 +2.42340267e-01 +1.00413084e-01 -3.38662714e-02 -3.93662564e-02 -2.92894002e-02 +1.49815395e-01 +8.29538181e-02 +5.61908707e-02 +3.51947471e-02 +3.74538228e-02 -8.75700340e-02 -3.45083550e-02 +9.70900245e-03 +1.15638837e-01 -5.07700779e-02 +6.24635816e-02 +7.55279958e-02 -8.71193334e-02 -3.90293002e-02 -1.37205452e-01 -1.30706932e-02 +1.16795637e-01 -1.43601457e-02 -1.07396655e-01 +1.69191752e-02 -1.04796804e-01 +3.86618599e-02 +1.15341045e-01 -4.76117805e-02 +5.26488163e-02 -2.48382296e-02 +5.51906936e-02 +6.60628453e-02 +2.29195394e-02 +6.21153712e-02 +1.51960421e-02 -2.70808667e-01 +9.28672850e-02 -6.50450820e-03 -5.52671105e-02 -3.74027304e-02 -5.28985672e-02 -6.29478097e-02 -3.48054022e-02 -9.57230553e-02 +3.77568416e-02 +1.08090468e-01 -8.83070976e-02 -5.67895509e-02 +7.64996335e-02 +7.53367469e-02 -7.10352883e-02 +1.82294510e-02 +2.58604214e-02 -1.77746758e-01 -1.29335254e-01 -7.48123005e-02 -1.77242626e-02 -1.26717359e-01 -2.01921910e-01 -7.70526752e-02 -2.65799224e-01 -9.45925787e-02 -1.91378191e-01 -4.09374088e-01 -2.47288719e-02 +1.06466420e-01 -8.99896547e-02 -1.51871204e-01 -9.30391997e-02 +7.29911029e-02 +9.97912604e-03 +9.28332880e-02 -1.25108808e-01 -6.19155914e-02 -2.68885165e-01 +3.27522983e-03 +1.21134259e-01 -1.75643265e-01 -7.30729774e-02 +8.01928937e-02 -7.31492415e-02 +1.85892787e-02 -3.91624980e-02 -1.24907464e-01 +9.84542668e-02 -5.35116605e-02 +7.97879621e-02 +1.18609227e-01 -6.95204809e-02 -8.32508877e-02 +2.86983363e-02 +6.59343228e-02 +8.35654978e-03 -1.14765786e-01 +6.43439144e-02 +3.26233245e-02 +5.93835451e-02 +5.14999405e-02 -1.47374243e-01 +1.09387115e-01 +1.69048104e-02 -7.99395368e-02 +1.38094462e-02 -2.17050672e-01 +6.62717363e-03 +8.22855607e-02 -8.55242237e-02 +3.92959751e-02 -1.12627700e-01 -2.27282748e-01 -1.82912022e-01 +1.84062007e-03 -1.37067452e-01 -5.55061735e-02 -8.46956521e-02 -9.14880708e-02 -1.14539802e-01 +3.84552591e-02 +8.14039633e-02 +1.11752048e-01 -8.03239495e-02 -2.02402994e-02 -1.20632857e-01 -2.34105084e-02 -1.76630132e-02 -8.63335133e-02 -1.03757128e-01 +6.17282800e-02 -3.30474406e-01 -5.08689471e-02 -5.68257459e-02 -1.58864141e-01 +1.16583943e-01 +1.87708884e-01 +4.53224294e-02 -3.81440446e-02 -6.85541034e-02 -1.58120424e-01 +2.36652121e-02 -2.03112699e-02 -1.11403562e-01 -5.64519912e-02 +7.30738491e-02 +4.06148955e-02 +8.91059786e-02 +1.26032112e-02 -2.75126278e-01 +6.18511513e-02 -2.55669028e-01 -7.72106200e-02 -7.25734457e-02 -2.21827719e-02 +1.74572095e-01 -1.10026188e-01 +1.27429375e-02 -5.75080812e-02 -3.90396244e-03 -2.27274731e-01 +1.39628246e-01 +2.65609920e-02 +7.85625130e-02 -8.07025880e-02 +2.31077783e-02 +1.86943430e-02 -1.68778934e-02 -1.35050844e-02 -8.08543190e-02 -8.05367827e-02 +1.42706558e-02 -1.49505854e-01 +1.29094059e-02 +4.53569479e-02 -1.82693154e-01 -7.21880198e-02 -1.20238528e-01 +5.13643213e-02 -4.31621186e-02 +3.43593769e-02 +4.53879982e-02 -2.48418927e-01 +2.57651526e-02 +3.61880213e-02 +8.12927037e-02 -5.70876105e-03 -8.70583951e-02 +2.07344919e-01 -9.00046527e-02 -1.51840262e-02 -9.32378620e-02 -1.67394970e-02 -1.08218364e-01 +4.86351587e-02 -2.90953089e-02 +1.18199535e-01 -6.09493628e-02 -7.86980167e-02 -2.07599506e-01 +1.07877456e-01 -5.89789264e-02 +1.52584791e+00 -9.13539603e-02 +8.11147597e-03 +1.34914787e-02 -1.20752856e-01 -1.09752141e-01 -8.41844976e-02 -1.04299121e-01 -9.00291651e-02 -3.87000255e-02 -2.66177803e-02 -8.11571032e-02 -4.07971479e-02 -1.62916571e-01 +6.08559102e-02 -8.13490972e-02 +2.48968657e-02 +1.00009106e-01 +1.71650965e-02 -4.28903411e-04 +2.93038413e-02 -8.54077470e-03 -9.60984528e-02 -8.30280036e-02 -1.20337054e-01 +1.70312729e-02 +4.84929197e-02 -1.14401922e-01 +6.07365789e-03 -1.85912475e-02 -7.85619989e-02 +1.08876653e-01 +1.39009189e-02 +1.02649741e-01 +3.69926989e-02 +9.45640355e-02 -1.81435138e-01 +7.62936249e-02 +1.33262062e-02 +3.99836451e-01 +6.55262694e-02 -1.00840941e-01 +1.47434091e-02 -1.27026737e-01 -7.35930130e-02 +5.03825732e-02 -2.90046656e-03 -9.79567170e-02 +3.83192450e-02 +7.69403055e-02 +1.04747526e-01 -8.00461397e-02 +7.64430091e-02 +3.48398089e-02 -1.85476914e-01 -1.37813926e-01 +2.51941085e-02 -9.81545728e-03 -7.42445588e-02 -4.84201722e-02 -1.01285435e-01 -1.87415972e-01 +1.45458654e-01 -1.43428743e-01 -3.68958950e-01 -3.93689871e-02 +1.08415790e-01 -1.37023062e-01 -2.78698485e-02 +1.46882478e-02 -6.47507757e-02 -9.08202827e-02 +4.69270982e-02 +4.23263125e-02 -1.33956119e-01 -9.72636864e-02 +7.64144538e-03 -1.59785211e-01 -2.56554723e-01 -2.20062137e-01 +1.88830984e-03 +9.37318895e-03 -1.29487857e-01 -9.56445336e-02 -1.64297119e-01 -5.94773181e-02 -2.09227521e-02 -6.02338724e-02 -1.69960588e-01 +8.00905377e-02 -1.28063858e-01 -6.02137074e-02 +8.02980363e-03 -2.74955690e-01 -2.29236305e-01 +1.59101710e-02 -6.15408160e-02 -1.44637391e-01 -1.52326047e-01 -1.11712672e-01 +1.07485997e-02 -5.88815622e-02 -1.66914254e-01 -8.03316757e-02 -1.10103406e-01 -8.84192660e-02 -6.71819225e-02 -2.50887662e-01 -3.30885723e-02 -1.37781441e-01 +7.43849874e-02 -1.40161484e-01 -7.02734441e-02 +2.37410162e-02 -1.15008205e-01 +1.09465547e-01 -9.15117562e-02 -4.99394983e-02 -3.21804434e-02 -1.23089217e-01 -1.73671648e-01 -6.78622425e-02 -4.06024940e-02 -6.91881701e-02 -1.54611155e-01 -5.21029197e-02 +7.98462406e-02 -1.61264520e-02 -1.12328380e-01 +4.07376036e-04 -1.09217912e-01 -8.86799693e-02 -1.07727014e-01 -1.59506664e-01 -1.75304472e-01 +8.00377801e-02 +3.13447893e-01 -8.97446945e-02 -2.40773052e-01 -2.58635357e-03 +6.65800571e-02 +1.29333422e-01 -1.83925971e-01 -9.04248133e-02 -1.68053105e-01 +6.98291957e-02 +1.03640752e-02 -2.27342546e-01 +9.94733423e-02 -3.59479710e-02 -6.50494620e-02 +9.87462029e-02 -6.27381355e-03 +8.18455517e-02 -1.50060371e-01 -1.27559721e-01 -2.72314139e-02 +2.11821496e-02 -1.83667094e-01 -4.71640704e-03 -1.33030936e-01 +8.52603912e-02 -2.62086429e-02 +3.66906673e-02 -5.72537705e-02 -1.34055018e-01 +2.24447977e-02 -3.26668508e-02 +7.20245158e-03 +8.46118256e-02 +3.40536423e-02 +7.74217695e-02 +2.17104629e-01 +1.33190185e-01 -7.29509741e-02 -8.15714430e-03 -1.39425825e-02 -2.56762385e-01 +1.12708949e-01 -4.64526517e-03 -6.81459382e-02 +1.70221418e-01 -6.99860901e-02 +9.95193888e-03 -3.34069133e-03 -1.57564338e-02 +8.18108246e-02 +9.97085348e-02 -9.11820307e-02 -3.63592729e-02 +1.07721146e-02 -7.91485086e-02 +4.39448655e-02 -2.94323487e-04 +4.42541614e-02 +3.27026621e-02 +8.21054913e-03 +1.88359339e-02 -5.98111451e-02 +6.40303046e-02 -4.50940758e-01 +1.41574442e-02 +1.09436736e-01 -8.98013487e-02 -5.82808554e-02 +5.15013412e-02 -4.28884439e-02 -5.03910147e-02 -3.81391868e-02 +6.86093122e-02 -2.23155748e-02 +1.04771495e-01 +1.51363492e-01 +1.42524719e-01 +1.42551940e-02 -1.13767661e-01 +8.19128603e-02 -2.29450967e-02 -5.78997321e-02 +1.45549759e-01 +7.75074735e-02 -4.62845564e-02 +2.21947283e-01 +1.31565988e-01 +1.05202451e-01 +1.08944051e-01 +4.32160823e-03 +1.22311175e-01 +7.93012604e-02 -2.06833705e-02 +4.08219434e-02 -8.76082107e-02 +1.78033799e-01 -8.40010792e-02 -8.02802667e-02 -1.09910019e-01 +2.43914854e-02 +8.01337603e-03 +7.43940920e-02 -1.43852293e-01 +4.06825170e-02 +3.95828635e-02 -4.74231318e-02 -6.87350752e-04 +8.72546658e-02 +4.07912917e-02 +4.44806553e-03 -5.14115579e-02 -8.70217830e-02 +7.35350028e-02 +8.71600956e-02 +7.84474760e-02 -4.58275042e-02 -7.01090395e-02 +1.79229788e-02 +7.83994943e-02 +6.83849230e-02 +1.69223502e-01 -1.16562396e-01 +2.13656902e-01 -2.97229290e-02 -8.35735817e-03 +1.92730665e-01 -8.14525262e-02 +1.89639330e-01 -1.05454829e-02 -9.38356891e-02 +9.39092934e-02 +2.61173189e-01 +5.97128235e-02 -6.31638914e-02 -1.09825674e-02 +4.33785506e-02 -1.15331806e-01 +6.34699091e-02 -1.30697548e-01 -3.24352644e-02 +1.04217842e-01 +1.03921726e-01 -2.37050354e-01 +1.15073815e-01 +2.24037003e-02 -7.13666063e-03 +4.90613421e-03 -6.67263642e-02 +7.25710467e-02 +1.09784350e-01 +6.35770559e-02 +4.21864763e-02 +1.96020640e-02 -8.59344006e-03 -5.24520278e-02 +1.27877384e-01 -1.02571808e-01 -3.81906633e-03 +1.55549804e-02 -3.01893577e-02 +4.62937914e-02 +4.82092053e-02 +9.89335626e-02 +2.67098267e-02 -8.51329193e-02 -9.55605581e-02 -2.61480492e-02 +2.17742682e-01 +8.92115757e-03 +1.26731634e-01 -8.76836758e-03 +4.13078144e-02 +1.55280888e-01 +7.28496304e-03 +1.11457564e-01 -2.92297024e-02 +3.94763388e-02 -2.81251641e-03 +5.13515547e-02 -4.32950109e-02 +6.08042851e-02 -1.21177442e-01 +2.32609455e-02 +3.79586481e-02 +1.33433253e-01 +5.48485182e-02 -1.00924401e-02 +3.56898792e-02 -5.71697578e-03 +5.67213865e-03 -6.47489130e-02 +3.12065985e-02 +5.59196994e-03 +2.16807071e-02 -1.30606187e-03 +2.37093672e-01 +1.41828582e-02 -2.46049650e-02 -7.32334936e-03 +1.62691518e-03 -1.97070204e-02 +2.87814140e-01 +8.20790157e-02 +9.04124677e-02 +3.21547985e-02 +1.60107240e-01 +1.03902675e-01 +1.62387807e-02 -1.17139081e-02 +7.31248185e-02 +1.23839758e-01 -3.43607813e-02 +6.93627000e-02 +3.90201956e-02 -9.76420939e-02 -2.31700428e-02 +2.02684030e-02 +2.59372555e-02 +8.85736793e-02 -2.67335381e-02 +2.41637707e-01 +2.28869841e-02 +3.56196687e-02 +7.50694126e-02 +8.30059126e-02 -4.09181090e-03 +3.70808877e-02 -3.13002974e-01 +9.79586169e-02 +4.74856421e-02 +9.64856744e-02 +2.62430497e-02 -2.36867219e-01 -1.52205452e-01 +6.16412871e-02 +5.54128587e-02 -1.03216819e-01 -7.85238966e-02 +7.13407472e-02 -5.68892807e-02 -1.07311882e-01 -7.55705908e-02 +2.79240087e-02 -2.31203616e-01 +1.10091597e-01 +1.62998512e-02 -5.98462671e-02 +6.59570545e-02 -1.28456697e-01 +2.52568364e-01 -1.65465921e-01 +8.32485110e-02 -3.58284428e-03 +6.50795177e-02 -9.39055160e-02 -4.32966240e-02 -4.44004461e-02 -2.47493498e-02 -1.38249695e-01 -1.64088041e-01 -2.08857298e-01 +4.56139296e-02 +3.95327285e-02 +3.16246569e-01 -1.98884774e-02 -4.75514904e-02 +2.37760339e-02 -1.60846990e-02 +1.13682456e-01 +1.97985381e-01 +6.42870516e-02 +2.43639294e-02 -3.19730211e-03 +9.33085978e-02 -1.34360328e-01 +6.36875182e-02 +1.38393998e-01 -5.18180802e-02 -7.47572444e-03 +1.29768234e-02 -6.19569197e-02 -3.09184231e-02 -1.12120032e-01 -3.94666940e-02 +7.92567357e-02 -5.94415180e-02 -4.28938866e-02 +2.99124047e-02 -1.94609553e-01 +1.21036686e-01 +1.03391390e-02 +3.15080956e-02 -3.87019478e-02 -1.06502660e-01 +3.56842279e-02 -4.30040285e-02 +8.99254978e-02 -2.93629337e-02 -9.56429467e-02 -3.75852823e-01 -2.11002361e-02 -2.50355136e-02 -1.07270442e-01 +5.68984225e-02 -6.49773516e-03 -3.12667824e-02 -3.45612466e-02 -7.10813925e-02 +4.26043756e-02 +1.88907119e-03 -7.93351158e-02 +2.52637379e-02 -3.63180507e-03 -4.24282029e-02 +6.48396388e-02 +8.05646554e-02 +9.00745392e-02 -1.92185178e-01 +5.72968461e-03 +4.27182205e-02 +1.70626968e-01 -1.07760638e-01 -1.71792343e-01 -1.52227983e-01 -1.09655119e-01 -1.75597996e-03 -9.39946547e-02 -2.82949269e-01 -6.16410188e-02 -4.09450419e-02 -1.14015758e-01 -3.93056385e-02 +9.16896760e-02 +1.48458153e-01 -1.60930157e-01 -1.69970654e-02 +7.62286317e-03 -3.69582027e-02 -1.03357330e-01 -3.62193659e-02 +1.17365450e-01 -2.69210815e-01 -1.28691182e-01 +8.31155628e-02 +1.43971741e-02 -5.25782676e-03 -3.20890844e-02 -1.44131973e-01 -9.92660150e-02 -1.93322208e-02 +2.94532739e-02 -1.37856947e-02 -4.50115688e-02 -1.73040852e-01 -1.96033958e-02 +8.02926719e-02 -1.01879604e-01 -1.48394018e-01 +7.95186833e-02 +7.88885653e-02 -1.37469899e-02 -1.78691801e-02 -9.85267460e-02 +2.24205963e-02 +9.79363769e-02 -1.53779879e-01 +1.03384644e-01 -1.14874177e-01 -8.47244933e-02 +4.53857891e-02 -6.70352280e-02 -1.72097906e-02 -5.75427711e-02 -1.49664432e-01 -2.51636058e-01 +7.42724836e-02 +1.01722525e-02 -6.01815209e-02 -7.19491532e-03 -6.97050318e-02 -2.86016583e-01 +3.38157360e-03 +4.76647615e-02 +2.75811497e-02 -3.23861018e-02 -1.49860838e-02 -8.35277066e-02 -1.00568486e-02 +1.13801278e-01 +9.73298550e-02 -1.47661701e-01 +5.88024743e-02 -3.33013624e-01 -9.05853659e-02 -1.77539513e-01 -8.58874768e-02 +2.58031134e-02 +8.94202814e-02 +5.52253053e-02 +5.06324060e-02 +1.84528716e-02 -2.48881746e-02 +8.49199146e-02 -4.66225147e-02 +2.46726051e-02 -7.13955760e-02 +2.67862864e-02 -2.70469859e-02 +6.77789897e-02 -3.84574980e-02 -2.20133722e-01 -1.93733852e-02 -2.43281096e-01 -5.59788197e-02 +3.42019275e-02 +1.03870079e-01 +1.73323944e-01 -5.27337305e-02 -1.09446444e-01 +9.92225707e-02 +1.62217021e-02 -2.70024627e-01 +9.35956463e-02 +4.85904962e-02 -8.58774185e-02 -5.61103188e-02 +3.69071290e-02 +4.87521142e-02 -1.86349340e-02 +9.44144130e-02 -6.27938705e-03 -1.41064376e-02 +1.45330966e-01 -1.21489674e-01 +5.93232736e-02 -1.79744124e-01 +5.83422929e-02 -4.96449351e-01 -9.03116986e-02 -8.16555694e-02 +2.40137786e-01 -3.90691280e-01 -2.38922715e-01 -1.44908994e-01 -3.63935530e-01 +5.54893278e-02 -3.02541330e-02 -4.44232151e-02 +9.57023650e-02 +1.64607465e-01 -6.04253523e-02 -8.98758098e-02 +9.20117870e-02 -5.07749207e-02 -1.91622525e-02 +7.08886459e-02 -1.05867378e-01 -1.10721886e-01 +1.32494226e-01 -2.35542193e-01 -1.84953317e-01 -4.13528569e-02 -4.25571240e-02 +2.48002067e-01 -3.45663458e-01 -3.38757157e-01 +5.69874933e-03 -3.64516303e-02 +1.74472928e-02 -2.53961802e-01 -6.76417425e-02 -7.08485115e-03 +3.29069197e-02 -3.42323561e-03 -5.68775423e-02 -6.93726614e-02 -1.68906987e-01 -2.28066817e-02 +2.29417067e-02 +4.19281945e-02 +1.04222000e-01 +8.81581604e-02 -5.67915142e-02 -9.81047656e-03 -6.91252425e-02 +1.12967290e-01 -3.85744303e-01 -6.34292781e-01 -4.27316874e-02 -1.91670224e-01 -4.64596957e-01 +5.96019067e-02 +4.83585931e-02 +5.30701168e-02 -5.43445386e-02 -2.23010451e-01 +2.75238487e-03 +6.03268147e-02 -3.21144871e-02 -1.63845018e-01 +2.59706546e-02 -7.44963735e-02 -4.15593795e-02 -1.31904095e-01 -4.20156717e-02 +6.19236119e-02 -2.79554427e-01 +1.11593781e-02 +1.22448457e-02 -9.41965953e-02 -1.28346933e-02 -7.63380378e-02 -1.19838603e-02 -8.92712995e-02 +8.99533182e-02 -1.02066152e-01 +6.26608655e-02 +2.37215593e-01 +6.49661869e-02 -3.99434388e-01 -1.38079762e-01 +3.17430824e-01 +1.30802751e-01 -1.78329363e-01 -3.51275280e-02 +5.73555902e-02 +3.11214089e-01 -4.56077978e-02 -8.36351886e-02 -5.27209461e-01 -2.11720273e-01 -5.97892888e-02 -1.03656575e-01 -2.68123895e-01 -1.20445624e-01 -6.41999766e-02 -1.07056931e-01 -3.13681751e-01 -6.41877577e-02 -3.38661373e-01 -5.85225284e-01 -2.60597974e-01 -3.63165736e-01 +6.64713606e-02 +2.09025279e-01 +2.54802089e-02 -1.02258191e-01 +1.21670172e-01 +6.16699457e-02 +9.74077657e-02 -4.00903635e-02 -5.83241992e-02 -1.99691057e-02 -7.31199086e-02 +3.91668919e-03 -2.52869576e-01 +5.67608932e-03 -3.62344205e-01 -1.80613827e-02 -3.57789099e-01 -7.67588392e-02 -1.38688937e-01 -3.94188650e-02 -4.73433137e-01 -1.95340905e-02 -4.34144735e-01 -1.31677259e-02 -2.59103850e-02 -6.51984587e-02 -3.47912818e-01 -6.40999913e-01 +5.55586576e-01 +5.45089804e-02 +7.05954134e-01 +1.11126028e-01 -2.70638242e-02 -8.19095299e-02 -1.15750909e+00 +2.62428850e-01 +7.61721134e-02 +1.08649068e-01 +2.17944533e-01 -1.13584554e+00 -4.91996944e-01 +3.15455012e-02 +5.91614246e-02 -6.76328391e-02 -3.48398477e-01 -8.97243321e-01 -9.76411402e-02 -9.28347483e-02 -3.89005989e-01 -1.38728321e-01 -2.07517222e-01 -2.30918333e-01 -2.19441429e-01 -3.21035326e-01 -3.27083260e-01 +1.55020494e-03 +9.25679281e-02 -1.11618549e-01 +1.07057855e-01 -4.85768355e-02 +4.18807305e-02 +2.70998359e-01 -1.11505173e-01 -1.05857052e-01 -1.02703609e-01 +1.59789547e-02 +4.81795557e-02 -1.41073857e-03 +3.98328155e-02 -7.81793427e-03 +9.53475088e-02 +8.40465650e-02 +7.03209639e-02 -6.38041422e-02 -5.96515872e-02 -4.03319627e-01 +3.77955823e-03 +7.95074850e-02 -7.13164508e-02 +1.62644163e-02 -6.18707895e-01 -7.98043683e-02 -4.97396961e-02 -2.66493350e-01 -3.21964771e-02 -2.78755873e-01 -3.89117628e-01 -3.43249887e-01 +8.64509046e-02 +2.63566315e-01 +8.20566043e-02 -1.07113406e-01 +8.96066874e-02 +2.09890679e-01 -1.97024465e-01 +7.26046637e-02 +5.82356788e-02 -8.09155777e-02 +5.46323955e-02 +1.66892007e-01 +4.51727994e-02 +8.34851861e-02 -1.00988774e-02 -2.97062956e-02 +6.84884861e-02 +7.82221779e-02 +1.36430994e-01 -2.61995103e-02 -3.43866609e-02 -7.91887194e-02 -6.34201467e-02 -1.68391466e-02 +9.93752852e-02 -7.34788133e-04 +8.26754328e-03 +1.07419282e-01 +1.81161880e-01 +4.60973382e-03 -1.00953043e-01 -9.33749750e-02 -4.35560852e-01 -2.12398190e-02 -2.24114917e-02 -9.14453343e-02 +7.07747117e-02 -1.03408270e-01 +2.38015056e-02 -8.82718340e-02 +8.69120806e-02 -8.06735177e-03 -5.96635714e-02 +3.36176641e-02 +1.14840984e-01 +4.64091264e-02 -4.96992767e-02 -1.27618685e-02 +1.05362097e-02 +1.75740290e-02 +1.93154607e-02 +1.74580544e-01 -4.85232435e-02 -1.00432932e-01 +2.58604228e-01 +1.43177912e-01 -2.06020437e-02 -2.90633142e-02 -1.34856645e-02 +1.18009150e-01 +1.80918481e-02 -4.59403433e-02 -6.70610443e-02 +6.31036833e-02 +2.45457903e-01 +9.88802016e-02 +2.83604022e-02 +8.86860564e-02 +4.44954745e-02 +9.28581432e-02 -1.03523858e-01 -2.26615012e-01 +2.19185039e-01 +2.35038493e-02 -9.88053828e-02 +7.64456466e-02 +5.42388633e-02 -7.60993063e-02 +9.47565809e-02 -3.26463357e-02 +4.42657992e-02 +5.93886524e-02 -2.07604449e-02 +5.21233827e-02 -6.81660771e-02 -7.87859969e-03 -3.40761766e-02 +2.28010193e-01 +4.17231396e-02 +1.92191735e-01 -6.24255128e-02 +1.70993343e-01 -1.11240074e-01 -1.10549636e-01 +7.30617046e-02 +2.16356106e-02 +9.41175520e-02 -3.49230021e-02 +3.53523828e-02 +1.96796246e-02 +2.17676535e-01 -5.52710891e-02 -5.26478291e-02 -6.94093406e-02 -4.15809965e-03 -4.43278998e-02 +1.32038206e-01 -8.34753066e-02 -2.37659570e-02 -7.81407133e-02 -4.87196371e-02 -2.34134644e-01 +1.39923349e-01 +9.16207861e-03 +8.22108686e-02 -3.84886228e-02 -6.84898049e-02 +3.00162937e-02 +1.80187449e-01 -2.69706063e-02 +1.18815787e-01 -7.19059929e-02 +3.07547227e-02 +2.92002019e-02 +5.57445735e-02 -9.53991637e-02 +9.97257084e-02 +5.84067330e-02 +1.05340727e-01 +1.07879089e-02 +1.17855147e-01 +6.59643561e-02 +1.09424390e-01 +4.19838838e-02 -8.92507136e-02 +1.10831100e-03 +3.50080460e-01 +5.33904042e-03 +7.59052709e-02 +1.95546020e-02 -1.04927003e-01 -2.37296447e-02 -4.46651056e-02 +8.59253109e-02 -1.10248238e-01 +3.02956644e-02 +1.44792557e-01 -8.72992072e-03 +3.63640338e-02 +8.20584372e-02 -1.22995332e-01 +4.68271002e-02 +3.52162719e-02 -4.38908376e-02 +1.00579739e-01 +1.03134131e-02 +6.06301911e-02 +8.24464038e-02 -1.06847085e-01 -1.20184042e-01 -1.58461928e-02 +1.98597655e-01 -1.12475663e-01 +1.35088980e-01 +1.30079165e-01 +8.20700824e-02 -9.23146233e-02 -4.11930121e-03 +2.69029140e-02 -2.44891457e-02 +2.30158359e-01 +2.25153510e-02 +4.15510461e-02 +5.74485213e-02 +4.99546528e-02 +5.57968132e-02 +4.11259085e-02 +1.01941794e-01 -3.21351774e-02 +3.82855050e-02 -2.05263533e-02 +8.24605972e-02 +1.52059436e-01 +6.97760880e-02 -1.93877779e-02 +2.31554490e-02 +1.17155962e-01 +9.85574946e-02 -1.08858511e-01 +1.11042187e-01 +1.03737131e-01 +5.22612706e-02 +1.25391588e-01 +3.76467519e-02 +1.55085713e-01 +1.82681113e-01 -3.19498301e-01 +9.99453962e-02 -2.42218189e-03 +1.11729175e-01 +9.79465917e-02 -2.13615090e-01 -1.44172207e-01 -9.36078057e-02 +5.44647202e-02 -1.38849989e-01 -9.10213590e-01 -5.24477735e-02 -3.35158668e-02 -3.96077693e-01 -1.47535816e-01 +1.20134696e-01 -8.02406818e-02 +5.95853589e-02 +4.90306467e-02 -9.61824208e-02 -8.10497999e-02 +1.30012989e-01 -5.39281853e-02 -6.08530976e-02 +2.89263986e-02 +4.89291176e-02 +1.89425685e-02 +2.39120703e-02 +6.47469386e-02 -6.82653859e-02 -4.50778790e-02 +7.24260369e-03 -1.12422444e-01 -5.14255501e-02 -1.07096784e-01 -3.15005891e-02 +1.33275548e-02 +4.65040319e-02 +3.17805596e-02 +3.68241854e-02 -6.11161888e-02 +5.77590019e-02 +1.42025709e-01 +1.03255950e-01 +4.33936939e-02 +8.76147449e-02 -1.12026691e-01 -6.76956447e-03 -7.80805498e-02 +2.17848450e-01 -8.16231668e-02 +9.36074741e-03 -1.01462029e-01 +6.06418867e-03 -1.09295338e-01 +8.33652318e-02 +5.13183400e-02 -1.13760186e-02 +2.75684055e-02 +1.28977764e-02 +1.39062792e-01 +2.82292441e-02 +1.19971782e-01 +1.90444849e-02 -3.78103666e-02 -5.20650484e-02 -3.40554900e-02 -5.24816513e-02 -8.29621032e-02 -8.80564153e-02 -4.87603620e-02 +8.70807469e-02 -1.19649813e-01 +2.03433039e-04 -1.11122712e-01 -1.26644993e+00 -2.94891763e-02 -3.70491482e-02 -9.25780684e-02 +1.04826771e-01 -3.05199362e-02 -7.80114606e-02 +9.65248495e-02 +5.72294220e-02 +7.28096962e-02 +7.49066100e-02 +7.01123253e-02 +4.88325767e-02 -1.12549141e-01 -9.03020948e-02 -1.96447521e-02 -2.09627040e-02 +7.18609467e-02 -3.85692380e-02 -4.24913429e-02 -5.18694185e-02 +2.93564517e-02 -5.67431934e-02 -2.62585700e-01 +2.26804987e-01 -1.30650759e-01 -3.75630334e-02 -1.22527450e-01 +1.17635183e-01 -2.03506321e-01 +8.14028978e-02 +8.27705935e-02 +6.99137747e-02 -2.02708393e-02 -1.58436584e+00 -1.12710223e-01 -2.19025826e+00 -9.12470277e-03 +3.41182313e-04 -1.73433557e-01 +6.85755834e-02 +3.58734466e-02 +1.41530469e-01 -7.56727457e-02 +2.97600143e-02 +7.38930851e-02 +1.57815684e-02 +1.68040529e-01 -5.44240288e-02 +1.47084817e-01 +3.14051174e-02 -8.15112293e-02 +1.00935943e-01 -3.02977096e-02 +2.46709764e-01 -1.58826515e-01 +4.10896577e-02 -3.61075550e-02 -3.47058475e-02 +1.08169682e-01 -5.14587872e-02 +1.36279892e-02 +5.66931106e-02 +4.44340892e-03 -5.18018901e-02 +1.19715407e-01 -8.13212991e-02 +3.56537104e-03 -7.47087747e-02 +1.52581975e-01 +5.14771268e-02 -1.07970282e-01 -1.82580516e-01 -8.08392987e-02 -7.68252611e-02 +6.00029621e-03 -3.97645980e-01 +9.37513784e-02 -1.23001039e-01 +1.49394512e-01 -1.29405260e-01 -1.62365008e-02 -2.27332152e-02 -9.74146500e-02 -5.70058450e-02 -5.33574484e-02 +5.70152933e-03 -3.66866663e-02 -3.25269318e+00 -8.01427886e-02 -1.25931585e+00 +2.69684698e-02 +3.64191644e-02 -1.53551504e-01 +1.84188768e-01 +7.92775229e-02 +8.67251493e-03 -6.41102016e-01 -1.06464960e-02 +5.33481911e-02 +9.33955535e-02 -8.51662681e-02 -1.53080642e-01 +1.47179666e-03 +4.96635921e-02 +1.45870522e-01 -9.55926999e-02 +3.67757194e-02 -1.21428542e-01 -1.04021057e-01 -1.40863895e-01 +1.60880527e-03 -5.32671437e-02 +7.31824785e-02 +1.47285476e-01 -9.68330652e-02 -1.24893904e-01 -5.76612279e-02 -2.38683388e-01 -4.75462638e-02 +5.12952991e-02 +7.96049386e-02 -2.97283884e-02 +7.61245191e-02 -5.43264858e-03 -1.96012318e-01 -1.38382480e-01 +3.58264931e-02 -4.60667275e-02 -1.86246987e-02 -8.76821280e-02 -1.39671098e-02 -5.02429754e-02 +1.16417170e-01 -1.45595998e-01 -2.58121014e-01 -2.07975768e-02 -6.76425844e-02 +2.09808983e-02 -1.29479066e-01 -1.11363739e-01 -1.86455622e-01 -1.43697225e-02 -6.28278479e-02 -4.71225530e-02 +1.00366592e-01 +4.76284549e-02 +2.70000279e-01 -2.11662263e-01 -2.73232702e-02 +4.76917811e-02 +1.15092203e-01 -9.48814154e-02 +1.87100321e-02 -6.17478825e-02 -3.39924097e-02 -2.13888846e-02 -1.52842939e-01 -1.23044096e-01 +7.39114732e-03 +7.92475790e-02 +1.37787735e+00 -8.28994215e-02 +1.70068461e-02 -1.03798453e-02 +7.27183148e-02 -7.97951892e-02 -4.57187323e-03 +5.57897948e-02 +3.54949981e-02 -5.23174927e-02 +6.33627595e-03 -1.30203143e-01 -7.57723302e-02 -1.89136863e-01 +7.89744928e-02 +2.02053804e-02 +5.37987538e-02 -1.79451257e-02 +9.11147706e-03 -1.57509178e-01 +9.58153456e-02 +7.68006220e-02 -1.31418675e-01 -3.01040113e-02 -1.48608491e-01 -1.31319929e-02 -8.72341245e-02 +2.38094665e-02 -5.17845675e-02 -5.06858006e-02 +9.29486454e-02 -8.12785514e-03 +8.00173322e-04 +1.01835065e-01 -3.21971737e-02 +5.06205782e-02 -3.34773481e-01 -5.99861294e-02 -4.90964837e-02 +4.16079372e-01 -6.42796606e-02 +6.48709852e-03 -4.91809063e-02 -2.87107304e-02 -6.70254007e-02 -6.16135821e-02 +1.48815466e-02 -2.20841989e-02 -6.81910738e-02 +1.88461486e-02 -2.35882234e-02 +2.87037715e-02 +7.68654048e-02 +1.11997239e-01 -1.49505451e-01 -6.14146031e-02 -1.20019782e-02 +1.34951800e-01 -1.56982526e-01 -2.10530892e-01 -2.04959139e-01 -1.45771921e-01 +1.35984421e-01 -1.34790570e-01 -3.60786766e-01 -9.06224102e-02 -2.47012060e-02 -9.93933156e-02 -8.84209275e-02 -8.69113132e-02 -3.21708508e-02 -1.78117141e-01 +9.26849693e-02 +1.67817734e-02 -8.91621783e-02 +6.76989928e-02 -1.51969358e-01 +3.00581660e-02 -8.63992646e-02 -2.10348070e-01 +2.11070720e-02 -1.02477491e-01 +4.30400893e-02 +6.45832419e-02 -5.99714853e-02 +5.39688533e-03 -1.53453931e-01 +6.50649443e-02 +1.00130439e-02 +7.94959515e-02 -1.08952925e-01 +6.82211891e-02 -6.92880824e-02 -2.85352230e-01 -1.76706746e-01 +8.92792195e-02 -5.11973677e-03 +1.79116894e-02 -1.52730376e-01 -3.39337103e-02 -9.63178650e-02 -4.94434051e-02 -1.95108011e-01 +5.20400740e-02 -6.81216046e-02 -1.61548518e-02 -1.06743969e-01 -1.18321784e-01 +6.59597814e-02 -1.31270558e-01 -1.19874828e-01 -7.31081218e-02 +3.39595154e-02 +1.88653469e-02 +2.32464373e-02 +1.53697148e-01 -7.87384808e-02 -1.70054764e-01 -3.91461402e-02 -1.47063926e-01 -1.15245013e-02 -1.08010605e-01 -6.19840808e-02 -2.31295582e-02 -4.92494442e-02 +4.98263687e-02 -2.80317888e-02 +1.33393615e-01 -2.52680331e-02 -1.69594407e-01 -1.99007317e-01 -1.02240846e-01 -8.90418142e-02 -1.60304919e-01 -1.28701642e-01 +7.63312131e-02 +2.53927827e-01 +2.48697493e-02 -1.14833064e-01 -7.22796693e-02 +4.97764871e-02 +7.28862956e-02 -6.74506724e-02 -1.21841788e-01 -7.80553222e-02 -2.97738356e-03 +9.96549577e-02 -9.78929996e-02 -3.24599929e-02 -7.11228624e-02 -1.27277210e-01 -1.29858563e-02 +6.60445318e-02 -7.18291989e-03 +1.72641519e-02 -8.44824612e-02 +1.55383237e-02 +9.50941369e-02 -1.86976150e-01 -5.24020866e-02 -8.05813670e-02 -6.83673993e-02 -1.24071799e-01 -3.72377448e-02 +7.63299018e-02 -3.24672386e-02 +1.82020850e-02 -2.13482920e-02 +2.41296981e-02 +2.14289024e-01 +1.11162402e-01 -5.54217733e-02 +8.88665915e-02 +8.83547515e-02 -1.04286723e-01 +5.98336682e-02 -6.63251281e-02 -1.10360414e-01 +1.53735057e-01 +1.00490162e-02 +8.72078240e-02 +3.51965278e-02 +3.90093140e-02 +4.95175309e-02 +6.99598938e-02 +4.93055023e-03 +1.39458999e-01 +1.36058390e-01 +3.32840979e-02 -5.41113541e-02 +7.42626041e-02 +7.59690702e-02 +6.88515380e-02 +5.84890433e-02 +4.97790128e-02 +6.58848509e-02 +3.11478190e-02 +4.26635295e-02 +5.98398894e-02 +6.85993209e-02 -4.77060258e-01 -9.53599904e-03 +1.58572048e-02 +4.07636166e-02 -9.17250440e-02 +6.09561577e-02 +8.03499296e-02 -5.17006293e-02 -6.21612766e-04 +8.91518220e-02 -9.19359475e-02 +6.06313087e-02 -4.62676911e-03 +5.08374674e-03 -5.18051758e-02 -7.41824731e-02 -1.37069412e-02 +7.37361237e-02 -7.40648881e-02 +1.98727176e-01 +3.30015458e-03 -8.88091251e-02 +3.03213954e-01 +6.71441704e-02 +3.79257612e-02 -6.88507482e-02 +6.19859770e-02 +1.36088446e-01 +7.09574074e-02 -6.52389899e-02 -4.55572009e-02 +4.90235277e-02 +1.98532000e-01 +7.35019296e-02 +6.94051757e-02 -4.77536321e-02 +1.35479361e-01 -1.10981517e-01 +9.11581367e-02 -2.86148310e-01 +1.53583661e-01 +1.05711207e-01 +5.86447157e-02 -1.00653265e-02 +2.27374993e-02 +5.93329184e-02 -1.91095769e-02 -4.30671908e-02 +3.37292627e-02 -2.74332967e-02 +8.87286589e-02 +8.94842371e-02 -1.09996930e-01 -8.81245583e-02 +1.21087253e-01 +3.99080403e-02 +5.94280893e-04 +1.16526082e-01 -1.54752612e-01 +1.54736355e-01 -1.18012913e-01 -2.91432673e-03 +2.20368743e-01 -1.64364986e-02 +2.10945867e-02 -5.73777147e-02 +8.55190605e-02 +1.31111845e-01 +1.35325789e-01 -9.26524475e-02 +4.13517989e-02 +2.00084709e-02 -9.67692137e-02 -1.22096367e-01 +1.47935301e-01 -1.38137698e-01 +4.07269560e-02 +5.44294119e-02 +1.12197377e-01 -2.37446412e-01 +1.24049835e-01 -7.59369433e-02 -7.09106959e-03 -8.78390670e-02 +5.24840690e-02 +2.07956473e-04 +1.52443931e-01 +9.28022042e-02 -1.28527023e-02 -1.43417465e-02 -5.91276996e-02 -1.00018010e-01 +1.91025257e-01 +3.70883979e-02 -7.51622543e-02 +7.20671713e-02 +7.40888789e-02 +3.37397382e-02 +8.82649124e-02 +2.47917487e-03 +8.71873274e-02 +5.52874012e-03 -1.24515779e-01 +4.08650283e-03 +1.94912672e-01 -4.55651395e-02 +1.08684868e-01 +3.11841024e-03 +3.50948162e-02 +8.18126649e-02 -3.99956107e-03 +1.35156780e-01 +1.10979332e-03 +9.80714038e-02 -4.17320523e-03 +4.15643454e-02 -3.25884782e-02 +8.72596400e-04 +1.00666741e-02 -2.22989935e-02 -3.60578939e-04 +5.42158075e-02 -3.20538692e-02 +1.56265497e-01 +8.89596492e-02 +1.38531372e-01 -3.92608605e-02 -1.34310186e-01 +7.03588277e-02 +1.57605931e-01 -9.66525674e-02 +1.64228588e-01 +2.30335981e-01 -3.48015130e-02 -5.97595461e-02 +7.77963102e-02 +6.98791072e-02 -1.21560823e-02 +3.02777022e-01 -4.65818448e-03 -9.22004580e-02 +6.45791739e-02 +7.77852088e-02 -4.40697409e-02 +9.70687158e-03 -1.01827480e-01 -5.80609404e-02 +8.66825879e-02 +1.00476496e-01 +1.14980713e-01 +8.54043886e-02 +8.71163979e-02 -5.90124540e-02 +3.80321555e-02 -2.41463650e-02 -4.34137359e-02 +3.73202339e-02 +9.74347591e-02 -3.30141187e-02 +1.32044122e-01 -2.56076758e-03 -1.04746975e-01 +8.35371166e-02 +8.78270715e-02 -2.10647926e-01 +1.83231998e-02 +1.20882519e-01 +4.97028753e-02 -1.37534505e-02 -2.82740533e-01 -5.49446754e-02 -5.09203859e-02 +1.64985806e-01 -2.74013460e-01 -1.23564385e-01 -6.34094700e-02 +7.79091716e-02 -2.57428557e-01 +3.19096930e-02 +6.69139326e-02 -2.41073132e-01 -9.83934477e-03 -9.39732138e-03 +1.92163140e-02 -2.11377963e-02 +6.42913505e-02 +6.23165704e-02 -1.62592456e-01 -1.50391655e-02 -1.24916970e-03 +8.20626039e-03 -1.60431668e-01 +2.00352799e-02 +9.34806392e-02 -7.10182339e-02 -1.90580502e-01 -2.40328938e-01 -3.20429653e-01 -8.60703290e-02 +3.41214426e-02 +2.11983040e-01 +1.65899135e-02 -4.69254479e-02 +2.12819055e-02 -7.65971374e-03 +1.73744127e-01 +9.01235193e-02 -3.94203290e-02 +8.38484392e-02 +6.71233758e-02 -8.59215949e-03 -1.78334191e-01 -7.42609203e-02 -1.30672436e-02 -1.87679995e-02 +1.14407249e-01 -2.06060819e-02 +4.04687375e-02 +4.81488667e-02 -1.07588835e-01 +8.79395381e-02 -4.71869819e-02 -1.76682085e-01 -3.83916385e-02 -7.87299871e-02 -1.52486674e-02 +1.54998302e-01 -1.00396294e-02 -8.58710930e-02 -1.03525235e-03 +7.36131370e-02 -2.99241859e-02 +1.62473880e-02 -8.18709433e-02 -6.98825866e-02 +6.95289150e-02 -3.11893433e-01 -5.56961261e-02 +9.64247361e-02 -4.14618477e-02 +4.80799042e-02 -6.03666622e-03 -7.73063824e-02 +8.22453126e-02 +1.89634394e-02 +1.71353873e-02 -7.69313201e-02 +7.80771449e-02 -3.73320132e-02 +5.70685305e-02 +1.09623373e-01 -9.00353566e-02 +7.51000494e-02 +1.05314590e-02 -2.78691798e-01 -1.35030642e-01 -2.97390986e-02 +1.41598091e-01 -1.27481461e-01 -3.54968369e-01 -1.67290255e-01 -2.11669296e-01 +3.33524123e-02 -1.66860633e-02 -2.77905285e-01 -1.10073358e-01 +8.22735280e-02 -6.87867850e-02 -4.86531369e-02 +4.86713536e-02 -7.42072752e-03 -1.26730680e-01 +6.44395966e-03 -1.18646950e-01 -1.23576023e-01 -1.95722416e-01 +6.95965067e-02 +1.88117594e-01 -1.60322338e-01 -2.62887269e-01 +3.79908904e-02 -6.16735592e-02 -8.29591826e-02 +8.91605020e-02 +4.82569681e-03 -6.53286651e-02 -1.28960982e-01 +1.01437777e-01 -1.38058877e-02 +5.45834638e-02 -1.74213409e-01 -1.96376126e-02 +2.50655767e-02 -1.27713099e-01 -2.32566148e-01 -3.44553851e-02 +4.12701778e-02 +1.43534550e-02 -6.22180924e-02 -1.19554125e-01 +9.46504921e-02 -6.36312217e-02 -1.72946423e-01 -4.42482121e-02 -1.85801432e-01 -6.04524985e-02 +1.54583052e-01 -4.91078310e-02 -1.54820248e-01 -1.41475901e-01 -1.16511747e-01 -1.82145536e-01 +1.07938647e-01 -1.48813233e-01 +1.13184705e-01 -1.64412141e-01 +4.28423285e-02 -2.83928186e-01 -2.67245676e-02 +1.44912109e-01 +2.96992576e-03 -1.14595786e-01 -6.35415092e-02 -9.74112749e-02 -1.51651725e-02 +1.46721259e-01 +5.19960597e-02 -4.76703607e-02 -6.64899126e-02 -2.84164280e-01 -1.99369043e-02 -9.32394564e-02 -2.10033029e-01 +7.39256153e-03 +1.95598990e-01 +5.19902445e-03 +3.34271081e-02 +8.82313550e-02 -1.37461439e-01 -3.51174213e-02 -4.55450565e-02 -8.85516852e-02 -2.50426948e-01 +5.74136786e-02 -7.20800012e-02 -5.09010218e-02 +6.52046055e-02 -2.41871685e-01 +3.72754261e-02 -1.54721379e-01 -1.70034096e-01 -7.96746686e-02 -4.99370173e-02 +1.31579824e-02 -1.54237837e-01 -1.96493641e-02 -6.58440515e-02 +1.41102271e-02 -2.34621242e-01 +2.79384226e-01 +7.33096972e-02 +1.99016333e-02 -1.11397944e-01 +6.69419318e-02 -4.57893051e-02 -8.39181095e-02 +7.69008473e-02 -2.18993577e-04 +6.24598637e-02 +1.38136119e-01 -1.53182223e-01 -5.94987981e-02 -2.66192764e-01 -1.34542398e-02 -6.33201957e-01 +8.21095109e-02 +3.99925793e-03 +1.88889310e-01 -3.93889636e-01 -1.18822716e-01 -2.83540577e-01 -3.68245363e-01 -5.73303401e-02 +9.47070941e-02 -7.31692910e-02 -2.09159460e-02 +8.50737542e-02 +6.56026006e-02 +7.52362534e-02 -1.03003949e-01 +6.55757189e-02 -1.42461747e-01 -9.63232294e-02 -5.11645600e-02 -7.87794292e-02 +9.91601869e-02 -2.88368106e-01 -2.59813368e-01 -7.61622712e-02 -9.41381156e-02 +3.06579828e-01 -3.77622426e-01 -4.80795354e-01 -1.10358015e-01 +5.61649427e-02 +3.02480105e-02 -2.10439861e-01 +9.89665985e-02 +9.29441899e-02 +3.39556001e-02 -2.86778305e-02 -1.59749508e-01 -2.31081545e-01 -1.64094657e-01 +8.98555815e-02 -1.20449729e-01 +7.98334330e-02 -8.90034363e-02 -7.43681788e-02 -5.62461540e-02 +4.32525724e-02 -1.40213175e-02 +1.44323736e-01 -4.74243373e-01 -6.29348934e-01 -1.17895849e-01 -8.49226639e-02 -5.79654396e-01 +1.03682861e-01 +2.11556386e-02 +5.49565740e-02 -1.02196261e-01 -9.99234319e-02 +9.45461169e-02 -9.15671363e-02 +4.48303893e-02 -2.64365882e-01 -8.79504010e-02 -8.11009258e-02 +5.35807721e-02 -6.17652982e-02 -7.23534524e-02 -1.15415789e-01 -9.80143920e-02 +9.58967060e-02 +6.45492002e-02 -1.42813455e-02 -6.37282059e-02 -1.02750242e-01 -1.03382036e-01 +7.90235922e-02 +8.27173665e-02 -2.05880571e-02 +3.67300175e-02 +1.07061200e-01 +1.66841391e-02 -3.69579017e-01 -1.22337639e-01 +2.50526220e-01 +1.58743858e-01 -1.10698193e-01 -1.15036927e-01 -9.48267877e-02 +1.93295687e-01 -1.89968005e-01 +4.11556810e-02 -5.22378385e-01 -1.00138672e-01 +3.19575556e-02 +1.62182450e-02 -3.21200579e-01 -7.82846957e-02 -3.33516933e-02 -4.60865311e-02 -2.93640375e-01 -6.16598735e-03 -2.83804923e-01 -4.23607320e-01 -2.89962769e-01 -3.05872589e-01 +9.43905499e-04 +2.93109894e-01 +2.15824414e-02 -2.93946061e-02 +7.69296438e-02 +7.27316290e-02 +7.09691644e-02 -9.05186981e-02 -5.46800680e-02 -5.31420372e-02 +4.64036278e-02 -3.37399356e-02 -2.47829810e-01 -1.85494963e-02 -4.28070962e-01 +8.32430348e-02 -1.64560109e-01 -6.84130341e-02 -8.83665606e-02 +1.20720878e-01 -6.53797269e-01 -1.66889206e-02 -2.42786229e-01 +1.98263470e-02 +5.55484816e-02 +8.06899220e-02 -1.79147005e-01 -5.38997710e-01 +5.36000490e-01 -4.11930904e-02 +6.84619784e-01 +8.70365724e-02 +2.96096411e-02 -8.61922875e-02 -1.27162921e+00 +2.10470200e-01 +2.38334443e-02 -4.12026159e-02 +1.91936895e-01 -1.02599657e+00 -3.32592070e-01 +3.16416100e-02 -1.00067601e-01 -9.05996785e-02 -2.38485605e-01 -8.90694559e-01 +8.94184858e-02 -1.40328100e-02 -3.56927484e-01 +3.51457484e-02 -1.92190260e-01 -3.46323609e-01 -1.78115800e-01 -2.33609498e-01 -3.57226998e-01 +6.92345127e-02 +1.11519329e-01 +5.48277143e-03 +7.98563883e-02 -4.46154848e-02 -1.15833886e-01 +3.36032420e-01 -7.77896494e-02 -9.42373574e-02 -8.46011490e-02 +2.71813776e-02 -9.70849022e-02 -2.75405520e-03 +6.65632635e-02 -1.73909605e-01 -1.92009788e-02 -8.16011243e-03 -7.98620358e-02 -1.43645070e-02 +2.23436579e-02 -3.91517371e-01 -1.45824589e-02 +5.55966459e-02 -3.68443988e-02 +1.10272333e-01 -5.44931412e-01 +5.80200506e-03 -4.70802672e-02 -2.93134779e-01 +6.12359606e-02 -3.67315084e-01 -5.72858095e-01 -3.25135142e-01 +6.99604601e-02 +2.31560647e-01 +3.48698860e-03 +4.37452011e-02 +1.35927409e-01 +4.14336808e-02 -2.02622220e-01 +2.51716860e-02 -5.40491082e-02 -1.69445440e-01 +1.51876003e-01 +9.69936401e-02 +9.20334831e-03 +6.31076321e-02 -6.39454424e-02 -6.86942711e-02 -3.36762480e-02 -5.27526066e-03 +1.78682491e-01 -2.14086697e-02 -8.29409510e-02 -8.99152234e-02 +8.93679187e-02 -5.89723662e-02 -5.47045171e-02 +5.68408705e-02 +6.25491468e-03 +1.46888658e-01 +4.32792865e-02 +2.93763876e-02 +5.01512364e-02 -2.55037695e-02 -2.94831067e-01 +4.94636334e-02 +5.95533922e-02 +4.41079773e-02 +1.08414710e-01 +4.79887836e-02 +1.17594469e-02 +9.01614055e-02 -9.81570035e-02 -1.81578398e-02 +8.93250108e-03 +2.16801278e-03 -4.07998338e-02 +1.00402720e-01 -4.75450903e-02 -9.68558937e-02 -1.00253582e-01 +9.67318490e-02 -9.69529822e-02 +1.39952540e-01 +8.50943252e-02 -3.36438268e-02 +1.48114935e-01 +1.05768681e-01 -2.49398258e-02 -7.41482899e-02 +6.74811602e-02 +1.04252383e-01 +3.27296788e-03 +6.01345189e-02 -1.26864508e-01 -7.00396597e-02 +1.40780360e-01 +6.66408315e-02 +8.28543827e-02 -7.05391690e-02 +1.69549868e-01 +4.78229225e-02 -2.39478070e-02 -7.84371942e-02 +1.71947792e-01 +3.13416310e-02 +9.06904936e-02 -5.83603280e-03 -2.62056664e-02 -5.67865930e-02 -8.71423632e-02 -5.21339737e-02 -3.59751694e-02 -6.74054176e-02 -1.23095736e-02 -1.47659983e-03 -9.12914127e-02 -4.79734354e-02 +1.42752707e-01 +6.45467713e-02 +8.73315930e-02 +2.24844202e-01 -1.59414917e-01 +1.76500753e-02 -1.84633419e-01 -9.75937843e-02 +2.49380857e-01 -4.75952812e-02 +5.05656078e-02 +4.10259515e-02 +2.36444362e-02 -3.67715061e-02 +1.19177036e-01 +4.03870977e-02 -4.43688110e-02 +6.34550676e-02 -4.59160805e-02 -9.89129841e-02 +1.36818156e-01 -1.44383237e-01 +7.32408911e-02 +8.11887532e-02 +1.12622073e-02 -2.42415443e-01 +4.56862785e-02 -6.56501874e-02 +9.99109894e-02 -6.87393770e-02 +1.01573631e-01 -1.15558639e-01 +2.19134629e-01 +7.92761073e-02 +5.56970872e-02 -2.67455373e-02 -3.36919762e-02 -8.78604576e-02 +1.64397746e-01 -5.91043569e-02 -2.85462593e-03 -8.55651274e-02 +1.13173909e-01 +4.95757796e-02 +5.30500747e-02 +1.35636568e-01 +9.14127156e-02 +5.75279370e-02 -5.75964293e-03 -8.75591263e-02 +3.05728972e-01 -5.37051558e-02 +4.11160663e-03 +6.47760481e-02 -1.09807119e-01 -1.43321976e-02 -6.32696077e-02 +1.18900113e-01 -6.31388351e-02 +1.32092118e-01 +9.08988491e-02 +1.19513981e-01 -6.02285042e-02 +9.24190413e-03 -7.21677318e-02 +3.41562293e-02 +4.13767397e-02 -4.22077142e-02 +2.60046986e-03 -4.95237336e-02 +1.63938086e-02 +1.01486370e-01 -6.71066530e-03 +2.66188439e-02 +1.06637940e-01 +1.43811077e-01 -1.47556126e-01 +1.33926675e-01 +2.64912993e-01 -1.31182289e-02 -1.52918966e-02 -3.26840803e-02 -2.69556846e-02 -3.98942232e-02 +2.25231066e-01 +7.02445209e-02 +2.76809949e-02 +1.64829254e-01 -1.57942437e-02 +8.50009248e-02 +8.26254189e-02 +6.86804503e-02 -8.36134031e-02 +8.89927670e-02 +8.18100851e-03 +1.33830190e-01 -1.25343418e-02 +2.66659558e-02 -8.50798339e-02 -1.14904232e-01 +7.35788122e-02 +1.96935087e-02 -4.24716286e-02 +1.42463207e-01 -2.24265493e-02 +1.44851625e-01 -1.64163690e-02 -5.68353646e-02 +1.34195387e-01 +1.42220333e-02 -3.05886477e-01 -9.98834148e-03 +1.28753453e-01 -2.49017514e-02 +1.22254930e-01 -1.16822504e-01 +2.31703725e-02 -1.95167270e-02 -4.46023233e-02 -1.18749209e-01 -9.68078554e-01 +5.28370775e-02 -3.92574295e-02 -4.19371277e-01 -1.51752070e-01 +1.23110870e-02 -1.07421361e-01 -4.02064547e-02 +8.62206221e-02 +1.84320018e-03 +4.66831438e-02 +8.51874277e-02 -1.51831418e-01 -1.12244993e-01 -1.54419383e-02 +4.88482565e-02 +3.62636819e-02 -6.48894981e-02 -1.05600566e-01 -5.19670062e-02 +3.33290920e-02 -6.14901856e-02 +2.79024560e-02 -7.88726732e-02 -6.51814193e-02 -7.63439685e-02 -3.43590043e-02 -6.86083585e-02 -2.40466539e-02 -7.66055798e-03 -3.60431001e-02 +3.64264995e-02 +4.58132140e-02 +7.15883151e-02 -8.53112340e-02 -8.62578526e-02 -6.89034089e-02 -1.06354207e-01 -5.05628847e-02 +2.04292208e-01 +2.47048233e-02 +3.48942690e-02 -1.07727177e-01 -8.18164796e-02 -8.70194882e-02 +2.32100412e-02 -2.05360865e-03 -5.56724072e-02 +1.43054113e-01 -1.44266635e-01 +1.70308575e-01 -1.16777129e-01 +7.36578628e-02 +2.64577102e-03 -7.27343336e-02 -8.36870596e-02 +8.80600512e-02 -5.53838983e-02 -2.35178649e-01 +8.38921219e-03 -8.94478336e-02 -7.67232701e-02 -1.87737674e-01 -3.13166529e-02 +4.58185822e-02 -1.32456660e+00 +1.32414117e-01 +2.52061114e-02 -6.19825199e-02 -1.07330158e-02 -8.63275453e-02 +1.37924887e-02 +7.62648210e-02 +5.24338149e-02 -9.55133364e-02 -1.00598045e-01 -2.70622466e-02 +6.80548623e-02 +9.24883597e-03 +1.21108135e-02 -1.11350670e-01 +8.62589702e-02 +1.88478325e-02 +4.52760346e-02 -1.29297420e-01 -2.10294485e-01 +1.78341821e-01 -1.07855700e-01 -1.96842104e-01 +1.12297855e-01 -1.17794886e-01 +7.97478035e-02 +2.70587299e-02 -8.09478853e-03 -5.97739629e-02 -3.04819681e-02 +1.82975441e-01 +9.70808715e-02 +5.45506068e-02 -1.71654820e+00 -6.13079593e-02 -2.09976888e+00 +1.02784403e-01 +1.64216399e-01 -1.86165288e-01 +1.02170445e-01 +2.16127560e-02 +1.10693716e-01 +1.00100666e-01 -7.62754912e-03 -2.76128761e-02 +3.40311639e-02 +6.57768995e-02 +9.17422865e-03 +1.74404234e-01 +8.62536058e-02 +2.90259738e-02 -7.77491629e-02 -1.83445029e-02 +3.14629316e-01 -1.24968752e-01 +6.40572906e-02 -8.47309530e-02 +5.25522325e-03 +4.65592258e-02 -6.70148060e-02 +3.73216718e-02 -1.88077185e-02 +3.28982249e-02 -3.79844308e-02 +1.87259719e-01 -3.32172774e-02 +1.59089506e-01 -5.03924564e-02 +2.09575012e-01 +7.66083151e-02 +1.88973937e-02 -1.43595651e-01 -2.76480224e-02 -7.59201348e-02 -5.56195043e-02 -2.98483074e-01 +7.17390329e-02 -6.14834689e-02 +1.86355233e-01 -9.17924047e-02 +1.34272724e-01 +9.82554033e-02 +7.90352076e-02 -1.04155848e-02 -5.67699000e-02 -6.18841685e-02 +6.24403469e-02 -3.13702464e+00 -1.04841456e-01 -1.26574314e+00 -1.65837351e-02 +2.99032982e-02 -1.50966868e-01 +1.59229860e-01 +2.12433994e-01 -5.06659262e-02 -7.28638768e-01 +2.92448699e-02 +9.86140370e-02 +3.08669582e-02 +8.39988887e-02 -6.51891306e-02 +8.71924032e-03 -6.42193854e-02 +2.04179183e-01 +9.12920833e-02 +7.05045164e-02 -1.19795382e-01 -6.83255047e-02 -1.93995565e-01 +4.21195291e-02 +2.51728222e-02 -1.58837251e-02 +2.85958163e-02 +9.62177385e-03 +1.91729497e-02 -3.76707576e-02 -2.17479408e-01 -4.60273772e-02 +1.97279096e-01 +1.64892048e-01 -4.92078885e-02 +9.70663950e-02 -1.60962958e-02 -1.56002060e-01 -2.04350296e-02 +2.18199268e-02 +1.49373040e-02 +1.03262603e-01 +1.48441419e-01 -1.57472476e-01 +8.16289410e-02 -2.02820420e-01 +8.10239315e-02 -6.08908236e-01 +9.11748484e-02 -8.15539733e-02 +2.67577320e-01 -3.64532143e-01 -1.48848519e-01 -1.52801454e-01 -3.08708817e-01 -8.70426372e-02 -9.24681202e-02 +2.18108334e-02 -3.59162092e-02 +2.39591107e-01 -1.33102745e-01 +2.21555363e-02 +9.52059478e-02 +5.46356617e-03 +4.25155051e-02 -4.25183214e-02 -3.68455462e-02 +7.12677389e-02 +1.19819649e-01 -1.20642193e-01 -3.78279805e-01 -6.56827316e-02 -6.88316673e-02 +2.63710707e-01 -4.66282517e-01 -3.37790936e-01 +8.15023482e-02 -3.51266973e-02 -2.75195893e-02 -2.12872267e-01 +2.21595000e-02 +1.32465512e-02 +5.07104509e-02 +9.08031315e-03 -1.27697483e-01 -1.27615735e-01 -1.23300306e-01 +7.91347846e-02 -9.74551030e-03 -5.18758483e-02 -7.17744008e-02 +5.35372831e-02 -4.49728779e-02 +5.64529374e-02 -1.23038486e-01 +1.24567874e-01 -3.90224218e-01 -5.83578885e-01 -1.19384691e-01 -1.40129119e-01 -5.91849923e-01 -7.81923309e-02 +1.13314576e-02 +6.57147765e-02 -6.83856159e-02 -1.19131580e-01 +6.24370985e-02 +1.65490061e-02 +2.65717469e-02 -1.53039441e-01 -1.11923262e-01 -4.70837355e-02 -6.50748312e-02 -1.91014841e-01 +6.98026195e-02 -2.28938721e-02 -1.15534484e-01 +6.75433083e-03 +7.67657310e-02 -3.12392060e-02 +4.15567756e-02 +6.20638691e-02 +3.94333014e-03 +1.88598167e-02 +3.51267867e-02 -7.01251701e-02 -4.26243022e-02 +1.89768046e-01 -7.05492124e-02 -4.64503676e-01 -1.32112205e-01 +3.39300841e-01 +1.39352009e-01 -1.00700319e-01 +3.58274765e-02 +1.67306457e-02 +3.42911810e-01 -2.08987221e-01 -2.39215530e-02 -5.42113602e-01 -1.34928331e-01 +3.50470394e-02 +1.61997955e-02 -2.33270556e-01 -1.11194946e-01 -5.76867424e-02 -1.19620018e-01 -3.09385508e-01 -6.24606274e-02 -2.47724369e-01 -4.64579165e-01 -2.50031590e-01 -3.02877098e-01 -1.08244959e-02 +2.58136570e-01 -6.16746843e-02 -7.96398669e-02 +8.12063739e-02 -9.53580588e-02 +9.83640552e-02 +5.52560724e-02 -1.04113594e-01 +4.36713919e-02 -2.26433016e-02 -9.12281796e-02 -2.38189876e-01 +4.93763126e-02 -4.61502403e-01 +1.64826699e-02 -2.75127858e-01 -1.38897717e-01 -2.43158322e-02 +4.81744520e-02 -6.63409770e-01 +4.36071865e-02 -2.41851285e-01 +8.40891823e-02 +1.07464090e-03 +3.78121361e-02 -2.46865332e-01 -5.32487810e-01 +5.02925575e-01 +2.67370325e-02 +7.49830067e-01 +1.03726104e-01 -1.57252718e-02 -2.70847473e-02 -1.17416787e+00 +1.79122359e-01 +7.07856268e-02 +8.87098238e-02 +5.43586798e-02 -1.01671207e+00 -3.24422926e-01 +8.09170902e-02 +3.01296264e-02 -1.16531961e-01 -1.70807824e-01 -8.44571829e-01 -3.73876430e-02 +4.24061529e-02 -5.06665826e-01 -5.19605502e-02 -3.22750837e-01 -2.26093695e-01 -9.09716859e-02 -2.95910954e-01 -4.89965707e-01 +3.77339311e-02 +1.69259831e-01 -8.91553611e-02 +2.80166585e-02 +6.83426857e-02 -3.00993188e-03 +2.71344513e-01 -1.10253327e-01 -8.39122087e-02 +6.25066683e-02 +5.17956316e-02 -1.83002036e-02 -8.84839073e-02 +9.62620601e-02 -7.93866143e-02 +1.16610087e-01 -5.83917659e-04 +1.45827252e-02 +3.31388451e-02 -4.02320959e-02 -4.27481949e-01 +2.87865642e-02 +2.23357037e-01 -1.01073124e-01 +4.71795127e-02 -7.08661616e-01 -3.66176739e-02 +1.94776561e-02 -2.86062390e-01 -9.02436003e-02 -3.90573770e-01 -5.35139918e-01 -2.88928747e-01 +6.21346273e-02 +1.17647357e-01 +1.15405321e-02 -5.85444197e-02 +5.25325388e-02 +1.52968273e-01 -1.25582382e-01 +4.74468842e-02 +2.49672756e-02 -1.71440154e-01 +1.56357780e-01 +9.17052031e-02 -6.74155578e-02 +1.25515446e-01 +3.65894288e-02 +8.23564231e-02 +6.54795915e-02 -3.22256163e-02 +1.63112894e-01 +9.21274573e-02 -3.12432777e-02 +6.35649264e-03 -9.25311819e-02 -6.53321855e-03 -8.75805169e-02 -5.11896089e-02 -1.54738734e-02 +4.66805361e-02 +1.33565947e-01 +1.27097264e-01 -1.02420509e-01 +7.57569820e-02 -3.02519351e-01 +1.69147998e-02 +4.37191501e-02 +8.75237137e-02 -4.23984565e-02 -4.84431349e-02 +7.61219263e-02 +1.02696210e-01 +2.12544259e-02 +3.55333053e-02 +6.48153275e-02 +9.02533084e-02 +1.46977510e-02 +1.26289904e-01 -1.03790164e-01 -8.79508406e-02 +8.36985931e-02 -1.42797204e-02 +2.04527564e-02 +6.99280500e-02 +4.60747294e-02 -2.34790798e-02 +1.68056533e-01 +1.74652860e-01 -1.84108200e-03 +2.39733905e-02 +1.46014616e-01 +8.96548256e-02 -1.53557714e-02 -7.80084655e-02 +6.30685464e-02 -4.84596938e-02 +2.04985872e-01 -7.55482167e-02 -4.48878966e-02 +8.47359449e-02 +1.76858246e-01 -2.89615821e-02 -4.39678729e-02 -1.02391370e-01 +1.90572999e-02 +1.13109440e-01 -1.47092324e-02 +9.97116044e-02 -4.62446995e-02 +9.41378251e-02 +7.75110945e-02 -4.41883877e-02 -8.80975649e-02 -8.95448178e-02 +2.21545864e-02 -4.94419374e-02 -1.03778541e-01 +2.53076345e-04 +8.71550217e-02 +6.89690188e-02 +4.38407250e-03 +1.99286684e-01 -1.72559470e-01 +1.28080621e-01 -1.03197142e-01 -6.90793321e-02 +2.28849307e-01 -5.48010543e-02 +1.59385741e-01 +2.44734734e-02 +6.91363448e-03 +9.88854840e-02 +1.28461808e-01 +5.94218895e-02 -4.53063212e-02 +5.63225895e-03 -3.99057083e-02 -1.10069469e-01 +8.96109268e-02 -1.45002663e-01 +1.18618563e-01 +7.37157464e-02 -1.31705822e-02 -1.94472671e-01 +6.90004379e-02 -1.22930758e-01 +4.59400415e-02 -2.12965906e-02 -5.31803854e-02 -1.04764231e-01 +9.89784971e-02 -7.62559995e-02 -1.61031540e-02 +6.79197162e-02 +3.22807766e-02 +8.83665159e-02 +1.55899338e-02 +3.15408446e-02 +5.92836551e-02 -4.60030511e-02 +5.36240935e-02 -1.09154880e-02 +1.35500059e-01 +9.36607015e-04 +1.48849646e-02 +2.11982019e-02 +3.59958448e-02 +1.11478260e-02 +1.99064299e-01 -2.09734756e-02 +1.88557543e-02 -2.06242390e-02 -1.16965324e-01 +1.19995855e-01 +1.07066415e-01 +1.92641258e-01 +3.43597792e-02 +1.19371302e-01 +4.80506495e-02 -4.43487540e-02 -6.72556311e-02 +1.84351459e-01 +2.24703904e-02 +1.35415941e-01 +1.41737700e-01 -6.24057204e-02 +1.26098590e-02 +1.47261709e-01 +7.29542002e-02 -8.49556457e-03 +1.88523391e-03 -4.40697186e-02 +3.47311385e-02 -1.00355586e-02 -1.52272820e-01 -3.06985574e-03 +1.69781074e-01 +1.50447674e-02 -6.01613298e-02 -5.90267926e-02 -6.96549611e-03 -2.71421354e-02 +3.27972412e-01 +3.46101401e-03 -4.95671816e-02 +1.74409404e-01 +9.76471230e-02 +1.26951098e-01 +4.05216217e-02 -2.58329771e-02 -9.69276205e-02 +3.04331500e-02 +4.46972856e-03 +1.16726436e-01 +4.45145629e-02 -3.79036814e-02 -1.03432357e-01 -1.16367303e-01 +6.61670268e-02 -2.71571968e-02 -4.02547158e-02 +1.49338603e-01 +5.55672236e-02 +1.88813165e-01 +2.00966485e-02 +8.44094679e-02 +8.87535885e-02 -7.27749569e-03 -2.88284212e-01 +1.02998905e-01 +2.83956956e-02 -4.23410796e-02 +7.07101151e-02 -1.77829832e-01 -1.36118546e-01 +5.65286502e-02 +3.21541913e-02 -9.39204395e-02 -2.33496904e-01 +5.97779490e-02 -2.98438687e-02 -1.27736449e-01 -1.53215602e-01 -1.64472088e-02 -2.29542226e-01 -1.22264335e-02 -2.71325298e-02 +3.22987959e-02 +2.63735428e-02 +3.50779407e-02 +2.42710128e-01 -2.68185645e-01 -9.40897390e-02 -5.55641688e-02 -6.30175695e-02 -5.54432683e-02 +7.34331831e-02 +2.09667310e-02 +4.82448703e-03 -2.14881361e-01 -2.14993030e-01 -2.93007642e-01 +3.92003246e-02 -2.56392770e-02 +2.87124813e-01 -6.16242178e-02 -2.02662256e-02 -3.59814279e-02 +4.60529476e-02 +4.45352867e-02 +1.73945293e-01 +1.72645915e-02 +3.02402303e-02 +9.97858346e-02 -8.07793811e-02 -1.95714802e-01 -1.25386432e-01 -6.22036532e-02 -4.93068546e-02 +4.78419960e-02 +5.35999499e-02 +8.70524868e-02 -3.37455980e-02 -1.58572674e-01 +7.58344159e-02 +6.30540103e-02 -1.31015152e-01 -6.51820153e-02 +7.98306316e-02 -8.52947012e-02 -3.06454990e-02 +1.24903403e-01 -4.35418747e-02 +7.44912475e-02 +4.86598685e-02 +1.12926319e-01 -4.59469110e-02 +1.04495086e-01 +5.92914522e-02 +5.46522699e-02 -3.43306333e-01 +9.82115697e-03 +8.43489245e-02 -1.21581435e-01 -1.90178938e-02 -4.07523587e-02 +8.60637873e-02 -5.57034537e-02 +2.18983106e-02 +9.90682980e-04 +3.26486863e-02 +8.51927921e-02 -1.05282338e-02 -9.18012951e-03 -4.37472165e-02 +4.75306511e-02 +8.33430961e-02 +7.57806748e-02 -3.13906401e-01 -1.20578162e-01 -3.89206186e-02 +9.88728716e-04 -2.27251276e-01 -2.82660842e-01 -3.60060148e-02 -2.00236216e-01 +8.53593275e-02 -1.50931835e-01 -3.56403559e-01 -8.12615752e-02 +5.83789982e-02 +2.39179414e-02 -6.28858283e-02 -1.18753789e-02 +1.30212948e-01 -5.96921220e-02 -9.22746956e-02 -3.99473198e-02 -1.26425579e-01 -1.18551016e-01 +3.74906138e-02 +1.42317817e-01 -1.49229661e-01 -1.80695444e-01 -1.53547227e-02 -1.01404466e-01 -2.02888735e-02 +5.92992036e-03 -3.01938523e-02 -7.55181238e-02 -1.98226303e-01 -8.94505680e-02 +5.39094135e-02 -4.13580760e-02 -9.06720012e-02 -1.02079637e-01 -8.42743888e-02 +2.53199041e-02 -3.15203875e-01 -4.00463119e-02 -2.70986371e-02 +4.05907221e-02 -3.18816938e-02 -1.62394699e-02 +7.61093898e-03 -1.40952943e-02 -1.93653479e-02 -4.21457402e-02 -1.93440810e-01 +8.81134942e-02 +1.47665367e-01 -6.48458824e-02 -1.67331219e-01 -1.25383005e-01 -1.40355751e-01 -3.30166698e-01 +2.71011461e-02 -1.60135508e-01 -9.43868887e-03 -7.44392723e-02 +5.90530336e-02 -2.50269085e-01 -8.90911818e-02 +1.55586392e-01 +2.31452286e-02 -1.55168250e-01 +9.68403146e-02 -1.89020142e-01 -4.71268315e-03 +1.00948781e-01 -8.90175477e-02 -1.72117323e-01 +5.06296121e-02 -2.34924108e-01 -9.38025787e-02 -7.86125287e-02 -1.34876266e-01 +8.82645622e-02 +5.84984683e-02 +7.04891756e-02 -8.80692676e-02 +6.62273765e-02 -6.30012229e-02 -8.63264352e-02 +1.48888789e-02 +7.65143931e-02 -1.57989755e-01 -5.68857007e-02 +1.16969866e-03 +5.59476838e-02 -9.81372893e-02 -2.73368716e-01 -3.68250743e-03 -2.11609691e-01 -7.03256577e-02 -4.90929112e-02 -6.48649968e-03 +1.04806229e-01 -1.84600614e-02 +3.26155685e-02 -9.84053910e-02 +2.19728779e-02 -1.73191950e-01 +1.49342462e-01 -3.29798609e-02 +1.06477492e-01 -8.76573659e-03 -5.08748170e-04 -1.32189035e-01 -6.80250227e-02 -7.03888386e-02 -7.58844092e-02 +2.54435427e-02 -5.63523211e-02 -1.43055648e-01 -1.28800897e-02 +3.35376039e-02 -1.51978061e-01 -1.08458042e-01 -2.81863678e-02 -3.12176812e-02 -2.65499186e-02 -4.76734824e-02 +5.25681265e-02 -2.17927650e-01 +3.64099033e-02 +7.50795007e-02 +1.95527058e-02 -3.47039774e-02 +2.11639740e-02 +1.83326289e-01 -1.35082051e-01 +2.31596697e-02 -3.45511399e-02 +2.93736607e-02 -9.75469127e-02 +7.04154670e-02 +1.03415184e-01 +2.43646577e-02 -8.94646943e-02 -2.32025459e-01 -2.85664946e-01 +3.23905163e-02 -8.63905177e-02 +1.42446220e+00 -7.11176842e-02 -1.13381200e-01 -3.56408581e-02 -7.03315958e-02 -1.31045550e-01 +2.40525063e-02 -8.43751058e-02 +8.58069807e-02 -4.43205796e-02 +3.04501387e-03 -7.66500384e-02 -5.44269308e-02 -6.22235835e-02 -4.14255150e-02 +8.33718851e-02 -2.52042282e-02 -7.91700780e-02 -6.12032302e-02 -5.46005964e-02 +6.83070272e-02 +3.41169164e-02 +5.14016636e-02 -4.25542630e-02 -2.24987820e-01 -8.27118903e-02 -1.26938000e-01 -4.50483598e-02 +2.16457453e-02 +6.20492622e-02 +5.10422103e-02 -2.92983651e-02 +7.39485323e-02 -1.91480853e-02 +1.40931290e-02 +8.67099613e-02 -2.90371329e-01 +8.30627307e-02 -6.72533587e-02 +3.73834819e-01 +2.36460529e-02 -4.70383912e-02 +1.28266057e-02 -1.58021748e-01 +7.10503533e-02 +9.93928686e-03 -1.75153129e-02 +5.33912294e-02 +5.85249513e-02 -8.96349326e-02 +9.92065966e-02 -3.41389850e-02 -5.70516894e-03 +6.92257378e-03 -9.62618813e-02 -1.32198721e-01 -7.95164630e-02 +1.03156120e-01 -2.13306457e-01 -1.48838669e-01 -2.32829064e-01 -2.72494107e-01 +2.49686353e-02 -1.46125779e-01 -1.99590802e-01 -4.61219177e-02 -9.00853723e-02 -6.02606796e-02 +1.09538324e-02 -8.31048377e-03 -1.16764970e-01 -2.43415516e-02 +2.38386299e-02 +1.34881258e-01 -5.64278997e-02 -1.12856803e-02 +1.41822565e-02 -1.04809254e-01 -1.61337450e-01 -3.31221759e-01 -3.85474861e-02 -1.47910073e-01 -1.12590872e-01 +3.41104493e-02 -1.65872592e-02 -2.29169931e-02 -6.84209764e-02 +6.52490556e-02 -6.24917401e-03 -4.75234129e-02 +2.46259831e-02 +6.27373606e-02 -3.86640765e-02 -2.25900427e-01 -1.83414519e-01 -9.30603147e-02 -1.31313071e-01 -7.45095089e-02 -9.49496999e-02 +1.29367318e-02 -1.29627705e-01 +6.69858083e-02 -2.81131446e-01 +1.00028422e-02 -7.05697089e-02 -8.60758033e-03 +4.79400195e-02 -1.49018660e-01 -4.55288664e-02 -6.55918196e-02 -8.57388452e-02 -8.31997618e-02 -2.70742495e-02 -9.90524143e-02 -2.07933318e-02 +1.41998827e-01 +1.80426855e-02 -1.77866846e-01 -1.56375527e-01 -1.14577688e-01 -6.95753917e-02 -9.40386951e-03 -8.01401809e-02 -1.51235431e-01 +9.21531301e-03 -6.24930561e-02 +1.14963219e-01 +1.38206676e-01 -1.68677252e-02 -1.45427389e-02 -1.47758260e-01 -2.08999574e-01 -1.02486998e-01 -3.10384072e-02 -6.05916865e-02 -5.25573492e-02 +2.58401811e-01 -3.82569507e-02 -5.61226308e-02 +9.48834345e-02 -5.31214103e-02 +2.77924120e-01 -9.46345404e-02 -5.60146719e-02 -2.02286825e-01 +1.33512514e-02 -8.19119513e-02 -2.92756140e-01 -7.30553865e-02 -1.95894599e-01 -4.92703468e-02 +9.88237001e-03 +8.00340325e-02 +7.28440434e-02 +1.50822625e-02 -3.05339787e-02 +7.24996347e-03 +1.16082013e-01 -2.76846021e-01 +2.13008448e-02 -1.08971186e-01 -3.27287167e-02 -1.24228664e-01 +1.83479488e-02 +5.27268387e-02 -1.03159405e-01 +1.75557788e-02 -1.52339652e-01 -9.66701582e-02 +2.17559755e-01 -3.87114324e-02 -3.76072600e-02 +7.86350846e-01 +8.78057629e-02 -2.66045094e-01 -1.14047661e-01 +3.98350181e-03 -4.37931240e-01 +1.59264892e-01 +1.62726328e-01 -4.03125405e-01 +4.34788883e-01 -2.74249353e-02 +1.08292766e-01 +2.23579630e-02 +1.23297304e-01 +1.03374410e+00 -1.94279894e-01 +5.08246981e-02 +7.79867359e-03 -3.15236747e-02 -8.65960196e-02 -8.84838775e-03 +4.82905507e-02 +8.90330318e-03 -5.38802966e-02 -3.43910307e-02 -1.88989267e-01 +3.69165279e-02 -5.80526590e-02 +1.14909574e-01 +2.30876058e-01 +1.63596660e-01 +8.22682530e-02 -6.36710376e-02 -1.26746804e-01 +3.84552986e-03 +7.70541951e-02 +1.04173623e-01 +3.67488973e-02 -6.31039292e-02 +5.57168201e-03 +1.27031337e-02 +4.15797979e-02 -6.57451823e-02 -6.39857873e-02 +1.03583775e-01 +4.71508466e-02 -5.09482063e-02 +2.76766531e-02 -5.13610207e-02 +7.77404755e-02 +1.04077175e-01 +2.72962600e-01 -2.03154221e-01 -5.37344702e-02 +2.32860446e-01 +2.34608188e-01 +2.83755548e-02 +1.13098264e-01 -3.90942283e-02 +1.79182012e-02 +1.58643150e+00 +7.09004775e-02 +7.77685419e-02 -1.47099216e-02 -3.59233350e-01 +3.88184190e-02 +1.03552632e-01 +1.89476639e-01 +7.73175240e-01 +2.49170065e-01 +5.18798232e-02 +9.69018042e-02 +7.41715059e-02 +4.51691523e-02 -2.54975129e-02 -5.49002998e-02 -4.15328890e-02 -9.80356634e-02 +8.68464261e-03 -2.57949140e-02 +1.02768175e-01 -1.03724711e-02 -2.20008984e-01 +9.26422402e-02 +1.77244484e-01 +9.92438197e-01 -5.61737180e-01 -1.24955967e-01 -4.51045036e-01 -1.69815719e-01 +2.10952306e+00 -5.33449948e-01 -3.41565430e-01 +2.70102415e-02 +2.29641274e-01 +1.29661247e-01 +5.49116790e-01 +2.68074544e-03 -1.00114152e-01 -1.69516444e-01 +9.18036178e-02 +1.00235846e-02 +3.42044383e-02 -2.46330246e-01 -2.57212333e-02 -2.96254680e-02 -3.27768296e-01 -4.31053400e-01 +8.23768079e-02 -5.44529557e-01 -6.18202575e-02 +8.36788025e-03 -3.78274694e-02 +4.53551635e-02 +3.59858312e-02 -5.00756912e-02 -1.47535756e-01 +9.68827531e-02 -1.03098989e-01 -1.53507981e-02 +3.01073879e-01 -5.34344018e-01 -3.74551684e-01 +8.67599249e-02 +2.25742579e-01 +2.39268124e-01 -2.98997536e-02 +5.06836921e-02 +7.03795329e-02 +1.03236437e-01 -4.27960306e-01 +5.31125851e-02 -1.79177858e-02 +1.43173296e-04 +1.49177507e-01 -5.35021424e-02 -4.92112458e-01 +4.89466377e-02 -3.81528586e-01 -2.73773968e-02 +1.72568653e-02 -4.93332297e-02 +4.63444650e-01 +3.05511922e-01 -1.11683659e-01 -1.83056623e-01 -3.54392886e-01 +6.39243305e-01 +1.56612337e-01 -3.20832618e-02 +1.53868990e-02 +4.99021783e-02 +6.06313907e-02 +4.45600986e-01 -5.55274300e-02 +5.58828264e-02 +1.82851657e-01 +1.21605933e-01 -3.27920765e-01 -1.01424076e-01 +4.14300770e-01 -1.36830295e-02 -4.03124958e-01 -4.81250435e-02 +2.07168221e-01 +4.29044031e-02 -3.81413922e-02 -6.54646084e-02 -6.84708133e-02 +3.36926132e-01 +3.16848829e-02 -3.30830477e-02 -2.74583567e-02 -4.28075418e-02 +6.93754554e-02 -2.26542950e-01 -9.60709006e-02 -1.37914062e-01 +9.47092772e-02 +1.29833138e-02 -1.60409999e-03 +4.45822962e-02 +6.49259705e-03 +6.68936968e-02 +7.04471022e-02 +7.33260095e-01 -3.01091194e-01 +1.71551704e-01 +9.11113918e-02 +7.02036843e-02 +2.11316478e-02 +1.22838140e-01 -3.71266231e-02 +6.33727461e-02 +1.88218787e-01 -9.48677864e-03 +7.37372860e-02 -1.80001438e-01 -1.55233175e-01 +1.03341274e-01 +1.80649623e-01 -1.57982990e-01 -1.58952206e-01 +1.32322004e-02 +1.02632605e-01 -1.71249703e-01 -1.13430284e-01 -1.91110652e-03 -1.35990694e-01 +1.75095707e-01 +1.05943955e-01 +4.02164645e-02 -7.50445109e-03 -6.44761026e-02 +2.42339075e-01 -2.31062725e-01 +2.16112155e-02 +4.82888967e-02 +8.85319263e-02 -1.37938589e-01 +5.74718695e-03 -4.95104566e-02 +4.43755873e-02 -2.22440436e-01 -1.60801381e-01 -3.52206707e-01 +1.03683479e-01 -7.26922080e-02 +2.47758180e-01 +2.32095439e-02 -3.20814326e-02 -5.57810962e-02 +3.96785811e-02 +1.27955362e-01 +1.98619679e-01 -2.11615898e-02 -7.49311224e-02 +1.09920844e-01 +2.93189995e-02 -6.16861843e-02 -5.76576889e-02 -3.14466506e-02 +5.39500304e-02 +8.99106115e-02 -6.63163373e-03 -5.10405637e-02 -3.27535756e-02 -5.38918674e-02 +1.62979029e-02 +1.03660129e-01 -9.06271711e-02 +5.31125441e-02 -6.72303364e-02 -1.45952240e-01 +1.04355790e-01 -3.37108485e-02 -6.15631007e-02 +2.56258762e-03 +1.24963298e-02 -7.91262314e-02 -1.20121697e-02 -3.94092537e-02 -2.13813270e-03 -5.72633892e-02 -2.81982392e-01 -3.09790168e-02 -6.28667474e-02 -1.16689809e-01 +1.95893385e-02 +1.68152023e-02 +6.72221556e-02 -5.54345138e-02 +4.32361588e-02 +3.46301012e-02 -9.16764066e-02 +8.27175379e-02 -7.84598738e-02 +9.20779165e-03 +1.30522868e-03 +7.62677714e-02 -8.53884146e-02 -6.01113262e-03 -2.13799089e-01 -1.74371228e-01 +4.29420620e-02 +5.76420575e-02 -1.46484300e-01 -2.75407135e-01 -5.84596731e-02 -1.98597029e-01 +9.13863182e-02 -6.43267334e-02 -4.40936536e-01 +2.27382947e-02 +1.13407180e-01 +4.24128817e-03 -1.61235735e-01 -3.80200800e-03 +1.19139783e-01 +2.09938586e-02 +2.94237328e-03 -6.21363102e-03 -1.93448365e-01 -2.24459827e-01 -4.56119217e-02 +1.04691438e-01 -1.27765238e-01 -2.17371583e-01 -2.14623548e-02 -2.57390179e-02 +3.42478156e-02 +4.06442061e-02 -1.87265128e-02 +3.20115760e-02 -7.43333325e-02 +1.67044532e-02 +2.90797558e-02 -2.00627558e-02 -1.98164031e-01 +6.73966035e-02 +7.93084875e-02 -1.30850784e-02 -2.41845027e-01 +1.47091728e-02 -1.03827283e-01 -1.26392990e-01 -5.04555404e-02 -1.22717626e-01 +8.16575587e-02 -1.60335600e-02 -1.65080324e-01 +9.08481106e-02 -4.07998227e-02 -5.20344935e-02 +3.20615955e-02 -1.19368501e-01 -1.23584829e-02 -4.87572700e-02 -2.40031540e-01 -2.76923865e-01 -8.73529911e-02 -2.97262575e-02 +1.29436165e-01 -1.74505219e-01 -5.30765578e-03 -2.27382049e-01 -2.81405579e-02 +1.08990192e-01 +3.98331583e-02 +1.81170050e-02 -9.41009820e-02 -5.69037944e-02 +1.27997845e-01 +8.10956359e-02 -2.17107381e-03 -6.92851692e-02 +7.31971040e-02 -2.91521817e-01 -4.47135083e-02 -8.77382308e-02 -2.36741051e-01 +1.21176809e-01 +2.22723708e-01 +4.95962463e-02 -1.35659233e-01 -1.79390293e-02 -1.14439353e-01 +5.03382422e-02 +2.15446092e-02 +3.30450870e-02 -1.95865467e-01 -6.30604569e-03 -2.72687674e-02 -8.64913613e-02 -2.03120410e-02 -1.95289627e-01 -2.62880456e-02 -2.22333923e-01 -1.73484668e-01 -4.91241962e-02 -3.44004668e-02 +1.86202899e-01 -4.49039526e-02 -7.44551048e-02 +3.38994600e-02 -4.82204072e-02 -3.36241901e-01 +2.19616786e-01 +1.08845092e-01 -5.45446351e-02 -3.91004840e-03 -2.24204846e-02 +1.58569645e-02 -6.35906309e-02 +4.45749015e-02 +2.70602237e-02 -6.31864443e-02 -1.07341379e-01 -2.37765498e-02 -1.00017702e-02 +1.21844215e-02 -1.81615874e-01 -1.78733379e-01 -7.08382428e-02 -2.47956463e-03 -2.73884516e-02 -1.11494675e-01 -3.26200314e-02 -1.41620383e-01 -2.38723792e-02 -4.57153954e-02 +5.74680325e-03 -2.74617802e-02 +5.00524044e-02 +1.63501278e-01 -7.00130090e-02 +7.99847618e-02 +1.51519859e-02 -8.13446268e-02 -1.30340368e-01 -1.05293408e-01 +7.09178895e-02 -2.20705941e-02 -2.01861635e-01 -2.26101592e-01 -1.86859801e-01 -9.86544862e-02 +4.44417441e-04 +1.52044129e+00 +5.23477308e-02 -1.08923703e-01 +2.02178136e-02 -7.80576840e-02 +1.18772499e-02 -1.00915730e-02 -6.54282570e-02 -4.74257441e-03 +4.23516296e-02 -4.41024825e-02 -8.67344067e-02 -4.15773951e-02 -1.97078407e-01 +7.17312023e-02 -3.48859392e-02 +7.82003328e-02 -3.82579789e-02 -2.49144970e-03 -1.40508786e-01 -2.43169740e-02 +1.11535108e-02 +8.57363339e-04 -1.20232524e-02 -1.24999978e-01 -3.15942578e-02 -4.78730462e-02 -4.91879396e-02 -7.44451284e-02 +5.71282655e-02 +2.67337859e-02 +2.11825483e-02 +4.01251689e-02 +1.63645260e-02 +7.17973933e-02 +9.98123735e-03 -2.53200144e-01 -9.90516040e-03 +3.58521417e-02 +4.82330114e-01 -7.12302402e-02 +4.79601324e-02 -4.54459339e-02 -1.25968874e-01 +7.00552016e-02 -9.18344110e-02 +5.90854250e-02 -4.56752367e-02 +3.25038396e-02 +7.83278793e-02 -3.04086823e-02 +7.03038573e-02 -7.84239918e-02 -3.44073884e-02 -1.33254498e-01 -1.38872847e-01 -1.14629090e-01 +1.44085065e-01 -1.09876543e-01 -1.30304888e-01 -1.51346311e-01 -2.32047126e-01 +6.29448295e-02 -1.31456673e-01 -3.22161347e-01 -1.72123872e-02 -5.67025989e-02 -3.04726940e-02 -9.24044922e-02 -9.29964483e-02 -1.94683462e-01 -1.67558923e-01 +8.65753666e-02 -5.99396415e-04 -7.50602484e-02 +7.04550967e-02 -8.03385079e-02 -1.17959611e-01 -2.51040250e-01 -1.94369599e-01 -1.06692731e-01 +1.70779992e-02 -1.38949618e-01 -3.76282036e-02 -5.68876043e-02 +9.40084010e-02 -1.67998627e-01 -3.92020196e-02 -1.04083903e-01 +4.68169041e-02 -6.75656572e-02 +7.28564188e-02 -8.33530501e-02 -2.27506325e-01 -2.30902582e-01 -4.28479761e-02 -6.92168921e-02 +1.48165626e-02 -1.36565045e-01 -5.86091429e-02 -1.38629690e-01 -3.04530910e-03 -1.45561352e-01 -3.11657954e-02 -7.60423243e-02 +9.26714838e-02 -7.30579672e-03 -1.54357269e-01 -3.56648378e-02 -2.99486686e-02 +5.90649731e-02 -9.39704180e-02 +2.95968866e-03 -5.46269305e-02 +2.33340636e-02 +9.58245024e-02 -1.24954917e-01 -2.23552257e-01 +4.81967162e-03 -5.30009195e-02 -8.36342871e-02 -1.03223920e-01 -6.06585294e-02 -1.42224342e-01 -4.12307568e-02 +8.43986571e-02 -2.69587357e-02 +1.70115158e-01 +4.84266989e-02 +3.91541934e-03 -2.33067513e-01 -1.86136812e-01 -3.79925594e-02 -1.83156520e-01 -2.23370999e-01 -2.21828409e-02 +3.15630317e-01 -9.79880989e-02 -6.92678466e-02 +7.21664429e-02 +3.77826095e-02 +1.67389154e-01 -2.07530588e-01 -8.34716931e-02 -2.10503101e-01 +3.02448459e-02 +8.95991102e-02 -2.16397345e-01 +3.76160070e-03 -9.51717868e-02 -6.62941262e-02 -8.94191787e-02 +7.67962933e-02 -8.35286081e-02 -1.02891542e-01 -9.47159231e-02 +5.16548231e-02 +1.49462633e-02 -2.28580415e-01 +6.04427569e-02 -1.59591198e-01 +1.62503123e-02 -1.80698410e-01 -1.10130593e-01 +6.90256953e-02 -3.40066268e-03 -1.00170225e-01 -6.82321489e-02 -8.02507252e-03 +1.64465025e-01 -4.13762778e-02 -9.04813036e-03 +7.30904937e-01 -4.81780060e-02 -3.47117007e-01 +1.89770684e-02 +6.44223690e-02 -5.27368426e-01 +2.03385770e-01 +1.17335878e-01 -2.39960149e-01 +3.40715617e-01 +3.64128277e-02 +1.70617625e-02 +7.93324634e-02 +6.03458919e-02 +1.14581203e+00 -1.14103295e-01 +9.45484936e-02 -4.34943847e-02 +2.31400710e-02 -1.82526097e-01 +3.03095803e-02 +8.54661688e-02 -1.74514297e-02 -1.20148487e-01 -1.06126949e-01 -1.65795907e-01 +8.95146057e-02 -3.54230292e-02 -3.02675390e-03 +1.40501142e-01 +7.83220306e-02 -9.06118080e-02 +8.91689956e-02 +3.26154046e-02 +5.76299010e-03 +1.92118119e-02 -6.34654984e-02 +1.03763351e-02 -4.08918038e-02 +6.93930686e-03 +6.97345361e-02 +4.96391617e-02 +9.08872336e-02 -8.00586492e-02 -6.10314421e-02 +3.58193107e-02 -4.48092856e-02 +8.47251713e-02 -5.62822931e-02 -4.36935225e-04 +2.41530910e-01 +1.53543547e-01 -1.33640453e-01 -1.45402804e-01 +9.85964313e-02 +1.14851438e-01 -5.53371990e-03 -1.84016919e-03 +5.99272437e-02 +4.76625673e-02 +1.63132215e+00 -3.45954224e-02 +1.50928851e-02 +9.29717347e-02 -2.64997900e-01 -4.49407287e-02 -5.36592975e-02 +1.47910476e-01 +7.62510002e-01 +2.37535164e-01 -5.72470576e-02 +1.43410470e-02 +9.44012254e-02 +6.60129711e-02 +8.41977075e-02 -3.55385691e-02 +7.86445811e-02 -6.02972247e-02 -3.32863405e-02 -7.92420432e-02 +4.28313911e-02 +7.59871602e-02 -2.95840681e-01 -5.52387685e-02 +1.54655725e-01 +1.02578592e+00 -4.82529581e-01 -5.15538044e-02 -4.26685452e-01 -2.42047891e-01 +2.03042459e+00 -5.50354779e-01 -2.97312200e-01 -7.05655217e-02 +1.45519927e-01 -3.76865380e-02 +5.56585312e-01 -6.73710927e-02 +5.94164133e-02 -2.41780609e-01 -2.99205892e-02 +1.88630715e-01 -1.80772785e-02 -1.93095341e-01 +5.76003967e-03 +1.68269590e-01 -2.56097287e-01 -6.01076305e-01 +8.28408673e-02 -4.42058533e-01 -5.65379672e-02 +7.32286423e-02 -3.77254225e-02 +1.15437053e-01 +9.14338902e-02 +2.18105279e-02 -1.95545144e-03 +8.93799365e-02 -6.61767796e-02 +6.38379753e-02 +1.09008856e-01 -7.04551399e-01 -3.28177273e-01 +1.08453944e-01 +2.31841028e-01 +1.82900891e-01 -2.29378492e-02 -2.71541160e-02 +3.61084826e-02 +5.83401835e-03 -4.29852486e-01 +1.03430420e-01 +1.03049800e-01 +8.42837244e-03 +1.13293685e-01 -8.79041702e-02 -4.56958234e-01 -1.51998186e-02 -5.43119609e-01 +5.08630241e-04 -9.91372541e-02 -1.17276609e-02 +4.13923711e-01 +2.10142732e-01 +5.39957136e-02 -7.94798508e-02 -4.15923625e-01 +5.21390498e-01 -1.53926136e-02 -7.37324059e-02 +6.61564767e-02 +4.83017750e-02 +2.03724995e-01 +2.53132343e-01 -1.66190453e-02 +1.31277710e-01 +1.16293594e-01 -3.83509733e-02 -2.75663763e-01 -8.24203864e-02 +3.96900624e-01 -5.88552728e-02 -3.85799527e-01 +2.51422226e-02 +1.99967459e-01 +3.16356868e-02 +1.41709134e-01 -3.66142243e-02 +8.03937986e-02 +3.27636302e-01 -1.62294388e-01 +2.46991012e-02 +2.20346116e-02 -6.76322952e-02 +4.56221253e-02 -1.57232240e-01 -5.41524738e-02 -1.59410700e-01 -1.08748741e-01 -6.67229295e-03 +8.80621448e-02 -1.80010162e-02 -1.23258367e-01 +1.62130967e-01 -4.79432680e-02 +7.26890802e-01 -3.29151750e-01 +2.57294625e-01 +4.35802154e-02 -3.81521918e-02 +4.08224948e-02 +1.25826523e-01 -1.63376987e-01 +2.33478248e-01 +2.06004247e-01 +1.31999061e-01 +9.03313756e-02 -1.29964501e-01 -1.14865206e-01 +3.51039357e-02 +1.46965891e-01 -1.91351622e-01 -2.57116348e-01 -6.07625209e-02 +4.96921539e-02 -1.45644307e-01 +4.40161712e-02 +2.49324106e-02 -8.80066454e-02 -1.15265232e-02 +6.09891638e-02 -8.00028220e-02 -5.40809669e-02 -8.95269513e-02 +9.43285227e-02 -2.19950005e-01 -3.74881290e-02 -6.29337952e-02 +1.03270769e-01 -9.89835411e-02 +3.61279724e-03 +3.77025045e-02 +1.20830648e-01 -6.98540658e-02 -2.08810285e-01 -2.25844234e-01 -4.28595506e-02 +2.89796777e-02 +3.00872207e-01 +9.38368514e-02 +9.30317417e-02 -5.42914029e-03 -9.34427008e-02 +6.61712587e-02 +2.23801792e-01 -1.67211723e-02 +1.01712950e-01 +1.08033545e-01 +3.70228104e-02 -1.71787232e-01 -1.01079851e-01 +1.39061138e-01 -5.44894673e-02 -5.92285022e-02 +7.01269433e-02 -3.33640352e-02 +9.55666900e-02 +1.84437435e-03 +1.03076451e-01 +5.21992007e-03 -1.15450686e-02 -3.35534215e-02 -5.87753579e-02 -2.13540178e-02 +7.83574134e-02 +6.96826950e-02 -8.19899961e-02 -3.16833816e-02 +1.63583867e-02 +7.83588290e-02 +1.36894554e-01 +9.40576047e-02 +9.84504819e-02 -4.33386564e-02 -2.37599239e-01 +7.49001205e-02 -7.94257373e-02 -5.36891930e-02 -3.53041366e-02 +2.10041963e-02 +7.74283260e-02 +1.94545649e-03 -9.52133313e-02 +1.05428189e-01 +5.58460094e-02 -1.07934428e-02 +5.43097332e-02 -8.00892860e-02 +7.57335406e-03 +1.02623604e-01 +4.49327938e-02 +7.25018457e-02 -2.87762582e-01 +2.15966199e-02 +7.51148909e-02 -1.74592175e-02 -2.98324436e-01 -2.45721981e-01 -1.48677854e-02 -2.69252241e-01 +4.01247032e-02 -1.63672552e-01 -2.40071476e-01 -1.12235330e-01 +1.50601983e-01 +3.54308262e-02 -5.62075712e-02 +6.53320625e-02 +8.64309222e-02 -6.43425658e-02 +3.98340859e-02 -1.24053277e-01 -1.72274336e-01 -2.15946764e-01 -6.76411092e-02 +7.29670674e-02 -2.29961067e-01 -7.73603916e-02 +2.00970862e-02 -2.57974602e-02 -1.40908241e-01 +7.57887140e-02 -1.26294658e-01 -5.35313822e-02 -1.76612530e-02 +1.14522707e-02 +1.04493119e-01 +9.15058926e-02 -1.19658485e-01 -6.61523119e-02 +4.61587086e-02 -1.35190606e-01 -1.68136045e-01 +2.29459628e-02 +2.92528048e-02 +4.25295644e-02 +6.08452298e-02 -1.42691821e-01 +9.26418528e-02 +7.97203407e-02 -1.48950323e-01 -1.18709123e-02 -1.12742841e-01 -2.11850684e-02 +1.43482774e-01 +6.37840852e-03 -1.36256874e-01 -1.26821041e-01 -1.59365281e-01 -1.56031176e-01 +9.11170095e-02 -1.02957385e-03 -4.13942374e-02 -6.02408089e-02 -2.77109817e-02 -1.63336664e-01 +2.52267215e-02 +7.61941522e-02 +2.69143023e-02 +2.42816079e-02 +7.50047415e-02 -1.17506273e-01 +5.86068928e-02 -4.74996343e-02 +5.46833016e-02 -1.76462680e-01 +9.37810242e-02 -2.85883695e-01 -1.99261323e-01 -2.36547723e-01 -2.53904730e-01 -8.71453155e-03 +2.52292246e-01 +5.50538860e-02 -2.23485306e-02 +1.37918014e-02 -1.40975207e-01 -3.43461558e-02 -1.08892828e-01 +6.06265441e-02 -1.49446785e-01 +3.39676365e-02 +1.37850279e-02 +9.64736491e-02 +2.72418112e-02 -3.02427232e-01 +8.03508610e-02 -2.85556197e-01 -1.21255584e-01 +9.24724340e-02 +2.77111051e-03 +1.89082418e-02 -8.50831270e-02 -1.15430541e-01 -4.33006324e-02 -2.63328403e-02 -2.30497777e-01 +2.26262018e-01 -2.74846945e-02 -5.02714999e-02 -6.76084608e-02 +7.52575547e-02 -9.29750130e-02 -8.06373507e-02 -3.83987613e-02 -8.19610730e-02 +6.00112975e-02 +1.24562576e-01 -1.53698891e-01 -1.73694380e-02 -9.95768681e-02 +5.71995750e-02 -4.79445785e-01 -1.13047391e-01 -8.11459422e-02 +3.42732877e-01 -3.40074390e-01 -2.94694334e-01 -1.87106445e-01 -3.21893245e-01 -9.93901193e-02 -2.87783872e-02 -5.49716949e-02 +6.94817118e-03 +1.19279295e-01 -1.20566130e-01 -9.12217945e-02 +8.44644383e-02 -1.01243697e-01 -7.51958266e-02 -8.76628384e-02 +1.26509145e-02 +1.01184081e-02 +1.16004713e-01 -1.81792527e-01 -2.73594767e-01 -8.29716623e-02 +3.89724150e-02 +2.81343341e-01 -4.21815217e-01 -3.23166400e-01 +3.12121939e-02 -8.45478848e-02 +6.31979406e-02 -2.67891437e-01 +6.88093603e-02 +2.80893203e-02 +9.37193558e-02 -3.77027551e-03 -1.90383866e-02 -2.03921899e-01 +1.32221519e-03 +1.97382234e-02 -6.25199676e-02 -4.63349149e-02 -9.07384977e-02 -6.44140691e-02 +6.30669966e-02 +8.27912688e-02 -9.96564925e-02 +1.80343270e-01 -5.05477369e-01 -4.44148302e-01 +4.08847407e-02 -1.78548917e-01 -4.65809584e-01 -7.77917802e-02 -7.40446448e-02 +2.32900176e-02 +6.68197572e-02 -1.73728183e-01 -3.19965146e-02 -1.05699219e-01 -6.38360009e-02 -1.44873947e-01 +8.56542364e-02 -7.48059377e-02 -5.34151159e-02 -2.46505842e-01 +1.98671557e-02 +4.06077169e-02 -1.35950506e-01 -2.35441308e-02 -8.81693363e-02 +6.11266531e-02 -1.58798844e-02 -3.03943381e-02 +2.90703792e-02 +2.36996002e-02 -3.94151472e-02 -8.76700208e-02 +4.32098918e-02 +1.87215269e-01 -7.00070783e-02 -4.63861108e-01 -1.21430136e-01 +1.53850168e-01 +1.68760732e-01 -1.24790102e-01 +2.62076780e-02 +3.62863168e-02 +3.22691798e-01 -1.40995249e-01 -8.04562792e-02 -4.28250015e-01 -1.40844896e-01 -1.01601807e-02 +8.93169567e-02 -3.03803623e-01 -8.62589106e-02 -3.21695805e-02 +5.63098751e-02 -2.29474217e-01 +3.35571580e-02 -1.81305349e-01 -5.43748975e-01 -1.87462091e-01 -3.46535027e-01 +5.00450656e-02 +2.39452019e-01 -6.47385344e-02 -5.88588864e-02 -4.51080035e-03 -3.71903256e-02 +1.12738058e-01 +1.99269000e-02 -1.42735481e-01 -1.14198336e-02 -1.86403058e-02 -5.42923324e-02 -2.21739501e-01 -5.17350473e-02 -4.19529796e-01 -1.41796237e-02 -3.17518771e-01 -2.27986842e-01 -6.77696913e-02 -9.64613445e-03 -5.45484245e-01 +5.36355947e-04 -2.71692276e-01 -2.97284555e-02 +9.94791389e-02 -5.13022654e-02 -3.10386926e-01 -6.77830577e-01 +4.30657208e-01 +9.47889313e-02 +7.56865501e-01 -3.55444849e-03 -3.29550763e-04 -3.34117636e-02 -1.23068976e+00 +1.30711660e-01 +9.68319848e-02 -8.88187811e-03 +1.55035183e-01 -1.02245545e+00 -4.20811266e-01 +3.02519929e-02 -4.05783094e-02 +3.97000536e-02 -2.85344809e-01 -7.45985389e-01 +1.37921674e-02 -8.57873783e-02 -5.03663778e-01 +1.30558535e-02 -2.80272186e-01 -3.40273470e-01 -2.11769253e-01 -2.22589374e-01 -3.65256578e-01 -5.54703362e-02 +8.45690146e-02 +3.87394093e-02 +9.76696014e-02 +5.09671867e-02 +3.93622220e-02 +3.27101618e-01 -6.96313456e-02 +4.19088341e-02 -1.39607877e-01 -4.80089337e-02 -5.13964221e-02 -6.87791854e-02 +9.03816690e-05 -1.09887712e-01 -6.55242726e-02 -1.07167535e-01 +5.92602305e-02 -8.19771588e-02 -7.47404024e-02 -3.46404016e-01 -1.07965216e-01 +2.19718874e-01 -4.90013547e-02 +1.80983674e-02 -5.73220432e-01 +5.75396568e-02 +1.31944260e-02 -1.92239568e-01 -1.08431861e-01 -3.80382329e-01 -5.32863677e-01 -2.27038920e-01 +3.48032787e-02 +2.06346899e-01 +1.27006933e-01 -6.24511801e-02 +5.18890172e-02 +2.16557346e-02 -1.30251646e-01 +1.20144144e-01 +2.83670705e-02 -1.25410035e-01 -3.07323113e-02 +9.39595476e-02 -8.83471668e-02 +1.16050787e-01 -4.30771559e-02 -8.22818372e-03 +6.92895576e-02 +9.67587978e-02 +1.29287809e-01 +5.58642596e-02 +4.10713069e-02 +4.82889684e-03 +2.40161573e-03 +5.06883040e-02 -3.57785560e-02 -1.42213879e-02 +3.58290002e-02 +1.84519328e-02 +5.32244295e-02 +1.23457283e-01 +3.01797241e-02 +7.81050473e-02 -4.24633086e-01 -5.10862842e-02 +8.29570666e-02 -7.90523216e-02 +1.00940950e-01 +4.62947190e-02 -5.18223383e-02 +2.16496456e-02 +2.99432948e-02 +5.98689821e-03 +1.14395320e-02 +7.89189041e-02 +6.31502867e-02 +5.38323708e-02 +6.10509049e-03 -9.78843495e-02 -8.94638449e-02 -2.70523205e-02 -6.38655797e-02 +1.30118746e-02 +6.91339746e-02 -6.13935292e-02 +2.25183189e-01 +1.09936655e-01 -1.76881868e-02 -4.97192740e-02 +5.16658947e-02 -1.90772824e-02 -6.90138265e-02 -8.16112384e-02 -1.13055490e-01 +5.62034622e-02 +7.63764232e-02 -1.03799500e-01 -6.97670132e-02 +3.13634202e-02 +1.89577967e-01 +9.20512006e-02 -1.05699403e-02 -2.78412968e-01 +3.85425240e-02 +1.81174308e-01 -8.81103724e-02 +9.43579432e-03 +5.50405942e-02 -6.83585880e-03 +9.50289071e-02 +2.14627404e-02 +6.44461215e-02 -2.12404337e-02 +6.38960600e-02 +7.12491646e-02 -1.04117207e-01 -1.45555213e-02 +7.91466236e-02 +1.16811678e-01 +1.29265234e-01 +2.43411571e-01 -7.01005310e-02 +1.01802923e-01 -1.98566526e-01 +1.78127382e-02 +2.01737687e-01 -7.75980204e-02 +2.78230160e-02 +7.39884079e-02 -5.31390356e-03 +9.93859172e-02 +9.43164602e-02 +5.00434637e-02 +2.35351212e-02 -6.70402646e-02 +5.62109277e-02 +2.59086993e-02 +1.22396283e-01 -1.85307115e-02 +1.42700016e-01 -7.35005224e-03 +6.45534396e-02 -1.66559532e-01 +1.59726679e-01 +4.55204025e-02 +1.13982596e-01 +7.09296316e-02 -2.67896410e-02 +4.99799177e-02 +1.79613590e-01 -9.10990406e-03 +1.10432848e-01 +7.80155212e-02 +6.21150546e-02 -1.00782946e-01 +1.21875137e-01 -8.76432508e-02 -5.75527400e-02 -3.82249169e-02 +1.36875555e-01 +1.13720395e-01 +4.35051322e-02 +1.81110129e-01 +1.28198564e-01 -4.14562859e-02 +3.94184180e-02 +5.08274175e-02 +2.05135733e-01 +6.33201376e-02 +2.24390160e-02 +1.01263963e-01 -1.18104443e-01 +6.83553442e-02 -3.09129599e-02 +7.06014559e-02 -9.73346923e-03 +1.36306569e-01 -3.00950073e-02 +1.56259403e-01 +4.07270789e-02 -6.67279214e-03 -8.85734428e-03 +1.43767670e-01 +6.95459321e-02 +2.18398366e-02 -9.67675969e-02 +3.40356305e-02 +3.84689197e-02 +8.03694576e-02 +1.96341351e-02 -4.87420857e-02 +1.20401546e-01 +1.07436001e-01 -8.53628814e-02 +1.24716973e-02 +2.20582023e-01 -1.68121886e-02 -5.70753776e-02 +9.59611312e-03 +1.26859546e-01 +1.24030365e-02 +2.11153060e-01 -6.74880296e-02 +1.04716375e-01 +3.67996506e-02 +1.52961940e-01 +9.54575539e-02 -9.16741882e-03 +4.71270047e-02 -4.19162810e-02 +1.62020937e-01 -9.68226418e-02 +9.44503918e-02 +1.01566724e-01 +9.60170478e-02 -8.21581408e-02 +8.13508332e-02 +1.49876429e-02 +3.98176983e-02 -2.25376152e-02 +1.87166199e-01 +3.13642956e-02 +1.82322234e-01 +4.35842276e-02 +2.26338375e-02 +1.79370120e-01 +1.34837732e-01 -1.98604003e-01 +3.70382108e-02 +1.13757946e-01 -2.18208525e-02 +1.26575127e-01 -1.80207148e-01 -1.12759680e-01 +8.50839540e-03 +1.43875614e-01 -2.65783817e-01 -2.66297430e-01 -9.96608287e-02 +1.56418607e-02 -2.74401337e-01 -9.78762135e-02 -1.02851950e-02 -9.23036784e-02 +1.31274611e-01 +3.67737152e-02 +2.45310124e-02 -4.25337888e-02 -1.87808890e-02 +1.24202766e-01 -2.25306034e-01 +7.38263950e-02 -8.62956643e-02 -5.15607223e-02 +1.82343498e-02 +1.10256687e-01 -6.00203648e-02 -5.96594624e-02 -1.58612430e-01 -2.91376531e-01 -2.49189928e-01 -5.21069625e-03 -5.69112748e-02 +3.56226265e-01 +1.36763692e-01 +6.54344931e-02 -6.64024353e-02 -4.11861241e-02 -6.89397380e-03 +2.08948612e-01 -7.13582262e-02 +4.40696739e-02 -4.56289127e-02 -9.26946383e-03 -6.04143701e-02 -8.74640867e-02 +3.55166197e-02 -9.52877179e-02 +5.36776474e-03 +7.24886656e-02 -7.95658380e-02 +3.33427154e-02 -2.68404782e-02 +6.19515739e-02 -4.06933650e-02 -3.31564583e-02 +2.82478868e-03 +2.17921454e-02 -1.49467841e-01 +1.40251279e-01 +1.14552759e-01 -6.71691522e-02 -4.49631326e-02 +9.70413312e-02 +1.40198842e-02 +1.39692143e-01 -2.14909017e-02 +7.49695227e-02 -3.27841192e-02 -2.07403049e-01 -5.50025813e-02 +4.00299728e-02 +5.67940399e-02 +1.81787070e-02 -2.25780625e-02 +9.17139351e-02 -1.00233108e-02 -1.37331085e-02 -5.14373668e-02 +6.36633337e-02 -2.82365680e-02 +1.09337725e-01 -7.40634799e-02 -8.35266784e-02 -1.43851910e-03 +1.05853476e-01 -2.00646855e-02 -3.14413249e-01 -1.63675547e-01 +3.88846099e-02 +9.54921320e-02 -3.00571173e-01 -3.56015235e-01 -5.78427985e-02 -1.43833861e-01 +6.55823648e-02 -3.71378660e-02 -2.60831863e-01 -1.13010310e-01 +1.04162738e-01 +3.17700095e-02 -1.14165626e-01 +9.42647550e-03 +5.57429902e-02 +1.64846405e-02 +8.66064653e-02 -1.61742315e-01 -1.61039174e-01 -2.79816836e-01 -9.07804072e-02 -1.12106288e-02 -1.63499549e-01 -2.15432718e-01 -7.27133304e-02 -1.08285819e-03 +5.38818054e-02 -1.00942887e-01 -1.52341694e-01 -5.40025532e-02 -4.31961194e-03 -8.01690817e-02 +5.18613718e-02 +1.09797195e-01 -1.05649292e-01 -1.53269926e-02 +5.70286997e-02 -3.96812111e-02 -2.75863111e-01 +3.89457531e-02 +6.99797943e-02 +1.21404603e-02 -9.20300931e-02 -1.63221985e-01 -4.55731899e-02 +9.40978602e-02 -2.31215172e-02 +9.70152300e-03 -1.39342561e-01 +3.75823788e-02 +1.04748748e-01 -2.81571038e-02 -5.03878519e-02 +3.44513021e-02 -3.04839522e-01 -2.93617427e-01 +7.71989971e-02 -1.32032081e-01 +1.33999944e-01 -1.07504576e-01 +4.99344617e-02 -1.72013760e-01 -7.21335411e-02 -1.44089116e-02 +8.29391181e-02 -1.40307933e-01 +4.11982788e-03 -2.33847752e-01 +1.81916431e-02 +7.74235502e-02 +9.97908972e-03 -1.33241460e-01 +1.86901574e-03 -2.92108923e-01 -8.41488242e-02 -1.33240402e-01 -1.35735765e-01 +1.09866038e-01 +1.52853295e-01 -3.54737556e-03 -8.07987452e-02 +1.70818785e-05 -1.73410818e-01 -4.78162691e-02 -2.27975249e-02 -6.27160817e-03 -2.20325559e-01 -2.11578216e-02 +1.54737290e-03 -3.56635265e-02 +3.50623727e-02 -3.35551947e-01 -5.34592196e-02 -2.61942029e-01 -1.75806791e-01 +9.67456475e-02 +5.46604171e-02 +1.85850069e-01 +7.70202326e-03 +6.13729581e-02 -9.69225019e-02 -3.11227306e-03 -3.60532135e-01 +1.86484829e-01 +4.02388684e-02 -6.04697177e-03 -1.88516155e-01 +4.94928844e-03 -1.46507859e-01 +1.23199746e-02 -8.23414549e-02 -7.71530811e-03 -1.03100520e-02 -4.21943702e-02 -1.61129102e-01 -5.44705950e-02 +1.03003412e-01 -1.74119636e-01 -2.68759042e-01 -5.52024953e-02 -2.11496372e-02 -1.34471551e-01 -1.45929083e-01 -1.26217008e-02 -2.61074185e-01 -5.81835955e-02 +5.04175611e-02 +7.04628602e-02 +1.61691681e-02 -1.11483172e-01 +2.60592729e-01 -1.47800177e-01 +1.85894500e-03 +6.96393102e-02 -5.71360104e-02 -1.56846493e-01 -4.89463508e-02 +1.94209497e-02 +5.25404178e-02 -3.53692397e-02 -1.01176880e-01 -1.69785365e-01 +5.65341711e-02 +2.61269584e-02 +1.47820401e+00 -1.46790475e-01 +1.86352041e-02 -4.75862399e-02 +3.53508517e-02 +1.16364174e-02 +7.13547394e-02 -4.23628688e-02 +1.92955881e-02 -5.15832566e-02 -8.52682069e-02 -1.96720764e-01 -4.96548265e-02 -1.30212158e-01 +7.09685439e-04 -4.03506905e-02 -2.41556894e-02 -2.72081308e-02 +8.03967714e-02 -8.92218649e-02 +5.91248460e-02 +1.42948842e-02 +4.49287556e-02 +5.21440171e-02 -1.27241999e-01 -1.81056067e-01 -2.71428823e-02 -1.19469337e-01 +5.50765879e-02 +1.07136518e-01 +5.52760102e-02 +4.00404781e-02 -2.88733132e-02 -3.50055695e-02 -9.99701768e-02 -1.93213541e-02 -2.94560283e-01 -9.02009681e-02 -9.15541872e-02 +3.71767730e-01 -1.01553760e-01 +9.74332634e-03 +9.06991735e-02 -1.72845691e-01 +2.49556676e-02 +7.61669874e-02 +3.69744413e-02 +9.73323286e-02 +2.61522038e-03 +9.88058820e-02 -3.15791316e-04 -8.11202377e-02 +7.57065341e-02 +1.11999594e-01 -2.13882864e-01 +4.83174622e-03 -5.02447300e-02 +9.14504603e-02 -5.17768487e-02 -2.44779084e-02 -4.69572172e-02 -1.65605754e-01 +1.44044816e-01 -1.31554455e-01 -3.93524557e-01 +9.30172578e-03 +6.01257235e-02 -7.62340352e-02 -7.90341720e-02 -3.85995507e-02 -1.69716984e-01 -1.72665313e-01 +3.22365910e-02 +6.92720786e-02 -6.50974140e-02 -1.37295974e-02 +2.55207773e-02 -1.58644930e-01 -2.26720974e-01 -2.86776483e-01 -1.32679135e-01 -1.44981205e-01 -5.26510924e-02 -4.31076102e-02 -5.68288341e-02 +4.76496294e-02 -8.92811716e-02 +5.13424426e-02 -1.89593181e-01 -1.80771276e-02 -4.90426272e-02 -5.16053624e-02 -1.00953199e-01 -2.61026591e-01 -1.41271725e-01 -7.75055587e-02 -1.07635364e-01 -1.07319420e-03 -1.20080680e-01 -8.00891295e-02 -1.31846204e-01 +2.12556906e-02 -2.10187584e-01 -2.89164409e-02 -2.43249178e-01 +5.53095937e-02 -1.13044620e-01 -8.53099003e-02 -8.51311162e-02 -8.03843290e-02 -5.92881814e-02 -7.58991688e-02 +3.05131320e-02 -1.16616227e-01 -8.11041296e-02 +9.75705907e-02 -1.13077298e-01 -1.66098282e-01 -2.85019306e-03 -5.81874326e-02 -1.31704658e-01 -4.85152937e-02 -7.44725689e-02 -6.06503934e-02 +3.29829264e-03 +5.66742979e-02 +4.99664359e-02 +2.04113722e-02 -9.36810896e-02 -1.18174672e-01 -1.92758277e-01 -6.98514581e-02 -6.60697892e-02 -1.51261151e-01 -1.31741151e-01 +1.60622019e-02 +3.47140431e-01 +1.07840016e-01 -1.86652899e-01 +4.59173881e-02 +8.23231973e-03 +8.89834911e-02 -7.36924559e-02 -5.93360960e-02 -9.09318700e-02 -1.78053696e-02 +6.15181141e-02 -2.76924700e-01 +5.24249524e-02 -1.57780871e-01 -1.06233701e-01 +6.82667270e-02 -4.61497754e-02 +4.56724688e-02 -8.86949524e-02 +2.72589941e-02 +7.85425678e-02 -3.13654728e-02 -1.44556165e-01 -9.79626700e-02 -1.25913665e-01 -5.70974387e-02 +1.04995517e-04 -1.48034900e-01 -6.74519911e-02 -2.27516424e-02 -4.56809215e-02 -4.51948717e-02 -6.91589958e-05 +9.69811454e-02 -5.58059961e-02 +6.83627650e-02 +6.63897336e-01 +5.77276200e-02 -3.83263409e-01 -7.92875811e-02 -7.96589628e-02 -4.73227620e-01 +6.84958622e-02 +2.86762834e-01 -2.49513730e-01 +3.74085397e-01 -9.48577002e-02 +5.98062649e-02 -4.27107476e-02 +1.17701359e-01 +1.03469920e+00 -2.12858632e-01 +7.60010108e-02 +8.84853601e-02 -2.48155626e-03 -2.02473849e-01 -5.13060391e-02 +1.11113906e-01 +9.02509093e-02 -1.29381850e-01 -1.73402607e-01 -9.90922675e-02 +6.57163784e-02 -8.64438936e-02 -2.02509272e-03 +1.42249182e-01 +1.73873991e-01 -4.06671762e-02 -2.24027205e-02 -6.20000735e-02 +1.52003631e-04 -5.57029285e-02 +6.73327595e-03 -5.42114489e-02 +1.84297301e-02 +2.02142075e-02 +2.96749733e-02 +3.52366716e-02 +9.39610898e-02 -3.02794054e-02 +3.11501622e-02 +8.04786943e-03 +9.31690559e-02 +7.89584294e-02 +2.15069801e-02 +3.80347855e-02 +9.83646065e-02 +1.89230606e-01 -5.78135774e-02 -1.23747699e-02 +1.45464271e-01 +1.98860556e-01 +1.28346356e-02 +3.41670588e-02 +8.63989536e-03 -2.92376004e-04 +1.56908858e+00 +2.40267180e-02 -5.58761135e-02 -6.27821535e-02 -2.61866152e-01 -3.55250500e-02 +2.05748975e-02 +2.24587321e-01 +6.19819224e-01 +2.81841844e-01 -8.75061750e-02 -9.14336815e-02 -4.26494740e-02 -7.71314204e-02 +1.73229165e-02 +9.23578441e-03 -5.83351851e-02 +3.57037559e-02 -8.12161192e-02 +6.29296526e-02 -1.17579950e-02 +9.46821943e-02 -2.68801600e-01 -3.54078300e-02 +2.28941232e-01 +1.10794270e+00 -5.10695934e-01 -1.86700940e-01 -4.21713412e-01 -2.10217699e-01 +2.13875723e+00 -5.83078742e-01 -2.42542833e-01 -3.24273519e-02 +2.20123753e-01 -3.06482352e-02 +6.08414054e-01 +1.10140681e-01 +2.35819090e-02 -2.45506838e-01 +8.06732401e-02 +5.49444295e-02 +4.11376283e-02 -1.72353506e-01 +6.08257055e-02 +1.55848831e-01 -4.14163530e-01 -4.68476057e-01 -2.63619740e-02 -5.41458547e-01 -8.67477618e-03 -9.60274041e-02 -2.04744954e-02 -4.57394309e-02 +1.39736861e-01 +4.35112230e-02 -1.03667013e-01 -3.59136611e-02 -5.60559891e-02 -5.05429804e-02 +1.58956513e-01 -6.09688342e-01 -3.11035335e-01 -1.15033807e-02 +5.00882901e-02 +1.34023800e-01 +5.89542557e-03 +5.67737743e-02 +1.06198527e-01 +9.31771100e-02 -3.03484112e-01 -9.86813679e-02 +1.09954111e-01 -3.97773832e-02 +1.76727727e-01 +9.73947346e-02 -5.44448137e-01 -4.31213230e-02 -3.77277851e-01 -7.44574592e-02 -1.05179302e-01 -3.89680266e-03 +3.82934332e-01 +3.06353241e-01 +4.41578217e-02 -1.60991475e-01 -4.98451501e-01 +5.18854737e-01 +1.27103463e-01 -2.24616546e-02 +4.69380654e-02 -1.15989864e-01 +3.64055447e-02 +2.74395704e-01 -3.93199325e-02 -1.21476054e-02 +1.06124662e-01 +6.40643016e-02 -2.31495053e-01 -9.49518085e-02 +4.66973424e-01 -1.86545756e-02 -2.97848254e-01 +1.85872000e-02 +2.83101946e-01 -9.62435603e-02 +1.20690353e-02 +5.19610681e-02 +1.74954385e-02 +3.20864558e-01 -3.46115306e-02 -8.16304423e-03 +7.41833763e-04 +9.55775455e-02 -9.85738710e-02 -1.36759102e-01 +5.83518520e-02 -1.05645925e-01 +1.79226566e-02 +5.51471896e-02 +3.05068828e-02 +1.02691531e-01 -4.10825685e-02 +1.80861391e-02 -6.45162612e-02 +8.20579469e-01 -2.44462326e-01 +3.22618604e-01 -5.07160798e-02 +6.97559342e-02 -6.15738481e-02 +1.55513033e-01 -1.76923096e-01 +5.36343344e-02 +2.10280150e-01 +1.04398839e-01 +1.30376041e-01 -3.07122767e-01 -1.46660283e-01 -4.19321805e-02 +1.26828447e-01 -1.45106256e-01 -1.38134673e-01 -3.21701132e-02 +9.73743126e-02 -1.42535239e-01 -1.13156855e-01 +2.13906001e-02 -1.60209239e-01 +1.13563843e-01 +3.59532535e-02 -1.70740914e-02 +6.35129660e-02 +5.21762446e-02 +1.90356031e-01 -2.37230524e-01 -1.02852821e-01 -7.03292638e-02 +5.14374338e-02 -1.25289500e-01 +4.46321890e-02 -2.56252624e-02 +5.06725498e-02 -1.50671914e-01 -1.28848985e-01 -2.72748053e-01 +3.26879248e-02 +8.65871534e-02 +3.43186498e-01 +5.68762757e-02 -2.17138063e-02 +1.07734762e-01 +3.49875577e-02 +9.45984498e-02 +7.94636905e-02 +8.83315727e-02 -3.27138230e-02 -4.51278239e-02 -5.91920614e-02 -1.31007075e-01 -1.23759508e-01 +1.38475984e-01 -6.03502505e-02 +8.60780329e-02 