#Parameter# /_0 {50,345} 276001 ZERO_GRAD
+4.31775581e-03 -8.15117359e-02 +4.01597954e-02 +1.18847303e-01 -1.80330753e-01 -5.01797348e-02 -9.63975862e-02 +2.38368269e-02 +5.34704402e-02 -1.31578306e-02 +8.29414427e-02 -3.71673517e-02 +1.50626469e-02 +1.25217661e-01 -8.28306526e-02 +1.17476180e-01 +1.10916980e-01 +2.35842429e-02 +6.22568093e-02 +9.84205529e-02 -7.81452060e-02 +4.07775864e-02 +5.26842719e-04 -1.61007699e-02 -3.93481962e-02 +6.51683332e-03 -9.50142294e-02 -5.44594303e-02 -9.10867527e-02 -9.10596102e-02 +2.18902659e-02 +1.44619006e-03 -4.88725752e-02 +6.29377067e-02 -7.45277703e-02 +1.18491180e-01 -1.79578457e-02 -1.42502701e-02 +1.04751259e-01 -4.53831479e-02 -1.82602294e-02 -8.34313408e-02 +9.80784465e-03 -6.41654432e-02 -4.32279631e-02 +6.20376058e-02 +8.14570487e-02 +9.47786048e-02 +3.38303633e-02 -3.88275199e-02 -1.21973760e-01 +7.01729441e-04 -1.16242692e-01 -6.32751882e-02 -9.94991511e-02 -6.41725659e-02 +6.61375672e-02 +3.52549218e-02 -1.13489009e-01 +5.93584450e-03 -4.39446978e-03 +2.37443782e-02 -1.02000661e-01 +1.15906168e-02 -7.91800022e-02 +1.98716428e-02 -1.60882883e-02 -3.05402335e-02 +1.05013199e-01 +2.17323825e-02 +1.02816336e-01 -7.15254024e-02 +6.72480613e-02 -9.91151109e-02 -9.69271436e-02 +9.75282267e-02 +1.19934700e-01 +4.01271358e-02 +9.94449183e-02 +1.00027531e-01 +1.84462164e-02 -5.36612533e-02 -1.68220401e-02 +8.45196843e-02 +1.22419919e-03 -5.93913943e-02 +1.07378975e-01 +7.45124668e-02 +9.17029306e-02 +5.03836051e-02 +4.30077761e-02 +1.07912552e-02 +8.20164829e-02 +1.19388431e-01 -1.12458974e-01 -8.50517079e-02 -3.93656157e-02 -7.20118731e-02 +1.66770462e-02 -7.52378553e-02 +4.36307080e-02 +9.85672548e-02 +6.17562141e-03 -9.06747803e-02 -1.65023834e-01 -1.09903991e-01 +7.92107359e-02 +1.14437021e-01 +4.09804434e-02 +1.17357641e-01 -2.85069235e-02 -9.74595621e-02 -6.92033693e-02 -6.12464733e-02 +4.07880777e-03 -2.17230003e-02 -8.53144377e-02 +2.83281542e-02 -1.74431447e-02 -5.54575697e-02 +2.80868076e-02 -3.84574980e-02 +7.29580447e-02 -1.23834927e-02 -9.35622379e-02 +7.73094520e-02 +2.04577744e-02 +3.00983619e-02 +1.23838514e-01 -5.23745976e-02 +1.39988258e-01 -5.47360666e-02 -1.87502019e-02 +1.08250499e-01 +3.60874534e-02 +5.83191440e-02 -1.47379888e-02 +3.88862453e-02 -6.11702539e-03 -2.32814867e-02 -5.74616678e-02 -1.38340518e-01 +6.99341968e-02 -9.51853395e-02 +9.30948034e-02 -1.04424059e-01 +2.05593854e-02 -1.11976236e-01 -1.22425787e-01 +1.69475768e-02 +9.95148495e-02 -5.34856692e-02 -7.12224096e-02 +5.58183566e-02 -6.85041994e-02 -9.99734253e-02 +3.46210077e-02 -1.11800032e-02 -1.23082936e-01 -5.63205667e-02 -4.68393005e-02 +6.65186346e-02 -7.63436481e-02 +7.61193633e-02 +7.96019360e-02 +1.06970891e-01 +5.73652647e-02 -1.22230835e-01 -4.81187440e-02 -6.99311495e-02 +2.72784270e-02 +9.30237547e-02 +1.13340944e-01 +1.89050566e-02 +1.03124350e-01 +4.47109714e-02 +4.54466715e-02 -5.62828220e-02 +5.57094812e-02 -4.29000333e-02 +1.24615869e-02 +5.61344028e-02 +8.28472748e-02 +4.81815077e-02 -6.64107725e-02 -8.05473328e-02 -3.66640612e-02 -9.24645588e-02 -4.27423604e-02 -1.07945748e-01 +1.08272843e-01 -4.43153158e-02 -5.86592220e-02 -6.61476627e-02 +5.57659082e-02 -1.25843063e-01 -3.99616100e-02 +8.60791281e-02 +7.62948208e-03 -3.14150490e-02 -1.12513229e-01 -1.21457875e-01 +2.02977024e-02 -7.54648587e-03 -2.83849500e-02 +5.87302558e-02 +6.31806850e-02 -9.52242315e-02 -2.04165466e-02 +5.66913688e-04 +8.73023421e-02 +4.19156179e-02 -3.48837173e-04 -6.14122003e-02 +9.94379167e-03 +2.86753327e-02 -8.09303299e-02 +1.06747828e-01 +1.21329494e-01 -3.97874862e-02 -6.86434954e-02 -4.13502753e-03 -1.09274194e-01 -6.73629940e-02 +5.16758338e-02 +8.57527852e-02 -7.80639574e-02 +1.11973032e-01 -1.12270437e-01 +3.24791819e-02 -1.19976401e-01 +4.87107374e-02 -4.81005944e-02 +3.01902480e-02 +2.20331904e-02 +9.29523855e-02 +1.23725962e-02 +1.12100266e-01 +4.55022715e-02 -2.33407808e-03 -4.45645191e-02 +1.03252284e-01 +7.26737753e-02 +4.50563105e-03 +5.13925366e-02 -8.22918490e-02 -9.58702490e-02 +3.59321549e-03 +6.82656839e-02 -3.15856896e-02 -7.88959190e-02 +3.22894417e-02 +2.77455077e-02 +5.09243384e-02 +1.10681631e-01 -4.59382869e-02 -3.32711302e-02 +1.05847381e-01 +1.16788335e-01 +6.21540360e-02 -3.45737115e-02 +1.06090255e-01 +4.09370698e-02 -1.79205872e-02 +1.66578386e-02 -2.43579317e-02 +7.66751841e-02 +5.52354530e-02 +1.16263762e-01 +5.04743755e-02 +2.48353183e-02 +5.28080687e-02 -2.72500422e-02 +1.83538045e-03 -6.99563920e-02 +3.34798321e-02 +1.10997604e-02 +3.37963030e-02 -1.00076504e-01 -6.56331629e-02 +3.35166864e-02 -7.98994675e-02 +6.97382390e-02 +4.30310071e-02 -4.24867757e-02 -3.73544060e-02 -9.27405879e-02 -1.01672068e-01 +5.92287779e-02 -1.17221540e-02 -1.00525305e-01 +1.25154987e-01 -7.56217465e-02 +8.75880793e-02 +2.63251234e-02 -7.83214066e-03 -7.26070404e-02 -5.34597933e-02 -5.65088689e-02 -1.10175356e-01 +4.94912863e-02 -9.49830934e-02 -1.02890529e-01 -9.08213556e-02 +5.91102168e-02 +1.15673073e-01 -2.61054020e-02 +6.46468028e-02 +1.84384771e-02 -8.33688825e-02 -7.72904307e-02 -6.15781546e-02 -1.19817659e-01 -6.30980683e-03 +4.71986867e-02 +1.22092485e-01 +8.52033794e-02 +1.04960009e-01 +3.11625935e-02 +1.06394961e-01 +2.16114353e-02 +1.03582211e-01 -1.30787725e-02 +1.15837485e-01 -4.37234528e-02 +2.29121670e-02 +1.41494963e-02 -1.13591952e-02 -9.07940045e-02 +9.56387632e-03 -1.74658857e-02 -7.62435198e-02 -1.07327007e-01 +1.41822016e-02 +5.42411469e-02 +1.83955301e-02 -3.50083895e-02 +4.69988734e-02 -1.40666282e-02 -1.03165820e-01 -5.55460751e-02 +1.02810867e-01 +7.28230029e-02 +9.86528695e-02 -7.88003057e-02 -1.16645489e-02 -9.86727402e-02 +1.70771987e-03 -5.27705997e-02 -1.01369001e-01 +2.76999027e-02 -1.21004201e-01 -2.83736512e-02 -4.30414006e-02 -9.24705639e-02 +1.15453720e-01 +8.04192796e-02 +1.41573939e-02 +8.75868574e-02 -1.29550342e-02 -1.21049382e-01 +3.65005657e-02 -9.55736265e-02 -1.28491884e-02 -2.03774441e-02 -8.79115015e-02 +1.07230447e-01 +1.28191292e-01 -5.16545922e-02 -1.09949939e-01 +4.29154970e-02 +8.44669936e-04 -1.56323314e-02 +1.00025810e-01 +1.03401810e-01 +4.46316190e-02 -9.46859941e-02 -5.95986545e-02 -9.68234390e-02 +6.50396496e-02 +4.40489873e-02 -7.47766420e-02 -1.16920322e-01 +1.04293257e-01 -1.10628255e-01 +1.37206847e-02 -9.91689041e-02 +6.03260621e-02 -3.46108191e-02 +1.24691993e-01 -8.46553743e-02 -3.57722268e-02 +7.14276568e-04 -5.51793911e-03 -8.72382745e-02 +5.17085716e-02 +7.88238943e-02 -9.95921940e-02 +7.75815472e-02 -1.09393872e-01 -1.06409967e-01 -4.40000519e-02 +6.50762171e-02 +9.04567763e-02 -1.09957427e-01 -3.92474839e-03 -7.79212490e-02 +1.21664904e-01 +1.46603743e-02 +8.49699080e-02 +3.15471478e-02 +6.70686811e-02 -1.12294905e-01 +1.27844691e-01 -8.13761950e-02 +1.17540427e-01 +1.01864234e-01 -9.96666551e-02 -1.62211861e-02 +1.14517167e-01 -1.02434710e-01 +9.52972248e-02 +1.16393872e-01 -2.19179150e-02 -1.76221989e-02 +8.47463533e-02 -1.65537670e-02 +6.92238286e-02 +2.67790761e-02 -6.37077242e-02 +9.44762677e-02 +1.19324706e-01 +9.76208225e-02 -2.06593592e-02 -7.86650702e-02 +9.30007827e-03 +7.20762983e-02 +6.92890733e-02 -6.06137291e-02 -4.61525507e-02 +1.10919207e-01 -2.66881473e-02 -6.42292723e-02 -1.12153552e-01 +1.14023000e-01 +9.88663584e-02 +2.87728012e-02 -7.54939243e-02 -8.71744901e-02 +5.13638929e-03 +4.46078479e-02 +1.22583352e-01 -8.16992149e-02 -3.20216827e-02 +3.36813256e-02 -1.19186819e-01 +1.08025149e-01 -1.17178485e-02 -6.62999675e-02 +4.57360335e-02 -5.17239328e-04 +6.28898218e-02 +1.07035823e-01 -2.82938760e-02 -7.13637993e-02 -1.98616087e-02 -1.05161384e-01 -9.37440693e-02 -1.19882502e-01 -9.68818367e-03 +6.12755455e-02 +1.69429258e-02 +5.71188368e-02 +3.61062586e-03 +4.38658968e-02 -5.91074303e-02 -1.06335841e-01 +9.12936106e-02 +6.19702116e-02 -8.62571672e-02 +7.65334889e-02 -5.80767617e-02 -1.07429381e-02 -9.98095796e-02 -2.70630401e-02 +1.00845508e-01 +8.66690576e-02 -6.80401251e-02 -3.37102637e-02 +1.17105380e-01 +3.38242650e-02 -1.02950878e-01 -9.28966627e-02 -8.88659358e-02 -2.42313985e-02 -6.85048923e-02 -8.07451680e-02 +8.45988467e-02 -2.14618780e-02 -9.42134932e-02 -1.05047770e-01 +2.93341316e-02 -5.56856114e-03 +8.54294840e-03 +8.68724659e-02 +4.01366502e-02 +1.10635042e-01 -3.82846855e-02 -7.32916892e-02 +3.12541537e-02 +8.55533555e-02 -1.09277219e-02 -8.40137154e-02 +1.35046253e-02 -7.14123547e-02 +1.14913076e-01 +6.72231754e-03 +8.70645717e-02 +3.36157810e-03 -1.99538898e-02 +7.32525215e-02 +7.72400424e-02 -9.41720307e-02 -1.52319819e-02 +1.21927120e-01 -3.16068940e-02 +1.19525408e-02 -9.84456614e-02 +1.23173520e-02 -4.80316803e-02 -2.71929912e-02 -4.64812815e-02 -1.00742623e-01 +1.22214712e-01 -2.81133559e-02 -1.17797814e-01 +8.06670934e-02 +1.11458220e-01 -2.12945584e-02 -1.07691199e-01 -2.64967289e-02 -5.15624620e-02 +1.04085818e-01 -2.39301901e-02 +1.30876899e-01 -2.41169278e-02 -1.38424654e-02 +1.09088764e-01 +1.26075894e-01 -1.15772858e-01 +1.05134420e-01 -6.89086467e-02 -1.02170236e-01 +7.25416392e-02 +1.03766330e-01 +5.09069636e-02 +4.68244180e-02 +2.13186890e-02 +7.20806196e-02 -1.35228587e-02 +9.91372839e-02 +2.48336582e-03 -1.46610495e-02 -7.99751654e-03 -7.47120008e-02 -1.22313082e-01 +1.07851781e-01 -1.03753440e-01 -5.90726081e-03 +1.13026775e-01 -3.94284315e-02 +4.75914255e-02 -8.29181001e-02 -3.54855694e-02 -3.96316685e-02 -9.94260535e-02 +5.53166755e-02 -3.25021930e-02 +7.26543814e-02 +4.16247174e-02 +1.67580675e-02 +2.43923422e-02 -1.09632481e-02 -3.83309834e-02 +5.32074645e-02 -1.15039421e-03 -4.16758396e-02 -1.14967391e-01 -1.27291242e-02 -1.16640113e-01 -7.00595900e-02 +3.16833407e-02 +1.04533292e-01 -3.24987620e-02 +2.00692732e-02 +1.62563249e-02 +3.49900313e-02 +7.18423426e-02 -8.72984156e-03 -1.12161569e-01 +9.69135463e-02 -6.28510341e-02 +6.59673139e-02 +8.28327388e-02 +6.35975599e-02 -1.13742225e-01 +3.17746997e-02 -2.46422030e-02 +7.41567388e-02 +3.90916727e-02 -1.06870681e-01 +3.40469666e-02 +1.17629841e-01 -4.35825326e-02 -8.40510726e-02 +2.09984612e-02 +9.33265761e-02 +4.87554036e-02 +4.48484905e-02 -4.38762940e-02 +1.10663883e-01 -2.25617569e-02 +5.06299511e-02 +5.47942966e-02 -9.22788605e-02 +3.48974839e-02 -8.61101896e-02 -5.98454252e-02 -9.20077115e-02 +1.80571824e-02 -8.60372633e-02 -6.55622501e-03 -5.04136980e-02 +5.04343361e-02 -1.73253939e-02 +2.90816166e-02 -1.33235306e-02 -9.63448361e-02 -1.11561611e-01 -6.90382496e-02 -5.07247150e-02 +9.77534056e-02 +3.44626121e-02 -1.09355547e-01 -5.73153272e-02 +8.85500908e-02 -5.39975353e-02 -9.93176848e-02 +1.04384489e-01 -8.65077525e-02 +1.14394851e-01 -6.85946494e-02 -9.79169011e-02 +7.89922625e-02 +7.93703049e-02 -7.04550743e-02 +5.27287163e-02 +1.06730439e-01 -1.02664314e-01 +8.19936171e-02 +3.35140675e-02 +7.35835806e-02 -2.65381671e-02 -1.15668073e-01 +7.47786015e-02 +7.89184347e-02 +9.23503190e-02 +6.93896785e-02 -1.86072085e-02 -2.16082763e-02 +5.05853444e-02 -9.55703631e-02 +5.89796826e-02 -4.58805598e-02 +8.22667256e-02 +1.00488894e-01 +8.03846344e-02 -6.15135208e-02 -5.98853603e-02 -7.76086748e-02 +6.28531128e-02 +6.25317357e-03 +7.99126923e-02 -1.10826328e-01 +9.98877920e-03 -3.38524505e-02 +1.00710154e-01 +7.27389976e-02 -1.24728866e-01 +3.90394665e-02 +4.59591337e-02 -1.13081902e-01 -3.99371721e-02 +3.27323079e-02 -9.44640860e-03 +2.50196885e-02 +1.72495376e-02 +4.22778837e-02 -1.72108486e-02 -1.30009092e-02 -9.80967432e-02 -6.82105199e-02 -7.23345131e-02 +3.81373540e-02 +1.00521103e-01 -1.54432040e-02 +7.22819343e-02 -1.10193186e-01 +3.73253450e-02 +8.69611725e-02 -5.78244776e-02 +1.46964435e-02 -1.04469853e-02 +3.20113786e-02 +9.67841521e-02 -1.08659916e-01 +3.30073088e-02 +6.61312342e-02 +6.02000467e-02 -1.07802905e-01 +4.17385176e-02 -3.69167179e-02 -5.76302074e-02 -4.06295545e-02 -1.15348592e-01 +1.04906652e-02 +5.23417704e-02 -8.86134431e-02 +1.06403857e-01 +7.08458871e-02 +5.81250787e-02 +5.60324490e-02 -1.04785517e-01 +5.27236052e-02 -8.47961828e-02 +4.50022891e-02 -2.29886714e-02 -1.17307693e-01 +2.81164628e-02 -7.61493146e-02 +6.38022646e-02 +1.03643671e-01 -2.33789012e-02 -5.80048300e-02 -2.24844795e-02 +1.04815692e-01 -1.04184151e-01 -7.57605731e-02 +5.96395880e-02 -3.71415131e-02 -1.33682657e-02 +1.11588230e-02 +4.41265292e-02 +5.88525645e-02 +2.86415666e-02 +4.34820242e-02 -8.45223963e-02 -1.06681049e-01 +1.48357693e-02 +1.58015620e-02 -5.73564693e-02 +4.80347167e-04 +1.45731317e-02 -8.73848796e-03 -5.98588847e-02 -5.90523556e-02 -1.00728132e-01 -5.40874414e-02 -5.88437133e-02 +4.75156270e-02 +2.80584805e-02 -1.75364837e-02 +1.53383622e-02 +7.75207058e-02 +5.79952933e-02 -2.92291716e-02 -2.87851654e-02 +4.68553454e-02 -5.32576889e-02 +8.87091830e-02 +9.70391498e-04 -6.38502836e-02 +6.59193620e-02 -1.66828593e-03 +9.11705047e-02 -1.21435486e-01 +2.89984234e-02 +3.55815552e-02 +5.29356673e-02 +6.79075494e-02 +1.10066898e-01 +3.62764187e-02 -5.45988977e-02 +6.89485222e-02 +7.91908130e-02 +8.44904333e-02 +2.61078253e-02 -5.98024437e-03 +1.18300706e-01 +9.11542550e-02 +4.43223268e-02 -4.77193408e-02 -3.17333564e-02 +6.52204007e-02 +1.27880452e-02 +3.56440013e-03 -4.13427390e-02 +1.20009281e-01 +1.31442696e-02 +5.22933304e-02 -8.76549259e-02 -3.18918340e-02 +1.00656487e-01 -5.47142662e-02 +1.15900852e-01 +4.83286940e-02 +8.87791440e-02 +8.95936117e-02 +6.57281652e-02 -1.17373750e-01 +2.25373823e-02 +9.36760742e-04 -6.98863715e-02 -2.33355816e-02 -1.06102265e-01 +5.69935888e-02 -6.98672235e-02 +7.49345273e-02 +6.89094737e-02 -7.92215019e-02 +8.19640160e-02 -1.58094894e-02 -3.68320523e-03 -8.67026001e-02 +9.30038020e-02 +5.98864555e-02 +5.22797778e-02 -1.20714687e-01 +7.73325264e-02 -4.65318672e-02 +7.13003352e-02 +9.33416933e-02 -8.91127139e-02 +7.47388825e-02 -9.90478098e-02 +1.19064815e-01 -5.82317151e-02 +8.20844173e-02 +5.66721149e-02 +3.02149472e-03 -2.21331436e-02 -9.59418491e-02 +8.47255811e-03 +1.12992071e-01 -6.87010959e-02 -3.28205414e-02 +9.70424861e-02 +8.51675048e-02 -8.80732089e-02 -1.01428881e-01 +4.87322286e-02 -3.89359184e-02 -1.79856699e-02 -1.00756824e-01 -9.98763964e-02 +8.35616440e-02 +7.68333003e-02 -1.05417714e-01 -5.34428693e-02 +1.23163596e-01 -2.03079861e-02 +6.87106699e-02 +6.76943082e-03 -1.89664699e-02 +1.93962678e-02 +6.38413504e-02 -6.00219481e-02 -8.29040930e-02 +4.88954559e-02 +6.82784021e-02 +6.88792346e-03 +1.51195340e-02 +7.56872352e-03 +8.99754316e-02 +2.09656842e-02 +5.54398857e-02 -5.70406392e-02 +1.15075603e-01 -1.87298805e-02 +9.47955921e-02 -5.73469372e-03 +1.02633514e-01 -5.75086242e-03 +1.28736394e-02 -2.16429792e-02 +1.10710748e-01 -1.88724920e-02 +5.14243431e-02 -1.11659981e-01 +5.50704822e-02 -4.88268435e-02 +1.11898370e-01 -1.00358784e-01 +5.31810746e-02 +9.98610109e-02 -1.14540130e-01 +1.15383817e-02 -1.52607933e-02 +2.99892295e-02 -8.26872811e-02 +7.91843832e-02 +1.18217342e-01 +2.29426678e-02 +5.98323271e-02 +3.52987163e-02 +1.14300489e-01 -9.42949727e-02 -9.56372246e-02 +5.64441867e-02 -7.81612173e-02 +1.22385435e-01 -6.74864501e-02 -5.56034967e-02 -2.25327983e-02 +7.01852888e-03 +1.04232281e-01 +4.14064303e-02 -3.74573693e-02 -1.99760944e-02 +5.14616668e-02 +1.32519836e-02 +8.08444619e-02 -7.26594329e-02 +8.71550851e-03 -5.20668505e-03 -2.10439116e-02 -3.99576426e-02 -9.25408453e-02 +1.17166951e-01 +6.89279512e-02 -8.72600544e-03 +8.35051537e-02 +5.69645129e-02 +4.38338481e-02 -1.24469757e-01 +1.76680293e-02 +1.08514912e-01 -9.54945236e-02 -9.30688828e-02 +8.66465122e-02 -7.85988346e-02 -2.09506974e-02 +8.18108171e-02 -3.16300616e-02 +8.21054820e-03 -1.20130077e-01 +1.21672601e-01 +9.84042287e-02 -5.33144884e-02 +1.06063811e-02 +6.48452342e-02 +8.86065587e-02 -1.14435270e-01 -7.68384263e-02 -7.57293105e-02 +1.12595528e-01 +5.98231331e-02 +1.87659804e-02 -7.36418068e-02 -6.66348357e-03 -1.48185501e-02 +3.70384790e-02 +1.55083705e-02 -1.08644158e-01 +4.03903499e-02 -3.73866111e-02 -3.84220965e-02 -1.05127789e-01 -4.07145731e-02 +8.31262842e-02 +4.48875614e-02 -1.17804436e-02 -7.33508319e-02 -8.87551680e-02 +4.24102321e-02 -9.37046856e-02 -3.48870717e-02 +5.89447878e-02 -1.22237988e-01 -9.36443284e-02 -1.19983345e-01 -6.11991026e-02 +8.28197449e-02 -1.17752865e-01 +1.11960784e-01 -4.32280600e-02 +9.12336707e-02 +5.52574694e-02 -2.27136407e-02 +2.18087714e-02 +1.00742467e-01 -9.42295566e-02 +5.77747300e-02 -6.06282726e-02 +8.26298520e-02 +8.64554942e-02 +6.31586164e-02 +2.94715557e-02 +1.17032163e-01 +6.41192049e-02 -8.06370676e-02 -6.60836920e-02 +3.62374298e-02 -4.46383900e-04 +5.51975518e-02 -6.15770519e-02 +1.27504142e-02 -8.62774774e-02 -9.64752659e-02 -6.01686351e-02 +1.90323051e-02 +1.20560944e-01 -8.52551907e-02 +6.37151254e-03 -4.10524718e-02 -8.19995031e-02 -5.29863611e-02 +1.59970131e-02 +6.65836483e-02 -6.00657426e-02 -2.20961738e-02 +3.24952491e-02 +6.18079491e-03 -1.17216669e-02 -5.90998866e-02 +7.66409514e-03 -7.02032074e-02 +1.05397798e-01 +5.71585959e-03 +1.10879287e-01 +1.17128808e-02 +4.65172715e-02 +8.28209370e-02 +1.10073857e-01 +5.02706505e-02 +1.50373625e-02 -7.12027326e-02 -9.67622846e-02 +9.86282714e-04 -2.36902051e-02 +7.10913688e-02 +9.43854153e-02 -2.37222072e-02 +8.83228481e-02 -9.50345621e-02 -1.09915011e-01 -6.34589344e-02 -1.12837300e-01 -3.85572053e-02 +8.06868076e-02 -5.36451451e-02 +3.78257595e-02 -4.57653664e-02 +7.31526315e-02 -7.48199373e-02 +4.78879996e-02 +1.72576625e-02 -8.27280506e-02 +1.14047132e-01 -8.20104480e-02 -8.74377489e-02 -3.76678933e-03 +3.32907028e-02 -4.16969247e-02 -3.30759096e-03 -9.27825868e-02 -7.40051493e-02 +3.02335899e-02 -6.15570992e-02 -4.90222611e-02 +2.70390715e-02 -2.06963718e-02 -4.85232882e-02 +2.95275114e-02 -1.49924178e-02 +1.18869178e-01 -4.20772806e-02 +6.39888719e-02 -5.85077852e-02 -4.89743948e-02 +6.08297698e-02 -9.02492404e-02 +4.15877737e-02 +6.76056966e-02 -1.26472548e-01 -7.87098035e-02 +1.40607115e-02 +1.66426618e-02 -3.47199664e-02 +1.06538735e-01 +5.59992576e-03 -4.18949164e-02 -1.80936791e-03 +4.66483608e-02 +5.02141491e-02 -2.73468588e-02 -1.13950327e-01 -7.26827607e-02 -2.48568282e-02 +5.12313005e-03 -1.75793637e-02 -9.87269953e-02 -1.06356129e-01 -2.57684253e-02 -3.90361138e-02 -4.69438285e-02 -4.49085310e-02 -9.05676484e-02 -1.00412436e-01 +5.88654205e-02 +7.57693946e-02 -1.79991797e-02 +5.26399314e-02 +4.44457047e-02 +9.68438834e-02 -5.61737828e-02 +6.61520511e-02 -7.19095692e-02 +6.97862059e-02 -3.63048837e-02 -1.03304178e-01 +5.72370216e-02 -1.50457276e-02 +7.81304911e-02 -4.40380462e-02 -1.42246101e-03 +1.22538090e-01 -8.15661997e-02 -2.70562153e-02 -1.14273671e-02 -7.81831294e-02 -1.01981364e-01 -9.29678455e-02 +8.15073252e-02 -2.89446227e-02 +1.94237311e-03 +1.18808307e-01 -4.62462865e-02 -3.02637555e-02 -1.17446221e-01 +3.74727184e-03 -1.93318948e-02 +5.38964234e-02 -1.89632084e-02 -1.19873220e-02 +2.23405790e-02 -4.32152674e-02 -6.00416735e-02 +8.53405818e-02 +9.35264900e-02 -3.10592260e-02 +8.38629976e-02 -1.04627907e-01 +1.08711943e-02 +5.92098497e-02 -1.12947762e-01 +9.10797268e-02 -4.50538620e-02 +7.95235485e-02 -9.43369325e-03 +6.72560558e-02 +1.11229405e-01 +5.74310608e-02 +1.62170138e-02 -4.14911136e-02 +2.01409217e-02 -1.11700945e-01 +3.84465940e-02 -1.79997515e-02 +2.55548693e-02 -1.26240090e-01 +1.28035724e-01 -8.00742060e-02 -5.10203131e-02 -1.67243574e-02 +5.69990240e-02 +7.83588290e-02 -1.21026792e-01 +5.92993423e-02 -6.84004873e-02 -4.52793986e-02 -3.50812450e-02 -6.10668287e-02 +7.02810213e-02 +7.61267170e-02 -6.32944331e-02 -1.10873036e-01 +1.02489488e-02 +5.31650707e-02 -8.54305923e-02 -1.02101080e-01 -6.78191856e-02 -5.74743450e-02 -9.68975425e-02 +2.81928815e-02 -9.79073942e-02 +1.07181489e-01 -1.09418117e-01 +6.03694916e-02 +7.16945678e-02 +6.42972738e-02 +6.95823182e-05 -2.73769386e-02 -7.68359527e-02 +9.35717896e-02 +1.30340047e-02 -1.11258402e-02 +7.96324685e-02 +6.62717745e-02 +6.50045183e-03 -6.20956942e-02 +1.10470429e-01 -5.21544442e-02 +5.87557852e-02 -8.86358395e-02 +5.17352149e-02 +7.14055002e-02 +4.67735082e-02 -9.24318582e-02 -1.08020231e-01 -1.01511411e-01 +4.96258512e-02 -4.04108465e-02 -7.34229237e-02 -6.77562132e-02 +7.65132904e-02 -1.02786049e-02 +6.74482733e-02 -1.12343714e-01 -1.19356997e-01 +1.39200334e-02 +8.44553858e-03 -3.54452543e-02 -4.73799892e-02 -4.27603349e-02 -4.46157046e-02 -7.66213909e-02 -7.07917660e-02 +3.50348204e-02 -7.16482922e-02 +1.17157705e-01 +9.18632746e-02 +9.87916514e-02 +4.89073023e-02 +3.07155140e-02 +1.18052348e-01 +1.13700680e-01 +2.25345548e-02 +1.09626967e-02 +6.02443703e-02 +6.42805994e-02 -1.11160576e-01 -9.83146206e-02 +2.73176823e-02 +6.81950897e-02 +1.13013081e-01 -3.02063692e-02 -9.78869870e-02 -1.63033959e-02 -7.83216283e-02 +3.36551550e-03 +4.41366546e-02 +9.55852866e-02 -3.25241722e-02 +1.64503139e-02 -2.14200690e-02 +1.18013397e-01 -7.28091970e-02 -8.73177871e-03 -2.64337696e-02 +5.84166646e-02 -9.88082681e-03 -1.14716426e-01 +3.45760211e-02 -1.04022831e-01 +9.13193822e-02 +6.34595146e-03 -4.22203839e-02 +5.37447222e-02 -4.96190079e-02 -1.09339366e-02 +4.53591384e-02 -2.17523333e-02 +9.75624397e-02 +5.32933977e-03 +6.67838752e-02 -8.92919153e-02 +1.05800338e-01 -6.20003343e-02 +1.14335515e-01 -3.79491970e-02 -4.42395061e-02 +7.44244829e-02 -1.31038446e-02 +5.37966155e-02 +8.91656801e-02 -7.07521066e-02 +8.10319707e-02 -1.14999171e-02 +1.03021070e-01 -1.68055538e-02 -1.34112565e-02 -4.71572764e-02 +4.06287201e-02 +1.16555020e-01 -1.18488714e-01 +8.76053125e-02 -6.98625520e-02 -5.79577200e-02 +9.52182263e-02 +1.42009482e-02 -8.87612998e-02 +5.34442104e-02 -1.14325387e-02 -3.60967629e-02 -7.86423683e-02 -1.12174548e-01 +2.99948268e-02 +3.71766649e-02 +7.63963610e-02 -9.66887921e-02 +7.69053921e-02 -6.53271899e-02 +4.74329107e-02 +6.26459764e-03 -5.69452718e-02 -1.38306683e-02 -5.41713834e-02 -3.33953416e-03 +1.00220412e-01 +2.77781542e-02 -6.10053353e-02 -1.00269318e-01 -6.04264513e-02 -9.06971991e-02 +8.60381946e-02 +1.05847307e-01 +8.52538794e-02 -7.94704556e-02 +1.04377106e-01 +3.83935869e-02 -1.22161791e-01 -8.15998856e-03 +7.43798688e-02 -3.70333120e-02 -4.86156866e-02 +4.61827070e-02 -1.12191420e-02 -9.27921236e-02 -7.06883073e-02 -9.58128124e-02 +8.68764147e-02 -9.68120396e-02 +1.27095401e-01 -5.22723189e-03 +3.17335911e-02 +3.75984027e-03 -1.75457802e-02 +3.18048187e-02 +1.11481696e-01 -1.33633744e-02 -7.07036182e-02 -1.74832752e-03 +9.73496735e-02 +8.51192102e-02 -1.01368852e-01 -4.99971583e-03 +8.02176520e-02 +1.16243616e-01 +7.40592256e-02 +2.53708102e-02 +8.98377597e-02 -6.13560304e-02 -1.08941779e-01 +6.02759607e-02 +1.51464492e-02 +1.03327863e-01 -1.25783700e-02 -1.01024121e-01 -9.62200537e-02 +1.15327872e-01 +3.95474881e-02 -1.00294113e-01 +1.15050845e-01 -1.11962184e-01 -1.08831048e-01 -4.44364995e-02 -1.16450265e-01 +5.53006865e-02 -1.15680266e-02 -1.86185893e-02 +2.81084049e-03 -8.84934068e-02 +1.04368240e-01 +3.50467339e-02 -7.18326941e-02 -4.14001644e-02 +4.62090448e-02 +3.16389427e-02 +4.89356462e-03 +1.77203640e-02 +9.63974670e-02 +1.08237274e-01 -8.12475532e-02 +5.36115281e-02 +1.38165122e-02 +5.81483357e-02 -9.67204943e-02 +1.18312500e-01 +5.33753671e-02 +1.43932402e-02 +3.39965746e-02 -7.04260543e-02 -1.02431938e-01 +8.46944284e-03 +1.79681927e-02 -8.13205987e-02 -5.34053743e-02 +4.75907139e-02 +6.47189319e-02 -6.48402609e-04 +1.86382178e-02 -9.48542356e-03 +1.22442923e-01 +4.04097512e-03 -3.91579829e-02 +4.87382933e-02 +5.66038191e-02 +1.11213943e-03 +8.19952786e-02 -5.55616319e-02 -1.15974501e-01 +3.59508730e-02 +3.09697149e-04 -1.05418548e-01 -1.29578346e-02 +1.19138472e-01 -7.06026107e-02 -8.68483111e-02 +1.56101268e-02 -1.04118206e-01 +7.99071342e-02 +1.64195020e-02 +3.98717262e-02 +6.62137121e-02 +1.17378324e-01 +4.97719236e-02 +9.85909775e-02 -1.81354787e-02 +6.42627180e-02 -7.96495676e-02 -7.12120906e-02 -3.72079536e-02 -7.15117529e-02 -2.31515393e-02 -5.05679063e-02 -2.71441154e-02 +7.13311955e-02 -5.92736416e-02 +1.12894870e-01 -9.82949585e-02 +1.12125523e-01 -4.81300689e-02 +2.97663771e-02 +6.83094189e-02 +3.70662920e-02 -3.55276801e-02 +1.60643607e-02 +4.23918013e-03 -5.99005967e-02 -2.70076990e-02 -7.45010003e-02 +1.11610861e-02 -1.46573177e-02 -1.06240988e-01 -9.57574621e-02 +4.51934487e-02 +1.21877141e-01 -9.31755826e-02 -1.21017896e-01 +7.94519410e-02 -4.38938253e-02 +2.85258098e-03 +1.19567245e-01 -5.26135974e-02 +1.09058224e-01 -3.96401323e-02 +8.51268694e-02 +8.32383260e-02 +7.77359307e-02 +1.52235609e-02 +1.20230399e-01 -6.34851828e-02 -8.97051394e-02 -5.00413403e-02 +6.90959673e-03 -7.14724809e-02 +1.56680029e-02 -9.80396639e-04 +2.72696856e-02 -5.09624258e-02 -1.66961271e-02 -6.95630908e-02 -9.47610065e-02 -1.38044795e-02 +1.23244338e-01 -9.18378681e-02 -5.20794326e-03 -2.22832002e-02 +3.89397815e-02 -8.52070451e-02 +2.26296932e-02 -9.82316025e-03 -2.16559675e-02 -9.74839255e-02 +7.50550181e-02 -4.78742942e-02 -1.17339745e-01 -4.24559377e-02 -3.23362835e-02 -6.45311251e-02 -1.20058814e-02 -5.26599810e-02 -8.86966959e-02 -9.61694196e-02 -5.08117303e-02 +8.04203656e-03 -1.17432155e-01 -1.45653551e-02 +1.98423229e-02 -5.94398566e-02 -1.17618769e-01 -1.15782335e-01 -7.97549561e-02 +5.13090044e-02 -6.66569918e-02 +6.69226274e-02 +8.84294882e-03 +8.98079947e-03 +7.20567927e-02 -1.19042091e-01 +4.17495966e-02 +1.49768144e-02 -2.39911042e-02 +1.29943103e-01 -1.14118882e-01 +6.03799671e-02 +1.13865189e-01 -2.39927061e-02 -4.58506448e-03 +9.89614502e-02 -1.23214327e-01 +8.68109018e-02 -1.36948349e-02 +9.59439669e-03 +1.05426110e-01 -7.93564245e-02 +1.98416598e-02 +6.93030283e-02 -7.73386061e-02 +8.42938200e-02 +3.56232077e-02 +7.94275403e-02 -1.18164644e-01 +4.94962633e-02 +6.63161352e-02 -1.16956323e-01 +5.28422445e-02 +8.82837102e-02 -6.82101324e-02 +1.16084076e-01 +1.72477756e-02 -6.16222247e-03 +8.43473747e-02 -8.75363424e-02 -2.05558613e-02 +9.18128565e-02 +9.94797945e-02 -5.13443425e-02 +8.77982602e-02 +1.72106046e-02 -5.84960030e-03 -5.27091026e-02 -1.57651175e-02 +9.89712551e-02 +9.73554254e-02 +1.15347408e-01 -3.55520807e-02 -1.11993916e-01 +6.06592596e-02 -1.19730905e-01 +7.05402493e-02 -6.07616901e-02 +9.90856141e-02 -5.64713031e-02 +1.76610593e-02 +5.76694719e-02 +2.98951473e-02 +4.78905588e-02 +7.86433816e-02 -4.98880893e-02 +3.52293104e-02 -2.59291455e-02 -8.62293020e-02 -5.23523167e-02 +9.81904194e-02 -2.33560093e-02 +6.48628548e-02 -9.22032539e-03 +7.99664762e-03 -4.74864058e-03 -3.28609236e-02 -5.82579002e-02 +8.38115718e-03 +1.20681897e-01 +6.42856285e-02 -6.41244575e-02 +8.59063957e-03 +2.93252803e-02 -6.64823577e-02 -1.23939119e-01 +9.80151221e-02 +3.71824652e-02 -5.58502190e-02 -3.29351500e-02 +4.59388867e-02 +1.30810127e-01 -4.89672013e-02 +3.98243719e-04 +3.96927446e-02 -1.00071691e-01 -9.43553150e-02 -5.23467287e-02 -1.01318575e-01 -9.94283259e-02 -1.15926549e-01 +5.53844236e-02 +9.97174829e-02 -4.52207541e-03 +4.92816083e-02 +2.75662374e-02 +2.94182748e-02 -8.82483646e-02 -3.14933881e-02 +3.81408185e-02 +7.94285834e-02 -8.96361563e-03 -7.23985061e-02 +1.04255714e-01 -8.20354149e-02 +4.56189066e-02 +6.56864867e-02 +6.81784749e-03 -5.34576550e-03 +3.69980745e-03 +1.17858149e-01 +8.77740085e-02 +9.51357782e-02 +7.29051083e-02 -5.60974376e-03 -4.48607877e-02 -5.23317568e-02 -5.12611605e-02 +9.83214155e-02 -7.11676776e-02 +7.78590739e-02 +3.31592485e-02 -4.34690975e-02 +9.66716185e-02 -3.73968594e-02 -1.23349465e-01 +7.50379413e-02 -1.14102297e-01 +1.21864833e-01 +1.19725965e-01 -4.84729037e-02 -2.02878602e-02 -2.16688886e-02 -1.14139795e-01 +8.87050629e-02 +1.00678042e-01 -3.37924734e-02 +7.22475871e-02 +8.54182392e-02 +1.19736433e-01 +1.09889120e-01 +9.46466848e-02 +7.51239061e-02 +8.37597996e-02 +8.37051347e-02 -7.39174560e-02 +4.59628366e-02 +6.37518764e-02 +3.40848453e-02 -6.33096769e-02 -7.86021277e-02 -3.89238559e-02 +4.47003432e-02 +2.26429608e-02 +1.16282776e-01 -7.47745335e-02 +1.09016113e-01 -1.21940203e-01 +5.67292236e-02 -1.79119948e-02 -1.11795947e-01 +6.81908131e-02 -9.18042585e-02 +1.23059619e-02 -4.32490222e-02 +4.80746515e-02 +6.69833943e-02 -5.33403978e-02 +8.14225599e-02 +1.21878006e-01 -2.24125721e-02 +1.04882076e-01 +2.30919104e-02 +1.81181636e-02 -2.01560813e-03 +4.14245501e-02 +6.76312894e-02 +9.42405462e-02 -6.89704716e-02 +9.34778452e-02 +4.87126447e-02 -1.90199930e-02 -3.73539515e-02 -6.62510172e-02 -8.96920711e-02 +8.04147404e-03 -2.10409295e-02 +1.75426481e-03 +1.83473695e-02 +1.10215485e-01 -3.51908617e-02 +6.78133890e-02 -1.18690424e-01 +6.52528256e-02 -8.55817646e-02 +1.89857800e-02 -5.67386262e-02 -7.12204129e-02 +4.59759422e-02 -1.29281029e-01 -6.40254607e-03 -1.03435561e-01 +1.96410883e-02 -1.30060380e-02 -2.02054940e-02 -2.89710443e-02 -1.98325682e-02 -2.24911254e-02 +5.72416894e-02 +1.05478898e-01 -1.01018012e-01 +4.60060164e-02 -1.10112630e-01 -9.57950428e-02 -6.14586025e-02 +1.04923181e-01 -1.06856234e-01 -2.12405762e-03 +8.40130225e-02 +4.22230214e-02 +7.26940557e-02 -1.19783759e-01 -8.18624943e-02 +3.89693379e-02 -6.83208779e-02 -2.24907994e-02 +9.11841020e-02 +2.60608923e-02 -8.52471441e-02 +2.96425074e-02 -4.90179136e-02 -7.23692030e-02 +1.09517217e-01 +6.14268817e-02 -2.17566900e-02 -3.65889035e-02 -1.96158700e-02 -6.29464462e-02 -1.05571754e-01 -1.13492191e-01 +1.03700683e-01 -8.64394680e-02 +8.49520713e-02 +1.02372177e-01 +7.89453462e-03 +4.36510146e-02 +6.31053597e-02 +4.10174951e-02 -1.15315989e-01 +3.70965041e-02 -6.46359995e-02 -8.17452744e-02 -4.13237000e-03 +1.91294942e-02 +7.56924972e-02 +2.19107885e-03 -1.12987153e-01 -8.41063783e-02 -9.30205658e-02 -1.20236352e-01 -1.09610282e-01 +1.15482034e-02 -1.30600380e-02 +8.36935565e-02 +9.90277156e-02 +1.14779528e-02 +1.15713954e-01 -8.51215944e-02 -1.06889158e-01 -3.84244472e-02 +5.47827184e-02 +6.75916672e-03 +3.19816694e-02 -4.47800048e-02 -3.89853604e-02 +1.10626541e-01 +4.30641808e-02 -5.92505112e-02 +5.36984764e-02 +3.75929922e-02 -7.54977167e-02 +2.08882652e-02 +5.97343184e-02 -8.60935524e-02 +3.07718497e-02 -1.24975480e-02 -4.40165401e-03 +3.82496603e-02 -2.89758341e-03 +3.29047479e-02 +3.16856615e-02 +4.15792093e-02 -1.00845486e-01 +1.16877131e-01 +3.40320542e-02 +6.93050846e-02 +1.70397479e-02 -3.57416719e-02 -6.80383593e-02 +1.46593088e-02 -8.49184319e-02 +1.16856053e-01 +5.38587049e-02 +3.47337984e-02 +4.16044667e-02 +1.16948687e-01 -9.04906243e-02 -8.97905305e-02 +1.02842696e-01 +1.52980890e-02 -3.59018147e-03 -9.82901528e-02 +2.69535296e-02 +9.77424085e-02 +4.00374979e-02 -7.92993456e-02 +7.86558613e-02 -7.85360858e-02 +1.11989565e-01 -2.07520276e-02 -7.66407177e-02 -8.02028254e-02 +1.09732337e-01 -9.67131704e-02 -1.03680998e-01 -6.07038587e-02 +1.28135890e-01 -4.95737381e-02 +1.04571067e-01 +1.11835063e-01 +1.20157124e-02 -9.22597274e-02 +1.04713850e-01 +3.99766937e-02 +1.17804199e-01 -5.57878204e-02 +3.96172004e-03 -3.40685062e-02 +7.42026493e-02 +1.04465850e-01 -7.49126226e-02 -4.12397878e-03 +4.58804555e-02 -7.33841434e-02 -4.31623794e-02 +4.83799912e-03 +9.66665447e-02 -8.89823139e-02 -3.63817513e-02 -5.21850474e-02 -3.59888300e-02 +8.87595713e-02 +3.74453291e-02 +8.70089829e-02 +3.03494073e-02 +3.98108969e-03 +6.37539029e-02 -2.03519538e-02 +1.14731528e-01 +9.98221189e-02 -6.12826422e-02 -8.55152756e-02 -1.26842782e-01 +1.11097924e-01 +1.09677888e-01 +2.02269889e-02 +1.18947528e-01 +7.68738016e-02 -8.37962776e-02 +5.49569689e-02 -6.85076639e-02 -8.33540708e-02 +2.90265661e-02 -1.00250341e-01 -2.54346132e-02 +5.84433898e-02 -1.42056262e-02 -2.06503365e-02 -1.21085793e-01 -5.48803620e-02 -1.24032900e-01 +5.37855737e-02 -9.56100877e-03 +1.09757431e-01 +4.51354496e-02 +1.06998064e-01 -6.03058040e-02 -5.18721044e-02 +7.06531405e-02 +9.43832770e-02 +1.47333387e-02 +8.74190256e-02 -3.84856611e-02 +7.16195926e-02 +5.00382222e-02 +1.39370523e-02 +4.35303040e-02 +2.38891114e-02 -8.29621628e-02 -9.99955013e-02 +3.60552408e-02 -1.03396654e-01 -9.25548971e-02 -1.08805344e-01 -3.52233350e-02 +8.50657448e-02 +1.57618045e-03 -9.15747881e-02 +1.46802375e-02 +1.04576357e-01 +8.85724127e-02 +1.24757446e-01 +3.68326828e-02 +1.10138105e-02 +5.29482355e-03 +1.53676129e-03 +1.54182129e-02 +1.10583872e-01 +2.63561681e-02 +3.45265195e-02 +8.57525617e-02 +1.21038482e-01 -7.32732415e-02 +7.11178854e-02 +1.86442100e-02 -5.75447902e-02 -8.33929144e-03 -1.45790810e-02 +7.28418380e-02 +8.43627229e-02 -6.34493008e-02 +4.22640629e-02 +1.12668492e-01 +1.02736555e-01 -1.11472651e-01 +1.17036588e-01 -9.93836522e-02 -1.60891395e-02 -4.44994196e-02 -8.54246318e-03 +3.95153239e-02 +1.19929560e-01 -1.01814233e-02 +1.23991296e-01 +2.98115965e-02 -1.18895710e-01 +9.08695720e-03 +7.84504339e-02 +6.79771006e-02 -8.33887458e-02 +9.52630714e-02 +1.20072393e-02 +1.04372539e-01 -2.92953588e-02 +7.45471492e-02 +1.11198813e-01 +3.26894522e-02 -9.01609287e-02 -3.65955494e-02 -8.03278238e-02 +9.14162174e-02 -8.69159102e-02 -9.24584121e-02 +1.01630040e-01 +5.28491922e-02 -5.31651415e-02 +1.09373733e-01 -4.53419760e-02 +5.47482073e-02 +1.00584447e-01 -5.69748394e-02 +8.51337984e-02 -1.02849007e-01 +1.10443063e-01 -8.02920014e-02 +1.69214024e-03 -2.72604451e-02 -6.16846513e-03 +6.47011548e-02 +8.71420056e-02 +8.63303915e-02 -7.47645572e-02 -8.92410055e-02 +1.16265938e-01 +9.13707614e-02 -1.01343326e-01 +1.22852661e-01 +1.74628105e-02 -2.24365424e-02 +1.11876130e-01 +3.05983890e-02 -6.71481043e-02 +6.85973614e-02 +1.20164312e-01 +3.30793709e-02 -7.41886571e-02 -2.89586280e-02 -1.13364980e-01 -1.16862394e-01 +5.40533476e-02 +1.09871037e-01 +8.83078501e-02 +1.21633947e-01 +7.02197403e-02 -7.98736662e-02 +6.56296536e-02 -8.47362205e-02 +5.55496383e-03 -5.34712300e-02 +2.95043848e-02 +7.49217123e-02 -9.92639437e-02 +3.79108526e-02 -1.05095305e-01 +9.73359495e-02 -6.39645010e-02 -1.54522769e-02 -9.61060170e-03 +8.88614804e-02 -3.89131419e-02 -1.42458258e-02 +7.92750493e-02 -1.33140828e-03 +9.30972397e-02 -4.77869995e-02 -1.16177388e-01 -2.77355071e-02 +4.26610000e-02 +1.17198467e-01 -2.95471400e-02 -1.18282795e-01 -7.98348803e-03 +8.24486986e-02 -1.15157338e-02 +3.41283493e-02 +9.01720524e-02 +6.80099726e-02 -6.85559511e-02 +9.79095772e-02 -6.61404580e-02 -1.12518907e-01 -9.84702855e-02 -4.35733907e-02 +4.08350416e-02 -1.08462006e-01 +7.35310689e-02 +3.66969444e-02 -1.07355610e-01 +5.98037802e-02 +6.36047125e-02 +8.84097219e-02 +5.92545867e-02 -1.99497472e-02 -1.02930918e-01 +1.40741104e-02 -7.52055123e-02 +7.95437247e-02 +4.31997888e-02 -9.60995406e-02 +6.51379675e-02 +7.69115537e-02 +2.78097428e-02 -1.04252420e-01 -6.04769923e-02 +5.13606966e-02 +4.92147952e-02 -8.61501843e-02 -1.05456680e-01 -2.78389212e-02 -6.75861631e-03 -6.57188147e-02 +9.22607854e-02 -8.63238350e-02 -1.00300543e-01 +1.05804391e-01 -1.18643336e-01 -2.69423183e-02 +4.75150570e-02 +7.25263134e-02 +2.89659016e-02 +1.89461522e-02 +1.03455789e-01 +1.22516066e-01 +1.39747132e-02 +1.05937988e-01 -1.14913307e-01 -7.39915669e-03 +1.50868595e-02 +2.73054019e-02 +3.75615433e-02 -7.74176046e-02 +3.52271497e-02 +8.74313712e-02 -7.23398551e-02 +5.39420247e-02 -1.06543243e-01 -1.21813536e-01 +1.20533131e-01 -4.32614312e-02 -7.98249710e-03 -1.21616781e-01 -6.88332319e-02 -4.14239578e-02 +5.05438112e-02 +3.60646360e-02 -6.60921186e-02 +9.61121917e-02 -4.82140221e-02 -4.43443768e-02 +6.54897690e-02 +3.18162479e-02 +6.67782053e-02 +1.04551479e-01 -1.22500896e-01 -2.89586149e-02 -1.09005220e-01 +1.03046969e-01 +9.86529589e-02 +9.43552777e-02 +4.26333807e-02 -5.51192276e-02 -4.30800244e-02 -8.05168897e-02 -1.49936648e-03 +1.15185075e-01 -2.08133478e-02 +6.67732283e-02 +8.93590376e-02 -8.57530758e-02 +3.22378874e-02 +9.76351835e-03 -7.00764880e-02 +1.03993960e-01 +9.06693861e-02 +5.27816787e-02 -5.16232476e-02 +1.07955471e-01 -5.53433374e-02 -1.16921298e-01 -1.17493980e-01 -1.04259111e-01 +1.19089104e-01 +8.16378891e-02 -1.31619740e-02 +1.31054560e-03 +7.99928010e-02 -1.03003494e-01 +1.09814614e-01 -8.17061774e-03 -1.05956972e-01 +7.98715800e-02 -1.37249650e-02 +2.95236986e-02 +4.49718609e-02 -1.14835063e-02 -7.41664618e-02 -1.06815934e-01 +5.21465689e-02 +5.61754033e-02 +6.74146414e-02 +6.21437803e-02 +8.59948844e-02 -5.95954433e-02 -3.38747241e-02 +1.60620995e-02 +3.36839817e-02 +4.74479236e-02 +6.02006614e-02 -1.06819093e-01 -5.53044155e-02 +1.19966596e-01 +1.10246539e-01 -1.06046639e-01 +9.80607122e-02 -3.20174135e-02 -1.06168948e-01 +5.55598326e-02 -7.73911458e-03 -1.10278189e-01 +8.27598795e-02 -8.22621882e-02 +3.19355577e-02 -6.25880156e-03 -5.06671593e-02 +1.12240829e-01 -1.07608356e-01 -9.44805145e-02 +3.15735638e-02 +1.11589156e-01 -9.27100405e-02 +1.08635157e-01 +6.96049258e-02 -1.20704502e-01 -6.71572909e-02 +8.64142403e-02 +8.03232659e-03 -7.28673115e-02 -1.19971680e-02 -1.22999273e-01 -3.54399048e-02 -1.17752433e-01 -1.22377977e-01 +2.42691021e-02 -4.59948964e-02 +6.38165772e-02 -1.19028613e-01 -6.50445595e-02 +9.40795243e-02 +1.04285061e-01 +1.18803397e-01 -3.31044979e-02 +1.22635365e-01 +8.25914368e-02 +3.72516476e-02 -1.09774902e-01 -5.94235323e-02 -7.17075095e-02 -5.71081303e-02 +4.16317470e-02 -7.35072093e-03 +1.05765559e-01 -3.07129007e-02 -1.17992416e-01 -4.74011060e-03 +1.11566573e-01 -6.25798777e-02 -1.06963798e-01 +5.04491068e-02 +2.85676979e-02 -1.20045520e-01 +1.04872920e-01 +4.48278114e-02 +4.96576913e-02 +2.77780723e-02 -5.66290282e-02 +8.17939416e-02 +5.84898479e-02 -1.04563229e-01 -9.55554321e-02 +3.21150683e-02 +6.73327148e-02 -3.69751975e-02 +9.52889398e-02 +1.68024693e-02 -4.50527258e-02 -6.37716651e-02 -3.14376242e-02 -1.10983454e-01 -9.06766281e-02 -1.02407619e-01 -6.31440729e-02 -2.74773017e-02 -1.02163829e-01 -8.07388276e-02 -3.84098217e-02 -5.25359176e-02 -3.09928693e-02 -2.39209784e-03 +1.08334079e-01 +4.34771217e-02 -5.40838391e-02 +5.07600047e-03 -4.58822101e-02 +9.57947224e-02 +1.17301442e-01 +1.06775194e-01 +6.02263138e-02 +2.44472604e-02 -1.13012955e-01 +6.57825172e-02 +9.73280296e-02 +1.18269689e-01 +7.56565332e-02 -1.23916328e-01 +6.28780499e-02 +7.37199187e-02 +6.43396229e-02 +1.82431098e-02 +8.48038569e-02 +3.56872343e-02 +8.80862549e-02 +1.18313367e-02 +6.07995167e-02 +9.50240120e-02 +1.19350232e-01 +7.38412365e-02 -1.12659648e-01 -6.52045682e-02 +5.49537502e-02 -7.48999370e-03 -2.76616104e-02 +9.97930467e-02 +3.74097228e-02 +1.05509395e-02 +3.54441181e-02 +6.50719777e-02 +1.21159412e-01 -5.95465414e-02 -2.13215072e-02 +2.95363693e-03 -6.24039657e-02 -7.75626451e-02 -4.70470414e-02 -2.34504007e-02 +9.72285345e-02 +2.80509740e-02 +3.46506126e-02 +7.43589178e-02 +2.47495119e-02 +6.77626282e-02 +5.62515296e-02 -1.24675587e-01 +8.19256436e-03 +3.74706052e-02 -2.77543237e-04 -2.33771168e-02 +1.14312962e-01 +7.58802146e-02 -4.25770395e-02 -1.09033398e-01 -2.57519651e-02 -9.73068103e-02 -2.79887002e-02 +4.33035418e-02 -1.70886274e-02 -9.03267041e-02 -5.25969900e-02 -4.25933897e-02 +1.28421690e-02 +8.41627046e-02 -1.37545513e-02 -7.88252801e-02 -7.64341429e-02 +1.63417216e-02 +5.45025431e-02 -8.62758979e-03 -4.59640957e-02 -1.49974425e-03 +8.25913846e-02 -9.19732004e-02 -8.58839452e-02 -9.01573300e-02 +7.28970245e-02 +6.37742653e-02 +9.27974377e-03 -9.45069939e-02 +1.07815593e-01 +1.11402988e-01 +5.69043048e-02 -7.78315887e-02 +1.05349712e-01 -3.45315672e-02 -1.07260935e-01 -9.61309448e-02 -9.74845886e-02 +6.85333535e-02 -7.53537789e-02 -5.78975268e-02 +2.93395054e-02 +3.57283428e-02 -9.55013186e-02 +1.23321638e-02 -6.30578995e-02 +7.39620328e-02 -4.95418943e-02 -1.09840333e-01 -5.05156443e-02 +8.78719091e-02 +1.12630554e-01 -7.93229602e-03 +1.02213129e-01 -1.13876455e-01 +6.68304190e-02 -8.55465531e-02 +6.49246499e-02 -1.05450355e-01 -5.98614812e-02 +3.61572579e-02 +9.63770449e-02 -1.16665708e-03 -6.94945380e-02 +7.98060000e-02 +4.87936586e-02 +6.85746819e-02 +5.14428392e-02 -8.72971639e-02 -1.21968370e-02 -9.63262022e-02 +1.74854957e-02 -6.71428591e-02 -1.10027030e-01 -3.98451909e-02 +4.84131165e-02 +3.61572467e-02 +2.76614074e-02 -9.10616592e-02 -3.27553302e-02 -2.19623582e-03 +5.46312109e-02 -1.35362493e-02 +6.99075609e-02 -8.60443525e-03 +5.40123284e-02 +5.91227673e-02 -5.99676892e-02 +3.45374383e-02 +1.14366777e-01 -1.16062962e-01 -7.24443719e-02 +6.08205721e-02 -6.39787987e-02 +6.92545623e-02 +7.08045214e-02 +5.03183296e-03 +8.03517625e-02 +6.90960735e-02 +1.01756053e-02 -6.37112409e-02 -6.89637437e-02 -5.31039387e-02 -3.50938849e-02 -3.57527323e-02 +1.22427657e-01 +4.41301987e-02 +3.34449881e-03 -7.02446401e-02 -7.89349247e-03 +9.65605006e-02 +6.39673769e-02 -1.11185119e-01 -3.41320448e-02 -3.00282706e-02 -1.04029678e-01 +1.16453096e-01 +5.29542714e-02 +8.35906044e-02 +8.93484950e-02 -7.02855596e-03 +1.11648865e-01 -8.86279494e-02 -1.04928399e-02 -3.70218605e-02 -2.27145269e-03 +3.89570110e-02 -8.75989422e-02 -5.04163168e-02 -1.15398221e-01 -5.38711101e-02 -7.78592974e-02 +6.63668960e-02 +5.90922274e-02 +1.14978828e-01 +1.22496840e-02 -1.01761028e-01 -9.33837518e-02 +3.79932523e-02 +5.87822162e-02 -5.57483584e-02 -1.48053477e-02 +1.10782273e-01 -3.77806276e-02 -1.46706561e-02 -3.88210230e-02 -2.28305887e-02 -3.27994898e-02 +4.92407866e-02 -2.02657096e-02 +3.66486353e-03 -6.95939511e-02 +7.92618021e-02 +5.93825690e-02 +3.76408137e-02 +8.33398551e-02 +1.06239878e-02 -1.16167217e-01 -1.24328859e-01 -5.43762743e-02 +5.10262176e-02 -3.88855673e-02 +2.03120857e-02 -2.13920064e-02 +1.07946038e-01 +3.18613835e-02 -5.10932729e-02 +1.14709094e-01 +5.84544335e-03 +1.19417317e-01 +5.38920611e-02 +2.11787354e-02 +5.88245951e-02 +1.00321628e-01 -1.72508750e-02 -1.49887372e-02 +9.05048028e-02 +8.02269429e-02 +3.10747381e-02 +9.25537944e-02 -3.03655770e-02 -4.43718247e-02 -1.03309907e-01 +1.21346064e-01 +4.54960484e-03 -3.95205505e-02 -5.23504019e-02 -6.83227628e-02 +7.84605667e-02 +5.58713963e-03 +9.15987417e-02 +7.48214349e-02 -5.31733111e-02 +2.99458578e-02 +5.90246841e-02 -1.06613822e-02 +6.93624318e-02 -4.23534811e-02 -4.36882973e-02 +7.18830749e-02 +4.49625440e-02 -9.70514715e-02 +8.28724280e-02 +8.35701078e-02 +7.45197684e-02 -9.62227732e-02 +9.92197916e-03 -1.94595698e-02 +1.33242449e-02 -4.91393311e-03 +1.11449651e-01 -8.11191723e-02 +2.83043995e-03 -9.20848474e-02 -9.61869508e-02 +9.97337624e-02 -1.00074373e-01 +3.42057757e-02 +4.36421297e-02 +8.08939561e-02 +1.33011974e-02 -9.49066281e-02 +9.18834209e-02 -9.93448943e-02 +1.20387983e-03 +5.65041006e-02 -9.58090574e-02 -1.75386425e-02 -2.15884503e-02 +1.07988611e-01 -7.38957673e-02 -1.15690641e-01 -1.22221224e-01 -4.27365415e-02 +7.12959245e-02 -1.20490476e-01 +1.05264470e-01 -8.95781368e-02 +9.19377208e-02 -6.22808076e-02 -2.87961774e-02 -1.08189479e-01 -1.09908663e-01 -1.02567606e-01 -9.57186967e-02 +6.68295622e-02 +7.11973011e-02 -4.32418240e-03 +1.12167865e-01 +1.08176842e-02 -8.75492841e-02 -4.85484526e-02 +8.03644061e-02 -1.15555026e-01 +1.16755188e-01 -1.02609605e-01 -9.60763320e-02 -1.01092763e-01 +1.15811504e-01 -2.50436943e-02 +8.65208805e-02 -9.36344266e-02 -1.97174121e-02 +1.11655809e-01 -1.30732775e-01 -1.13101579e-01 -1.11170873e-01 +3.71977338e-03 -1.07619353e-02 +2.47457959e-02 +4.35721036e-03 -4.40961085e-02 +4.18980699e-03 -6.17378242e-02 -6.44065216e-02 -5.49898334e-02 -1.74952615e-02 -4.95779328e-02 -1.18229212e-02 +3.98854762e-02 +1.16434149e-01 +4.90883552e-02 -1.10254660e-01 +6.81124628e-03 -8.28376273e-04 -5.52173890e-03 -3.02104354e-02 -1.96076017e-02 -1.25025949e-02 +3.59651372e-02 -6.68508187e-02 -8.51228759e-02 +7.86826164e-02 +9.25492123e-02 -8.42133835e-02 +2.17701644e-02 -8.83975402e-02 -9.46193114e-02 +7.94726014e-02 -6.79112449e-02 -1.01538576e-01 -6.30729308e-04 +1.06298702e-03 -1.19948380e-01 +8.95252898e-02 -7.80785680e-02 -1.10659346e-01 +7.74817318e-02 -1.42399380e-02 +5.83591685e-02 +2.75955088e-02 +3.48307081e-02 +3.13347280e-02 +3.17285657e-02 -7.44701102e-02 +1.40367337e-02 -2.96948701e-02 +1.13811856e-02 +2.00246032e-02 -8.55590031e-02 -9.64401197e-03 +7.32761994e-02 +7.52533181e-03 -9.50571150e-03 -6.69278949e-02 +6.52521700e-02 -6.54701591e-02 -1.19527437e-01 -7.50408787e-03 -3.94290760e-02 +3.82367298e-02 +2.94661410e-02 +4.86896485e-02 -8.80796611e-02 -9.59831998e-02 +5.45853786e-02 -8.00548419e-02 -1.84393730e-02 +2.87072156e-02 +4.93657887e-02 +6.83753043e-02 -9.62813869e-02 +1.02927566e-01 +1.04865558e-01 +2.31957138e-02 +5.73645905e-02 +7.28946775e-02 -8.74609053e-02 -5.20972237e-02 -6.58532530e-02 -9.20714363e-02 +2.01925505e-02 +8.42082407e-03 -4.68700938e-02 +8.84646252e-02 -1.52076222e-02 -1.65375676e-02 +1.23189643e-01 -8.97253305e-02 +2.67603900e-03 +8.98841396e-02 +1.04871586e-01 -2.13138890e-02 -4.84515429e-02 +6.75810128e-02 +1.04808144e-01 -2.91255396e-02 +9.51461345e-02 +6.51401579e-02 -5.30196838e-02 +9.81195830e-03 -1.13916561e-01 -1.56976823e-02 -7.70326927e-02 -6.27246350e-02 +2.03250442e-02 +1.17475063e-01 -9.89058986e-04 -5.25102206e-02 +8.00913572e-02 -5.22584058e-02 +1.19183734e-01 -9.32767242e-02 -1.11308426e-01 +8.75211805e-02 +1.10070646e-01 -8.00383911e-02 -1.13129511e-01 +6.77128509e-02 +8.09895992e-02 -1.05027840e-01 -9.35864598e-02 +2.22535878e-02 +8.28744769e-02 -2.86226105e-02 -5.06563559e-02 -6.24822564e-02 -1.00624271e-01 -2.66181305e-02 -5.67038544e-04 +3.93386446e-02 +2.96449754e-02 +6.50388226e-02 -3.97020802e-02 +1.21478379e-01 +4.06661481e-02 +6.13804832e-02 +1.12107553e-01 +2.03640461e-02 -7.20432103e-02 -6.33615488e-03 +5.84415495e-02 +3.41949053e-02 +9.88089591e-02 +1.10889964e-01 +8.91138166e-02 +3.58730108e-02 +6.01975024e-02 -1.25022056e-02 -9.66661647e-02 +6.11406714e-02 +8.37623607e-03 +5.40399924e-02 +6.43542260e-02 +9.56407189e-03 +9.32049975e-02 +6.33648410e-02 -5.11048920e-02 -7.91323036e-02 +7.93730021e-02 -1.77430566e-02 -7.97989815e-02 +5.68833612e-02 +5.80741055e-02 -3.15028941e-03 +7.22147077e-02 +1.13334782e-01 -2.51938310e-02 -3.29461992e-02 +3.57573479e-02 -4.25743572e-02 +1.30263064e-02 -5.24938554e-02 -9.30511206e-02 +1.01260014e-01 +7.84501135e-02 +1.06887385e-01 -1.01370759e-01 -1.39901889e-02 +2.42321589e-03 +9.08340216e-02 +1.12670325e-01 -1.21338209e-02 +7.09874928e-02 -9.59546715e-02 -4.29723896e-02 -3.04873139e-02 +6.34034397e-03 -1.11787833e-01 +9.58059058e-02 +9.64226723e-02 +4.22239478e-04 -3.41975689e-02 +1.17282860e-01 -1.00692920e-01 +3.31447483e-03 +5.34442030e-02 -7.12720379e-02 +3.48115377e-02 -3.10481153e-02 -1.19722582e-01 +9.78249609e-02 +7.92133063e-02 -7.13452324e-02 -3.38083357e-02 -3.17557231e-02 +8.32579136e-02 +9.65155661e-02 -4.20798026e-02 -8.28968510e-02 -4.28529866e-02 +8.75704885e-02 +5.49073778e-02 -2.58817244e-02 -8.76341611e-02 -3.18541043e-02 +5.55498265e-02 -9.06393398e-03 -6.91935867e-02 -8.45789835e-02 -1.12176172e-01 +9.01439413e-02 +1.07326195e-01 +1.49874808e-02 +1.29479140e-01 -9.79891643e-02 -1.25763135e-03 +3.96768190e-02 +2.75706709e-03 +9.06545445e-02 -3.35368551e-02 -1.60364676e-02 +2.83017252e-02 -2.86387210e-03 -1.13750927e-01 -4.64855768e-02 -3.04927845e-02 -2.96637882e-02 +3.05494517e-02 +1.24318250e-01 -1.00665592e-01 -7.93201178e-02 -2.21264940e-02 -3.86379572e-04 +1.13527417e-01 +6.18876964e-02 +1.13919834e-02 -4.54174392e-02 +1.12931244e-01 +7.55485892e-02 -4.05339263e-02 +5.71483858e-02 +9.87885743e-02 +9.66233313e-02 -2.56736111e-03 -6.75464720e-02 -8.55608284e-02 +7.57410899e-02 +1.02393635e-01 +2.01541446e-02 -7.33552054e-02 +1.80932097e-02 +6.72742948e-02 +2.75658332e-02 -3.11018266e-02 -5.42299822e-02 +1.12547338e-01 -7.41153210e-02 -3.22509632e-02 -9.75248441e-02 -8.73356089e-02 -1.00134686e-01 -8.48482177e-02 -1.19050480e-02 -1.29907534e-01 -5.81645146e-02 +3.83086950e-02 -4.41339053e-02 -1.20764725e-01 -1.03352420e-01 -3.16163115e-02 -1.10693097e-01 -3.97567227e-02 -1.53690819e-02 -5.22322617e-02 +6.28037527e-02 -1.16105527e-01 +1.01872045e-03 +1.04438044e-01 -2.47528702e-02 -5.06991558e-02 -1.19407333e-01 -7.25771114e-02 -1.15323916e-01 -1.17919482e-01 +6.11466803e-02 +3.51815224e-02 +2.54382752e-02 -7.03013539e-02 -6.84341267e-02 -2.99971476e-02 -1.12434037e-01 -6.74493834e-02 +7.58820698e-02 +2.66043190e-02 +1.16665594e-01 +8.67310911e-02 +6.41714931e-02 +5.54355830e-02 +1.39989601e-02 +3.55834365e-02 -1.18532561e-01 +2.33058818e-02 +6.06434904e-02 +7.20700920e-02 +1.20837204e-02 -1.12267144e-01 -1.54636046e-02 -7.08377287e-02 -4.49142158e-02 -1.04314737e-01 -5.75053990e-02 -6.42138273e-02 +8.83986300e-04 -5.09566888e-02 -5.94473183e-02 +1.12258106e-01 +3.48932818e-02 +3.28244008e-02 -7.44690672e-02 +6.40932545e-02 +9.59620178e-02 -1.10377587e-01 +8.63497257e-02 -1.05435245e-01 +1.07982177e-02 -1.17009170e-01 +2.09383424e-02 -5.38601540e-03 -1.12929404e-01 +8.19101930e-02 +3.58774103e-02 +1.53577840e-02 -8.55669975e-02 +8.55658203e-02 +7.75602311e-02 +5.52320760e-03 -1.16971374e-01 +6.86935559e-02 -6.97585344e-02 +3.66353393e-02 +1.21800862e-01 -3.36548127e-02 +5.30219898e-02 -7.78585970e-02 +2.84908582e-02 -7.54890665e-02 -2.75371596e-02 +1.00999907e-01 -1.13015860e-01 +1.00210860e-01 +7.54743218e-02 -1.29625797e-01 -3.85883711e-02 -3.16723622e-02 +2.36602128e-02 +2.12785248e-02 -2.27465406e-02 +8.76587331e-02 +1.00676324e-02 +2.62796646e-03 +2.47147437e-02 -4.29573171e-02 +5.01500145e-02 +5.05616888e-02 -5.75184561e-02 +5.96056432e-02 +9.50749069e-02 -8.42976496e-02 +1.07180960e-01 -1.07005514e-01 -9.97556224e-02 -5.24132773e-02 +1.06971629e-01 -4.60857525e-02 -7.44907930e-02 +3.63254920e-04 -6.75658137e-02 +5.12346029e-02 -8.01268965e-02 -7.18156016e-03 +6.95323944e-02 -7.00210966e-03 +1.06906950e-01 +4.41275686e-02 +4.25944850e-02 +9.96683240e-02 +1.04510717e-01 +4.90735583e-02 +6.20145947e-02 -9.40902382e-02 +1.20835807e-02 +7.84859508e-02 +1.17962450e-01 +2.26671882e-02 -1.16571836e-01 +5.61190546e-02 +5.58969975e-02 +3.34158242e-02 -2.04773434e-03 -1.21884331e-01 -7.90885538e-02 +6.90486878e-02 -4.61965129e-02 -3.71349752e-02 -1.29504740e-01 +1.14293225e-01 -9.88072604e-02 +8.76728967e-02 -8.00833851e-02 +5.82923628e-02 -2.06608903e-02 -6.59578219e-02 -1.23119615e-01 -5.52711114e-02 -5.28557040e-02 +4.24455516e-02 -1.07147530e-01 +2.67487299e-02 -6.59203082e-02 +2.86104474e-02 -4.84477729e-02 -6.76047653e-02 +3.97826172e-02 -5.90467155e-02 +4.62857708e-02 +9.72644836e-02 -1.18061565e-02 -9.54313297e-03 +2.74776127e-02 +9.53902453e-02 -2.47938056e-02 +8.52553025e-02 -7.10612983e-02 -3.11445873e-02 +7.07224302e-04 -3.99506167e-02 -8.80621839e-03 -1.08119696e-01 -8.86852890e-02 -1.68729760e-02 -6.05716780e-02 +9.21521559e-02 -7.59775415e-02 +4.40782830e-02 -4.64932695e-02 -1.22030906e-01 -8.63177981e-03 -6.96202507e-03 +6.37074560e-02 -4.44043763e-02 +1.90275759e-02 -8.34697559e-02 -3.35790291e-02 +3.29380892e-02 +2.16788799e-02 +2.24283524e-02 +5.32995090e-02 -7.40596950e-02 +2.82036550e-02 -1.03788212e-01 +3.81893590e-02 -5.53027503e-02 +3.97001058e-02 -3.80709209e-02 -1.66666489e-02 -7.21958876e-02 +5.88303208e-02 -2.00885814e-02 -4.97522242e-02 +3.06793414e-02 +4.54455102e-03 +1.23655103e-01 -8.80571082e-03 +1.20778076e-01 -4.45598774e-02 +1.02256134e-01 -4.13365215e-02 -1.21030286e-01 +8.27251673e-02 +1.10055991e-02 +6.69983104e-02 -1.09087974e-01 -7.18830675e-02 +1.15303732e-01 +6.22454658e-02 -1.12678833e-01 -7.81246498e-02 +1.92591101e-02 +8.96499306e-02 -1.63186248e-02 -1.05094932e-01 -1.05793193e-01 -4.20519477e-03 +8.65768716e-02 +1.08389102e-01 -1.14774875e-01 +1.03198610e-01 -1.75601523e-02 -5.14230430e-02 +5.28390110e-02 -8.92084539e-02 +4.89796661e-02 -9.18037519e-02 -1.15675824e-02 -3.00133973e-02 +1.89017225e-02 -6.66125771e-03 +6.28024042e-02 +1.21546322e-02 -1.03653409e-01 +9.66759995e-02 -1.19530141e-01 +1.03341185e-01 -3.91453505e-02 +5.24543300e-02 -9.82771963e-02 -6.71639293e-02 -7.31515288e-02 -8.27718452e-02 -1.46372775e-02 +7.05508813e-02 -8.48798007e-02 +8.43885988e-02 -9.15897777e-04 -3.98753248e-02 +1.17920702e-02 +7.86250606e-02 +1.16985291e-01 -4.67973948e-02 +3.38904187e-02 +5.88032268e-02 -5.54153584e-02 +7.85884783e-02 -4.37836051e-02 -7.90820941e-02 +1.48450183e-02 +7.10187852e-02 -2.44846586e-02 +5.05171679e-02 +1.09077595e-01 +8.14674199e-02 -3.21714953e-02 +2.14774162e-03 +8.01275000e-02 -2.29733735e-02 -1.42327044e-02 -9.76429656e-02 +8.41919556e-02 +9.40263346e-02 +1.20438099e-01 +5.80394529e-02 +9.17986035e-02 +6.02498986e-02 -9.95396301e-02 -3.34349386e-02 -6.26987070e-02 +7.92159960e-02 +5.95104657e-02 -2.28567850e-02 -9.95715186e-02 +9.84646156e-02 -4.74242195e-02 -1.12278685e-01 -7.04296082e-02 -1.06715620e-01 +5.14099002e-02 +6.97072446e-02 +6.11503096e-03 +5.82340807e-02 -9.51868296e-02 +1.04386315e-01 -4.36456781e-03 +8.94342735e-02 +9.45650563e-02 +2.09575593e-02 -1.50491726e-02 +1.05774313e-01 +3.94145809e-02 -1.00075535e-01 +2.61313282e-02 +7.74093568e-02 -5.63906915e-02 -5.27833141e-02 +9.41950232e-02 -3.22798043e-02 -1.13786481e-01 +4.17379253e-02 -1.00853495e-01 +5.97899891e-02 -9.40994266e-03 -5.79514690e-02 +4.96942997e-02 +6.37771115e-02 -6.17911257e-02 -5.73228188e-02 +4.94603850e-02 -8.47642049e-02 +1.15454704e-01 -7.07300603e-02 -1.91365108e-02 -6.30032867e-02 -1.10690586e-01 +9.36534032e-02 +9.74956080e-02 -3.59169878e-02 -7.66079500e-02 +9.67262387e-02 +3.96032408e-02 +2.73195803e-02 -1.20801754e-01 -4.52442989e-02 +1.15618289e-01 +4.61426415e-02 +3.89714278e-02 +4.06450666e-02 +5.18740714e-02 +6.76216111e-02 +5.20246364e-02 -1.20065242e-01 +3.13188694e-02 -7.84939528e-02 +1.98576767e-02 +1.00280136e-01 +9.02774855e-02 +1.66493021e-02 -4.84725498e-02 -4.86329384e-02 +1.18352987e-01 -5.01608513e-02 -1.09172583e-01 -2.47717593e-02 -8.36390406e-02 -9.71496403e-02 +7.47629032e-02 +1.19200453e-01 +6.93862140e-02 -8.15984532e-02 +8.34982917e-02 +1.50373159e-02 -3.17068286e-02 +3.37027595e-03 -1.15274467e-01 -5.40112332e-02 +8.15305933e-02 +4.79783155e-02 +1.16017900e-01 -6.52710274e-02 -5.43120652e-02 +1.05873554e-03 -9.38989501e-03 -4.61012013e-02 -9.21623129e-03 +5.98125868e-02 +1.14284441e-01 -9.16685257e-03 -1.69519261e-02 +7.86309838e-02 +3.59405577e-02 +8.61515030e-02 +1.13951415e-01 -1.18829235e-02 -4.99897525e-02 +6.41283616e-02 +5.31040914e-02 +9.11420882e-02 -9.97673348e-02 +5.94941415e-02 +3.17564085e-02 -6.53251186e-02 -4.09753025e-02 +1.94162428e-02 +4.99349460e-02 -1.96436197e-02 -4.93851528e-02 -3.67372744e-02 -8.91323537e-02 +4.20458578e-02 -1.93293542e-02 +9.11279246e-02 -1.62473563e-02 +8.88679773e-02 +9.74800345e-03 -8.03891644e-02 -9.44685116e-02 +9.63632092e-02 +2.28053462e-02 +2.63950676e-02 -5.66535667e-02 +1.13288447e-01 -6.48132116e-02 +3.01270559e-02 -5.63093312e-02 +3.57303768e-02 +7.37734139e-03 +1.81869008e-02 +2.47828923e-02 +2.88994834e-02 +5.72379157e-02 +9.67070311e-02 +1.09889388e-01 -3.95887531e-03 +4.59246198e-03 -1.08855501e-01 +1.21794045e-01 -1.68834068e-02 +8.26836824e-02 -2.34075952e-02 +5.14652617e-02 -4.94520441e-02 +1.32758683e-02 +1.03653125e-01 +9.90438908e-02 -4.56552617e-02 -4.96609472e-02 +9.02021080e-02 -4.27219681e-02 +5.09758927e-02 +6.17086142e-03 -2.35144440e-02 -5.57756275e-02 -3.37792449e-02 +7.42983595e-02 +5.53042768e-03 +1.14552900e-01 -2.99664196e-02 -5.03653660e-03 -5.43778986e-02 +9.95684713e-02 +8.60730745e-03 +1.15528055e-01 -5.86622320e-02 +8.44855979e-02 +1.14243694e-01 -4.49633449e-02 +2.40596421e-02 -2.05552671e-02 +1.18334472e-01 -1.01082288e-01 +6.51514381e-02 -1.21616319e-01 +4.51273210e-02 -2.71178614e-02 -7.03224316e-02 +4.91544418e-02 -1.06187843e-01 +6.24740571e-02 -9.36228856e-02 -7.41778538e-02 +6.40413389e-02 +6.62814900e-02 -1.22192569e-01 -9.16897058e-02 +8.48838035e-03 +1.10366426e-01 -1.09911770e-01 +7.02049881e-02 -9.36097801e-02 +9.85900760e-02 -7.01938197e-02 +4.17001545e-02 -1.13388412e-01 -1.00846574e-01 +9.99008119e-02 +1.28310993e-01 -7.51812235e-02 +1.75348611e-03 +5.37900962e-02 -5.07860333e-02 +5.92642687e-02 -7.19967410e-02 +3.08803841e-03 +9.13821608e-02 -8.63281358e-03 +8.68507773e-02 -4.45655100e-02 +6.30439818e-02 +1.16573960e-01 -1.22115210e-01 -7.71792009e-02 +6.14517815e-02 -1.12722240e-01 -7.62137175e-02 -3.75573859e-02 +4.62869965e-02 -2.93416847e-02 +8.88275951e-02 +6.17189391e-04 -1.03212055e-03 +1.02443188e-01 -3.24715748e-02 -3.51885823e-03 +6.13738671e-02 -2.90818326e-02 +6.06706068e-02 +4.07376848e-02 +7.18396157e-02 -7.75465667e-02 -1.17230296e-01 -4.16246168e-02 -4.98098470e-02 +1.13317959e-01 +1.40419351e-02 -8.31801221e-02 -1.30060967e-02 +6.53320327e-02 -1.83434470e-03 +7.49735087e-02 -2.92492844e-02 +3.11712753e-02 +6.53851628e-02 +4.36762646e-02 -1.41789103e-02 +1.84946731e-02 +2.96755265e-02 +3.17798592e-02 +7.73739740e-02 -3.19921672e-02 -2.50416491e-02 -4.66568656e-02 +6.58183619e-02 -2.95860898e-02 -2.34989133e-02 +4.27299477e-02 -5.03620431e-02 -9.53875780e-02 +2.63337791e-02 -1.12372518e-01 +5.37561402e-02 -1.14862993e-01 +2.21794024e-02 +9.04565081e-02 -3.39772031e-02 -1.17277712e-01 -5.17866313e-02 +1.07166171e-02 -3.71324420e-02 +1.60902999e-02 -1.02279611e-01 -5.25783189e-02 +4.45097610e-02 -1.94417257e-02 +8.03475454e-02 +3.01149469e-02 -1.23001270e-01 +5.09239845e-02 +7.89312087e-03 +1.00592755e-01 +1.12670794e-01 +1.14411145e-01 +3.14632989e-02 +7.75066912e-02 +5.18333912e-02 -7.74185220e-03 -1.11195296e-01 -7.43175894e-02 -1.18432023e-01 -4.85158153e-03 +8.95497054e-02 +2.16831341e-02 +1.15051374e-01 +4.59467582e-02 +8.50180387e-02 -1.02275237e-01 +8.05663168e-02 -1.29288202e-02 -1.11636877e-01 -8.86548087e-02 +9.23957974e-02 -1.04943320e-01 +3.04847471e-02 +6.67344630e-02 -1.06491506e-01 -6.81653544e-02 +9.81512889e-02 +1.22525498e-01 +3.55065130e-02 -1.26178414e-01 -4.66679921e-03 +1.19304229e-02 +3.63841541e-02 +8.77884924e-02 +1.05890855e-01 +8.27896176e-04 +1.10471457e-01 +4.42306995e-02 -1.21267803e-03 -1.95131935e-02 +8.07442218e-02 +1.04026884e-01 +1.26456600e-02 -5.56930564e-02 -9.02280211e-02 -1.09180033e-01 +5.04211299e-02 +1.06358990e-01 +1.13393329e-01 +1.01745702e-01 -2.17750873e-02 -2.52118353e-02 +6.29560277e-02 -2.17792131e-02 +5.00201061e-02 +9.70324203e-02 -2.79826466e-02 +1.01137035e-01 -6.78332802e-03 +8.40585504e-04 +9.85103548e-02 +1.18533382e-02 -1.15674473e-01 -1.11678161e-01 -4.43762122e-03 +1.19311221e-01 +8.57366771e-02 -5.64447558e-03 -1.82547569e-02 +1.51591450e-02 -3.62222902e-02 +7.94012658e-03 -6.00829627e-03 -1.02259934e-01 +1.09808035e-02 +9.59135219e-02 +1.14586838e-01 -3.30826081e-02 +2.82406267e-02 +9.34243426e-02 +4.61898483e-02 +6.42964914e-02 +4.21631746e-02 -4.57868613e-02 -1.08660839e-01 +9.35899501e-04 -8.41880515e-02 -1.02341637e-01 -5.16115688e-02 +8.43668282e-02 -9.33671594e-02 -1.05694674e-01 -8.60549808e-02 +1.22574173e-01 -5.75334989e-02 -6.78554550e-03 +3.68838571e-02 -2.67378353e-02 +8.59135464e-02 +6.63872585e-02 +3.74909565e-02 +9.37059000e-02 +6.47514015e-02 +1.14804856e-01 -1.12635210e-01 +6.85126055e-03 -3.19463275e-02 -2.68909764e-02 +4.15666169e-03 +8.57245624e-02 +2.61116009e-02 +8.04696884e-03 -2.34578717e-02 +1.52787995e-02 -1.32954083e-02 -2.17296500e-02 +9.13832560e-02 -1.01397604e-01 -1.62339620e-02 +7.82161206e-02 -2.26445924e-02 +1.96379051e-02 +1.12400837e-01 -1.21575214e-01 +8.67632180e-02 -3.65860239e-02 -4.10325192e-02 -7.39799142e-02 +9.15779471e-02 -6.06834330e-02 +1.17690578e-01 -8.25251937e-02 -7.05025494e-02 +5.51710762e-02 +1.05893105e-01 -7.48085827e-02 +8.34389552e-02 -2.89916135e-02 -9.16020423e-02 -6.32475987e-02 -5.94310760e-02 +2.71186456e-02 +1.11937419e-01 -1.10877484e-01 -4.18283939e-02 +9.39982664e-03 -4.08980399e-02 +4.16271053e-02 -1.02767628e-02 +9.64179039e-02 -6.63660318e-02 +1.69996526e-02 +2.27293372e-02 -6.83895051e-02 -1.11746728e-01 -6.05018809e-02 +6.42242134e-02 -9.47397649e-02 -1.10461943e-01 -1.11289121e-01 -1.18667431e-01 +1.17472023e-01 -6.33554161e-02 +1.00902639e-01 +3.76696400e-02 +1.04592562e-01 +7.66204149e-02 +6.66891038e-02 -1.13240786e-01 -6.16145246e-02 -7.11845309e-02 -1.62405279e-02 -1.63799524e-02 +1.45715009e-02 -7.93876424e-02 -1.88869555e-02 -8.75632018e-02 -2.12139823e-02 +6.23355843e-02 +6.08310923e-02 +8.32737237e-02 -9.60185677e-02 -4.91244160e-02 -4.94103916e-02 +6.64051846e-02 -8.83543491e-02 -3.00497375e-02 +7.06843361e-02 -1.11050345e-01 +1.57226697e-02 +1.19129010e-02 -3.39035094e-02 -9.57710817e-02 -4.00246643e-02 -5.14817312e-02 -5.95831238e-02 +6.75599352e-02 -5.27972579e-02 +8.93697441e-02 +5.98692819e-02 -1.16208382e-01 +8.01971853e-02 +8.39197561e-02 +7.44322315e-02 +1.04289800e-01 -4.24350835e-02 +5.97420614e-03 -1.62937660e-02 +1.10073052e-01 -7.95914158e-02 +5.02851382e-02 -5.00880405e-02 +1.20251656e-01 +1.25413174e-02 -1.15643866e-01 +1.16083167e-04 -9.40773711e-02 -1.16509059e-02 -2.35636849e-02 -8.47621188e-02 -2.02093422e-02 -8.46625566e-02 +8.92461613e-02 +7.99744278e-02 -1.14880569e-01 +2.58056959e-03 +8.23468789e-02 -3.19256037e-02 +1.08989440e-01 -7.44684488e-02 +3.92611772e-02 +8.97793844e-02 +2.63687819e-02 -1.04187921e-01 +9.03615088e-04 +3.37004513e-02 +4.73556062e-03 -8.91116410e-02 -6.06875829e-02 -1.78906471e-02 +1.04620345e-01 +3.98673415e-02 +4.42732461e-02 -6.20638914e-02 +7.14770481e-02 -6.50401367e-03 +5.64902760e-02 +5.30610718e-02 +1.32152927e-03 +2.37659202e-03 -3.32459956e-02 +5.36404736e-02 -2.38872804e-02 +7.65822157e-02 +1.10716172e-01 -7.85504282e-02 +1.06098764e-01 +8.21430236e-02 -2.18984187e-02 +8.26256201e-02 -2.77867559e-02 -8.03950801e-02 -4.20259573e-02 +9.80861858e-02 +4.67956923e-02 -8.74687061e-02 +5.04451208e-02 +9.97660756e-02 +2.17203773e-03 +1.99964233e-02 -6.58352003e-02 +7.34669492e-02 -1.21274963e-02 -7.90126845e-02 -4.06347355e-03 +6.71742037e-02 -4.96819057e-02 +2.83702202e-02 +1.79698300e-02 +1.09059773e-01 +9.81464908e-02 -6.47230148e-02 -5.37263639e-02 +2.74976064e-02 -3.70020494e-02 +7.30315894e-02 -6.07813112e-02 +1.64547339e-02 +7.13092089e-02 -7.40756392e-02 -6.94007128e-02 -6.71885088e-02 +1.10266842e-01 -9.14751962e-02 +3.84402014e-02 -6.10335805e-02 -6.64121881e-02 +3.18992883e-02 -4.68621999e-02 -1.49072241e-02 +1.80496299e-03 -3.34691741e-02 -9.90784541e-02 +1.92911383e-02 -8.67613181e-02 -5.48739247e-02 +5.28164171e-02 -8.32958296e-02 -8.10149089e-02 +2.87246853e-02 -7.24204183e-02 +1.09063536e-01 -2.55895732e-03 +4.75674868e-02 +7.35137612e-02 +1.25564048e-02 +3.93371023e-02 +2.50352658e-02 -7.32963011e-02 -1.06286652e-01 +9.69788805e-03 -6.88247010e-02 +1.10637046e-01 +8.23332444e-02 +1.84448548e-02 +7.79956356e-02 +5.33453189e-02 -7.00325221e-02 -6.69335052e-02 -1.84753921e-03 -4.52286340e-02 +9.04370621e-02 -9.56439227e-02 +7.87790939e-02 +1.05851874e-01 -7.14910328e-02 +8.12801048e-02 -7.45815784e-02 +8.03981498e-02 -1.05888046e-01 -5.50068021e-02 -3.35222818e-02 +4.04596776e-02 +6.56473562e-02 -8.39099213e-02 +9.37341247e-03 -2.45155357e-02 -6.22936487e-02 +9.60541293e-02 -1.14151753e-01 -2.07084343e-02 +5.30054457e-02 -1.81528591e-02 +3.69181335e-02 -1.27360672e-01 +6.81376159e-02 +1.78033765e-02 +1.12735173e-02 -4.14293110e-02 -2.12203003e-02 -3.68224084e-02 -7.36485049e-02 +6.03798497e-03 -8.47358629e-02 -5.96120171e-02 -9.76459906e-02 -2.66709309e-02 +7.50959739e-02 +1.17142707e-01 -5.75262904e-02 -4.71679345e-02 +1.21146791e-01 +7.20124915e-02 +1.17831774e-01 -2.34916657e-02 -1.60965752e-02 +8.74540508e-02 +6.34863079e-02 +1.05912231e-01 +9.79038700e-03 -4.36781570e-02 -6.43012673e-02 +5.17192259e-02 +2.48886365e-02 -2.12382022e-02 -5.34078367e-02 +4.26646993e-02 +2.43826071e-03 -1.56482924e-02 -1.22544974e-01 -1.39975054e-02 -7.48725906e-02 -5.92383966e-02 +8.70226473e-02 -4.08253297e-02 +2.90766899e-02 -5.45205213e-02 -3.94202992e-02 -1.10396773e-01 +3.60792130e-02 +2.90835798e-02 +3.29091139e-02 -3.51792760e-02 -5.33539392e-02 -9.85948890e-02 +7.43400725e-03 +8.73127300e-03 +7.34402388e-02 -6.81708977e-02 +1.00804135e-01 +1.79471988e-02 -8.23366418e-02 -1.20577931e-01 -1.24010257e-01 -6.32657036e-02 -1.02784820e-01 +5.38454428e-02 -5.98398484e-02 +6.90567344e-02 +3.99715565e-02 -8.84176865e-02 +9.28315818e-02 -7.77161494e-02 +1.30542358e-02 +1.29364403e-02 +2.79581919e-02 +2.95687225e-02 +6.68744966e-02 -3.29344384e-02 +3.41214351e-02 +3.01252287e-02 -1.22944638e-01 +1.22200698e-02 +4.88285534e-02 -1.20432647e-02 +9.49280113e-02 -1.66379604e-02 +2.33640112e-02 -3.15686055e-02 -1.10319898e-01 +2.84541566e-02 -7.18830079e-02 +2.66296352e-04 -7.34563619e-02 +7.89197087e-02 +2.74305791e-02 +9.51691568e-02 -5.80470487e-02 +2.98756305e-02 -6.00706860e-02 +3.80046200e-04 +5.14520369e-02 -7.89127722e-02 -8.22189674e-02 -1.11270078e-01 -1.09790407e-01 +8.44740495e-02 -3.78923938e-02 +7.69359767e-02 +5.38994372e-02 +9.35932100e-02 +5.67971803e-02 +6.00695349e-02 +1.09670199e-01 -1.18436016e-01 +1.36394566e-02 -9.82400030e-02 -5.34752831e-02 -5.75896576e-02 -7.68273100e-02 -6.55218288e-02 -1.20826431e-01 +1.05226286e-01 +8.93503800e-02 +4.05383632e-02 +6.57620579e-02 +3.04731894e-02 -1.06827535e-01 -8.70983973e-02 -1.01071991e-01 +6.43266663e-02 -6.03376180e-02 +1.13775909e-01 -4.18725163e-02 -2.08827611e-02 +3.86622772e-02 +4.73440774e-02 -9.99763906e-02 -1.13896780e-01 -3.42450924e-02 -8.60913619e-02 -3.67120653e-02 +7.68841952e-02 -1.10266007e-01 -1.04686372e-01 -8.88987333e-02 -6.52557760e-02 -1.16570681e-01 +8.52214987e-04 -3.91323566e-02 -9.56799164e-02 -5.92145510e-02 -3.74902263e-02 +1.34322082e-03 +3.24848033e-02 +1.32096335e-02 -2.86083370e-02 -2.05141548e-02 +7.84583688e-02 -5.16064242e-02 +1.04083903e-01 +2.75246389e-02 -1.20281816e-01 -3.80957387e-02 +1.03154652e-01 -6.73100352e-02 +4.62634824e-02 +5.76252081e-02 -1.02330320e-01 -8.47761184e-02 -1.43574569e-02 +1.06205419e-01 -2.64061615e-02 -1.56747177e-02 -9.00781304e-02 +1.13137454e-01 -3.04559637e-02 -8.07165876e-02 +2.74934396e-02 +5.49318381e-02 -1.06981412e-01 +9.01979655e-02 -2.80885696e-02 +8.45933035e-02 -2.07070410e-02 -8.63590688e-02 +9.47458521e-02 +1.33431731e-02 -1.27741367e-01 -1.17278937e-02 -1.18630536e-01 +8.13953802e-02 +2.35463697e-02 +3.33238021e-02 -6.37327209e-02 -1.16020635e-01 -7.82737806e-02 -8.54688957e-02 +1.01335920e-01 +1.96151752e-02 -3.91576393e-03 +3.47800367e-02 -1.22972302e-01 +2.71734819e-02 +1.82267081e-03 -9.41704959e-02 +1.85623895e-02 -6.42689988e-02 -2.39588916e-02 +9.08295438e-02 +4.46721986e-02 -5.20746559e-02 -2.46460531e-02 +6.98572025e-02 +8.51557553e-02 +1.07888557e-01 +1.01551950e-01 +3.08740046e-03 -9.40750912e-02 -1.43454541e-02 +1.65869631e-02 -2.74627563e-02 -6.27811775e-02 -9.57455859e-02 +3.68179008e-02 +9.79346111e-02 +1.16298404e-02 -1.14520676e-01 +1.23676494e-01 -9.71179307e-02 +3.56462188e-02 -2.18957923e-02 +6.33661225e-02 -7.12830871e-02 -1.21289425e-01 +1.06080924e-03 -5.54747954e-02 +6.56497404e-02 -8.78346562e-02 +5.74371293e-02 +3.37108262e-02 +5.03513440e-02 -5.17980531e-02 -1.00153834e-01 -1.10817896e-02 -1.00865595e-01 +6.96179718e-02 -8.01654086e-02 -1.01954467e-03 -5.02194054e-02 +5.92443980e-02 +3.26430090e-02 -1.08655073e-01 -9.91899297e-02 -6.82195872e-02 +1.18204884e-01 -1.08624764e-01 +8.37021098e-02 +1.06695838e-01 +9.32260510e-03 +2.03913059e-02 -9.05118138e-02 +8.43010470e-02 -2.54462827e-02 -8.40721950e-02 +7.19880164e-02 -4.43575047e-02 -3.06305140e-02 +8.96121785e-02 +8.06729347e-02 -3.11180316e-02 +3.54357362e-02 +1.85894165e-02 -1.01327775e-02 +1.57180289e-03 -1.13326080e-01 +1.20398313e-01 +4.08311561e-02 +6.98709302e-03 +9.93075445e-02 -1.12323970e-01 +7.31667057e-02 -5.97988032e-02 -1.19038001e-01 -3.11374683e-02 -9.10374448e-02 -4.25496511e-02 +2.26805285e-02 +6.64876997e-02 +2.25824080e-02 -2.79810242e-02 +5.73701672e-02 -1.06127478e-01 -1.07059680e-01 +4.27016504e-02 +6.11385033e-02 -8.96366090e-02 +9.99382585e-02 +1.10226735e-01 +1.13327026e-01 -5.63942129e-03 -8.65576044e-02 -2.59398343e-03 +6.61945120e-02 -1.10712210e-02 -8.07217211e-02 -5.69433421e-02 -9.63399187e-03 -1.22143358e-01 -1.13618135e-01 +4.79239523e-02 +3.67170572e-02 -2.91888695e-03 -1.28646851e-01 +4.25556116e-02 -8.93343762e-02 +9.43690315e-02 -6.75316229e-02 -1.08784415e-01 -1.10748708e-01 -1.15645871e-01 -9.92471203e-02 +9.45064873e-02 -9.37368255e-03 +6.73676059e-02 +3.89041267e-02 +1.37588161e-03 +9.46181118e-02 -1.16804853e-01 -6.85004815e-02 +3.69567052e-02 -3.64940017e-02 +8.25497881e-02 +3.32332104e-02 +5.53403609e-02 -3.60725522e-02 -9.59417671e-02 -1.97461639e-02 -3.06850066e-03 -4.90470789e-02 +5.67498431e-03 -4.26199585e-02 -8.13719928e-02 -9.33192223e-02 -7.73295108e-03 +4.01887204e-03 -7.98753500e-02 -8.59148130e-02 +1.01863928e-01 +8.76205862e-02 -1.11945935e-01 -9.27885920e-02 +3.31214331e-02 +2.18057539e-02 +4.23318967e-02 -1.12315536e-01 +6.75143301e-02 -4.11096103e-02 -5.02474308e-02 +1.05674073e-01 -1.03012510e-01 +9.27939266e-02 +1.08722761e-01 +2.64796875e-02 -1.10014789e-01 +6.68694749e-02 -6.25092164e-02 -6.05788417e-02 +7.62028173e-02 -1.08275510e-01 +1.05589502e-01 -7.12210536e-02 +5.81445098e-02 -9.70929936e-02 +1.14216674e-02 +5.58009483e-02 -3.25734578e-02 +4.88082170e-02 +7.69982710e-02 +9.88789201e-02 -1.71906501e-02 +1.10742435e-01 +9.77224186e-02 +6.87029865e-03 +3.37427370e-02 +1.01198733e-01 +7.14304596e-02 -7.40330368e-02 -8.43825638e-02 -6.73226565e-02 -9.72144157e-02 -5.04793972e-02 +1.20525695e-01 -2.63017397e-02 +5.46218641e-02 +5.89674376e-02 -4.68544476e-02 +3.23263481e-02 -7.66759738e-02 +2.58883554e-02 -3.05157099e-02 +9.41728875e-02 -6.63182931e-03 -1.01102836e-01 -1.14033826e-01 +1.67923477e-02 +4.72264998e-02 +4.49350961e-02 +1.15439251e-01 -1.17073491e-01 -1.12916499e-01 -3.02471500e-03 -1.01411499e-01 -1.01864316e-01 +4.37494414e-03 +1.18600503e-01 -4.23952155e-02 +9.28295180e-02 +8.96342173e-02 +7.02422038e-02 -1.03391401e-01 -1.05724998e-01 -3.24235745e-02 -9.70445275e-02 +8.14443007e-02 +1.04443073e-01 -8.83951709e-02 +7.56072849e-02 -8.79001394e-02 -1.14272736e-01 +1.05094358e-01 +1.16805650e-01 +1.13964759e-01 +9.81341600e-02 -5.98101802e-02 +8.53819922e-02 +6.70448467e-02 +5.60773239e-02 -1.04909047e-01 +9.87127870e-02 -1.16424635e-01 +1.11826912e-01 -4.64096479e-02 +1.12155803e-01 +1.03635475e-01 -1.19661495e-01 +1.40335597e-03 -9.49136838e-02 +3.76361469e-03 -1.47066107e-02 +4.61862981e-02 -5.08604795e-02 -1.12475157e-01 +9.95274261e-02 +2.12800078e-05 -9.88889486e-02 -9.79582369e-02 -4.28512320e-02 +8.43242034e-02 -4.70743328e-02 -7.07100183e-02 -4.62063737e-02 +1.10015191e-01 -1.13156155e-01 +9.36559886e-02 +3.03986273e-03 +1.09021649e-01 -9.86367986e-02 -9.30772945e-02 -5.60815036e-02 -7.13685006e-02 -1.95075851e-02 +2.92492304e-02 +3.34895439e-02 -4.82410081e-02 +3.07598934e-02 +2.20457967e-02 -1.13870986e-01 -1.24748223e-01 +6.08980209e-02 +8.63307491e-02 -6.77741989e-02 -1.04017533e-01 +3.74432490e-03 +3.08261700e-02 -4.86653596e-02 +3.94964404e-02 -5.84148765e-02 +8.77814218e-02 +9.76131037e-02 +2.28342824e-02 -1.26818791e-02 -2.63057444e-02 -2.23600119e-02 -6.65156916e-02 +2.48316694e-02 +1.16125286e-01 -1.82725061e-02 -8.45403448e-02 -8.92980099e-02 -5.37293265e-03 +1.04903847e-01 +5.71552888e-02 +1.21020585e-01 +1.11063190e-01 +3.22623812e-02 +7.68454093e-03 +9.33986157e-03 -1.11784570e-01 +7.83585757e-02 +2.94673312e-02 -1.01407342e-01 +9.28076059e-02 -2.14981847e-02 -5.02900071e-02 +6.09933957e-03 -6.86301813e-02 -9.19066221e-02 -7.80980289e-02 -5.27204834e-02 -8.18247050e-02 -3.49203609e-02 -4.81394604e-02 +7.41118491e-02 +2.75356881e-02 -9.16085169e-02 +9.61436331e-02 +5.91640687e-03 +9.96402577e-02 +1.06891707e-01 -1.18655339e-01 -8.79813358e-02 +2.21853182e-02 -1.05448179e-01 -2.26829164e-02 -3.01529299e-02 -1.12293670e-02 -1.20383903e-01 +1.24356493e-01 +1.18056163e-02 -3.13136205e-02 -6.86429217e-02 +1.31473262e-02 +1.22182444e-01 -5.97569384e-02 +5.96842915e-02 -1.18134655e-01 +1.21355101e-01 -8.16513449e-02 +1.77071791e-03 +7.86612034e-02 -4.36177626e-02 +8.47980380e-02 +6.07479326e-02 -1.10117100e-01 -8.41455236e-02 +1.08362250e-01 -5.48728369e-03 -5.39186411e-02 +5.68250977e-02 -6.36142343e-02 +6.35926947e-02 -7.91706704e-03 -1.24167847e-02 +1.11400023e-01 -9.64213386e-02 -1.05051272e-01 +1.43399294e-02 -7.33325258e-02 +1.94985047e-02 +1.03476383e-01 -9.04206112e-02 +3.69846262e-02 +8.25966299e-02 -7.88769871e-02 +9.93193388e-02 +6.83662146e-02 +1.01930685e-01 -5.60948364e-02 -7.84202069e-02 +3.51843089e-02 -1.02513544e-01 -1.16468348e-01 +7.43242726e-02 +1.91760398e-02 +1.97900701e-02 -5.77287562e-03 +7.63529260e-03 +4.04889099e-02 -9.19032395e-02 +3.71682108e-03 -4.87698019e-02 +6.86589703e-02 -6.83320537e-02 -3.10324691e-02 +9.40206200e-02 -1.12489909e-01 -5.94412424e-02 -6.45413771e-02 -4.73659225e-02 -3.01301666e-02 +1.34033673e-02 +3.74147035e-02 -1.84150133e-02 -7.89936855e-02 +7.14866892e-02 -5.71806617e-02 +6.87629953e-02 +6.30241409e-02 +1.20814145e-01 -2.81255208e-02 -5.73744029e-02 +4.57623601e-02 +7.61720836e-02 +1.66513883e-02 -6.70779422e-02 -1.30710736e-01 +2.70197522e-02 +1.06880702e-02 +5.12926131e-02 -2.21985504e-02 +9.93768126e-02 -1.19191833e-01 -1.00105122e-01 +3.28074880e-02 -1.07104098e-02 -6.75280690e-02 +3.27217728e-02 +3.24960947e-02 +1.28862048e-02 +9.42569673e-02 +7.87436217e-02 -6.77668154e-02 +1.01673409e-01 +1.19463112e-02 +1.46675797e-03 +4.75825518e-02 -1.21572405e-01 -1.74160302e-02 +2.32577268e-02 +1.08394148e-02 +7.74284676e-02 -7.49716461e-02 -6.06765226e-02 -1.17481001e-01 -7.04310238e-02 -1.10179111e-01 +5.91199920e-02 +4.34579290e-02 -4.37200963e-02 +7.36455768e-02 +3.47719975e-02 +2.91635115e-02 -1.11814894e-01 +1.15049303e-01 -8.34415928e-02 -2.62455139e-02 +7.98896402e-02 +3.53226475e-02 +2.57740766e-02 +4.83122692e-02 -8.59724879e-02 +4.35750745e-02 +1.02642529e-01 -1.09786084e-02 -8.63046274e-02 -6.85597630e-03 +7.66438395e-02 -1.54767903e-02 +9.87857431e-02 -7.00128376e-02 +1.74178965e-02 +6.34774268e-02 +8.97857845e-02 +2.52467729e-02 +9.77121443e-02 +1.09169938e-01 +6.76078722e-02 +2.78778784e-02 +1.00827113e-01 +1.04242750e-01 +1.19077139e-01 +2.04232670e-02 +4.16747816e-02 -1.10265657e-01 +8.07574615e-02 -5.91117516e-02 +6.84633572e-03 -3.89082842e-02 +2.50584874e-02 -7.36568943e-02 -4.81254142e-03 -1.22487113e-01 -7.21155331e-02 +4.03929837e-02 -7.92065486e-02 -1.09664448e-01 -1.17161408e-01 -9.59860012e-02 -1.13888077e-01 -5.35705350e-02 +6.57239929e-02 -2.63704043e-02 +1.06972806e-01 -7.73206577e-02 -7.60421529e-03 +2.71432158e-02 +3.08791995e-02 -1.37212109e-02 -8.24035853e-02 -1.18673993e-02 +3.96535322e-02 -1.08064249e-01 -1.13627560e-01 +6.30485862e-02 -9.03720632e-02 +7.86102936e-02 -2.50295717e-02 +5.43532521e-03 -1.04089633e-01 +1.20644365e-02 -7.14237615e-02 +8.90889168e-02 -8.95240903e-02 -3.75958681e-02 +3.50846201e-02 +6.58224151e-02 -3.30517478e-02 -2.90654562e-02 -9.74619016e-02 +1.17675833e-01 +1.08891986e-02 -3.37546915e-02 -3.75966802e-02 -4.41850796e-02 +6.79717064e-02 +1.01705611e-01 -6.18889602e-03 -5.19068278e-02 -8.58476162e-02 +1.15076602e-02 +7.22387582e-02 -6.74814731e-02 +8.39257762e-02 -1.15270928e-01 -8.54772255e-02 -3.29732597e-02 +5.54539189e-02 -1.11293884e-04 -7.47837648e-02 +6.09453022e-02 -3.01160738e-02 -2.04343535e-02 +6.29474595e-02 +6.64471760e-02 -2.75637917e-02 -8.79760385e-02 +3.57717983e-02 +2.86085140e-02 +5.79868853e-02 +7.46436939e-02 +1.98976632e-04 -1.03479661e-01 -8.76222104e-02 +6.68139830e-02 -9.33534652e-02 +9.37318578e-02 +2.84734759e-02 +7.75580108e-02 -1.00468352e-01 +1.20767407e-01 -9.05789882e-02 -3.50758396e-02 -4.39023562e-02 -8.88103768e-02 +2.48754434e-02 -2.11319476e-02 -6.75676167e-02 -4.89104167e-02 -8.52266401e-02 +1.93434916e-02 +9.87581164e-02 -1.81512963e-02 -1.02274053e-01 +9.68560129e-02 -8.18462744e-02 -2.95347273e-02 -3.05723920e-02 -2.97333263e-02 +4.90981005e-02 -5.24211787e-02 +5.29529452e-02 +6.72752410e-02 -6.68117180e-02 -1.16120465e-02 +3.20305750e-02 -6.17184937e-02 -7.31467307e-02 -6.91075474e-02 -7.33348504e-02 +2.03288738e-02 -9.64688584e-02 +1.02441758e-01 -1.18711770e-01 -4.21978422e-02 -1.04428276e-01 +7.91430846e-02 -5.08961789e-02 -1.98015310e-02 -3.79074775e-02 -7.15135559e-02 -3.19979712e-02 +4.81936708e-02 +9.83284786e-02 -6.47770762e-02 -4.50519053e-03 -3.79369892e-02 -2.19504051e-02 +1.81980226e-02 -1.06928982e-01 +3.27211730e-02 +2.99072601e-02 -2.32018866e-02 -9.07383673e-03 +1.04622789e-01 -3.77769917e-02 -2.71990970e-02 +4.11428660e-02 -3.43236588e-02 -4.04116362e-02 +5.57245128e-02 -7.54545927e-02 +1.18419334e-01 +1.10750832e-01 +8.05437341e-02 -4.96588834e-02 -5.88859140e-04 -4.29067165e-02 -1.69451982e-02 -8.98872614e-02 +2.08684206e-02 -4.32811752e-02 -1.19016998e-01 -1.19242191e-01 +5.63693456e-02 -3.52951325e-02 -8.73892680e-02 -5.34660518e-02 +1.15126967e-01 -1.14213981e-01 -4.01652558e-03 -6.22177199e-02 -1.19545199e-01 -8.70081037e-02 -3.34471688e-02 +1.06423190e-02 -1.05662167e-01 +2.90827546e-02 +2.27175392e-02 -3.15623917e-02 -5.29315509e-02 +4.91303764e-02 -2.14017406e-02 -3.19024995e-02 -6.57018088e-03 +5.18936552e-02 +2.94730645e-02 -9.71147865e-02 +1.34316934e-02 -3.23720858e-03 +9.66800004e-02 -1.25961397e-02 +7.83222169e-02 +9.16109085e-02 +5.49046285e-02 -4.50720191e-02 +4.87719709e-03 +1.22255705e-01 +2.40389779e-02 -6.39856309e-02 -7.29024857e-02 +9.63529944e-02 +1.13041930e-01 +1.01461008e-01 -1.11596100e-01 +1.09696008e-01 -5.12351915e-02 -1.21490927e-02 -2.90702246e-02 +8.10721666e-02 +3.66693512e-02 +3.68245761e-03 +1.07449144e-02 -1.03745736e-01 +9.26338285e-02 +4.07636352e-02 -9.79980975e-02 -3.18768099e-02 -5.35983257e-02 -3.48368436e-02 +1.08619079e-01 +9.68540609e-02 -6.27029464e-02 +1.18925199e-01 +8.56447369e-02 +1.05504245e-01 +5.98952547e-02 -9.08081904e-02 +5.93231991e-02 -2.33586263e-02 -1.16541289e-01 +7.11868256e-02 -1.18802838e-01 +6.64534122e-02 +1.35688009e-02 -5.26957326e-02 -1.52829411e-02 -9.11483988e-02 -1.77673940e-02 +8.50485712e-02 +8.76878202e-02 -1.18132733e-01 +5.31831607e-02 +2.14161035e-02 -9.79334712e-02 +6.84793442e-02 +1.17566518e-01 -3.32286842e-02 -1.30944019e-02 +1.67945772e-02 -1.11036018e-01 -3.20818350e-02 -2.95087621e-02 +7.68517405e-02 +5.10850102e-02 +1.26204910e-02 +1.22663267e-01 -1.65600628e-02 +6.15671016e-02 +8.47099274e-02 +8.70076194e-02 +1.00680999e-01 -9.16533768e-02 +6.03074618e-02 -6.03998154e-02 +6.21620007e-02 -7.36493766e-02 +1.03345945e-01 -3.98229472e-02 +5.71393073e-02 +1.12225905e-01 +4.74351421e-02 -1.17304891e-01 +4.98125926e-02 +3.18629742e-02 -2.47519445e-02 -1.01847956e-02 -1.07422255e-01 -4.51232353e-03 -1.04633272e-01 +3.87434214e-02 +1.67709403e-02 -3.97002362e-02 +6.13566153e-02 -4.07861844e-02 -3.69220115e-02 +9.24674645e-02 -7.87549093e-02 +4.16347757e-02 +5.48135564e-02 +8.95563364e-02 +7.21013099e-02 -1.42019028e-02 -1.16524898e-01 +2.54390519e-02 -1.18449345e-01 +7.79429451e-02 +5.46252318e-02 -7.51078054e-02 +6.02892786e-02 -6.37518093e-02 -3.75757553e-02 -4.21693325e-02 -1.11713395e-01 +8.71613398e-02 -7.37098530e-02 -6.79628849e-02 -2.39771251e-02 -9.78794768e-02 -8.70052204e-02 -1.18752224e-02 -9.72893164e-02 +3.40080038e-02 -5.29561900e-02 -5.74397296e-02 -8.53193849e-02 +2.39351112e-02 +4.68948670e-02 -2.09952537e-02 +1.09714694e-01 -5.96002415e-02 +6.27016276e-02 -6.24009408e-02 -1.17700929e-02 -1.19119413e-01 +5.03653958e-02 -6.73725754e-02 +3.35262679e-02 +8.98592845e-02 -2.29955162e-03 -1.12767667e-01 -9.22045019e-03 +3.17027071e-03 +6.81448951e-02 -1.17441297e-01 -8.55473056e-02 -1.20630696e-01 +1.08142361e-01 +7.97823519e-02 -9.49843004e-02 -1.14439420e-01 -9.40101817e-02 +3.19704384e-04 +2.07708646e-02 -4.08105962e-02 -2.73184050e-02 -1.50577174e-02 +8.37645587e-03 +9.97347087e-02 +4.08285335e-02 -6.07098714e-02 -9.56298560e-02 +8.16531628e-02 -2.51871608e-02 +7.99656212e-02 +9.68224183e-02 +5.83075657e-02 -3.52729075e-02 +8.47158432e-02 +2.82687731e-02 -7.52417147e-02 -1.21056370e-01 -1.01231575e-01 +9.81133282e-02 +1.35744223e-02 +1.12083651e-01 -3.60949454e-03 +7.78033137e-02 -5.12505211e-02 +8.44498724e-02 +1.11532457e-01 +8.77079219e-02 +3.99796963e-02 -1.14471443e-01 -7.06459731e-02 +9.58095044e-02 -9.56499279e-02 -2.08999426e-03 +8.17313045e-03 -8.62989202e-02 -1.15642399e-02 -1.47668188e-02 +4.04386967e-02 -7.29569197e-02 +7.22818002e-02 +1.18891478e-01 +9.64732692e-02 -2.72369832e-02 -1.05519131e-01 -1.14054658e-01 -2.13663410e-02 +8.94350186e-02 -7.61991739e-03 +9.12185833e-02 +2.10071728e-02 +1.54360791e-03 +1.01489849e-01 +1.23128518e-02 +3.74665260e-02 -3.78036909e-02 -1.33025022e-02 +8.73894915e-02 -1.18645765e-01 +1.15066037e-01 +2.32648980e-02 +2.87872739e-02 +1.12356260e-01 -2.55652275e-02 -1.15394004e-01 +9.70653892e-02 +1.39825779e-03 -6.61617666e-02 +1.11519061e-01 -4.07450311e-02 +7.53704906e-02 +7.43545517e-02 -3.01121292e-03 +6.31465688e-02 -4.94353622e-02 -5.42936660e-02 -2.88044233e-02 -9.15893838e-02 -3.71991880e-02 +4.95967921e-03 -9.66484919e-02 +2.98999865e-02 +5.55107780e-02 -1.08134635e-01 +5.69333918e-02 -7.06209913e-02 -9.65780988e-02 -2.37307139e-02 +7.12614879e-02 -5.66046461e-02 -7.38094673e-02 -4.44843061e-02 -9.74848047e-02 +2.85533699e-03 -3.79735716e-02 +1.07528232e-01 +3.33308391e-02 -3.76959480e-02 -9.44993943e-02 -1.15461320e-01 -6.61892742e-02 +5.73857240e-02 +8.28803405e-02 +8.52170363e-02 +8.56732950e-02 +6.98839799e-02 -1.45760747e-02 +1.81745589e-02 -1.18648626e-01 +1.62097551e-02 -1.06028713e-01 +3.08217928e-02 -2.66782176e-02 +2.64074877e-02 +6.08219989e-02 -1.37503548e-02 -1.07615039e-01 +3.38150002e-02 +2.40103509e-02 +1.05778918e-01 -1.87810771e-02 -1.06666446e-01 +2.57842727e-02 +5.28108031e-02 -7.43576437e-02 -8.55322853e-02 -5.84573932e-02 +1.97516219e-03 -2.17167716e-02 -4.09627743e-02 -6.28566071e-02 +1.47201233e-02 +5.19119911e-02 -3.63366716e-02 -6.39552847e-02 -2.16950346e-02 +9.33293370e-04 +6.04252778e-02 +8.14387575e-02 +2.36305650e-02 +3.94678935e-02 -1.12139732e-01 -9.48142558e-02 -8.56902078e-02 -4.66361009e-02 -3.55434120e-02 +7.18197078e-02 -9.09240171e-02 -1.30818114e-01 +7.30698043e-03 +1.08628817e-01 -9.22548771e-02 -9.26770037e-04 -9.25879646e-03 +1.06544875e-01 +7.88244512e-03 -4.44462001e-02 +5.78207597e-02 +5.88226579e-02 -1.02426067e-01 +3.37929698e-03 -1.06247738e-01 +9.57571045e-02 +1.12019934e-01 -8.65681991e-02 -4.27056290e-02 +2.07206178e-02 -8.30008648e-03 -1.03955358e-01 -9.28796604e-02 -2.91962991e-03 -4.49649356e-02 +3.03236227e-02 +1.41337756e-02 +6.18692189e-02 +8.78304020e-02 -8.45010802e-02 +5.48198596e-02 -1.19547427e-01 +1.03240393e-01 -7.22826198e-02 +7.79771209e-02 -7.76366293e-02 +9.42308828e-02 -7.19064772e-02 -1.39661301e-02 +4.31772806e-02 -1.60934012e-02 +6.18311167e-02 -4.98293489e-02 -4.72894274e-02 +1.69609836e-03 -1.08777128e-01 -1.87073555e-03 -9.64899734e-02 -3.24246399e-02 +8.05435851e-02 +2.61326116e-02 -5.54663576e-02 +5.85354753e-02 +1.23073556e-01 +1.21370452e-02 +1.12535924e-01 +7.81007558e-02 +5.32783903e-02 -8.67785290e-02 +1.07987799e-01 -5.49785160e-02 +1.19696267e-01 -6.12015612e-02 -1.07997611e-01 +1.14924625e-01 -3.79779376e-02 +1.85115114e-02 -4.32464182e-02 -2.07688212e-02 -4.66389582e-02 +6.99434429e-02 +8.50909278e-02 +1.20238312e-01 +3.22681069e-02 +5.53505011e-02 -1.15719698e-01 -1.87668838e-02 -7.73755237e-02 -1.10924959e-01 +5.06880693e-02 -1.05968550e-01 +5.66613376e-02 +2.23007216e-03 +7.67278310e-04 +3.44255976e-02 -9.87845734e-02 +2.94872355e-02 -6.25938475e-02 -5.46810776e-02 +3.72652523e-02 +7.40955099e-02 -1.01000629e-01 -4.12261635e-02 +1.10690787e-01 -8.01453218e-02 -7.96924904e-02 -5.42362668e-02 +3.02982808e-04 +5.47513962e-02 +1.00978605e-01 -3.51882949e-02 +7.10945902e-03 +9.01406705e-02 -1.07704565e-01 +9.04320332e-04 -8.97153839e-02 +3.33210826e-02 +5.51489703e-02 -1.57745723e-02 +6.99060187e-02 +5.62964985e-03 -1.26581350e-02 +4.40417863e-02 +1.02465928e-01 +7.88111836e-02 +1.08183086e-01 +6.14467226e-02 +2.23374888e-02 -7.70031214e-02 +3.40401791e-02 +8.19509178e-02 -1.08092681e-01 +8.21563974e-02 +1.10493191e-01 +1.02372922e-03 -8.62317830e-02 -9.70535204e-02 -9.62395370e-02 +9.83255450e-03 -6.70481920e-02 +2.42103860e-02 +1.05772980e-01 -4.11693426e-03 -4.94600423e-02 +1.09494917e-01 +1.13654546e-01 +6.90856352e-02 +1.22383967e-01 -2.86699124e-02 -1.10369451e-01 +1.04919553e-01 +9.75642949e-02 -1.14546835e-01 -4.10939706e-03 +2.68642679e-02 -4.74512465e-02 -6.07106015e-02 -2.21127048e-02 -1.21793002e-01 -8.84079933e-02 +6.51813522e-02 +8.00487399e-02 +1.02153040e-01 +7.64378160e-02 -5.90920821e-02 -4.03400371e-03 +6.36689067e-02 +3.74825560e-02 -7.06999153e-02 -4.38634641e-02 +1.21824265e-01 +1.23247713e-01 -1.02958150e-01 -3.10813971e-02 +3.97910364e-02 -1.10815195e-02 -9.13464278e-02 -1.13518327e-01 -1.10029332e-01 +1.10041961e-01 +9.26502421e-02 +5.84375393e-03 +4.83831130e-02 -4.43746187e-02 +2.90642716e-02 +1.19953804e-01 +1.01590522e-01 -8.09632763e-02 -1.08918577e-01 +2.36208271e-03 +2.11439878e-02 +1.06078111e-01 +4.88237329e-02 -6.17130622e-02 -1.02893904e-01 -8.42103139e-02 +7.68977329e-02 +3.55738699e-02 -9.42714140e-02 +1.20263174e-01 +8.33693817e-02 +1.06824189e-01 +1.19805358e-01 +9.04414505e-02 +5.81418425e-02 +1.80694051e-02 -1.35609703e-02 +1.01859182e-01 -7.24273697e-02 +4.51175496e-02 +8.40021372e-02 +1.03454866e-01 +5.24952002e-02 +8.57228637e-02 +2.81245224e-02 +7.46564493e-02 +9.08252299e-02 +9.26653966e-02 +8.64727795e-02 -3.08887754e-02 -1.10894017e-01 -1.20624565e-01 -6.40960783e-02 -1.17845491e-01 +1.77237932e-02 +3.18619260e-03 -2.60182694e-02 +2.25483794e-02 -1.13472275e-01 -1.04319438e-01 +1.31249730e-03 +8.38105455e-02 -3.21383253e-02 +4.80292551e-03 -6.82788789e-02 -4.33706008e-02 +3.82831581e-02 -8.75718147e-02 -7.25186095e-02 +2.36214679e-02 +1.31520424e-02 +1.19695656e-01 +9.01321247e-02 +1.25285491e-01 +8.46096873e-02 -1.07539132e-01 -2.96893474e-02 -1.03417248e-01 -6.04399405e-02 -3.16936411e-02 -3.08415908e-02 -4.83804755e-02 -1.09451376e-01 +6.07294627e-02 -1.14321917e-01 +4.85864095e-02 +7.27285445e-02 -3.82248610e-02 -3.08054611e-02 +4.84341122e-02 +1.20427333e-01 -1.10657826e-01 -8.51161703e-02 +7.59924650e-02 -1.02312177e-01 -9.18225758e-03 +9.43497270e-02 +5.76408170e-02 +2.68211626e-02 -4.20648791e-02 -6.84049204e-02 -7.59316012e-02 +9.97576341e-02 +4.10886817e-02 -1.18113041e-01 -1.10855810e-01 -2.98338067e-02 -4.59731966e-02 -4.81318757e-02 -5.81642501e-02 -5.29892445e-02 +4.64539528e-02 -1.17143050e-01 +1.07451670e-01 +6.62512183e-02 -8.95658508e-02 -2.36619618e-02 +6.21879697e-02 -1.08756848e-01 +5.27049042e-02 +2.37736143e-02 +6.91365674e-02 +1.39585119e-02 -4.37947968e-03 -9.23319440e-03 -3.45955379e-02 +9.29595158e-02 +4.05067950e-02 +7.52047449e-02 -3.19404937e-02 -6.13267310e-02 -1.40084000e-02 +9.90782604e-02 +7.39998221e-02 +7.13878423e-02 +4.01044190e-02 -4.79142293e-02 -6.92429915e-02 +8.68324712e-02 +4.52552289e-02 -5.83047941e-02 -1.25608131e-01 +7.02133626e-02 -4.14462611e-02 +2.66213920e-02 -3.61094959e-02 -2.17686277e-02 +5.42193763e-02 +5.90311289e-02 -5.21118753e-02 +3.50786303e-03 +7.19531998e-02 -5.24534006e-03 +8.80496800e-02 +3.04744076e-02 +8.33400059e-03 -1.70712341e-02 -1.24593318e-01 +1.10877052e-01 +9.46285669e-03 -9.21599120e-02 -7.42130876e-02 -1.66783631e-02 -1.04955938e-02 +6.71519488e-02 -5.16672134e-02 +1.15431406e-01 -7.41563886e-02 +6.23149201e-02 +1.19376294e-01 -1.05835572e-02 -2.47553345e-02 +6.90570697e-02 +2.03902684e-02 -8.11663046e-02 +1.00604512e-01 -1.28441583e-02 +4.64363657e-02 -9.73118097e-02 -1.99293755e-02 +2.71593463e-02 +3.99437323e-02 -9.71955955e-02 -3.68084274e-02 -8.47060233e-02 -4.29334715e-02 -4.05243225e-03 +8.86520445e-02 +4.93365787e-02 +7.90976360e-02 +2.59819422e-02 +4.40523475e-02 +2.86436286e-02 -9.16507468e-03 -1.68652851e-02 +2.29527913e-02 -1.18621759e-01 -7.82345980e-02 -8.37511867e-02 +6.84458837e-02 +8.96069873e-03 +9.15091112e-02 -7.02309050e-03 +6.12141751e-02 +3.31490897e-02 -1.00303695e-01 -7.89441913e-03 +6.99351588e-03 -8.16824585e-02 +8.25455505e-03 +5.31896614e-02 +1.02148458e-01 -7.01624453e-02 +3.06670461e-03 +1.07352830e-01 +4.43776790e-03 -1.40362782e-02 +4.92735282e-02 -1.76596064e-02 +7.89741799e-02 +7.10201561e-02 +1.22563124e-01 -2.05136347e-03 -9.35079455e-02 +1.02226593e-01 +7.16638938e-02 +9.35138017e-02 -4.57296930e-02 +5.92535734e-02 -1.29481731e-03 +8.04750323e-02 +1.23170251e-02 +7.25612715e-02 +8.34233761e-02 +5.69677725e-02 +9.05438140e-02 +4.33689058e-02 -4.36517969e-02 -7.61539936e-02 -6.64226487e-02 -1.22656055e-01 +2.70352326e-02 -5.52372895e-02 -4.15026024e-02 +1.39956539e-02 +1.02354661e-01 -9.76398513e-02 +1.49835777e-02 -3.64939049e-02 +2.10088249e-02 -8.06999113e-03 -4.58593629e-02 -4.16556150e-02 +1.15783766e-01 -4.35623340e-03 -5.74849173e-02 +8.64575580e-02 -5.73195927e-02 +3.15718651e-02 -7.49440193e-02 -1.69351064e-02 -1.14524655e-01 +9.57664698e-02 -1.00147180e-01 +1.20130546e-01 -6.44778013e-02 +9.35990736e-02 -7.19748288e-02 -3.78138456e-03 +1.25010744e-01 +8.63381941e-03 -6.54544756e-02 -1.02822147e-01 -3.07971556e-02 +2.57801637e-03 +6.40862659e-02 -2.00305916e-02 +4.23677824e-03 +9.75095630e-02 +2.62286253e-02 -8.95089284e-02 -1.14200719e-01 +7.89775513e-04 +9.10938755e-02 +5.12828724e-03 -3.51748951e-02 -4.46614921e-02 -1.66129917e-02 +1.09551745e-02 -1.07550444e-02 +9.81303006e-02 -3.94289568e-02 +8.96340683e-02 -2.68913303e-02 +9.31199118e-02 -5.68922097e-03 +2.54807919e-02 -7.86470547e-02 +8.36443454e-02 -1.24832280e-01 -7.71430507e-02 +1.24732584e-01 +9.48017463e-02 +4.30372655e-02 -1.04642943e-01 -3.38939764e-02 -6.92815408e-02 -4.81485687e-02 -2.08232775e-02 +8.03063810e-02 -4.70919423e-02 -1.13301329e-01 +7.09346905e-02 +1.92838032e-02 +6.72652349e-02 -1.03915915e-01 -1.08128292e-02 +2.32718270e-02 +6.58571050e-02 +7.91333690e-02 -9.85334963e-02 +3.21413577e-02 +2.10705865e-02 -2.42267805e-03 -7.61328414e-02 +9.09945518e-02 +3.19236219e-02 -1.19530752e-01 -5.40435016e-02 +3.19121294e-02 +9.48048756e-03 -8.11242163e-02 +2.92060263e-02 +6.41924888e-02 -7.91942775e-02 -1.74804479e-02 -3.64244059e-02 -9.32475328e-02 -6.44471943e-02 -2.09064148e-02 -3.13429162e-02 +1.17438592e-01 +8.27216357e-02 +9.45108570e-03 +4.94117141e-02 -1.01888448e-01 +9.25837830e-02 -3.26881148e-02 -1.13775454e-01 -3.97930667e-02 +9.10183638e-02 +6.49154261e-02 -9.48358178e-02 -9.84028876e-02 +7.80778080e-02 -8.99598747e-02 -1.04483813e-02 +8.65244307e-03 +6.15180098e-02 -5.71931079e-02 +2.12455522e-02 -1.08698010e-01 +6.63807467e-02 -6.97812513e-02 -1.03670985e-01 +7.84084871e-02 +6.44548088e-02 -7.61757195e-02 +3.74201164e-02 +9.03415158e-02 -1.83293857e-02 +1.04947075e-01 +2.60271952e-02 +8.82460549e-02 -1.13672994e-01 +9.00847986e-02 +3.32972198e-03 +3.44053246e-02 +7.93498475e-03 -1.95637755e-02 -2.80958731e-02 -3.53431962e-02 -4.32409644e-02 +1.15822926e-01 -5.02105020e-02 -5.88277401e-03 -7.19501730e-03 -5.00494093e-02 -9.69716012e-02 +8.13621059e-02 -2.22886004e-03 +1.61147937e-02 -7.64721185e-02 -7.87350461e-02 -5.09327948e-02 +7.67498389e-02 +2.76875179e-02 +5.56694344e-02 -4.72352095e-02 -8.01559389e-02 -8.54643136e-02 +1.17702916e-01 +1.00599602e-01 +2.20929720e-02 -9.01493356e-02 -6.56733736e-02 -9.80941430e-02 +1.14805348e-01 -8.89264941e-02 -8.30815285e-02 -1.98733434e-02 +9.13336501e-02 +3.68705019e-02 +1.10955760e-01 +6.98248893e-02 +5.92142120e-02 +1.21146692e-02 +5.93028292e-02 -3.24886590e-02 +2.07741819e-02 -8.69249254e-02 -6.94143474e-02 -7.64904246e-02 +1.24574164e-02 +1.12337500e-01 +1.11001953e-01 +1.10675916e-01 -9.95462164e-02 +7.53764659e-02 -3.10395453e-02 +7.78242350e-02 -8.50039870e-02 +1.62205305e-02 -1.15388446e-01 -9.06436667e-02 +1.75929237e-02 -5.84782399e-02 +2.79592648e-02 +3.26936096e-02 +2.61777453e-02 -3.37785557e-02 +9.19124857e-02 -4.72785532e-02 -8.40300396e-02 +5.28225265e-02 -1.22065097e-01 -1.10927723e-01 -4.15400341e-02 +6.93739504e-02 -9.89432726e-03 -1.10571131e-01 -6.55512437e-02 +7.23470673e-02 +9.68072638e-02 -1.19321801e-01 -4.27518785e-02 -1.06365271e-01 -1.12659402e-01 +4.45261151e-02 +9.01240706e-02 +5.99759221e-02 -5.69410250e-02 +6.33723140e-02 +2.33294163e-02 +9.42361429e-02 -8.02503824e-02 +6.63739592e-02 +1.68657838e-03 +8.41181874e-02 +1.03303619e-01 -1.04209006e-01 +4.97593768e-02 -1.23163713e-02 +4.49780449e-02 +1.03781320e-01 +8.17212984e-02 -9.51563641e-02 -5.52326664e-02 -1.11555912e-01 -4.69755568e-02 +7.70575628e-02 -1.03532463e-01 +8.74066278e-02 -1.17460683e-01 +2.46881749e-02 +4.08197083e-02 +7.09942579e-02 +6.27916157e-02 +4.34786938e-02 -2.72233821e-02 +4.49881405e-02 +1.59509922e-03 +7.62774646e-02 -8.38337168e-02 -1.09365687e-01 -9.81858447e-02 +1.05528779e-01 +9.96458083e-02 -7.68459141e-02 +7.62595311e-02 +1.44586023e-02 +4.71833069e-03 -4.26248983e-02 -3.60291600e-02 -1.06306508e-01 -6.33762777e-02 -7.64930099e-02 +8.37124288e-02 +1.47816092e-02 +8.97941887e-02 +1.18097410e-01 +7.95562863e-02 -5.04007228e-02 -1.26171306e-01 -1.23866927e-02 -6.95762262e-02 +9.04930383e-02 +2.34964769e-02 +1.65001620e-02 -9.72116888e-02 -1.34408325e-02 -1.45346820e-02 -1.02437712e-01 -7.87302703e-02 +8.68252665e-02 -6.29404560e-02 +1.11142583e-01 +4.55949269e-03 -1.12739727e-01 -3.11463661e-02 -8.77367854e-02 +1.09486729e-01 -1.06714390e-01 +8.50257576e-02 -3.82482000e-02 -7.40490854e-02 -1.06780112e-01 -1.19652368e-01 -1.63692180e-02 -1.00868993e-01 +8.48683715e-02 -8.54874589e-03 -4.16317470e-02 +1.07699007e-01 -3.02144606e-02 +8.50723125e-03 +5.84775321e-02 -7.67320162e-03 +1.07024603e-01 +6.33275360e-02 -8.01527947e-02 +3.09829470e-02 +4.68051694e-02 +7.13416785e-02 -9.94648784e-02 +6.85722530e-02 -1.07356654e-02 +5.09869792e-02 +2.65335534e-02 -3.27693112e-02 -6.08087704e-03 -1.34952378e-03 -5.02334200e-02 -2.78283488e-02 -7.92833045e-03 -9.20563564e-02 +1.06251463e-01 +4.43443656e-02 +2.40714122e-02 -5.67336045e-02 +6.13471819e-03 +6.18846267e-02 -8.44625011e-02 -1.18539087e-01 +1.12536818e-01 +1.53643657e-02 -3.10965627e-02 +1.08974483e-02 -9.41717774e-02 -5.66127300e-02 +3.22248265e-02 +1.21955909e-01 -1.12045154e-01 +3.60375121e-02 -3.04837688e-03 +3.10533084e-02 -2.21050866e-02 +1.36839440e-02 -4.44026776e-02 -1.00020841e-01 -6.12612329e-02 -1.10690005e-01 -9.47145224e-02 +4.60527427e-02 -3.34873870e-02 -2.46056430e-02 -8.88021588e-02 +1.04140840e-01 -9.05336365e-02 +7.85674974e-02 -1.03829756e-01 -1.83194969e-02 -4.95294295e-03 -9.65004116e-02 +6.62545487e-02 +1.14225388e-01 -4.91760299e-02 -5.47989756e-02 -7.30515644e-02 +1.02155775e-01 +7.53801763e-02 -9.07225832e-02 +4.98800464e-02 +1.05303824e-01 -1.36413868e-03 +6.91997856e-02 +9.87503212e-03 -4.66064960e-02 +1.36346864e-02 +6.57147216e-03 +5.26347309e-02 -8.93989950e-02 -8.30530077e-02 +4.50543873e-02 -1.14065427e-02 -5.96445240e-02 +1.89236514e-02 +3.01312003e-02 -4.30726297e-02 -2.86108349e-02 +3.41361202e-02 -6.53804839e-02 +6.67558312e-02 -1.35377713e-03 -2.73589268e-02 -4.11527269e-02 -6.70509487e-02 -1.11496307e-01 +7.18806759e-02 +4.16993313e-02 +6.44492656e-02 +3.11126150e-02 +4.40645292e-02 +1.02705866e-01 +6.53914213e-02 +7.14224279e-02 -7.34941214e-02 -2.50625052e-02 -4.13678363e-02 +8.54237229e-02 -5.39852940e-02 -3.17688100e-02 -2.24616379e-02 +7.13419020e-02 -1.08707033e-01 +6.31062360e-03 -7.29298219e-02 -3.54187638e-02 -7.75773497e-03 -1.59955062e-02 +9.56299603e-02 +1.06529482e-01 -3.39484122e-03 -1.91421602e-02 +6.67349622e-02 +2.59457268e-02 +2.47515296e-03 -3.97535563e-02 +5.59554063e-02 +4.08343086e-03 +2.70824619e-02 +1.99124422e-02 +1.15662385e-02 -7.03877285e-02 +2.97902655e-02 +8.48276913e-03 -1.17742509e-01 -9.10919309e-02 +2.01401878e-02 +5.80072477e-02 -4.03003767e-02 -6.31009927e-03 +1.98010281e-02 -1.00838602e-01 +4.13204506e-02 +3.81621495e-02 +6.68645054e-02 +3.73503938e-03 +1.09401174e-01 +1.02113754e-01 -1.08947702e-01 -7.10727796e-02 -9.31349769e-02 -6.60022199e-02 +7.90566877e-02 -8.88754502e-02 -8.40412173e-03 -4.09307802e-04 -3.53553481e-02 -5.43182008e-02 -4.85033393e-02 +5.76397777e-02 -5.21679968e-02 +2.65639592e-02 +1.50435930e-02 -1.10948443e-01 -1.14207961e-01 +2.50571221e-03 -1.40198758e-02 +1.37902573e-02 +1.14621120e-02 -5.88633269e-02 +1.12763017e-01 -7.77162090e-02 -1.18271671e-01 +6.92604706e-02 -7.91282132e-02 +9.67809260e-02 +4.80777100e-02 +2.85752434e-02 -7.94558674e-02 +8.81015584e-02 -1.11294635e-01 +9.14412886e-02 -4.93237600e-02 +1.19129598e-01 +7.30377436e-02 -9.11904722e-02 +7.40637183e-02 -2.94952244e-02 -8.25173396e-04 -1.21756129e-01 +2.24170294e-02 +6.41150922e-02 +2.77165649e-03 +7.72599578e-02 -3.25844772e-02 -3.37264724e-02 +6.68218955e-02 -7.82198384e-02 -8.06391612e-03 -2.51769405e-02 -7.14473948e-02 +7.39141256e-02 -6.43675998e-02 -1.18238814e-01 -1.21387362e-01 -9.75013673e-02 -9.68417972e-02 +4.34971377e-02 +1.25834391e-01 +2.88990000e-03 -7.90389534e-03 -5.55054806e-02 +1.02461644e-01 -4.37704623e-02 +1.55188395e-02 +8.23399723e-02 +6.14631511e-02 -5.78743853e-02 +1.99426059e-02 -1.15111403e-01 +8.14199448e-02 +1.13931462e-01 -4.97088581e-02 -8.47416595e-02 -2.91595962e-02 +1.13762483e-01 -6.95218220e-02 +2.30182093e-02 +2.81497482e-02 +1.11795023e-01 -1.19625463e-03 +4.54276279e-02 +1.05117090e-01 -9.31991041e-02 -4.53082547e-02 +9.33516994e-02 -5.31640127e-02 +1.08620316e-01 +2.50002537e-02 -3.34980749e-02 -1.27426535e-01 +1.07036054e-01 -5.91993369e-02 -2.16665063e-02 -1.21598817e-01 +8.16804729e-03 -2.19641291e-02 -8.37555006e-02 -1.86693352e-02 -1.16978474e-01 -4.12162542e-02 -1.12406090e-01 +2.16470640e-02 +1.20297521e-01 -1.07932821e-01 +2.16774009e-02 +9.99716595e-02 -7.81657770e-02 +5.81909269e-02 -3.77767161e-02 +5.83940512e-03 -5.69933392e-02 -4.54830565e-02 -2.94558927e-02 -7.62905031e-02 +9.71937701e-02 -4.04302292e-02 +5.79556040e-02 -7.38111651e-03 -7.97114149e-02 -6.39982224e-02 -7.44620338e-02 +3.27108130e-02 -1.21371090e-01 +2.49041803e-02 +2.52109990e-02 -8.98854807e-02 -9.71959382e-02 -1.11246340e-01 -9.08314884e-02 +3.77609245e-02 -8.29235688e-02 -8.32231864e-02 -9.25892889e-02 -1.64378621e-03 +1.12921640e-01 -1.98014434e-02 -1.00909717e-01 +1.08773954e-01 +7.08227530e-02 -6.72258586e-02 -1.09927952e-01 +5.22354133e-02 +5.25334366e-02 +4.32827584e-02 +2.60844938e-02 +3.78815755e-02 -2.95576602e-02 -6.96630925e-02 +8.49308372e-02 +8.95070098e-03 -3.29985097e-02 -4.05376330e-02 +6.05179705e-02 -9.08176377e-02 +9.91322398e-02 -9.60195288e-02 -1.08986862e-01 +4.61341217e-02 +5.02129085e-02 +1.07940726e-01 +1.01843914e-02 -1.67147443e-02 +6.54531345e-02 +1.03931678e-02 -5.26890643e-02 +6.01430200e-02 +8.02914670e-04 -4.13889363e-02 +9.39918235e-02 -6.97616339e-02 -5.35262823e-02 -2.88647041e-02 -5.43829286e-03 +7.30943978e-02 +1.12842992e-02 -1.03741296e-01 -9.93617326e-02 +1.94569845e-02 -5.12501830e-03 -5.76306842e-02 +6.59894273e-02 -5.17282858e-02 +5.71376309e-02 +9.46927890e-02 -2.23136861e-02 -7.81165659e-02 -1.97695177e-02 +9.76308659e-02 -1.21337779e-01 +8.57829899e-02 -5.05397171e-02 -1.14784576e-01 -3.77191901e-02 +1.45061396e-03 -3.65917683e-02 +8.16115811e-02 +4.27218676e-02 -8.27725157e-02 -6.47132844e-02 -6.57263920e-02 -1.20668791e-01 +1.09654762e-01 -6.37190193e-02 -1.21899229e-02 -1.70547701e-02 -1.24648854e-01 -1.06748439e-01 -1.07225940e-01 +1.14683956e-01 -1.16659246e-01 -4.59482558e-02 +1.15499727e-01 +1.00787379e-01 +1.13056161e-01 -7.23339468e-02 +8.33328143e-02 -3.39542888e-02 -2.17676628e-02 +1.70381169e-03 +7.81136751e-02 -5.67897446e-02 +8.60162750e-02 +1.20315067e-01 +9.95811075e-02 -1.11905925e-01 +2.17746533e-02 -1.06541328e-01 +5.11381812e-02 +8.18818994e-03 +5.14389910e-02 -2.60412786e-02 +1.65882092e-02 -1.12127177e-01 +1.42692751e-03 +1.18844904e-01 -1.12216361e-01 +1.14766158e-01 -4.80399542e-02 +1.01924196e-01 +1.00562349e-02 -8.07377473e-02 +2.51960121e-02 -7.73377642e-02 -1.00213334e-01 +4.64109629e-02 +1.95248779e-02 -3.18303667e-02 -7.17652962e-02 +7.04855546e-02 -3.77470702e-02 -5.31200580e-02 +1.11215562e-01 -1.85735635e-02 +1.81119423e-02 +6.75317496e-02 +7.44270012e-02 +2.64784042e-02 +1.98125513e-03 -8.16690773e-02 +5.04208505e-02 -1.04611814e-01 +8.85436460e-02 +2.60542855e-02 +4.43512909e-02 -1.27702907e-01 +1.09908015e-01 -1.21965580e-01 +1.10404052e-01 +1.90556366e-02 -2.47800089e-02 -6.49259016e-02 +7.33454674e-02 -9.03333724e-02 -9.80837345e-02 -7.85125867e-02 +7.02134669e-02 -1.15885362e-01 +1.16854068e-02 +9.43598971e-02 +2.23579910e-02 +4.90752682e-02 -1.17421634e-01 +1.58364847e-02 -1.75898056e-02 -5.51978685e-02 -6.64114356e-02 -7.60126710e-02 -2.02971585e-02 +8.62494260e-02 +3.23316045e-02 +4.10876516e-03 +9.89118814e-02 -9.91450474e-02 +6.90276995e-02 +7.31980652e-02 -5.56716546e-02 -2.99298353e-02 +7.00357035e-02 +1.54519565e-02 +1.36365322e-02 +2.02451590e-02 -6.40035570e-02 -9.05156322e-03 -1.12905838e-01 -2.14746501e-02 +5.36622815e-02 -1.89428963e-03 +2.68712286e-02 +3.64187434e-02 -3.49169374e-02 +1.01437017e-01 -2.31163763e-02 -6.25290647e-02 -8.34942684e-02 +4.38126959e-02 +1.40597252e-02 -3.38512734e-02 +1.31136440e-02 -2.01992057e-02 +6.58301190e-02 -5.63524701e-02 +7.30699077e-02 -3.40928370e-03 +1.07557096e-01 -9.93431807e-02 +5.57713173e-02 -1.16290234e-01 +4.58993204e-02 -8.00168738e-02 +1.06457710e-01 -1.96584258e-02 -3.56053188e-02 -5.49639389e-02 -9.80027542e-02 -9.67588276e-02 -6.33548796e-02 -9.50445086e-02 -1.00018121e-01 -8.35186020e-02 +8.02560970e-02 -5.29515855e-02 -3.05650160e-02 +1.76203996e-02 -8.90209451e-02 -2.74538156e-02 +2.44826614e-03 -6.14782684e-02 -8.58956799e-02 +3.81915681e-02 +1.21155165e-01 +4.09304313e-02 -7.00131655e-02 +2.55410448e-02 +1.18263932e-02 +9.88356769e-02 -6.23619929e-02 -6.97370097e-02 +9.12362803e-03 +1.22182123e-01 -1.08102478e-01 +5.18430136e-02 +8.42207745e-02 +5.04605882e-02 +4.92066853e-02 +5.22679500e-02 +9.69567075e-02 +1.88402198e-02 -1.11196868e-01 +3.50830629e-02 +1.17897272e-01 -9.34563056e-02 -1.17008895e-01 -1.07464634e-01 