#Parameter# /_0 {200,342} 1094401 ZERO_GRAD
-4.84582074e-02 -3.69742624e-02 -8.51108357e-02 -4.71891761e-02 -2.02475116e-02 +1.11054003e-01 +5.22107854e-02 +8.62696394e-02 +2.75697976e-01 +5.21054640e-02 +1.24382973e-01 +2.22176164e-02 +1.70373604e-01 +2.05796771e-03 +1.94286063e-01 +1.18204050e-01 +9.14404318e-02 +3.64102772e-03 -7.40091354e-02 +1.21430129e-01 +6.28329217e-02 +7.88276419e-02 +7.94920996e-02 +3.80587354e-02 +1.58886816e-02 -6.07741401e-02 -9.60360318e-02 +1.17993988e-01 -7.10129067e-02 +2.16341406e-01 +1.43133685e-01 +9.75227430e-02 -1.40671954e-01 -9.96340364e-02 +1.89372063e-01 +2.49856144e-01 +1.20435461e-01 -9.31455269e-02 +7.10117370e-02 -4.52798530e-02 -1.99348982e-02 -2.29377881e-01 +8.65076035e-02 -8.40104893e-02 -6.89063296e-02 +6.85603172e-02 -2.67465878e-02 -6.44273832e-02 +6.92362199e-03 +2.36349683e-02 +1.14615187e-02 +1.45349637e-01 -6.53816462e-02 -6.76902682e-02 +7.15562403e-02 -1.33047085e-02 +3.48454751e-02 +1.57609567e-01 +2.65181325e-02 -5.08336537e-02 +6.82558641e-02 +1.79138612e-02 -4.21286114e-02 +9.85346385e-04 +9.76715311e-02 +4.43750434e-02 -8.00646469e-02 -1.10627580e-02 +1.53882504e-02 -3.55004966e-02 +9.77024734e-02 +7.60706812e-02 -8.54486749e-02 -5.96796572e-02 -3.07670310e-02 -9.14429650e-02 +1.72298774e-01 +1.23083694e-02 +2.93582287e-02 +4.94968034e-02 +1.00286141e-01 +1.08076431e-01 -6.58082515e-02 -6.77665579e-04 -1.07874669e-01 -1.11465827e-01 +9.71295163e-02 +1.95176899e-01 -6.03169054e-02 -9.48182791e-02 -2.61230487e-03 -1.76908057e-02 +1.05778322e-01 +2.56471634e-02 -1.66831393e-04 -7.94601291e-02 +1.06982507e-01 +8.88265148e-02 +9.18545648e-02 +1.02088742e-01 +7.76388869e-02 +7.52879232e-02 +8.64026397e-02 +1.51520401e-01 +4.64806333e-02 -8.09353292e-02 +1.35513768e-01 +1.63349792e-01 +5.59634008e-02 +1.27121776e-01 -6.54253885e-02 +1.05309989e-02 -7.70984367e-02 -5.63124754e-02 -4.45808619e-02 +4.30386811e-02 +2.25443140e-01 +1.47754192e-01 -4.10206206e-02 +8.14269111e-02 +2.10363314e-01 +6.06128387e-02 -1.62234157e-02 +3.14545967e-02 -7.13508800e-02 +1.43022299e-01 +5.40026687e-02 -7.01395273e-02 +1.62092835e-01 +9.82096326e-03 -4.00489457e-02 -1.24024292e-02 +6.91557229e-02 -5.47504462e-02 -4.01610546e-02 -7.44864494e-02 -9.57815722e-02 +2.48585641e-01 -2.35495642e-02 +1.31677121e-01 +6.59381673e-02 +7.02966079e-02 +6.32684752e-02 -8.55103433e-02 +1.32562101e-01 -7.80328810e-02 +1.26150593e-01 +2.34518368e-02 -4.79029939e-02 +1.61924362e-01 -3.20933647e-02 -2.83504501e-02 +1.25301862e-02 +1.79968745e-01 +1.28210723e-01 +1.93192422e-01 -6.33757040e-02 -1.15340449e-01 +8.97484422e-02 -8.53932127e-02 -9.56068262e-02 +2.36717686e-02 -3.33731226e-03 -8.04829076e-02 +9.53950956e-02 +1.75107464e-01 +3.95171046e-02 -1.96410902e-03 -4.41295207e-02 +1.04301915e-01 +3.32903787e-02 +1.26361087e-01 +1.55517593e-01 +2.38038749e-02 +1.88158035e-01 +6.04403801e-02 +9.34703499e-02 +3.26818340e-02 +1.64194360e-01 -1.58231743e-02 -1.43795619e-02 +1.74640454e-02 +2.06491780e-02 +1.38911068e-01 +2.43484154e-02 -3.71295512e-02 +1.30708933e-01 +4.54992801e-02 -4.68005091e-02 -1.35254383e-01 +7.27902865e-03 +4.62927185e-02 -1.56425349e-02 +2.06032339e-02 +1.84275344e-01 +5.63888922e-02 -3.69539484e-02 +1.41199216e-01 -6.04902804e-02 +3.88984568e-02 -6.87932968e-02 -1.31919771e-01 +7.56404996e-02 +6.10799976e-02 -4.23079878e-02 +4.79757367e-03 +8.96692052e-02 -9.52696204e-02 +3.42778563e-02 +1.49476454e-01 +4.08636704e-02 -9.86903012e-02 -4.26066779e-02 -1.62231183e+00 -8.04980577e-04 +7.21697276e-03 +4.94704135e-02 -9.97320935e-02 -3.95526290e-02 -1.10757217e-01 -6.85499534e-02 -1.12826005e-02 -7.03780949e-02 -7.82034397e-02 +6.52464405e-02 -1.58130094e-01 -8.95033255e-02 +9.64193121e-02 +3.35104950e-02 -2.70981044e-01 -1.36215553e-01 +2.37302393e-01 -1.23752795e-01 +1.62350722e-02 +2.23010868e-01 -1.87935069e-01 +7.95308053e-02 -1.11218765e-01 +1.70455307e-01 +3.10601257e-02 +8.72719064e-02 -2.66620785e-01 +4.50434275e-02 -4.17002365e-02 +1.18412469e-02 -5.45615964e-02 -1.86875418e-01 +2.48797402e-01 +6.96254242e-03 +7.19891861e-02 -4.29654792e-02 -1.69863775e-02 +9.55911204e-02 +8.49005803e-02 +1.57174841e-01 -3.72010842e-02 -3.92918810e-02 -7.28310794e-02 +7.38194063e-02 +8.53546187e-02 +2.10758954e-01 +5.34234866e-02 -8.22857842e-02 -7.19403476e-02 -1.13219991e-01 +8.06877017e-02 +1.80335566e-02 -6.01169877e-02 -3.69098485e-02 -6.15173392e-02 -2.07597576e-02 +1.04949409e-02 -7.56127462e-02 -4.39554043e-02 -1.07527912e-01 +6.83593303e-02 +6.85025752e-02 -1.06523067e-01 +2.03991588e-02 -5.05383760e-02 +1.41522065e-01 +8.95326361e-02 -1.19565651e-02 +1.12367332e-01 +6.41634986e-02 +3.89106236e-02 -2.02698454e-01 -1.57442197e-01 -8.86200219e-02 -9.21274051e-02 -9.09464210e-02 +1.67732313e-02 +1.92543014e-03 +8.31434876e-02 +1.89484246e-02 +1.87534764e-01 +1.17891155e-01 +4.67855707e-02 -1.06259905e-01 -5.55030778e-02 +1.00927338e-01 -3.63943120e-03 +2.70212181e-02 +7.03615248e-02 -9.02686343e-02 -9.40505788e-02 -5.91059774e-02 +5.79830669e-02 +9.37444046e-02 -2.09634960e-01 +7.23534003e-02 -8.87318999e-02 -7.94885531e-02 -4.01378348e-02 -3.38931605e-02 -8.69891495e-02 +3.43881026e-02 +2.05831930e-01 -1.56430647e-01 -2.78258882e-02 -1.50027484e-01 +6.40560314e-02 +5.58647774e-02 +2.14888118e-02 -9.72292852e-03 +5.64231388e-02 +3.14814895e-02 +8.48371461e-02 +1.11135386e-01 -1.04042336e-01 +1.52112301e-02 +4.14522886e-01 +1.22474590e-02 +8.59747548e-03 -8.76730084e-02 -6.30324557e-02 +4.07387270e-03 -4.12115663e-01 +3.55393179e-02 -2.89019018e-01 -2.42755935e-01 -3.48346382e-02 +4.96320166e-02 +1.92866787e-01 -2.51886752e-02 -3.93065661e-02 -3.19181442e-01 +1.21003715e-03 +1.24292094e-02 +5.62709607e-02 -7.82146528e-02 -6.55852854e-02 +1.07875004e-01 +3.96711417e-02 +6.67816922e-02 +4.40754853e-02 -2.09424999e-02 +5.73505759e-02 -4.70780544e-02 -1.02914661e-01 -1.03888631e-01 +2.10762411e-01 +6.83437139e-02 +7.12927580e-02 -4.61496152e-02 +4.20458093e-02 -1.14194602e-01 -3.15107405e-02 +1.28831133e-01 +2.51479059e-01 +5.34824431e-02 +4.16963957e-02 -1.94878191e-01 -6.29533455e-02 +5.52525297e-02 -1.06217369e-01 +1.18189871e-01 -6.89782128e-02 +3.07730496e-01 -5.18982410e-02 +1.61088422e-01 -1.63431302e-01 +9.52398553e-02 -2.93199178e-02 +7.98082650e-02 +2.55329907e-02 -1.71477981e-02 +9.19720605e-02 +3.43584478e-01 -1.99871564e+00 -1.43000811e-01 -7.34258965e-02 -9.98646989e-02 -4.48989943e-02 +4.44606245e-02 +1.59552358e-02 +6.34584799e-02 +1.34780025e-02 -1.35513961e-01 -1.01076020e-02 +4.09628898e-02 -5.85498624e-02 +4.57422659e-02 +1.97764970e-02 -1.93452716e-01 -1.32777646e-01 -1.03908882e-01 -4.70767207e-02 -1.10599317e-01 -2.06202134e-01 -1.71444610e-01 -4.99396995e-02 +3.05661969e-02 -1.34590790e-01 -2.17739105e-01 -1.86874479e-01 +7.89223909e-02 -8.57421458e-02 +6.58009350e-02 -1.29735902e-01 +8.04441720e-02 +4.21586968e-02 -1.48303881e-01 -9.28088203e-02 -1.90745264e-01 -2.13501051e-01 +7.73780197e-02 -9.61364657e-02 -2.31435373e-02 -1.29102752e-01 -8.48103315e-02 -2.51301318e-01 -2.01046467e-01 -9.32002664e-02 -1.06412001e-01 +8.35875422e-02 -9.88164768e-02 +5.36822192e-02 -2.32421219e-01 -2.97120698e-02 -8.94392580e-02 -8.20638314e-02 -2.12959722e-02 +5.74092902e-02 -2.78585237e-02 -2.49541625e-01 -2.63453692e-01 -1.72258094e-01 +5.69546269e-03 -1.28439590e-01 -1.48775079e-03 -1.63708583e-01 -1.26867130e-01 -8.75002891e-02 -1.39679343e-01 -1.17110591e-02 +6.21482381e-04 -6.94943517e-02 +1.10884480e-01 -9.22875777e-02 -3.03958267e-01 +6.62103221e-02 -1.57802820e-01 +7.47803748e-02 -2.39919752e-01 -8.23188797e-02 +8.36799070e-02 -5.60444174e-03 -7.94696137e-02 -2.02747777e-01 -1.30678132e-01 -2.00833082e-02 +4.08919416e-02 -5.95192499e-02 +1.29531231e-02 +3.16526331e-02 -2.15599298e-01 -1.33223429e-01 -6.73450306e-02 -1.65964648e-01 -1.69269815e-01 -7.07577839e-02 +1.01126045e-01 -2.79075086e-01 -7.42633715e-02 -9.70882401e-02 -4.05152664e-02 +1.78451370e-02 +3.01283989e-02 -1.11811915e-02 -1.05754070e-01 +1.12689994e-01 -1.60269514e-01 -5.56923673e-02 -3.68567407e-02 -1.25113994e-01 -1.49537042e-01 -5.67304641e-02 +1.14856511e-02 -4.43269834e-02 -4.99601625e-02 -3.40659022e-02 -7.01963827e-02 -1.78193241e-01 +7.50067085e-02 -8.49201754e-02 -1.91031978e-01 -9.56072733e-02 -4.45298329e-02 -1.34283379e-01 -8.36673528e-02 +7.65887275e-02 +1.11205957e-03 +8.44882876e-02 -5.71799316e-02 -7.60606751e-02 +9.76542756e-03 -9.77229550e-02 -1.21097282e-01 -8.68862122e-02 +1.28269391e-02 +1.14779901e-02 +7.63535723e-02 -3.56731862e-02 -6.73121139e-02 -1.76498219e-01 +8.29926133e-02 -8.80754367e-02 -4.34399396e-02 +3.14831212e-02 -8.06964189e-02 -2.41405010e-01 -4.23932187e-02 +1.99347991e-03 +6.18217811e-02 +9.48274210e-02 +1.63170639e-02 -4.59621735e-02 -1.80832267e-01 -3.22668076e-01 -1.53991446e-01 -1.00211643e-01 -5.72421215e-02 -1.42218560e-01 -1.26058310e-01 +1.17710494e-01 -2.24000961e-01 -1.80195779e-01 +5.09507507e-02 -1.89290419e-01 -3.06069881e-01 +4.09725979e-02 -6.02963716e-02 -1.14440754e-01 -1.67066619e-01 +1.11345083e-01 +1.04990683e-01 -2.00052276e-01 -5.00431284e-02 -4.09102179e-02 +2.97101703e-03 -2.01085970e-01 -4.73692343e-02 +6.39116913e-02 -8.11665282e-02 -1.34169281e-01 +7.78969377e-02 -1.94360106e-03 -1.35904133e-01 -9.29736793e-02 -8.10035840e-02 -1.47900656e-01 -1.43688187e-01 -1.27061456e-02 -4.67452109e-02 -1.27763286e-01 -1.62840948e-01 -1.37611762e-01 -1.80555046e-01 -8.57478529e-02 -7.47518912e-02 -1.96857005e-01 +7.94946179e-02 -6.76107928e-02 -3.49227414e-02 +1.10181957e-01 +3.96163836e-02 -2.12596089e-01 -2.86200136e-01 +5.41379869e-01 -2.01818869e-01 +6.44390378e-03 +5.69770522e-02 -8.15392807e-02 -1.55075461e-01 -4.86715510e-02 -6.71979114e-02 +2.15451848e-02 +5.29541597e-02 +4.30281572e-02 +6.02572411e-02 +2.65371427e-02 +9.16218385e-02 +7.73790991e-04 +5.47371991e-02 +6.52462691e-02 +1.20731562e-01 -3.76077332e-02 +2.61588871e-01 +1.03273667e-01 +1.15430593e-01 -2.13628840e-02 +1.96891397e-01 -7.08761215e-02 +1.45216599e-01 +7.91826937e-03 -4.75680716e-02 +1.37891416e-02 -9.61942896e-02 -5.13613336e-02 -8.42875615e-02 +9.58852191e-03 +9.55943167e-02 +3.99293453e-02 -4.48857732e-02 +7.59036168e-02 -5.37293106e-02 +8.66020098e-02 +4.00975719e-02 +1.46731898e-01 +2.10551560e-01 +6.31149709e-02 +2.93686334e-02 -9.21706334e-02 +5.80166690e-02 +1.07426107e-01 +1.44851640e-01 -9.15763453e-02 +3.96604538e-02 +9.64061096e-02 +1.33667797e-01 -1.92765445e-01 +6.20307550e-02 -1.08723298e-01 -5.51652499e-02 +1.53503969e-01 +3.45555916e-02 -6.37522116e-02 +1.33164376e-01 +7.20635727e-02 +5.07282428e-02 -8.33087601e-03 -1.26285776e-01 +8.52640271e-02 +1.99696366e-02 -8.54801908e-02 -1.48690790e-02 +9.37670544e-02 +5.11234738e-02 -1.28380593e-03 -7.80941248e-02 +7.76132122e-02 +1.01576358e-01 -7.39792688e-03 -4.68488596e-02 -1.07340761e-01 +8.78570005e-02 +2.93632224e-02 -4.94205542e-02 -9.23092850e-03 +3.31869116e-03 +5.38904406e-02 +9.04810950e-02 +7.14988448e-04 -5.83339259e-02 -1.02558292e-01 +3.93443890e-02 +4.91175838e-02 +1.09307684e-01 +1.22201897e-01 +1.34635657e-01 +1.70448214e-01 -9.47100148e-02 -1.76661070e-02 -7.49466643e-02 -6.53356388e-02 +1.43276364e-01 +2.16360897e-01 -9.96924415e-02 +3.02318279e-02 +1.07264459e-01 +3.33485678e-02 +2.65197959e-02 +4.31972668e-02 +1.59848332e-01 -4.07087244e-02 +1.13903604e-01 -6.64626062e-02 +1.86062753e-02 -1.02961615e-01 +1.01706937e-01 -3.90104689e-02 -7.05012307e-02 -1.62858721e-02 +8.48189965e-02 +3.77286486e-02 +1.05383150e-01 +2.24415928e-01 +1.19734570e-01 +1.57559216e-01 +1.57303754e-02 -2.86991708e-02 +5.55014126e-02 +4.09530178e-02 -5.20517305e-02 +1.61597520e-01 +1.96289077e-01 +2.66799945e-02 +4.21181358e-02 +5.54873645e-02 +1.95038974e-01 +5.50673902e-02 +8.75044018e-02 -8.89820606e-02 -9.96145532e-02 +5.95007092e-02 -1.23838417e-01 +4.02116403e-02 +1.11507796e-01 +1.58961415e-01 -1.84467323e-02 -9.89987701e-02 +1.23842686e-01 +1.05956763e-01 -8.45629945e-02 -1.33051956e-02 +1.90292671e-02 +2.03637987e-01 +1.44141585e-01 +2.24804133e-01 +1.30528733e-01 -3.31465490e-02 +1.34871960e-01 -1.10073619e-01 +2.05870047e-01 -9.03413743e-02 +2.27279529e-01 +1.91965565e-01 -7.45310187e-02 +1.13511205e-01 -7.52132758e-03 +2.04552673e-02 -5.61328754e-02 +1.00174010e-01 +7.21115842e-02 +1.07980222e-01 -5.37054092e-02 -1.70625016e-01 +8.09921697e-02 -2.87074316e-02 -1.01003923e-01 -8.52455199e-03 -3.15275416e-02 +3.11607290e-02 -8.23512450e-02 +1.85471609e-01 -1.11431636e-01 -5.35296928e-03 +1.27121536e-02 +9.58353207e-02 +7.20862523e-02 -6.23592129e-03 +9.11898315e-02 -1.26161752e-02 +1.00638747e-01 -6.87516704e-02 +1.14402153e-01 +6.28131106e-02 +2.29034692e-01 +6.05264772e-03 -2.67148633e-02 +7.83238336e-02 +4.77249250e-02 +8.91707391e-02 +1.61063150e-01 +7.74120390e-02 +1.77289426e-01 +1.99587762e-01 -9.88694280e-02 -1.87741771e-01 -2.13405602e-02 +6.13421239e-02 -3.55927981e-02 +1.34742573e-01 +1.11310273e-01 +6.48328066e-02 +7.05043823e-02 +1.69489339e-01 +5.84717020e-02 -5.02258539e-02 +2.80609373e-02 +8.32395162e-04 -8.75272974e-02 +1.83014050e-02 -4.45582420e-02 -2.20862404e-01 +6.60356656e-02 -9.57212523e-02 -1.06778376e-01 +2.21735891e-03 +3.72453965e-02 -9.25908536e-02 -3.42050672e-01 -2.36077130e-01 -1.68910503e-01 -2.99050629e-01 +7.73566365e-02 -3.76461893e-02 -8.37438181e-02 +8.71272236e-02 -5.62934354e-02 -4.85884808e-02 -5.54560721e-02 +1.04157373e-01 -1.66491508e-01 -2.32309684e-01 -3.16483416e-02 +4.67759259e-02 -2.93480493e-02 -3.62401724e-01 -1.37085006e-01 -2.43633091e-02 -1.95830032e-01 -2.70624124e-02 +2.07668077e-02 -3.40314321e-02 -9.99244973e-02 -2.65822615e-02 -2.03260541e-01 -2.82860384e-03 -4.52043526e-02 -3.28228265e-01 +2.76062369e-01 -4.23006602e-02 -7.27264136e-02 -2.63146814e-02 -3.37341994e-01 +1.00934654e-01 +8.56289044e-02 -9.48502682e-03 -6.73356727e-02 +1.22723348e-01 -1.22791134e-01 +6.59469590e-02 +7.17019662e-02 +1.90183520e-02 -3.71713098e-03 +1.23907983e-01 +1.02641441e-01 -6.85757697e-02 -3.09742913e-02 -3.71200331e-02 +6.78295568e-02 -4.99451682e-02 -1.71749562e-01 -6.96368068e-02 -1.19795725e-02 -1.66143593e-03 +9.32293534e-02 -2.07426384e-01 -7.44927824e-02 -6.71936050e-02 -2.42030621e-02 +4.92736362e-02 +6.12004623e-02 +1.07666515e-02 -1.47317126e-01 -2.14125395e-01 -4.98675257e-02 -2.00351506e-01 -1.33065373e-01 +9.66428369e-02 +5.67287058e-02 -6.41357824e-02 +8.05813968e-02 -8.14322382e-02 -9.59615856e-02 -2.82551140e-01 +2.88765486e-02 +2.99187619e-02 -1.75170258e-01 -4.17549675e-03 -2.34971195e-01 +2.47896630e-02 -3.38801630e-02 -6.06632158e-02 -1.04085065e-01 -7.51590170e-03 +7.62668923e-02 +8.63342434e-02 +7.60693401e-02 +5.27759977e-02 -1.21816993e-01 -4.63528410e-02 +8.55723023e-02 +1.06688246e-01 -3.96822095e-02 +9.14593711e-02 -1.37008145e-01 -2.14045063e-01 +1.21096335e-01 +4.69858758e-02 -8.17160159e-02 +3.59467790e-03 -8.50493833e-02 +1.16765663e-01 +1.18992642e-01 +5.49542755e-02 -1.28009915e-01 -1.02800773e-02 -1.49172395e-01 +3.16005051e-02 -1.04288645e-01 +4.50979881e-02 +9.99780595e-02 -1.34690821e-01 +9.30889174e-02 -1.31989002e-01 -1.13568977e-01 +1.80691823e-01 +8.05532411e-02 +9.56550315e-02 +1.29430205e-01 +1.56012744e-01 +5.28629236e-02 +7.32857063e-02 +9.10731256e-02 -2.03152210e-01 -7.27161765e-02 -2.53733814e-01 -2.32956007e-01 -1.34600913e-02 -1.81472048e-01 -1.34309545e-01 -7.62859210e-02 +2.64347270e-02 -2.62119591e-01 -2.83198077e-02 +3.84022593e-02 -3.45054083e-02 -3.89581949e-01 +3.81324589e-02 -4.21765149e-02 -1.31285042e-01 -7.07423091e-02 +1.08967319e-01 -4.42028381e-02 -1.59584671e-01 +1.57527011e-02 +5.14556363e-04 -7.51652345e-02 -7.86160156e-02 +3.20959911e-02 +6.30171150e-02 +8.22911188e-02 +2.22640242e-02 +1.29186651e-02 +1.07400417e-01 -3.37880403e-02 +4.35038134e-02 -2.02159304e-02 +2.67207809e-02 -1.56588063e-01 -9.83992815e-02 -7.49238878e-02 +8.90695676e-02 -6.72933906e-02 -1.50407001e-01 +1.89786658e-01 -3.40515524e-02 -1.43864499e-02 -2.32878447e-01 +5.53980581e-02 +6.94957227e-02 -8.31950549e-03 -4.34652679e-02 +2.28488911e-02 -2.42831469e-01 -7.74934590e-02 -1.61391199e-01 -3.37463051e-01 +1.02731019e-01 +5.70710935e-02 +7.61544555e-02 -2.55405437e-02 +2.91084535e-02 +9.88777280e-02 -1.24108747e-01 +2.51823626e-02 -4.09005908e-03 +1.64919579e-03 +4.95957434e-02 +4.89709079e-02 -1.11148995e-03 -1.13192946e-02 -1.47067875e-01 -7.83668756e-02 -6.01052791e-02 -1.65752992e-01 -1.29561290e-01 -1.69572249e-01 +2.11463887e-02 -3.82255539e-02 -2.00335979e-01 -2.12538958e-01 -6.94018081e-02 -1.17834043e-02 +1.06793575e-01 +1.02011301e-01 +8.87352228e-03 +7.42226094e-02 -6.35487214e-02 -7.59530440e-02 +5.47091812e-02 -8.97986516e-02 -2.88065702e-01 -2.64900625e-02 -9.27226618e-03 +7.94074908e-02 -2.34823197e-01 -1.20148562e-01 -1.83542967e-01 -1.90389812e-01 +1.13677189e-01 -5.65393455e-03 +2.27398612e-03 -2.23483846e-01 +1.05852328e-01 -2.36293763e-01 -1.31793367e-02 +4.74594384e-02 -1.62777156e-01 -2.83260830e-02 +6.55521452e-02 -7.90842846e-02 -9.51358825e-02 -3.04966539e-01 -1.60428748e-01 -6.73238933e-02 -1.48636237e-01 -1.94227904e-01 -8.61627758e-02 -6.54286370e-02 +4.93808389e-02 -1.08440839e-01 -9.74513739e-02 -1.43299222e-01 +4.32253778e-02 -3.84665057e-02 +5.20222969e-02 -2.00379953e-01 -7.21829534e-02 -3.63911055e-02 +9.67020355e-03 -1.18111603e-01 +8.18534866e-02 +4.90677916e-02 -6.43630698e-02 +7.99407288e-02 -1.13682225e-01 -1.70767054e-01 -1.79119222e-02 -6.95466436e-03 +5.49470000e-02 -5.58680929e-02 +4.90153842e-02 -1.64742753e-01 -4.06314768e-02 -1.05199020e-03 -2.14067966e-01 -1.31083831e-01 -1.27815098e-01 +1.00709729e-01 -2.79585451e-01 -3.97743861e-04 -2.72354688e-02 -3.16503793e-02 -3.83468880e-03 -4.95074242e-02 +1.07974298e-01 -1.30356476e-01 -4.33252528e-02 -1.36945516e-01 +3.53866443e-02 -1.15295589e-01 -2.41337657e-01 -1.40297756e-01 -4.31626216e-02 +1.37343436e-01 -3.63494046e-02 -1.25296786e-01 +2.71290671e-02 -1.12185352e-01 -7.38223642e-02 +1.04673170e-01 +3.65478396e-02 -1.81652412e-01 -1.77331306e-02 -7.61590898e-03 -1.08437158e-01 -4.54999991e-02 -9.15215388e-02 -2.06285361e-02 -6.48707850e-03 +6.33463115e-02 -9.64360982e-02 +4.44343388e-02 -1.58812150e-01 -2.21223086e-01 +9.25060883e-02 -1.11937888e-01 -5.26842885e-02 +4.84588221e-02 -5.55064529e-03 -1.29110843e-01 -4.51828465e-02 +1.02463216e-01 -2.14209348e-01 -8.71471167e-02 -1.25736117e-01 +1.03013590e-01 -3.47416013e-01 +5.97192310e-02 -6.32922202e-02 -8.71829018e-02 +6.96115866e-02 -1.02333479e-01 -1.15624398e-01 -1.11297078e-01 -2.37923756e-01 -1.63187176e-01 +5.73060848e-02 -5.71869351e-02 -2.00250253e-01 -1.05113424e-01 +7.45471045e-02 -3.13180327e-01 -2.88761426e-02 -3.83708328e-02 -2.48776123e-01 -3.51702154e-01 +3.82105238e-03 -8.46299976e-02 -1.54318064e-01 -2.09752366e-01 +7.68954912e-03 +1.19932219e-01 -2.91960716e-01 -8.11559260e-02 +1.13073234e-02 +5.23331389e-02 -2.39649564e-01 +7.21683130e-02 +4.90442589e-02 +4.16453257e-02 -1.16487406e-01 -5.53144701e-02 +4.84389700e-02 -2.11930275e-01 +1.85594764e-02 -5.10808565e-02 -3.14501040e-02 -8.04311037e-02 +3.91689949e-02 +3.23163457e-02 -3.07132327e-03 -7.63787306e-04 -1.19455561e-01 -2.93275774e-01 -8.77796952e-03 -4.10115067e-03 -3.19683701e-01 +9.30490866e-02 -7.07338676e-02 -1.43706247e-01 +3.13102826e-02 -5.68438396e-02 -1.70308262e-01 -1.98426917e-01 +5.06939709e-01 -2.13489860e-01 +4.15954366e-02 +5.28067304e-03 -7.58911967e-02 -7.23506659e-02 -3.34906578e-02 +7.10786358e-02 -1.67386577e-01 -1.26528442e-01 +1.01059712e-01 -8.48148242e-02 +9.46137086e-02 +2.20802017e-02 +1.79320518e-02 -1.92938782e-02 +7.69883469e-02 +6.36322722e-02 -7.78576732e-02 +2.15999171e-01 +5.04677072e-02 -8.33950639e-02 +1.86919905e-02 +8.07441995e-02 -4.59581763e-02 +4.65016961e-02 +7.16705918e-02 +9.83635262e-02 +7.21743405e-02 +8.76661539e-02 +1.12362966e-01 +2.34086113e-03 -4.93704714e-02 +1.36259440e-02 -9.77387559e-03 +3.48103680e-02 +9.86645520e-02 +8.12152177e-02 +1.13461338e-01 +9.01999772e-02 +1.94379270e-01 +2.18506046e-02 -4.28360924e-02 -1.79953109e-02 -5.80993714e-03 +1.48364663e-01 +2.73920804e-01 +1.98655888e-01 -8.52208510e-02 +1.09327354e-01 +3.36646009e-03 -5.12468163e-03 -1.95629999e-01 +5.39803766e-02 +2.58791670e-02 +9.99923274e-02 +1.81943923e-02 +7.24270716e-02 -2.83005666e-02 +3.59722525e-02 +1.41859680e-01 +1.09550945e-01 +2.81039588e-02 -3.22074220e-02 +3.83487437e-03 +7.32745007e-02 +4.76856861e-04 +1.75699443e-01 +1.72247648e-01 -1.60056129e-02 -9.97363999e-02 -7.72281438e-02 -4.76025306e-02 -4.15690131e-02 +7.23211393e-02 -5.96074350e-02 -6.92656413e-02 +8.49079490e-02 -1.17777377e-01 -7.99714774e-02 -8.13217238e-02 +2.94762906e-02 +2.43200865e-02 -9.49827395e-03 +8.27958807e-02 +3.00584733e-02 +7.42795691e-02 +1.00444958e-01 +9.29058902e-03 +4.21426166e-03 +1.94233254e-01 +1.01599276e-01 +1.63754642e-01 +4.69778702e-02 +1.29896715e-01 +1.39213651e-02 +5.75823858e-02 +9.74230319e-02 +1.83407858e-01 +4.99383286e-02 -6.58391565e-02 -7.66169932e-03 -1.07414745e-01 +1.34658098e-01 +1.07889727e-01 +4.16941382e-02 -9.16872993e-02 +6.96184533e-03 -1.38440421e-02 -3.19252536e-02 -5.72247393e-02 -1.15452427e-02 -7.69497007e-02 +4.54318151e-02 +1.52135968e-01 +8.23636875e-02 -3.63469310e-02 -1.22148506e-02 +6.04052581e-02 -1.70961823e-02 +5.99299036e-02 +4.76007489e-03 -7.44985938e-02 +4.65601496e-02 +1.05815334e-03 -6.33258298e-02 +6.57291338e-02 +1.41462535e-01 +1.65500656e-01 -2.22281236e-02 -7.34720826e-02 +1.21355511e-01 -9.15157497e-02 +3.99576016e-02 +4.78993319e-02 -2.61400659e-02 +4.95050251e-02 -1.33472998e-02 -7.63952285e-02 +2.89187059e-02 +8.95159543e-02 +9.29303095e-02 -9.48232934e-02 +1.90615609e-01 +1.47887647e-01 +8.85412320e-02 -1.10391676e-01 -3.32286470e-02 +1.47830918e-01 -6.04600366e-03 +8.12589675e-02 +1.42519668e-01 -4.24109735e-02 +2.40198541e-02 -1.78056031e-01 +2.30223209e-01 +3.71866785e-02 +1.38596117e-01 +1.80215269e-01 +3.74678411e-02 -9.64028481e-03 +2.15423536e-02 +7.04769790e-02 -1.18779577e-02 +2.11214069e-02 -2.83727646e-02 +2.59373277e-01 -4.99494039e-02 -1.28823668e-01 +2.68071163e-02 -5.89897744e-02 -1.06087826e-01 +4.41739708e-02 -8.72615352e-02 +2.22291872e-02 -6.60966849e-03 +1.46939680e-01 +2.20811311e-02 +9.36802626e-02 -8.60316604e-02 +2.13527456e-01 +7.74975643e-02 -8.71726125e-03 +1.80364996e-01 -5.14911078e-02 +1.35028243e-01 +1.15597676e-02 +4.35204729e-02 +8.37015063e-02 +5.89307323e-02 -4.83435430e-02 +1.34032354e-01 -5.35978936e-02 +1.23526845e-02 -3.73422354e-02 +1.08218705e-02 +8.67281482e-02 +9.47695822e-02 +9.74773318e-02 +2.93016713e-03 -1.41393587e-01 -4.09101546e-02 +1.42644271e-02 -8.78021568e-02 +4.08022404e-02 +1.09788544e-01 -8.36948492e-03 -5.91519810e-02 -6.25348743e-03 +8.94760936e-02 +3.85415228e-03 -9.77606326e-02 -4.72608320e-02 -6.95888549e-02 -1.83562096e-02 -1.34944648e-01 -1.17845371e-01 +9.16233063e-02 +5.82653005e-03 +8.01740065e-02 -9.87409130e-02 +1.65295583e-04 -4.80308384e-03 -2.63775319e-01 -2.50141054e-01 -1.82817310e-01 -2.79074937e-01 -6.62712529e-02 -1.51692852e-02 -8.09449926e-02 +1.35018639e-02 +3.71343531e-02 +7.05835819e-02 -1.43099636e-01 +2.07915846e-02 -1.15651563e-01 -2.09075436e-01 +5.48509620e-02 -1.02173097e-01 -2.98692286e-03 -3.77040297e-01 -9.79704335e-02 +8.43771696e-02 -1.24721989e-01 +1.95649769e-02 -8.55182558e-02 +6.55488148e-02 -9.68126133e-02 +6.43467456e-02 -3.41201089e-02 -2.73867119e-02 -1.48265988e-01 -3.41231942e-01 +1.80071324e-01 -3.38918269e-02 -1.59277171e-02 -3.20802629e-02 -2.67019272e-01 -1.71734560e-02 -7.89595582e-03 -1.38264894e-01 -8.36626813e-02 -2.41301674e-02 -5.53550757e-02 -7.49515891e-02 -3.67203392e-02 -7.46113583e-02 -2.92292256e-02 -5.97377634e-03 -9.17494148e-02 +1.08804516e-01 +6.45248359e-03 +1.05120659e-01 +7.97125101e-02 +7.92743117e-02 -1.08453192e-01 +6.93666115e-02 -6.39200285e-02 +6.86701387e-02 +2.93895192e-02 -2.50903964e-01 +1.77792180e-02 +8.83862302e-02 +5.77960201e-02 +9.70762819e-02 +5.08927479e-02 -7.60596469e-02 -1.24663129e-01 -2.16195062e-01 -9.97980237e-02 -1.17444381e-01 -9.83751193e-02 -9.24614295e-02 -2.38293856e-02 -1.81768626e-01 -8.98901671e-02 -2.84053087e-02 -2.15567816e-02 -1.94378108e-01 +1.10761598e-01 +9.78198349e-02 -1.30840302e-01 +6.53223544e-02 -2.30593354e-01 -5.95026724e-02 +9.02596861e-02 -1.02193588e-02 +1.11723738e-03 -8.76194984e-02 +1.27752528e-01 +3.84114198e-02 +6.23022160e-03 -9.00706723e-02 -5.74003682e-02 +5.91600500e-02 +9.87160057e-02 -8.88206586e-02 -1.21647805e-01 +1.49626270e-01 -1.68806881e-01 -1.90941140e-01 -6.68534860e-02 +1.97974723e-02 -5.27167656e-02 -8.41231048e-02 -3.68202217e-02 -1.81541219e-02 +1.14209011e-01 -1.00702472e-01 -2.70807624e-01 +1.09667853e-01 -1.36033863e-01 +3.40397954e-02 +8.47568586e-02 -2.16911994e-02 -1.44858649e-02 -2.21491209e-03 +1.44441485e-01 -9.63453948e-02 -6.14795983e-02 +1.61426082e-01 +8.22873414e-02 +1.00925490e-01 +3.29144746e-02 +9.89217460e-02 -3.18508744e-02 -2.14313082e-02 +5.15285619e-02 -1.78344935e-01 -1.05233535e-01 -3.88559550e-01 -3.01052570e-01 -4.26115841e-02 -2.00782105e-01 +6.54056966e-02 -2.35956833e-01 +9.54846367e-02 -2.51573175e-01 -1.89891264e-01 +5.19365072e-02 -1.25959113e-01 -3.29019576e-01 -7.22771138e-02 -8.11284781e-02 -6.29285797e-02 -1.52841389e-01 +1.23129636e-01 +4.88115568e-03 -2.22429976e-01 +8.12814981e-02 -9.16515142e-02 -1.97714698e-02 -9.82800126e-02 +2.61621247e-03 -4.31522056e-02 -2.55415142e-02 +3.21305506e-02 +7.50964927e-03 +9.63043272e-02 -2.13461086e-01 +2.21812904e-01 +1.30255958e-02 -4.63001393e-02 -1.02482907e-01 -1.01151422e-01 -8.62495005e-02 +1.64315067e-02 -5.65584153e-02 -1.50743470e-01 +3.04760009e-01 -5.30568175e-02 +9.82812643e-02 -3.74370068e-01 +5.63254580e-02 +1.15945801e-01 -9.32450518e-02 +6.71189427e-02 +9.52354223e-02 -1.96699962e-01 -8.39199871e-02 -9.51201841e-02 -2.23766163e-01 -1.93429645e-02 +1.94909517e-02 -3.28948833e-02 -4.13090661e-02 -4.52208752e-03 -3.30716260e-02 -9.21392664e-02 +7.44671151e-02 -1.49873085e-02 +3.47768739e-02 -6.12875938e-01 -1.00949444e-01 -1.18330270e-01 -5.81388660e-02 +1.04585975e-01 -5.02924323e-01 -8.10897499e-02 -1.36375809e-02 -2.40540907e-01 -4.14940774e-01 +5.08394390e-02 +4.48157728e-01 -1.64507478e-01 -1.46002039e-01 +1.08070165e-01 -1.46110961e-02 -8.61261487e-02 +8.54523405e-02 -7.62832403e-01 +3.52571048e-02 +7.86006674e-02 +5.83843365e-02 -6.13571815e-02 +3.70070823e-02 -2.40043193e-01 +5.36263175e-02 -2.70741493e-01 +2.87376642e-02 -3.22062336e-02 -2.05589041e-01 -5.20590901e-01 -9.44403589e-01 -7.50810578e-02 +2.02067476e-02 -8.86840373e-02 -6.66525261e-03 +1.34355121e-03 +7.84710422e-02 +9.28311422e-02 +1.00505538e-01 +1.35381907e-01 -1.34176481e+00 +1.47796208e-02 -1.04309082e-01 -6.09639406e-01 -1.35419890e-01 -1.58157647e-01 -6.86156929e-01 +2.43272763e-02 -5.89253195e-02 -2.53285557e-01 +3.19487333e-01 +1.50249926e-02 -5.74914396e-01 -3.86059619e-02 -3.74489605e-01 -6.91628456e-01 +3.60290520e-02 -5.21130748e-02 -1.35738075e-01 -3.79275484e-03 -1.00006413e+00 -4.42710668e-01 -1.54514894e-01 +2.76810229e-02 +5.50663024e-02 -4.86082397e-03 -4.44095060e-02 -6.77249283e-02 -1.77174568e-01 -2.41573583e-02 -4.97358665e-02 -5.59708215e-02 +7.32408613e-02 -4.58310694e-02 -1.98743269e-01 -5.83784759e-01 +1.48091286e-01 +9.40943882e-02 -7.43470788e-02 -1.46387637e-01 -7.91604668e-02 +5.62336966e-02 +9.95560735e-02 -4.21038829e-02 -2.98554152e-01 -5.32125197e-02 -8.82023349e-02 -8.48326460e-02 -2.85376489e-01 -8.38993713e-02 -4.68735117e-03 -1.84720904e-02 -1.36927113e-01 -4.93453026e-01 -1.75049976e-01 -3.41581814e-02 -2.25337744e-02 +3.59707251e-02 -1.73241317e-01 +3.21618840e-02 -7.41132498e-02 -7.66186267e-02 +4.05743942e-02 -7.74757704e-03 -8.18744451e-02 -9.65883732e-02 -2.28186455e-02 -3.07526559e-01 +4.81768921e-02 -3.33676673e-02 +8.67291987e-02 -5.69940871e-03 -7.38492906e-02 -7.52160549e-01 -1.85354367e-01 -1.31036669e-01 -3.96000832e-01 +2.43880842e-02 -8.78573805e-02 -5.12879528e-02 +7.53652751e-02 -9.49326083e-02 -1.05903435e+00 -9.32593420e-02 -6.84071258e-02 -3.96014005e-02 +3.80052216e-02 -7.90823102e-01 -2.82590371e-02 -1.13920756e-01 -5.05867660e-01 -6.00444674e-01 +1.68915372e-02 +2.30569988e-02 -9.90411267e-02 -1.27911195e-01 -5.72929755e-02 -3.44762243e-02 -2.45556906e-01 -7.87125081e-02 +5.19146882e-02 -3.22165852e-03 +1.33847061e-03 +4.12372909e-02 -1.77517056e-01 -2.94292450e-01 +7.47398734e-02 -1.36771142e-01 -1.55741289e-01 -1.04620881e-01 +4.89569381e-02 +1.16559111e-01 -1.15578277e-02 -6.08293489e-02 -2.40724254e-02 -1.17912710e-01 -7.06796050e-01 -8.74317810e-02 -1.03968419e-02 -2.58623838e-01 -1.66367535e-02 -8.37809741e-02 -9.91944820e-02 -3.36759448e-01 -2.95357313e-02 -6.92300424e-02 -9.11115855e-02 -5.75683825e-02 -2.94525642e-02 -2.97413707e-01 -3.57108831e-01 -4.78439853e-02 -2.00857967e-01 -9.75480199e-01 +9.67095047e-02 -1.49162292e-01 -2.02206478e-01 +9.81183127e-02 -2.48499513e-01 -4.30344343e-02 -8.81972089e-02 -5.66917717e-01 +3.90494317e-02 -1.16092414e-01 -3.88747722e-01 +3.06698121e-02 +1.46274224e-01 -1.08174607e-01 -6.12144433e-02 -8.93130824e-02 -1.05232932e-01 +2.66642664e-02 -7.82861337e-02 -2.34721545e-02 +7.55701587e-02 -1.78276286e-01 -5.81929624e-01 +6.59208596e-02 -5.81270456e-02 +6.30545542e-02 +9.86871421e-02 +1.97870657e-03 +1.31554231e-01 +1.75137386e-01 +1.01102851e-01 +6.75700605e-02 +2.68821210e-01 +3.10246088e-02 +1.06148914e-01 -8.39485303e-02 +1.37467206e-01 -3.54743600e-02 +1.16253547e-01 -7.07909279e-03 -1.01177327e-01 -8.93830042e-03 +8.36708769e-02 +2.06033885e-02 +8.99859741e-02 +6.57784380e-03 +1.19788818e-01 -4.78320271e-02 +2.31982209e-02 -5.54634025e-03 +1.00973897e-01 +1.36445224e-01 -5.24441246e-03 +1.71611890e-01 +1.88793674e-01 +1.14292808e-01 -5.69301322e-02 -5.53672723e-02 +5.43514974e-02 +2.31574669e-01 +6.95237070e-02 -7.05120265e-02 +9.08419341e-02 +7.58913234e-02 +5.30635417e-02 -2.40557387e-01 -2.48646270e-02 +2.12901961e-02 +8.14883634e-02 +5.52284718e-03 +1.50406379e-02 -6.80678338e-02 -1.68177001e-02 +1.30640104e-01 +3.03684976e-02 +1.74942985e-01 -9.23197642e-02 -6.25854135e-02 -4.27367240e-02 -1.02151267e-01 +2.02778857e-02 +4.69737798e-02 +4.48265821e-02 +7.93070123e-02 +5.13460860e-02 +5.40137626e-02 +1.14935353e-01 +1.40256032e-01 +1.93558931e-02 -1.95440594e-02 +7.23027885e-02 +8.01002607e-02 -8.03675428e-02 +4.20169085e-02 +1.01277046e-01 -7.12639168e-02 +9.83427539e-02 -6.90172017e-02 +1.33488430e-02 -6.49764463e-02 +1.52101174e-01 +1.04706250e-01 +7.20608085e-02 +2.72423634e-03 +9.51466337e-03 +1.78222999e-01 -7.03408718e-02 +1.44830316e-01 -9.41848382e-02 -6.18816055e-02 +5.93773238e-02 +1.03820257e-01 -1.02886111e-01 -1.71794016e-02 +1.11917570e-01 -1.51754040e-02 +1.24046076e-02 +2.19485667e-02 +1.47664234e-01 -2.52110679e-02 +6.06112182e-02 +7.22261369e-02 +1.24166220e-01 +9.39531252e-02 +9.51579660e-02 +8.91142264e-02 +9.93743166e-02 -2.06398871e-02 -2.47867894e-03 -8.36484879e-02 +1.56662613e-01 +2.31566444e-01 +7.55028129e-02 +1.15544818e-01 +6.17456660e-02 +4.74438071e-02 -8.07819590e-02 -8.59004706e-02 +8.92662406e-02 +3.24557722e-03 +1.84396073e-01 +6.57094866e-02 -1.73525456e-02 -2.07390767e-02 +1.19533144e-01 +7.51227140e-02 -6.07887954e-02 +2.23042606e-03 +8.88956990e-03 +1.02939621e-01 -1.05718628e-01 +1.12082765e-01 +2.21038964e-02 +8.74125808e-02 +3.08642797e-02 -9.71069038e-02 +1.45041877e-02 +1.14220619e-01 -3.91417406e-02 -9.27924514e-02 +2.15012915e-02 +1.62803650e-01 +8.70469809e-02 +2.25062355e-01 +1.28586054e-01 -3.90461534e-02 -2.91576120e-03 -3.25848386e-02 +1.62453830e-01 -8.68301988e-02 +1.85381606e-01 +1.70374036e-01 -8.23581964e-02 +1.29167154e-01 +6.75476864e-02 +1.82387978e-02 +2.19031032e-02 +1.91581413e-01 +9.17542949e-02 +1.91188470e-01 -1.03950903e-01 +1.91974398e-02 +6.81552142e-02 -6.64331391e-02 -2.71398760e-02 -1.70644128e-03 +3.09775118e-02 +1.78612154e-02 +7.99961984e-02 +8.77460763e-02 +7.11167157e-02 -1.28786070e-02 +8.17050785e-02 +2.13878915e-01 +5.12664486e-03 +3.14442813e-02 +1.84866473e-01 +9.38481539e-02 +4.42987904e-02 +5.23221008e-02 +2.91514825e-02 +2.57029738e-02 +1.52850226e-01 -4.07659821e-02 +5.91773950e-02 +3.88695672e-02 +3.31276841e-02 +1.18703343e-01 +1.26441568e-01 +4.17945571e-02 +1.41995758e-01 +2.06304908e-01 -7.99517557e-02 -1.24411061e-01 +1.03308141e-01 -5.91095686e-02 +4.78939041e-02 -1.98293366e-02 +8.79048705e-02 -8.92186761e-02 -1.08898163e-01 +2.64374316e-02 -1.34419166e-02 -6.53088614e-02 -2.60435343e-02 -7.38395527e-02 -9.64856520e-02 -2.53329333e-03 +1.32643342e-01 -1.54169947e-02 -3.56701724e-02 -8.79139230e-02 +1.75798804e-01 +1.90848410e-01 +4.46554162e-02 -3.35960761e-02 -1.23896934e-01 -1.79228914e+00 +5.81531152e-02 -2.39557084e-02 -1.06129467e-01 +2.56335232e-02 -7.32309222e-02 +2.25170739e-02 -4.05755900e-02 +3.33157405e-02 -6.85516000e-02 -8.92726257e-02 +7.87717924e-02 -1.49908945e-01 +1.02779247e-01 -3.86923403e-02 -3.76463607e-02 -1.88715652e-01 -3.21988016e-02 +1.82121918e-01 -1.85843557e-01 -7.20897093e-02 +1.45632058e-01 -5.23843057e-02 +3.48391421e-02 -1.07492343e-01 +6.60097003e-02 -5.45511730e-02 +1.62725989e-02 -3.64023894e-01 -4.29380462e-02 -1.37822023e-02 -2.45961603e-02 +1.77971199e-02 -5.90350106e-02 +3.48603725e-01 -1.33196384e-01 -8.18419605e-02 +7.01466426e-02 +1.27004564e-01 +2.32069686e-01 -4.16434407e-02 +1.59414843e-01 +2.33072415e-02 -5.82904257e-02 -4.69196476e-02 -9.80887637e-02 -7.58329779e-02 +2.44417503e-01 -1.34892752e-02 +4.97674048e-02 -1.84566617e-01 -2.23340839e-02 +5.58945127e-02 +9.63200107e-02 -1.84242688e-02 -6.98810890e-02 -6.50418326e-02 -1.03835352e-01 +3.45680453e-02 -9.67370719e-02 -2.67287102e-02 -7.90204704e-02 +1.94821991e-02 +8.54730681e-02 -1.41770750e-01 +1.65338572e-02 -1.00950450e-02 +7.40222633e-02 +4.42539379e-02 +8.50741938e-02 +3.46583277e-02 -8.51757154e-02 -7.48090744e-02 -5.58075644e-02 -1.39787897e-01 -7.80950114e-02 +7.97095709e-03 -4.31945920e-02 +8.57623741e-02 -8.60290304e-02 +9.42958742e-02 -1.93381403e-02 +2.06372753e-01 +1.03119977e-01 +1.75367650e-02 -1.02277517e-01 -5.65424673e-02 +2.06328724e-02 +6.00844063e-02 +2.48761550e-02 +1.17244914e-01 -8.51490870e-02 -9.42623839e-02 +8.07240605e-03 +2.28396684e-01 +8.59987810e-02 -1.16015464e-01 -5.08832075e-02 +6.79102167e-02 +8.92521515e-02 -2.78983396e-02 +8.82958546e-02 -6.86867833e-02 +4.38978188e-02 +9.76151004e-02 -1.90430105e-01 -9.52544287e-02 -1.98049575e-01 -6.78331181e-02 -6.56823963e-02 -9.04257223e-02 +5.24420552e-02 +2.36303493e-01 +1.29700918e-02 -2.09906977e-02 +7.64803961e-02 -2.30575688e-02 +5.56663312e-02 +3.29277068e-01 +6.30455464e-02 +2.84418222e-02 +5.40872775e-02 +6.26149252e-02 +8.69969055e-02 -3.33663166e-01 +9.10678506e-02 -2.72496194e-01 -1.22794509e-01 -8.86636227e-03 -8.60046372e-02 +2.88158488e-02 -1.13173336e-01 -4.12879735e-02 -1.63183704e-01 -1.84132621e-01 +4.08117548e-02 +3.53680700e-02 +6.97318390e-02 +3.60686444e-02 -7.92873949e-02 +5.11571281e-02 +1.06869802e-01 +1.15486033e-01 +1.72233228e-02 -1.34194633e-02 -1.00614065e-02 -1.06614083e-01 -2.04947628e-02 +8.71105865e-02 -4.99575660e-02 +9.65747461e-02 -5.16456738e-02 +5.37357032e-02 -3.17346416e-02 +2.95969807e-02 +1.35855945e-02 +1.36359170e-01 +9.93262380e-02 +2.46697832e-02 -1.08671278e-01 +7.33581111e-02 +1.01291597e-01 -1.08243279e-01 +7.97379762e-02 -6.69607669e-02 +4.96075153e-01 -7.60281086e-02 +6.51211366e-02 -1.59891367e-01 +5.51834237e-03 +1.88308340e-02 +6.00393750e-02 +9.45554152e-02 -4.30363715e-02 +1.02668986e-01 +2.43611053e-01 -1.98936546e+00 -2.52799653e-02 -4.58995439e-02 +4.70435321e-02 +4.88847233e-02 +1.81202605e-01 +6.30728807e-03 -1.17860690e-01 +1.65876540e-04 -1.35026932e-01 +8.06197971e-02 +8.82424712e-02 -9.37131196e-02 +5.98484203e-02 -3.87696549e-02 -6.37413710e-02 -1.34643152e-01 -8.01702514e-02 +9.69304889e-02 -4.59680371e-02 -6.18670285e-02 -1.11143775e-01 +4.05340865e-02 -6.04955480e-02 -5.60762286e-02 -1.46572575e-01 -1.12040944e-01 +6.67515174e-02 +6.39249384e-02 -9.84126702e-02 -1.10721655e-01 -5.52124009e-02 -7.75153860e-02 +4.53461241e-03 +1.54026365e-03 -6.99847341e-02 -2.32129008e-01 +1.88331883e-02 -9.30375755e-02 +9.54090245e-03 -1.20988153e-01 -5.03807776e-02 -1.26497135e-01 -1.31028399e-01 -2.07520314e-02 +2.23130570e-03 -6.37395829e-02 -4.97404970e-02 -1.17195286e-02 -1.58187345e-01 -2.64028739e-02 -1.38399601e-01 -1.55642480e-01 -4.05350141e-02 -8.67387652e-03 -4.99225445e-02 -5.59146628e-02 -4.03514177e-01 -2.85370290e-01 -3.31771448e-02 -1.48217261e-01 -1.75184205e-01 -1.57175839e-01 -1.03167750e-01 -9.61306542e-02 -7.84669518e-02 +1.09759450e-01 +3.50135239e-03 -4.10932899e-02 -3.97113450e-02 -2.36567818e-02 -1.77117035e-01 -8.48536659e-03 -5.65619990e-02 -3.47367823e-02 -7.97851160e-02 -6.98622465e-02 -8.55694637e-02 -2.27180719e-02 -7.89792277e-03 -1.18828595e-01 -3.33762430e-02 -1.81365795e-02 -8.61805975e-02 -2.59835757e-02 +5.09932302e-02 -8.10954943e-02 -7.14290887e-02 -1.69817284e-01 -3.16505209e-02 -1.40966862e-01 -1.70406044e-01 -7.29776919e-02 -3.05182431e-02 -2.71708250e-01 -2.10034903e-02 +1.05962619e-01 -6.36698008e-02 -1.22881770e-01 -4.23380546e-02 +7.15260282e-02 -1.70924589e-01 +3.08808051e-02 -1.47184446e-01 -3.25752981e-02 -2.79819444e-02 -1.80418372e-01 -1.67393818e-01 +2.36039632e-03 +3.64532843e-02 +1.79677140e-02 -1.07532397e-01 +5.51719032e-02 -8.49166214e-02 -5.76526336e-02 -5.20653389e-02 +6.35927096e-02 +1.47078722e-03 -9.31954663e-03 -1.29714608e-01 -5.16596213e-02 +3.57177518e-02 +1.12525240e-01 -5.20038195e-02 -6.32913038e-02 +3.38404961e-02 -7.17733130e-02 -1.24504454e-01 -1.15281202e-01 -1.32746100e-01 +2.25365516e-02 -4.24822159e-02 +9.67866406e-02 +9.46556404e-02 -2.36795451e-02 -8.39703158e-02 -9.17132348e-02 +7.47300312e-02 -7.66224936e-02 -1.69165820e-01 -1.13780890e-02 +3.55350524e-02 -3.06351960e-01 +6.07978217e-02 -1.25249788e-01 +1.06315605e-01 -4.33986820e-02 -4.83419653e-03 -9.26058367e-02 -4.55352478e-02 -3.12385261e-01 -2.27153048e-01 +6.40505273e-03 -1.06454238e-01 -2.27893561e-01 -2.03365415e-01 -6.51827753e-02 -1.35712981e-01 -1.51402965e-01 -8.06784853e-02 -2.55503178e-01 -3.85946959e-01 +7.78449401e-02 +5.52309770e-03 -1.77109301e-01 -1.21613868e-01 +7.69378245e-02 -7.39841759e-02 -2.66991884e-01 -9.43922400e-02 +3.60691994e-02 -8.60057771e-02 -2.14737639e-01 -4.29141484e-02 -1.66013284e-04 +8.22842419e-02 -1.68788850e-01 +4.49258834e-02 -2.48873532e-02 -1.65648937e-01 -4.31977818e-03 +7.94504881e-02 -1.88235819e-01 -2.04050750e-01 -7.49695450e-02 -1.44709647e-01 -8.64126980e-02 -1.21915825e-01 -1.55234173e-01 -2.83853233e-01 +8.45548511e-02 -3.20596918e-02 -2.27711484e-01 +3.42865884e-02 -3.22514959e-02 -2.88877096e-02 +4.75838371e-02 -1.46692917e-01 -1.87734589e-01 -1.59252524e-01 +5.70599675e-01 -2.85611182e-01 +7.49003217e-02 +3.87816951e-02 -4.01427113e-02 -7.72545859e-03 +1.22191096e-02 -5.79612702e-02 -1.38392493e-01 -7.66364560e-02 -1.21443123e-02 +7.38079846e-02 -1.77575573e-02 +9.84787568e-03 -5.14285341e-02 +3.24764028e-02 +1.52371690e-01 +1.35124728e-01 -5.21049276e-02 +1.94087565e-01 +1.25880718e-01 -7.78711140e-02 -7.88057148e-02 +3.78674641e-02 +5.44822961e-02 +1.78310663e-01 +2.25696713e-03 +2.45874841e-02 +4.05872501e-02 +8.29457417e-02 +8.61325413e-02 +8.83112103e-02 -7.23757967e-02 +2.52017169e-03 -8.86663198e-02 +4.85516898e-02 +1.17307819e-01 -2.02550702e-02 +1.95439801e-01 -2.21179407e-02 +1.29932582e-01 +2.03234762e-01 +1.33491293e-01 -8.64625946e-02 -5.97793534e-02 +1.34164348e-01 +2.69523412e-01 -9.55920387e-03 +1.65922921e-02 +5.39702848e-02 -9.29697677e-02 +6.38007075e-02 -3.00274551e-01 +4.76690680e-02 -6.62400424e-02 -2.37595942e-02 +1.11089475e-01 +1.26726791e-01 -6.88584447e-02 +1.27126172e-01 -6.21576309e-02 -2.94464957e-02 +4.21495698e-02 -4.93370891e-02 +1.22477692e-02 +1.51235402e-01 -5.98328039e-02 -1.70921627e-02 +5.44244945e-02 +1.87933203e-02 -2.86616739e-02 -4.83784871e-03 -9.14490372e-02 +3.80584225e-02 +7.41217136e-02 +1.02295019e-01 +3.31821628e-02 +3.72193493e-02 -1.20244801e-01 +6.24087043e-02 +1.40275648e-02 -5.57953566e-02 +3.26220691e-02 -4.46720887e-03 +2.87366658e-02 -1.11918133e-02 -8.11081529e-02 +1.73038602e-01 +1.45931412e-02 +1.33166865e-01 +1.06391741e-03 +1.30548000e-01 +1.34866342e-01 +3.21780182e-02 -6.41647633e-03 -8.78625587e-02 +5.08229919e-02 +1.95267543e-01 +2.14258164e-01 -3.55066843e-02 -4.86790910e-02 +3.19629312e-02 -3.10708806e-02 +1.56308323e-01 +1.41867250e-02 +1.40427947e-01 +1.86710060e-02 +9.29913595e-02 -6.40419349e-02 -3.80665325e-02 -6.77945912e-02 -1.77810024e-02 -4.43167165e-02 +4.88910526e-02 +7.23759383e-02 +1.03781685e-01 +3.55718434e-02 +1.00828491e-01 +1.79344714e-01 -2.78980675e-04 +8.31592977e-02 +5.78030273e-02 -3.94536331e-02 +3.30501124e-02 +8.32495242e-02 -9.23308730e-02 +1.55403644e-01 +1.05967551e-01 +1.03885219e-01 -7.00649573e-03 -7.88256004e-02 +1.80055067e-01 -5.25385439e-02 +2.70916354e-02 -1.98216597e-03 +2.78682937e-03 +1.47495493e-01 -4.44009667e-03 -6.30582497e-02 +1.60541952e-01 -1.37444008e-02 -8.65611881e-02 -4.88799028e-02 +1.54361829e-01 +9.42209139e-02 -4.56642769e-02 +5.06686382e-02 -8.55130032e-02 +1.81774065e-01 +1.62928686e-01 +1.58279210e-01 +1.08382655e-02 -1.43459104e-02 +1.70584321e-01 -9.36750248e-02 +2.01036215e-01 -8.08856562e-02 +1.02031790e-01 +1.93935260e-01 +6.63044006e-02 +5.78121431e-02 +1.25578046e-03 -4.94687818e-02 +3.22270615e-04 +1.11605525e-01 +1.14620604e-01 +2.39120215e-01 +5.44693656e-02 -5.70147559e-02 +2.99359951e-02 +1.10136829e-02 -1.84022379e-03 -4.40997444e-03 +7.54707307e-02 +7.63985738e-02 +5.51472753e-02 +7.12988749e-02 -1.40813868e-02 -2.80326698e-02 +1.05910443e-01 +8.27410817e-02 -3.28827016e-02 -1.61655564e-02 +4.78578545e-02 +7.90888295e-02 +1.73370153e-01 -2.94571966e-02 +6.91306442e-02 -3.17110382e-02 +3.26483995e-02 -1.88065991e-02 +2.32512187e-02 +8.00093785e-02 +3.01143173e-02 +1.44909263e-01 +6.80636466e-02 -5.10855801e-02 +3.47188041e-02 +9.13080052e-02 -3.13234366e-02 -1.48515508e-01 +1.42059373e-02 +6.76130736e-03 +1.81912389e-02 +3.96202654e-02 +1.79309919e-01 +1.01015858e-01 +2.50889398e-02 +6.22356869e-02 -3.24992798e-02 -4.65346761e-02 +6.63674772e-02 -4.66898037e-03 +3.10647823e-02 +4.28426731e-03 -3.35801393e-02 -2.07098499e-01 +1.36623561e-01 -7.97285512e-02 -9.74913016e-02 -8.48805308e-02 +1.46343961e-01 +7.50729665e-02 -3.28190923e-01 -2.50923187e-01 -1.61491886e-01 -1.34525865e-01 -8.00787508e-02 -9.66287479e-02 -1.08828228e-02 +2.03336980e-02 -1.68395489e-02 -6.25175014e-02 +1.88444350e-02 -2.88796145e-03 -2.35137522e-01 -1.56008035e-01 -8.00775830e-03 -1.14860438e-01 -5.15061878e-02 -3.96285355e-01 -1.13538377e-01 +1.03102913e-02 -1.47857398e-01 +9.55426246e-02 -6.08903449e-03 +3.43604535e-02 -1.90446272e-01 -1.68200415e-02 -1.93826541e-01 +2.53867637e-03 -1.13955319e-01 -1.84821174e-01 +2.91857630e-01 +4.62370589e-02 +1.02989860e-01 +6.35783151e-02 -3.72495025e-01 +1.47946075e-01 -2.20395485e-03 -1.21896893e-01 -1.68093935e-01 +3.31317796e-03 -1.74735770e-01 +7.37858936e-02 -7.78862536e-02 +6.09584041e-02 +7.65415579e-02 +6.92191049e-02 +8.05913135e-02 -9.41691846e-02 +2.99416296e-02 -8.66556987e-02 +9.78330746e-02 +6.28814027e-02 -8.13648477e-02 +1.46139069e-02 +8.79749376e-03 +1.17100127e-01 +4.19100896e-02 -2.88057506e-01 -2.88227107e-02 +2.71212216e-02 +7.54990354e-02 +6.33447170e-02 -7.09986612e-02 -6.71805665e-02 -4.16446365e-02 -3.04685235e-02 -1.95157722e-01 -1.35600880e-01 -1.19767589e-02 +3.81167233e-02 +6.29554465e-02 -7.32921362e-02 +9.45777744e-02 +3.54365725e-03 -1.78289771e-01 -2.81754017e-01 -7.24769160e-02 -1.57233793e-03 -1.39921337e-01 -6.85262978e-02 -2.71853030e-01 +3.40275802e-02 +1.18716404e-01 -2.90260892e-02 -1.37048021e-01 +6.74565062e-02 +1.39392674e-01 -5.26359938e-02 +1.04034722e-01 -5.20969257e-02 -1.42750233e-01 +8.49376842e-02 +7.58194551e-02 +8.71430039e-02 -3.70167755e-02 +2.19007641e-01 -4.26711887e-02 -1.31727993e-01 +3.75086023e-03 -5.60912527e-02 +6.64121732e-02 -6.89161494e-02 +1.07158996e-01 +1.10775188e-01 +9.10205841e-02 -1.14117488e-01 -3.14167291e-01 -6.90866411e-02 -2.22953930e-01 +8.94004926e-02 +5.92640229e-02 +7.54266009e-02 +6.99311271e-02 -1.40649616e-03 +1.56026676e-01 -1.06010616e-01 -6.48878589e-02 -2.05138251e-02 -7.59505853e-02 -6.64560273e-02 +4.49159481e-02 +1.38242260e-01 -2.25882092e-03 -5.54128513e-02 -9.23803076e-02 -1.09593712e-01 -2.13930652e-01 -2.83954173e-01 -3.39895666e-01 +2.54039019e-02 -2.39147797e-01 -9.05540437e-02 -1.76554441e-01 +1.45366248e-02 -4.33581322e-01 -1.99305683e-01 +7.79479044e-03 -1.35938630e-01 -2.72896767e-01 +8.32399353e-04 +9.26318243e-02 -1.16874799e-01 +1.36418482e-02 +1.94481015e-01 +6.92778602e-02 -2.31235400e-01 +1.77555196e-02 +3.39137428e-02 +6.11709489e-04 -1.85619667e-01 -8.99050683e-02 +3.97489071e-02 -4.59556244e-02 +1.52923949e-02 -3.58311795e-02 +6.42269403e-02 -1.76119536e-01 +8.70682150e-02 +6.73418939e-02 +7.09693134e-02 -2.30156541e-01 +4.68990803e-02 +2.70153284e-02 +8.47247168e-02 -9.25960988e-02 -2.81893164e-01 +2.69258201e-01 +8.28833207e-02 +2.17772759e-02 -3.70128810e-01 -6.46079034e-02 +5.53112961e-02 +9.82894972e-02 +8.78578499e-02 +8.01943764e-02 -1.94187179e-01 -1.18135370e-01 -8.47209245e-03 -1.64510578e-01 -6.00918829e-02 -6.78169504e-02 -1.21748187e-01 -4.80975360e-02 +4.87750955e-02 +5.75193800e-02 +6.15945980e-02 +6.97047561e-02 +8.84393007e-02 +2.29849876e-03 -6.26335084e-01 -8.29651020e-03 -5.22541907e-03 +3.92163880e-02 -2.24177204e-02 -3.25061589e-01 +8.17641914e-02 +2.36710571e-02 -1.84481412e-01 -2.50613958e-01 -8.03443938e-02 +3.77484560e-01 -1.61343247e-01 -1.27781779e-01 +2.98632402e-02 +1.45145152e-02 +7.27339834e-02 -5.50477877e-02 -6.22219503e-01 -3.84264328e-02 -6.98821843e-02 +5.71753457e-02 +4.84602787e-02 +6.11779541e-02 -2.43552744e-01 -7.39354640e-02 -8.84147361e-02 -5.04988544e-02 +1.14851050e-01 -3.05308193e-01 -5.56375682e-01 -1.03730702e+00 +2.08524186e-02 +2.65559535e-02 -2.35090196e-01 +4.57481435e-03 +5.56277260e-02 +5.62042631e-02 -4.22113488e-04 +4.91408929e-02 +1.58701822e-01 -1.28528321e+00 -6.23971745e-02 -5.53842299e-02 -4.26659137e-01 -1.00095585e-01 -1.58932298e-01 -6.28817797e-01 -1.29078433e-01 -6.52942881e-02 -3.22535664e-01 +3.70945722e-01 -4.86450046e-02 -6.04753613e-01 +8.15583691e-02 -2.98645616e-01 -7.49730229e-01 -6.46951199e-02 -3.50649804e-02 -1.17571488e-01 -1.04719803e-01 -1.17181408e+00 -4.00965452e-01 -3.08164477e-01 -2.71391366e-02 -1.08994320e-01 +5.25792167e-02 +1.87670514e-02 +6.98259249e-02 -1.44496754e-01 -1.17938392e-01 -1.11302577e-01 -1.00997731e-01 -7.76095763e-02 +6.22657351e-02 -2.20017433e-01 -6.89519584e-01 +2.08196393e-03 -5.59234060e-02 -1.14151388e-01 -1.05764680e-01 +1.31714791e-02 -6.66662380e-02 -9.93612260e-02 +2.08091214e-02 -2.68226683e-01 +3.10831498e-02 -5.96865974e-02 +5.24015632e-03 -2.81661421e-01 -8.01053494e-02 +3.76341939e-02 -1.22287469e-02 -2.43183523e-01 -6.01104915e-01 -2.80139506e-01 +6.26705587e-02 -9.68795270e-03 +5.72966971e-02 -3.04406732e-01 -3.10713779e-02 -8.52748081e-02 -9.51430053e-02 +2.59050839e-02 -1.00417458e-01 -1.84588432e-01 -3.67521793e-02 +4.00470756e-02 -2.95260906e-01 -1.19407773e-01 -3.61755327e-03 -8.60329643e-02 -9.97854769e-02 +2.30983477e-02 -9.45766628e-01 -2.63440788e-01 +5.19444235e-02 -3.32060903e-01 -2.85174064e-02 -2.31057703e-02 -1.09637216e-01 +1.57835037e-02 -6.46251366e-02 -1.18491006e+00 +8.04284140e-02 +3.67431566e-02 +4.82925214e-02 +1.52006522e-02 -6.86045468e-01 -5.13865836e-02 -5.35100140e-02 -5.12881756e-01 -6.61843419e-01 +5.36833517e-02 -7.33840764e-02 -2.30385642e-02 -1.98213771e-01 -7.22490251e-03 -1.03571750e-01 -1.77112371e-01 -1.10586835e-02 -5.63134216e-02 -1.41259491e-01 -1.68034360e-01 -1.70097202e-02 -1.72439992e-01 -2.76689380e-01 -2.34493092e-02 -2.99011290e-01 -1.17502615e-01 +2.05633100e-02 -1.02055162e-01 +8.44109803e-02 -7.80103207e-02 -8.12323466e-02 +8.38063434e-02 -1.13809049e-01 -5.93593061e-01 -6.02520853e-02 -2.51051132e-02 -3.19716185e-01 +8.35754573e-02 -9.64043960e-02 -5.10893352e-02 -1.90190986e-01 +6.95138127e-02 -9.76087376e-02 +7.65125304e-02 +5.27670756e-02 -7.75129274e-02 -3.84873450e-01 -2.61635333e-01 +5.65618137e-03 -3.17336172e-01 -1.15692031e+00 +4.42931522e-03 -1.72140166e-01 -2.24085554e-01 -7.72714764e-02 -2.01168910e-01 +2.43239813e-02 -4.36716042e-02 -4.24331486e-01 +8.05298313e-02 +5.42783039e-03 -3.76217306e-01 +4.53055687e-02 +2.19872147e-01 -1.10940672e-01 -6.65295869e-02 -3.06722205e-02 -9.12026241e-02 +5.06297946e-02 +1.14681654e-01 +1.43822245e-02 -7.82120675e-02 -1.78789586e-01 -5.61247230e-01 +6.10741004e-02 +9.23166052e-02 +1.00127369e-01 +2.69095842e-02 +2.98899282e-02 +6.08361848e-02 +1.72152534e-01 -3.14965937e-03 +4.06131074e-02 +1.64857969e-01 +9.95057523e-02 -4.54875566e-02 -3.61562381e-03 +1.86274663e-01 +1.71509832e-02 +1.95126891e-01 +1.59247935e-01 -4.93442863e-02 -2.06969939e-02 +2.40333248e-02 +1.41179830e-01 -7.78649822e-02 -6.13182075e-02 +1.06674423e-02 -4.34984686e-03 -4.60150167e-02 +1.15036964e-02 +2.85559036e-02 +2.03846499e-01 +3.84757258e-02 +2.92873174e-01 +9.75345969e-02 +5.60212843e-02 -1.24602713e-01 -8.43680575e-02 +7.81573281e-02 +1.30382612e-01 +1.17486693e-01 -7.49121746e-03 +8.38956833e-02 +5.58723770e-02 +4.05169241e-02 -1.84533700e-01 -5.56205101e-02 -4.43432480e-02 +4.54458930e-02 +1.65993646e-01 +1.05056301e-01 -2.74852850e-02 +8.00261647e-02 +6.27425835e-02 +1.28541708e-01 -8.14319681e-03 +5.76298591e-03 -4.89402860e-02 +6.26353621e-02 +2.94378847e-02 +7.61301145e-02 +1.28146768e-01 -1.86136421e-02 -7.53399506e-02 +6.99290633e-02 +8.08669627e-02 +5.42058870e-02 +1.26113053e-02 +1.08105257e-01 -5.88325523e-02 -3.95472981e-02 +2.28188522e-02 +5.25817350e-02 -1.57292783e-02 +6.70431368e-03 +7.94450417e-02 +3.07809804e-02 -2.49743070e-02 -3.06843258e-02 +2.27914825e-02 +1.08758382e-01 -4.50235419e-02 +1.08571075e-01 +1.82685684e-02 +1.17502213e-01 +4.31737937e-02 -3.00783105e-02 -1.30644171e-02 -2.82306969e-03 +3.12372316e-02 +2.17091247e-01 +2.37700164e-01 +2.05764472e-02 +1.47003576e-03 -1.63832940e-02 -1.71054509e-02 +7.04700202e-02 +8.79574493e-02 +5.84550984e-02 +8.06041434e-02 +1.02870800e-01 -1.13846408e-02 +4.35927212e-02 -5.87132983e-02 +1.46753430e-01 -4.82569151e-02 +9.64283496e-02 +1.76176623e-01 +1.83271841e-04 +9.98089388e-02 +9.03559476e-02 +7.08456263e-02 +9.86028612e-02 +1.44597411e-01 +1.06760012e-02 +3.16104554e-02 +3.94380353e-02 -6.03338927e-02 +4.55226377e-02 +1.05079688e-01 +1.16797179e-01 +1.69183135e-01 -4.19456549e-02 -2.14014240e-02 +2.83809274e-01 -8.52093324e-02 -3.42464410e-02 -7.57249519e-02 +2.76351366e-02 -4.55634892e-02 -1.00719042e-01 +5.14349304e-02 +1.51064545e-02 +1.41072497e-01 -9.41581950e-02 +3.35792750e-02 +1.55836537e-01 +1.92507245e-02 -3.55100655e-03 -1.69667676e-02 -1.44806141e-02 +2.33674482e-01 +8.03409815e-02 +7.82197118e-02 +1.58586681e-01 -9.23554003e-02 -9.88765433e-03 -1.46519244e-01 +1.01703018e-01 +8.32159072e-02 +2.34219596e-01 +2.12768093e-02 -9.76120457e-02 +9.21087563e-02 -9.80501622e-02 -5.37089296e-02 -7.70606846e-02 +1.02420580e-02 -5.11430874e-02 +8.53038058e-02 -7.26069212e-02 -1.00316957e-01 +1.21924713e-01 -4.38671969e-02 +6.40102029e-02 -1.21674597e-01 +4.61180471e-02 -2.17697658e-02 -3.68744531e-03 +2.20274627e-01 +5.75636923e-02 +4.08293344e-02 +3.02314404e-02 +1.60556450e-01 +2.26306990e-02 +7.70079121e-02 +1.11595377e-01 -8.45310166e-02 +1.09960087e-01 -7.47779980e-02 -5.70768639e-02 +7.76223317e-02 +1.21910214e-01 -8.42916667e-02 +1.55956566e-01 -4.77727801e-02 -1.20209781e-02 +1.36602148e-01 +9.71427485e-02 +9.26619992e-02 +7.31619596e-02 +6.78037032e-02 -9.83031988e-02 -1.97482616e-01 +9.46020409e-02 -4.70542051e-02 -6.49551973e-02 +7.94645958e-03 +2.49118775e-01 -7.92991966e-02 -2.41315290e-02 +6.02654181e-02 -7.43786320e-02 +4.09968905e-02 -2.85768993e-02 +3.26614752e-02 -7.41035342e-02 -3.39228734e-02 +6.66015521e-02 +5.70313586e-03 -6.14393651e-02 +3.40044126e-02 +1.95461988e-01 +8.36838037e-02 +6.74075335e-02 -9.32429135e-02 +5.27593121e-03 -1.68720376e+00 -6.46952614e-02 +2.04549842e-02 +2.74336599e-02 -1.09182701e-01 -6.93213046e-02 +8.22136737e-03 -6.15546070e-02 -9.93470177e-02 +4.74554896e-02 +4.48908545e-02 -7.22569823e-02 -6.78137615e-02 -7.65403435e-02 -1.69761572e-02 +1.93437953e-02 -2.18735844e-01 -4.37500589e-02 +1.69027343e-01 -1.93979219e-01 -2.06316840e-02 +1.38087496e-01 -1.09610289e-01 +1.10306397e-01 +5.68189956e-02 +6.53511286e-02 -4.94331270e-02 +8.81700441e-02 -4.53452289e-01 +1.46249861e-01 +6.99441731e-02 -9.86029878e-02 +1.01870038e-01 -5.57570420e-02 +2.61617422e-01 -4.15009595e-02 -9.43596289e-03 +7.33094290e-02 +1.39183909e-01 +2.70063639e-01 -5.81880696e-02 +1.68528438e-01 -9.47796702e-02 -1.25115320e-01 -1.07154302e-01 +4.09107730e-02 -9.60328132e-02 +2.93049216e-01 +6.11911006e-02 -9.06212851e-02 -3.53138894e-02 -4.32073735e-02 +1.09495353e-02 -2.86706747e-03 -8.00405592e-02 -8.76832455e-02 -4.90886383e-02 -5.40779531e-02 -9.69990715e-02 -7.13382065e-02 +9.55644175e-02 -6.98295385e-02 -3.20541151e-02 +6.81118295e-02 -1.51446447e-01 +1.06543023e-02 -1.61389112e-02 +1.13648139e-01 -9.92907491e-03 +8.17005336e-02 +1.50332630e-01 +1.19007211e-02 -8.57426301e-02 -3.45909335e-02 -1.27643272e-01 -9.65129882e-02 -6.57303333e-02 -1.39302760e-01 -1.60190946e-04 +3.93524915e-02 +3.62909697e-02 +1.20871834e-01 +2.66629785e-01 +9.87166092e-02 -9.72593054e-02 -1.05031222e-01 -1.52408686e-02 -1.78549788e-03 -8.79393369e-02 +1.10223137e-01 +1.64594665e-01 +2.77996752e-02 -1.69712286e-02 +4.33167294e-02 +1.86369136e-01 -2.85424143e-02 -2.33555213e-01 -6.04687445e-02 -5.08754663e-02 +5.73336408e-02 +9.96283516e-02 -6.17473945e-03 +4.27335734e-03 +1.00899726e-01 +2.44025454e-01 -2.94012055e-02 +1.83301903e-02 -2.95675606e-01 -9.75950807e-02 -5.29935285e-02 -6.43128902e-02 -3.94849069e-02 +8.44649076e-02 -1.47158653e-02 -2.41735969e-02 +9.40917358e-02 +3.17004621e-02 +4.34137098e-02 +4.26541030e-01 -6.69458555e-03 +5.55240409e-03 +8.68929625e-02 -4.75640818e-02 -9.64897349e-02 -4.02639300e-01 +4.91653197e-02 -2.88540214e-01 -7.41647705e-02 -3.47623602e-02 -2.56436355e-02 +6.66356161e-02 +9.19498154e-04 +5.10875955e-02 -3.11198562e-01 -1.96400627e-01 +5.68437353e-02 +1.64908558e-01 +7.85052627e-02 +7.75790140e-02 -8.30049440e-02 -4.58754823e-02 -3.05951964e-02 +1.24541253e-01 -2.74933130e-02 +1.64005026e-01 +3.20546776e-02 -1.34925796e-02 +4.08320613e-02 +1.67570725e-01 +8.14540386e-02 -7.38248751e-02 +6.62054196e-02 -5.57898544e-02 -2.77996790e-02 +6.13960512e-02 +1.16416797e-01 +2.28847370e-01 -1.22926282e-02 +1.35586292e-01 -1.68345198e-01 +8.36765617e-02 -7.12293312e-02 -7.05043599e-02 +3.19260024e-02 +6.52326122e-02 +3.54696721e-01 +3.79866101e-02 +3.78241614e-02 -4.03285138e-02 -5.87945357e-02 -9.92653668e-02 +1.20288245e-01 -2.54313443e-02 -3.61301154e-02 +7.75717944e-02 +3.01420182e-01 -1.86745572e+00 -9.56442058e-02 +3.36612202e-02 +6.51898608e-02 +5.21255545e-02 +1.73745945e-01 -6.00530729e-02 +1.68616809e-02 +8.65422934e-02 -1.23150162e-01 +2.95546167e-02 -3.52517352e-03 -6.20444536e-01 +6.55665994e-02 -6.91804737e-02 +4.66119498e-02 -6.76184073e-02 -3.03172082e-01 +7.25941658e-02 +2.68161967e-02 -5.23001254e-02 -3.92954081e-01 -5.20300120e-02 +5.32920122e-01 -1.34429634e-01 -9.14466009e-02 +1.03936858e-01 +7.62872472e-02 +9.54146683e-03 +1.78872552e-02 -7.82558143e-01 -1.00372657e-01 -1.82836875e-02 +8.63523036e-02 +6.55971980e-03 +9.51932371e-03 -3.52425516e-01 -2.38988958e-02 -2.09907532e-01 +6.93924055e-02 +5.10806218e-02 -1.95370227e-01 -4.41433936e-01 -9.85510051e-01 -7.23428205e-02 +6.16717245e-03 -8.84039253e-02 -9.72346440e-02 +9.11353230e-02 +3.75449769e-02 +5.72526865e-02 -2.53499784e-02 +3.01906113e-02 -1.33370221e+00 +1.74861886e-02 -1.57396793e-02 -5.73583663e-01 -3.82914208e-02 -1.84001163e-01 -7.21228063e-01 -6.36885539e-02 +1.05508737e-01 -3.98031950e-01 +3.99872959e-01 +9.04804543e-02 -6.83374941e-01 +4.11920436e-03 -2.51528829e-01 -5.92620492e-01 +4.32891335e-04 -5.08665964e-02 -2.41402999e-01 +2.42721867e-02 -1.02289355e+00 -5.81770718e-01 -2.07646623e-01 +1.14894025e-02 +5.22941984e-02 -1.00841671e-01 +8.00927207e-02 +7.12723657e-02 -1.23835117e-01 +5.32737821e-02 -5.41339330e-02 -8.38033333e-02 +3.94767970e-02 +9.31528769e-03 -1.17074795e-01 -6.93734646e-01 +1.54553354e-01 -9.83830839e-02 +6.68901056e-02 -1.28014848e-01 +5.23894504e-02 -7.73917064e-02 -5.19668870e-02 -2.01521628e-02 -2.74225831e-01 -2.82123219e-02 +3.84107028e-04 +2.29724608e-02 -2.90278852e-01 -1.68046134e-03 -2.24396610e-03 -8.14963356e-02 -8.36643130e-02 -4.43512619e-01 -1.79237381e-01 -7.17300475e-02 -3.78400944e-02 -3.10361572e-02 -2.39890024e-01 +8.32921937e-02 -6.96825311e-02 -6.82058632e-02 +7.03480914e-02 -5.72120361e-02 -1.07022993e-01 -3.70390788e-02 +8.60808939e-02 -4.07880336e-01 -1.21770628e-01 -6.42420128e-02 +5.34796454e-02 -9.69694257e-02 +7.03254938e-02 -8.44240010e-01 -1.07054859e-01 -1.00914970e-01 -3.54763627e-01 +1.64000094e-02 -6.11733012e-02 +3.88182066e-02 +9.22988355e-02 +5.02941795e-02 -1.19848788e+00 -5.77036813e-02 -1.79811977e-02 -5.55685386e-02 +5.13109267e-02 -7.40629673e-01 -1.67509988e-02 -8.37502331e-02 -4.36161071e-01 -6.84661508e-01 -1.66852772e-02 +9.73731428e-02 -7.66067579e-02 -1.41788661e-01 +5.07660508e-02 -1.19721733e-01 -1.22020431e-01 -1.14316210e-01 +4.20947224e-02 -1.42903060e-01 -1.81308076e-01 -2.08063517e-02 -1.60059258e-01 -3.08139563e-01 -9.64831859e-02 -1.68029159e-01 -9.63964909e-02 +1.38447881e-02 +1.23064488e-03 +1.77155305e-02 +6.31118342e-02 -3.94348018e-02 -3.81866209e-02 -3.60324644e-02 -7.33424604e-01 -1.69852208e-02 +6.13466650e-02 -2.19540328e-01 -5.69553301e-02 +2.95910649e-02 +4.94115725e-02 -3.27398837e-01 +2.75764521e-02 -9.30689499e-02 +5.31166792e-02 -7.25633800e-02 +4.67633456e-02 -2.68398106e-01 -2.82066137e-01 +6.79981858e-02 -3.63990873e-01 -9.56673503e-01 -9.91694629e-02 -9.15526450e-02 -2.64999330e-01 +4.28497642e-02 -2.76905626e-01 +2.51436401e-02 +8.40126164e-03 -4.37284261e-01 -5.75094484e-02 +8.73148218e-02 -3.61760527e-01 -8.65163058e-02 +8.72134119e-02 +3.47452126e-02 -2.38355920e-01 -8.80815089e-02 +4.28450778e-02 -5.59210256e-02 +1.06685609e-01 +6.74053207e-02 -1.53752249e-02 -1.09444112e-01 -6.98680401e-01 +1.02605581e-01 +5.39661832e-02 +5.13632968e-02 +4.08520736e-02 +6.05039224e-02 -1.85812300e-03 +8.38815719e-02 +1.45138890e-01 +9.32991505e-02 +1.39675498e-01 +1.22945853e-01 +9.84424576e-02 +7.42997900e-02 +1.86155409e-01 -4.91444692e-02 +1.44130543e-01 +1.17952153e-01 -9.44994837e-02 -6.48673326e-02 +1.00727472e-02 +7.70308897e-02 -6.28453419e-02 +6.80456087e-02 +3.19977105e-02 -1.71097536e-02 +8.29044208e-02 -2.73419842e-02 -6.07155003e-02 +1.55506507e-01 -3.33643612e-03 +1.13245793e-01 +1.34332731e-01 +6.14063554e-02 +5.75965345e-02 +1.71161294e-02 +1.87188894e-01 +1.64365232e-01 +1.65646911e-01 +5.65051325e-02 +7.30211958e-02 -6.53642043e-02 +1.35047033e-01 -3.25141639e-01 +8.94596949e-02 +8.19220692e-02 -6.91961944e-02 +1.11028284e-01 -5.98434068e-04 -2.84640267e-02 +2.05246881e-02 -4.35558567e-03 +4.83719744e-02 +4.35162000e-02 -1.07569084e-01 +9.84458402e-02 -1.61123704e-02 -5.76400310e-02 +1.18821301e-01 -8.57736683e-04 -2.38505527e-02 +4.36198115e-02 +3.43654193e-02 -9.59129632e-02 -2.15373989e-02 +3.61484513e-02 +1.43213779e-01 +6.96769729e-02 +2.32595298e-02 +5.05184866e-02 -9.40602738e-03 +5.53622283e-02 -3.82737853e-02 +5.09192720e-02 +1.00869603e-01 +1.02570198e-01 +7.24073201e-02 -1.02011211e-01 +1.74075961e-01 +3.44093926e-02 +9.38547924e-02 +1.48061454e-01 +8.02333429e-02 +1.41207099e-01 -9.26213861e-02 +5.31394929e-02 +4.27402928e-02 -7.51390681e-02 +1.75654590e-01 +2.18834236e-01 +5.37607074e-02 +5.17708883e-02 +5.32604456e-02 -1.02750354e-01 +1.37377173e-01 +3.91718671e-02 +1.91257983e-01 +6.21171147e-02 +9.54227820e-02 -1.01403691e-01 +7.16966838e-02 -2.37214621e-02 +9.08980966e-02 +7.80872479e-02 +1.13487676e-01 +6.11519180e-02 -9.83867198e-02 +1.56037323e-02 -9.20978375e-03 +1.30004019e-01 +1.20665096e-01 +5.27355149e-02 +5.77064278e-03 -8.74294806e-03 -3.60324197e-02 -9.22257230e-02 +4.77554873e-02 +6.79244846e-02 +1.69673011e-01 +1.04522131e-01 +1.07854195e-01 -2.09047589e-02 +1.29905984e-01 +9.10730660e-02 +3.66403833e-02 +2.13050712e-02 -6.98596984e-02 -5.63231036e-02 +7.48949870e-02 +7.76652843e-02 +1.63508169e-02 +1.18526416e-02 +8.36633071e-02 -1.36467284e-02 +1.81383699e-01 +1.17175438e-01 -1.00634478e-01 -4.75952365e-02 -9.05469153e-03 +1.90548047e-01 -1.56172244e-02 +2.36206681e-01 +1.50100335e-01 +8.50815326e-03 +1.46485671e-01 -1.63957447e-01 +2.59236485e-01 -3.66226099e-02 +8.30633715e-02 +1.70599788e-01 +7.29052350e-02 +1.72837406e-01 +4.85500619e-02 +2.35219486e-02 -8.60366598e-02 +1.76876113e-01 +9.37102064e-02 +2.39150882e-01 -8.98397341e-02 -2.27865614e-02 +1.39988516e-03 -1.98708624e-02 -4.68354672e-02 -5.43865561e-02 -4.94679660e-02 -4.93435003e-02 +4.87772226e-02 +1.86953723e-01 -1.48188695e-02 -6.96932850e-03 -3.77059393e-02 +2.07339704e-01 -1.02033326e-02 +1.16888933e-01 +1.48888245e-01 +7.54373744e-02 -2.65685632e-03 +3.54742147e-02 +5.35860732e-02 +9.04584676e-02 +1.43036023e-01 -9.07543004e-02 +1.56015843e-01 +1.02651238e-01 +3.87607217e-02 -5.51093034e-02 +8.00009444e-03 +1.83291025e-02 +2.12013364e-01 +5.79823367e-02 -4.80670743e-02 -2.78594941e-01 +1.07485652e-01 -3.61985192e-02 -2.84984466e-02 +3.89104486e-02 +1.87328190e-01 -3.34557965e-02 -1.08847152e-02 +1.51994437e-01 -6.70617670e-02 -1.04597040e-01 -1.90193579e-02 -1.74773019e-02 +6.76652044e-02 -3.06202192e-02 -7.82871544e-02 -1.05976023e-01 -2.62370873e-02 -1.34456577e-02 -2.46120729e-02 +3.79888415e-02 +5.25330007e-02 +8.59316736e-02 -2.30447024e-01 -2.19218120e-01 -2.61048704e-01 -2.50731915e-01 -9.72792655e-02 -3.10521591e-02 +1.64734498e-02 +1.04960136e-01 -8.90615135e-02 -8.64177123e-02 -3.29278633e-02 -2.94391569e-02 -1.54173017e-01 -3.25787932e-01 -4.49282117e-02 -2.92293802e-02 +7.44229183e-02 -2.80151397e-01 -7.63121396e-02 +1.19710878e-01 -2.21364394e-01 -3.74989584e-02 -1.08800828e-02 +2.93643679e-02 -2.30821133e-01 -7.52813974e-03 -1.58498153e-01 -5.36473319e-02 +1.28029138e-02 -3.18376571e-01 +2.88914859e-01 +6.60850257e-02 -4.59554419e-02 +4.32729684e-02 -3.47928286e-01 +4.13279198e-02 +1.02332853e-01 -1.11829109e-01 -1.26625970e-01 +8.90844315e-02 -1.57865047e-01 -4.55430411e-02 +1.32723963e-02 +4.24676873e-02 -1.01027019e-01 +1.63104519e-01 +1.41335353e-02 -3.99500132e-02 -2.66401544e-02 +3.35212275e-02 +6.47363812e-02 -5.23932651e-02 -1.60133973e-01 -6.54311031e-02 -5.54133058e-02 +1.78589262e-02 -1.01548977e-01 -2.07850769e-01 -2.48728711e-02 +6.99616149e-02 -4.91201654e-02 +8.64585340e-02 -5.85112497e-02 -5.06326463e-03 -9.95623842e-02 -2.34529555e-01 -1.58064514e-01 -2.13148788e-01 -6.68882057e-02 +3.55990045e-02 -4.99735214e-02 -1.22801006e-01 +8.74872655e-02 -4.39152718e-02 -6.11398667e-02 -1.63100094e-01 +9.25211534e-02 -3.85714732e-02 -2.12857917e-01 +1.03955306e-02 -1.62243262e-01 +7.50549957e-02 +8.05979222e-02 +4.92060147e-02 -1.89861972e-02 +5.53136170e-02 +3.21638137e-02 +5.67582697e-02 +2.83872001e-02 -9.64115784e-02 +1.42595638e-02 -6.96616247e-02 +4.69677374e-02 +9.59423650e-03 -1.51929960e-01 +2.24334285e-01 -4.53910753e-02 -2.55095243e-01 -4.78513874e-02 +4.10922654e-02 +5.92266880e-02 +1.04381338e-01 +3.47676575e-02 -4.43684775e-03 +1.46929786e-01 -1.03212491e-01 -1.63784683e-01 +4.77815699e-03 -7.05520734e-02 -9.36643332e-02 +3.11892387e-02 +1.01616703e-01 -5.20957746e-02 +3.71805206e-02 +1.86999068e-02 -1.81695580e-01 -7.92732537e-02 +1.79793492e-01 +1.48753757e-02 -6.28530160e-02 +1.57090232e-01 -9.01049282e-03 -6.09908737e-02 -9.63460580e-02 -7.09322169e-02 -1.72132000e-01 -1.37234405e-01 -3.06554884e-01 -2.77319640e-01 +1.13423035e-01 -2.50183672e-01 -2.06837486e-02 -1.10448994e-01 +6.27455935e-02 -4.40536559e-01 -9.33047757e-02 -5.03304861e-02 +2.22754218e-02 -2.35320300e-01 +2.16329880e-02 -8.26329663e-02 -2.17911884e-01 -9.05396510e-03 +9.72423926e-02 -1.05990916e-02 -1.99580476e-01 +1.50374845e-01 +1.04589105e-01 -6.73364028e-02 -1.49082944e-01 +9.79640782e-02 -3.14361826e-02 +6.78000003e-02 +1.86785392e-03 -4.57437634e-02 +1.69114713e-02 -1.06152579e-01 +2.01979056e-01 -7.94344693e-02 +1.56295121e-01 -1.04465209e-01 -7.97347277e-02 -9.25717801e-02 -6.28707781e-02 +2.77748331e-02 -2.89112210e-01 +2.54653871e-01 -7.88347870e-02 +3.46201099e-02 -2.90149301e-01 +3.00808512e-02 -1.78988054e-02 +1.86582580e-02 +1.55846896e-02 -3.83059755e-02 -2.59612054e-01 +3.64060770e-03 -7.33240470e-02 -3.62345994e-01 +8.09104443e-02 +9.68720540e-02 -6.47638291e-02 -1.30034089e-01 -1.95262153e-02 -6.06989712e-02 +5.61804771e-02 +8.38181451e-02 -1.61242671e-02 -4.37935740e-02 +2.04593055e-02 -4.58485074e-02 +9.06605348e-02 -1.10820889e-01 -1.89287066e-01 -2.74948273e-02 -5.90698281e-03 -7.32496008e-02 -6.39089271e-02 -9.55338851e-02 +1.93002466e-02 -4.24725823e-02 -5.09985127e-02 -9.08466280e-02 -8.39828104e-02 +7.12198466e-02 -9.98550355e-02 +1.91872101e-02 +3.34637705e-03 +5.21412976e-02 +2.21585594e-02 -8.20829198e-02 +5.32599632e-03 -1.32252321e-01 -2.01091215e-01 +2.08538081e-02 -3.56975645e-02 -3.74531038e-02 -1.20103285e-01 -5.80703989e-02 -1.98648944e-01 -1.94970861e-01 -2.47064605e-03 -6.82514235e-02 +1.05305612e-01 -2.09386423e-01 -9.57641155e-02 -2.96396554e-01 +4.33191098e-03 -1.52832031e-01 -1.93346903e-01 -1.07114226e-01 +1.54303694e-02 +2.13625431e-02 -1.14057988e-01 -2.38830626e-01 -3.32163244e-01 -6.91973744e-03 -1.92470495e-02 -2.02898085e-01 -4.23945487e-02 -9.86981019e-02 +1.01801023e-01 -1.41819358e-01 -4.27029823e-04 -6.07928075e-02 -4.67206948e-02 -6.96611404e-02 +4.33816910e-02 -1.33274779e-01 +1.07173502e-01 -1.65796831e-01 +4.12630588e-02 -1.74530715e-01 -2.55572074e-03 +8.34873542e-02 +4.88208868e-02 -8.54055062e-02 -1.65114492e-01 -1.05425186e-01 -2.89113056e-02 +5.09956144e-02 +8.56790096e-02 +2.44482532e-02 +6.67804200e-03 -5.35633005e-02 -1.68584526e-01 -1.23803675e-01 -2.71436810e-01 -9.25631002e-02 -1.54442519e-01 -1.68014746e-02 -2.83397377e-01 -2.53982414e-02 +9.92587209e-02 -4.23735008e-02 -1.58159539e-01 -6.24997206e-02 +7.63449669e-02 -2.25924343e-01 -5.91340335e-03 -1.42413795e-01 -1.41197871e-02 -8.87804702e-02 -1.16637275e-01 -1.09468579e-01 +6.45835847e-02 -1.31999841e-03 +6.69897869e-02 -2.45395396e-02 +4.87503782e-02 -1.46487162e-01 +8.39940272e-03 +5.21376058e-02 +8.13752972e-03 -1.93576161e-02 -4.04674523e-02 -1.38968319e-01 -1.98811799e-01 -8.43307897e-02 -8.82897750e-02 +8.77807066e-02 +7.14045763e-02 +3.13573591e-02 -1.03462590e-02 -6.93485560e-03 -2.27228925e-01 -8.73450264e-02 +3.61073948e-02 -5.80114163e-02 +3.46183032e-02 +3.67128812e-02 +5.53565472e-02 -1.67263716e-01 -1.29743740e-01 +6.01454079e-02 -1.16748586e-01 -1.42837808e-01 -5.35747036e-02 -5.52155711e-02 -2.39858076e-01 -4.56323735e-02 -6.70711547e-02 +1.02017522e-01 +1.41134653e-02 +7.41952956e-02 -1.04494892e-01 -2.24717170e-01 -3.09628189e-01 -2.33000651e-01 +9.47422534e-02 -7.49507770e-02 -7.01213479e-02 -2.48079628e-01 +9.95084420e-02 -2.61495501e-01 -9.89016220e-02 +6.70410246e-02 -2.48835757e-01 -3.07504535e-01 -7.88616613e-02 +4.10946608e-02 -1.23698935e-01 -1.78312093e-01 +3.89614142e-02 +9.39972699e-02 -2.30935097e-01 +3.77551131e-02 +6.83163404e-02 +7.96250179e-02 -2.94752240e-01 -4.18270715e-02 -7.92083889e-02 +4.99837436e-02 -1.63919970e-01 -4.30834480e-02 +5.25957607e-02 -9.93654579e-02 -1.52366608e-01 +9.95982364e-02 -1.61439460e-02 -1.56789944e-01 -5.16198501e-02 -7.24064410e-02 +5.24543487e-02 -1.24566227e-01 -1.26075611e-01 -3.06967527e-01 +1.64824333e-02 +5.16911782e-03 -1.58644289e-01 +5.92808276e-02 -1.30810827e-01 -7.34464824e-02 -5.26322238e-03 -1.18079349e-01 -1.13909610e-01 -2.40663558e-01 +4.05048639e-01 -2.87729591e-01 -7.48942792e-02 +1.03200838e-01 -5.94998524e-02 -1.81929126e-01 -9.46381167e-02 +4.61943857e-02 -1.43222120e-02 -4.51495014e-02 +1.04904331e-01 +6.63559884e-02 +4.16600704e-01 +6.38559759e-02 +6.53936267e-02 -1.54234534e-02 -1.24310538e-01 +3.61518919e-01 +8.93061832e-02 +2.59935290e-01 -2.25407407e-02 +1.14190012e-01 +2.25502402e-02 -5.39508283e-01 -8.07875544e-02 -6.44659624e-02 -2.20102906e-01 +2.37763971e-02 -5.32453433e-02 -5.74349388e-02 +1.55441076e-01 +1.68976933e-02 -4.21902165e-03 -1.03916198e-01 +8.02001171e-03 -2.22248971e-01 -3.57573390e-01 +1.02458455e-01 +2.97838479e-01 -8.73115733e-02 +6.83783845e-04 +2.08854973e-01 -9.13278237e-02 -9.34147313e-02 -6.47993237e-02 -1.20530864e-02 +1.83996630e+00 -1.21580683e-01 -9.33455303e-02 -1.14819452e-01 +4.03303057e-02 +3.07123829e-02 -3.92170608e-01 +4.08957154e-01 +8.90188962e-02 -8.80047753e-02 +9.87447649e-02 -5.72246730e-01 -8.30653369e-01 +1.58556715e-01 -7.67747313e-02 -1.10041708e-01 +2.77436048e-01 -4.54507500e-01 +6.77167997e-02 -1.72648877e-01 -7.90573657e-02 +2.44632617e-01 +3.12209338e-01 +8.31556320e-02 +9.34209675e-02 -5.08702815e-01 +2.07590610e-02 +2.94166505e-01 +2.01886937e-01 -1.43817097e-01 -3.08143767e-03 -6.37193620e-02 -7.23100603e-02 -7.88841695e-02 -3.94723564e-01 -9.09743607e-02 -8.69247410e-03 +9.96128693e-02 -6.94989040e-02 +3.78188342e-02 -1.81285553e-02 +1.88458309e-01 +1.13150060e-01 -7.14913290e-03 -1.00748450e-01 -1.93976194e-01 +2.50956446e-01 -4.29258607e-02 -1.79302692e-01 +5.92474937e-02 -3.09836622e-02 +2.35044301e-01 +5.22441030e-01 +1.07734010e-01 +9.47115049e-02 -1.28353342e-01 -8.06303769e-02 -4.21659350e-02 +1.54674714e-02 +4.63816255e-01 -2.67733067e-01 -1.20930083e-01 +3.76847163e-02 +8.16347748e-02 +1.92296840e-02 +2.32452780e-01 +9.20673013e-02 -1.11350371e-03 -3.47099081e-02 +7.74763525e-02 -3.85419950e-02 +1.52000710e-01 +4.43886518e-01 -1.59705371e-01 +8.60011652e-02 -3.19067179e-03 +1.09667733e-01 +2.45715659e-02 -2.44032070e-02 +3.37900221e-02 +4.07448739e-01 +4.95487303e-01 -1.54695988e-01 -1.93791494e-01 +5.00481166e-02 +5.57205260e-01 -5.51379621e-02 +2.16503218e-02 -1.03819795e-01 +2.86568385e-02 -5.14921322e-02 -4.51188497e-02 -2.81525671e-01 +1.10584544e-02 +3.00079733e-01 -8.71279091e-02 -6.69629037e-01 +3.39246601e-01 +2.95172811e-01 +6.77620173e-02 +1.42724197e-02 -4.96051880e-03 +6.20307446e-01 -9.68998596e-02 -8.56182501e-02 -2.53247265e-02 +6.85179234e-02 -1.34866983e-01 -2.22926840e-01 +3.04404914e-01 -7.13879466e-02 -3.23008709e-02 +1.39421418e-01 +3.24146077e-02 -5.03950641e-02 -5.67093909e-01 +6.08719289e-02 -1.34984320e-02 -3.20847444e-02 -4.26289439e-02 +7.98075736e-01 +4.31712493e-02 -4.60522056e-01 +1.70479327e-01 +4.78775688e-02 -1.24907326e-02 -6.99278295e-01 -7.53542706e-02 -4.76754457e-02 -6.51118979e-02 +3.01279068e-01 +8.04545805e-02 -5.07816635e-02 -1.00157961e-01 +2.27327168e-01 +8.95577967e-02 +4.87365946e-02 +2.26556640e-02 +6.20087013e-02 +2.62831241e-01 +2.23723263e-01 -1.76130295e-01 -2.64557928e-01 -7.33160153e-02 +5.55361547e-02 +1.95255816e-01 -2.74180263e-01 -3.18023153e-02 +1.46202654e-01 +1.07463621e-01 +1.44377602e-02 +2.37082288e-01 -1.68579906e-01 -4.88413066e-01 +3.32183003e-01 -4.46478814e-01 -3.42328995e-02 -3.49172801e-02 -1.62220672e-02 +9.21501070e-02 +9.76275280e-02 +1.16696078e-02 +3.35698575e-01 +1.30639777e-01 -3.75604443e-03 -4.45321351e-02 +1.45076022e-01 +1.40723381e-02 -9.31801125e-02 -1.94790989e-01 -1.02228209e-01 +2.11687312e-02 -2.71626120e-03 -5.65631203e-02 +1.34101920e-02 +7.03507215e-02 +4.68131062e-03 -2.95976400e-01 -2.18181893e-01 -1.87848836e-01 -1.78718790e-01 +8.97070691e-02 +9.91789922e-02 +2.91876122e-02 +1.74916804e-01 -2.02483535e-02 +7.08572417e-02 +2.64989305e-02 +7.03196302e-02 -1.80110514e-01 -1.68076649e-01 +8.69715065e-02 -1.21811904e-01 +4.78840806e-02 -3.55615914e-01 -8.58086124e-02 +4.11135852e-02 -1.93378806e-01 -4.86698449e-02 -5.59656583e-02 +8.86501968e-02 -2.04080075e-01 +3.29937004e-02 -6.10894896e-02 -5.84534854e-02 -5.17078787e-02 -2.22968474e-01 +2.42448285e-01 +3.23052099e-03 +6.22001141e-02 -7.71470293e-02 -4.15065050e-01 +1.10863574e-01 +1.35099560e-01 -1.41685707e-02 -2.39438578e-01 +1.29425615e-01 -9.91156921e-02 +4.73543480e-02 +5.32607734e-02 +4.41467613e-02 -4.72268164e-02 +1.19552374e-01 -9.00900830e-03 +8.95871688e-03 +7.44261742e-02 +1.82482088e-03 -1.55120011e-04 +8.95863175e-02 -2.43848965e-01 +8.83052126e-02 +6.30991459e-02 -2.42335126e-02 +2.11726148e-02 -1.88439906e-01 -1.04425810e-01 +1.11185350e-01 -1.74515694e-02 +7.29262531e-02 +1.07186325e-02 -6.57932088e-02 -2.36156769e-02 -3.62605900e-02 -5.38431332e-02 -1.34909093e-01 -9.53622088e-02 -2.67800447e-02 +1.03135727e-01 -1.64687857e-01 -2.99778990e-02 +6.82307109e-02 -1.20519347e-01 -8.19721594e-02 -7.73247853e-02 +8.20104182e-02 -2.05384493e-01 -1.15857553e-03 -1.77393764e-01 -9.96158645e-02 +7.13553652e-02 +1.87861826e-03 -8.88716653e-02 -9.37573761e-02 -3.55919870e-03 -6.07286803e-02 +9.58771557e-02 +9.84648839e-02 -4.61013950e-02 +1.25417337e-02 +1.00844644e-01 +2.60370830e-03 -5.40783405e-02 +2.20219996e-02 -1.22217186e-01 -2.12190166e-01 +3.38526890e-02 +5.80157675e-02 +6.64237216e-02 +1.70127267e-03 +2.39106510e-02 +4.45195995e-02 +5.57236664e-04 +8.10281746e-03 -1.42005965e-01 -3.20298523e-02 -9.44080129e-02 +9.14042518e-02 +9.75865871e-02 -9.64017734e-02 +1.71084683e-02 -9.47000682e-02 +1.67336073e-02 -2.34690666e-01 -1.19060025e-01 -1.49502074e-02 +1.51651837e-02 +6.18142188e-02 +9.38897058e-02 +1.64295599e-01 -3.17529216e-03 +9.95200351e-02 -6.22414378e-03 -1.88096508e-01 -1.51603356e-01 -2.50047207e-01 -2.83162773e-01 +7.52316043e-02 -1.47901952e-01 -1.01414889e-01 -1.28761798e-01 -4.80702035e-02 -3.45534623e-01 -1.48314729e-01 +1.99983083e-02 -9.38283801e-02 -2.68085688e-01 +6.54636100e-02 -3.49430591e-02 -1.98151767e-01 -6.59447536e-03 +1.64042041e-01 +2.23272238e-02 -1.95257857e-01 +8.04292858e-02 +3.81319076e-02 -2.06430648e-02 -1.18994780e-01 +9.13238246e-03 +2.61189975e-02 -2.98573375e-02 +4.76523452e-02 +2.20244564e-02 -4.06063758e-02 -1.46282792e-01 +1.46919519e-01 -9.83190909e-02 +6.21735230e-02 -2.35855013e-01 -7.66641423e-02 +8.33092257e-02 -2.77271098e-03 -9.49983522e-02 -2.21049726e-01 +3.08341712e-01 +1.06494173e-01 +1.48538351e-01 -3.73436779e-01 -5.03428578e-02 -2.17619315e-02 -3.25929448e-02 +4.55554277e-02 +2.71007456e-02 -1.40446678e-01 -3.86965461e-02 -1.12810582e-01 -1.75739482e-01 -6.10794732e-03 -4.00821120e-02 -9.27349031e-02 -1.14427894e-01 -2.96653248e-02 -5.99470884e-02 -6.26799986e-02 +1.11661613e-01 +3.42474654e-02 +8.10037106e-02 +5.97437955e-02 -7.64732361e-02 +3.20732147e-02 -2.00247601e-01 -2.95017753e-02 -9.43701342e-03 -6.08704519e-04 -1.44750521e-01 -2.06792042e-01 +1.51248127e-02 +1.01298757e-01 -1.00374736e-01 -2.13978425e-01 -2.53885776e-01 -2.60331452e-01 -4.10132818e-02 -2.18882971e-02 -7.73595497e-02 -9.64530781e-02 -2.62937061e-02 +7.64336661e-02 -5.43847261e-03 +7.07787946e-02 -2.02650845e-01 -2.32376382e-01 +6.00616410e-02 -2.60446332e-02 +1.19912680e-02 -1.47199899e-01 -1.71647426e-02 -1.80365235e-01 -1.92494139e-01 -6.29960150e-02 -8.34458247e-02 +8.01917911e-02 -1.84516445e-01 -2.11055316e-02 -1.00950144e-01 -1.20161464e-02 -5.65192522e-03 -7.07102939e-02 -1.82410807e-03 +3.87452655e-02 -2.70493645e-02 -2.49449730e-01 -3.19271177e-01 -2.17832416e-01 -5.45393415e-02 -5.72407544e-02 -1.55151412e-02 +3.35954875e-02 -1.40479922e-01 +7.45738149e-02 -2.61547387e-01 -6.92287758e-02 -7.51847401e-02 +5.99008054e-02 -1.07472716e-03 +6.63300008e-02 -2.34100983e-01 +6.33247048e-02 -6.63170069e-02 -4.67720665e-02 -1.25075236e-01 +5.37921041e-02 -7.59964958e-02 +3.28663625e-02 +9.47748646e-02 -1.00429796e-01 -1.35135233e-01 +7.90916160e-02 -5.75734070e-03 +1.64466910e-02 +5.99337416e-03 -1.45794665e-02 -8.70109797e-02 -4.44107242e-02 -1.06910346e-02 -2.02734038e-01 -9.93859619e-02 -8.46134871e-02 -1.15585458e-02 -2.12310240e-01 +9.82564688e-02 -5.28198034e-02 -1.85932353e-01 -7.28808865e-02 +5.61714694e-02 -8.16123784e-02 -9.31979269e-02 +5.29766083e-02 -5.14401384e-02 -9.77490172e-02 -1.47508815e-01 -2.54872710e-01 -6.05078302e-02 -2.58019585e-02 +7.37048835e-02 +7.12797195e-02 -1.34938255e-01 -9.00950283e-02 -1.16609193e-01 -4.44305800e-02 -6.89714178e-02 +8.05416703e-02 +1.68962171e-03 -7.02543706e-02 -1.54609606e-01 -1.77922472e-01 +8.25199950e-03 -9.46242586e-02 -3.17860097e-02 +1.02883637e-01 +5.99679537e-02 +1.97840501e-02 -7.36706331e-02 -8.81903842e-02 -1.66111037e-01 +5.01403920e-02 -3.79313603e-02 +1.07662994e-02 +5.11749238e-02 +1.06488042e-01 -4.90341112e-02 -2.22020552e-01 +7.72606060e-02 -2.44886160e-01 -1.89710051e-01 -1.40411064e-01 +1.36187496e-02 -2.86575139e-01 -8.64448175e-02 -6.11304156e-02 +6.74741808e-03 +4.86952178e-02 -3.63230780e-02 -6.43552840e-02 -1.62355855e-01 -2.86605299e-01 -2.35044971e-01 +3.42717096e-02 -1.39311880e-01 -1.90445274e-01 -1.74587712e-01 +5.35565317e-02 -2.45810702e-01 -5.85511550e-02 -5.84913455e-02 -8.92368630e-02 -2.83850700e-01 +9.85593796e-02 +2.08649188e-02 -1.25298679e-01 -2.12528650e-02 +1.05793454e-01 -1.46682770e-03 -2.53615081e-01 -4.42145169e-02 -6.63182288e-02 -3.07192504e-02 -2.06786498e-01 -9.00968090e-02 -9.16798934e-02 +1.97609644e-02 -3.44283655e-02 -5.72585166e-02 -2.22288221e-02 -8.58532935e-02 -1.02990888e-01 +1.28734298e-02 -1.91196930e-02 -8.20158496e-02 +9.21761245e-03 +3.14607918e-02 -1.03797615e-01 -7.03171715e-02 -2.12222457e-01 -2.52016544e-01 -6.12594141e-03 -1.58480704e-01 -1.44674540e-01 +1.12869702e-01 -4.22781054e-03 +2.02891463e-03 +6.31731004e-02 -4.07295637e-02 -2.25183308e-01 -2.81272292e-01 +5.68956256e-01 -1.72808692e-01 -3.38663049e-02 +6.45330846e-02 -7.75990412e-02 -1.87112633e-02 +2.19787620e-02 +5.37449345e-02 -1.62496627e-03 -8.83433297e-02 -8.05625021e-02 -6.59259185e-02 +2.69456029e-01 +7.04266205e-02 +5.44873253e-02 -1.82872519e-01 -1.21150576e-01 +3.50126773e-01 -2.04720236e-02 +3.72050792e-01 +1.65175814e-02 +1.98499206e-02 +9.32216868e-02 -4.64261770e-01 -1.83288276e-01 -6.17787689e-02 -6.85570240e-02 -4.74919416e-02 -3.13890949e-02 +1.77526791e-02 +3.43537897e-01 +1.10790528e-01 -1.03789665e-01 -1.12368867e-01 +4.98242788e-02 -1.36443466e-01 -4.75734711e-01 -1.47088822e-02 +3.43853086e-01 -8.98603499e-02 -1.76584329e-02 +3.97897571e-01 -4.95914444e-02 -4.16152477e-02 +2.17099674e-02 +7.46346042e-02 +1.69814348e+00 +5.98339550e-02 -4.20392677e-02 -1.18292801e-01 -8.35392922e-02 -1.08142309e-01 -4.70779151e-01 +3.74951780e-01 -6.86224550e-02 +8.57027024e-02 +2.22464297e-02 -7.46260703e-01 -9.54631150e-01 +3.59423637e-01 -1.44022629e-01 -7.57641271e-02 +2.47928575e-01 -5.23584902e-01 -6.58543827e-03 -1.80706471e-01 -5.95963821e-02 +3.27165037e-01 +2.24696949e-01 -6.87909871e-02 +9.13180038e-02 -4.31139648e-01 -5.08148521e-02 +2.29176655e-01 +2.41702825e-01 -2.22558498e-01 +3.84813957e-02 -9.86621249e-04 -7.87149370e-02 -4.57639098e-02 -2.15120330e-01 -1.37599722e-01 +1.03750505e-01 +1.00723051e-01 -2.89139748e-02 +5.66790393e-03 +5.50188161e-02 +9.36638787e-02 -4.48070727e-02 -6.25774777e-03 -1.91490144e-01 -2.36353084e-01 +1.63977727e-01 +4.46401909e-02 -7.48575926e-02 +7.24609494e-02 -8.05119872e-02 +2.39668876e-01 +3.61459911e-01 -1.02369664e-02 +2.97605190e-02 -6.79372326e-02 +5.36265150e-02 -1.29737750e-01 -9.39820856e-02 +3.86002392e-01 -3.36379647e-01 -1.32048763e-02 -8.46667215e-02 +1.49070010e-01 +6.10349923e-02 +2.12451890e-01 -8.14609900e-02 -1.27172470e-01 +8.08903649e-02 +6.17443994e-02 -6.98279068e-02 -8.19914159e-04 +5.25648654e-01 -7.52865896e-02 +9.31737870e-02 +1.08040169e-01 +2.60211974e-02 -1.80097818e-02 -5.80858290e-02 +9.63226557e-02 +4.75943625e-01 +4.53894168e-01 -1.59285471e-01 -1.59273446e-01 +8.93682688e-02 +5.37260175e-01 +1.00376219e-01 +7.24959970e-02 +2.93914024e-02 +6.14908077e-02 -2.06042051e-01 -1.24907242e-02 -1.68236017e-01 +4.27108966e-02 +2.88721800e-01 +7.34615624e-02 -6.40467405e-01 +2.16540664e-01 +3.44810188e-01 -7.08464440e-03 +1.29222637e-02 +9.65543240e-02 +6.00692034e-01 -7.03348517e-02 -7.31413215e-02 -7.46752173e-02 +1.87646188e-02 -5.36701903e-02 -2.83181131e-01 +2.68020600e-01 -3.30463499e-02 -1.58426404e-01 +2.38538206e-01 -8.64505470e-02 -1.44992948e-01 -5.57082593e-01 +9.92870051e-03 +9.90056992e-02 +6.80128336e-02 -1.77888885e-01 +8.05170596e-01 +5.93725666e-02 -3.96850675e-01 +3.57193798e-01 +7.14637712e-02 +1.52302692e-02 -6.85517550e-01 +7.61061385e-02 +1.01385340e-01 +3.14023495e-02 +4.15992111e-01 -5.49376458e-02 +4.29895073e-02 -2.22626701e-01 +2.35708386e-01 -6.53716922e-02 +6.10738061e-02 +1.75456237e-02 -4.47725542e-02 +3.42504084e-01 +2.64298320e-01 -1.85648061e-03 -2.73689359e-01 -1.86661020e-01 -8.55622813e-02 +2.52528220e-01 -4.15787578e-01 +5.65193072e-02 +2.44105101e-01 +1.24818813e-02 +3.10085062e-02 +2.75469720e-01 -1.31853363e-02 -6.07422054e-01 +3.42931807e-01 -3.47199649e-01 -7.53508732e-02 +4.71209288e-02 +7.24875927e-02 +1.60209864e-01 -9.87417474e-02 +1.07578203e-01 +1.92118436e-01 +1.44295469e-01 -7.07775261e-03 +9.98583250e-03 -4.68077920e-02 +1.03457779e-01 -9.18542966e-02 -7.84545094e-02 -2.01121360e-01 +2.65076607e-02 +5.02974056e-02 +5.79062514e-02 -2.21182536e-02 -1.37770444e-03 +3.20113897e-02 -1.53421968e-01 -3.71079147e-01 -1.82112500e-01 -2.84443617e-01 +7.72024617e-02 +1.00861162e-01 -4.35759202e-02 +3.40883210e-02 +7.54885674e-02 +9.12108943e-02 -1.23561747e-01 +4.99599651e-02 -1.63248032e-01 -1.89799696e-01 +1.84752252e-02 +4.77643050e-02 -1.08978187e-03 -2.42374346e-01 +5.26658166e-03 +1.20287344e-01 -1.13668308e-01 +7.47182518e-02 +5.63330837e-02 -5.10753691e-02 -8.70853961e-02 +8.04104283e-02 -1.58273280e-01 -1.66303515e-02 -1.62695020e-01 -3.80226701e-01 +1.72398373e-01 +3.46542150e-02 +9.60717499e-02 -1.23299226e-01 -3.19410950e-01 +8.96461084e-02 +3.01560983e-02 -2.99499892e-02 -1.74120665e-01 +9.15664360e-02 -6.72802180e-02 -6.97571933e-02 -8.82315338e-02 +1.44921513e-02 +7.04258159e-02 +2.82917246e-02 +4.76928316e-02 +7.19899088e-02 +5.39049134e-02 +4.38901484e-02 +1.76373927e-04 -6.94902539e-02 -1.17852509e-01 +5.85750826e-02 +9.66944695e-02 -2.50119977e-02 -1.03062138e-01 -2.58734584e-01 -1.27113074e-01 -8.27089474e-02 +1.61729883e-02 -2.29755938e-02 +9.97253358e-02 -1.16367200e-02 -9.37131885e-03 -1.55337915e-01 -7.73997307e-02 -2.35414326e-01 -2.05970809e-01 +3.91906947e-02 -1.81646328e-02 -1.69717818e-01 +1.78371575e-02 -4.45946343e-02 -1.38759971e-01 -9.34064835e-02 -4.38111685e-02 -7.11438209e-02 -1.49807796e-01 +8.81894454e-02 -1.41856194e-01 -1.05684340e-01 +9.20284688e-02 +7.00370744e-02 -1.24828681e-01 +3.34744789e-02 -7.44957663e-03 +6.95459321e-02 +9.23501477e-02 +8.17298740e-02 -3.36434953e-02 -1.57431338e-03 +3.07154935e-02 +3.65324318e-02 -1.16575748e-01 +1.47732243e-01 +1.51682300e-02 -2.00641796e-01 -1.25397146e-02 -3.02268155e-02 +5.65153509e-02 +1.02754094e-01 +9.28589404e-02 -1.45331782e-03 +1.66719213e-01 -9.05091092e-02 -1.83848917e-01 +1.01019293e-01 -2.49627575e-01 -4.14388515e-02 +6.41182140e-02 +2.48620380e-02 -4.00745906e-02 +2.50397455e-02 +1.47559002e-01 -2.51932651e-01 -8.96361023e-02 +1.86216608e-01 +3.45723815e-02 -2.96852496e-02 +1.37773007e-01 +1.19805202e-01 +7.28171691e-02 -1.68875474e-02 -6.63591176e-02 -2.31298104e-01 -5.43339439e-02 -3.92993510e-01 -1.97151691e-01 -3.25052626e-02 -2.34420374e-01 -6.81722462e-02 -7.25569949e-02 +3.42530198e-02 -2.75107116e-01 -1.84427679e-01 +3.27234268e-02 -3.17874812e-02 -2.07461327e-01 -1.48595311e-02 -7.68022686e-02 -1.39357924e-01 -6.42001331e-02 +1.50188819e-01 +5.91595173e-02 -2.36606702e-01 -1.83032844e-02 +4.10059616e-02 +7.27460235e-02 -1.44115254e-01 -3.62244509e-02 -1.57523099e-02 -8.11104849e-02 +4.69751582e-02 -1.55124823e-02 -6.06922880e-02 -5.08712567e-02 +1.23894677e-01 -6.21144921e-02 +2.08576769e-02 -2.08935201e-01 +1.01286076e-01 -7.06309304e-02 -8.88139307e-02 -9.16403830e-02 -8.04737732e-02 +1.21879533e-01 +7.96864778e-02 +6.86169863e-02 -2.73740917e-01 +2.72964798e-02 -2.27364004e-02 +3.34417634e-02 +4.57353890e-02 -4.07129899e-02 -1.56335965e-01 -1.70997441e-01 -2.01129004e-01 -3.51368010e-01 +9.67482328e-02 -2.58301180e-02 -3.84282805e-02 -1.14920579e-01 -9.55602452e-02 -1.06465816e-02 -7.13433102e-02 +1.24613002e-01 +3.00102010e-02 -3.84515561e-02 -6.21430933e-01 +4.60899808e-02 -8.67645144e-02 -9.87778306e-02 -4.85707633e-03 -4.67900217e-01 -5.67259230e-02 -9.38442722e-03 -2.15170220e-01 -2.65358061e-01 +2.16026455e-02 +5.59970915e-01 -2.26202205e-01 -1.29968047e-01 +1.10551879e-01 +6.93222508e-02 -3.90983261e-02 -7.12011456e-02 -6.86591864e-01 -8.29610899e-02 -5.33219911e-02 +8.58057216e-02 -4.82507143e-03 -1.08488649e-01 -3.43829483e-01 -4.11102399e-02 -2.08985195e-01 +7.16340989e-02 +8.15954711e-03 -1.74466535e-01 -5.29934585e-01 -9.22360957e-01 -8.60420316e-02 -5.26399631e-03 -1.22424461e-01 -9.52751189e-02 -9.43863541e-02 -1.16310716e-01 -7.17360899e-02 -4.33806609e-03 +1.40360013e-01 -1.22107315e+00 -3.04584857e-02 +3.60832848e-02 -6.06777251e-01 -5.42472117e-03 -1.69815227e-01 -7.34465659e-01 -1.33051604e-01 +3.59406206e-03 -3.51080865e-01 +3.55889410e-01 -1.01456717e-01 -6.14964247e-01 -3.95348575e-03 -3.13243538e-01 -6.95723474e-01 +7.87969083e-02 -3.46357673e-02 -1.77155867e-01 +3.46013680e-02 -9.78262782e-01 -5.69866002e-01 -3.11391622e-01 -1.01241078e-02 -3.55916098e-03 -9.15486962e-02 +4.46378812e-02 -2.74960566e-02 -1.43945187e-01 +2.76813041e-02 +6.46213591e-02 -2.88582724e-02 -4.22779880e-02 -6.39381760e-04 -3.12488556e-01 -6.96605086e-01 +8.23417529e-02 +7.53840730e-02 +2.16110349e-02 -4.31272089e-02 +4.35905345e-02 -5.01502194e-02 -8.24014023e-02 -7.26755857e-02 -2.79758006e-01 -1.62566066e-01 +1.13224657e-02 -4.07852866e-02 -3.10223788e-01 -7.39751309e-02 +1.01310670e-01 -3.97321433e-02 -1.80155456e-01 -5.06726801e-01 -1.53590545e-01 -9.46281254e-02 -1.31376341e-01 -8.28159600e-02 -3.54408950e-01 -5.13459742e-02 -3.62949111e-02 -2.86299735e-02 +4.81745079e-02 -8.17547888e-02 -1.50896728e-01 -4.69798110e-02 -7.87092745e-02 -3.56812686e-01 -1.52654663e-01 +3.66755128e-02 +2.85260705e-03 -1.07228093e-01 -9.49166045e-02 -7.60250986e-01 -1.59800991e-01 -9.59694088e-02 -4.10130590e-01 -1.05016410e-01 -4.54554558e-02 -5.37364231e-03 +3.46559770e-02 -5.16757146e-02 -1.04576278e+00 -8.31556618e-02 -3.38065960e-02 +3.74877416e-02 +3.30824661e-03 -7.26607800e-01 +9.40522328e-02 -6.92660883e-02 -5.78334868e-01 -7.57155955e-01 -9.22921076e-02 +4.31961194e-02 +1.02539882e-01 -9.02771056e-02 -4.44824435e-02 -2.40034387e-02 -1.24720581e-01 -7.81439617e-03 +2.69138236e-02 -9.49474350e-02 -6.81794137e-02 -1.86804105e-02 -9.90585014e-02 -3.02092642e-01 -4.02399562e-02 -1.14567764e-01 -2.33862370e-01 +1.74687225e-02 +5.52301221e-02 +1.25451446e-01 +5.57638984e-03 -9.47086960e-02 +4.26734164e-02 -4.11710255e-02 -6.41125739e-01 +7.34963343e-02 +8.00780766e-03 -2.52373874e-01 +2.89927311e-02 -2.00269464e-02 +4.07774374e-02 -3.71987432e-01 -7.31534958e-02 +1.78616438e-02 +5.65697029e-02 +1.30103640e-02 -3.12030669e-02 -3.75535995e-01 -3.49300951e-01 -5.04343621e-02 -1.75212324e-01 -1.03558993e+00 -1.57894066e-03 -1.07487373e-01 -7.88784698e-02 +1.14951027e-03 -2.30317801e-01 +4.60570492e-03 +3.69225964e-02 -5.64082026e-01 -9.65274349e-02 +6.69062585e-02 -3.83143753e-01 -3.41238454e-02 +5.32266982e-02 -1.33663580e-01 -2.31321022e-01 -1.83352754e-02 -5.44993058e-02 -6.85802773e-02 +4.16608304e-02 -8.70421827e-02 +6.13100789e-02 -1.85002401e-01 -5.41190147e-01 +8.33629519e-02 +6.63022399e-02 -5.20212427e-02 +3.25515307e-02 -5.20187430e-02 +1.01811305e-01 +1.93038777e-01 +1.52758822e-01 -3.48791368e-02 +1.94998458e-01 +8.45789686e-02 +9.65652689e-02 +5.88215627e-02 +1.59293972e-02 -1.78498961e-02 +1.97011381e-01 +2.03709919e-02 -4.06754278e-02 -7.59318471e-03 -8.83694738e-02 +1.16289116e-01 -1.00639708e-01 -7.64188692e-02 +5.50999381e-02 -8.47813934e-02 -3.83961871e-02 +1.04621135e-01 +7.94456974e-02 +1.18930258e-01 -1.51268868e-02 +2.05896854e-01 +6.51314929e-02 +1.12125032e-01 -1.87645927e-02 -3.72623652e-02 +3.75630558e-02 +2.80725479e-01 +1.50648862e-01 -4.13897336e-02 +1.00315720e-01 -3.54702435e-02 +1.22016892e-01 -2.79202014e-01 +7.94767439e-02 -1.00685768e-01 -5.55360913e-02 +1.01490609e-01 +3.15183178e-02 -1.83426328e-02 -1.71670541e-02 +1.34040676e-02 +9.55499262e-02 +2.67255660e-02 -6.82552531e-02 +1.44217331e-02 +4.07489985e-02 +9.66434255e-02 +1.02965303e-01 +8.01779851e-02 +8.64603370e-02 +9.37161744e-02 +6.91329911e-02 -5.26967086e-02 -4.24291529e-02 +3.51217352e-02 +1.35537818e-01 +5.61964773e-02 -8.18117633e-02 +1.86447687e-02 +9.38899741e-02 -4.81617711e-02 +3.13031450e-02 -9.15203765e-02 +6.37800395e-02 -8.39447975e-02 +5.93851693e-02 +7.51785636e-02 +4.34494540e-02 +7.73219168e-02 +6.30176514e-02 +1.49894327e-01 +5.92826158e-02 +1.12204626e-02 -1.09755948e-01 +1.86660782e-01 +2.64123101e-02 +2.93665472e-02 +1.77833021e-01 +2.19872296e-01 +5.95901273e-02 -1.14024244e-01 +1.20110668e-01 -8.25109482e-02 +7.89075345e-02 -2.49992646e-02 +7.19725415e-02 -3.26408930e-02 -3.58113050e-02 -5.91483526e-02 +1.36382163e-01 -7.71700144e-02 +2.09845491e-02 -7.07002729e-02 +4.73780334e-02 +1.22683845e-01 +3.89472619e-02 +6.59578014e-03 +1.37635127e-01 +1.46942139e-01 +6.58417717e-02 +7.49163255e-02 +1.00884968e-02 -9.97673646e-02 -8.43015164e-02 +7.96594322e-02 -9.26963985e-02 +1.85030848e-01 +1.46100163e-01 -2.21168380e-02 +6.84745163e-02 -9.59637687e-02 +2.50568599e-01 -1.09900825e-01 +5.43150418e-02 +4.47575077e-02 -6.44211024e-02 +9.10334960e-02 -9.01681185e-02 +1.01732545e-01 +1.25740334e-01 +1.33617312e-01 +1.19008450e-02 -1.05372794e-01 +1.99984148e-01 -6.15075156e-02 +9.15168747e-02 -1.75459143e-02 +1.03465050e-01 +2.13206962e-01 +6.76603913e-02 +9.95898247e-02 +1.53571680e-01 +5.03815673e-02 +9.75206271e-02 -1.27036378e-01 +8.94441232e-02 +1.16255861e-02 +1.98088527e-01 +4.10757847e-02 +7.93946981e-02 +8.10234575e-04 +3.84717099e-02 +1.71692553e-03 +5.02247736e-02 +1.27280578e-01 +3.93576659e-02 +1.90491110e-01 -8.97335932e-02 -1.16524830e-01 +3.92274074e-02 -9.96625796e-02 -1.04835853e-01 +6.34842291e-02 -8.49636048e-02 +1.03628851e-01 +2.54005920e-02 +7.00763613e-02 -4.53910157e-02 -3.40820812e-02 +1.14557795e-01 +2.25595430e-01 +1.04509577e-01 +1.02738485e-01 +1.97230369e-01 +4.22830097e-02 +1.80657759e-01 +1.02331363e-01 +3.01538333e-02 +2.72961576e-02 +3.96443531e-02 -4.32406887e-02 -2.19255202e-02 -2.34514009e-02 +3.91929736e-03 +8.90809670e-02 +1.63750738e-01 -4.18037586e-02 +1.10193461e-01 +2.33603582e-01 +1.74131542e-02 -3.12804312e-01 +9.79306921e-03 +2.23333519e-02 -5.78184649e-02 +7.12667406e-02 +2.91891128e-01 +1.01523595e-02 -6.50299191e-02 +9.65897664e-02 +1.06491953e-01 -2.20134612e-02 +8.06174651e-02 +1.43390000e-01 -2.30515227e-02 -8.86370316e-02 -6.99228793e-02 -3.98633182e-02 -2.68814061e-02 +1.63820724e-03 -1.25693092e-02 +7.21227899e-02 +1.28515661e-01 +1.06244236e-01 -2.56106943e-01 -3.73229593e-01 -2.05890089e-01 -2.62047321e-01 -6.90943599e-02 +7.00789839e-02 -2.46047042e-02 -2.53961086e-02 +1.03316039e-01 -9.34887230e-02 -1.22939505e-01 +5.78035042e-02 -1.67836487e-01 -3.15812290e-01 +1.23078860e-02 -3.05384956e-02 -9.24826711e-02 -2.86177725e-01 -8.63542631e-02 +1.41130000e-01 -1.27548978e-01 +1.85818542e-02 -4.30732779e-02 +9.87738222e-02 -5.76760732e-02 -3.70434718e-03 -1.91500917e-01 +1.30861644e-02 -1.11975119e-01 -3.70957047e-01 +2.70144492e-01 -2.03594826e-02 -3.96525562e-02 -4.51206975e-02 -3.55015904e-01 +2.69609280e-02 +6.25973791e-02 -1.55850515e-01 -1.93989336e-01 +4.97605130e-02 -9.12885144e-02 +1.23894373e-02 -8.71087089e-02 +6.16570190e-03 +7.92137757e-02 +1.42067401e-02 -2.74481308e-02 +1.03626460e-01 +1.04110129e-01 +7.42629990e-02 +9.03187469e-02 -4.39495593e-02 -2.11417347e-01 +9.82087106e-02 +9.53275785e-02 -5.29792495e-02 -9.45043713e-02 -2.84145445e-01 +2.59434222e-03 +3.51115018e-02 +8.06264058e-02 -2.89345570e-02 -3.88022810e-02 +8.16290975e-02 -1.44489601e-01 -7.77039751e-02 -2.27303848e-01 -1.62136242e-01 -2.78126262e-02 +6.45643547e-02 -3.47840637e-02 -1.56075761e-01 -5.57427965e-02 -2.51870113e-03 -1.33265525e-01 -1.31671101e-01 +2.95377411e-02 +1.96418818e-02 -2.82850325e-01 +2.84355972e-02 -1.40271887e-01 -6.58735037e-02 +5.28373308e-02 +6.30597323e-02 -1.19367115e-01 +3.09140165e-03 -2.80803256e-02 -4.18358445e-02 +5.14944531e-02 -9.92545560e-02 -1.61299661e-01 +1.53549213e-03 -1.35377469e-02 -4.56579626e-02 -7.29473978e-02 +1.59779415e-01 -1.45781085e-01 -2.32446343e-01 -5.23756584e-03 -1.85253266e-02 +1.06562763e-01 -8.26010481e-02 +3.75093371e-02 +2.48380587e-03 +2.67314576e-02 +5.25688641e-02 -2.81712770e-01 +2.29673740e-02 -1.70544460e-01 +1.02467529e-01 -1.01534732e-01 +9.79261398e-02 -6.20307624e-02 -2.01581605e-02 +6.30016401e-02 -1.15456507e-01 -1.75403252e-01 +1.81616232e-01 +8.17525238e-02 +4.43550274e-02 +1.39497787e-01 +2.43028393e-03 +2.20589084e-03 +8.90955403e-02 +3.18395682e-02 -1.41967759e-01 -8.02549124e-02 -2.93968558e-01 -2.95152158e-01 +1.03244953e-01 -8.07795823e-02 -2.71465946e-02 -1.27394125e-01 +4.72802743e-02 -2.61574090e-01 -9.13068280e-02 +5.66005334e-03 -4.66125738e-03 -2.62567699e-01 -6.97652400e-02 -5.50504355e-03 -2.08452433e-01 -1.21450759e-01 +1.41512632e-01 +2.82649547e-02 -1.70319602e-01 +1.51596174e-01 +2.66576335e-02 +8.50727111e-02 -1.52877212e-01 +3.37086692e-02 -1.21549675e-02 +6.69534430e-02 +3.61837335e-02 -3.54744606e-02 +1.00251317e-01 -9.83544365e-02 +1.79787681e-01 -7.43943453e-02 +1.55609488e-01 -2.17173591e-01 +8.32286626e-02 -7.86102936e-02 -5.94157800e-02 -1.02065019e-01 -1.50423065e-01 +1.46489769e-01 +5.66124916e-02 -3.98678370e-02 -2.81110048e-01 +5.06720506e-02 -3.40197943e-02 +5.38530108e-03 -9.02294368e-02 -2.57934202e-02 -9.98711213e-02 -2.08829287e-02 -1.58726573e-01 -2.49393895e-01 +9.27519724e-02 +6.02773987e-02 -9.72369872e-03 +2.13762410e-02 -5.58126252e-03 +7.83046037e-02 +4.48692553e-02 +1.12489074e-01 +9.71035138e-02 -3.46184559e-02 -5.74509576e-02 +2.93938592e-02 +5.78342713e-02 -1.39517322e-01 -2.04596668e-01 -7.88794830e-02 -6.90158680e-02 -4.87616993e-02 -5.27213812e-02 -8.99026096e-02 +7.16002509e-02 -1.09478615e-01 -7.75558203e-02 -2.03731880e-01 -1.66970581e-01 -2.31743697e-02 +9.12011564e-02 -2.62830760e-02 -1.06733628e-01 +3.38349789e-02 +2.88556833e-02 +2.96675470e-02 -4.79355417e-02 -2.49790028e-01 -1.30191609e-01 -1.01229198e-01 -1.33618414e-01 -8.24178476e-03 -1.15238562e-01 -3.21137011e-02 -1.33760303e-01 -1.93465017e-02 +4.92071733e-02 -1.88312963e-01 +1.38977230e-01 -5.58999032e-02 +8.70508514e-03 -2.53361225e-01 +1.27705308e-02 +3.93925700e-03 -2.07534358e-01 +6.97875768e-02 -8.75658821e-03 +6.73302189e-02 -2.27634817e-01 -2.36005008e-01 -1.84743673e-01 -4.30055149e-02 -1.60033137e-01 -3.61621333e-03 -1.74133942e-01 -1.99085012e-01 +8.38812962e-02 -2.63281137e-01 -2.32101195e-02 -1.24415778e-01 -1.26298934e-01 +6.28719926e-02 -3.64912616e-04 -1.82167426e-01 -9.38896909e-02 +3.82014848e-02 +6.75413460e-02 -2.12858111e-01 +9.33745503e-02 +1.05101671e-02 +2.44640093e-02 -7.97710121e-02 -1.30508572e-01 -1.46555796e-01 -5.44594377e-02 -1.96815096e-02 -9.44741666e-02 +3.86436805e-02 -7.30858669e-02 -4.43100072e-02 -1.87397107e-01 -3.99481393e-02 -2.06932977e-01 -2.38805607e-01 -1.85256395e-02 -2.40286961e-02 -2.42727339e-01 +6.87500834e-02 -1.06344400e-02 -1.10839047e-01 -5.32838069e-02 +1.07295409e-01 +3.63178104e-02 -2.39579126e-01 +6.58817142e-02 -2.21268907e-01 -1.61322072e-01 -5.83586954e-02 -1.36911139e-01 -1.94593430e-01 +3.96182500e-02 +1.28659740e-01 -2.38723177e-02 -1.29631460e-01 -3.00740910e-04 -7.68326595e-02 -1.00544915e-01 -5.73202819e-02 -4.19487543e-02 -8.83434042e-02 -1.18797220e-01 -1.55584127e-01 -8.73562098e-02 +1.66689083e-02 +4.90826145e-02 +3.11660413e-02 +8.26583523e-03 -6.86185285e-02 -8.65558907e-02 -6.98513016e-02 -6.98941648e-02 -1.80508897e-01 +4.73607630e-02 +3.62316072e-02 -7.56126419e-02 +6.44336222e-04 +3.91619988e-02 -7.88880959e-02 -1.06575362e-01 +1.26819029e-01 -7.96677917e-02 -4.25343169e-03 +6.37734367e-04 +9.02330950e-02 -3.44235063e-01 -4.69581820e-02 -9.89241824e-02 +7.71817937e-02 -9.69969630e-02 -5.62866293e-02 -2.75330674e-02 -1.16396144e-01 -2.97170252e-01 -3.06183755e-01 -6.40933737e-02 -7.73065537e-02 -1.73801899e-01 -1.65930897e-01 -6.30066469e-02 -2.03816563e-01 -1.72070172e-02 +7.25262612e-02 -1.72848880e-01 -2.52139449e-01 -7.91870505e-02 -4.89948615e-02 -1.67636469e-01 -1.66506171e-02 +3.47914882e-02 -8.19751322e-02 -1.99923635e-01 -8.35582688e-02 -2.91898157e-02 +5.20316400e-02 -1.73488677e-01 +1.80824231e-02 +4.39646468e-02 +7.66813159e-02 -1.26710340e-01 +9.30735692e-02 +5.72620183e-02 -1.07669316e-01 -3.39642055e-02 +3.93571034e-02 -1.84928223e-01 -1.79181382e-01 -1.33857876e-02 -1.10671677e-01 -9.22507793e-02 -8.83541778e-02 -1.17205903e-01 -1.46597475e-01 +5.89341521e-02 +2.87812408e-02 -2.91956991e-01 -6.93767816e-02 -1.43980915e-02 -6.23498764e-03 +5.60279191e-02 -1.26222640e-01 -1.12433925e-01 -1.53483167e-01 +5.75570107e-01 -1.93209052e-01 -6.26036376e-02 -8.13971311e-02 +8.59629661e-02 -1.84202462e-01 -8.34148750e-02 +5.25479838e-02 -5.00988476e-02 -9.10102800e-02 -4.53497246e-02 +6.26024092e-04 +2.28424981e-01 +6.39743730e-02 -6.43471703e-02 -2.11468816e-01 +2.04471555e-02 +2.37535506e-01 -2.92908885e-02 +3.30097288e-01 -7.34037906e-02 +6.20243065e-02 +7.41548687e-02 -4.47628498e-01 -2.51686219e-02 -7.81501159e-02 -1.08750656e-01 -6.88252300e-02 +2.10399348e-02 -9.69630927e-02 +2.03072459e-01 -3.47968936e-02 +6.54918775e-02 -7.43450150e-02 +7.50462189e-02 -1.05778031e-01 -3.30719799e-01 -8.36203918e-02 +2.65782923e-01 +1.03738390e-01 +1.28764674e-01 +2.48534068e-01 -1.86104178e-01 -9.39768106e-02 -8.01567957e-02 -8.98703262e-02 +1.72693050e+00 -2.62026452e-02 +3.14314440e-02 -2.15196595e-01 +5.95384538e-02 -1.36278628e-03 -4.93884057e-01 +4.15003330e-01 +2.48107668e-02 +7.91263155e-05 -8.57758150e-02 -7.32433081e-01 -1.00633240e+00 +3.62540036e-01 -1.85374275e-01 -1.13912351e-01 +3.07402879e-01 -5.30066192e-01 +6.98690675e-03 -1.73156232e-01 +9.27907750e-02 +3.18186432e-01 +2.56148428e-01 +9.29937735e-02 +3.16115655e-02 -5.12622714e-01 +6.09340928e-02 +2.18804151e-01 +2.55109459e-01 -2.02223152e-01 -6.78611100e-02 +9.02746022e-02 +1.06801078e-01 -2.67867949e-02 -3.10749084e-01 -1.69451296e-01 -5.69642670e-02 +4.11275076e-03 -5.35617471e-02 -4.13401313e-02 +1.49179222e-02 +1.84921905e-01 -6.31031469e-02 -2.11516656e-02 -1.97723389e-01 -6.35170937e-02 +3.10855091e-01 +4.48353402e-02 -1.85905516e-01 -2.02453732e-02 +8.05645883e-02 +2.72814661e-01 +4.31399822e-01 -7.09695965e-02 +1.39036204e-03 -1.41694665e-01 -7.89370164e-02 -1.53531328e-01 -1.98530555e-02 +3.97701591e-01 -3.00754935e-01 -1.60846952e-02 +5.43973595e-02 +1.49749309e-01 -5.76087795e-02 +1.56427026e-01 -7.12447315e-02 -7.53233060e-02 -4.02559713e-02 -5.77178299e-02 -7.65677765e-02 -2.01028343e-02 +5.40421486e-01 -8.77636299e-02 +1.69795081e-01 +9.48948935e-02 +7.11666942e-02 +1.05158500e-01 +5.41731752e-02 +6.30003884e-02 +4.74366128e-01 +3.38982314e-01 -7.25835888e-03 -2.14378461e-01 -2.70887949e-02 +4.87175107e-01 +1.00850567e-01 +8.62240195e-02 -9.48310122e-02 +1.76198930e-02 -7.74251297e-02 +1.92997828e-02 -1.24693647e-01 -8.48023444e-02 +1.61271051e-01 +1.10546201e-01 -7.81321347e-01 +3.42099249e-01 +2.14884982e-01 -5.23435920e-02 +2.62476504e-02 -8.52893293e-02 +5.87079048e-01 -1.37032107e-01 -6.44769818e-02 -1.39837161e-01 -8.33917856e-02 -1.99930921e-01 -3.27919990e-01 +1.51462093e-01 -1.62925143e-02 -4.06970382e-02 +2.70146936e-01 -4.18748930e-02 -1.25038236e-01 -5.45350313e-01 -1.01350836e-01 -6.26884550e-02 +7.17486590e-02 -3.55686992e-02 +7.97317207e-01 -2.75809541e-02 -4.89094943e-01 +3.44456047e-01 +4.15411070e-02 +1.50853768e-02 -7.12711632e-01 -4.60072048e-02 +9.33333486e-02 +7.55305961e-02 +3.93664241e-01 +7.99680427e-02 +1.69315096e-02 -2.24595651e-01 +1.93029895e-01 -3.06735765e-02 +9.85207558e-02 +7.27808326e-02 +8.74079540e-02 +4.39123780e-01 +1.99396312e-01 -1.98894348e-02 -3.27365577e-01 -1.54025629e-01 -4.46391255e-02 +1.74739704e-01 -2.96939850e-01 -1.03974864e-01 +2.87683278e-01 -4.84218299e-02 +6.74368739e-02 +3.51143599e-01 -1.81676254e-01 -5.94503105e-01 +3.37704778e-01 -2.84382939e-01 +7.13978484e-02 -8.73475447e-02 +8.96607861e-02 +1.31956026e-01 +4.81437407e-02 +2.18212530e-02 +2.67300814e-01 +2.89451152e-01 +6.97738454e-02 -5.24896234e-02 +1.09819192e-02 +5.52509464e-02 -2.45447010e-02 -9.83405560e-02 -2.03242004e-01 +9.09849778e-02 +7.33033800e-03 -1.41320573e-02 -6.55058175e-02 +3.96690853e-02 +7.72162154e-02 -3.05870563e-01 -3.42675120e-01 -2.66435742e-01 -2.01917619e-01 +8.88856724e-02 +5.80018237e-02 -7.77110457e-02 +1.64503545e-01 +8.54601264e-02 -2.00854000e-02 -6.70344755e-02 +2.51489552e-03 -2.09289372e-01 -2.88145006e-01 +5.29330149e-02 -4.84469123e-02 +9.25216824e-02 -3.16741794e-01 -1.39260404e-02 -4.59817126e-02 -5.78916036e-02 -6.06900500e-03 -2.42018402e-02 +1.44766760e-03 -1.86331347e-01 -1.24076952e-03 -1.96869791e-01 +4.22806963e-02 -1.65467963e-01 -3.19389343e-01 +2.05864891e-01 +6.91157505e-02 -7.95450658e-02 -1.19880281e-01 -2.52618641e-01 