#Parameter# /_0 {50,3} 2401 ZERO_GRAD
+7.89318562e-01 +6.59597576e-01 +4.53200430e-01 +2.51224488e-01 -3.01725976e-02 -6.42457455e-02 +6.11318052e-01 +4.58699167e-01 +8.53975713e-01 +4.30261374e-01 +2.24908173e-01 -3.24166536e-01 -1.36062428e-01 +1.98048174e-01 -1.43246278e-01 -2.37630412e-01 +6.07131124e-01 -4.15208377e-02 -1.36833042e-01 +3.23871195e-01 -5.93712747e-01 +8.57350752e-02 +7.98319373e-03 -5.62439978e-01 +1.38045417e-03 -8.96892473e-02 -8.54315385e-02 +4.83440578e-01 -6.04640208e-02 +3.06729712e-02 -2.23110214e-01 -3.50683719e-01 -3.61487091e-01 -1.24564156e-01 +1.67399421e-01 +2.22676128e-01 -4.60926741e-01 +5.34492552e-01 -2.42634818e-01 +1.20078850e+00 -5.16177952e-01 +1.93503499e-01 +4.70595807e-01 -3.11424315e-01 +7.91949213e-01 -3.66323143e-02 +1.20375909e-01 +3.48082706e-02 +1.00435168e-01 -4.15471554e-01 +4.93230671e-02 +1.48620546e-01 +4.03329693e-02 +3.27928394e-01 -6.35834262e-02 -1.70116816e-02 -9.18574512e-01 +5.99694476e-02 -6.91732541e-02 -7.67199457e-01 +3.89673933e-02 +4.18082863e-01 +7.66479038e-03 -1.35992795e-01 +3.35931927e-02 -3.84366989e-01 +7.77958691e-01 +3.42816859e-01 +3.65667820e-01 +9.79884148e-01 -2.56069362e-01 -1.06704272e-01 -8.07945896e-03 -2.15535253e-01 -8.47753230e-03 -8.20584178e-01 -8.53233561e-02 -1.53648406e-02 +3.14013921e-02 -8.16608429e-01 +1.83451295e-01 +4.04426455e-01 -4.63863313e-02 +7.47684091e-02 -3.39185190e-03 +1.69343084e-01 +2.16064394e-01 -1.71196163e-01 -5.10260947e-02 -1.10115588e-01 -5.00522733e-01 -9.01180208e-01 +2.65536487e-01 +1.15319777e+00 +1.30748027e-03 -7.20425621e-02 -9.72204328e-01 +5.13348095e-02 +1.02670476e-01 -5.32967091e-01 +4.01712984e-01 -1.02275260e-01 -1.26304358e-01 -1.01225801e-01 +1.40246481e-01 +4.95083362e-01 +9.84364823e-02 -5.28008819e-01 -1.54591814e-01 -3.39608938e-01 -7.00896606e-02 +4.62563187e-01 +3.39298159e-01 +7.12046981e-01 +1.48810456e-02 -4.74538326e-01 -1.44356295e-01 -3.28057796e-01 -8.05379748e-02 -2.93661833e-01 -4.20415938e-01 +2.79925074e-02 +2.31486067e-01 -3.25485855e-01 -1.76301330e-01 -2.36231431e-01 +3.97085957e-03 -1.92367181e-01 -6.59543753e-01 -1.36686459e-01 -3.50947632e-03 -5.19587517e-01 +4.90596801e-01 -5.03209949e-01 +6.76040351e-01 -8.18038583e-02 -2.90489197e-01 -2.57468671e-01 +6.70969188e-02 -2.40514442e-01 -2.12493569e-01 -1.10297129e-02 -2.66517606e-02 -3.55111480e-01 -8.58969450e-01 -2.57494338e-02 -2.21542895e-01 -4.77916598e-01 -8.04768443e-01 -1.75959691e-01 
#Parameter# /_1 {50} 801 ZERO_GRAD
+4.90108132e-01 -5.45611560e-01 +3.76856685e-01 -4.79860902e-01 -3.75185907e-01 -8.81205142e-01 -6.62431791e-02 -4.20981616e-01 +6.95953488e-01 -6.02855273e-02 +6.57025576e-01 -4.10082132e-01 -8.22924793e-01 -9.15248036e-01 -2.45597124e-01 -3.66260350e-01 +2.69050221e-03 +1.15444601e-01 -6.24402404e-01 +5.10728694e-02 +6.19836450e-02 -2.49568060e-01 -4.99732167e-01 -1.22108407e-01 -2.34713048e-01 +1.22757321e-02 -3.36607367e-01 +8.65727484e-01 +1.58665821e-01 +1.63829833e-01 -4.11255687e-01 +4.67157334e-01 -6.62894130e-01 -4.82544955e-03 -7.59851754e-01 +5.20202279e-01 +4.35562193e-01 -2.77841896e-01 -4.30201739e-01 -1.96816936e-01 +8.58992711e-02 -2.82277495e-01 -1.25971243e-01 -1.66178748e-01 +2.92046107e-02 -1.84621856e-01 +1.24003708e-01 -5.21830857e-01 -5.66281497e-01 +5.60792387e-01 
#Parameter# /_2 {200,50} 160001 ZERO_GRAD
+7.36531392e-02 -3.12644809e-01 -2.61871845e-01 -1.33810751e-02 +3.66928382e-03 +1.13395415e-01 -8.10530066e-01 -1.28917411e-01 +2.65822783e-02 +1.13735951e-01 -6.72107860e-02 -4.09661800e-01 -2.81873465e-01 -1.83378771e-01 -5.12381673e-01 +5.67398928e-02 +2.35608798e-02 -3.98417085e-01 -8.14504623e-01 -3.75285804e-01 -3.92543197e-01 -2.21905261e-01 -3.91265303e-02 -1.03706038e+00 +1.01628780e-01 -3.87417048e-01 -8.55330899e-02 -1.55575173e-02 -1.47265613e-01 -2.04529777e-01 +1.30963311e-01 -2.68112570e-01 -1.87465608e-01 -2.83901662e-01 -2.72962064e-01 -2.58077055e-01 +4.29084003e-02 -8.17760527e-02 -8.59252334e-01 +3.14789489e-02 -2.27952406e-01 +1.25385091e-01 -9.16096747e-01 +2.22725570e-02 +6.57074619e-03 -1.80824503e-01 +2.46080726e-01 -3.06569617e-02 -1.23109031e+00 +9.85767916e-02 -9.99456942e-02 +1.71294659e-01 -6.76858842e-01 -2.44869307e-01 -3.43391836e-01 -1.50287807e-01 -9.83272679e-03 -1.94007441e-01 +1.33692715e-02 -9.03811380e-02 +2.24103332e-01 -3.90256137e-01 -3.62215519e-01 -1.63846195e-01 -7.45188370e-02 -1.34316102e-01 +2.04638075e-02 -3.71175140e-01 -2.76690751e-01 -1.20247483e+00 -2.83074006e-02 -4.98829335e-01 -2.65102506e-01 -1.63345829e-01 +1.75363004e-01 -8.23935986e-01 +6.29529655e-02 -1.06983447e+00 +3.56045783e-01 -2.01300323e-01 -2.57004946e-01 -2.17115059e-01 +1.17445305e-01 -6.98032305e-02 -7.04994574e-02 -5.51085249e-02 +1.71329945e-01 +1.51144564e-01 -4.14242655e-01 -4.93400961e-01 -1.13057680e-01 -1.87548175e-01 -2.20012814e-01 -2.26695966e-02 -1.82938680e-01 +7.65290204e-03 -1.85995311e-01 -7.95280281e-03 +3.37728076e-02 +2.60291427e-01 +2.82815248e-01 -4.41859484e-01 -1.52241990e-01 -1.11115217e+00 -1.09506942e-01 -1.59917489e-01 -7.51500309e-01 +3.68423402e-01 +9.37948376e-02 -9.52596426e-01 -2.14627221e-01 -3.90998542e-01 -1.08427398e-01 -1.64335564e-01 -2.30276212e-02 -1.20655961e-01 -1.63165942e-01 -9.99226347e-02 -2.23567476e-03 -3.09671521e-01 +1.80051234e-02 +6.28750995e-02 -5.95216393e-01 -5.98553658e-01 -2.33309087e-03 -8.11931014e-01 -1.11347931e-02 -1.35033771e-01 -1.77285463e-01 +4.83767539e-02 -5.04162684e-02 -8.98736492e-02 -3.24126393e-01 -2.52631932e-01 -1.86313421e-01 -1.98714614e-01 -2.21266896e-01 -3.71433944e-02 -4.11680818e-01 -3.30763519e-01 -1.90590218e-01 -2.45507985e-01 +1.24114593e-02 -9.54163596e-02 -8.29364181e-01 -4.58718419e-01 +4.80839312e-02 -1.69091836e-01 +1.79872813e-03 -5.11249304e-01 +5.90876527e-02 +1.12339817e-01 -1.80838242e-01 -5.10005951e-01 -2.69219458e-01 -8.99930522e-02 +8.38872343e-02 -1.91024050e-01 -3.09736282e-01 -4.38245773e-01 -2.27416113e-01 +2.22628459e-01 -4.03596669e-01 -1.55470118e-01 -1.97654560e-01 -7.02033877e-01 -5.32192230e-01 -1.38338581e-01 -4.84713772e-03 -1.32782936e-01 +1.04590878e-01 -8.70011747e-01 +1.10859778e-02 -4.27524865e-01 -5.76523915e-02 -4.24710125e-01 +7.71538988e-02 -2.62483031e-01 +5.26301414e-02 +4.81377244e-02 -1.75452709e-01 -4.80138987e-01 +3.82511392e-02 +3.00309844e-02 -2.49543875e-01 -1.81371927e-01 -8.98006439e-01 -1.94709450e-01 +5.96903404e-03 -3.07890791e-02 -2.45497465e-01 -1.07655242e-01 +6.87973440e-01 -2.00088412e-01 -2.79805154e-01 -2.82409728e-01 -7.35065266e-02 -2.53814936e-01 -2.13800937e-01 -1.36318159e+00 -6.33669645e-02 +7.37082958e-01 +6.00413373e-03 -4.08623785e-01 +9.21487212e-02 -3.52483653e-02 +2.90092736e-01 -3.69633138e-02 -1.23687468e-01 +1.21611822e-02 -7.38919973e-02 -2.24026114e-01 +6.53074160e-02 -1.40761420e-01 +1.33044571e-01 +1.09560490e-01 +4.57028113e-02 +7.89804012e-02 -6.40642643e-02 +1.70964956e-01 -3.56151573e-02 +8.41363892e-02 -2.32308470e-02 -2.13035662e-02 -2.38339886e-01 -5.54154158e-01 -2.19303384e-01 +1.35940865e-01 -1.14056729e-01 -3.78969133e-01 +1.10309869e-01 -1.13288701e-01 +1.56265646e-01 -5.39022870e-02 -1.02636173e-01 -4.24382500e-02 -1.44910619e-01 +6.74016237e-01 -2.82245055e-02 +2.94059981e-02 -1.26241112e+00 +5.73208369e-02 -2.02834576e-01 -2.14552626e-01 -6.14033192e-02 +1.72655255e-01 +1.11937284e-01 +4.28489864e-01 +2.85309851e-02 +1.41730711e-01 -1.02911592e-01 +1.24978149e+00 +7.83069432e-01 +1.23446763e-01 -3.82421277e-02 -9.05438662e-02 -4.64085132e-01 -8.43700171e-02 -3.30046080e-02 -7.93835372e-02 +2.29031682e-01 -2.52981156e-01 +7.24676624e-02 +2.35187501e-01 +7.59139135e-02 -5.63020147e-02 +4.42060649e-01 -1.42076269e-01 -1.44299820e-01 -1.29019856e-01 -7.19122887e-01 +1.46089196e-01 -5.38226306e-01 +8.42085779e-02 +3.26835811e-02 -1.92313984e-01 +1.44654224e-02 -5.77987969e-01 -3.05112582e-02 +1.45146981e-01 -2.49570906e-02 -2.28931472e-01 +2.22737659e-02 +3.90057921e-01 -7.01226741e-02 +1.13808036e-01 +1.00860369e+00 +4.33259696e-01 -6.96759999e-01 +1.53545558e-01 -1.52814791e-01 +1.39228627e-01 -8.13742131e-02 -1.28029808e-01 +1.49370268e-01 -1.76506460e-01 -9.53261480e-02 +1.45352945e-01 -8.78627673e-02 +4.50901464e-02 -3.86806540e-02 -1.06214069e-01 -1.75935194e-01 -2.30929747e-01 -2.19692782e-01 -1.92225412e-01 -5.12178475e-03 +4.86918598e-01 +4.94285643e-01 +1.69760451e-01 -7.47319218e-03 -4.46492761e-01 +8.54146108e-03 -1.95157841e-01 -3.38447317e-02 +1.22049034e-01 -3.23300660e-02 -3.52035873e-02 +5.64837046e-02 +5.59780700e-03 -1.99178129e-01 +9.78092924e-02 +4.64816421e-01 +1.43307611e-01 +1.06341824e-01 -3.77022997e-02 -5.74563034e-02 +1.23195522e-01 -2.29120806e-01 -1.96607754e-01 -1.56855270e-01 +1.18944637e-01 +1.11648284e-01 +2.87647486e-01 +5.59296906e-02 -7.71895377e-03 +3.92330401e-02 -1.09091327e-01 -1.50902584e-01 +1.94606051e-01 +2.56515890e-02 +1.39244109e-01 +3.74450311e-02 +4.95966114e-02 -1.39846489e-01 -1.60544559e-01 +2.38901883e-01 -2.13126674e-01 +5.94557598e-02 -9.09181237e-02 -5.41528799e-02 +1.70592666e-01 +9.59593579e-02 +1.06043041e-01 +4.04455662e-02 -2.25635812e-01 +3.02701741e-01 -2.54578769e-01 -1.02730773e-01 +4.49568406e-02 -2.74728149e-01 +4.04597968e-01 +1.35536432e+00 -8.99849832e-02 -9.52533558e-02 -3.62832770e-02 +1.76693648e-01 -8.21389258e-02 -2.09901622e-03 +6.20049722e-02 +2.05257744e-01 +1.17158487e-01 -1.24607764e-01 +1.97929400e-03 -4.09292728e-01 -3.21285017e-02 +9.23537612e-02 -2.94400513e-01 +4.87228297e-02 -1.73220113e-01 +7.90700093e-02 +6.82697415e-01 -1.11804083e-01 -1.54450208e-01 -8.67110193e-02 -3.26338038e-02 -2.05827072e-01 +5.12085333e-02 -1.51478931e-01 +6.23481795e-02 +1.51473248e+00 -1.40723601e-01 +3.90123785e-01 +8.88310149e-02 -1.20829515e-01 +1.99917369e-02 -8.00424442e-03 +1.79304674e-01 +1.47732839e-01 -2.31021017e-01 -9.80328396e-02 -6.19215667e-01 -9.65473354e-02 -1.30861267e-01 -1.26912096e-03 -1.67064026e-01 +2.73656875e-01 +7.73499683e-02 -2.01303363e-01 -1.16074152e-01 -2.81868666e-01 +8.07410851e-02 +5.91066293e-02 +2.30790246e-02 -4.83125627e-01 -2.96044573e-02 +1.32266001e-03 +8.19913596e-02 +6.18798696e-02 -8.50682054e-03 -3.93965468e-02 -4.83024716e-01 +5.08653484e-02 -5.85629404e-01 -1.81183502e-01 -5.30631244e-01 +1.53977945e-01 -8.62449408e-02 -1.22340322e-01 -2.39422962e-01 -1.87454112e-02 -9.85500216e-02 -1.51527509e-01 -2.14167252e-01 -5.81777275e-01 -5.10580897e-01 +8.20542872e-02 -3.71870577e-01 -5.54338694e-02 -1.86533526e-01 +3.65493000e-01 +3.73538733e-02 -7.55645692e-01 -3.11076809e-02 -3.11854899e-01 -1.25188557e-02 -2.48721734e-01 -2.40385458e-01 -4.07838553e-01 -1.90034509e-01 -1.58108044e-02 -1.49596155e-01 +5.48473716e-01 -1.47997126e-01 -3.96777280e-02 -8.63275677e-02 +7.15241060e-02 -2.16809422e-01 -1.62848473e-01 -1.05410799e-01 -1.14026122e-01 -1.06914818e-01 -3.12821597e-01 -1.18194319e-01 -1.44385695e+00 -1.78612718e-05 -8.20804119e-01 -9.41122100e-02 -3.25532585e-01 -6.96955174e-02 +2.02605389e-02 -3.11836541e-01 -6.69722319e-01 -9.88706276e-02 -1.82291865e-01 -8.20809245e-01 +8.06875080e-02 +9.79124829e-02 -6.01753145e-02 -1.65128857e-01 -1.98423341e-01 +3.33415791e-02 -4.21684310e-02 -4.24294263e-01 -5.04854172e-02 -2.10826457e-01 +1.68687433e-01 -1.96866632e-01 -9.78202373e-02 +6.08959161e-02 +1.13262363e-01 -3.63173485e-01 -8.84586051e-02 -9.64055210e-02 -3.23788762e-01 +2.62711495e-01 -2.47720666e-02 -1.61301829e-02 +4.10710312e-02 -2.04305425e-01 -1.11844011e-01 -1.61312118e-01 -1.99419241e-02 -7.91222870e-01 -2.32356533e-01 -1.47086456e-01 +3.48679312e-02 +4.25074786e-01 -4.96410578e-03 -2.65124310e-02 -1.29165694e-01 +2.49119103e-01 +2.12860154e-03 -1.50806680e-01 +4.88900170e-02 -3.84486705e-01 -1.37167886e-01 -7.14008138e-02 -6.53115660e-02 +1.88715253e-02 -4.64269659e-03 -1.20720461e-01 +1.98359489e-01 +2.40236558e-02 -1.76491633e-01 -1.95388690e-01 -1.53875664e-01 -1.73213154e-01 -6.55494705e-02 -2.68420964e-01 -1.38181999e-01 -1.05415933e-01 -2.34131694e-01 -3.25374871e-01 -1.03701204e-01 -3.36781889e-02 -4.48790699e-01 -5.06124854e-01 -2.61296064e-01 -5.09256899e-01 -1.69902176e-01 -4.40237314e-01 -1.48630247e-01 -4.82116520e-01 -6.36966765e-01 -1.14401504e-01 -5.58641553e-01 -2.95511018e-02 -2.52607107e-01 +1.20644405e-01 -1.98359966e-01 -4.07385081e-03 -4.36417639e-01 -3.64416540e-01 -1.76631689e-01 -1.15653120e-01 -3.51654202e-01 -2.31337383e-01 -7.06901699e-02 -3.10529977e-01 -1.67451203e-01 +4.60492522e-01 +1.14379868e-01 -1.78626835e-01 -9.93894339e-01 -4.78541106e-01 -9.71624255e-02 -1.98447004e-01 -2.70317316e-01 +6.66658208e-02 -2.71783024e-01 -5.37541151e-01 -7.01060370e-02 -1.17843747e-01 +1.88328978e-03 +6.26964942e-02 +4.38298918e-02 -2.34846339e-01 -1.09992862e-01 -1.66076079e-01 -2.76331097e-01 -3.03381205e-01 -1.13908388e-01 -1.69067569e-02 -8.19895118e-02 -1.85980663e-01 -1.07976770e+00 +9.14315041e-03 -5.24884425e-02 -1.45075336e-01 -1.58244595e-01 -7.15215355e-02 -9.71738324e-02 -1.45315543e-01 +1.03065548e-02 -7.10037053e-01 -1.17407024e-01 -7.49063119e-02 -3.41112643e-01 -8.42499971e-01 +1.16980702e-01 -2.70183802e-01 -9.25957859e-02 -3.04939210e-01 -1.35160580e-01 -1.15871683e-01 -1.07032709e-01 -2.25298837e-01 +2.39763260e-02 -1.09617025e-01 +3.99331562e-03 -1.03006057e-01 -1.40412495e-01 +5.12731634e-02 -1.24289699e-01 +1.11454360e-01 -6.24828190e-02 -5.55112958e-03 -6.75018013e-01 -9.23371762e-02 -2.54802167e-01 +5.65018468e-02 -1.89623497e-02 -4.12621021e-01 +1.57164872e-01 -1.96125850e-01 +1.86022162e-01 +3.89900394e-02 +6.19834289e-02 -1.50910512e-01 +4.78946418e-03 -2.32774504e-02 +5.06806225e-02 -1.11633241e-01 +3.25937904e-02 -3.03492874e-01 -2.26543009e-01 -9.05927047e-02 -2.05886170e-01 -5.76004267e-01 -5.04507720e-01 -8.42869356e-02 -2.49824658e-01 -3.43834758e-02 -1.08920448e-01 -5.71600422e-02 +3.42801660e-01 +3.10725179e-02 +1.12467878e-01 -1.44184783e-01 +8.85055885e-02 -2.19511371e-02 +5.50009310e-01 -3.19724791e-02 -1.69775352e-01 +1.86298668e-01 -2.87681490e-01 -1.63155735e-01 +6.35259748e-02 +4.06108886e-01 +1.79357111e-01 -7.81865269e-02 -1.48721009e-01 +5.55876493e-01 -2.45295078e-01 -9.83108766e-03 +1.47636980e-02 -1.12141468e-01 -3.60286415e-01 -3.48740906e-01 -5.77145489e-03 +8.66680685e-03 +6.02834113e-02 +2.17683285e-01 +1.57155752e-01 -8.53515565e-02 -7.65608773e-02 +1.12428822e-01 -9.46319401e-02 -5.27708769e-01 -1.28237411e-01 +2.76896924e-01 -8.34193975e-02 +1.46312431e-01 -6.36668429e-02 -2.92892128e-01 -4.35352266e-01 +4.34060305e-01 -1.76168293e-01 -1.70806795e-01 +8.37559551e-02 -3.33929956e-01 +1.84951425e-01 +7.64748305e-02 +1.51015863e-01 +9.83576030e-02 -1.27978623e-01 -2.40516849e-02 -1.07886782e-02 -7.13594034e-02 -1.58014596e-01 -2.92520821e-01 +7.26140384e-03 -2.35163465e-01 -9.25281942e-02 -4.14825380e-01 +3.18414509e-01 +3.78912956e-01 +4.99385446e-02 -6.34226352e-02 -6.11730572e-03 -3.64905179e-01 +1.49235845e-01 +4.09888923e-02 -2.06037715e-01 -5.47662750e-02 -1.19667977e-01 -4.50884998e-02 -2.01796100e-01 -1.04308883e-02 -1.00149885e-02 -8.66687577e-03 +2.61243284e-01 -3.09894711e-01 +4.84092012e-02 -9.40155536e-02 -1.71764195e-01 -8.57106894e-02 -1.02915660e-01 -5.13050258e-02 -6.40181452e-03 -1.02692246e-01 -1.06461875e-01 +3.39796282e-02 -2.92609966e-05 +1.64094016e-01 +8.03492740e-02 -3.01555526e-02 -8.65169689e-02 -3.02675128e-01 -5.72592951e-02 -3.01183313e-01 -2.08662245e-02 -5.93939833e-02 -3.98283117e-02 -3.73574674e-01 -1.88166976e-01 +3.15431599e-03 +1.52083516e-01 -2.52675712e-01 -7.05776289e-02 +4.04322296e-01 +2.69426882e-01 +6.91959560e-02 +1.60508193e-02 +9.97249782e-02 -2.43595224e-02 +2.88252503e-01 -6.56802654e-01 -2.39454255e-01 -2.73649186e-01 +3.55036169e-01 -3.13744336e-01 -1.00730984e-02 +1.61882386e-01 -5.05378783e-01 -3.93850595e-01 -9.73348990e-02 -9.74616259e-02 -1.37552083e-01 -9.48096365e-02 -4.07085717e-01 -3.49289365e-02 -2.48771757e-01 -4.90061231e-02 -5.51333800e-02 -1.41841304e-02 -7.42028952e-02 -1.46752298e-01 -3.27147633e-01 -2.38922238e-01 +4.71923083e-01 -3.78050476e-01 +8.89316797e-02 -1.59104258e-01 -5.85400164e-02 -2.07039028e-01 -5.90320304e-02 -1.10675782e-01 -1.49320695e-03 -4.98170078e-01 -1.21300668e-01 +8.52283478e-01 +4.65224683e-02 +1.57504156e-01 -1.85110942e-01 -9.04596504e-03 -7.64197186e-02 -1.49595588e-01 -1.79798707e-01 +7.23044947e-02 +3.80598456e-02 -3.26416939e-02 +1.54680796e-02 -1.47160113e-01 +5.34391366e-02 -1.51194423e-01 -8.91331583e-02 -1.23476684e-01 -1.94270462e-01 +7.33679011e-02 +4.42843400e-02 +3.96846747e-03 -1.28545478e-01 -5.98394917e-03 +2.26052552e-02 -4.19821925e-02 -3.21121737e-02 +4.03980315e-02 -3.81231755e-01 -1.17307588e-01 -7.02547729e-02 -1.28225759e-01 -3.71241987e-01 -1.10769510e-01 +2.01969162e-01 -3.70035112e-01 +6.28965870e-02 -8.14019218e-02 +2.06484988e-01 -6.53937981e-02 -1.08352229e-01 -6.13132375e-04 +3.58528923e-03 +2.21702635e-01 +2.57052094e-01 -5.30346632e-02 +4.16068509e-02 -5.29997610e-02 -2.52527714e-01 -1.01194799e-01 -6.56832829e-02 +1.51976263e-02 +5.54204099e-02 -4.01793560e-03 +3.05170268e-01 -2.53918201e-01 -2.38210812e-01 +1.01102263e-01 -1.77966151e-02 +1.03217103e-02 -9.56679657e-02 +8.85932669e-02 -1.07008025e-01 +2.95313835e-01 -1.23051569e-01 -4.70207900e-01 -9.69393030e-02 -5.52078858e-02 +3.07376459e-02 -7.46471435e-02 -1.40263170e-01 -1.08253799e-01 +1.22613072e-01 +1.19478166e-01 +1.24255247e-01 +6.49109855e-02 -2.50159323e-01 +8.42640400e-02 -4.44624834e-02 +8.15002620e-02 +2.82380849e-01 -4.52430081e-03 -7.54404366e-02 -9.02390257e-02 -1.50490284e-01 -1.05764098e-01 -4.99871284e-01 -5.44306219e-01 -4.81747016e-02 -1.31253868e-01 -1.39594957e-01 +4.21977565e-02 +1.44486085e-01 -1.54521778e-01 +1.96433589e-01 +2.58982927e-01 +6.70894608e-02 +1.48543334e-02 +1.84203893e-01 +1.06510922e-01 -5.63974641e-02 -8.40451382e-03 -1.43108591e-01 -2.04859644e-01 -8.72303694e-02 -8.92000496e-02 +6.14992045e-02 -7.02550486e-02 -5.80304265e-02 +6.93117604e-02 -7.72373080e-02 -2.32274130e-01 -1.63458318e-01 -1.45125121e-01 -2.27433488e-01 +1.02524690e-01 +9.50130522e-02 -2.65373111e-01 +1.65165454e-01 -2.71584932e-02 -3.83454561e-01 +1.46357506e-03 -1.62726909e-01 +3.75071205e-02 -3.55076790e-01 +1.56871557e-01 +3.06917801e-02 -6.50547147e-02 +6.51260540e-02 +9.02998447e-03 +9.33219716e-02 +7.62889832e-02 +1.63756117e-01 -3.99809033e-01 +6.73453370e-03 -2.67974347e-01 -1.55034900e-01 +6.26781136e-02 +8.56048837e-02 -5.09575531e-02 +9.29369181e-02 +2.64042825e-01 -5.45270592e-02 -1.19494358e-02 -1.89466367e-03 -6.38144985e-02 -1.95813537e-01 +4.94705290e-02 -5.74308373e-02 +6.25289381e-02 -5.93320690e-02 +8.26423541e-02 +1.07906483e-01 +2.45571688e-01 -2.17248648e-01 +9.90877450e-02 -2.07694784e-01 -1.71091616e-01 -5.32238521e-02 -7.00703189e-02 +3.02455127e-01 -6.31788075e-02 -8.81446749e-02 +5.59064522e-02 -3.08259010e-01 +1.99067146e-02 -1.93395421e-01 -4.03465852e-02 -2.99377441e-01 -6.01849370e-02 -4.89428997e-01 -4.07258905e-02 -2.02244490e-01 -8.83684843e-04 -5.06334826e-02 +2.45369613e-01 +4.45337547e-03 -2.08706949e-02 +2.84972936e-02 -2.07064539e-01 +2.26103127e-01 -2.14535132e-01 +7.07201734e-02 -2.25692406e-01 +9.93902236e-02 -5.57771996e-02 +1.39129266e-01 -1.37815639e-01 -5.80448098e-02 -6.20601214e-02 +4.20150869e-02 -1.42565966e-01 -9.37553719e-02 -1.76520914e-01 -6.50253817e-02 +9.77187455e-02 -1.71632603e-01 +8.94410349e-03 -3.42763603e-01 +1.56704575e-01 -1.50059909e-01 +4.05532926e-01 -6.03570454e-02 -3.24715674e-02 -1.16182745e-01 -1.94349244e-01 -2.07698997e-03 +6.85103089e-02 -2.63920520e-02 -1.10720834e-02 -3.91647398e-01 +8.83356929e-02 +5.01421019e-02 -1.14995860e-01 -4.12377194e-02 -6.44495010e-01 -2.96182543e-01 +1.08606502e-01 -1.07550740e-01 -3.12725723e-01 +1.43023372e-01 -3.19808838e-03 -2.29289476e-02 -4.04354669e-02 +1.01933917e-02 -1.97638109e-01 -1.80758387e-01 +1.30571574e-01 -1.19426322e+00 -9.40782189e-01 +1.03981338e-01 +1.19332120e-01 +2.56375492e-01 -2.50238776e-01 -2.86227733e-01 -1.78433466e+00 -8.28360170e-02 -1.53871328e-01 +4.50892188e-02 +3.58342286e-03 -1.57732576e-01 -1.02964193e-02 -4.21898901e-01 -7.11296737e-01 -1.69656962e-01 -9.17965323e-02 +4.96599264e-02 +4.38871145e-01 -1.47122309e-01 +4.10243511e-01 -3.27536553e-01 -1.00765169e+00 +1.96484663e-02 +5.21000363e-02 +1.26901865e-01 -9.98667479e-01 -1.05811618e-01 -2.11796358e-01 -2.01930806e-01 -3.53960805e-02 -8.83755505e-01 +2.59872451e-02 +5.05611122e-01 -4.99518245e-01 -7.21733132e-03 -1.01589911e-01 +3.43337096e-02 +2.65003834e-03 -1.42595218e-02 -2.62357384e-01 -2.14755863e-01 -6.49138689e-01 -7.97539413e-01 -1.57242334e+00 +6.11451305e-02 -4.02590185e-01 -2.14927465e-01 -6.16040304e-02 -1.30802557e-01 +2.42754206e-01 -1.21224269e-01 -7.95054972e-01 -1.80715144e-01 -3.52251947e-01 -4.08408940e-01 -1.44905701e-01 -7.70620883e-01 -1.78595185e+00 +1.79003060e-01 -2.20496282e-01 -1.60015130e+00 +2.69144624e-02 -1.59102350e-01 +3.91597711e-02 -1.32535949e-01 +4.46574807e-01 -2.55776167e-01 -1.14972472e-01 +5.20991266e-01 +6.40898496e-02 +7.01072961e-02 -2.54834980e-01 -2.12295234e-01 -2.15686992e-01 -8.97911131e-01 -1.37152687e-01 -8.20347518e-02 -3.26009989e-02 -2.96841692e-02 -5.42286217e-01 -5.89809604e-02 +3.58144492e-02 -1.48055106e-01 +4.79427762e-02 +5.45584820e-02 -1.22856267e-01 -2.94838023e+00 -1.94258583e+00 +1.11933105e-01 -4.91058864e-02 -1.01939356e+00 -3.68669778e-02 -2.73481101e-01 -4.91786525e-02 -3.73144895e-01 -2.89476901e-01 -2.21003324e-01 +1.14934348e-01 -3.47477019e-01 -1.59538791e-01 -4.23961086e-03 -2.14529467e+00 -1.40936106e-01 -4.01257306e-01 +2.13464916e-01 -2.55573004e-01 -4.70911711e-02 +1.96855888e-02 +4.39618947e-03 -4.05735895e-02 -5.11473790e-02 -2.68005878e-01 +1.34091929e-01 -4.69506942e-02 +1.14675313e-01 +1.62155733e-01 +1.57361269e-01 -6.57016695e-01 -1.16600223e-01 -2.48256877e-01 +3.11767131e-01 -1.90386340e-01 -3.73451784e-02 -4.52551425e-01 +1.68242499e-01 -1.30026937e+00 -1.74063548e-01 -1.94804087e-01 -1.20333850e-01 +5.38599640e-02 -2.44751833e-02 -2.36497253e-01 +5.71523719e-02 -8.98893028e-02 -1.97817728e-01 -4.57223170e-02 -6.22160256e-01 -4.30391468e-02 -3.03796172e-01 -2.35063627e-01 -3.63464904e+00 +8.72410595e-01 -8.95021781e-02 -9.42551255e-01 +7.58422092e-02 -5.66973388e-01 -7.09842965e-02 -6.61747605e-02 -1.05115034e-01 -1.27157092e-01 -2.51761198e-01 -6.99234381e-02 -7.68070519e-02 -3.50349724e-01 +3.08548301e-01 -3.36098284e-01 -1.51446313e-01 -1.69580817e-01 -5.95651008e-02 -3.04221362e-02 +2.73483396e-01 -4.92912121e-02 -1.20863551e-02 -2.20657423e-01 -1.24213826e-02 -8.82394016e-02 -1.15956418e-01 -9.24438164e-02 -5.12558520e-01 +7.79142261e-01 -6.47476688e-02 +2.28151977e-01 -1.66834872e-02 -1.67288780e+00 -2.99844086e-01 +2.27379277e-02 +1.09944247e-01 -8.19706082e-01 -7.43870437e-01 +1.19448965e-02 +1.54071927e-01 +1.86991006e-01 +1.73442170e-01 -8.69298950e-02 -1.58074364e-01 -1.01835847e+00 -2.89370902e-02 +4.27659079e-02 +1.27068004e-02 -2.01121449e-01 +1.96747165e-02 -3.99669081e-01 -3.34060490e-02 -1.86611488e-01 +1.25526786e-01 +6.67446572e-03 -1.02632269e-01 -2.11071253e-01 -1.22704163e-01 -1.72424719e-01 -2.17110589e-02 -7.84147717e-03 -3.55444908e-01 +2.17828788e-02 +3.80848676e-01 -1.30028322e-01 +9.37286466e-02 -4.54834737e-02 +1.21449143e-01 -1.38998583e-01 -5.09728193e-02 -8.22098851e-02 -2.82476306e-01 -2.46976778e-01 -4.62963998e-01 -5.30410223e-02 -1.51714399e-01 +4.81126606e-01 -2.87158340e-01 +3.06665808e-01 +8.22230950e-02 -1.83607090e+00 +8.72029923e-03 -4.06905115e-01 -2.25787476e-01 -4.24727350e-01 -2.04184279e-01 -7.31255889e-01 -8.90068114e-02 +8.95776004e-02 -1.20002337e-01 +1.27438295e+00 -6.95351481e-01 -2.31721133e-01 -8.66052583e-02 +5.34369275e-02 +5.40932678e-02 -7.46821985e-02 -1.54476151e-01 -4.83916737e-02 +6.89576566e-02 +2.44081542e-02 -4.86237049e-01 -4.81526524e-01 -1.86455604e-02 -2.30868295e-01 -7.80725107e-02 -1.52298540e-01 +1.18661039e-02 -3.73502105e-01 +2.68150598e-01 -9.75966230e-02 +1.81457117e-01 +8.13798830e-02 -5.01431108e-01 -9.36389565e-02 -9.78683054e-01 -2.66097635e-01 -3.97929043e-01 -2.85556197e-01 -1.84091732e-01 +4.65412512e-02 -2.10273430e-01 -8.40918645e-02 -1.45849541e-01 +2.45911758e-02 -5.30083597e-01 -1.13161743e-01 -8.52413535e-01 -1.26941621e-01 +1.14145197e-01 -1.48196816e-01 -2.67027896e-02 +1.40289903e-01 -7.61873007e-01 -3.61561067e-02 +1.04580715e-01 -1.52575038e-02 -2.89688140e-01 -2.33649656e-01 +8.49604085e-02 +2.72765588e-02 -1.33843923e+00 -8.36764947e-02 +1.32981598e-01 +1.25476515e+00 +5.98936714e-02 -7.51227736e-02 +1.03908122e-01 +3.10712610e-03 -2.94315338e-01 +4.65998612e-03 -3.46125454e-01 -1.45555019e-01 -2.89581381e-02 -7.45201781e-02 -2.77840227e-01 -2.49010436e-02 +1.65550947e-01 +1.79597899e-01 -1.65953949e-01 -6.78990409e-02 -5.25741160e-01 -8.47673044e-02 -3.82685602e-01 -9.64302495e-02 -4.39465158e-02 +3.87308933e-02 +8.89430847e-03 +1.00416817e-01 -1.90262999e-02 -2.59338975e-01 +2.36191094e-01 -1.97635159e-01 -3.09339404e-01 -6.94913566e-02 +7.07539797e-01 +9.24786255e-02 -1.57217160e-01 -2.28105888e-01 -2.41948277e-01 -9.47285816e-02 -6.20732317e-03 +4.19661701e-01 +4.51046750e-02 -5.63907027e-01 -5.69826923e-02 -4.30216670e-01 -2.81023741e-01 +1.02140009e-01 -4.31659639e-01 +1.91106737e-01 -3.87984484e-01 -2.43919551e-01 -1.94464281e-01 +3.99391763e-02 -5.95143676e-01 -5.12873352e-01 -1.90395236e-01 -3.25834364e-01 +5.47945127e-02 +1.28580105e+00 +6.46111742e-02 +1.30933031e-01 +2.02417985e-01 +4.83259372e-02 -6.48938417e-02 -1.25791058e-01 +3.89118232e-02 -6.20960183e-02 +2.57974714e-01 -3.39250237e-01 -1.13312259e-01 -2.14061320e-01 -4.95946795e-01 +7.81597123e-02 +1.07283764e-01 -1.50782494e-02 +4.31685075e-02 -3.84837627e-01 +2.33026624e-01 -1.35077819e-01 -1.57256514e-01 -4.14312072e-02 +1.56199737e-02 +4.18052286e-01 +3.41794291e-03 +3.63342986e-02 -4.39577699e-01 +1.22748494e+00 +4.61161211e-02 +3.07644695e-01 -2.05419511e-01 -2.34433785e-01 -1.76048622e-01 -1.06158249e-01 -8.91140625e-02 +3.47225741e-02 -5.88386729e-02 -1.03264369e-01 -4.74572808e-01 -3.62776220e-02 -2.39684179e-01 +1.05218373e-01 +1.66844428e-02 +4.12688702e-02 -9.40854475e-02 -1.27788067e-01 +5.11079207e-02 +1.16233595e-01 +1.61222801e-01 -1.18712559e-01 -1.43180162e-01 +2.48672385e-02 -1.43886566e-01 +9.09714103e-02 +7.61912018e-02 -4.24758106e-01 +3.12781632e-01 -7.09650069e-02 -1.97795093e-01 +8.65562931e-02 -1.79968342e-01 -3.49247694e-01 -4.46823006e-03 -9.00037494e-03 -5.23110069e-02 -2.80054398e-02 -1.69416256e-02 -1.06551893e-01 -6.08766451e-02 +5.36549985e-02 -2.19178036e-01 +1.21567078e-01 -4.80442017e-01 +9.93197039e-02 -1.25851735e-01 -1.26055166e-01 +1.15268812e-01 +1.72700047e-01 -1.64444953e-01 -1.04576677e-01 -2.47347534e-01 -7.75719881e-02 +3.45685244e-01 +3.81441057e-01 +1.40121788e-01 +2.42868476e-02 +1.16702452e-01 -8.28385651e-02 -1.16538614e-01 -2.26606518e-01 +3.00014019e-02 -4.23824899e-02 +1.48716137e-01 -1.62220523e-01 -1.52928665e-01 +4.56399098e-03 -6.76949173e-02 -2.49508783e-01 -1.30848382e-02 -1.53469950e-01 +1.09404013e-01 -5.56238294e-01 +1.28905565e-01 -1.92170367e-02 -4.09973674e-02 -1.68527616e-03 +5.52573875e-02 -1.05668433e-01 +4.55599949e-02 -6.16287768e-01 +1.21708713e-01 -1.45662770e-01 -8.67643058e-02 -1.68309361e-01 -1.36297357e+00 +6.93866909e-02 +1.84562337e-02 -1.17425874e-01 +1.18659772e-01 +3.12170200e-02 +3.60433981e-02 +5.29725179e-02 +2.53376830e-02 -1.28730953e-01 +5.76756150e-03 -2.71114428e-02 -7.77916517e-03 +1.34220123e-01 -1.33990318e-01 -3.94030400e-02 -1.77833334e-01 -1.69925243e-01 -3.77002716e-01 +5.77245541e-02 -1.22992694e-01 +1.25035986e-01 -9.96102989e-02 -2.03646407e-01 +2.13556319e-01 -3.26610297e-01 +5.34169525e-02 -3.45798163e-03 -5.40399432e-01 +4.31681484e-01 +9.81903225e-02 +1.75690845e-01 +8.00437480e-02 +1.40549354e-02 -2.00717151e-01 -7.88680762e-02 -1.00066818e-01 -2.34377787e-01 -1.59795061e-01 -7.16173500e-02 -6.06596209e-02 -1.43240511e-01 -8.91159996e-02 -2.24334881e-01 -1.54357217e-02 +1.66758925e-01 -1.98622316e-01 +9.85462293e-02 -1.44158872e-02 -1.08822301e-01 -1.43938944e-01 -1.48307681e-01 -1.37323856e-01 +1.31878583e-02 -5.34636416e-02 +6.21794164e-02 -1.33699432e-01 +1.18850674e-02 -4.39260304e-01 -3.21945846e-01 -1.06892906e-01 -3.21222723e-01 +6.00853376e-03 -1.94664732e-01 -2.90059775e-01 -1.21949725e-01 -9.29405168e-02 +1.31685570e-01 +8.41217116e-02 +3.94862175e-01 -1.15514547e-02 -1.82424903e-01 +1.04046516e-01 -4.22181971e-02 +3.93604562e-02 -4.41627242e-02 +4.71266843e-02 +9.58939120e-02 -1.61523134e-01 +4.89391834e-02 +2.60212626e-02 -1.48790166e-01 -1.54390442e-03 +4.86103594e-02 +4.89094466e-01 +1.50507942e-01 +9.30985361e-02 -3.54135819e-02 +5.66773936e-02 +3.59742977e-02 +6.36624768e-02 -1.39866648e-02 +9.90024582e-02 +1.66883871e-01 -2.55995970e-02 +8.45202729e-02 +1.16208546e-01 +1.33169126e-02 -1.40321493e-01 -9.62204188e-02 -3.37207675e-01 +7.37119913e-02 +5.40519245e-02 +3.82937118e-02 +9.55165565e-01 -9.22813788e-02 +9.14245918e-02 -1.08109690e-01 +2.93765217e-03 +1.22444510e-01 -7.85108097e-03 +3.34243104e-02 +6.18810989e-02 +5.28514571e-02 -4.35621850e-02 +2.27380544e-01 +7.46584218e-03 +2.27814198e-01 -2.72113830e-01 -6.67615533e-02 -1.29771873e-01 -6.28568232e-02 +1.42991707e-01 -1.32083327e-01 -2.67117620e-01 +7.76369050e-02 -1.53087854e-01 +9.00825835e-05 -2.92337507e-01 -1.20364451e+00 -4.04204838e-02 +5.02242334e-02 +6.45591617e-02 -1.36191159e-01 +1.87020048e-01 +4.87317471e-03 -1.92264877e-02 +3.33143473e-02 -1.20214432e-01 -1.39956877e-01 -2.29446605e-01 +1.29336968e-01 +1.79621309e-01 -3.55245061e-02 -2.98979998e-01 -3.33093345e-01 -2.49888256e-01 -6.58263266e-02 -2.35743240e-01 +2.70125598e-01 -1.21286362e-01 +9.05970186e-02 -8.18403140e-02 +9.43718757e-03 -2.69929655e-02 +5.94360195e-02 -1.52902558e-01 +5.89369357e-01 -1.73856139e-01 -2.04268679e-01 -1.52468786e-01 -5.88082790e-01 -4.49158587e-02 -4.93683368e-02 -1.78557619e-01 -6.10567987e-01 -5.62777035e-02 -7.92086348e-02 -5.43632627e-01 -1.95089906e-01 -1.23661637e-01 -6.61451936e-01 -8.69040787e-02 -6.42543733e-02 -3.74736823e-02 -2.42339998e-01 -1.68128628e-02 +1.38836026e-01 +1.04997784e-01 -4.66021180e-01 -2.89391875e-01 -3.05492356e-02 -4.27497298e-01 -3.06667238e-01 +8.35731030e-02 -2.83212990e-01 -1.90898865e-01 -8.72030556e-01 -4.28116508e-03 -6.79195523e-01 +3.62080559e-02 -2.36976281e-01 -2.69998431e-01 -1.71249464e-01 +4.19475697e-02 -2.05625713e-01 -1.40711367e-01 -3.71595383e-01 -6.30777836e-01 +3.41183133e-02 -4.99431416e-02 +1.20296879e-02 -1.87549186e+00 +5.43974864e-04 +2.07169622e-01 -1.64778173e-01 -1.83959156e-01 -8.46898183e-02 -3.87960792e-01 -2.07055235e+00 -2.83054560e-01 -3.17503750e-01 -1.99156344e+00 +1.14360303e-01 -1.59614312e-03 +6.99017569e-02 -6.51818439e-02 -2.70115137e-01 -3.50641310e-01 +1.86866075e-02 -5.30514084e-02 -1.46666184e-01 -2.78561682e-01 -1.31573117e+00 -8.17975104e-02 -1.85963526e-01 -5.20194471e-01 -2.36167818e-01 -2.82436728e-01 -1.67545509e+00 +5.44698536e-01 +1.07258141e+00 -6.72819912e-01 -1.13932349e-01 +2.64879227e-01 +9.39316377e-02 -6.25745580e-02 -2.50781685e-01 -2.99770325e-01 +5.64109907e-02 -1.77114513e-02 -9.49452892e-02 -3.31361443e-02 -2.16868028e-01 -1.90717682e-01 -2.78603315e-01 -5.03734574e-02 -2.38044828e-01 -6.93808734e-01 -1.19902626e-01 +1.13044053e-01 -3.98011595e-01 +3.15558203e-02 -1.90996915e-01 +2.23048944e-02 -6.03137732e-01 -2.73737699e-01 -2.26290245e-03 -5.53237796e-01 -3.21144074e-01 -5.68158448e-01 -2.84502774e-01 -1.42249018e-01 -5.29357642e-02 +2.14323133e-01 -1.26440758e-02 -5.30112743e-01 -1.56655133e-01 -5.71788371e-01 -1.19289851e+00 +5.80066033e-02 -5.86591065e-01 -5.22548079e-01 +1.13041684e-01 -2.68863112e-01 -3.04794252e-01 -4.45369482e-01 -3.27786952e-01 -1.92747608e-01 -1.52780920e-01 -6.36117637e-01 -4.74205196e-01 +2.09281631e-02 -1.86678618e-01 +1.18942153e+00 -7.21624792e-01 -4.00753736e-01 -7.28277639e-02 -2.92458504e-01 -9.40912247e-01 -7.36867934e-02 -6.44930974e-02 +3.23577374e-02 +8.19124356e-02 -1.09961617e+00 -1.81711063e-01 -3.02426726e-01 -1.20137863e-01 -3.64403844e-01 +5.59322685e-02 -5.27462177e-02 -4.88031097e-02 -1.94974571e-01 -3.47981364e-01 -3.73061031e-01 +6.47803172e-02 -3.84477936e-02 +5.08272275e-02 -2.50050239e-02 -1.44369274e-01 -1.45711958e-01 -2.68623501e-01 -5.95229685e-01 -6.81965530e-01 -2.61526644e-01 -7.82334924e-01 -1.71648219e-01 +3.59287977e-01 -3.14177901e-01 -1.08603220e-02 -9.48082060e-02 -1.00006127e+00 -2.92365998e-01 +1.02430861e-02 -6.97382331e-01 -2.16378272e-01 +1.16272466e-02 -6.77591423e-03 -6.51753247e-02 -1.33260414e-01 -1.25388363e-02 -8.26878399e-02 +6.31688014e-02 +3.47087085e-01 -2.18269691e-01 +4.86914180e-02 -4.50594798e-02 -1.54215455e-01 -6.38590083e-02 +1.13133229e-02 -1.71927661e-01 -5.44170380e-01 -5.89846194e-01 -3.72998118e-01 -1.08870706e-02 +1.02729592e-02 -3.86360228e-01 -1.11392453e-01 -1.47549081e+00 -3.90801221e-01 -4.92846593e-04 +6.92214677e-03 -2.36896440e-01 +1.21865995e-01 +2.52371490e-01 -3.59799802e-01 -7.05737174e-02 -2.56146550e-01 -4.36648540e-02 -1.87841207e-02 -6.77607596e-01 +8.02881122e-01 -6.76966488e-01 -9.32996869e-01 +1.09465316e-01 -8.45827162e-01 +3.15984152e-02 -4.46544588e-01 +2.67078374e-02 +5.62543094e-01 +7.53693283e-02 -4.81378436e-01 +4.85253818e-02 +1.09590434e-01 -5.11367917e-02 +2.75001265e-02 -5.75133026e-01 +8.61729532e-02 -1.76035073e-02 +3.94500673e-01 -3.68652046e-02 -1.84310135e-02 -1.28971890e-01 +1.95364822e-02 -2.70487696e-01 -2.52948284e-01 -4.54457968e-01 -6.95128798e-01 +9.93145108e-02 -2.81982332e-01 -1.27110809e-01 -1.47082368e-02 -3.36199790e-01 -6.93799853e-01 -4.08513218e-01 -5.37189245e-01 -2.20138649e-03 -1.85846388e-02 -4.98963714e-01 -1.69388160e-01 -4.80771571e-01 +1.98070154e-01 +1.77853823e-01 -1.16577573e-01 +8.14280063e-02 -2.46151298e-01 +6.32082671e-02 -3.30123538e-03 -2.21665606e-01 +1.76013306e-01 -4.42709357e-01 -4.40604538e-01 +2.50450879e-01 +9.11754891e-02 +1.12892658e-01 -1.03072628e-01 +3.47015113e-02 -2.94038597e-02 -1.46300399e+00 +5.36951311e-02 -1.70749038e-01 -5.46999387e-02 -9.16492566e-02 -1.23533309e-01 +4.56136726e-02 -1.62714586e-01 -5.49432695e-01 +1.32668927e-01 -2.36311078e-01 +7.29090929e-01 -2.23227262e-01 -6.78108871e-01 -2.54492402e-01 +9.21753347e-02 +2.60541022e-01 +9.74761546e-02 +9.72600952e-02 +7.17981532e-02 +6.45500561e-03 -2.71717489e-01 -6.34232819e-01 +1.12111568e-01 -1.18335262e-01 +1.45112336e-01 -1.52068615e-01 -7.10060775e-01 +4.06112038e-02 -1.17912188e-01 +2.70996355e-02 -1.53746948e-01 +8.00100937e-02 -3.53806131e-02 -1.92100763e-01 +7.30177239e-02 -1.27940416e-01 -1.48927316e-01 -9.16791782e-02 -5.81167974e-02 -6.13243997e-01 -3.77209812e-01 -4.46914434e-02 -2.89972574e-01 -1.29728034e-01 -5.37101738e-02 +3.92679200e-02 -1.54352766e-02 -2.82950014e-01 +1.02359943e-01 +3.01552806e-02 -2.81843066e-01 -1.42403096e-01 +8.81368071e-02 -1.15331158e-01 -2.07236260e-01 +1.73065126e-01 +4.10120264e-02 -2.50960052e-01 -1.60780907e-01 +1.27148442e-02 -6.53643370e-01 -7.94680476e-01 -1.01641186e-01 +6.86695576e-02 +5.92586286e-02 +6.96387291e-02 +3.89995724e-01 +1.66918546e-01 -9.05004561e-01 +8.51617977e-02 +2.82047987e-01 +8.08825418e-02 -4.88173999e-02 -4.20893133e-02 -7.85786211e-02 -6.74681783e-01 +1.07668452e-01 +1.62416920e-01 -5.97781092e-02 +2.33755596e-02 -1.11854911e-01 -7.51257062e-01 +6.11729696e-02 -8.20871443e-02 +2.33550649e-02 -4.23572123e-01 -1.14053555e-01 +1.54276669e-01 -6.66974625e-03 +7.80929103e-02 -5.81606627e-01 -1.12379931e-01 -8.01066235e-02 -1.33882746e-01 -4.21235532e-01 +7.98895732e-02 +4.44632955e-02 -3.68436389e-02 +4.32917982e-01 -5.44333279e-01 -9.62113962e-02 -4.40723687e-01 -9.68767330e-02 -1.74743719e-02 -1.18112862e-01 -2.06036270e-02 -5.01638390e-02 +1.83121875e-01 -1.90196171e-01 -1.31310850e-01 -9.25144970e-01 -1.62331946e-02 +4.90602814e-02 +7.62100006e-03 -1.90370157e-01 -1.30753547e-01 -1.28702804e-01 +4.39071562e-03 -5.18073142e-01 -7.97676146e-02 -1.61475107e-01 -5.83735382e-05 +1.87172294e-01 +4.01950747e-01 -8.26171637e-01 -3.86692792e-01 -2.38422215e-01 -1.16648071e-01 -1.20554030e-01 +8.84496570e-02 +1.32855266e-01 -2.23694056e-01 -1.69683948e-01 -8.17466259e-01 -7.12123737e-02 -1.40105873e-01 -1.11551128e-01 +9.71222529e-04 -1.08150935e+00 -3.57373595e-01 -7.39710405e-02 -3.65090460e-01 +1.20027356e-01 +7.90998936e-02 -8.10085684e-02 -3.42020363e-01 -8.58095407e-01 -5.32273054e-02 +2.10281804e-01 -4.31418538e-01 -4.74268824e-01 -1.79293662e-01 -4.14123774e-01 -2.54214734e-01 -6.32784441e-02 -1.74434915e-01 +2.22728044e-01 -4.38803285e-01 -6.00938559e-01 -1.11392327e-01 +2.26523187e-02 +6.21690415e-03 -1.15671739e-01 -3.00032169e-01 -5.90354025e-01 -5.50340414e-01 +1.44226432e-01 -2.06099838e-01 -1.05054736e+00 -1.24139495e-01 -5.16714394e-01 -1.09122932e-01 -3.99263561e-01 -2.40630750e-02 -1.42215693e-03 -3.91138315e-01 -8.43269285e-03 -2.43856803e-01 +5.05578183e-02 +2.59085536e-01 -1.82723016e-01 -2.83708930e-01 +7.04378858e-02 +7.21244588e-02 -1.24952130e-01 -3.87289338e-02 -3.33441645e-01 -5.36662817e-01 -2.09583357e-01 +2.18622372e-01 +2.89177716e-01 -5.95606863e-01 +9.38525796e-03 +1.80769905e-01 -1.83744296e-01 -3.64059269e-01 -1.45223916e-01 +1.06475219e-01 -3.36325280e-02 -8.48219693e-01 -1.21766187e-01 +1.53167732e-02 -1.02061726e-01 -3.67434353e-01 -4.67896879e-01 +7.20162466e-02 +1.58140883e-02 +3.26962262e-01 -2.58156925e-01 -1.21273793e-01 +2.86927745e-02 +1.05977625e-01 +9.33962941e-01 -4.56119835e-01 -5.29188849e-02 +3.89189273e-02 -1.49033219e-02 -1.56270534e-01 +7.64177442e-02 -8.45001042e-01 -2.75949001e-01 -8.39159563e-02 -9.56072509e-02 -3.69295537e-01 -5.19663543e-02 +9.81202535e-03 +3.08046699e-01 -3.11440706e-01 -1.43052176e-01 -3.62506539e-01 -1.33575007e-01 -8.27918649e-02 -1.32644325e-01 -4.22525555e-02 +1.08162258e-02 -1.58589296e-02 -8.23699355e-01 -3.65075022e-01 +5.84090129e-04 -4.92168009e-01 -2.68877387e-01 -7.71437660e-02 -6.11632824e-01 +7.68751092e-03 -1.62642434e-01 -3.10855657e-01 -4.46182787e-02 -7.53846765e-01 -4.13948148e-02 -5.07290006e-01 +3.62649441e-01 -1.18107699e-01 -1.60046920e-01 -4.48367566e-01 -1.17154881e-01 -4.40801650e-01 -3.28689486e-01 -3.28976929e-01 -4.02090624e-02 +1.07551562e-02 -7.59313166e-01 +1.14685006e-01 -3.09508532e-01 -2.13388845e-01 -4.75568831e-01 +4.93653655e-01 -2.35022172e-01 -2.33128861e-01 -1.09508298e-01 -3.81688356e-01 -1.09234713e-01 -1.41622856e-01 -1.51241213e-01 -2.24366598e-02 -2.27274463e-01 +7.21642002e-02 -1.65247366e-01 -1.86983362e-01 -5.94247818e-01 -4.86732364e-01 +3.89925092e-02 -8.27486888e-02 -4.08480205e-02 -1.39068827e-01 -7.36539811e-02 -2.17738435e-01 -3.32364514e-02 -7.43068606e-02 -6.67394176e-02 -1.34744585e-01 +9.01865140e-02 -3.68521363e-01 -1.14939749e-01 -3.06426466e-01 +6.06820099e-02 -1.32926688e-01 +6.71809316e-02 -4.79657412e-01 -8.99934173e-02 -5.07777929e-02 -1.95835121e-02 -1.25884891e+00 -6.32370651e-01 -1.95827052e-01 -1.02475651e-01 -1.55860648e-01 -1.61580846e-01 -1.42707929e-01 -1.41101256e-01 +2.79239453e-02 -3.26946288e-01 +3.70909437e-03 -1.51863217e-01 -6.21128790e-02 +2.74085011e-02 +5.03139384e-02 -5.37250936e-02 +8.29471722e-02 +8.78891908e-03 -5.88387623e-02 +7.53901601e-02 +4.11715917e-02 +4.65662219e-02 -4.96146291e-01 +3.72545645e-02 -2.93656468e-01 -2.05142070e-02 +4.08571437e-02 -8.60069841e-02 +1.00578941e-01 -9.65876460e-01 -9.65272337e-02 +8.10554549e-02 -6.89240873e-01 -1.60610661e-01 -3.28279197e-01 -1.24538220e-01 -2.60030448e-01 +1.25875801e-01 +3.18678506e-02 -1.71650603e-01 -6.90764129e-01 +2.17285961e-01 -1.77265063e-01 +4.84757125e-01 -2.60650724e-01 -4.01504606e-01 +4.80304174e-02 +5.83801344e-02 -1.92244407e-02 +7.85761848e-02 +7.81132430e-02 +2.10139543e-01 -7.78666884e-02 -4.00836440e-03 -5.23339033e-01 +7.64623046e-01 +1.93149596e-02 -2.71301299e-01 -8.61153901e-02 -1.70087948e-01 +1.43936053e-02 -1.91078588e-01 -4.97581027e-02 -1.88399199e-02 -8.44307840e-01 -9.37462002e-02 -5.03080428e-01 -2.89458871e-01 -7.76186287e-02 +9.07220989e-02 -5.70561849e-02 -4.56974655e-02 +2.47585744e-01 -2.61567533e-01 -3.21832001e-01 -5.47329247e-01 -2.81228777e-03 -2.54537463e-01 -6.09279498e-02 -1.73322707e-01 -2.82559931e-01 -4.83155936e-01 +5.28507948e-01 -6.00432642e-02 -8.11974406e-01 -1.03103951e-01 -1.93407759e-01 -2.81682670e-01 -4.08808351e-01 +5.78960240e-01 -1.85945094e-01 -3.33489656e-01 +6.44629478e-01 +1.29875662e-02 -1.55949444e-01 +1.60655454e-02 -3.13939810e-01 +5.29690795e-02 -4.97091562e-01 +6.80511817e-02 -1.08870380e-01 -1.88319579e-01 -6.77216277e-02 -3.57642919e-02 -8.86435360e-02 -9.80656892e-02 -2.93169469e-02 -4.77078736e-01 -2.91347265e-01 +2.75386423e-01 -1.10134470e+00 -2.07231045e-01 +5.14612347e-02 -8.16273093e-02 -7.57395267e-01 -1.19241096e-01 -3.25157821e-01 -5.99030480e-02 -9.38385278e-02 -2.55002499e-01 -6.72532199e-03 +1.00552969e-01 -5.23080766e-01 -1.62968133e-03 -4.35697585e-02 -1.63707519e+00 -9.37208086e-02 -4.42717075e-01 -1.59833640e-01 -1.27517268e-01 +2.58931820e-03 +1.78102478e-01 -4.04022992e-01 +7.77226985e-02 +5.89009724e-04 -1.04413711e-01 +1.45971179e-01 -8.54190812e-02 -2.20256150e-02 -3.18056270e-02 -6.12257123e-01 -2.96524376e-01 -1.68170571e-01 -4.51866329e-01 -1.00950517e-01 -8.01815614e-02 +2.09494784e-01 -2.40426362e-01 -1.21064022e-01 -1.86802715e-01 -1.00169860e-01 -2.78076828e-01 -4.15633708e-01 +1.77559964e-02 +1.73661057e-02 +2.14124490e-02 +4.36541252e-02 -1.45321116e-01 -3.04590285e-01 -2.62040257e-01 -7.52048135e-01 -1.68617263e-01 -2.43456051e-01 -3.47576708e-01 -1.12019849e+00 +5.72798252e-01 -2.28568271e-01 -3.64858001e-01 -1.85734499e-02 +1.90726340e-01 -6.42323717e-02 -2.20549554e-01 +5.26984185e-02 -1.55870631e-01 -1.68118384e-02 -2.75690466e-01 -1.17939338e-01 -2.93423116e-01 -2.10284963e-01 -4.23987746e-01 -1.61734521e-01 -1.11839520e-02 -2.52431661e-01 -2.57491797e-01 +1.35640383e-01 +1.51892662e-01 +6.29121885e-02 -2.29234785e-01 +5.58595322e-02 -1.06168199e+00 -2.08096609e-01 -1.72976300e-01 -3.66487503e-01 +5.93787253e-01 -1.04234852e-01 +5.81894517e-01 -2.84697980e-01 -9.24064159e-01 -2.66772002e-01 +2.27135047e-03 -1.10378981e+00 -1.95448473e-01 -1.00982174e-01 -1.40674561e-01 -7.58958682e-02 -1.01763450e-01 -2.71259934e-01 +4.52371389e-02 -2.01514289e-01 -4.84835744e-01 -1.12202361e-01 -1.77761570e-01 -1.45532742e-01 -1.90316454e-01 -3.77287157e-02 -1.43184498e-01 +8.23947117e-02 -1.41648417e-02 +7.34710768e-02 -2.63785481e-01 -3.98057811e-02 +5.47108173e-01 -1.73935735e+00 -2.08683118e-01 +3.53723258e-01 +1.09023571e-01 +3.14185619e-01 -2.49123693e-01 +5.24606705e-01 -3.55719328e+00 +3.59276831e-02 +1.56703368e-02 -3.83723468e-01 -1.43177658e-01 -1.07052363e-01 +1.25437111e-01 -4.66847003e-01 +1.16733775e-01 -1.84628054e-01 +9.83274058e-02 -3.95830691e-01 +7.41954982e-01 +1.01832010e-01 +7.23150969e-01 -1.50164276e-01 -2.35646322e-01 +1.62835047e-02 +1.65381297e-01 +2.92370439e-01 -5.12833476e-01 +5.74779660e-02 +1.85715482e-01 -1.57543302e-01 +3.50953378e-02 -1.54504526e+00 +1.02394032e+00 +3.31848055e-01 -3.39341938e-01 -2.28527889e-01 -2.86022961e-01 -1.37356982e-01 -6.36629807e-03 +1.44664217e-02 -1.19935095e-01 -2.56556988e-01 -1.02201588e-01 -7.36530364e-01 -1.08821762e+00 +1.43337205e-01 -2.74708085e-02 -6.07351623e-02 -3.10246996e-03 +6.20346725e-01 +1.95907041e-01 -7.80559704e-02 -7.87706494e-01 +1.71234772e-01 -2.12264925e-01 +4.57842089e-02 -3.36028114e-02 +1.78749159e-01 -1.95949984e+00 +8.08595359e-01 -2.41580933e-01 -2.53719687e+00 +1.22969225e-01 -4.81159240e-01 -2.47525275e-01 -1.81879371e-01 +5.87814569e-01 -8.19663778e-02 +3.73995721e-01 +8.14808786e-01 +9.63549316e-02 -1.07866473e-01 +3.22377272e-02 -2.55224079e-01 -9.59627852e-02 -2.00316623e-01 -1.84013844e-02 +2.47450676e-02 +6.38212860e-02 -9.35035348e-02 -2.19205379e-01 +7.88739845e-02 -1.26845166e-01 +6.94408894e-01 -2.07220018e-01 -2.15559751e-01 +6.33292854e-01 -3.66596651e+00 -2.41585827e+00 +4.78940494e-02 +6.93221986e-02 -2.14644265e+00 -1.10484920e-01 -1.73679665e-02 +8.29070732e-02 -3.52252781e-01 -1.00100450e-01 -1.62906379e-01 -1.36422785e-02 -5.74774683e-01 -1.28052309e-01 -2.56028958e-02 -4.65721941e+00 +2.47953683e-02 -4.59360838e-01 +4.41662788e-01 -1.13869637e-01 -5.40368482e-02 +4.53102253e-02 -2.92333275e-01 -1.89782586e-02 +3.25652100e-02 -3.27429712e-01 +2.83574492e-01 +1.25983462e-01 +4.86574769e-01 -2.51800448e-01 -3.49452674e-01 -1.48159526e-02 +1.10454045e-01 -3.47541630e-01 -4.23457175e-02 -2.03593969e-01 +6.50684908e-03 -2.67471582e-01 +9.15137231e-02 +4.78516519e-01 +7.77479121e-03 -4.67560410e-01 +2.70209819e-01 +1.09824032e-01 -1.96288019e-01 +7.04620630e-02 +8.61009434e-02 -2.07607120e-01 -2.26922765e-01 +1.36532024e-01 -4.86211509e-01 -1.17595866e-03 -2.30978727e-02 -3.01259667e-01 -2.58716989e+00 +1.15677869e+00 -2.97735464e-02 -5.16977668e-01 -1.17821768e-01 +9.22906399e-01 -7.55673200e-02 -1.87863529e-01 -1.13273121e-01 +6.90734535e-02 -8.42188671e-02 -6.09850921e-02 -1.21905148e-01 -2.74261028e-01 +1.63707241e-01 -3.09113532e-01 -3.84823710e-01 -1.17006272e-01 -3.34696174e-01 -2.29364395e-01 +1.04963136e+00 +2.31849506e-01 +1.39377519e-01 -1.17959462e-01 -1.19111963e-01 +6.32784292e-02 -5.06784134e-02 -2.71419138e-01 -5.63714921e-01 +1.20629191e+00 -1.44425303e-01 +4.53827918e-01 -1.38202935e-01 -2.67104578e+00 -1.69089884e-01 +3.00451498e-02 -5.05251050e-01 -5.64840019e-01 +7.83606395e-02 +1.81422345e-02 -6.04643226e-01 -4.77053761e-01 -6.56355694e-02 -2.79035717e-01 -3.85871297e-03 -4.46780533e-01 -1.87563732e-01 -6.97667664e-03 -1.73006132e-01 -4.77911115e-01 +2.24172339e-01 -8.84255469e-02 +9.76149831e-03 +3.39971840e-01 -1.16275124e-01 -9.21478346e-02 -4.98565882e-01 +1.07913382e-01 -1.15158761e+00 -5.56959152e-01 +7.10833119e-03 -4.31766026e-02 -3.33752215e-01 -8.97602886e-02 +1.23814769e-01 -1.05585849e+00 -3.16912472e-01 -2.02352777e-02 -3.41110118e-02 +4.19436060e-02 -8.39556381e-02 -1.23003490e-01 -3.10607880e-01 -8.32814872e-01 -2.72617768e-02 -8.20512250e-02 -7.17690706e-01 +1.15750849e+00 +1.69977635e-01 +2.02983186e-01 -5.84753573e-01 -4.47572082e-01 +1.12365648e-01 +3.33579518e-02 +2.44708881e-01 -9.62312162e-01 -2.14618593e-01 -6.30791783e-01 -7.64144259e-03 -5.04474379e-02 -5.82262635e-01 +8.44853461e-01 -8.86774182e-01 -3.41632485e-01 -2.06763744e-01 -9.43428457e-01 +1.19245909e-01 -1.12161990e-02 -2.08225563e-01 -3.21716338e-01 -4.62699115e-01 -6.35862470e-01 +1.68501228e-01 -1.10497379e+00 -7.03803971e-02 -2.93932319e-01 -1.99667200e-01 +2.12229118e-01 +1.34727478e-01 +1.95319012e-01 -2.79945254e-01 -7.13379383e-01 -2.29723811e-01 -3.77669483e-01 -5.05106032e-01 +8.66612047e-03 -6.72576427e-01 -1.65145588e+00 +1.76098430e+00 -8.60386938e-02 -8.81373882e-01 -3.25478017e-02 -1.13407440e-01 +9.45504829e-02 -3.97440553e-01 +1.31465292e+00 -1.83348358e-01 -8.81869718e-02 +1.98058069e+00 -1.39950290e-01 -3.35980691e-02 -2.31321290e-01 +3.39103602e-02 -2.02315152e-01 -6.18379593e-01 -6.51932061e-02 -8.05482343e-02 -8.84060860e-02 -1.15404338e-01 -3.76381278e-01 +6.07951470e-02 -3.65743220e-01 -9.80886817e-01 -2.19549239e-01 +1.81592315e-01 +5.29960632e-01 -2.33321071e+00 -1.55342615e+00 -6.06242940e-02 -4.51417901e-02 -7.75088072e-01 -8.37602392e-02 -2.76465267e-01 -1.08616650e-01 -4.49310690e-01 -4.27941740e-01 -8.50930735e-02 +1.11341976e-01 -4.74888571e-02 +8.47835373e-03 -8.49069357e-02 -2.22952485e+00 -1.09765917e-01 -5.02954423e-01 -7.05876172e-01 -2.08403781e-01 +1.02236584e-01 +7.27852713e-03 +4.53870259e-02 -1.08704828e-01 +2.17671529e-03 -5.26734471e-01 -1.74983665e-01 -1.04589403e-01 -3.07738900e-01 -1.62885204e-01 -2.44354621e-01 -7.59449840e-01 -1.46801293e-01 -2.58832157e-01 +8.89648646e-02 -6.92023560e-02 -2.12223604e-01 -4.67898726e-01 -3.10858428e-01 -7.52125978e-01 -1.54881954e-01 -5.64062357e-01 -5.73649526e-01 -1.18011303e-01 -1.33286640e-01 -2.17857584e-01 -7.74688482e-01 -2.30180640e-02 -1.25539750e-01 -2.95800358e-01 -1.29501367e+00 -3.28877121e-01 -5.60264699e-02 +2.96434835e-02 -2.10311127e+00 +1.61611128e+00 -2.07493261e-01 -1.85414199e-02 -1.82601348e-01 +1.84821159e-01 -1.25413850e-01 +9.20537040e-02 +4.64291200e-02 -2.49294028e-01 -3.38092178e-01 -1.03932805e-01 -1.99083760e-01 -7.55924761e-01 -1.58198237e-01 -2.25436553e-01 -9.41512138e-02 -8.30076486e-02 -1.56279251e-01 -8.31965506e-02 +3.01847786e-01 -1.14496127e-02 +2.46603623e-01 -3.79051231e-02 -1.37040526e-01 -9.25382823e-02 +1.02741964e-01 +6.38693646e-02 -3.08021829e-02 +1.26982021e+00 +1.43692864e-03 -1.79293714e-02 -3.93543959e-01 -1.17225611e+00 -6.03862345e-01 +7.45927617e-02 +3.31247188e-02 -6.17524564e-01 -8.82016242e-01 +3.07407472e-02 +6.18452542e-02 -2.42638588e-02 -2.25603394e-02 +3.47726196e-02 -2.79994998e-02 +3.82495299e-02 +2.40996163e-02 +5.06471023e-02 -1.12401042e-02 -7.96462446e-02 +5.95474765e-02 +5.63487858e-02 +3.44867297e-02 +2.47628130e-02 +6.21947600e-03 +7.94986337e-02 -1.14723906e-01 +8.20400417e-02 -1.99757919e-01 -7.30983987e-02 +1.08002357e-01 -1.54540753e-02 +9.63023026e-03 +2.67264079e-02 -1.12895556e-01 -2.56591082e-01 +1.79967266e-02 -1.41431376e-01 -2.46475041e-01 -1.03999585e-01 -1.91835929e-02 -1.11741200e-01 -1.02008767e-01 -8.39005485e-02 -1.86618850e-01 +1.14927605e-01 +3.07753943e-02 +1.08579539e-01 +2.39412300e-02 +5.24861701e-02 -1.60329491e-01 -7.16282055e-02 -9.50876325e-02 -8.08114186e-02 +2.00048074e-01 +7.75979832e-03 -4.59192619e-02 +6.20300882e-02 -7.75988176e-02 -1.67867333e-01 +4.89324750e-03 +9.29047912e-02 -8.65568221e-02 -2.85852654e-03 -1.64161071e-01 -9.72890630e-02 -1.57805532e-01 +1.32972244e-02 +5.76796681e-02 +6.71152994e-02 +6.82418123e-02 +8.87993798e-02 +2.67308690e-02 -5.55887781e-02 -9.42815244e-02 -3.37429382e-02 -1.16569094e-01 +6.23105057e-02 +1.40298679e-01 +1.04236588e-01 +9.10726115e-02 -2.02499703e-02 -1.65255040e-01 -3.25360782e-02 +3.72868925e-02 -1.16610110e-01 +1.14457076e-02 -1.01458222e-01 -3.80298942e-02 -8.26122016e-02 -3.57538424e-02 +7.74621964e-02 +1.70110196e-01 -3.20377164e-02 +3.12905423e-02 +6.05987310e-02 +1.31396234e-01 -7.17826933e-02 +4.13060281e-03 -1.36217281e-01 +1.94214419e-01 -1.61810100e-01 -2.75714070e-01 +2.62555741e-02 +2.36831848e-02 -5.27668782e-02 -1.71157680e-02 -7.45713413e-02 +1.06125008e-02 +3.44560705e-02 +3.68067473e-02 -1.91396341e-01 +1.19781867e-01 -2.45310199e-02 +5.13209626e-02 +1.01963863e-01 -7.15618804e-02 -1.54788822e-01 +8.58886540e-02 +3.80964018e-02 -1.60502240e-01 -1.21918302e-02 -7.52461627e-02 -9.83737186e-02 +6.69692904e-02 -1.85151678e-02 +1.66272838e-02 +2.22578016e-03 -1.05100676e-01 +4.22001779e-02 +7.29153752e-02 -2.02905908e-01 +6.41682744e-02 -5.07078320e-02 +2.41630338e-02 -4.85784672e-02 -1.19166620e-01 +1.12949483e-01 +8.99173766e-02 +5.50246574e-02 -2.83079334e-02 -1.61725879e-02 +2.66170669e-02 +6.72930060e-03 -1.47932321e-01 +1.49545312e-01 -4.63248156e-02 +1.56075910e-01 +1.01499192e-01 -1.15528777e-01 +8.77654478e-02 -1.81894898e-01 +8.85261036e-03 -1.60435244e-01 +1.67669520e-01 +1.86904386e-01 -5.78254573e-02 +3.44476895e-03 -1.79733969e-02 -1.57473776e-02 -2.18055453e-02 -2.54708696e-02 +1.27057300e-03 +8.45430270e-02 -9.80383679e-02 -9.49763879e-03 -2.97216419e-02 +3.00271101e-02 -1.96698830e-01 +2.69847773e-02 -1.60335630e-01 +1.89804688e-01 +8.97136331e-02 +1.95600227e-01 -3.04905474e-02 -2.10841261e-02 +7.50385523e-02 -9.18737352e-02 +2.77392492e-02 -1.13806993e-01 +1.64444391e-02 +5.17798448e-03 +1.34498700e-02 -1.60876915e-01 -4.42602709e-02 -8.58834684e-02 -7.30948150e-02 -7.16071799e-02 +2.68308949e-02 +1.12514965e-01 +3.39626558e-02 -7.77268708e-02 +8.79720375e-02 -7.73421973e-02 +1.27630949e-01 +1.14308156e-01 -1.60999194e-01 -1.27852574e-01 -1.69191241e-01 +3.24812569e-02 +1.05570303e-02 +2.64240354e-01 +1.50584271e-02 -6.97325841e-02 -2.75363550e-02 -1.03522711e-01 -4.82287332e-02 -1.35738207e-02 -1.66741963e-02 -8.44524354e-02 -2.07060710e-01 -2.06136763e-01 +1.26185745e-01 -1.50172412e-01 +8.08836967e-02 +2.66342033e-02 -3.01279157e-01 -1.17619924e-01 +3.33474763e-02 +1.94730133e-01 +4.15837727e-02 -1.22958019e-01 -1.65694971e-02 -6.47446886e-02 -7.55362660e-02 -3.84607818e-03 -5.17459869e-01 -5.09674430e-01 -4.29310709e-01 +4.34441417e-02 -2.14164764e-01 -8.23197514e-02 -6.18807554e-01 -2.37491559e-02 +1.19457185e-01 -1.94925159e-01 -1.78517133e-01 -1.71639044e-02 +1.73133284e-01 +7.09828362e-02 -1.37429103e-01 -1.58185020e-01 +2.31532194e-02 -6.48753047e-01 -2.46977866e-01 +8.09206143e-02 -1.17370665e-01 -1.53207719e-01 +9.52967331e-02 -7.05405354e-01 +1.12202905e-01 +2.50505954e-01 -2.10979264e-02 +1.13655820e-01 +1.15326852e-01 -1.16592847e-01 -4.57241267e-01 -1.22645244e-01 -7.55254105e-02 -1.62647292e-01 -1.08683109e-02 -3.08512419e-01 +3.32271516e-01 -1.76946595e-01 -4.87062782e-02 -1.62985206e-01 -4.92394306e-02 -1.65071025e-01 -1.09126113e-01 +4.85905670e-02 -1.72248334e-01 +2.10701540e-01 -1.42562073e-02 +2.11022079e-01 -4.99852672e-02 -4.76184636e-02 -1.05056740e-01 +5.58283851e-02 +2.85470933e-01 +3.20488721e-01 +1.23606697e-01 +5.17971337e-01 -1.93933293e-01 -5.37639707e-02 +7.82398880e-02 +6.31840550e-04 -9.10853967e-02 -2.11569816e-01 -1.69990003e-01 -1.13394558e-01 -1.91935301e-01 +3.42111848e-02 +1.09572351e-01 -1.43968374e-01 +7.39107952e-02 +8.17789212e-02 +2.60484546e-01 +3.39445531e-01 +2.13372663e-01 +1.01192966e-01 -6.88756779e-02 -1.32260650e-01 -6.39863610e-02 -1.49649635e-01 -6.44354105e-01 +1.15227900e-01 -5.72813675e-02 -1.09987132e-01 -1.89613089e-01 -9.31565687e-02 +6.29212707e-02 -1.22912079e-01 -3.26854825e-01 -2.12489124e-02 -2.87247479e-01 +2.55589783e-01 -9.02183115e-01 -3.35194051e-01 -1.79411232e-01 -1.09828219e-01 -5.75297058e-01 -9.72300321e-02 -6.02045245e-02 +3.29906270e-02 -2.30795100e-01 -9.51481387e-02 +1.35299668e-01 +1.33745402e-01 -2.57209003e-01 +5.42829707e-02 -9.39651206e-02 -2.95527857e-02 -6.71195611e-02 -1.89449325e-01 -1.58338770e-01 -2.36472845e-01 -1.06793232e-01 -1.26475438e-01 +8.87275636e-02 -1.92181706e-01 -1.42022446e-01 -4.32260990e-01 -1.16642542e-01 -2.94463523e-03 +6.72632605e-02 -6.48379847e-02 -1.67642795e-02 -5.38177371e-01 +2.74654657e-01 -2.55730867e-01 -2.32481614e-01 -2.57495850e-01 -4.22861636e-01 -2.12273628e-01 -6.24996364e-01 -2.19304398e-01 -9.82169583e-02 -3.28879803e-01 -1.72418669e-01 -1.34170711e-01 +8.69280845e-02 +1.10757602e-02 -7.05851838e-02 +1.30818575e-03 -2.95953423e-01 -9.97257382e-02 -2.35238653e-02 +9.01781544e-02 -4.21814285e-02 -1.38453215e-01 -2.42086768e-01 -2.51529932e-01 -1.50599539e-01 -2.16457039e-01 -1.33610159e-01 +2.94639230e-01 -1.47392005e-01 -1.76091399e-02 +9.67840478e-02 -1.09657288e-01 -1.76880173e-02 -8.68324637e-02 -8.74221474e-02 -4.32605892e-02 -9.56664979e-02 -3.03323328e-01 -9.32968184e-02 -8.98733661e-02 -2.23280005e-02 -1.72746524e-01 -2.58780211e-01 -7.80041981e-03 -1.43212155e-01 -2.24483386e-01 -1.62675977e-01 +1.03521809e-01 -3.19305398e-02 -2.01469481e-01 +4.61716950e-02 -2.44196169e-02 -8.40245038e-02 -2.64360737e-02 -2.14134097e-01 -6.63731754e-01 +7.80272707e-02 -3.25892866e-02 -6.80021122e-02 +3.51047665e-01 -2.36998871e-01 -5.78902848e-02 +3.55257720e-01 -1.70704588e-01 -3.03647220e-01 +1.57469198e-01 +2.73762271e-02 +1.13352224e-01 +2.30416909e-01 -2.04936579e-01 +1.98857993e-01 -2.41927475e-01 +4.29951072e-01 -1.90710679e-01 -1.19045220e-01 -1.50726214e-01 +1.63203061e-01 -1.65569425e-01 -1.60616115e-01 -5.36741734e-01 -1.93684876e-01 -2.38852818e-02 +1.05952233e-01 -5.46725988e-02 -1.03175245e-01 +6.91310444e-04 -3.93335402e-01 -5.65620661e-01 +1.02504812e-01 -1.30699560e-01 -1.64794207e-01 +2.92289294e-02 -2.57779658e-01 -8.49345401e-02 -1.98218614e-01 -3.32489192e-01 -3.96821588e-01 -2.30525807e-01 -8.03656802e-02 +1.15335189e-01 +1.54286936e-01 +4.33299899e-01 -3.79398502e-02 -1.34255797e-01 -6.91144541e-02 -5.58608137e-02 +1.50304973e-01 -7.90247396e-02 -6.84857368e-02 -6.91854134e-02 -4.22657914e-02 -1.87604979e-01 +7.89770186e-02 +3.96047235e-01 -8.14988434e-01 -3.17988217e-01 -1.39280424e-01 +6.60928607e-01 -7.97092468e-02 +2.79668234e-02 -8.32182318e-02 -3.72522086e-01 -2.18348101e-01 -1.10278159e-01 +4.58069831e-01 +5.91726542e-01 +1.43300921e-01 -2.65857369e-01 -7.69226179e-02 -1.65136307e-01 +5.11191607e-01 -3.96375269e-01 -6.68460801e-02 -2.11252064e-01 -2.73049891e-01 -1.63840428e-01 -1.89598724e-01 +4.97151352e-02 +1.79577723e-01 -5.13210371e-02 -1.09361425e-01 +1.88856333e-01 -4.98508304e-01 +8.34869668e-02 +7.82885402e-03 -1.33062661e-01 -1.24344267e-01 +2.11180728e-02 -3.71603183e-02 -1.76503554e-01 +9.35506761e-01 +3.97978686e-02 -1.19366676e-01 +1.96794331e-01 +3.27240676e-02 -3.14794071e-02 -2.25341350e-01 -4.20583785e-02 -1.53201595e-01 -1.27893239e-02 +7.64930621e-03 +4.81263012e-01 -1.51960462e-01 -2.48724863e-01 -1.77594647e-01 +1.42730027e-01 -9.71155018e-02 +1.71974778e+00 -2.66543686e-01 +1.05002671e-01 -1.50284454e-01 -1.64697230e-01 -4.86557066e-01 -9.33482423e-02 -1.17801309e-01 -1.84979051e-01 +7.86080733e-02 -2.03408465e-01 -1.40054956e-01 -6.85673803e-02 -2.22655013e-01 +6.36846945e-02 +9.04950798e-02 +1.32491365e-02 -4.85601991e-01 +1.53657362e-01 -3.71766314e-02 -1.99548587e-01 +6.94580302e-02 -2.68509597e-01 +2.61941142e-02 +4.07863408e-02 +6.09516911e-02 -2.24963412e-01 +1.29942819e-01 -6.39704242e-02 -1.93354655e-02 -3.42025429e-01 -1.83026433e-01 +6.40519112e-02 -2.35418156e-01 -2.04772443e-01 -6.76250458e-01 -1.04776129e-01 -6.30431235e-01 -2.79762834e-01 -7.51598895e-01 +6.00733578e-01 -7.83711746e-02 -1.02793999e-01 -3.53889093e-02 -1.23090230e-01 +8.10392760e-03 -1.51545731e-02 -1.49627641e-01 -1.96191803e-01 +1.92082431e-02 -1.73584402e-01 -7.66381696e-02 -4.26584572e-01 +9.48774721e-03 +1.53939128e-01 +1.64158031e-01 -3.54114354e-01 -1.72927752e-02 +4.89222080e-01 -4.67795908e-01 +1.11285198e+00 -3.04497108e-02 -1.78795144e-01 -7.64458999e-02 +6.56531285e-03 +2.82986373e-01 -1.09193072e-01 -9.41335261e-02 -1.42593771e-01 +5.88676520e-02 +3.35446969e-02 -1.47114441e-01 -1.35569811e-01 -2.99939394e-01 -1.81859374e-01 -1.42767936e-01 -1.76796481e-01 -2.19563730e-02 +1.37035772e-01 +4.41341801e-03 -7.09728301e-01 -1.51637057e-02 +4.03478276e-03 +4.02129106e-02 -3.01544070e-01 -1.87021092e-01 +7.07248628e-01 -1.71853215e-01 +6.75464272e-02 -1.97944522e-01 +1.43723078e-02 -3.96515220e-01 -1.29010767e-01 -5.59572279e-01 -9.78919417e-02 -7.00471878e-01 -1.08225249e-01 -2.59566605e-01 -1.22141670e-02 -1.80596933e-01 -1.09572254e-01 +6.67702481e-02 -2.51749679e-02 -1.77845478e-01 -1.83810115e-01 -3.18476468e-01 -1.54916858e-02 -7.54103586e-02 -2.58202761e-01 -1.93634741e-02 -2.60276377e-01 -3.42540406e-02 +2.51588970e-01 -5.91175377e-01 -1.98268741e-01 -9.18016285e-02 +8.20016190e-02 -1.44947886e-01 -3.46453726e-01 -3.17687750e-01 -3.54163200e-02 +2.76338533e-02 -3.29780765e-02 -2.51060367e-01 +6.18863441e-02 -2.56323934e-01 +9.09632817e-02 -1.26896828e-01 -7.46508658e-01 -6.22307435e-02 +4.14770097e-02 -1.46700546e-01 +1.54973790e-02 +1.53425580e-03 +1.31271437e-01 +1.45801231e-01 -9.55019519e-02 -1.61395803e-01 +7.40949670e-03 -1.84494421e-01 -5.94985545e-01 -2.78146237e-01 -2.41803259e-01 -1.42174989e-01 -1.54418394e-01 +7.24379867e-02 +9.55926403e-02 -3.08334567e-02 -1.12212924e-02 -1.35546818e-01 -9.01506960e-01 +4.61571384e-03 -3.45644616e-02 +4.65725772e-02 -1.50625736e-01 -8.06154758e-02 +3.78528535e-01 -1.83764607e-01 -4.29034442e-01 +9.83041078e-02 -4.18250084e-01 -1.25178412e-01 -1.68474376e-01 +4.78253841e-01 -4.07173574e-01 -2.79733270e-01 -6.72348619e-01 -1.56357586e-01 -5.40241301e-01 -1.46386787e-01 +7.77104199e-02 +4.07253653e-01 -3.37996371e-02 +5.44810593e-01 -6.40138388e-02 -2.26956725e-01 +8.08181614e-02 -2.25874215e-01 -1.44537002e-01 -2.06231385e-01 +7.13189170e-02 -8.61940831e-02 -3.67960900e-01 -6.44385815e-02 -9.02350992e-02 -1.48963094e-01 -9.56728160e-02 -3.03845584e-01 -2.00719580e-01 +8.56379978e-03 +7.23815858e-02 -9.55602601e-02 -1.71817273e-01 -1.17365876e-02 -1.24882668e-01 +1.37480438e-01 -2.36702949e-01 +2.85760343e-01 -9.88144521e-03 +2.85027921e-02 -8.13400671e-02 -2.74651289e-01 +1.71202570e-01 -8.87057632e-02 +8.22946243e-03 +2.74088889e-01 -7.38858897e-03 +8.58684536e-03 -8.45948085e-02 -7.34753683e-02 -2.20304012e-01 -8.95289183e-02 +9.48612019e-02 -7.74138719e-02 -8.61025676e-02 -1.41746596e-01 +5.82088888e-01 -2.33603656e-01 -2.78431267e-01 -1.90597504e-01 -6.29143640e-02 +6.70904890e-02 +2.42868606e-02 +7.30369911e-02 -4.55221869e-02 +7.00824186e-02 -1.80978253e-01 +9.55533013e-02 -1.32731482e-01 -1.63214520e-01 -2.31309999e-02 -3.18977863e-01 -2.43538007e-01 -5.09048760e-01 -3.05332541e-01 -2.68373609e-01 +8.12725723e-02 +2.23829135e-01 -2.83672869e-01 -1.27512246e-01 -8.75671506e-01 -1.14040099e-01 -1.53109446e-01 -4.04686183e-01 +5.74944913e-02 -1.89236283e-01 -9.01323482e-02 -6.24858849e-02 -1.40967965e-01 -1.22445129e-01 -3.10223132e-01 -3.17844898e-01 -1.24966100e-01 +1.26839252e-02 -1.71488762e-01 -2.61983927e-02 -6.48869574e-02 -6.34451061e-02 -2.62830943e-01 -1.44680724e-01 +1.80704426e-02 +4.46863435e-02 -1.98211566e-01 +1.01773925e-01 -1.26360059e-01 -5.21723926e-01 -6.89576790e-02 +3.91519144e-02 -1.45017549e-01 -1.43137008e-01 -2.33448133e-01 -4.67323601e-01 +1.39199942e-01 -1.38299972e-01 -1.81371465e-01 -4.39362898e-02 -5.52337989e-02 -1.11688472e-01 -6.42482042e-02 +2.50627715e-02 +9.51839089e-02 -2.19116241e-01 -8.86822492e-02 -4.92088675e-01 -1.96846910e-02 -1.54937610e-01 +9.95354727e-02 -1.54796079e-01 +7.97519982e-02 -3.29468489e-01 -5.72434738e-02 -4.43002522e-01 -8.67882073e-02 -1.56602874e-01 -5.44790439e-02 -5.51789552e-02 +2.44503804e-02 -3.72072369e-01 -5.79218008e-02 -2.17577115e-01 +5.90382159e-01 -1.36976972e-01 -1.73113778e-01 +4.43106860e-01 -8.42147544e-02 +1.83982849e-01 -1.33908048e-01 -1.16043985e-01 +1.72115579e-01 +9.81104895e-02 +5.22601642e-02 -1.59439713e-01 +6.22716308e-01 +2.60103464e-01 +1.52933061e-01 +8.48028362e-02 +5.34135737e-02 -1.39958963e-01 +2.12707505e-01 +2.13318631e-01 +4.20854270e-01 +7.86484331e-02 -7.08954930e-02 +3.99198644e-02 +1.26219720e-01 -2.01906469e-02 -6.48862869e-02 -1.48791879e-01 +1.35753483e-01 -8.24489966e-02 -2.34910697e-01 -3.34922552e-01 +3.98054793e-02 +6.49333522e-02 +1.15019128e-01 -1.11804992e-01 -1.44857362e-01 -4.92764674e-02 -1.55022770e-01 +3.63144100e-01 +4.67440635e-01 +4.39574093e-01 +1.37920961e-01 -4.69564646e-02 -4.21559773e-02 -6.62624657e-01 +6.36253595e-01 +1.10499244e-02 +4.08596769e-02 +1.04115814e-01 +7.01021135e-01 -1.83241352e-01 -1.01458870e-01 +1.40700027e-01 -6.52823895e-02 -3.06992233e-01 -3.56078178e-01 -4.90407854e-01 +2.22727075e-01 -2.04912201e-02 -1.31617770e-01 -4.55324531e-01 -3.46716374e-01 +4.85429943e-01 -3.49635221e-02 -1.18323758e-01 -2.84616381e-01 -6.23666458e-02 +5.81689961e-02 -1.77773908e-01 -1.41200483e-01 +4.50783335e-02 -1.79858506e-01 +3.87481600e-01 +8.27019662e-02 +3.01424205e-01 +4.33125012e-02 -6.08400442e-02 -1.10978827e-01 -5.61168464e-03 -2.10394431e-02 +1.42036602e-01 -2.44383618e-01 +2.33586311e-01 -1.41073629e-01 +8.39990824e-02 +1.74132943e-01 +7.52704293e-02 -2.04000756e-01 -6.41258001e-01 -5.29345050e-02 +2.85270158e-02 -4.18469682e-02 +2.10101753e-01 -1.80447120e-02 +7.47008324e-02 -3.57248992e-01 +5.68934865e-02 -8.12883750e-02 +1.14663489e-01 +8.91446114e-01 -9.19840112e-03 -2.83263087e-01 -2.50808179e-01 -1.38620347e-01 -2.42655948e-02 -1.23392537e-01 +6.52972609e-02 -6.77045956e-02 +1.53775677e-01 -9.67225805e-02 +7.75833130e-02 +5.01976013e-02 -2.51020759e-01 -1.16036057e-01 +9.52219665e-02 +7.74609506e-01 -1.32267550e-01 +2.15576842e-01 -1.53108276e-02 -2.02474013e-01 -1.84800446e-01 -1.77491352e-01 +8.65511373e-02 -1.09026544e-01 -2.68376060e-02 +1.52478084e-01 -1.34719700e-01 -1.53343990e-01 -2.95199782e-01 -8.77206177e-02 -1.45395949e-01 -3.14490497e-01 -1.96791902e-01 -3.11461296e-02 +3.15445550e-02 +2.93934885e-02 -5.77004366e-02 -8.63326043e-02 +6.78195655e-02 +5.45924783e-01 -9.22088511e-03 +1.83484480e-01 +1.34180635e-01 -7.43018612e-02 +1.84005544e-01 +3.63018550e-02 +1.29445970e-01 -1.08515933e-01 -2.34890194e-03 +2.52360143e-02 -4.63353703e-03 -2.16222465e-01 +1.69470087e-01 -1.42420411e-01 -7.28348196e-01 +8.43711570e-02 -8.50509703e-02 -5.97387459e-03 -3.87937054e-02 +3.94913733e-01 -1.51032403e-01 -9.92300361e-02 -3.26558836e-02 +2.29996890e-01 +6.85493425e-02 -2.91122086e-02 -3.01629990e-01 -2.15159297e-01 -1.36855751e-01 -4.36276972e-01 -2.67927229e-01 +9.53792259e-02 -9.12415087e-02 -3.25113595e-01 +3.46308887e-01 -2.01616839e-01 +1.20482579e-01 +7.50489235e-02 -3.71418893e-02 -2.46161595e-01 -7.27143511e-02 -2.25579947e-01 -1.35874927e-01 -6.05489537e-02 +9.12446752e-02 +1.03031898e+00 -1.29194558e-01 +1.12214543e-01 -1.50873050e-01 -4.61023226e-02 -1.90826446e-01 +1.40657583e-02 +2.58385450e-01 +1.04309447e-01 -6.34572387e-01 +1.46936610e-01 -3.94439101e-01 -1.51599005e-01 -2.42550194e-01 -2.90948272e-01 -3.57027084e-01 -1.91607736e-02 -1.68672264e-01 -8.95660371e-02 -8.19216892e-02 -6.91639930e-02 +3.68977524e-02 -1.07638881e-01 -1.42999187e-01 -1.55061215e-01 +8.48808140e-02 +7.69472644e-02 -5.37191510e-01 -8.56383890e-02 -3.10118914e-01 +7.09534585e-02 -9.62508500e-01 +2.10187003e-01 -3.03991318e-01 +3.85755412e-02 -9.22899991e-02 -1.04498900e-01 +6.33478090e-02 -1.69125810e-01 -1.59808084e-01 +8.54184404e-02 -2.48047799e-01 -8.26337397e-01 -3.52132916e-01 -2.17895642e-01 -5.36051810e-01 -3.21274608e-01 -2.83438116e-01 -8.79084885e-01 -2.57670969e-01 -1.90276474e-01 +4.14492562e-02 +6.33287057e-02 -8.66384357e-02 -3.91027838e-01 -3.43955785e-01 -4.14028883e-01 +1.19555220e-02 +9.49765816e-02 -1.60711586e-01 -4.90839660e-01 -2.17936486e-01 -3.98735911e-01 -2.74733603e-02 -5.77870309e-01 -1.18897036e-01 +6.32954910e-02 +5.84528521e-02 -8.71822331e-03 -4.37304854e-01 -5.43766394e-02 +2.51396984e-01 -1.23166293e-01 -1.54711783e-01 -5.30351818e-01 -1.65882051e-01 +3.63615565e-02 -2.40442976e-01 -4.93823797e-01 -5.19602060e-01 -4.73915696e-01 -1.71966538e-01 -2.10095584e-01 -4.15225141e-02 +1.05371252e-01 -7.91931868e-01 -2.15919446e-02 +3.38412821e-01 -1.11027643e-01 -1.64179489e-01 -6.20312132e-02 -3.43115807e-01 +3.91983148e-03 -5.22983000e-02 +6.26698971e-01 -1.85340032e-01 -4.28338200e-01 +3.06724072e-01 -5.96678220e-02 -1.62788048e-01 +1.74128100e-01 +3.04265991e-02 -3.97242652e-03 -3.75054747e-01 -1.82482954e-02 +5.58364950e-02 -9.50549170e-02 -9.00266692e-02 -3.26308012e-01 -5.39622366e-01 +8.37542489e-02 -6.85047626e-01 -5.13348728e-02 +1.18176624e-01 +2.32862473e-01 -3.01618308e-01 -4.68064696e-01 +3.26943696e-01 +2.78862063e-02 -1.27899259e-01 -1.08820595e-01 +3.38605978e-02 -1.26585245e-01 +2.75481082e-02 -1.25766486e-01 +1.03405237e-01 +4.11512107e-02 -1.76985934e-01 -1.95943434e-02 -1.90136343e-01 +4.67612833e-01 -1.89057916e-01 +9.84266624e-02 -2.06407249e-01 +4.13411185e-02 +3.25121954e-02 -1.41516134e-01 -1.06242843e-01 +7.39012808e-02 +3.37540694e-02 -3.52172613e-01 -1.17390715e-02 +2.18946915e-02 -2.75615633e-01 -5.05399480e-02 -1.81374341e-01 +3.29286963e-01 -3.92334372e-01 -4.49875146e-02 -5.83998263e-01 -8.35765973e-02 +8.19232836e-02 -2.52063185e-01 -5.04749060e-01 +1.63751155e-01 -1.70683973e-02 -3.90764534e-01 -3.49294066e-01 +1.21409409e-01 -4.52755950e-02 -4.25027281e-01 +3.17956328e-01 -1.58059657e-01 -3.90417427e-01 +1.20995671e-01 +1.06155900e-02 -2.27019101e-01 -1.55680284e-01 -3.69081013e-02 +2.00533926e-01 -1.14609003e-02 +1.56480268e-01 +1.07923271e-02 -1.86667055e-01 +1.99774727e-01 -1.51146486e-01 -2.87559152e-01 +3.31954919e-02 +1.01417966e-01 -6.48957491e-01 -4.78950180e-02 -1.50993885e-02 -3.26887935e-01 -2.02943385e-01 -5.47348373e-02 +1.16517946e-01 +3.84221785e-02 -7.97247514e-02 -2.05293536e-01 +8.28158498e-01 -1.51268288e-01 -1.11515336e-01 +6.33541271e-02 +1.09195955e-01 +5.04445672e-01 +3.69038284e-02 +1.45847395e-01 -8.27488527e-02 -8.39793384e-02 -1.06061868e-01 -8.09367150e-02 -2.45447442e-01 +3.32617164e-01 -6.90183863e-02 +1.36111468e-01 -5.79700828e-01 -2.14624047e-01 -4.73347634e-01 -6.27383962e-02 -7.93350816e-01 -3.69818270e-01 +8.48881379e-02 -9.11315084e-02 -2.63234079e-01 +1.71122521e-01 -1.37737468e-01 +4.31416277e-03 -2.37610057e-01 -3.76888126e-01 -3.13821793e-01 -4.44445014e-03 +7.98731670e-02 +1.12530835e-01 -3.12412274e-03 +3.77987772e-02 -1.88217893e-01 -2.75659258e-03 -7.42654383e-01 -1.78457335e-01 -2.19182685e-01 +6.41979203e-02 +1.80519782e-02 +1.39502257e-01 -3.23418915e-01 -5.14598191e-01 -3.01152859e-02 -7.23074526e-02 -3.10910225e-01 +3.42601165e-02 -7.52861574e-02 -3.14955086e-01 +1.69302395e-03 -5.02711125e-02 -2.10149363e-01 -1.97197825e-01 -1.37282070e-02 +3.12769413e-01 -4.52641547e-01 -1.16429478e-03 +2.99480557e-02 -8.84679556e-01 -5.05606011e-02 -2.74810940e-01 -1.09009661e-01 -5.17248631e-01 -3.70866023e-02 -2.79310733e-01 -1.89374909e-01 -2.30409000e-02 -2.57266879e-01 -1.32274255e-01 -9.64539647e-01 -6.71447277e-01 -1.39977187e-02 -4.16160598e-02 -1.55075207e-01 -1.07759416e-01 -4.80566025e-02 +4.32444625e-02 -2.11865515e-01 -1.20611399e-01 -2.87959516e-01 +9.65094566e-02 +4.39505689e-02 +4.42459434e-02 -6.83460310e-02 +1.86402090e-02 -1.86089963e-01 -6.39916718e-01 -9.51402709e-02 -3.85891557e-01 -2.13086605e-01 -1.03382781e-01 -1.94104478e-01 +7.48386756e-02 -6.08055234e-01 +5.16172163e-02 +1.83348104e-01 -1.16816433e-02 -5.31929314e-01 -2.33943686e-01 -2.45491043e-01 -1.59399366e-04 -3.24207813e-01 -4.28478122e-01 -3.65090162e-01 -2.09388614e-01 +5.34197867e-01 -7.48925954e-02 -4.69605513e-02 -3.54349986e-02 +1.17132463e-01 -1.53361559e-01 -4.76543680e-02 -8.71202052e-02 -1.22126907e-01 +4.12370963e-03 -1.59805611e-01 -2.03751236e-01 -3.28660280e-01 -1.90248042e-01 +4.20387648e-02 -1.53340111e-02 +1.34446502e-01 -1.18174493e+00 -8.59444976e-01 -1.54539660e-01 +9.05988738e-02 -2.34769750e-02 -6.48644924e-01 +1.03937879e-01 -3.68663758e-01 -1.49800619e-02 -2.20664288e-03 -4.27886516e-01 -9.94967856e-03 -1.18614985e-02 +4.62597646e-02 +1.04207762e-01 +1.46776870e-01 -1.59806788e-01 -1.77282587e-01 +1.75784752e-01 +1.84922963e-02 -4.58335802e-02 -2.03160912e-01 -7.58806542e-02 -1.66634813e-01 +2.45651659e-02 +2.70038377e-03 +2.43652776e-01 +2.86809504e-02 -6.99672475e-02 -3.32113743e-01 -4.15754378e-01 -8.31021070e-02 +6.33348674e-02 -3.59338254e-01 -1.82430327e-01 -1.78478099e-02 +4.04588282e-02 -2.53490597e-01 -3.77391070e-01 -2.40639180e-01 -6.98412240e-01 -1.98225137e-02 +5.44469133e-02 -1.65550172e-01 -2.40522195e-02 -3.42058688e-01 +5.37855178e-02 -4.34077173e-01 -1.45649210e-01 -2.59308904e-01 -9.11244676e-02 -2.35273391e-02 -6.63388371e-01 +1.84635539e-02 +2.77484860e-02 -2.38763884e-01 -4.58213508e-01 -8.41601342e-02 -2.32308671e-01 -2.80080050e-01 -2.06499144e-01 -1.09479204e-01 -6.46113753e-02 -2.93682385e-02 -2.42232401e-02 -1.04719651e+00 -3.12575787e-01 -2.58199990e-01 -2.61244625e-01 -1.66913360e-01 -1.02823675e-02 -3.50882739e-01 -1.56196907e-01 -1.87287018e-01 +2.55330768e-03 +6.30797267e-01 -4.66790572e-02 -1.23951785e-01 +6.00809567e-02 -1.60914600e-01 -7.03511000e-01 -1.85621604e-02 -2.63905346e-01 -5.42736769e-01 -1.63781308e-02 -1.20565370e-01 +5.75367093e-01 -2.79364027e-02 -1.25723064e-01 -3.83855611e-01 -3.88940535e-02 -2.83755034e-01 -1.80590242e-01 -1.10642724e-01 +7.10839499e-03 +1.28001068e-03 -1.34056225e-01 -4.14617211e-02 -1.66532815e-01 -1.95441246e-02 -3.46055664e-02 +1.46913007e-01 +1.97710060e-02 +1.46110445e-01 -6.27365485e-02 -1.07745685e-01 +1.03638306e-01 +9.78523791e-02 +9.31127593e-02 -1.21167436e-01 -4.85216267e-02 -4.02959669e-03 +3.24833356e-02 -1.24244459e-01 -1.23875178e-01 +1.08756192e-01 +2.37463359e-02 -1.75810289e-02 +9.52515677e-02 -4.62500416e-02 +7.04303384e-02 +9.73749980e-02 +1.22984171e-01 -1.24920428e-01 +6.03856668e-02 -8.62450376e-02 -1.72133952e-01 +1.70328960e-01 +1.08917668e-01 +6.71124235e-02 -1.51695967e-01 +8.00417513e-02 -3.70580591e-02 +3.81840542e-02 -4.44412194e-02 +8.02349821e-02 -7.59770125e-02 +8.35708231e-02 -1.98794425e-01 -8.24392438e-02 +1.05458625e-01 -9.51617956e-02 +1.20171390e-01 +2.35270485e-01 -9.92542785e-03 -4.63645831e-02 +1.01683937e-01 -9.47905332e-02 +1.00563541e-01 +7.82254189e-02 +9.78575721e-02 -2.04759717e-01 -2.18339086e-01 +8.08193311e-02 -1.07507095e-01 +4.56458656e-03 +3.58733237e-02 -1.44137606e-01 -7.04519451e-02 -1.41326219e-01 -7.67876161e-03 -5.88605516e-02 +6.76226020e-02 -3.16444747e-02 -1.57180414e-01 +2.44523175e-02 -8.01890492e-02 -3.34416591e-02 +2.52390280e-02 -1.25328049e-01 -1.21232308e-01 +9.98917818e-02 -2.24663883e-01 -1.25898659e-01 +1.03023827e-01 +1.18200876e-01 -1.38627276e-01 +1.40678948e-02 +9.71257314e-03 -3.11447475e-02 +6.65091202e-02 -1.38722658e-01 -7.28588598e-03 -6.80795813e-04 -9.12630036e-02 -1.27243072e-01 +2.27354504e-02 +1.29447103e-01 +3.18207080e-03 -4.58478667e-02 -7.46928081e-02 -5.93668083e-03 -4.98748664e-03 +1.11956589e-01 -1.09066494e-01 -1.39709115e-01 -7.85031021e-02 -1.61092915e-02 +1.18933590e-02 +6.56283693e-03 +6.91754073e-02 +6.41106069e-02 -1.74734101e-01 +6.23409487e-02 +9.87021998e-02 -9.26541239e-02 +1.39778793e-01 -1.31270349e-01 +8.12593326e-02 -3.70810144e-02 +9.76807699e-02 -1.19573683e-01 +1.38616279e-01 -1.43929198e-01 -1.56546339e-01 -2.64766924e-02 +1.38902128e-01 -1.35255545e-01 +9.35158581e-02 -7.14892074e-02 +6.51944503e-02 +1.45772817e-02 +2.34928466e-02 +1.06036514e-01 +1.45496726e-01 +1.25275433e-01 +1.49907582e-02 +1.38669908e-01 +1.04321077e-01 +1.67716473e-01 -1.27229348e-01 +2.07180735e-02 -2.92109642e-02 -1.53410077e-01 +2.99273152e-02 -1.07602865e-01 -5.17665595e-02 -1.61570475e-01 +2.20683999e-02 +9.92797092e-02 -1.09392151e-01 -5.31818606e-02 +9.35690757e-03 -1.56376660e-02 +1.07399285e-01 -3.00081465e-02 +1.55763432e-01 -3.95532325e-02 +2.53869090e-02 +7.32087195e-02 -2.99428433e-01 -5.61342910e-02 +1.47390768e-01 -1.20691761e-01 -8.84772539e-02 +2.33891029e-02 +3.96424206e-03 +1.10123292e-01 +9.97400209e-02 +6.56215250e-02 +6.70026764e-02 -7.84871429e-02 -3.04274224e-02 +3.45019922e-02 -2.72406414e-02 -1.36602014e-01 -2.20429096e-02 -3.11058275e-02 +1.96843728e-01 +8.84022750e-03 +8.08124393e-02 +4.70272712e-02 +1.44139498e-01 +2.69088801e-02 -1.04182675e-01 +6.44971877e-02 -1.57192945e-01 -1.30966231e-01 -1.93286568e-01 -2.13557258e-01 -7.50698075e-02 -8.56293812e-02 +2.02544127e-02 +5.69148622e-02 -1.24590576e-01 -1.05612099e-01 -8.14531446e-02 +4.91214581e-02 -1.00831263e-01 +2.82995570e-02 +2.28544860e-03 -8.94134492e-02 -1.07087076e-01 +5.41114397e-02 -1.61714256e-01 +1.09779745e-01 +3.36001739e-02 -3.59148473e-01 -1.32281169e-01 +5.83125614e-02 +1.95103716e-02 +9.26240459e-02 +1.50968939e-01 -1.43698752e-01 -9.27929133e-02 -4.19374406e-01 -2.95812130e-01 -1.04462013e-01 -6.04649633e-02 +1.45515814e-01 -1.11385725e-01 -3.25772278e-02 -8.64532173e-01 -1.42085999e-01 +6.49806410e-02 -5.23774326e-01 +1.60190865e-01 -7.16789544e-01 -3.02243322e-01 -3.00582349e-01 -2.65128344e-01 -4.67586592e-02 +1.03103835e-02 -9.11572814e-01 +1.10062324e-02 -6.31949902e-02 +2.35927850e-02 -6.57442436e-02 -5.69827855e-01 +1.52270734e-01 -2.23869503e-01 -6.09412156e-02 +5.02106726e-01 +9.65555161e-02 -5.63336790e-01 -3.18705924e-02 -2.28411734e-01 -4.44840714e-02 -7.09769428e-01 +9.96282578e-01 +4.32233572e-01 +6.76129237e-02 -3.52267325e-01 -7.30380565e-02 -1.92333415e-01 +9.21777338e-02 +1.26159990e+00 -1.81755930e-01 -3.06509674e-01 -1.19860627e-01 +4.35573995e-01 -1.98671848e-01 -1.05012329e-02 +5.23209631e-01 -7.82012846e-03 -2.21046686e-01 +3.72185558e-02 +8.18372965e-02 -3.36737335e-01 -1.25769794e-01 +3.95974338e-01 -1.18376337e-01 -1.08788207e-01 +7.24315882e-01 -2.14043349e-01 -5.73712111e-01 -1.92157045e-01 -1.95043847e-01 +3.12331825e-01 +5.53674018e-03 +5.17614838e-03 -4.88222748e-01 -2.40221530e-01 +1.23442161e+00 +7.27817193e-02 +3.49118351e-03 +2.84556657e-01 +4.22434032e-01 -1.82278186e-01 -3.37016910e-01 +1.14196205e+00 +4.11165774e-01 -6.07656002e-01 +1.06570196e+00 +2.54934989e-02 -3.11820924e-01 -6.48300871e-02 -2.16335773e-01 +9.23132524e-02 -8.02177846e-01 +1.09457210e-01 -6.21628724e-02 -7.34063014e-02 -5.09910472e-02 +7.51722276e-01 -7.20482409e-01 -7.83778206e-02 -6.93443894e-01 -1.37616396e-01 +1.36904627e-01 +1.08838618e+00 -1.61418349e-01 -1.57948241e-01 -1.27449363e-01 -1.29307143e-03 -1.17454320e-01 +1.19303234e-01 -7.49526396e-02 +1.73985183e-01 +1.09391019e-01 -1.45133719e-01 -2.59010166e-01 +1.03415124e-01 -9.37108975e-03 +1.83895200e-01 +1.15091786e-01 +7.35455332e-03 +1.44167081e-01 -1.04616597e-01 -5.96482217e-01 -1.20306000e-01 -1.43125117e-01 +4.57566753e-02 -3.16216677e-01 -1.40482828e-01 -1.01885365e-04 -2.84136720e-02 +5.28237894e-02 -2.17753217e-01 +3.08512986e-01 +4.06309545e-01 +3.08188964e-02 -6.46391034e-01 -2.26444647e-01 -2.80357059e-02 -1.68588266e-01 +9.87452455e-03 +2.51921058e-01 -5.29400334e-02 -7.09588170e-01 +1.11224914e+00 +9.54817832e-02 -1.19107515e-01 -4.35906917e-01 -1.46337792e-01 +4.28838223e-01 +1.19165920e-01 +1.13853157e-01 -2.55351424e-01 -9.22595337e-02 -8.87171030e-02 -2.16159038e-03 -3.86206597e-01 -8.50943387e-01 -3.47216338e-01 -9.99087766e-02 +1.33562684e+00 -5.96307404e-02 +6.71007633e-01 -1.10210538e+00 +7.94165432e-01 -1.29946381e-01 +3.82315926e-02 -6.56928197e-02 +5.89662530e-02 +5.72981715e-01 -2.10598335e-01 -3.83430511e-01 -1.08793676e-01 -8.84162605e-01 +2.13795658e-02 +1.90222636e-01 -3.94460186e-02 -2.19422236e-01 -1.08647935e-01 +1.52129030e+00 -4.90367651e-01 -5.06219491e-02 -1.04377657e-01 -1.57571316e-01 +7.32587874e-01 -2.36384392e-01 -6.16899654e-02 -1.26438901e-01 +1.74055052e+00 +1.95525344e-02 +1.35443461e+00 +4.57230024e-03 -1.91333666e-01 -1.13504060e-01 +1.30087331e-01 -1.16699100e+00 +1.76963896e-01 -1.06204820e+00 -2.96948012e-02 -5.73638193e-02 +1.08352020e-01 -2.78572962e-02 -1.05470955e-01 -1.14837319e-01 -2.73273252e-02 +2.25395486e-02 -1.95908815e-01 -9.88412066e-04 -2.45083839e-01 -1.53202116e-01 -1.15356386e-01 -3.72942537e-02 -7.43282735e-02 +4.65277918e-02 +1.04990080e-01 -2.98373699e-02 +1.00598738e-01 -3.14173818e-01 -6.07815623e-01 -3.90093505e-01 -1.52663765e-02 -3.55889082e-01 +2.49643549e-02 +7.28039891e-02 -5.28715909e-01 +1.68195423e-02 +6.03304766e-02 -2.25491479e-01 -1.32096440e-01 -3.13884348e-01 -1.84553489e-01 -4.01135534e-01 -7.91789412e-01 -2.23010853e-01 -4.08321200e-03 -9.66387838e-02 +2.33826824e-02 -4.07484531e-01 +5.39973557e-01 -4.35714573e-01 -5.82854509e-01 -1.69753239e-01 -8.64793658e-02 -7.86819588e-03 +2.55561501e-01 +2.36598253e-01 -4.61044431e-01 -9.25798491e-02 +1.74476430e-02 +4.52957824e-02 +3.78573805e-01 +1.38098404e-01 -9.48577598e-02 +1.14709683e-01 -8.60039830e-01 -2.77123153e-01 +4.74830344e-02 -9.65774879e-02 -1.32965088e-01 -4.80421901e-01 +2.12180801e-02 -5.74244499e-01 +3.80732208e-01 -6.54559061e-02 +1.38286008e-02 -3.04820180e-01 +3.36760329e-03 -5.76477885e-01 +2.38531247e-01 -6.25935912e-01 -4.93443996e-01 -7.11708724e-01 -5.38842261e-01 -7.37515837e-02 -3.85212600e-02 -6.09928489e-01 +1.42045543e-01 -3.51772308e-01 -2.58756548e-01 -4.28205729e-02 -4.54760157e-02 -5.09666242e-02 +2.10517291e-02 -2.27276981e-01 +1.05990559e-01 -7.00769901e-01 +6.41837195e-02 -4.92557853e-01 -4.77515869e-02 -1.77236587e-01 -1.96401253e-01 -3.35444659e-02 +8.98198113e-02 -5.08688129e-02 -3.83624136e-02 -4.36345674e-02 -1.24839671e-01 +1.77406162e-01 +4.33129184e-02 -1.51908696e-01 -8.97826925e-02 -3.22098225e-01 +1.20888352e-01 -5.17037213e-02 -9.02939856e-01 -4.68400508e-01 +2.76011471e-02 -3.31624299e-02 -1.41744211e-01 -5.21350622e-01 +1.42584309e-01 -2.10892990e-01 -1.51452884e-01 +7.51941353e-02 -4.89189848e-02 -1.06511734e-01 -2.00202614e-01 -1.26037061e-01 -3.07477593e-01 -1.11990780e-01 -1.56080246e-01 -4.43468355e-02 -2.15831003e-03 -2.38503829e-01 -2.18188092e-01 -9.07174572e-02 +2.53521148e-02 +5.79095408e-02 -5.79661317e-02 -1.33556291e-01 -2.04635575e-01 -2.72591472e-01 -1.38319090e-01 -8.00986961e-02 -3.64762217e-01 +9.48586240e-02 -3.05141330e-01 -7.12049365e-01 -2.20279232e-01 -1.38054162e-01 -1.13265207e-02 +3.43286619e-02 -3.28368485e-01 -5.46733677e-01 -3.60524148e-01 -4.66671772e-02 -1.05521701e-01 -3.20584297e-01 -1.29809991e-01 -1.21524511e-02 -2.04940885e-01 -2.22139254e-01 -1.75661936e-01 -8.82624984e-02 -2.57060945e-01 -3.09415966e-01 -1.35673776e-01 -8.07592180e-03 +6.75227419e-02 -1.62913695e-01 -1.37575924e-01 -5.36308214e-02 -9.73642431e-03 -2.03141585e-01 -2.84098119e-01 -1.73306674e-01 -4.90108617e-02 -1.44680172e-01 +8.16204250e-02 -1.59871340e-01 -4.89705727e-02 -1.75095856e-01 +1.54237533e-02 -1.15587153e-01 -3.00947815e-01 +2.45088395e-02 -8.26771855e-02 -1.03400148e-01 -6.73863962e-02 -1.83950946e-01 -6.42645955e-01 -8.61361772e-02 -5.73295727e-02 +5.63282855e-02 -6.81502581e-01 +8.93593505e-02 -8.78108293e-02 -9.41237882e-02 -6.02974772e-01 -1.70853317e-01 -3.29760343e-01 -1.06176078e-01 -5.72284982e-02 -1.87532365e-01 +1.41228493e-02 -1.71037555e-01 +1.84215754e-02 -7.13951528e-01 +6.83810711e-02 -7.27384090e-02 +1.55800479e-02 +7.61355311e-02 -5.40919676e-02 +3.16269174e-02 +1.19150467e-01 +6.32222369e-02 -6.73053935e-02 -1.54360577e-01 -6.71643466e-02 -1.51134327e-01 +2.62108762e-02 +1.18623264e-01 -2.03805640e-02 -1.09821618e-01 +7.07100555e-02 +3.13982926e-02 +1.03245169e-01 -1.38164595e-01 -1.54266059e-01 +7.34139383e-02 +3.99064943e-02 -6.48017451e-02 -1.32845163e-01 +3.92689854e-02 -6.51511699e-02 -1.96958799e-02 +2.62673777e-02 +1.18941195e-01 -1.47125870e-01 +7.22360015e-02 +8.72920007e-02 -1.40525892e-01 -5.03375381e-02 +1.42395660e-01 -1.32575363e-01 -1.40602335e-01 +1.18853696e-01 -1.54026181e-01 -1.06731929e-01 +1.03441514e-01 -1.06077537e-01 +1.55653417e-01 +2.25030445e-03 -1.33135274e-01 +9.92722288e-02 +4.07748632e-02 -1.38647661e-01 -6.61826506e-02 -3.70889604e-02 -9.27640870e-02 +5.72249740e-02 +1.31899357e-01 +1.10553637e-01 -1.87739991e-02 +3.42937792e-03 -1.37507636e-02 -9.82325822e-02 -6.46764562e-02 +3.51909944e-03 -1.00245029e-01 +8.93053785e-02 +8.18145722e-02 +1.35939285e-01 -4.51148637e-02 -4.21319976e-02 -1.42190397e-01 +1.28831193e-01 -5.36990203e-02 -1.37901917e-01 -3.91309075e-02 +9.82502252e-02 +7.73442090e-02 -1.19643606e-01 -6.51071444e-02 -1.16092339e-01 +3.47326230e-03 -3.96151245e-02 -1.56152084e-01 -6.92019165e-02 +7.78178945e-02 +2.54120957e-03 +9.76653695e-02 -1.09352037e-01 -1.61595881e-01 +5.83535247e-02 +3.12655829e-02 +7.95704722e-02 -3.32626216e-02 -8.34145099e-02 -1.06488496e-01 +5.97988139e-04 +1.08889885e-01 +6.32227734e-02 -3.89332362e-02 +3.24105881e-02 +1.02148831e-01 +6.55515045e-02 -8.79840106e-02 +1.13757148e-01 -1.42450919e-02 +1.16240621e-01 -1.00687221e-01 -1.52652839e-03 -8.63787606e-02 -1.08696811e-01 +5.31331487e-02 +1.34768501e-01 -2.17620041e-02 +1.27949998e-01 -8.49899128e-02 -6.24401309e-02 +1.07108615e-02 -2.95650470e-03 -1.72266856e-01 +9.00983661e-02 -5.55364341e-02 +2.34070271e-02 +1.56184463e-02 +2.88835112e-02 -5.47427498e-02 +5.37662394e-03 -6.69898093e-02 -1.32256880e-01 -3.09506226e-02 +6.04320765e-02 -5.78683726e-02 +1.21674486e-01 +8.56235251e-02 +1.15419984e-01 -1.42947197e-01 -4.93628159e-02 +6.73833117e-02 -4.14623730e-02 +9.85223874e-02 +4.36114185e-02 -2.93916855e-02 -4.51257080e-02 -2.28835270e-02 -7.48265013e-02 +7.60672763e-02 +4.91198711e-02 +4.13207039e-02 +7.61291012e-02 -6.69326112e-02 -8.90524313e-02 +4.48140223e-03 +3.35237831e-02 -3.07641253e-02 -2.31103711e-02 +7.88660720e-02 -8.08406547e-02 -6.04802519e-02 +8.01952854e-02 -1.15396544e-01 +1.28489599e-01 +4.50057024e-03 +4.44914289e-02 -6.35179505e-02 +9.41040888e-02 +1.30477130e-01 +3.13526951e-02 +9.34559554e-02 +7.10305758e-03 -1.31206870e-01 -6.34572208e-02 -1.09188937e-01 +4.69364487e-02 +1.14774153e-01 -1.19074449e-01 -1.08647741e-01 +5.30093499e-02 +2.65538576e-03 +3.92314903e-02 -5.36666103e-02 +2.38608457e-02 +3.75725105e-02 +6.81401789e-02 -1.21691838e-01 +4.02274281e-02 -1.37721688e-01 -4.97642457e-02 -1.37974069e-01 -7.44829103e-02 +1.49483606e-01 +5.50069325e-02 -8.07030965e-03 +1.43602520e-01 +1.09484918e-01 -4.77909148e-02 +1.36391401e-01 +1.33695409e-01 +1.17317118e-01 -1.07714951e-01 -1.44602703e-02 +3.75420600e-02 -1.79481395e-02 +2.48258468e-02 +1.47913797e-02 +1.31206349e-01 +2.84760684e-01 -2.89263129e-01 -1.41584992e-01 +4.64954413e-02 -1.55283883e-01 -1.06567115e-01 -1.58488408e-01 +5.56030422e-02 -1.45119429e-01 -1.34679843e-02 -4.46764519e-03 -2.43072249e-02 -4.21148688e-02 -1.36833206e-01 -3.74365710e-02 +6.37387186e-02 -5.80084622e-01 -3.30493778e-01 -2.74283797e-01 +6.10882677e-02 -3.52985799e-01 -1.91610798e-01 +2.98096657e-01 -2.76080996e-01 +1.37799323e-01 -1.09417895e-02 +8.66845399e-02 +1.23024173e-01 -1.15020201e-01 -1.11410990e-01 -8.19205716e-02 +8.29530656e-02 -1.48518488e-01 -1.28371567e-01 -2.94100851e-01 +6.18522353e-02 -2.80575067e-01 -3.88183475e-01 +5.37584536e-02 -7.82601058e-01 -5.12735322e-02 -9.67944041e-02 +4.17830795e-02 +8.45107064e-02 -2.18143120e-01 +2.00319469e-01 -1.93185247e-02 -7.47863725e-02 +1.10035352e-01 -1.27431929e-01 +2.85900652e-01 -4.35378492e-01 -3.17467541e-01 -9.87727661e-03 +1.26275823e-01 -3.29135209e-01 -1.51219770e-01 -6.58307225e-02 -2.56837606e-02 -5.26634455e-01 -4.11778867e-01 -1.16391070e-01 +1.37196064e-01 -4.72783923e-01 -1.67843103e-01 -7.54646398e-03 -1.20450109e-01 -1.30876988e-01 -2.96523818e-03 -5.79285286e-02 +7.11354911e-02 -4.30053592e-01 -4.86032277e-01 +1.83867794e-02 -3.03810060e-01 +7.77382404e-02 +2.67325401e-01 +2.70700067e-01 -1.02165771e+00 -4.86355051e-02 -4.04353857e-01 -1.42598271e-01 -3.50019366e-01 +6.73266649e-02 +1.25379741e-01 +2.72235632e-01 -4.31807280e-01 -4.77032393e-01 +2.26092428e-01 +3.87334451e-02 -8.60451534e-02 -1.50604606e-01 -3.26477773e-02 -7.13758096e-02 +4.87916768e-02 +7.35026672e-02 -7.43303597e-02 +6.76408932e-02 +1.15455806e-01 -8.68202969e-02 -6.26413450e-02 +6.34626076e-02 -1.23728411e-02 -1.39178589e-01 +8.56367126e-03 -1.12312198e-01 -1.37170732e+00 -9.76448357e-02 -3.57826287e-03 +9.44380164e-02 -2.36597240e-01 -1.09073125e-01 -2.97876924e-01 -2.54260097e-02 -7.97855631e-02 -9.85632986e-02 -7.75665268e-02 -1.48809209e-01 -1.03609614e-01 -1.53160051e-01 -1.32247433e-01 -3.04740846e-01 -3.69856417e-01 -1.43930078e-01 -3.34305942e-01 +6.20800480e-02 -4.17199023e-02 -1.52525082e-01 -9.92832407e-02 -1.44567981e-01 -1.50889501e-01 -1.76374480e-01 -6.31865636e-02 +8.56955722e-02 -1.24579117e-01 -1.16691284e-01 +2.59968996e-01 +7.23723248e-02 -5.53685017e-02 -1.92511350e-01 -2.20117122e-01 -1.67243302e-01 -4.94656026e-01 -3.21534783e-01 -3.93359452e-01 -1.12757228e-01 -2.04048231e-01 -3.46296243e-02 -5.89285910e-01 +7.52863735e-02 +1.86920837e-02 -2.31972218e-01 -2.80809045e-01 +1.22880498e-02 -2.45614853e-02 +2.09553111e-02 -3.26206475e-01 -1.01112753e-01 +9.53463316e-02 -1.65763527e-01 -2.60668516e-01 -4.46680188e-01 -2.33186275e-01 -4.73571450e-01 +4.76698242e-02 -2.88981795e-01 -1.30674392e-01 -1.03751980e-01 -1.10347822e-01 +8.17979872e-02 -9.99197006e-01 -1.51144668e-01 -3.40235084e-02 -4.27309126e-01 -4.14991707e-01 +7.65578747e-02 +1.40978932e-01 -1.34400576e-01 +9.75756049e-02 +5.06676286e-02 +9.78117138e-02 -1.13346972e-01 -3.63456570e-02 +1.87371913e-02 -1.38283834e-01 -6.45611733e-02 +7.27287605e-02 -3.75872548e-03 +1.34209827e-01 -8.33261371e-01 +3.71028408e-02 -2.53959689e-02 -1.47923231e-01 -4.91595082e-02 -2.81204749e-02 +6.05615452e-02 -3.83977741e-01 -3.91391814e-01 -5.13211012e-01 +1.44247268e-03 -3.05973925e-02 -7.73253515e-02 -5.91637641e-02 -1.38566747e-01 -1.14167392e-01 +1.01937026e-01 -1.31459132e-01 +6.42440021e-02 +1.34933703e-02 +9.98870656e-02 -1.68492854e-01 -6.36269152e-02 +2.79768221e-02 +8.13911557e-02 -6.99895769e-02 -1.14896752e-01 -1.96577847e-01 +1.04604580e-01 -1.14063725e-01 -8.17244723e-02 +2.74477005e-02 -5.57049178e-02 +3.25078517e-02 -2.12544143e-01 -6.45039976e-02 -2.17370287e-01 +1.07691111e-02 -6.58386052e-02 -4.92386632e-02 -1.39071792e-01 -1.10910013e-01 -1.44342408e-01 +1.74526095e-01 +4.73643467e-02 -7.57219195e-02 -4.07821573e-02 -4.45470177e-02 -8.02614465e-02 +4.52864729e-02 -1.37066215e-01 +1.58032447e-01 +8.99115801e-02 -7.57328235e-03 +1.00128435e-01 +1.82720944e-01 -9.31525379e-02 -3.24815542e-01 +4.21144180e-02 -9.52481106e-03 -2.64531132e-02 -9.88139063e-02 +1.90132737e-01 -1.03464894e-01 -6.61181111e-04 +1.14456192e-01 -1.99373350e-01 +5.26156351e-02 -7.47106746e-02 +1.28955573e-01 +1.01713151e-01 -9.39403251e-02 -8.99855569e-02 +1.17405720e-01 -2.05439150e-01 -1.12531595e-02 -1.29646599e-01 +1.31096959e-01 -8.93239826e-02 -2.91910092e-03 -6.93150237e-02 +6.13661371e-02 -5.21593951e-02 -1.89979345e-01 +9.90611464e-02 -1.01425089e-01 +1.24630727e-01 +1.81219336e-02 -2.75192916e-01 +1.12361118e-01 -1.29485890e-01 -1.41319022e-01 -1.13220692e-01 +1.44026339e-01 -8.26044455e-02 +1.23185359e-01 +6.12275023e-03 +5.11416607e-02 +6.00406602e-02 +1.72004208e-01 +9.31424573e-02 +5.77505380e-02 +8.33889411e-04 -1.66402787e-01 -1.66277066e-01 +4.49967086e-02 +1.13289602e-01 -9.52187739e-03 -1.53132945e-01 -9.44370031e-02 +2.50928581e-01 +1.27021104e-01 -5.85364513e-02 -2.39271764e-02 -1.78879917e-01 -1.19948514e-01 +8.22964013e-02 -2.57581547e-02 -3.39760929e-01 +6.50714189e-02 -2.32966039e-02 -2.09725723e-01 -4.07692455e-02 -1.80846378e-01 -6.21922351e-02 -2.19355583e-01 -1.42137527e-01 +1.05793864e-01 -1.76174399e-02 +1.19478526e-02 -7.16924593e-02 -8.63943994e-03 -3.00353438e-01 +2.50653714e-01 +1.55104667e-01 +3.17821628e-03 -4.49227728e-02 -7.43583068e-02 +6.11947477e-02 -4.92158756e-02 -4.66437498e-03 +5.56956455e-02 -4.44311202e-02 +7.63345584e-02 +3.74376848e-02 -1.64708048e-01 +5.83384447e-02 -2.08729170e-02 +1.16069645e-01 +2.10938573e-01 -1.64158985e-01 -6.30999804e-02 -1.10581286e-01 -1.19379289e-01 -3.35402861e-02 -1.44021558e-02 +5.43930121e-02 -2.52247066e-03 -1.61839187e-01 +2.87088882e-02 -1.71260491e-01 +3.88089895e-01 +1.06497750e-01 -6.06464073e-02 +7.33987838e-02 -1.90703258e-01 -2.01927498e-02 +5.23113608e-02 +3.74764167e-02 +3.79818901e-02 +1.00871637e-01 -1.76318064e-01 -2.27730293e-02 -1.69040173e-01 -3.14216106e-03 -5.75984381e-02 -9.34186354e-02 -1.95947632e-01 -1.36607841e-01 -4.19495963e-02 +8.22535679e-02 +2.59959579e-01 +6.23048954e-02 -3.26959118e-02 -1.08049914e-01 +2.09361792e-01 +2.48629991e-02 +3.15704942e-02 +1.58530027e-02 -1.60958335e-01 +4.58790511e-02 -6.19153865e-02 -9.19634476e-02 -3.11274473e-02 +1.21532507e-01 +1.10501379e-01 +1.51760116e-01 +1.10085033e-01 -1.03028409e-01 +5.16950898e-02 +1.32637605e-01 -4.14670967e-02 +1.37687564e-01 +4.45674546e-02 -1.58280879e-01 +6.00506291e-02 -6.30655792e-03 +1.86746731e-01 +1.12721309e-01 -8.36602077e-02 +6.75309598e-02 -6.67165816e-01 +2.01447085e-02 -3.29493761e-01 -1.62044451e-01 -1.88308328e-01 -6.16881669e-01 -1.75891802e-01 -2.77444478e-02 -1.30307928e-01 -2.19778717e-01 -4.65666324e-01 -1.66266069e-01 -1.17998563e-01 -6.13845885e-01 -4.37970832e-02 +2.74308994e-02 -4.74487096e-02 -1.10303402e+00 +5.45021370e-02 -6.91275373e-02 -3.40929449e-01 -6.21658601e-02 -6.35689020e-01 +5.31064011e-02 -3.19420218e-01 +2.43623465e-01 -5.60128577e-02 -1.18331641e-01 +1.42939307e-03 -1.63562104e-01 -1.39926478e-01 -1.87657163e-01 -1.56310201e-01 +1.70303002e-01 +4.76819603e-03 -2.10821554e-01 +1.14029393e-01 -1.21054709e+00 -1.30824134e-01 -5.68898559e-01 -7.45452762e-01 -1.28539133e+00 +6.23404421e-02 -3.57718050e-01 -1.44394964e-01 -5.52426092e-03 -2.31497258e-01 -6.42153382e-01 +1.31502628e-01 -1.73781767e-01 +1.74713999e-01 +1.21169090e-01 -7.00818360e-01 -1.36419296e-01 -1.72472462e-01 +2.14524254e-01 -1.53230995e-01 -3.19733359e-02 -3.93110454e-01 +6.71268106e-02 -7.79409647e-01 -4.10073847e-01 -5.22492170e-01 -5.45197666e-01 +6.55512363e-02 -2.29622141e-01 -2.67832410e-02 -4.61488307e-01 -9.35944617e-02 -1.38792340e-02 -8.03689361e-01 +2.12603495e-01 -9.09549966e-02 -3.07548463e-01 -5.33196032e-01 -1.88506842e-01 -5.44285834e-01 +1.24887452e-02 -1.14939892e+00 -2.44606584e-01 +1.35824695e-01 -2.63521403e-01 -4.15140480e-01 -1.89417511e-01 -2.87823588e-01 -1.64270771e+00 +6.91295192e-02 -3.75358582e-01 -1.45420945e+00 -1.19983414e-02 +8.93220752e-02 -2.14826196e-01 -6.26167431e-02 -3.78058434e-01 -2.27926746e-01 -1.09730378e-01 -2.18635541e-03 -1.74894184e-01 +6.55099824e-02 -6.63861781e-02 -4.69514459e-01 -8.06592479e-02 -1.61909533e+00 -1.09216429e-01 -3.40957940e-02 +1.65336236e-01 +7.74918079e-01 +2.18411967e-01 -1.54721737e-01 -6.99276477e-02 +1.48927957e-01 -6.22446574e-02 -2.72618145e-01 -8.95820707e-02 -2.12189347e-01 -5.06776810e-01 +8.81816894e-02 -4.10490148e-02 -1.20779231e-01 -9.53209698e-02 -8.47492367e-02 +2.80006260e-01 +1.94124319e-02 -1.44755274e-01 -7.11879849e-01 +2.58818269e-02 +7.71384779e-03 -1.94967151e-01 -2.15659887e-01 -2.72985939e-02 -8.72262120e-02 -1.24564152e-02 -4.62879092e-01 -2.17608064e-01 -1.53491139e-01 -4.00281549e-01 -4.22985524e-01 -1.61587998e-01 -5.33408821e-01 -1.43077597e-01 -5.35779655e-01 -7.12934360e-02 -4.17629816e-02 -6.53737038e-02 -7.24528670e-01 +5.86343527e-01 -1.63879305e-01 +2.26608105e-02 -1.13146238e-01 -5.86552210e-02 -1.61005095e-01 +1.92944482e-02 -3.32020819e-01 -1.31782621e-01 +1.21884301e-01 -1.79718733e-01 -3.34192693e-01 -3.64594668e-01 -5.57516277e-01 -1.31130993e-01 +5.48413932e-01 -8.36346328e-01 -1.98314786e-02 -3.58304024e-01 -7.61210322e-01 -6.18067503e-01 +3.29666846e-02 -3.93210143e-01 +1.43184438e-01 +2.17109583e-02 +2.81092357e-02 -1.74496565e-02 -2.99677968e-01 -1.00601487e-01 -5.91384232e-01 -8.15701485e-02 -2.76076525e-01 -2.11052336e-02 +1.31341621e-01 -2.79341221e-01 -1.60783589e-01 -4.39829797e-01 -2.18381599e-01 -1.13500684e-01 -4.32330966e-02 -1.88288167e-01 -5.96613362e-02 +7.31189921e-02 -5.93763649e-01 -6.13145828e-01 +1.61797538e-01 +4.35014427e-01 -2.13845491e-01 +1.48315607e-02 -2.16176748e-01 -1.50394052e-01 -1.31053597e-01 +3.05638295e-02 -9.47640836e-01 -1.57240197e-01 -3.48707229e-01 -2.86915630e-01 -1.44119486e-01 -1.35922685e-01 -1.94825023e-01 -2.80940771e-01 -8.46263915e-02 -1.03072353e-01 -1.63056359e-01 -8.67406577e-02 +1.74100753e-02 +1.07162759e-01 -4.73976322e-02 -3.20805460e-01 -1.17155321e-01 -1.03470817e-01 +1.58931389e-02 -6.51307225e-01 -3.24961573e-01 -1.76514313e-01 -4.56835657e-01 -1.87798664e-01 +4.81913388e-01 -1.26584051e-02 -4.37114865e-01 -2.52474576e-01 -7.54764155e-02 -2.36237738e-02 -1.53738931e-01 +2.75098924e-02 +5.72783798e-02 -6.76465221e-03 -3.64926875e-01 +9.96796787e-02 -2.10261375e-01 -1.49944827e-01 -2.79871583e-01 -3.53729911e-02 +3.54942493e-02 +3.83515835e-01 -1.82639703e-01 -6.14135444e-01 +5.88863865e-02 -6.36815578e-02 -5.74446201e-01 +2.26140097e-01 -4.09601361e-01 -4.98442575e-02 +2.75796819e-02 -1.79233417e-01 -8.66517052e-02 -2.78216079e-02 -7.93019176e-01 -1.03921257e-01 -1.42350271e-01 -2.86548495e-01 -1.46936938e-01 -1.59853816e-01 -1.01187222e-01 -3.26510489e-01 -2.74001628e-01 -1.44690797e-01 -2.39303429e-02 +1.42954051e-01 -1.09337799e-01 -4.56102669e-01 -3.27568233e-01 -4.60696667e-01 -3.89506608e-01 -5.57891428e-01 -9.17454064e-02 -8.04625273e-01 -7.25838020e-02 -2.86560833e-01 -1.78267643e-01 +1.12735070e-01 -3.44932228e-01 +2.94959784e-01 -1.61755636e-01 -2.08519295e-01 -2.37621158e-01 -6.18454181e-02 -1.93934381e-01 -1.34046733e-01 -1.72768831e-01 +8.98638070e-02 -5.61203420e-01 +1.47592217e-01 +7.25948066e-02 -5.51020056e-02 -2.33535573e-01 +3.40562724e-02 -1.72296479e-01 -2.49944612e-01 -1.31353155e-01 +1.59409061e-01 +5.08191511e-02 -1.28399476e-01 +4.82780002e-02 -1.77698746e-01 -1.73585117e-02 -1.04535520e-01 -2.48511925e-01 -1.45837903e-01 +2.25809380e-01 -5.75535119e-01 +4.61623043e-01 +2.86911309e-01 -1.70771345e-01 -8.20598751e-02 +1.10906579e-01 +8.62831548e-02 -2.97103167e-01 -2.78361402e-02 -1.21528329e-03 -4.80121970e-02 -2.88595498e-01 -8.97990465e-02 -1.88293278e-01 +6.52467534e-02 -1.16546646e-01 +1.19938388e-01 +1.56483874e-01 -3.42619210e-01 -5.26950657e-01 -4.76753265e-02 +5.56037165e-02 -9.79460254e-02 -1.59708261e-01 -3.24670784e-02 +1.33667275e-01 -2.92366862e-01 -1.22314051e-01 -1.31508052e-01 -7.96750426e-01 -5.11250377e-01 -2.75059938e-01 -9.90085602e-02 +5.63071184e-02 -1.12982646e-01 -9.82411653e-02 +1.29276052e-01 -1.53889060e-01 -4.58342433e-02 +5.90108987e-03 -4.51291054e-01 +1.78481303e-02 -2.93646008e-01 +5.62812313e-02 -1.52066991e-01 +6.48039654e-02 -7.93215558e-02 -4.72507030e-01 +5.88525087e-03 -3.40079635e-01 -4.96039897e-01 -5.83005309e-01 -3.35983634e-02 -1.01165913e-01 -2.05795288e-01 +5.20059727e-02 +5.67889102e-02 -1.16404794e-01 -8.18730533e-01 +4.49467078e-02 -6.14302516e-01 -1.90129757e-01 -1.08926758e-01 -2.92653572e-02 -1.59010202e-01 +1.20645255e-01 -1.20140269e-01 -5.29675819e-02 -5.10333419e-01 -4.92458463e-01 -2.13834658e-01 -4.80925739e-01 +1.02312304e-01 -3.44157107e-02 -9.52992402e-03 +1.74670100e-01 +1.01483904e-01 +9.89323333e-02 -1.50783554e-01 +9.19816643e-03 +1.07308049e-02 -2.47409448e-01 -1.61794499e-01 -2.36822024e-01 +7.48013239e-03 +3.23465988e-02 -7.72828698e-01 -2.07367495e-01 +2.37774447e-01 -2.26174891e-01 -9.84657183e-02 -7.47919858e-01 -4.90626357e-02 -4.39864397e-01 -1.63537651e-01 +1.49612576e-01 -2.51021504e-01 -8.00350234e-02 -2.39400961e-03 -1.90468252e-01 -4.35919076e-01 -5.77108152e-02 -1.02773219e-01 -1.46462873e-01 -1.45844907e-01 -1.31310090e-01 -4.00422126e-01 +1.25182848e-02 -4.65867907e-01 +1.19248502e-01 -1.28146723e-01 -4.27126050e-01 -8.53773728e-02 -9.69752818e-02 -3.33939314e-01 -9.90901366e-02 -8.20186138e-02 -2.59892434e-01 +1.12445280e-01 -1.26223934e+00 +8.10972750e-02 +2.30420381e-02 -1.16498090e-01 +4.22282785e-01 -1.04839683e-01 -1.61624908e-01 -1.08742699e-01 -2.34643981e-01 -6.22296154e-01 -2.48919636e-01 -4.03683670e-02 -4.86187547e-01 -3.78582597e-01 -4.71538119e-02 -2.33291531e+00 -2.91596800e-01 -5.52887142e-01 -8.84746611e-02 -4.12419766e-01 -2.02479929e-01 -7.17872381e-01 +5.56546263e-02 -8.57544303e-01 -1.73485830e-01 -2.04256639e-01 -5.67903876e-01 +7.86139488e-01 -9.47805643e-02 -3.04737277e-02 -7.93592334e-02 -1.56111419e-01 +2.02602938e-01 +2.84348708e-02 -8.56064335e-02 -1.65858194e-01 +7.93318674e-02 +1.24682806e-01 -2.20712833e-02 +5.90377972e-02 +2.64870785e-02 -1.70612544e-01 -2.65891224e-01 -3.42950612e-01 -7.85058558e-01 -4.43467021e-01 +1.98951945e-01 -4.67450395e-02 +3.82659405e-01 +2.05993548e-01 -2.46362433e-01 -9.41230282e-02 -9.19185877e-01 -1.21577688e-01 -2.08705544e+00 -2.55788505e-01 -1.89622894e-01 -1.32908002e-01 +6.40180483e-02 +1.10295080e-01 -1.76604807e-01 -4.53227311e-02 +2.74488330e-01 -6.46470249e-01 -6.53393567e-01 -5.16180508e-02 -2.75671631e-02 -6.19280674e-02 +1.53085500e-01 -3.71677637e-01 -3.29831332e-01 -2.35674828e-02 -7.84777850e-02 -1.23371512e-01 -3.28379273e-01 -1.10226862e-01 +7.10182637e-02 -1.75780818e-01 -1.20651281e+00 -3.80907021e-02 -4.81252164e-01 +2.84305960e-01 +1.12953922e-02 +7.24750385e-02 -1.35700390e-01 +3.09327990e-02 -4.35339123e-01 -3.95028703e-02 -3.33715618e-01 +1.55823991e-01 +3.53104584e-02 -2.67035956e-03 -2.36774221e-01 +1.06480040e-01 +1.52214810e-01 +5.65442592e-02 +5.14860488e-02 -7.42103979e-02 -5.48428530e-03 -2.46371016e-01 -2.26870358e-01 -1.26310170e-01 -6.61285371e-02 -5.78483678e-02 -1.05772195e-02 -1.57098286e-02 +9.19063091e-02 -1.53346509e-01 -2.11076066e-01 -2.33852476e-01 -6.57930136e-01 -4.00403328e-02 +4.95043211e-03 -6.15379095e-01 -1.12681553e-01 -2.48264521e-01 -3.13713253e-01 -1.47747666e-01 -9.71403196e-02 -2.11593121e-01 +5.93447359e-03 +1.67520508e-01 -8.99164528e-02 -3.95872891e-01 -2.13845819e-01 -1.19562328e-01 -1.98987797e-01 +4.84336801e-02 +1.89695191e-02 -4.39647734e-01 +6.89563761e-03 -3.85941535e-01 -1.80557087e-01 -3.59026253e-01 -3.23433578e-02 -2.64103562e-01 -7.14253664e-01 +2.11830258e-01 +1.19754277e-01 -3.40743989e-01 -1.33996725e-01 -4.21074390e-01 +9.63990241e-02 -8.72515664e-02 -7.09894001e-02 -2.74659514e-01 -2.62855113e-01 -6.78940713e-02 +8.73095095e-02 -2.00147137e-01 -3.74672025e-01 +6.68303221e-02 +1.46128133e-01 -3.42714451e-02 -1.01018436e-01 -4.37124968e-01 +8.10686707e-01 -1.24255858e-01 -3.21156323e-01 +8.27192143e-02 -1.92009345e-01 +1.17812790e-01 +1.30453393e-01 -2.08641544e-01 -4.28597838e-01 +2.37925142e-01 +4.76319604e-02 +6.52730823e-01 -1.38271973e-02 -1.30636588e-01 +2.81683207e-01 +5.96700981e-02 +3.37382257e-01 -1.11462995e-01 -4.61751908e-01 +4.92086224e-02 +1.48010150e-01 +5.97298741e-02 +5.78566343e-02 +1.49991410e-02 -1.17829859e-01 -1.13104740e-02 -8.85415226e-02 -9.25736502e-02 +4.26177353e-01 +2.22894158e-02 -3.36327583e-01 +3.17020826e-02 -9.00047496e-02 +3.45617205e-01 -1.36395946e-01 +7.04147741e-02 -1.73883557e-01 -3.56262833e-01 -4.18900996e-01 -9.73061547e-02 -1.86987653e-01 +2.43688114e-02 -5.89023411e-01 -1.85720861e-01 -1.43060863e-01 -3.58753026e-01 +3.14501822e-02 -6.77268133e-02 +6.27576783e-02 +1.42047778e-01 +1.00147367e-01 -5.79848439e-02 -1.15923226e-01 -4.01916742e-01 -1.59508929e-01 +2.22223029e-02 -2.24155307e-01 +6.39879853e-02 -2.07145169e-01 -2.55842954e-01 +1.12764448e-01 