#Parameter# /_0 {200,342} 1094401 ZERO_GRAD
+8.27065855e-02 +4.88612168e-02 -1.05080053e-01 +1.73682608e-02 -3.48222926e-02 -1.21958226e-01 -7.17700794e-02 +3.97718325e-02 +4.65861298e-02 +3.54097858e-02 -1.18691407e-01 +6.33718073e-02 -7.83534423e-02 -8.63874853e-02 -8.79081637e-02 +2.43605375e-01 -9.05075595e-02 -1.70023158e-01 -8.57855678e-02 -5.77742755e-02 +2.47288242e-01 -3.58757265e-02 -9.91100222e-02 +3.68274599e-02 -5.19702211e-02 -6.60044029e-02 +5.89467287e-02 +5.36413640e-02 +1.21052936e-02 -2.14092657e-02 +7.46386126e-02 -8.00362155e-02 +3.76602225e-02 -4.43033827e-03 -2.04058409e-01 +2.18526162e-02 -5.69676697e-01 -1.89897474e-02 -1.54626399e-01 -3.46661583e-02 -7.89302409e-01 -1.08395182e-01 +1.00313246e-01 +1.79861307e-01 +1.63223088e-01 +2.44403742e-02 -7.62983039e-02 -5.98331876e-02 +3.65412906e-02 +5.96481264e-02 +8.31515621e-03 -8.50362331e-02 +1.02860555e-01 -1.01410091e-01 +1.88906297e-01 -1.94146708e-02 -2.92562041e-02 -9.22511369e-02 -2.68913340e-02 -1.10827405e-02 -5.71560189e-02 -2.34877132e-02 +2.01082721e-01 +3.48822586e-02 +1.65941149e-01 +6.77506328e-02 +1.54576346e-01 -2.43529677e-02 -2.73783654e-01 +2.90817004e-02 -3.14710662e-02 +1.15393773e-01 +5.13517559e-02 -6.95339218e-02 -1.77469984e-01 +9.77977365e-03 +1.97466910e-01 +2.65076235e-02 -4.64416631e-02 -5.15373759e-02 -1.02930320e-02 -1.51051767e-02 +9.81861874e-02 -1.83927625e-01 +4.37860489e-02 -9.39162076e-02 -1.16465576e-02 -8.47457163e-03 -8.98405313e-02 -3.99451368e-02 -8.37231353e-02 -5.48736425e-03 -9.13445130e-02 +8.52011070e-02 +3.67124961e-03 +2.52491891e-01 +5.69400303e-02 -1.21190131e-01 -1.64306748e+00 -5.05411226e-05 -4.83445860e-02 -2.26224199e-01 +7.99504668e-02 -8.42859671e-02 -9.33315903e-02 +7.05129057e-02 +8.86617415e-03 -9.18411613e-02 +2.60136515e-01 -2.27459539e-02 -6.96054995e-02 +6.35964051e-02 +1.38379887e-01 -6.55808300e-02 +1.68089092e-01 -1.26564920e-01 +1.75068453e-01 -9.59950835e-02 -3.21665704e-02 +4.26576398e-02 -1.05773218e-01 +4.21548076e-02 -6.33641854e-02 -3.48982587e-02 -8.61932933e-02 -4.36087474e-02 -1.20276317e-01 -1.34721056e-01 -1.78779736e-02 -1.35470912e-01 -7.41671205e-01 -3.19787264e-02 -1.24009162e-01 -6.94322065e-02 +6.79746121e-02 -2.90528256e-02 +5.60132647e-03 -1.02924794e-01 +1.30027682e-01 -1.79019123e-02 +2.45579958e-01 +2.26478204e-02 +1.42774016e-01 -5.97355664e-02 -4.88331132e-02 -9.81554538e-02 +5.82494549e-02 -7.81026203e-03 +2.79655214e-02 -2.83240676e-02 -1.73672922e-02 -9.12202708e-03 +1.20740086e-01 -6.18715696e-02 -6.12569869e-01 -6.86754808e-02 -1.29594490e-01 -8.43175054e-02 +9.63069573e-02 +3.54356989e-02 -2.63861138e-02 -2.18648533e-03 -7.38348365e-02 -8.52929149e-03 +3.12487245e-01 +4.62364219e-03 -7.42665976e-02 +1.43095940e-01 -3.27583030e-02 -1.21751823e-01 +9.21882529e-05 -6.23962246e-02 +5.70560619e-02 -6.80217594e-02 +1.55408800e-01 -2.33984925e-02 -4.99802195e-02 -7.69489035e-02 -8.24703649e-02 -2.75118065e+00 -6.15743212e-02 +6.54402515e-03 -8.52728635e-02 +7.55476132e-02 -1.16520030e-02 +9.30737033e-02 -1.42892718e-01 -6.62911162e-02 +2.22872570e-02 +5.45825809e-02 +1.63861766e-01 +4.80454303e-02 +2.19181087e-02 +5.42390458e-02 +1.07590286e-02 -3.29076573e-02 +1.05712764e-01 -6.38895854e-02 +4.38536331e-02 -4.62337732e-02 +2.61742454e-02 +1.31091446e-01 -3.45250182e-02 +1.10540008e-02 +1.59914777e-01 -8.87570158e-02 +5.85802309e-02 +2.30596513e-02 -6.16605720e-03 -1.38806432e-01 -1.74292266e-01 +5.01186587e-02 -1.05491899e-01 +2.13567503e-02 +2.06085872e-02 -3.04023493e-02 +2.49798205e-02 +2.77978152e-01 -1.30932396e-02 -4.22056466e-02 -2.13686354e-03 -1.74877793e-01 -1.00613698e-01 +2.48685461e-02 -5.43235801e-02 -1.38704732e-01 -5.73874488e-02 -2.22286418e-01 -9.45963487e-02 -5.68284206e-02 +1.40573727e-02 -2.74787154e-02 -3.42115611e-01 +1.51980547e-02 -6.41460085e+00 -1.08397178e-01 -5.51867783e-01 -3.25752385e-02 +8.81414860e-03 -2.44858682e-01 -8.53116393e-01 -1.59668833e-01 -1.97421685e-01 -1.48251623e-01 -2.73561388e-01 +2.80717820e-01 -3.84981558e-02 -6.72506046e+00 -4.29849327e-02 -1.00140840e-01 -6.53537437e-02 -1.33029874e-02 +2.93590780e-02 -4.90940332e-01 +1.83687046e-01 +1.00072809e-01 -8.10972787e-03 -5.74806929e-02 +1.69204306e-02 +6.66958690e-02 -1.45569646e+00 -3.65989357e-02 -3.12611371e-01 -8.62478241e-02 -7.73792267e-02 -2.39043068e-02 -1.30351961e-01 +4.20960821e-02 -3.04630232e+00 -7.48088360e-02 -3.02284539e-01 -8.14623907e-02 +1.73411980e-01 -1.04687780e-01 -6.26288366e+00 +6.21406361e-02 +1.75444007e-01 +4.58972864e-02 -5.49014658e-02 -1.00711368e-01 -6.70391023e-02 -9.00354311e-02 -8.23373869e-02 +3.12592655e-01 -8.30394477e-02 -1.62907038e-02 -5.70740104e-01 -7.38980174e-02 -1.29451126e-01 +6.93892986e-02 +9.40857753e-02 -2.56800596e-02 -6.03064299e-02 +4.98472936e-02 +7.49045685e-02 -8.93513206e-03 +5.38209826e-02 -1.03991471e-01 -1.88502622e+00 +1.05006166e-01 -2.25870800e+00 -1.30618572e+00 -2.45381668e-02 +2.66426802e-01 +9.60636809e-02 -4.69847694e-02 +3.33631217e-01 -7.42432848e-02 -1.23998977e-01 +1.08170966e-02 -7.69035965e-02 -1.13174951e+00 -9.40160900e-02 +9.06649977e-03 -1.91099435e-01 -1.13765687e-01 -3.61240000e-01 -7.28934631e-02 -8.35271180e-02 +6.33647246e-03 -3.73097844e-02 -9.33824331e-02 +1.02125704e-01 +5.74107468e-02 -3.56061086e-02 -1.03842318e-01 +1.00800507e-01 -5.37244529e-02 -8.96214098e-02 -1.85933694e-01 -4.64957714e-01 -4.38192580e-03 +1.17178686e-01 +4.52327952e-02 -4.27425466e-02 -3.75501327e-02 -9.28192660e-02 -5.21972813e-02 -1.38931006e-01 +7.40857944e-02 -1.16716154e-01 -2.94733554e-01 +1.23017333e-01 -8.94524530e-02 +5.21006435e-02 -1.32713497e-01 +2.60312296e-02 +7.28358477e-02 -2.07914755e-01 -1.22179305e-02 -6.85571060e-02 +5.17904572e-02 +1.20603882e-01 +1.76016730e-03 -5.45998716e+00 -4.00785245e-02 -1.69795156e-01 -1.04589723e-01 -2.99173477e-03 +1.65196091e-01 -1.23219766e-01 +4.97900881e-02 +9.49768126e-02 -9.09299701e-02 -3.75711992e-02 -1.21333838e-01 -1.31113097e-01 -1.67189375e-01 -2.31081545e-02 -1.23082377e-01 +2.11973581e-02 -5.10962727e-03 +1.46264702e-01 -1.40357718e-01 +1.44841364e-02 -1.03211507e-01 -6.53511137e-02 -5.11227176e-02 -8.67221802e-02 +1.50636630e-03 +4.34870571e-02 +1.76293820e-01 +1.97058365e-01 +4.93003689e-02 -7.75561184e-02 -1.53109416e-01 -1.15379095e-01 +2.07939431e-01 -9.10572037e-02 +6.71181455e-02 +2.60245111e-02 -6.30760118e-02 -7.71802664e-02 -1.13357425e-01 +2.54912139e-03 -3.71932536e-02 -2.67837584e-01 +2.65998133e-02 +1.25709493e-02 -4.61638458e-02 +6.97909016e-03 -2.61208564e-02 -7.28599504e-02 +1.65159237e-02 -2.19514206e-01 +8.44205543e-02 -2.78560072e-02 +4.46556620e-02 -8.19742605e-02 -1.22264162e-01 +5.31131290e-02 -8.53487104e-03 +5.57306148e-02 -1.23194531e-02 +7.10423142e-02 +8.35766792e-02 -6.36856556e-02 -1.45523116e-01 -6.51701838e-02 -6.86839446e-02 -8.47718939e-02 +7.78134912e-03 -3.93419564e-02 -3.70351709e-02 +7.33969137e-02 -1.40207596e-02 -2.70721540e-02 -1.24838613e-01 -4.10567820e-02 +9.93607342e-02 -7.30166212e-02 +8.82112980e-02 +3.68019603e-02 -6.41044676e-02 +1.64002165e-01 +1.57215133e-01 -8.66637602e-02 +1.83928793e-03 -2.46121943e-01 +1.25056505e-01 -1.09789848e-01 +1.17965162e-01 -2.09560618e-03 -9.90671515e-02 +4.26046215e-02 +5.53475469e-02 -7.70064117e-03 +1.83117226e-01 +2.90505160e-02 +1.32063344e-01 +1.22571103e-01 +6.07808195e-02 -1.03596181e-01 -1.29110858e-01 -5.66177607e-01 -6.16525784e-02 -4.58984356e-03 +5.68572320e-02 -1.13493660e-02 -3.03554367e-02 -1.22156385e-02 -8.34872648e-02 -1.33457616e-01 -7.35419840e-02 -7.09916186e-03 -5.37392683e-02 +1.48522288e-01 +3.25758867e-02 +1.19440928e-01 +2.51268391e-02 +7.59162232e-02 -1.53759599e-01 +3.20954829e-01 +7.54863620e-02 +8.38410779e-05 +3.47407423e-02 -8.21013674e-02 +7.73062855e-02 +6.85907975e-02 +7.25957146e-03 +1.21261798e-01 +7.95860067e-02 -9.18172579e-03 +1.46237716e-01 -4.99943271e-02 -5.40558770e-02 +2.36216173e-01 +2.13054996e-02 +2.87605077e-02 +5.71356304e-02 +9.50520560e-02 +1.78272761e-02 -1.67472530e-02 -7.58063840e-03 -6.03555664e-02 +8.05484578e-02 +8.47705081e-02 +3.63653526e-02 +4.40413713e-01 -1.90230578e-01 -3.09266802e-02 -3.77357990e-01 -1.84868518e-02 -1.53059568e-02 -4.69779074e-02 -8.08823258e-02 -3.59331846e-01 -5.59406914e-02 -2.34501678e-02 -8.51877257e-02 +2.69935839e-03 +4.44914490e-01 -5.17493077e-02 +8.28778073e-02 +1.31747112e-01 +1.49459004e-01 -2.12675452e-01 +6.43775761e-02 +6.43652827e-02 -1.86667088e-02 -1.19209448e-02 -3.26101445e-02 +9.67475697e-02 -2.68188845e-02 -8.62326473e-02 +6.60001338e-02 +1.10477194e-01 +5.08011840e-02 +1.07089570e-02 +6.27535209e-02 -9.98248681e-02 +4.74661514e-02 -2.15459853e-01 -9.45938826e-02 -2.35323742e-01 +9.51348841e-02 -6.13109581e-02 +8.75022337e-02 -9.67768580e-02 +7.49106854e-02 -7.03574568e-02 -2.00870201e-01 +8.56369063e-02 +4.13683094e-02 +6.66653365e-02 -3.05215679e-02 -7.24781007e-02 +9.88733172e-02 +4.60449560e-03 -6.78596050e-02 +9.23309252e-02 -3.90499383e-02 -8.94561484e-02 -6.93898648e-02 +1.40178430e+00 +1.00319073e-01 +4.52261344e-02 +7.68586174e-02 +2.09776126e-03 -8.70443135e-02 -2.03560248e-01 +4.77217771e-02 +9.15989876e-02 +3.90248522e-02 +2.44288638e-01 -3.14061381e-02 -3.21636021e-01 +1.45417070e-02 -9.42198221e-06 +1.33450165e-01 -4.36771326e-02 +1.40047465e-02 -8.11220482e-02 -5.39160669e-02 +4.72045736e-03 +2.16021128e-02 -1.16383350e-02 +9.87912640e-02 +5.80264814e-02 -1.25952810e-01 +4.05173860e-02 -1.50886178e-01 -1.44044593e-01 -5.43837715e-03 +3.72092007e-04 -5.38703464e-02 +1.26975179e-01 -2.34544873e-01 -1.13216024e-02 +9.61317588e-03 -1.64951056e-01 +4.93132956e-02 +7.82646686e-02 -2.46462617e-02 +9.77791920e-02 -4.16104607e-02 -8.63885731e-02 +4.12699245e-02 -1.00996634e-02 -2.46701583e-01 +1.02040758e-02 +1.00442298e-01 -1.28985466e-02 -9.69937369e-02 -1.06800750e-01 -4.10207734e-02 +7.59840384e-02 -6.85007423e-02 +9.61640198e-03 +2.90723387e-02 +2.18164902e-02 -1.97575008e-03 -6.03767373e-02 +8.30824673e-02 -7.52874315e-02 +2.08815768e-01 +6.85516447e-02 -1.89319141e-02 +1.28532629e-02 -5.35815097e-02 +2.09399745e-01 +4.44698967e-02 -1.03388727e-01 -6.24104813e-02 -1.31761003e-02 +4.52718697e-03 -8.08016062e-02 +1.67795956e-01 -3.64329107e-02 -3.53949815e-02 +5.25185093e-03 -9.80506614e-02 +1.00895002e-01 +8.47333744e-02 -6.59279674e-02 -5.78028932e-02 -4.96212184e-01 +1.02577060e-01 -1.51975825e-01 -1.40040740e-01 -7.97759354e-01 +1.24453641e-02 -6.87920153e-02 +1.77902713e-01 +1.30598322e-01 -3.83977517e-02 +9.77064446e-02 -1.66334450e-01 -1.00440465e-01 -9.84645449e-03 -1.56797796e-01 +9.79790688e-02 +5.38837910e-02 +7.91387409e-02 +2.43802369e-01 +5.52358367e-02 +2.58054249e-02 +5.17517813e-02 +7.90173262e-02 +4.75658923e-02 -1.54314369e-01 -9.74961743e-02 +1.14668749e-01 +7.13641122e-02 +2.96212643e-01 -3.48757692e-02 -3.47188413e-02 -3.77243236e-02 -2.94992030e-01 +3.25315036e-02 -5.89666814e-02 +1.37501985e-01 -9.03869271e-02 +1.29152508e-02 -1.21119127e-01 -3.80069166e-02 +8.98515210e-02 -1.01336338e-01 +2.98603059e-04 +8.22694600e-02 +1.79003850e-02 -6.97444007e-02 -8.33877996e-02 -1.39081582e-01 +1.69037667e-03 +3.42193022e-02 -1.68516173e-03 -6.91724718e-02 -1.49466857e-01 +3.47982254e-03 +1.03999348e-02 -3.80789042e-02 -4.13600430e-02 +8.83247778e-02 -1.76906846e-02 +2.04964966e-01 +4.75777574e-02 -7.19153285e-02 -1.69402611e+00 +2.89075430e-02 +1.36667207e-01 -2.00354055e-01 +8.41000751e-02 -2.49228701e-01 -6.34799749e-02 +3.62430364e-02 +5.63089624e-02 -2.36514956e-02 +1.93789244e-01 -3.74213373e-03 -7.72213340e-02 -2.13208124e-02 +1.06588848e-01 -1.14840679e-01 +7.22490400e-02 -1.55200392e-01 +1.09626308e-01 -1.34938836e-01 +5.18105291e-02 -9.19772536e-02 +2.41358597e-02 -7.92764723e-02 -6.67310208e-02 +9.56038013e-02 +1.04347235e-02 +3.26532349e-02 -1.28967389e-01 -1.61664173e-01 -6.34339303e-02 -1.98830310e-02 -6.54693902e-01 +5.37115708e-02 -2.53679931e-01 -9.88014191e-02 +4.15840074e-02 +1.02204271e-02 +8.54341954e-04 -8.47843438e-02 +2.21175805e-01 +7.90336579e-02 +1.99573845e-01 -4.93349917e-02 +2.49845590e-02 +4.57907617e-02 -6.47066087e-02 -4.91861999e-03 +3.67133506e-02 +1.31170964e-02 -6.07223213e-02 -1.20135888e-01 -8.50847140e-02 -3.81631181e-02 +2.31193140e-01 -2.03784239e-02 -6.86329544e-01 +5.08285966e-03 -1.24226891e-01 +7.28024021e-02 +3.73976678e-02 -9.75414291e-02 -2.61766855e-02 +6.22352958e-02 +2.48346981e-02 -4.56576645e-02 +2.86519080e-01 -3.29927839e-02 -2.54595876e-02 +1.82791352e-01 -5.86260334e-02 +3.29512954e-02 +6.96128234e-02 +4.38913368e-02 +1.19306572e-01 +8.07413161e-02 +1.85374379e-01 +5.83371669e-02 -1.10734692e-02 +4.45599109e-02 +9.39522237e-02 -2.72151423e+00 -2.19772048e-02 -9.86437201e-02 +6.77207261e-02 +7.87202176e-03 +7.98569694e-02 +7.98391625e-02 +5.18728234e-03 -5.58712669e-02 -3.65501232e-02 +5.07080071e-02 +1.02262959e-01 -8.91287476e-02 +7.99057558e-02 +6.42884821e-02 -6.61150664e-02 -4.07815203e-02 +1.36263728e-01 -8.40493441e-02 -9.90459025e-02 +1.63564645e-02 -1.25197973e-02 +1.50661319e-01 +7.56204054e-02 +1.91508196e-02 +5.13349697e-02 +8.47623944e-02 -5.94539121e-02 +2.59009395e-02 -3.30056064e-02 -1.88145220e-01 +1.87050328e-01 -4.67520580e-02 +8.71878862e-02 +9.71323550e-02 +5.82851395e-02 +3.64369929e-01 +5.44107780e-02 +8.01894814e-02 +1.03554964e-01 +6.84084296e-02 +1.45566836e-01 +8.78553689e-02 +9.48310643e-02 -3.50214163e-04 -5.91526814e-02 +6.89730793e-02 +1.02744997e-01 -2.10135147e-01 -6.02947436e-02 -7.61838928e-02 +2.00806223e-02 -9.57899615e-02 -4.85403016e-02 +9.74759012e-02 -1.29184023e-01 -8.92338902e-03 -5.63442230e-01 -7.80452192e-02 -2.04001829e-01 +1.02020584e-01 -1.71375588e-01 +1.49934009e-01 -2.11104658e-02 -1.36739982e-03 +2.05610078e-02 +1.63668168e+00 +4.57925871e-02 -2.30937749e-01 -8.75994414e-02 -5.74684553e-02 +2.14062706e-01 +9.75494981e-02 -2.98978444e-02 -7.71723613e-02 -4.14916992e-01 +9.57525745e-02 +3.88526529e-01 +3.65644656e-02 +3.66679840e-02 -1.13788592e-02 -1.92466155e-01 -3.64902131e-02 -8.16782117e-02 +4.00520526e-02 +2.36231517e-02 +9.80354995e-02 +2.46820882e-01 -3.28374319e-02 -1.62996352e-01 -6.95651472e-02 -2.05596983e-02 -1.62901402e-01 +6.89609706e-01 +6.12758324e-02 -9.00624320e-02 +3.93255576e-02 +8.68236423e-01 +6.30898103e-02 +9.70312729e-02 -3.84915881e-02 +3.08948755e-02 +5.16623482e-02 +1.30957551e-02 +2.27452874e+00 -5.48845269e-02 -5.26152179e-02 -1.11466264e-02 +5.77518880e-01 +9.63766128e-03 +6.49036914e-02 -6.94160014e-02 +6.37108460e-02 +1.80882867e-02 +1.88944973e-02 +4.47672419e-02 -2.02246811e-02 -9.00176391e-02 +7.23683313e-02 -5.38724288e-02 -2.08883155e-02 -3.37716907e-01 -2.13301688e-01 -8.59870091e-02 +1.08634996e+00 +7.74499625e-02 +3.59972008e-02 +2.20905471e+00 -5.45563921e-02 +2.46156171e-01 +1.69374138e-01 +3.63138355e-02 +3.51840928e-02 -2.46750668e-01 +2.56234944e-01 +1.64224803e-01 +1.35518715e-01 -2.15110272e-01 +1.48785844e-01 -9.51142162e-02 -6.23930581e-02 -1.61301866e-02 -1.53887563e-03 -9.36047211e-02 -7.27360621e-02 -8.22723433e-02 +1.12909034e-01 +1.49159998e-01 +1.24021515e-01 +7.79981241e-02 -2.05696020e-02 -1.42111778e-01 +8.96754414e-02 -1.70772657e-01 +4.04808559e-02 +2.07942482e-02 +5.87780820e-03 +4.94709536e-02 +6.67401031e-02 +1.59336612e-01 -7.85386115e-02 +8.84358585e-02 -1.32233769e-01 +6.56009689e-02 +1.72114074e-02 +7.50908777e-02 -1.96484309e-02 -7.81484619e-02 +7.45273158e-02 +8.29282552e-02 -1.04807682e-01 +7.86219984e-02 -4.64471802e-02 +4.16410506e-01 -4.71022278e-02 +1.77099667e-02 +1.29720479e-01 +6.12103119e-02 +1.80833368e-03 +1.00243568e-01 +2.49839559e-01 -1.36805117e-01 +4.76833433e-02 +8.47689807e-02 +2.94112023e-02 +1.57762274e-01 -1.55153442e-02 -2.09525213e-01 +8.66150931e-02 +1.04332335e-01 +1.29891679e-01 +3.48651744e-02 +1.06612407e-01 +1.52758569e-01 -5.47466725e-02 -6.64586797e-02 -1.09240860e-01 -7.72131234e-02 +7.39992484e-02 +6.08548597e-02 +1.44114748e-01 +2.42779516e-02 -1.11965455e-01 -5.62604852e-02 -6.28642365e-03 -1.00881256e-01 -1.86733052e-01 -1.00690186e-01 -1.27789319e-01 -8.80723894e-02 +9.22908112e-02 +1.56584218e-01 +7.69361556e-02 +9.73127782e-03 -9.62742697e-03 -6.96023703e-02 +1.16648786e-02 -2.13726595e-01 -1.26168299e-02 -3.48599479e-02 -1.44300938e-01 -2.47635436e-03 -8.22031945e-02 -9.28214565e-02 +3.07672820e-03 -1.86297864e-01 -2.05337536e-02 -7.07346275e-02 -4.89075147e-02 +9.42462981e-02 -5.12573831e-02 +1.34483308e-01 -9.05353352e-02 -9.74193364e-02 +8.49439949e-02 +4.12657894e-02 +4.05798815e-02 -2.06837226e-02 -2.25118265e-01 -7.46348426e-02 -2.32114233e-02 -7.68438876e-02 -1.59193687e-02 -8.29123631e-02 +6.94313645e-02 +2.76822448e-02 -1.17933281e-01 -8.68955031e-02 -2.01174915e-01 +5.46201766e-02 +1.15665257e-01 +3.91390398e-02 +8.20201561e-02 +3.11561432e-02 -3.84432152e-02 +2.32563511e-01 +1.09915897e-01 -1.61262438e-01 +1.09621540e-01 -1.73755631e-01 +1.15436725e-01 -5.74211963e-02 +7.45987967e-02 +1.09366141e-02 +4.92790267e-02 -5.67159988e-02 +1.72356740e-01 +3.32674384e-02 +6.27055615e-02 -1.21273734e-02 -2.75577437e-02 +1.07851662e-01 +3.12655233e-02 +9.08103734e-02 -4.50658798e-02 -6.20281219e-01 +6.09757155e-02 +2.21297927e-02 +6.33839741e-02 +3.47538926e-02 +9.10580307e-02 -1.26475796e-01 -2.42175329e-02 -2.73592137e-02 -3.70103791e-02 -5.62258512e-02 -3.48823071e-02 +1.06617667e-01 -2.64379438e-02 +1.37731731e-01 +5.40937893e-02 +1.05067708e-01 -8.87001082e-02 +2.75853097e-01 +6.82598576e-02 +1.05956055e-01 +4.05108072e-02 +2.36377250e-02 +7.40104392e-02 -9.60582718e-02 +8.96667168e-02 +8.41515958e-02 -9.54499990e-02 +2.75084544e-02 +1.38226047e-01 -6.24832734e-02 -4.79437746e-02 +1.83218062e-01 +8.16467628e-02 +1.14027992e-01 +8.56800005e-02 +9.55136865e-02 +8.46079811e-02 +7.74971470e-02 -9.07351747e-02 +1.00500211e-02 +4.92472798e-02 +7.75024742e-02 +8.28742161e-02 +4.52785969e-01 -1.69780165e-01 -2.01258749e-01 -2.73284286e-01 -5.62125966e-02 +2.86246687e-02 -9.18285400e-02 -8.75172690e-02 -3.31950188e-01 +6.91356808e-02 -1.45500064e-01 -8.24170411e-02 -4.97148037e-02 +3.01444143e-01 -2.36972179e-02 +1.20028354e-01 +2.92083956e-02 +1.41747594e-01 -7.15325549e-02 +4.78440188e-02 -6.36249110e-02 +8.65401700e-02 +1.06449917e-01 +1.06555238e-01 -7.31988475e-02 +1.31293803e-01 -9.42007676e-02 +9.43270400e-02 +5.20729497e-02 -1.43227568e-02 +6.91991374e-02 +1.47394538e-01 -6.92469180e-02 +1.03896745e-01 -3.26406598e-01 +8.44639912e-03 -6.30873218e-02 -2.79801674e-02 +7.96995237e-02 -5.97581780e-03 -9.89283249e-02 +1.18158469e-02 -1.40631720e-01 -2.08006158e-01 -4.51975539e-02 -2.84360927e-02 +9.50998887e-02 -5.75529666e-05 +8.72472674e-02 +8.55368152e-02 +1.49229271e-02 -5.19073680e-02 +7.08374456e-02 -2.56326236e-02 -6.81152046e-02 +3.21016349e-02 +1.52862453e+00 -8.18551928e-02 +9.19720903e-02 -7.46713206e-02 -6.07561320e-03 -3.80052552e-02 -2.43824452e-01 +1.08172083e-02 -5.37900776e-02 -2.44319588e-02 +2.27308750e-01 +6.91504031e-02 -3.10419381e-01 +1.31876310e-02 +3.31362672e-02 +8.70434418e-02 -8.40212032e-02 -2.14993581e-02 -7.23294169e-02 +5.15554883e-02 +3.32874134e-02 +4.36535068e-02 +8.77887011e-02 -6.20294325e-02 +6.21787310e-02 -1.07205659e-01 -3.47908139e-02 -2.25812346e-01 -1.63385093e-01 +7.51397526e-03 -1.01980425e-01 -2.11440876e-01 +1.04696557e-01 -2.04687759e-01 +9.01220515e-02 -2.14414671e-02 -1.37034670e-01 -4.82546650e-02 +6.90461369e-03 +6.59314543e-02 +7.29584545e-02 -9.86439139e-02 +5.21474890e-02 -4.92773689e-02 +1.00937366e-01 -2.25326225e-01 +8.32732618e-02 +4.39086854e-02 -2.04398837e-02 -5.35919555e-02 -1.45056680e-01 -4.78938371e-02 -8.11929479e-02 +3.86106297e-02 -4.65569608e-02 +9.82405394e-02 +8.39293282e-03 +4.87146042e-02 +6.63478766e-03 -1.08167946e-01 -1.29360175e-02 +1.33943886e-01 -1.45818340e-02 -1.16227336e-01 +6.59830198e-02 -1.06871024e-01 +2.04195932e-01 -6.77526183e-03 -7.83106387e-02 -5.85484467e-02 -2.99868230e-02 -9.45972838e-03 -1.06139123e-01 +7.16687143e-02 -1.03750611e-02 +1.54551594e-02 -2.34652627e-02 +3.51398475e-02 -1.11566938e-03 -4.50389870e-02 -1.03437245e-01 -1.23810172e-02 -5.22053301e-01 -4.51993570e-03 +2.03492027e-02 -2.91058775e-02 -7.53785431e-01 -3.17160077e-02 +1.93014741e-02 +1.09016381e-01 +2.59702001e-02 -1.14323096e-02 -7.53362924e-02 -6.96892058e-03 +6.94735628e-03 -3.26673649e-02 -6.90251142e-02 +8.94660596e-03 -9.43681970e-03 +5.45037575e-02 +1.39949813e-01 +3.00868526e-02 -9.38930456e-03 +6.78317770e-02 -7.49589950e-02 +9.05819461e-02 +3.36826518e-02 +2.64331512e-02 +1.15087904e-01 +1.45806046e-02 +2.47050136e-01 -7.39722475e-02 +4.33897823e-02 -9.98551622e-02 -2.62274653e-01 +4.01208103e-02 -2.26852775e-01 +7.36316144e-02 -5.18467650e-02 -1.54100269e-01 -1.88167229e-01 -8.90294313e-02 -2.94093159e-03 -1.18127130e-01 +9.12747979e-02 -9.66558009e-02 -2.62397155e-02 +3.28296721e-02 -4.45270687e-02 -2.71452814e-01 +3.68673354e-02 +9.15902629e-02 +1.23653509e-01 -7.84959495e-02 -2.23742202e-01 +9.49978158e-02 -8.75064135e-02 -1.63467731e-02 -1.02857249e-02 +1.06040547e-02 -6.27676956e-03 +3.04938316e-01 -7.45123029e-02 +4.77794604e-03 -1.69423354e+00 +6.73163533e-02 -3.99424657e-02 -2.92536318e-01 +1.11243920e-03 -1.47002950e-01 +8.39775875e-02 -9.39661860e-02 +6.98041618e-02 +2.57895980e-03 +2.44098991e-01 -7.98117835e-03 -3.89230698e-02 -2.90852180e-03 +3.45453694e-02 -1.89457387e-01 +9.05962884e-02 +3.19060497e-02 +1.95949242e-01 +9.21856705e-03 +3.01794074e-02 -1.38264418e-01 +5.51399626e-02 -1.01661406e-01 -5.40674292e-02 +9.42100510e-02 -4.58343253e-02 -2.32554805e-02 -1.38923049e-01 -1.16553813e-01 +1.55792879e-02 +9.50003136e-03 -8.02906334e-01 -5.39134070e-03 -1.26796484e-01 -6.40844181e-02 +1.97745569e-04 -1.00501686e-01 -8.16887766e-02 -1.10314749e-01 +9.41851586e-02 -4.28672135e-02 +1.94945961e-01 -4.54639345e-02 -5.18698283e-02 -2.02699956e-02 -5.27027845e-02 -2.62519773e-02 +4.35583182e-02 -1.58813980e-03 -1.30156279e-01 -1.00960538e-01 -7.68805519e-02 +2.07024105e-02 +2.34413683e-01 +9.99016780e-03 -6.54510558e-01 +9.77643281e-02 -5.59727475e-02 +7.76158355e-04 +8.59391317e-02 -5.01064993e-02 +1.40715102e-02 -7.59396330e-02 -7.64575452e-02 -4.73576449e-02 +2.37294525e-01 -1.82440877e-02 +5.42063713e-02 +1.82390988e-01 -1.16229700e-02 +2.40737908e-02 -7.84053504e-02 +2.60418467e-02 +1.80254709e-02 +5.89525439e-02 +6.37784749e-02 -3.01723219e-02 +8.96478146e-02 -4.20511626e-02 +1.40749821e-02 -2.74038076e+00 -1.04660140e-02 -8.52338597e-02 -2.25444883e-02 -5.66061027e-02 +4.53815386e-02 +1.86876968e-01 -2.34277658e-02 -1.09068528e-01 +6.50783107e-02 +3.40379751e-03 +2.49170884e-01 -3.05845365e-02 -1.04048148e-01 -3.42752822e-02 -1.06645860e-01 -4.61066775e-02 +2.72063881e-01 -8.41232389e-02 +3.25097665e-02 -7.55108669e-02 +5.61391748e-02 +1.35876209e-01 +2.30243877e-02 +4.72721942e-02 +4.53646965e-02 +5.12384698e-02 +9.99539942e-02 -6.50527626e-02 +2.90050469e-02 -1.39737651e-01 +1.55486047e-01 -3.17789242e-02 +4.39495519e-02 -9.45886895e-02 +1.02562018e-01 +2.62886822e-01 +5.51200099e-02 -8.05603117e-02 +1.97184514e-02 -5.86919524e-02 +1.76443487e-01 -5.31736426e-02 +4.43408377e-02 +1.07341811e-01 -3.10810171e-02 +1.50434002e-02 -9.15143713e-02 -1.13751486e-01 -1.51459128e-02 +1.79752968e-02 +9.40360278e-02 -4.17354554e-02 +1.58516951e-02 +5.50231449e-02 -9.72621813e-02 +1.92557201e-02 -6.47082448e-01 +3.61000597e-02 -2.16891766e-01 +1.45026252e-01 -2.43428305e-01 +1.54682845e-01 -1.58424661e-01 -1.17553649e-02 -6.01571053e-02 +1.57930243e+00 -4.16685380e-02 -9.51593220e-02 +2.38252785e-02 +7.84915462e-02 +1.26849174e-01 -1.75703727e-02 +1.48084955e-02 -1.27669543e-01 -3.66986424e-01 -5.63541204e-02 +3.61144185e-01 +2.84953602e-02 -5.62169030e-02 +8.10661390e-02 -8.96447971e-02 +9.42499265e-02 -1.73616171e-01 -9.56989005e-02 +2.75676586e-02 -3.77474725e-02 +1.68561295e-01 +8.46166089e-02 -2.89793044e-01 +1.29791543e-01 -5.44490740e-02 -9.97370407e-02 +8.14567208e-01 -6.58361763e-02 -1.66822433e-01 -3.29346620e-02 +9.88622785e-01 -7.25484490e-02 +1.61643308e-02 +5.00680842e-02 +1.09228976e-01 +7.83496201e-02 -5.82011268e-02 +2.26577497e+00 +1.02531523e-01 +6.04876839e-02 -8.18070322e-02 +5.15229166e-01 +4.62059677e-02 +1.01249062e-01 +6.83375746e-02 +1.46236166e-01 +4.14712615e-02 +9.74624977e-02 -3.76405790e-02 +1.14780344e-01 -5.37291169e-03 +8.38318840e-02 -2.09255833e-02 -3.57723907e-02 -2.94817418e-01 -2.63282746e-01 -1.11728460e-02 +9.82937813e-01 +1.02067932e-01 -3.63482609e-02 +2.13003182e+00 -5.59539767e-03 +1.87706083e-01 +5.10807037e-02 +5.68527430e-02 -2.50695571e-02 -1.56777933e-01 +3.01609993e-01 +6.44628927e-02 +8.20472464e-02 -2.27818847e-01 +1.58612490e-01 -2.14096718e-02 -9.16455239e-02 -2.29571201e-02 +5.53129241e-02 +4.34039570e-02 -4.23589684e-02 -8.15617889e-02 -4.10201540e-03 -9.72588197e-04 -7.66922394e-03 +1.09724879e-01 -1.14677446e-02 -1.97492942e-01 -6.31814152e-02 -1.89641729e-01 +4.58934903e-02 -7.39527717e-02 +6.25489606e-03 +9.74212065e-02 +4.28222790e-02 -1.70886312e-02 -6.84699118e-02 +3.62664508e-03 -2.43293732e-01 +7.53636211e-02 +2.18637474e-03 +7.94260018e-03 +1.20553477e-02 +4.69625555e-02 -7.39680678e-02 +1.20350895e-02 -5.92240244e-02 -9.45338607e-02 +1.32055795e-02 +4.95901585e-01 +5.32706976e-02 +1.30143031e-01 +1.52306810e-01 +1.03714474e-01 -7.82069564e-02 -9.34314802e-02 +2.10156292e-01 -1.11007765e-01 -3.25923339e-02 -9.61546600e-02 +9.80176032e-02 +1.24919683e-01 -6.18216619e-02 -3.54970723e-01 +1.21107377e-01 +9.61582139e-02 +2.08287850e-01 -8.55374858e-02 -3.53186913e-02 +1.67286769e-01 -1.21579133e-01 -9.95585248e-02 -6.64161071e-02 +5.80805764e-02 +9.79564488e-02 -6.67052492e-02 +8.46544579e-02 -5.48000075e-02 -1.19263284e-01 +6.72486052e-02 -6.17429018e-02 +6.54567182e-02 -1.15380339e-01 +3.16484571e-02 -1.30128756e-01 +5.21192960e-02 +1.31765082e-01 +9.86392200e-02 +7.28992894e-02 +1.14525422e-01 +7.50167593e-02 +5.57829142e-02 +1.06943898e-01 -3.22848968e-02 +5.76151498e-02 +6.87797591e-02 -8.60352740e-02 +3.53179462e-02 +1.85952592e-03 +1.95047613e-02 -1.39897555e-01 -2.86842048e-01 -1.50613725e-01 +5.74577004e-02 -8.95086825e-02 +3.18951868e-02 -1.54410377e-01 -5.45255661e-01 -1.85994357e-02 +4.06006388e-02 -6.98127002e-02 -8.44404101e-02 -5.12068689e-01 +8.02302584e-02 -6.38386086e-02 -3.17799973e+00 -9.68907475e-02 -1.49423313e+00 -1.01056553e-01 -1.11114578e-02 -3.84892686e-03 +1.61497947e-02 -1.88821243e+02 -7.00813532e-02 -1.81426957e-01 -1.18420132e-01 +4.30807583e-02 +7.75436237e-02 +3.77142429e-02 -1.45320868e+00 +3.72274369e-02 -1.52838886e-01 -5.42618632e-02 +8.18640441e-02 -6.71655089e-02 -9.03147236e-02 -4.41292107e-01 -1.88850626e-01 -5.66746891e-01 -1.29470155e-01 -2.14377210e-01 -2.68097878e+00 -1.39635432e+00 -1.39012672e-02 -1.59264077e-02 -7.32282475e-02 +9.50640242e-04 -8.70562971e-01 +1.01100087e-01 +2.50525046e-02 -2.56731105e+00 -3.76225933e-02 +1.39685478e-02 -3.97639966e+00 -1.29073886e-02 -2.04628482e-02 -1.05430439e-01 -2.11623058e-01 -1.03197724e-01 -3.25263441e-01 -8.55546445e-02 -1.46289957e+00 +4.28964831e-02 -3.91971874e+00 -5.92540316e-02 -9.31706667e-01 -3.46109457e-02 -1.18736187e-02 -2.23544329e-01 -4.11735438e-02 -5.42291394e-03 -9.37114283e-02 -7.52243102e-02 -1.46688902e+00 +4.93028127e-02 -3.31533030e-02 +1.02363760e-02 -3.16471815e-01 -9.84779596e-02 +2.43048668e-02 -1.42012596e+00 -1.45512810e-02 -3.02247219e-02 +1.21708013e-01 -3.58028793e+00 +6.46277424e-03 -1.03929348e-01 +1.00826152e-01 -1.53401896e-01 -1.68910846e-02 -1.74526200e-02 +6.75163120e-02 -6.51845336e-01 +2.85825189e-02 -7.54973829e-01 -1.43791482e-01 -5.68403378e-02 -5.41523039e-01 -8.64082575e-01 +9.36780646e-02 -8.68341923e-01 -6.97943047e-02 +3.78976092e-02 -2.32893571e-01 -2.84201894e-02 -2.15888166e+00 -7.26209946e+01 -1.48891270e-01 +5.33499867e-02 -3.10680410e-03 -3.27440560e-01 -3.43109369e-01 -5.20590365e-01 -1.70337498e-01 -4.56620961e-01 -2.04850156e-02 +5.26366115e-01 -9.26868543e-02 -9.89221334e-02 -5.71060777e-02 +1.00431487e-01 +5.97498789e-02 -3.19005339e-03 -1.28355831e-01 -1.15970276e-01 +8.93075168e-02 -2.80779511e-01 -2.72740662e-01 -2.61833072e-02 -1.34837461e+00 +9.64337867e-03 -1.50018597e+00 -8.84403139e-02 -4.81497571e-02 +6.06518462e-02 -8.53135347e-01 -6.25554994e-02 -1.94049239e+00 -1.53119671e+00 -3.62891376e-01 -1.93306416e-01 -8.20064843e-02 +3.42649892e-02 +2.37034913e-02 -1.69412829e-02 -2.37593934e-01 -1.17351180e-02 +3.38938013e-02 +1.57633871e-02 -1.96795607e+00 +6.40059486e-02 -2.31830508e-01 -8.03237820e+00 -1.02932088e-01 -1.02928489e-01 -1.04029000e-01 -3.30847532e-01 -4.68323499e-01 +9.83517617e-02 -1.12257907e-02 -2.57032335e-01 +1.15748391e-01 -4.64861281e-02 -4.24799658e-02 -1.96712065e+00 -8.68434012e-02 -7.70747244e-01 +5.10424227e-02 +5.59192188e-02 -3.31469774e-01 -6.21546470e-02 -1.59518689e-01 -1.32189980e-02 -3.80842946e-02 +8.24459344e-02 -7.21256062e-02 -5.29369533e-01 +2.10372042e-02 +3.30342762e-02 -1.23350084e+00 -9.05931219e-02 -3.30544055e-01 -5.52629352e-01 -7.40532100e-01 +2.70173818e-01 +9.77734476e-02 -1.21472448e-01 -2.14636374e+00 -8.60754102e-02 -7.17693195e-02 +8.20444301e-02 +2.02727374e-02 +8.87635127e-02 -1.10606529e-01 +4.46640588e-02 -9.69497263e-02 -1.73842937e-01 +2.14299988e-02 +6.63658008e-02 -1.20948693e-02 +4.53790165e-02 -1.48174772e-02 -7.79462606e-02 +3.02305352e-02 -5.53242415e-02 -1.23280548e-01 +1.05089694e-01 -7.47190714e-02 -6.70633093e-02 +5.95453531e-02 -9.06108096e-02 +4.80996296e-02 +1.74274877e-01 +1.22739747e-03 -7.37139061e-02 +5.95091209e-02 +1.66942272e-02 +1.75734982e-01 +5.02278060e-02 +2.91219745e-02 +4.32512797e-02 +4.18206751e-02 -6.56098798e-02 +8.94542262e-02 +1.53689817e-01 -7.09399879e-02 -4.49050590e-02 -5.20891026e-02 -5.27413934e-02 +1.74208939e-01 -1.36747546e-02 -1.97176933e-01 +1.90986879e-02 -5.40794194e-01 +5.19953296e-02 +1.29915942e-02 +3.01594194e-02 -7.70575404e-01 -1.03455253e-01 -6.56756535e-02 +1.65662065e-01 +1.66289985e-01 +3.54617797e-02 +9.99727994e-02 -2.05450475e-01 -2.20561791e-02 -4.63439189e-02 -1.23178460e-01 -8.00130367e-02 +6.00445718e-02 +3.43014933e-02 +2.95626760e-01 +8.65350366e-02 +4.64251079e-02 -8.03304017e-02 -4.44917753e-02 -9.65684429e-02 -1.03615283e-03 -3.92644368e-02 +1.28174588e-01 +1.03172795e-04 +1.36898503e-01 -5.66319488e-02 +1.03394173e-01 +2.32197363e-02 -1.87958851e-01 -1.28345490e-01 -1.19435973e-01 +1.25602841e-01 +3.17172743e-02 -4.62129451e-02 -9.33312401e-02 -2.73816716e-02 +8.86535086e-03 -1.06528446e-01 +4.93634567e-02 -2.92254332e-02 +3.75195406e-02 +5.75638702e-03 +1.05684541e-01 -1.45612359e-01 -7.79485330e-02 -5.69711998e-03 +1.04562372e-01 +8.67561065e-03 -1.21195145e-01 +1.52172782e-02 +3.74455377e-02 +7.36078173e-02 -1.05108686e-01 +4.23746817e-02 -8.22717622e-02 +3.07935983e-01 -6.00740686e-02 +2.65527759e-02 -1.66396368e+00 +7.10981060e-03 -4.11764625e-03 -3.17928284e-01 +2.37654126e-03 -1.59088060e-01 +7.32921436e-02 -9.90979522e-02 +1.21346191e-01 +2.41392571e-02 +2.74390221e-01 -1.79927610e-03 +6.13079034e-02 +6.21809401e-02 +1.20977603e-01 -1.00195602e-01 +2.41414309e-01 +9.74400155e-03 +1.33129001e-01 -5.39449900e-02 -8.01617578e-02 -2.22549308e-02 +2.26218347e-02 +4.12509516e-02 -2.99161244e-02 +1.38881862e-01 +2.65674503e-03 +3.65851112e-02 +5.96672483e-02 -5.70106022e-02 -1.50317820e-02 -1.13050170e-01 -6.66817009e-01 -7.86678493e-02 -2.68384457e-01 -8.80884565e-03 +9.19561014e-02 -5.45554189e-03 +9.48811620e-02 +3.41261216e-02 +1.65532127e-01 -1.95415076e-02 +2.01179326e-01 -1.03960589e-01 +1.05277896e-01 +5.32381199e-02 -1.18927121e-01 -6.70466125e-02 -3.10577527e-02 +2.32796557e-02 +7.66547695e-02 -1.34401292e-01 -4.50948663e-02 +7.90464357e-02 +1.69124439e-01 -3.84993339e-03 -7.18666792e-01 -6.10019751e-02 +1.06768506e-02 -6.00705072e-02 -1.01504676e-01 -1.76460482e-02 -5.84093370e-02 -1.08489050e-02 +2.44506076e-02 -3.12945731e-02 +3.89541984e-01 +2.83026230e-02 -4.82001379e-02 +2.83116430e-01 -6.41516000e-02 -1.35800123e-01 -6.30143061e-02 -4.79853116e-02 +1.89526841e-01 +2.76677255e-02 +1.98913768e-01 -3.23643690e-05 +3.86969335e-02 -8.17721635e-02 -1.08950753e-02 -2.69347548e+00 -3.58531438e-02 -1.54111702e-02 +5.70435729e-03 +7.27801621e-02 +9.26899835e-02 +1.17719822e-01 -8.77506509e-02 -2.03634918e-01 -8.85031000e-02 -1.08861819e-01 +1.60238311e-01 -2.24754103e-02 -1.11662015e-01 -3.53884920e-02 -7.97476736e-04 -2.95351278e-02 +7.15817437e-02 +3.65361422e-02 -6.60235286e-02 -8.21475834e-02 -8.65484774e-02 +1.39806837e-01 +7.89529607e-02 +1.99817074e-03 +1.00312874e-01 -5.14854603e-02 -1.97938662e-02 -7.32448101e-02 +8.55185091e-02 -1.37077183e-01 -1.52751049e-02 -8.53305086e-02 -2.25652363e-02 -2.29329281e-02 +9.47726145e-02 +5.43765388e-02 -3.79081033e-02 +2.35834077e-01 -1.30020198e-03 -7.37326741e-02 -1.56863749e-01 +7.64485821e-03 +1.01282552e-01 +8.22540000e-03 -7.03611374e-02 -5.37491078e-03 -7.20438883e-02 -1.35506660e-01 -4.29252982e-02 +2.00659167e-02 -3.12336702e-02 -1.29631028e-01 -2.10345224e-01 +2.75739208e-02 -6.46928501e+00 +3.07587925e-02 -5.51934361e-01 -6.91965669e-02 -4.59957458e-02 -7.31210783e-02 -8.04794312e-01 -6.04566708e-02 -2.09186003e-01 -1.16207361e-01 -2.72422671e-01 +2.14878261e-01 +6.10045530e-02 -6.77510071e+00 -1.64852384e-03 +7.70921111e-02 -8.57398212e-02 -8.07927474e-02 -1.02634095e-01 -4.45234030e-01 +1.42133906e-01 -5.31355068e-02 +2.61036251e-02 -1.91965532e-02 -8.82706121e-02 -8.98275003e-02 -1.49059391e+00 -8.79059061e-02 -1.84826091e-01 +9.60164145e-02 -1.77122056e-01 -9.06903297e-02 -1.19020946e-01 +3.90730910e-02 -2.99623680e+00 -8.65048990e-02 -3.86314124e-01 +1.65363820e-03 -9.98169091e-03 -5.83148375e-02 -6.41182661e+00 +6.16630167e-02 +1.62187815e-01 +8.28905627e-02 -5.70208244e-02 +3.64512093e-02 -6.67409822e-02 -1.13719568e-01 +3.87470387e-02 +3.86905164e-01 +4.05566432e-02 -1.10081457e-01 -5.01361966e-01 -3.35475989e-02 -1.74986571e-02 +5.29997945e-02 -5.24297655e-02 -1.05968401e-01 -6.86321855e-02 -7.13539571e-02 +3.89072858e-02 -1.41214803e-02 +1.12186614e-02 -3.35210375e-02 -1.98877716e+00 +1.51017278e-01 -2.23510194e+00 -1.26509988e+00 +8.86135176e-02 +2.88581252e-01 +2.35252734e-02 +7.12582394e-02 +4.35373008e-01 +4.32305299e-02 -1.47068813e-01 +1.17857021e-03 -8.44924897e-02 -1.24700248e+00 -2.11997688e-01 -1.47857115e-01 -2.49169379e-01 -1.13171846e-01 -3.42199236e-01 -1.82900876e-02 -1.10293753e-01 +7.11249337e-02 -7.62193874e-02 +4.68714684e-02 +9.10181254e-02 -6.37233332e-02 -7.74909044e-04 -1.26814574e-01 -8.75021070e-02 +1.00322533e-02 -3.20881642e-02 +4.13072808e-03 -4.74502742e-01 +7.62526020e-02 +1.55523404e-01 +9.55593437e-02 +5.58984019e-02 +6.31902590e-02 -2.75413934e-02 -8.67221057e-02 +1.88317965e-03 +4.19717729e-02 -1.17846273e-01 -3.05402666e-01 +1.71251930e-02 -7.84750357e-02 +9.76641998e-02 -3.32099125e-02 +7.52157643e-02 -1.09101437e-01 -1.76070198e-01 -1.27713650e-01 -5.40828146e-02 -2.66241599e-02 +1.78157896e-01 -4.07253839e-02 -5.48819828e+00 -8.02188292e-02 -8.43175575e-02 -1.01408891e-01 +6.60808310e-02 +5.23917936e-02 -7.28678778e-02 -1.02004409e-01 -3.08564845e-02 -7.03030154e-02 -6.63457438e-02 +7.29342178e-02 -1.43911541e-01 -2.00117350e-01 -2.67271660e-02 -9.06277820e-02 -4.65323869e-03 +6.21156245e-02 +5.58029953e-03 -7.88381770e-02 +5.62871881e-02 +6.23283647e-02 -3.61522809e-02 -5.04096039e-02 +7.40838200e-02 -3.74213830e-02 -7.58679509e-02 +1.57612115e-01 +1.13095239e-01 +5.75616062e-02 +1.07593827e-01 -1.57126322e-01 -4.89406139e-02 +2.43139610e-01 +2.31265798e-02 -1.09543338e-01 -2.29108725e-02 -8.84867366e-03 -5.53665198e-02 -9.94687248e-03 -3.31537835e-02 +4.48251925e-02 -4.42304730e-01 -6.21369556e-02 -7.76485400e-03 -7.13247657e-02 -4.56294566e-02 -6.35503531e-02 -6.61438107e-02 +6.49773553e-02 -8.83132890e-02 +1.18055321e-01 +2.04718877e-02 +1.99887920e-02 -7.47710979e-03 -3.76863927e-02 -4.34605442e-02 +7.23254532e-02 -1.26458993e-02 -4.76428904e-02 -1.29145822e-02 +1.86168015e-01 +4.43280227e-02 -2.59243727e-01 -2.87000481e-02 -6.01153448e-02 -1.22716688e-01 +3.97419818e-02 +8.21821690e-02 +4.15649265e-02 -7.81554133e-02 +7.46560562e-03 +7.92233571e-02 -2.08288580e-01 -4.49505784e-02 -6.80862963e-02 -5.99058717e-02 +1.31452382e-01 -8.88745114e-02 -7.32935071e-02 +1.93984464e-01 +8.74977186e-02 -1.13436334e-01 +1.12380780e-01 -1.90529287e-01 +4.47478853e-02 +1.98691003e-02 +4.02059183e-02 -3.99899445e-02 +3.06641906e-02 +1.08297423e-01 +9.62979048e-02 +7.54090920e-02 +1.79993808e-01 -2.56364094e-03 -3.15403454e-02 +1.82413999e-02 +4.51097079e-02 -1.16047757e-02 -2.70099528e-02 -4.43956465e-01 +1.06534965e-01 +6.45359010e-02 +9.41275507e-02 +8.10734630e-02 +1.00844532e-01 -1.87191337e-01 +8.14872533e-02 -4.37138677e-02 +7.46248066e-02 -1.16740629e-01 +5.68602942e-02 +6.63390234e-02 +6.97838292e-02 +2.47127190e-02 -6.50669774e-03 +8.86695310e-02 -1.81230307e-01 +2.90901691e-01 +7.73587748e-02 +1.45070508e-01 -7.68967196e-02 -6.52189702e-02 +6.03706539e-02 +1.12016901e-01 -9.09811035e-02 -1.00237401e-02 -6.36559725e-02 +6.76043928e-02 +2.17254221e-01 +8.50301236e-02 -1.01461597e-02 +3.47151726e-01 +7.95887858e-02 +1.33963227e-01 -7.93895572e-02 +9.96955298e-03 +3.59987430e-02 -1.03032492e-01 +1.04651101e-01 +1.07628658e-01 +2.57057976e-02 -9.68184322e-02 +9.46701616e-02 +4.03730959e-01 -6.57557845e-02 -1.35773256e-01 -3.08154553e-01 +2.87783016e-02 -4.91110981e-02 -7.32636228e-02 +1.06623255e-01 -2.15877086e-01 -1.80654563e-02 -1.46044508e-01 -8.37128013e-02 +6.77234493e-03 +3.52213681e-01 -4.96760681e-02 +1.50973663e-01 +1.21943474e-01 -6.25795592e-03 -1.12873137e-01 +4.55362462e-02 -1.71649214e-02 +9.30645317e-02 -4.89850007e-02 +9.29569975e-02 -4.56163287e-02 -4.62360270e-02 +2.49564145e-02 -2.50314735e-02 +6.90775439e-02 -5.35595324e-03 +8.28736946e-02 +2.60268301e-02 -2.58392513e-01 +3.14975828e-02 -2.30684757e-01 +8.80301893e-02 -6.32487386e-02 -1.63066629e-02 -9.14816558e-02 +9.68049988e-02 +3.01550832e-02 -3.00300736e-02 +4.82128598e-02 -3.51062752e-02 +2.11686734e-02 +1.30119577e-01 -6.31712377e-02 -4.26353002e-03 +7.95285180e-02 +4.08802042e-03 +3.16992849e-02 +9.83240083e-03 -7.50477018e-04 +1.11814989e-02 +2.30070241e-02 -6.78643510e-02 +1.50635922e+00 +2.46560592e-02 +2.57635745e-03 -9.36560333e-02 +4.86252978e-02 +7.25100935e-02 -1.59500688e-01 +9.54023004e-02 -5.31609682e-03 +8.23621303e-02 +2.40161285e-01 -6.43537715e-02 -2.30311751e-01 -7.35861957e-02 +1.97034478e-02 +1.24701805e-01 +8.50559864e-03 -3.57716791e-02 -7.37231076e-02 +5.15305512e-02 +5.29625602e-02 -1.34710437e-02 +1.84083041e-02 -2.60514691e-02 +2.23299004e-02 -2.30269909e-01 +1.14928801e-02 -3.06581762e-02 -3.16030532e-01 -1.83619350e-01 -6.81917667e-02 -3.66009474e-02 -4.27422971e-02 -2.61667579e-01 -9.62637216e-02 +1.47936821e-01 -1.67502955e-01 -7.07692355e-02 +9.17358324e-02 +2.59731933e-02 +2.67146956e-02 +5.07595353e-02 -2.85455794e-03 +1.08728267e-01 +7.13604614e-02 -1.49540856e-01 +1.52933155e-03 +8.49598125e-02 -4.85494249e-02 -9.41734836e-02 -2.04388369e-02 +2.55365428e-02 -4.93439771e-02 -1.37093645e-02 -9.14712697e-02 -7.06811697e-05 -3.77062820e-02 +1.02705695e-02 +6.60108924e-02 -1.00572273e-01 -5.76316901e-02 +2.01140255e-01 +6.80160969e-02 -1.63502157e-01 +1.09307477e-02 +9.23918709e-02 +2.48896047e-01 -1.14011399e-01 -2.13497151e-02 +8.63213018e-02 -5.19679636e-02 -9.62182879e-02 -4.12217081e-02 +5.92934191e-02 +6.65671900e-02 -2.29284465e-02 +9.16000530e-02 -5.34282401e-02 +3.13231163e-02 +1.01641320e-01 -1.81744292e-01 -1.99734997e-02 -5.77621579e-01 +9.68356952e-02 +2.75084563e-02 -1.51698858e-01 -6.14529371e-01 +1.10044414e-02 -5.15801944e-02 +1.13107033e-01 -1.91018581e-02 +1.02286674e-02 +2.58096736e-02 -1.54451028e-01 +8.27910611e-04 -9.67143551e-02 -2.83797886e-02 -9.70188901e-02 -4.71434705e-02 -6.60331175e-02 +2.16226816e-01 +2.52793226e-02 +1.51197284e-01 +7.96004757e-02 +1.34209068e-02 -1.75423231e-02 -2.77706757e-02 +2.03201473e-02 +7.67377764e-02 -5.69135183e-03 +2.45455697e-01 -1.29995510e-01 -4.68361825e-02 -8.18770006e-02 -2.07468241e-01 -4.06582095e-02 -3.17349657e-02 -1.66663378e-02 -1.25109866e-01 -1.10241093e-01 -5.57406172e-02 -1.28329275e-02 +1.85960576e-01 +1.70626957e-02 +2.19793711e-03 -3.15466896e-02 -9.38098207e-02 +3.77520658e-02 -9.52077955e-02 -3.03867459e-01 -1.10597491e-01 +6.01394437e-02 +1.27950102e-01 +3.85178924e-02 -1.01130582e-01 -7.28533044e-02 -9.45819542e-03 +5.44144846e-02 +3.97670567e-02 -9.11401138e-02 +2.35454296e-03 +2.85718858e-01 -2.02125590e-02 -1.13434389e-01 -1.70506585e+00 +3.66388820e-02 +4.00584824e-02 -3.11312079e-01 -1.06071129e-01 -8.98496956e-02 +3.38993855e-02 +8.34332705e-02 +1.18627235e-01 -1.11699350e-01 +2.68877029e-01 -7.42510632e-02 -2.98102722e-02 -7.27990940e-02 +1.49265975e-01 -1.90886304e-01 +9.10797119e-02 -6.00723177e-02 +1.91804379e-01 -1.12488315e-01 -8.36239308e-02 -7.08592609e-02 +2.35447548e-02 -6.19404018e-02 -6.55294070e-03 +3.31767909e-02 +5.68423197e-02 +3.61401401e-02 +3.07417251e-02 -8.37536082e-02 -9.01851505e-02 -5.82274795e-02 -8.60457420e-01 +8.82695913e-02 -2.17546806e-01 +1.82096462e-03 +1.21705420e-01 -1.13989078e-01 -3.32372673e-02 +5.18576708e-03 +1.03877336e-01 +9.36309397e-02 +1.72480643e-01 +7.90047124e-02 +1.12554934e-02 -2.45426577e-02 -5.76182045e-02 -1.44566536e-01 +6.78329915e-02 -6.61421269e-02 -5.42394351e-04 -5.49191013e-02 +7.51378834e-02 +1.55195622e-02 +1.75410271e-01 -1.08305722e-01 -6.40391886e-01 -7.30925724e-02 -1.44233495e-01 -7.54706711e-02 -9.68636479e-03 +1.95548255e-02 +2.65697483e-02 +3.69321592e-02 -2.74842400e-02 -1.11472242e-01 +3.31528127e-01 -9.36961472e-02 -3.22685093e-02 +2.14721367e-01 +6.66858908e-03 +4.30355258e-02 +8.27869624e-02 -1.53232934e-02 +2.04991609e-01 -3.68754677e-02 +1.05265036e-01 -8.11093673e-02 +1.79558713e-03 +1.13969119e-02 -1.26095060e-02 -2.57227516e+00 -1.14597291e-01 +4.33828160e-02 -1.34627178e-01 +4.76181991e-02 +2.83455830e-02 +1.89436004e-01 -1.23359859e-01 -1.72401264e-01 -3.86847369e-02 -2.32654084e-02 +6.28484264e-02 +5.81094660e-02 +3.56671512e-02 -1.28315762e-02 +8.60128086e-03 -3.21247466e-02 +2.66952723e-01 -8.91938582e-02 +9.60932001e-02 -3.86279598e-02 +1.11617953e-01 +1.50663704e-01 -4.96495422e-03 +9.02471691e-02 -9.33236405e-02 -3.25339511e-02 -9.13806334e-02 +1.10879637e-01 +8.21498483e-02 -1.43593177e-01 +1.66466579e-01 -2.34828796e-02 -8.35653208e-03 +2.52760388e-02 +3.12468968e-02 +2.88154542e-01 +6.87416941e-02 +3.38538364e-02 +1.45185133e-02 -4.84395167e-03 +2.22740710e-01 -1.96619034e-02 +1.21387374e-02 -6.40167072e-02 -1.38863400e-02 +2.06458177e-02 -6.21617865e-03 -1.45326212e-01 -3.77216972e-02 +2.13561603e-03 -7.64759183e-02 -6.98699504e-02 -3.08932122e-02 -5.12924790e-02 -2.15780273e-01 +3.19094174e-02 -6.23110116e-01 -6.59025926e-03 -1.90805554e-01 +9.89979133e-02 -1.95955515e-01 +5.78073934e-02 -9.03128758e-02 -6.28643110e-02 -6.16542883e-02 +1.63720798e+00 +7.76087642e-02 -1.09825648e-01 +1.33893937e-02 -5.63096032e-02 +2.98765093e-01 +7.91226253e-02 +7.38812685e-02 -5.83893806e-02 -3.97360146e-01 -6.11552894e-02 +3.23621601e-01 -3.74196470e-02 +3.38294706e-03 -4.44214940e-02 -2.03982964e-01 -4.39349040e-02 -2.33039737e-01 +9.36988220e-02 +1.72006324e-01 +5.83172366e-02 +1.03963062e-01 -5.34381205e-03 -2.72496223e-01 +9.59960744e-02 -1.05175950e-01 -1.55263156e-01 +8.68482530e-01 +1.30201709e-02 -1.07350208e-01 +7.82613531e-02 +9.69778299e-01 +5.40008023e-02 -6.93815351e-02 -4.71951216e-02 +4.51288521e-02 +2.78308131e-02 +4.35983762e-02 +2.18504810e+00 -3.00045069e-02 +5.64324372e-02 -1.33209467e-01 +5.78482270e-01 +9.95495170e-02 +6.87933294e-03 -4.52982858e-02 +8.47825594e-03 +1.02575846e-01 +3.07762660e-02 +1.10229161e-02 +7.65340924e-02 -3.72764990e-02 +1.24119505e-01 -1.59802854e-01 +2.33417954e-02 -2.63615429e-01 -2.60469049e-01 +1.84873194e-02 +1.00508845e+00 +3.71704847e-02 -2.25886935e-03 +2.19776201e+00 -6.42622560e-02 +2.85949111e-01 +1.14540383e-01 +1.70112059e-01 +6.58651963e-02 -2.21169963e-01 +2.69336820e-01 +1.60570860e-01 +6.65043890e-02 -9.57840383e-02 +2.22688377e-01 -6.74906150e-02 +3.28128450e-02 -3.27193178e-02 -8.00388306e-02 -6.92995091e-04 -3.21134441e-02 -3.76113057e-02 +5.10367006e-02 +8.53658170e-02 +7.96253532e-02 +6.92705661e-02 -4.39144932e-02 -2.07561776e-01 +2.37796064e-02 -1.30342856e-01 -6.99778944e-02 -2.70262361e-02 +9.51170363e-03 +6.51129289e-03 +2.96318699e-02 +6.62256926e-02 +5.44499047e-02 +7.48318657e-02 -1.05479307e-01 +9.54441950e-02 -1.26637993e-02 -7.88508654e-02 +1.52845699e-02 -5.25051504e-02 +1.14915416e-01 -8.25782120e-03 +1.55496839e-02 +7.30174333e-02 +1.17619276e-01 +5.91572523e-01 +9.24342647e-02 +1.14771850e-01 +1.36028752e-01 -2.61672046e-02 +4.05320227e-02 +7.90611953e-02 +2.54922509e-01 -2.95084447e-01 -2.67286524e-02 +4.77384888e-02 +5.13155796e-02 +1.41605353e-02 +5.66932000e-02 -2.43034676e-01 +1.99100941e-01 +8.70001689e-02 +1.77409559e-01 +4.67592031e-02 +6.76599331e-03 +1.50073469e-01 -7.14957668e-03 -9.77609754e-02 -9.71014872e-02 +1.20095806e-02 +7.49980882e-02 +3.46155651e-02 +5.27909445e-03 +9.92128905e-03 -1.16169594e-01 -1.02176033e-01 +4.21736166e-02 -1.33757219e-01 -1.63608715e-01 -6.74423650e-02 -2.43080571e-01 +7.47434199e-02 +1.31257519e-01 +1.55597910e-01 -9.61210728e-02 +1.86964329e-02 -2.62528230e-02 -2.76446324e-02 +9.26765874e-02 -1.31746262e-01 -2.77818758e-02 +1.24499658e-02 -2.73589581e-01 +6.05227649e-02 +3.53183448e-02 +1.01276517e-01 -1.22257054e-01 -3.13207150e-01 -2.09999066e-02 +5.72841838e-02 +4.79694270e-02 -8.46970156e-02 -2.35253692e-01 -4.85280484e-01 -5.79427332e-02 -1.30785495e-01 +1.68102849e-02 -8.19394067e-02 -4.34020907e-01 -2.14055087e-02 -7.25995898e-02 -3.29734206e+00 -6.55287281e-02 -1.58025527e+00 -1.77534204e-02 -2.96232570e-02 -7.71427453e-02 +3.42429131e-02 -1.88962555e+02 -9.29548293e-02 -3.34217399e-01 -4.25940119e-02 -9.95667577e-02 +4.94441353e-02 -1.69319659e-02 -1.56826484e+00 -8.98061395e-02 -4.81139719e-02 +1.08697135e-02 -2.95289252e-02 -9.95425880e-02 -2.65497833e-01 -6.30117595e-01 -3.27063888e-01 -4.72051084e-01 -1.39709294e-01 -2.05260471e-01 -2.86151791e+00 -1.48807025e+00 -7.09588677e-02 -1.40517220e-01 -6.56093284e-02 -3.17850821e-02 -9.67608690e-01 +9.28484872e-02 +3.07445675e-02 -2.56173158e+00 -1.09379850e-01 +4.33533173e-03 -3.93111467e+00 +4.49860143e-03 +8.59838650e-02 +7.97999725e-02 -2.56693304e-01 -4.77409251e-02 -2.52031565e-01 +8.08960944e-02 -1.47259319e+00 -1.32246658e-01 -3.90840030e+00 -1.29973013e-02 -8.80610704e-01 +1.99148357e-02 -1.60298850e-02 -2.11720586e-01 +4.36089151e-02 -1.63318276e-01 +1.32242730e-02 -7.92529657e-02 -1.47431445e+00 -6.16451427e-02 -4.75692153e-02 +9.51567069e-02 -2.81518221e-01 -9.69478413e-02 +7.43950978e-02 -1.51462007e+00 +4.63014990e-02 -1.09157830e-01 +1.66920096e-01 -3.75720286e+00 +2.29220884e-03 -3.66692692e-02 -7.86412358e-02 -1.21630616e-01 -1.07064150e-01 +7.44229779e-02 +4.09744903e-02 -6.67539299e-01 -6.35525659e-02 -6.63878262e-01 -5.12395762e-02 -1.97030827e-01 -4.51508760e-01 -8.10114980e-01 +8.02457109e-02 -7.27860749e-01 +2.50652414e-02 +7.44763808e-03 -1.98353693e-01 +1.45516247e-02 -2.23422384e+00 -7.26799011e+01 -2.17575520e-01 +9.20700580e-02 +1.68099571e-02 -4.58839566e-01 -4.35218394e-01 -6.89947188e-01 -1.21590503e-01 -5.25326371e-01 -6.88834712e-02 +4.45861489e-01 +2.93533839e-02 -5.76812327e-02 +1.49106923e-02 -2.79487949e-02 +4.78728153e-02 +2.74040122e-02 -3.00004221e-02 -1.49405137e-01 -1.10848146e-02 -3.04055780e-01 -4.64740038e-01 -1.72267109e-02 -1.28889513e+00 +3.98518033e-02 -1.56964111e+00 +1.72129218e-02 +8.67080539e-02 +2.66454723e-02 -8.67269933e-01 -9.78791937e-02 -1.92543888e+00 -1.64602602e+00 -2.35589802e-01 -1.95290685e-01 +2.93458290e-02 -1.47673830e-01 -9.88832638e-02 -6.62056357e-02 -2.20874906e-01 -6.03258498e-02 -7.85618182e-03 -3.52689922e-02 -1.95667028e+00 -9.20243040e-02 -2.32474223e-01 -8.02271938e+00 -8.48653615e-02 -1.30451173e-02 -4.22595032e-02 -1.43945515e-01 -3.84672940e-01 -1.09464139e-01 -3.58942561e-02 -2.87262201e-01 +1.23538747e-01 -1.54868364e-01 +1.65370933e-03 -1.98123956e+00 -1.02874324e-01 -7.10069776e-01 +3.91143858e-02 +8.93567577e-02 -2.15915412e-01 -8.33664909e-02 -1.65842324e-01 -7.83475265e-02 -8.81990045e-02 +9.53540727e-02 -7.14984760e-02 -4.27158237e-01 -1.00868315e-01 +6.07803389e-02 -1.26192689e+00 +8.62902924e-02 -4.08789635e-01 -5.75230062e-01 -8.48275840e-01 +2.52097189e-01 +5.01172841e-02 -1.93180963e-02 -2.11789346e+00 +5.33961989e-02 -1.06013194e-01 -1.12443782e-01 +1.07505955e-02 -5.09630777e-02 -8.82115141e-02 -1.26887888e-01 -3.53286378e-02 -1.65004224e-01 +6.35487586e-02 +8.65293667e-02 +3.28744426e-02 -1.01611078e-01 -9.93332416e-02 -1.25894785e-01 +9.37096681e-03 -8.74020904e-02 -1.03697985e-01 -6.09569363e-02 -6.92290254e-03 +5.03075123e-02 -1.71460100e-02 -7.46506825e-02 -4.67539318e-02 +1.91692397e-01 -2.02411730e-02 -1.58759832e-01 +4.28193547e-02 -1.24426093e-02 +1.91143259e-01 +9.99032636e-04 +8.34493956e-04 +7.02312291e-02 -3.25886123e-02 -5.77039421e-02 -4.55130171e-03 +5.06363716e-03 -6.89086542e-02 +9.77028757e-02 +6.25591278e-02 +2.35569678e-04 +2.61641480e-02 +9.24586430e-02 -1.83690265e-01 -7.86558688e-02 -6.26010478e-01 -4.42138314e-02 -5.34745231e-02 -1.11804307e-01 -7.74208128e-01 -1.12936534e-01 +4.74533848e-02 -1.33840563e-02 +1.43211514e-01 +1.17803805e-01 +5.94657809e-02 -1.89065546e-01 -7.93595761e-02 -1.20187171e-01 -2.87619699e-02 -7.53545091e-02 +7.33457655e-02 -1.44894551e-02 +3.24923754e-01 -7.05354512e-02 +4.13370654e-02 +9.55164507e-02 +2.70519909e-02 +5.56399785e-02 +4.78695482e-02 +9.66228098e-02 +2.82077581e-01 +1.86393391e-02 +1.57399565e-01 -9.85547304e-02 -4.78398986e-02 -9.13150012e-02 -1.41847938e-01 +5.51559292e-02 -1.60953224e-01 -6.40744790e-02 -1.23545066e-01 -2.17074510e-02 -6.28827959e-02 +4.87953201e-02 +1.34504706e-01 +2.06172392e-02 -2.26079077e-02 +5.98325133e-02 -9.04644132e-02 -1.06397271e-01 +1.69717688e-02 -3.00215393e-01 -1.18369006e-01 +9.87028927e-02 +7.62554258e-02 -8.09683725e-02 -4.46599312e-02 +4.17560525e-02 -9.54931229e-02 -4.51411828e-02 -3.46279703e-02 -4.01364360e-03 +2.32717171e-02 +3.14209312e-01 +7.43795484e-02 -1.01798154e-01 -1.66447604e+00 +2.41310466e-02 -2.91467495e-02 -1.94045261e-01 +1.95863694e-02 -1.82468683e-01 -5.47694452e-02 -9.25849453e-02 +4.69957180e-02 +3.29043902e-02 +2.76441097e-01 -2.43364424e-02 -5.47621548e-02 +4.79295030e-02 +3.87354568e-02 -1.64148524e-01 +1.71638012e-01 +7.07026629e-04 +9.04862359e-02 +7.82343373e-03 +9.11410078e-02 -5.83157763e-02 -2.25720219e-02 +9.08746123e-02 +1.68558173e-02 +1.18931882e-01 +4.57261279e-02 -7.18164891e-02 +3.16974111e-02 -6.44400045e-02 -8.41789916e-02 -1.23686761e-01 -7.37461090e-01 -1.38457296e-02 -1.84712738e-01 +6.01200722e-02 +5.10984845e-02 +8.05512536e-03 +6.81015700e-02 -1.82469003e-02 +1.07628472e-01 +8.84055197e-02 +2.44952410e-01 +6.33656457e-02 -3.55045460e-02 -5.59017388e-03 -1.44761922e-02 -8.61294419e-02 +1.61115788e-02 -5.24412468e-02 -7.40319304e-03 -7.70447627e-02 -8.47706795e-02 -4.10374776e-02 +2.22225830e-01 +8.03896412e-02 -7.57277429e-01 -5.36544882e-02 +6.36273355e-04 -1.71060394e-02 -9.60271209e-02 -9.11666825e-03 -3.00045107e-02 -1.01604804e-01 -4.42008227e-02 -8.89959037e-02 +3.13382089e-01 -8.21667016e-02 -2.14092117e-02 +2.67956764e-01 +4.50405441e-02 -6.55787885e-02 +8.52838904e-02 -2.82141590e-03 +7.37581775e-02 +7.27091497e-03 +5.84868975e-02 -1.06501468e-01 +5.07455394e-02 -8.57416317e-02 +2.42519490e-02 -2.60962296e+00 -3.79279032e-02 -2.79026069e-02 -3.68678719e-02 -6.96737841e-02 -8.28119554e-03 +5.04003465e-02 +2.89437175e-02 -5.24886511e-02 -7.65149817e-02 -1.23961475e-02 +2.47384429e-01 -5.25936186e-02 -7.09557161e-02 +6.87617436e-02 -1.15976939e-02 +9.47740525e-02 +1.34506866e-01 -4.92795780e-02 +7.41528049e-02 -1.83170944e-01 -3.43593024e-02 +2.51256168e-01 -4.45820838e-02 -2.01583207e-02 +6.01204634e-02 +2.10031960e-02 +7.22291097e-02 -3.28340605e-02 -1.78233515e-02 -7.78668839e-03 -1.03658540e-02 -2.42038909e-02 +4.09336723e-02 +1.13712819e-02 -6.51364326e-02 -2.54423805e-02 +7.12527782e-02 +2.04648629e-01 -1.36600241e-01 -5.67581058e-02 +1.54836532e-02 -7.29539171e-02 -8.53526220e-02 -8.03158432e-03 +7.18175098e-02 -1.46559477e-01 -1.06225222e-01 -1.22229509e-01 -3.20055634e-02 -1.12171017e-01 +8.24963767e-03 -1.48116082e-01 -2.82241762e-01 +1.09300734e-02 -6.53966141e+00 +3.92305739e-02 -5.47200620e-01 -2.48945281e-02 -2.85429787e-02 -1.28577515e-01 -9.14803684e-01 -5.98188229e-02 -5.41056283e-02 -4.93314937e-02 -3.87458682e-01 +1.52846038e-01 +1.07469149e-02 -6.72318888e+00 -1.40318885e-01 +6.95161000e-02 -1.69485077e-01 +3.79926488e-02 +6.21051006e-02 -5.47232687e-01 +9.75571200e-02 -9.23639163e-02 -1.03096748e-02 -1.03290513e-01 +7.59282208e-04 -7.53668090e-03 -1.37502873e+00 -8.09946060e-02 -2.98217326e-01 -7.10050091e-02 -8.16804469e-02 +6.58361614e-02 -1.78845838e-01 -5.29060438e-02 -3.09000707e+00 +4.11525071e-02 -4.89136755e-01 -9.96395499e-02 +1.64492473e-01 +3.51316743e-02 -6.46131897e+00 +8.86619911e-02 +9.34293568e-02 +6.94131702e-02 +6.27468666e-03 -6.63196445e-02 -3.30384709e-02 -7.05261976e-02 -6.81547150e-02 +4.46280748e-01 -2.23779157e-02 +3.78802489e-03 -4.58428741e-01 -5.63200712e-02 -9.68481451e-02 +8.98224041e-02 -3.40987816e-02 +8.42254609e-03 +7.88349509e-02 +2.03778297e-02 +1.97466910e-02 -1.58433124e-01 +2.06982344e-02 -8.12411904e-02 -1.89468956e+00 +1.45037919e-01 -2.34292197e+00 -1.31234026e+00 -7.87915476e-03 +2.76838452e-01 +9.26067531e-02 -3.82300615e-02 +2.49305010e-01 -9.14210752e-02 -2.00299382e-01 +8.69480800e-03 +8.40881765e-02 -1.29298890e+00 -1.45504549e-01 -7.03296065e-02 -2.26930663e-01 -1.43200099e-01 -3.65979642e-01 -5.14135249e-02 -2.90880371e-02 +1.27284467e-01 +7.11354017e-02 +6.88098371e-02 +3.42728384e-02 -1.94717832e-02 +7.89804682e-02 +2.29259394e-02 -3.38131338e-02 -4.39425558e-02 +8.08818545e-03 -1.09004393e-01 -5.59978187e-01 +2.62147859e-02 +1.81732386e-01 -6.17021956e-02 +1.02747977e-01 -2.89990697e-02 -6.34488976e-03 +7.93609992e-02 +1.47405714e-02 -5.69767281e-02 -1.19687982e-01 -2.18184426e-01 +5.07167354e-02 -1.39694229e-01 -9.91843790e-02 -9.64872167e-02 +7.24787638e-02 +7.94140175e-02 -9.26650986e-02 -1.59382448e-01 -5.87674826e-02 -5.04964739e-02 +3.70403677e-02 +4.24973443e-02 -5.48377419e+00 -1.57517016e-01 -5.76625094e-02 +8.57211873e-02 +3.99406999e-02 +7.99318999e-02 -6.59003109e-02 -2.42766645e-02 +5.41391000e-02 -3.70049290e-02 -9.11709294e-03 -1.17277265e-01 +7.65306968e-03 -1.41156971e-01 -1.07174166e-01 -1.16692126e-01 +2.43885741e-02 -3.43073830e-02 +1.82629913e-01 -3.98893803e-02 +3.14027295e-02 +5.40073328e-02 -6.99418038e-02 -9.25417170e-02 +3.26946229e-02 -8.10086876e-02 -1.02988973e-01 +1.09007590e-01 +1.81728780e-01 +4.56799977e-02 +3.99147756e-02 -9.28843021e-02 -7.12829903e-02 +2.02591389e-01 -2.37970334e-02 +2.94072889e-02 -6.49370849e-02 +5.30242883e-02 -3.74889858e-02 -1.13577962e-01 -1.05999745e-02 -9.24154520e-02 -3.16890955e-01 -1.19613811e-01 +1.81084536e-02 -2.50373017e-02 +3.13339531e-02 +9.13482346e-03 -6.03274181e-02 -6.88436255e-02 -2.99254447e-01 +1.66534316e-02 -1.11302726e-01 +7.38143455e-03 -1.30144479e-02 -2.36361623e-01 -6.00278854e-01 +6.75242618e-02 -6.48804531e-02 -1.10326380e-01 +5.53865656e-02 -4.69333351e-01 -4.13220972e-02 +2.40069833e-02 -3.26702571e+00 -7.86771476e-02 -1.66837132e+00 -4.00051028e-02 -3.17786001e-02 -9.17484611e-02 -8.95445272e-02 -1.88837357e+02 -9.91221890e-02 -2.29855537e-01 -1.50715541e-02 +6.29546344e-02 -8.07644203e-02 +4.76234965e-02 -1.62850201e+00 +3.35171372e-02 +1.60613172e-02 +2.20801514e-02 +9.51041281e-02 -9.25688595e-02 -2.20211253e-01 -6.19561672e-01 -1.40729830e-01 -4.64644372e-01 -9.07255784e-02 -1.76723197e-01 -2.82563353e+00 -1.32765245e+00 -9.21913013e-02 +5.54396994e-02 -1.08534917e-01 -1.02123320e-02 -8.91911328e-01 +3.02248914e-02 +1.09577551e-02 -2.44491887e+00 +7.98216239e-02 -6.55899346e-02 -4.04246426e+00 -3.60131264e-02 -2.01036409e-02 -1.07756376e-01 -2.18558982e-01 +7.55688474e-02 -1.59359783e-01 -4.87843305e-02 -1.34735453e+00 -4.55545913e-03 -3.89035439e+00 -1.21354371e-01 -9.24218237e-01 +1.07979737e-02 -7.89428502e-02 -2.21243620e-01 -5.35087995e-02 -4.18068580e-02 -1.46805882e-01 -3.89723144e-02 -1.37095356e+00 -6.28987029e-02 -8.31160545e-02 +8.53398219e-02 -3.34828943e-01 -2.61770487e-02 -1.03512160e-01 -1.42985356e+00 -1.36067808e-01 +2.89204909e-04 +1.77121058e-01 -3.64428020e+00 +1.57157425e-02 -2.62570474e-02 +8.41340795e-02 -1.63814679e-01 -1.55299082e-02 -5.91815896e-02 +8.26032236e-02 -8.12631905e-01 +4.26169597e-02 -7.42400527e-01 -1.33594841e-01 -1.29470006e-01 -5.71536839e-01 -9.26773012e-01 +2.71568820e-02 -7.99708664e-01 -1.71489753e-02 +6.69832453e-02 -1.62758619e-01 +7.90139362e-02 -2.11203432e+00 -7.26047897e+01 -2.30564728e-01 -7.00214803e-02 +1.45283062e-02 -4.48301107e-01 -2.74522752e-01 -6.58772826e-01 -2.69019783e-01 -5.05561709e-01 -5.02607785e-02 +4.44663167e-01 +7.77931288e-02 -3.12219486e-02 -9.18430090e-02 +1.19207436e-02 -3.63212898e-02 +6.76724687e-02 -1.40195906e-01 -2.93157190e-01 -7.94526488e-02 -3.24794024e-01 -3.17167997e-01 -6.81125671e-02 -1.20929599e+00 +1.41702205e-01 -1.65275991e+00 -2.28033531e-02 -5.69765829e-02 +8.72529671e-02 -8.79329383e-01 -1.07223563e-01 -1.77930641e+00 -1.64197230e+00 -3.88881832e-01 -1.40372902e-01 -1.60243243e-01 +2.12750137e-02 -1.26334518e-01 -2.27207434e-03 -1.24334581e-01 +9.92481411e-03 -4.90465164e-02 -7.15210885e-02 -1.81314003e+00 +3.82366516e-02 -3.43758948e-02 -7.93863678e+00 -2.04169556e-01 -1.57811970e-01 -6.60825744e-02 -2.48485059e-01 -4.75114167e-01 -9.92555618e-02 -4.64470461e-02 -1.36314243e-01 +1.69987991e-01 +2.85948720e-02 -4.92903851e-02 -2.00581098e+00 -6.67155087e-02 -6.05558991e-01 +9.37213749e-03 +6.78380430e-02 -3.02936912e-01 -2.56340176e-01 -1.49462759e-01 -1.44048519e-02 -2.01601349e-02 +8.30498710e-02 -3.44576277e-02 -4.80387360e-01 -1.43201113e-01 -6.69956999e-03 -1.26207578e+00 -9.81995538e-02 -3.06576461e-01 -6.09780490e-01 -6.62823796e-01 +1.82373121e-01 -4.45683151e-02 -7.91449547e-02 -2.11733365e+00 +4.97944653e-02 -3.25746387e-02 -3.09231039e-02 -9.67462435e-02 +1.81850903e-02 -5.42902462e-02 +4.56098951e-02 -8.31687972e-02 -3.39171320e-01 +5.59530780e-03 +1.72001421e-01 +4.87451442e-03 +5.93704320e-02 +3.33500877e-02 -3.99494208e-02 -6.69663921e-02 +9.77317691e-02 -7.48259714e-03 +2.53790263e-02 -1.46510661e-01 -8.22416544e-02 -4.65150550e-02 +7.07096756e-02 +3.92971374e-02 +1.45102486e-01 -9.57573131e-02 -8.83269459e-02 -1.16232643e-02 +1.05476296e-02 +3.08228225e-01 +9.07106791e-03 -7.00665489e-02 -8.43683183e-02 +4.85165231e-02 -2.39269342e-02 +1.25342477e-02 +1.09908888e-02 -1.03964202e-01 -7.54653513e-02 +6.20505251e-02 -6.74884617e-02 +1.23357050e-01 -1.30759235e-02 -1.70443937e-01 -1.12900741e-01 -5.12531877e-01 -2.71838307e-02 -8.28931108e-02 -1.07237287e-01 -6.27439082e-01 -8.15753732e-03 +8.17091912e-02 -8.19458254e-03 +1.40771374e-01 -2.80521549e-02 +4.61575016e-02 -3.55564691e-02 +4.15636562e-02 -1.01172321e-01 -1.07509404e-01 -9.49750766e-02 -8.30751359e-02 -2.89855161e-05 +3.01333815e-01 +7.72399083e-02 +4.82793403e-04 +8.48620161e-02 +7.48506635e-02 +8.53550062e-02 -9.46698114e-02 +1.00911707e-01 +2.01809272e-01 +3.41387955e-03 +1.34554386e-01 -1.07691832e-01 +7.27687180e-02 -1.20233566e-01 -1.51334420e-01 -5.08385859e-02 -1.75481275e-01 +9.34460610e-02 +4.86391671e-02 +1.97950583e-02 -1.49906561e-01 -1.60421971e-02 +6.94314167e-02 -7.91030657e-03 +2.16369368e-02 +2.09372453e-02 +1.25825801e-03 -8.49904567e-02 -7.20152631e-02 -2.08407596e-01 -5.81439137e-02 -9.06952396e-02 +1.05959602e-01 +6.86393380e-02 -5.67425936e-02 +2.28511961e-03 -4.16211821e-02 +5.99050988e-03 -9.65963602e-02 +2.87691411e-02 -2.98132077e-02 +2.50043988e-01 -8.80662873e-02 -4.87654880e-02 -1.58438587e+00 +1.23892330e-01 +6.77932650e-02 -3.21438909e-01 +6.22278219e-03 -2.51402676e-01 -1.02862641e-01 +8.87103379e-02 +1.16553225e-01 -8.77003819e-02 +2.98518926e-01 -1.71002060e-01 -2.21143868e-02 +5.93920834e-02 +1.23016901e-01 -3.15837152e-02 +1.36294186e-01 -7.06822425e-02 +7.92948008e-02 -1.02836758e-01 -6.24521673e-02 +5.35788648e-02 -2.19183974e-03 +8.49178284e-02 +6.92249835e-02 +7.07016736e-02 +8.26730281e-02 -9.50053260e-02 +1.60513893e-02 +5.18986303e-03 +1.63878314e-02 -1.18404597e-01 -6.65505886e-01 -1.10328950e-01 -1.07292116e-01 +1.64041277e-02 -2.23186631e-02 -1.17671072e-01 -9.37749818e-02 +2.32174527e-02 +1.11338109e-01 -9.47530344e-02 +9.57072228e-02 -6.64136484e-02 +7.88064823e-02 -8.20262879e-02 -1.08881844e-02 -9.10246447e-02 -9.46573466e-02 +8.18889439e-02 -2.72578429e-02 -6.26392737e-02 +2.71863323e-02 -6.86067576e-03 +2.24808216e-01 -8.33290890e-02 -7.18535483e-01 +2.16039121e-02 -5.44908531e-02 -9.50803682e-02 +5.54645211e-02 +6.27392828e-02 -8.59571323e-02 -3.94270271e-02 -6.25106469e-02 +3.46300378e-02 +4.30749863e-01 +4.56674844e-02 -9.72921103e-02 +2.36469522e-01 -3.56109813e-02 -8.97441730e-02 -1.05391163e-02 -4.49333787e-02 +1.55187920e-01 +5.51286973e-02 +4.79585193e-02 +7.26512298e-02 -7.42191821e-02 +8.37683380e-02 +9.06386599e-03 -2.76808119e+00 -1.31013598e-02 -3.63209397e-02 -9.26553756e-02 +7.32591227e-02 +7.98136219e-02 +8.24544504e-02 +4.33948487e-02 -1.84863597e-01 +2.64269169e-02 -1.08283639e-01 +1.02377847e-01 +1.19258147e-02 -3.38579118e-02 -2.05007810e-02 +2.78436840e-02 -6.87600970e-02 +1.95676133e-01 -6.60238713e-02 +3.42847221e-03 -6.97116554e-02 +3.79865384e-03 +2.57121712e-01 +8.51890892e-02 +1.12885177e-01 +6.24553114e-02 -4.41198004e-03 -5.21977805e-03 +2.88945474e-02 -2.84450278e-02 -4.61053364e-02 +1.95594683e-01 +9.31809023e-02 -2.11811997e-02 +6.62787780e-02 +8.19504857e-02 +2.48602360e-01 +7.97283277e-02 -1.17744677e-01 -8.40216596e-03 -2.40595043e-02 +8.53792652e-02 -2.16069072e-02 +8.66953358e-02 -1.80463176e-02 -5.68345077e-02 +8.85657519e-02 +9.86197367e-02 -2.73881614e-01 +8.47939923e-02 +9.54256207e-02 -5.47181144e-02 +4.93257716e-02 -5.45497127e-02 -6.79610446e-02 -6.23027422e-02 +1.36142164e-01 -5.95106065e-01 -7.00539397e-03 -1.20438345e-01 +2.01383770e-01 -2.81513989e-01 +2.38149747e-01 -1.56591788e-01 -1.51676044e-01 +9.78925154e-02 +1.55592823e+00 +9.91307423e-02 -1.79246619e-01 -5.19966443e-06 +1.35529712e-01 +2.09313482e-01 -3.34552079e-02 -4.12958823e-02 -7.72592351e-02 -3.67980957e-01 +6.20370656e-02 +4.61867690e-01 +8.74614492e-02 +5.05642593e-02 -6.89286366e-02 -1.84837893e-01 +6.44256473e-02 -6.25525042e-02 -9.37272310e-02 +8.99564568e-03 +1.03072725e-01 +6.99371845e-02 -3.63096260e-02 -1.27675146e-01 -1.10956375e-02 -6.29862584e-03 -1.39580667e-01 +6.67407334e-01 +8.79294574e-02 -7.50905573e-02 -3.55018117e-02 +1.00371695e+00 +6.24487828e-03 -8.78839418e-02 +5.83439395e-02 +2.22383797e-01 -2.35829633e-02 +1.72624812e-02 +2.21147561e+00 +5.66438911e-03 +1.03788570e-01 -1.48731485e-01 +4.86724138e-01 +1.62300751e-01 -9.34436098e-02 +1.05282359e-01 +6.77391812e-02 -4.94431444e-02 +1.08130358e-01 -6.40694723e-02 +1.55041948e-01 +1.11649998e-01 +1.52150184e-01 -1.46077080e-02 -1.35193259e-01 -2.04186469e-01 -3.06889296e-01 -7.20442161e-02 +1.11888158e+00 -1.10661502e-04 +4.21760678e-02 +2.12833095e+00 +1.03083275e-01 +1.91537336e-01 +1.73198104e-01 +2.25100636e-01 +9.73759815e-02 -1.72128811e-01 +1.93202943e-01 +1.46172836e-01 +9.78518724e-02 -8.78363922e-02 +1.73288330e-01 +9.64432433e-02 -1.35959864e-01 +3.22252586e-02 -8.97672251e-02 +1.03607006e-01 +4.14607525e-02 -1.04423724e-01 -5.13671152e-02 +1.83594853e-01 -4.47161570e-02 -7.55088553e-02 -1.37153529e-02 -2.56987959e-01 +2.48944759e-02 -1.64208174e-01 +2.33017039e-02 -7.26960823e-02 +4.81636263e-02 -6.46381406e-03 -2.41131131e-02 +3.30980942e-02 +5.10120504e-02 +1.92021370e-01 -2.44983450e-01 +9.67187658e-02 +8.17416143e-03 -2.38453951e-02 +7.37901125e-03 -5.32850362e-02 +1.04641885e-01 +4.84502465e-02 -8.77956301e-02 +7.33294562e-02 -6.73943982e-02 +4.90584373e-01 -9.58760530e-02 +1.17503598e-01 +9.92494151e-02 -2.45743319e-02 +1.24505863e-01 -9.64649245e-02 +3.06872249e-01 -2.50836432e-01 +7.13620260e-02 -6.35249019e-02 -4.34239283e-02 +1.65338844e-01 -1.25187701e-02 -3.31975788e-01 +6.18868582e-02 -5.10156788e-02 +8.43510777e-02 +3.24825607e-02 +3.59745622e-02 +2.06339225e-01 -1.04296029e-01 -9.62019712e-02 +8.59914720e-02 +8.11041817e-02 +1.01816468e-01 +5.91997348e-04 +7.09836408e-02 -4.34905775e-02 -2.05770746e-01 -9.38925445e-02 -7.95056298e-02 +2.22696122e-02 -1.22555666e-01 -4.28688228e-02 -1.63132653e-01 +5.27150147e-02 +7.86852166e-02 +1.00976132e-01 +8.83957669e-02 -7.19417408e-02 +6.95131049e-02 +6.95680678e-02 -1.18242977e-02 -1.25134945e-01 +8.07873458e-02 -4.39826353e-03 -1.60885572e-01 -3.02622970e-02 +4.80583571e-02 -3.56836505e-02 +2.82236692e-02 -4.79458831e-02 +1.28819868e-01 -4.16306145e-02 -9.30003375e-02 -5.25710993e-02 -1.14736915e-01 +5.22649363e-02 +6.75613284e-02 +8.12847689e-02 +7.22693186e-03 +4.53281999e-02 -8.24626628e-03 -3.06779565e-03 -1.13804467e-01 -5.37493080e-02 -1.03386268e-02 +1.96971819e-02 -7.86538273e-02 -1.89531893e-02 -4.78552356e-02 +1.75180454e-02 -1.22689538e-01 -9.79774743e-02 -1.17376857e-01 -4.20524552e-02 +5.46846725e-02 +4.62688133e-02 +9.64258313e-02 -8.13462064e-02 +7.89850950e-02 +1.77236736e-01 -4.10048589e-02 -2.10615396e-01 +7.52981454e-02 -2.65738755e-01 +1.46279082e-01 -5.86257828e-03 +1.82726800e-01 -1.56060653e-02 +6.99433759e-02 +1.24608472e-01 +1.62209287e-01 +1.29471552e-02 +2.37973318e-01 -1.73148140e-02 +8.82372484e-02 +1.70457978e-02 +1.23207550e-02 +2.61642761e-03 -3.40386666e-02 -5.30992329e-01 +1.02772057e-01 +1.57860778e-02 +9.25757214e-02 +2.70743594e-02 -3.85410674e-02 -2.00560898e-01 -1.98387187e-02 -1.59749180e-01 +1.07663944e-01 +3.65402624e-02 +4.48676990e-03 +6.93685859e-02 -2.80093830e-02 +7.62282014e-02 +7.47157410e-02 -2.71847695e-02 +5.61775267e-03 +2.20571324e-01 +1.20770343e-01 +1.21978268e-01 -8.71261507e-02 +6.91643655e-02 +1.00813121e-01 -5.06978221e-02 +1.13986582e-01 -6.89341832e-05 +7.04985112e-02 +3.78534012e-02 +1.32296324e-01 -1.95265189e-02 +1.02451704e-01 +3.66250604e-01 -7.70484358e-02 +1.55766562e-01 +1.02289796e-01 +1.00298420e-01 -3.91100310e-02 -4.01293598e-02 +1.08563110e-01 +2.11902056e-02 +5.03606312e-02 +6.55718818e-02 +8.82381797e-02 +5.00330985e-01 -1.83021873e-01 -8.31268057e-02 -1.92172319e-01 +2.59212703e-02 +1.76848623e-03 +1.79518405e-02 -3.18820998e-02 -3.76175076e-01 +3.86015587e-02 -1.16167344e-01 -1.31945461e-01 +4.26664911e-02 +4.51949984e-01 -2.24399015e-01 +1.55629411e-01 +1.31181076e-01 +1.09735303e-01 -6.27532601e-02 +1.61164090e-01 +6.12514839e-03 +3.37998606e-02 +9.58501771e-02 +9.59744528e-02 -1.22977262e-02 +1.22740585e-02 +1.03660025e-01 +5.27454317e-02 +1.72130823e-01 +9.76567343e-02 -2.12037135e-02 +7.71022215e-02 -1.56794429e-01 -3.96848917e-02 -2.56066263e-01 +4.30461839e-02 -6.14829957e-02 -7.17183622e-03 -9.34609473e-02 -3.27703208e-02 -1.42174885e-01 -8.04770365e-02 -5.48655307e-03 -1.57191187e-01 +5.27145416e-02 -4.60504816e-04 -5.09624258e-02 -2.83496752e-02 +5.35522550e-02 +1.26880528e-02 -3.34087759e-02 +7.24637285e-02 +8.79525170e-02 +1.10242181e-01 +3.50627154e-02 +8.52384865e-02 +1.46484029e+00 -2.72422731e-02 +1.03661232e-01 +5.50366379e-02 +2.10420396e-02 +3.69858667e-02 -1.52900174e-01 -4.62770760e-02 -2.70230323e-02 +3.03023439e-02 +1.91577271e-01 -4.05198634e-02 -2.82705784e-01 -1.47616699e-01 -3.55605641e-03 +1.34227082e-01 +9.49255526e-02 +7.79689774e-02 -9.07052830e-02 +1.13788195e-01 -6.00300767e-02 +9.24075395e-02 -6.48889393e-02 -5.77029660e-02 +7.94565082e-02 -2.02501893e-01 -7.00388029e-02 -7.00111985e-02 -1.61843866e-01 -3.27573693e-03 -7.40670636e-02 -7.02547580e-02 +2.70998217e-02 -1.85902715e-01 +1.65265873e-02 +8.96210223e-02 -1.88216548e-02 -3.66133116e-02 +6.73919320e-02 +6.59665987e-02 -6.50405362e-02 +9.40524489e-02 -1.33724228e-01 +6.26641586e-02 -7.13659683e-03 -2.30380580e-01 -7.28738010e-02 +6.26326859e-01 +1.05055474e-01 +3.59671488e-02 -1.44367471e-01 -7.22578689e-02 +6.38516024e-02 +2.70430073e-02 +1.23396412e-01 -2.61040330e-01 +1.60272717e-01 +8.90582055e-02 +1.14293881e-02 +2.99856178e-02 -4.43053357e-02 +1.83109009e+00 -7.57489800e-02 -5.64793766e-01 +6.19331151e-02 +6.48597721e-03 +4.62992430e-01 +7.92015227e-04 -1.26179755e-02 +8.44615921e-02 +5.25752641e-02 +7.71803558e-02 +6.79672062e-02 +3.55559997e-02 +7.21592410e-03 +9.08329636e-02 -7.52265826e-02 -1.49902131e-03 +3.89042109e-01 +3.23971510e-02 +2.33474627e-01 +1.45838242e-02 -7.72487819e-01 +1.00802653e-01 -2.69265711e-01 +1.89677656e-01 -2.12988764e-01 +1.44790530e-01 -5.62142208e-02 +2.23290205e-01 +2.49162152e-01 +6.11115336e-01 +1.02017872e-01 +3.36355925e-01 -2.65519060e-02 -4.18900251e-02 +9.03145373e-02 +3.10002211e-02 +5.05284443e-02 -9.20948386e-02 -1.26862213e-01 +4.14187759e-02 +5.32639802e-01 -4.52887453e-02 +7.87555724e-02 +6.92415014e-02 -3.28282386e-01 -4.48957682e-02 +8.61819386e-02 +6.91469535e-02 +5.35315454e-01 +9.42721665e-02 +1.47686684e+00 +8.43882188e-02 +4.91578817e-01 +7.40545914e-02 -1.29366815e-01 -2.44266033e-01 +6.10312760e-01 +1.93948485e-02 +3.43057334e-01 +5.21295443e-02 +4.59314823e-01 +2.62532756e-02 -8.36010948e-02 +1.04269879e-02 +1.93331763e-01 -4.11133952e-02 -4.47783172e-02 +2.74746507e-01 +2.30892282e-02 +1.80640407e-02 +5.85742474e-01 +2.34510362e-01 +1.34635884e-02 -7.33775273e-02 +3.10257077e-02 +6.76248595e-02 -2.23086923e-02 -5.40971570e-02 +5.34542054e-02 +1.22235060e+00 -1.95839591e-02 +1.12837851e-01 +3.81438322e-02 +4.32167388e-02 +5.06760180e-01 -4.85283792e-01 -9.95948911e-03 -1.06984720e-01 +1.53126903e-02 -6.86610639e-02 +1.15550928e-01 -6.76150527e-03 +5.74204266e-01 +1.51740611e-01 +1.68613791e-01 +5.49244225e-01 -1.41114876e-01 +2.48515546e-01 +2.85700560e+00 +1.60135910e-01 -9.53514278e-02 +1.74612567e-01 -4.69719879e-02 -1.40497133e-01 -7.19397515e-02 +7.82843605e-02 +2.94119213e-03 -8.26370064e-03 -7.71941468e-02 +3.62278298e-02 +1.55424297e-01 +1.16382867e-01 +4.03877869e-02 +1.74190447e-01 -3.95281047e-01 -9.07167606e-03 -6.07063115e-01 -2.44191781e-01 -1.58223528e-02 -7.27646286e-04 -5.46160266e-02 +5.56433201e-02 +4.81042683e-01 +1.03439637e-01 +5.40796518e-01 -5.42277656e-03 +2.04877883e-01 +1.24895573e-01 -6.83247149e-02 +8.53601918e-02 +1.07953146e-01 +1.14990458e-01 +1.66027933e-01 +1.10941008e-01 -4.63476889e-02 -1.03812821e-01 +7.37404346e-01 +5.29642813e-02 +8.71702254e-01 +6.21461213e-01 +6.35903254e-02 +9.16681886e-02 -7.76010454e-02 +1.29409716e-01 -2.79783815e-01 -3.24677005e-02 +5.46082631e-02 +7.56249353e-02 +1.97004843e+00 -2.58870348e-02 -5.74487925e-01 +3.92658442e-01 +3.90849188e-02 +2.49865592e-01 +1.46003077e-02 -5.08014821e-02 +5.24252474e-01 +1.58706069e-01 +2.34655917e-01 -2.38542333e-02 +6.01468384e-02 +6.51964098e-02 -5.64518804e-03 -4.00425732e-01 -9.77118686e-02 -1.62242278e-01 -1.63824737e-01 -2.35077143e-01 +1.62663698e-01 +7.18629137e-02 +1.52158841e-01 -1.24234152e+00 +1.39374733e-02 -2.86127208e-03 +2.81461984e-01 -9.63640362e-02 -7.02006444e-02 +2.84344777e-02 -3.74182649e-02 -9.13239941e-02 +2.61909872e-01 +4.17735130e-02 -6.91329166e-02 -3.04192811e-01 +1.00146085e-01 +2.58894384e-01 +3.98502499e-03 +5.39989397e-03 -1.03577733e-01 -3.94922607e-02 +2.97061726e-02 +9.35332328e-02 +1.23582706e-02 -8.75948220e-02 +1.83333203e-01 +7.77842849e-02 +4.57582856e-03 +7.74928704e-02 +4.01307270e-02 +3.00631046e-01 +5.30675575e-02 +4.74985167e-02 +1.76318195e-02 +5.87538742e-02 +1.60667807e-01 -9.58784968e-02 +7.25032575e-03 -1.26961013e-02 +4.96400800e-03 +1.88264877e-01 +1.03447631e-01 -1.32877231e-01 +8.31659287e-02 -3.76536809e-02 +7.46575072e-02 -9.35704857e-02 +1.14907837e-02 +5.52126877e-02 -1.96627870e-01 +7.99498037e-02 -6.29523814e-01 +8.74247923e-02 -3.67242843e-02 +4.66200225e-02 -1.20182574e-01 +1.94511309e-01 -1.11414157e-02 -1.73024297e-01 +6.19379221e-04 +1.54166019e+00 +1.24228634e-02 -5.52241057e-02 -3.31578366e-02 +1.29699275e-01 +1.71982229e-01 +9.17880610e-03 -6.11010194e-02 +2.56159436e-02 -3.28881949e-01 -2.68836319e-02 +3.66739541e-01 +9.41751003e-02 -3.39954421e-02 +5.07823229e-02 -1.57923371e-01 +3.84400524e-02 -2.38252118e-01 +4.62225899e-02 +4.87619676e-02 +9.95534509e-02 +5.26260100e-02 -2.27206219e-02 -2.23731533e-01 -5.27591668e-02 -1.82294503e-01 -2.20429838e-01 +7.92505085e-01 -6.28558500e-03 -5.47531992e-02 -4.35938276e-02 +8.87961984e-01 +1.10985093e-01 -6.43495992e-02 +7.72165805e-02 +1.74968839e-01 -2.52764001e-02 +3.86706069e-02 +2.29803228e+00 -5.78966215e-02 -4.36315611e-02 +1.27335228e-02 +4.62867588e-01 +4.30287085e-02 +3.47263142e-02 +4.06069122e-02 -1.80872865e-02 +1.03390843e-01 -7.77329430e-02 +4.42206226e-02 +8.04782100e-03 +9.21353176e-02 +2.10500941e-01 -4.31596562e-02 -1.17086925e-01 -3.11782748e-01 -1.32122576e-01 +9.02793482e-02 +1.13860893e+00 +6.01319559e-02 +9.85597894e-02 +2.04967117e+00 +5.81662133e-02 +2.03552723e-01 +1.87306330e-01 +2.24465907e-01 +2.66643614e-02 -2.61165351e-01 +1.87403589e-01 +4.59097177e-02 +5.69411367e-02 -1.67771503e-01 +2.39413142e-01 +8.42393339e-02 -5.10363393e-02 +5.70430234e-02 +7.43908882e-02 -7.77690578e-03 -8.62468109e-02 +4.88283448e-02 -1.78057589e-02 +1.79356754e-01 -7.13700280e-02 -1.19347004e-02 +1.00988068e-01 -1.61107063e-01 -5.15812896e-02 -1.49975821e-01 -8.73752981e-02 +7.59665668e-02 +2.85793822e-02 +9.48155001e-02 +4.64071780e-02 +7.14906156e-02 +1.01636633e-01 +6.30888641e-02 -2.51057655e-01 +5.20954803e-02 +1.03236243e-01 -5.72270602e-02 +2.95391455e-02 +9.31403637e-02 -3.12423483e-02 -1.14651339e-03 -2.77723558e-02 +1.78916696e-02 +6.01603277e-02 +5.79016149e-01 +9.54642743e-02 +1.93943009e-02 +1.04156338e-01 -3.30563933e-02 +7.59011209e-02 -4.98417690e-02 +2.05311745e-01 -2.23377988e-01 +4.30443659e-02 -6.11774698e-02 +8.88549909e-02 +1.73353881e-01 +3.43627632e-02 -2.25574359e-01 +1.72442272e-01 +8.22103918e-02 +5.89356907e-02 -2.29104348e-02 +6.30429527e-03 +1.08019546e-01 -7.19478801e-02 -2.32625872e-01 +2.85719726e-02 -7.44010583e-02 +5.18738702e-02 +1.00222416e-01 -1.69697311e-02 +5.77283837e-02 -1.87265143e-01 -8.47471587e-04 -2.14613955e-02 -1.21314637e-01 -1.93099588e-01 -8.29144344e-02 -9.51852575e-02 -7.47290328e-02 +6.63234964e-02 +7.26199243e-03 -8.99485871e-02 +5.54066226e-02 +3.62234339e-02 +4.57701907e-02 -2.69048139e-02 -7.67937955e-03 -4.46653105e-02 +5.66602126e-02 -2.12460041e-01 +1.07084021e-01 -1.44547848e-02 +2.39974242e-02 +7.64413774e-02 -1.56407982e-01 +1.43460572e-01 -6.97356090e-02 +4.73786667e-02 +4.61764671e-02 -7.40042701e-02 -4.05203328e-02 -2.59571336e-02 +9.03454944e-02 -7.27563649e-02 +2.76993103e-02 -1.12670911e-02 +5.33484928e-02 -2.59471297e-01 -1.00786783e-01 +5.92850745e-02 -6.32095858e-02 +7.30786175e-02 +2.74664070e-02 +7.22054914e-02 +3.20063829e-02 -8.99191108e-03 +8.56060013e-02 -2.30678856e-01 +2.28699017e-03 +2.16144230e-02 +1.69136450e-02 +3.76088917e-02 +7.34385569e-03 +8.96220058e-02 +1.72977746e-01 +3.21388431e-02 -1.64178535e-01 -2.08673254e-03 -1.96513563e-01 +1.88010767e-01 -1.18611969e-01 -1.33095337e-02 -1.02264345e-01 -7.65924975e-02 +6.80989120e-03 +7.27319578e-03 +1.03869721e-01 +2.32687816e-01 +5.78073561e-02 -4.76664118e-02 +5.49221821e-02 +2.60502268e-02 -5.65491170e-02 +6.13245997e-04 -4.89354938e-01 -7.73060322e-02 +1.08615875e-01 -7.16018975e-02 +3.03793736e-02 -1.11626741e-02 -1.67438433e-01 -5.04633039e-02 -9.40491706e-02 -8.74990597e-02 -3.02805658e-03 -3.42590027e-02 +9.84522235e-03 +2.17199381e-02 +7.73009434e-02 -9.82325245e-03 +4.66972031e-02 -3.81886251e-02 +2.54136175e-01 -1.06918598e-02 +4.66502793e-02 -2.63951309e-02 -3.49875614e-02 +1.43039022e-02 +6.38335049e-02 +9.96601768e-03 +9.96933579e-02 +1.26722073e-02 +9.55775157e-02 +2.58246481e-01 -4.11012061e-02 +6.64623305e-02 +2.35624358e-01 -8.00597221e-02 +1.86284870e-01 -3.12156640e-02 -5.60352914e-02 +1.01215310e-01 +5.39024211e-02 +4.29322906e-02 +1.65464990e-02 +6.20327219e-02 -5.93259297e-02 +3.03949397e-02 +4.00478810e-01 +5.78533532e-03 -1.53278694e-01 -2.50320077e-01 +7.24257976e-02 -7.31105357e-02 +6.64201900e-02 +9.43942368e-02 -2.34701201e-01 +3.54593731e-02 -3.16355899e-02 +1.82297733e-02 +3.35275568e-02 +3.42258275e-01 -1.26347631e-01 +9.10248831e-02 +5.06917313e-02 +7.00692907e-02 -1.42760873e-01 +6.63500726e-02 -7.43588507e-02 +8.55359435e-02 -1.29956715e-02 -8.69704643e-04 +1.03609502e-01 -1.58117171e-02 +2.81772185e-02 +5.95414415e-02 +5.19768968e-02 +2.16961410e-02 +3.37672010e-02 +2.09015235e-01 -2.32032314e-01 +1.49964103e-02 -2.63467163e-01 -6.47845417e-02 -4.23597917e-02 -1.53012360e-02 +1.02691561e-01 +3.77995335e-02 -1.42015398e-01 -7.63170421e-02 -1.55091174e-02 -1.74201503e-01 -8.80741421e-03 +3.74953970e-02 +1.11515589e-01 +1.18719488e-01 +8.48865807e-02 +7.65500441e-02 +1.53785050e-01 +1.10873759e-01 +3.37695926e-02 +5.98600470e-02 +7.06137717e-02 +5.05999215e-02 +1.48799098e+00 +7.35191209e-03 +1.71247274e-01 -7.60656148e-02 -2.78321700e-03 -5.73142804e-02 -1.57411695e-01 -6.68637305e-02 +2.35915314e-02 +1.29243463e-01 +1.17477275e-01 +7.26512372e-02 -3.53602737e-01 -1.45773903e-01 -5.22572808e-02 +1.53291151e-01 +9.28621367e-02 -2.01626942e-02 -1.82638522e-02 -4.10087705e-02 -1.38410464e-01 +5.93692064e-03 +5.06962948e-02 -5.66275492e-02 +4.51372713e-02 -1.83938891e-01 +3.93485501e-02 -1.64772287e-01 -1.87979862e-01 -6.48034066e-02 -4.80183139e-02 -9.80368257e-03 +3.32188755e-02 -1.41695052e-01 -6.84919879e-02 +1.29090145e-01 -9.76596624e-02 +9.69385877e-02 -6.64577931e-02 -5.17817726e-03 -4.90945764e-04 +4.81713414e-02 -9.64239165e-02 +2.51803529e-02 +8.40013325e-02 -2.03988761e-01 +8.59571621e-02 +6.24824226e-01 -1.29465405e-02 +8.00773352e-02 -2.11938426e-01 -3.35638672e-02 -6.61288649e-02 +9.14850608e-02 -7.64404684e-02 -2.59364158e-01 +2.24476814e-01 -4.49047424e-02 -3.95138264e-02 -3.91473435e-02 +9.12100375e-02 +1.83771837e+00 +4.36643101e-02 -5.42060554e-01 +2.42801890e-01 +8.73492584e-02 +4.82401460e-01 -2.06163321e-02 -7.21436143e-02 -7.64701143e-03 +1.04589567e-01 +1.25371099e-01 -3.02326363e-02 +1.49920151e-01 +6.09382018e-02 +2.69934293e-02 +4.32535401e-03 +1.32671818e-01 +3.09565216e-01 +1.63235366e-02 +2.29891911e-01 -1.75075382e-01 -7.71835625e-01 -4.41879146e-02 -3.39900374e-01 +1.26071140e-01 -2.41116792e-01 +2.09972784e-01 -2.18910575e-01 +1.06732152e-01 +3.14769208e-01 +5.32074869e-01 -4.09124680e-02 +3.01884353e-01 -8.05416703e-02 -4.29492220e-02 +9.81179103e-02 +8.22391883e-02 +4.46365401e-02 -9.69932452e-02 -1.51079297e-01 -8.58874395e-02 +4.54521894e-01 +5.05636521e-02 -1.10168252e-02 +5.61019480e-02 -3.63190114e-01 -6.84587359e-02 +2.51468301e-01 +3.74106020e-02 +4.39175665e-01 +8.05454105e-02 +1.51297534e+00 +1.06153294e-01 +5.55030286e-01 -6.60994276e-02 -1.20170943e-01 -2.76129127e-01 +5.88857949e-01 +2.52441633e-02 +2.13228449e-01 -7.55575746e-02 +6.04142606e-01 -6.17013685e-02 +3.84331495e-02 -3.55464257e-02 +2.44997486e-01 -2.45538615e-02 +3.03488458e-03 +2.78570086e-01 +5.86697087e-03 -9.58908945e-02 +5.21574855e-01 +1.61327213e-01 -9.13426746e-03 -3.55209373e-02 +2.06380114e-02 -1.14381434e-02 +7.27624074e-03 -5.34924790e-02 -1.99853703e-02 +1.28359938e+00 +4.28899005e-02 +4.53274772e-02 +1.30567336e-02 +2.37813704e-02 +5.19185185e-01 -4.80641752e-01 +5.43945916e-02 -2.32474074e-01 +7.04044402e-02 +8.66912082e-02 +1.87628299e-01 -4.30794433e-03 +5.72035193e-01 +8.24676752e-02 +2.79572029e-02 +6.57692015e-01 -3.15571159e-01 +2.46589020e-01 +2.75765944e+00 +1.47388816e-01 -1.02164730e-01 +2.51587659e-01 -7.48147070e-02 -2.11433798e-01 -2.97642825e-03 +5.92914335e-02 -3.50887515e-02 +9.15651098e-02 -8.13245550e-02 +1.11550041e-01 +1.88460231e-01 -5.55577017e-02 -5.99271245e-02 +2.70631373e-01 -4.07367885e-01 -7.54346699e-02 -6.50670290e-01 -1.28077492e-01 -4.15233932e-02 +2.39738151e-02 -3.52066383e-02 +8.52244382e-04 +4.32273239e-01 -3.05778757e-02 +4.28713441e-01 -8.83880071e-03 +2.73864985e-01 +1.94036141e-01 -1.27121255e-01 +8.54936689e-02 +8.46742019e-02 +2.57072481e-03 +5.90259060e-02 +2.94644348e-02 +9.23118517e-02 +1.86674539e-02 +6.05240881e-01 +5.82062788e-02 +8.35116923e-01 +6.74844503e-01 -2.48467866e-02 -2.96285246e-02 +9.21710767e-03 +2.68644214e-01 -3.68126154e-01 +8.79602656e-02 -9.73054096e-02 +1.94904983e-01 +1.88652158e+00 -2.62262095e-02 -5.16759396e-01 +5.32828271e-01 +7.94659331e-02 +2.42937163e-01 +3.68818417e-02 -7.78160468e-02 +4.63110954e-01 +6.95218146e-02 +2.72842973e-01 -3.68890315e-02 +5.19853868e-02 +3.77147533e-02 -7.16362670e-02 -5.10343969e-01 +4.74622138e-02 -2.66345203e-01 -2.65386283e-01 -2.60562629e-01 +1.45195782e-01 +1.74311727e-01 +3.76066044e-02 -1.22870457e+00 +7.25066811e-02 +1.32656798e-01 +3.25460106e-01 +4.07651179e-02 +9.66479778e-02 +6.75920397e-02 -2.36624517e-02 -2.13854648e-02 +2.28103623e-01 +1.22247331e-01 +1.04756564e-01 -3.31983685e-01 +4.26934771e-02 +2.50087827e-01 -7.18153492e-02 +4.24949564e-02 +3.58322747e-02 -9.20667201e-02 -1.69771200e-03 +7.93808252e-02 -7.61291832e-02 -2.22964987e-01 +3.39005664e-02 +9.24437679e-03 +2.81518027e-02 -5.64490184e-02 +6.91112457e-03 +2.65844911e-01 +1.05926089e-01 -8.03465620e-02 -2.20039524e-02 -7.08234459e-02 +1.65751338e-01 +1.92460064e-02 -5.34648299e-02 +3.13988030e-02 -3.99119407e-02 +1.14768501e-02 -2.59919427e-02 -2.43469700e-01 -8.15242436e-03 -6.08481951e-02 -6.02995828e-02 -1.07225373e-01 -5.53499758e-02 +1.32707404e-02 -1.80370107e-01 -4.03588591e-03 -7.25326359e-01 -7.56579414e-02 -1.54191867e-01 +2.68826541e-03 -1.57709107e-01 +2.32790366e-01 -1.22607589e-01 -4.06266376e-02 +4.88392450e-02 +1.54555786e+00 +4.84490655e-02 -5.90033047e-02 -7.10230023e-02 +8.72296542e-02 +2.85493791e-01 -1.02253497e-01 +1.04652941e-01 +3.40032019e-02 -3.31502855e-01 -6.47901520e-02 +4.31715876e-01 -1.40669169e-02 -4.91426364e-02 -1.82079412e-02 -7.44815692e-02 -8.74258131e-02 -2.51786381e-01 +9.36468542e-02 +8.73822793e-02 +5.80780916e-02 +5.81394210e-02 +1.10996328e-02 -1.94230810e-01 -5.43338619e-02 -4.98924032e-02 -1.14919044e-01 +8.37559223e-01 +3.99008319e-02 -2.21734896e-01 +6.54460788e-02 +9.03090477e-01 +6.53663501e-02 -3.29956748e-02 -3.81399021e-02 +7.33360723e-02 -1.85824782e-02 +9.36203748e-02 +2.24431515e+00 -5.62260300e-02 +1.07478216e-01 -5.23879267e-02 +3.84576231e-01 +1.25875697e-01 +4.08024900e-02 -6.99744225e-02 -6.00941991e-03 +7.16804266e-02 +7.91722387e-02 +6.77788109e-02 +1.41782761e-01 -7.17515824e-03 +1.42362982e-01 -8.27308297e-02 -3.27287838e-02 -3.20803970e-01 -3.01760852e-01 +7.48379854e-03 +9.88959312e-01 -9.87915508e-03 -7.62989745e-02 +2.21595240e+00 +7.44852647e-02 +1.62133202e-01 +1.79967731e-01 +1.30859792e-01 -9.53472033e-02 -1.10837333e-01 +3.65746677e-01 +5.70350215e-02 +1.65857151e-01 -1.07279606e-01 +1.78031787e-01 -8.76521394e-02 -5.17449528e-02 -4.01737876e-02 +5.98279526e-03 +6.50443733e-02 -6.36389703e-02 +6.29623458e-02 +9.40527245e-02 +1.44969136e-01 +1.06780261e-01 -7.57046416e-02 +1.53200939e-01 -2.61319876e-01 -5.80779463e-02 -2.75463581e-01 -9.71271098e-02 -8.80387872e-02 +1.21991150e-01 +5.32371067e-02 -2.91973911e-02 +1.13533765e-01 -5.59832416e-02 +4.69847992e-02 -1.84543610e-01 +1.56317517e-01 +1.20730996e-01 -4.51284610e-02 -5.19801080e-02 -2.63952836e-02 -3.10969576e-02 +1.12632759e-01 -2.11476702e-02 +5.70076220e-02 +3.66804586e-03 +5.53917706e-01 +5.53918071e-02 +1.33689210e-01 +1.04577214e-01 +1.06300339e-01 -5.55836819e-02 -7.68649876e-02 +1.47988468e-01 -1.63460582e-01 -7.40102753e-02 -4.78787646e-02 +4.12122486e-03 +1.88846439e-01 +1.16950482e-01 -3.57430577e-01 +1.92631155e-01 -9.41541642e-02 +1.28985122e-01 -2.74012163e-02 +2.53231563e-02 +1.44065082e-01 +1.73632689e-02 -1.06363788e-01 +1.59834251e-02 +1.97749361e-02 +1.35406014e-02 -8.86288732e-02 +5.15139988e-03 -8.86807665e-02 -1.65347099e-01 +2.51523256e-02 -6.11756705e-02 +6.55178726e-02 -1.64602876e-01 +5.21006025e-02 -1.54806420e-01 -9.91700143e-02 +8.26978385e-02 +7.45490715e-02 -6.61726370e-02 -6.70857653e-02 -3.28629976e-03 -1.16702290e-02 -8.96412879e-02 -2.15589643e-01 +1.43497242e-02 +4.72913235e-02 -1.07918113e-01 -9.02730692e-03 +3.04459669e-02 +9.77260694e-02 -1.46152154e-01 -4.66815084e-01 -1.43517703e-01 +7.53328726e-02 -2.05540638e-02 -2.22707186e-02 -1.67790696e-01 -4.59976047e-01 +6.88522086e-02 -1.40625253e-01 +5.46545573e-02 -2.17857640e-02 -6.21533811e-01 -4.55733463e-02 -5.12813330e-02 -3.22105932e+00 -8.71767104e-02 -1.55297720e+00 -1.32482201e-01 -2.92905644e-02 +7.28016794e-02 -3.75234842e-04 -1.88779633e+02 +2.67067403e-02 -2.84626037e-01 +2.01641675e-02 -4.76039685e-02 -1.14640910e-02 -9.09036174e-02 -1.50025177e+00 +3.14689502e-02 +1.69412773e-02 -3.05219423e-02 -2.42677201e-02 +7.54164997e-04 -1.75034493e-01 -5.32258570e-01 -1.91804811e-01 -6.57495022e-01 -1.69333726e-01 -9.67781395e-02 -2.65741992e+00 -1.51010859e+00 +9.83665064e-02 +6.52594343e-02 -6.27173111e-02 -8.91684219e-02 -9.08817887e-01 +8.77714381e-02 +3.28719728e-02 -2.51943731e+00 -1.17287852e-01 -5.38771099e-04 -3.95835161e+00 -4.58354950e-02 -9.99722630e-02 -5.98371923e-02 -3.08226705e-01 -7.64000565e-02 -1.77529722e-01 +2.09208876e-02 -1.41831815e+00 -1.54659171e-02 -3.82947063e+00 -1.13630518e-01 -8.08215320e-01 -6.56963065e-02 -2.76768357e-02 -2.23511726e-01 -9.56355333e-02 -2.51358189e-02 +4.30624969e-02 -4.50747944e-02 -1.43666816e+00 -1.00083955e-01 +4.24912944e-02 +9.63277146e-02 -4.61066693e-01 -2.69775018e-02 +1.79281551e-02 -1.53836691e+00 +5.22941872e-02 +9.63243097e-02 +2.42108583e-01 -3.76401949e+00 -1.02718219e-01 +1.78678446e-02 +1.69866104e-02 -6.92188367e-02 +5.10321483e-02 +5.91749325e-02 +8.54786411e-02 -7.59914696e-01 -8.65619555e-02 -7.86267698e-01 -1.05419151e-01 -9.70995203e-02 -4.45905179e-01 -8.67953181e-01 -5.76324575e-02 -7.83991873e-01 -5.27078658e-02 +3.87977399e-02 -3.28108631e-02 +2.22373344e-02 -2.24747467e+00 -7.26117630e+01 -1.68858394e-01 +2.92469300e-02 -1.54185414e-01 -4.78243589e-01 -4.09217656e-01 -6.06516659e-01 -1.58990130e-01 -4.13518310e-01 +3.10037807e-02 +3.39320272e-01 +9.17275343e-03 +3.41271386e-02 +1.14286523e-02 +1.04071751e-01 -8.89587179e-02 -8.48971829e-02 -1.03367260e-02 -1.51437432e-01 -2.70223785e-02 -2.25874484e-01 -3.67261440e-01 +3.50180943e-03 -1.28772199e+00 +2.45296955e-02 -1.65645874e+00 +3.57144549e-02 -5.37977032e-02 -2.57380866e-02 -9.92345691e-01 -7.77688920e-02 -1.88031054e+00 -1.62212598e+00 -3.94710332e-01 -2.34871164e-01 -6.07282072e-02 -1.45259872e-01 -4.10323516e-02 +5.30253910e-02 -1.04681328e-01 -2.77653802e-03 +8.72622728e-02 -1.26593024e-01 -1.99748170e+00 -4.83230911e-02 -2.23978654e-01 -7.95921612e+00 -1.03085615e-01 +2.27129478e-02 +6.12586662e-02 -2.20230937e-01 -3.59557599e-01 -2.12752819e-02 -6.49553686e-02 -2.38375396e-01 +7.07494467e-02 -1.59149379e-01 -1.64910257e-01 -1.99204624e+00 -4.04975340e-02 -7.09494829e-01 -7.86575824e-02 -4.95199338e-02 -2.21834153e-01 -1.26339376e-01 +2.36249473e-02 -2.15780903e-02 +9.15356427e-02 +6.33260980e-02 -2.23031156e-02 -4.51900691e-01 -1.44114554e-01 -1.02207236e-01 -1.26302218e+00 +2.41420921e-02 -4.45869088e-01 -6.37558937e-01 -6.98499918e-01 +2.52720535e-01 -4.76821177e-02 -1.65215775e-01 -2.17733932e+00 -5.72750494e-02 +3.94555964e-02 +7.92516246e-02 +2.54633613e-02 +3.53527069e-02 -7.67736882e-02 -1.13442525e-01 -2.28926763e-02 -1.56182081e-01 -9.82940197e-02 +1.66109577e-01 -9.09164324e-02 +7.12165833e-02 -2.41727885e-02 +4.50207740e-02 -2.45323982e-02 +2.78022513e-02 +2.58168187e-02 +4.75170137e-03 -1.10494159e-01 +1.39226597e-02 -8.40684921e-02 +7.02766776e-02 -1.28993113e-02 +1.77498966e-01 -5.52840270e-02 -7.60961697e-02 +7.73305297e-02 -2.68421546e-02 +2.90283829e-01 -9.63516533e-02 +3.43822353e-02 +1.38911381e-02 -1.14400215e-01 -2.29344759e-02 -6.37742281e-02 +7.69493952e-02 +5.08294478e-02 -6.61280081e-02 +8.83433316e-03 -7.87189007e-02 +8.74778703e-02 -4.74890433e-02 -1.29461259e-01 -1.06726408e-01 -4.47057962e-01 +9.46811289e-02 -6.48155995e-03 -5.17555624e-02 -6.88278735e-01 -9.37099382e-02 +6.46058917e-02 +9.70933512e-02 -1.52629940e-02 +1.04953729e-01 +1.79717913e-02 -1.64691120e-01 -3.33329849e-02 +1.75581090e-02 +2.32400256e-03 +3.68352346e-02 -2.77007706e-02 -1.02425776e-02 +2.78028429e-01 +1.08386669e-02 +9.26226452e-02 +2.25157458e-02 -8.40222239e-02 -9.15208310e-02 -1.35364430e-02 -8.50662738e-02 +2.23166183e-01 +7.29591250e-02 +2.05719188e-01 +1.77010205e-02 -4.95825708e-02 +3.11148986e-02 -2.21481442e-01 -1.23887748e-01 -1.21789485e-01 -6.05184510e-02 -3.97101007e-02 -1.02734514e-01 -1.06012173e-01 -9.62844864e-02 +3.15490179e-02 +2.61419676e-02 -1.61967501e-02 -3.44632007e-02 -3.27666812e-02 +7.84020424e-02 -9.83742997e-02 -2.93203413e-01 +3.71041298e-02 +5.54629602e-02 +1.45354420e-01 -9.35293809e-02 -2.33676404e-01 -7.46069616e-03 +5.09938709e-02 +5.79947196e-02 -1.01761244e-01 +2.55839131e-03 -1.28459483e-02 +2.23185822e-01 +4.65476774e-02 -4.43234295e-02 -1.67165899e+00 -6.01051636e-02 +1.23006836e-01 -3.19459379e-01 +4.93856557e-02 -6.12048060e-02 +2.58354507e-02 -1.06569240e-03 +1.72444712e-02 -1.00442737e-01 +2.67943889e-01 -6.31352291e-02 +3.61817069e-02 -4.25807610e-02 -2.86223795e-02 -1.16682304e-02 +9.72798616e-02 +1.65352579e-02 +2.64094263e-01 +4.28604446e-02 +4.54610260e-03 -2.60874275e-02 -3.92360725e-02 -5.20024076e-02 -2.72046812e-02 +8.64611864e-02 +4.16941866e-02 -8.24848562e-02 -1.05862908e-01 -9.09404829e-02 -3.95892635e-02 -3.68871316e-02 -6.99777722e-01 -1.03119865e-01 -7.44074658e-02 -1.44825161e-01 +4.93738987e-02 +7.49818003e-03 +5.92487343e-02 -5.78342825e-02 +1.86305702e-01 -1.91967804e-02 +1.87857762e-01 +7.99020827e-02 +4.87250648e-02 -1.92704089e-02 -8.00790489e-02 +3.21117453e-02 -3.10803149e-02 +6.98562786e-02 -5.84916845e-02 -6.52498053e-03 -9.54217464e-02 -1.09695951e-02 +7.24110231e-02 -9.14445966e-02 -7.49626696e-01 +8.69936347e-02 -9.12827775e-02 -2.18934435e-02 -4.12075482e-02 -1.02579407e-01 +1.45200326e-03 -1.05067134e-01 -8.08911249e-02 -3.82905751e-02 +3.37820888e-01 -2.41840836e-02 +6.69767037e-02 +1.32070646e-01 +9.64316428e-02 -5.13781607e-03 +1.89673882e-02 +2.60844193e-02 +7.64517859e-02 -7.52965957e-02 +1.89141795e-01 -4.78801839e-02 -8.19745213e-02 -1.29892053e-02 +8.88663307e-02 -2.77338886e+00 -3.11194062e-02 -1.40218688e-02 -1.01101555e-01 -8.08931291e-02 +1.79791585e-01 +7.35241324e-02 +1.92067511e-02 -1.35475010e-01 -6.55178539e-03 +3.94574516e-02 +9.89580229e-02 +2.80007580e-03 +1.35881891e-02 -1.03470869e-01 +7.88895227e-03 +4.35993187e-02 +1.47324577e-01 +3.94542925e-02 +5.78819811e-02 -1.29518524e-01 +1.04463957e-02 +6.27589747e-02 -2.03103926e-02 +2.53749229e-02 +6.47823960e-02 +8.28457177e-02 +4.85331938e-02 +1.64175965e-02 +5.83271049e-02 -6.74556419e-02 +1.43798456e-01 -1.05558094e-02 +6.32486939e-02 +6.95347264e-02 -7.06505924e-02 +3.54831129e-01 +4.90069538e-02 +5.41308708e-02 -1.26879988e-02 +4.84391749e-02 +1.08828537e-01 +8.99559632e-02 -7.01537877e-02 +4.82816901e-03 +3.86847854e-02 +2.08577484e-01 +1.08807720e-01 -2.26479873e-01 +6.93888813e-02 -1.80107970e-02 -3.28665711e-02 -2.08422355e-02 -8.38147327e-02 +4.37279567e-02 -1.55885518e-01 -1.57753415e-02 -5.60505986e-01 -6.66698366e-02 -2.28436902e-01 +2.69513484e-02 -1.34217024e-01 +1.29846469e-01 -1.53638318e-01 -6.68329224e-02 -6.36300147e-02 +1.60409474e+00 +4.87195551e-02 -1.73044011e-01 -3.49308015e-03 +6.07521012e-02 +2.71160781e-01 +1.60495434e-02 +1.73045266e-02 -1.13626659e-01 -2.88238317e-01 +9.54949260e-02 +3.95438552e-01 -3.20673250e-02 +3.86837199e-02 +1.04646243e-01 -2.64145523e-01 +9.45481434e-02 -1.84156954e-01 -1.74278188e-02 +2.07452685e-01 -2.12209094e-02 +1.07265286e-01 +8.58599320e-02 -2.63002098e-01 -3.94013561e-02 -1.82201162e-01 -2.03985497e-01 +7.00692475e-01 -4.14491110e-02 -5.30299135e-02 -2.51189042e-02 +1.00310647e+00 +8.85918513e-02 +9.26291943e-02 +4.52709980e-02 +1.44520357e-01 +6.11707196e-02 -2.72786804e-02 +2.20156121e+00 +1.10537492e-01 -1.64178610e-02 -3.03525291e-02 +4.86416787e-01 +4.33191992e-02 +1.45872515e-02 +1.91443283e-02 -1.31977219e-02 +8.31442848e-02 -9.64755341e-02 -2.48226542e-02 +6.73438981e-02 +2.99351290e-02 +9.59954113e-02 -1.40949026e-01 +5.13819372e-03 -1.81073904e-01 -2.72697866e-01 +6.31977469e-02 +9.87114966e-01 -7.66369477e-02 -6.48669824e-02 +2.13263631e+00 +1.14928849e-01 +1.14996977e-01 +7.86979273e-02 +1.52572125e-01 -6.19569123e-02 -2.61051834e-01 +1.88997835e-01 +3.75848003e-02 +2.07797661e-01 -1.84884489e-01 +1.19778723e-01 +9.53395218e-02 +2.12795101e-02 +8.05926770e-02 +1.10785350e-01 +5.69449663e-02 -5.21318913e-02 +6.90179914e-02 -7.12430030e-02 +3.80101353e-02 +1.25864685e-01 -2.49720160e-02 +1.41819656e-01 -2.26039171e-01 -4.53099702e-03 -8.30325931e-02 -3.63656245e-02 -4.18952219e-02 +9.75230038e-02 +4.32297401e-02 -8.92807692e-02 -1.21788969e-02 +4.19907905e-02 +1.64352581e-01 -1.66897699e-01 -5.87636884e-03 -2.03404259e-02 -2.57570017e-02 -2.72310469e-02 +7.50130191e-02 +4.94563021e-02 +1.04062287e-02 +2.41783820e-03 +1.93248540e-02 +7.21038654e-02 +4.64865923e-01 +8.27030912e-02 +2.39781174e-03 +2.37489730e-01 +6.72556683e-02 +1.12744465e-01 +6.19752519e-02 +2.65875876e-01 -2.87337542e-01 -7.98499584e-03 +2.33914726e-03 +1.34120733e-01 +2.04192083e-02 -8.95470474e-03 -2.67107725e-01 +1.47774339e-01 -5.82598848e-03 +8.92144144e-02 -1.46448761e-02 +1.47216981e-02 +1.02683485e-01 -1.38455853e-01 -1.64972544e-01 -2.65875664e-02 +1.07064582e-01 -8.93183351e-02 +8.01231116e-02 +5.61634414e-02 -4.39237095e-02 -2.24107057e-02 -1.07107170e-01 +2.10902165e-03 +6.35472536e-02 -1.47760585e-01 -9.12356526e-02 -1.96831688e-01 -6.77841827e-02 +2.35396773e-01 +6.32731616e-03 -1.03325143e-01 +5.24806567e-02 +8.26689005e-02 -5.65718599e-02 -3.59357633e-02 -1.21547304e-01 -1.85441338e-02 -3.78219299e-02 -2.39249542e-01 +9.21616852e-02 -9.05886199e-03 +6.36629015e-02 +6.64608106e-02 -6.24264963e-02 -1.04755023e-02 -5.52305505e-02 -5.79560548e-02 +8.44753385e-02 -9.99794900e-02 -3.04401964e-02 +7.82601908e-02 -3.49281356e-02 +8.84261355e-02 +3.81049402e-02 +1.59866989e-01 -6.21694662e-02 -1.97143435e-01 -9.10224617e-02 -1.41473580e-02 -9.10477713e-02 +5.70979752e-02 +3.22746709e-02 -1.10770417e-02 -5.89553528e-02 -4.04985547e-02 +1.05077833e-01 -1.94777876e-01 -3.59582044e-02 +5.66223310e-03 +8.97730421e-03 +7.39536807e-02 -2.68380605e-02 +1.09890737e-02 +1.36007756e-01 +8.56744125e-02 -2.14481190e-01 +4.84040752e-02 -2.07321540e-01 +1.75953105e-01 -8.58608931e-02 +1.84856609e-01 +5.87224960e-02 -6.29464090e-02 +5.12622222e-02 +7.77943879e-02 -7.70495564e-04 +1.91825241e-01 +1.04456767e-02 +1.36701897e-01 +1.31579131e-01 +9.11947116e-02 -1.02110840e-02 -1.64176866e-01 -5.63237786e-01 -5.99228367e-02 +2.43446510e-03 -5.51411062e-02 +6.18444309e-02 +1.11868314e-01 -1.61032081e-01 -2.63973791e-03 -3.97137506e-03 +6.47059456e-02 -5.21539934e-02 -5.45540545e-03 +8.32062811e-02 +1.19064905e-01 +7.51900151e-02 +9.91644040e-02 +9.23914760e-02 -1.30441546e-01 +1.91675231e-01 +2.13489728e-03 +8.47659037e-02 -1.00984918e-02 -3.46907158e-03 -6.58084825e-02 +6.19565248e-02 -6.07032515e-02 -5.62300207e-03 +8.68314430e-02 -2.23264247e-02 +2.55279601e-01 +1.08989067e-01 +1.27133597e-02 +3.11873615e-01 -6.56912997e-02 +9.40884054e-02 +2.21558586e-02 +4.20736484e-02 +2.44484339e-02 -4.49462906e-02 +3.23711112e-02 -4.54395376e-05 -1.88807696e-02 +3.35621387e-02 +1.12826087e-01 +4.62362677e-01 -4.79512960e-02 -1.15282670e-01 -3.71174902e-01 +8.87178406e-02 +6.10969663e-02 -9.24018919e-02 +3.07928622e-02 -2.64925271e-01 +6.48045214e-03 -4.17567305e-02 -1.29979759e-01 -4.67478018e-03 +4.15805936e-01 -6.54683858e-02 +2.22218350e-01 +9.45731550e-02 +7.13986382e-02 -2.33297199e-01 +1.63283542e-01 -6.85086474e-02 +6.09442778e-02 -7.05962256e-02 -2.69593261e-02 +7.87589550e-02 -1.31055489e-02 +4.60730530e-02 +2.73831822e-02 +7.02093095e-02 +5.45558892e-02 -5.85049167e-02 +1.68009385e-01 -2.19560191e-01 +6.94200248e-02 -2.17685908e-01 +8.64579827e-02 -1.47293776e-01 -5.91683127e-02 -7.61462376e-02 +7.69662932e-02 +3.20694111e-02 -3.01383790e-02 -1.10378444e-01 -8.16291869e-02 -7.94191957e-02 +1.31224483e-01 +6.37947395e-02 +1.28364444e-01 -7.24781901e-02 -2.92197168e-02 +7.78133199e-02 +8.91293362e-02 -2.91478466e-02 -1.26926899e-02 +1.37791081e-04 +8.83680135e-02 +1.37414944e+00 -5.65604381e-02 +4.66996208e-02 -1.36198644e-02 +3.42059098e-02 +4.37827744e-02 -1.44636661e-01 -7.33818999e-03 -3.42033282e-02 +1.29765213e-01 +1.92420572e-01 -2.48264633e-02 -2.24317655e-01 -1.16689108e-01 -2.33735722e-02 +9.60466638e-03 +1.02859885e-01 +9.35950279e-02 +3.06174941e-02 -5.15496880e-02 +1.88736692e-02 +1.09618269e-01 +4.38138172e-02 +4.13904106e-03 +1.08555920e-01 -2.83034027e-01 -4.83813435e-02 -5.07016890e-02 -2.98160374e-01 -1.59003869e-01 -1.70569509e-01 -6.40796637e-03 +3.49534638e-02 -1.26525238e-01 +2.51861922e-02 -2.84361336e-02 -1.41069770e-01 -9.51263234e-02 +7.64473304e-02 +1.21967152e-01 +8.29863995e-02 +5.67624904e-02 -1.38243660e-01 +1.22811124e-02 -2.67036483e-02 -1.62723556e-01 +4.06912714e-02 +6.02538168e-01 +1.64055750e-02 +3.87419350e-02 -1.06823996e-01 -9.48452577e-02 -2.36187279e-02 -8.78990367e-02 -6.33915886e-03 -1.62993729e-01 +2.06486806e-01 +4.74343747e-02 +6.00577220e-02 +2.00833892e-03 +5.41650318e-02 +1.85297239e+00 -8.17656964e-02 -4.95944023e-01 +1.55604735e-01 +6.99429289e-02 +4.03705776e-01 +2.07401197e-02 +6.97005987e-02 +4.19774950e-02 +9.55542400e-02 +6.58718199e-02 -6.01680614e-02 +2.06723318e-01 +3.32727619e-02 +3.72658037e-02 -6.08778186e-02 +1.26539811e-01 +2.47088462e-01 -2.27664728e-02 +1.20420992e-01 -8.38331133e-03 -7.85335183e-01 +6.25424162e-02 -2.59558648e-01 +2.64697254e-01 -1.69726625e-01 +1.62968576e-01 -1.09151520e-01 +2.59294927e-01 +3.03774178e-01 +5.61472714e-01 +6.43383013e-04 +3.24713439e-01 +7.74538368e-02 -6.16216473e-02 +2.58825272e-01 +6.47152290e-02 +3.32443379e-02 -7.63923973e-02 -1.13507889e-01 -1.37151536e-02 +4.80237842e-01 -4.67163734e-02 +9.91178956e-03 -2.35637948e-02 -2.61844695e-01 -1.01370588e-01 +2.56778747e-01 +6.09260909e-02 +4.31816161e-01 +7.84603804e-02 +1.60146844e+00 +1.80672742e-02 +4.96197373e-01 +4.86644246e-02 -1.98254958e-01 -2.97623873e-01 +4.18891013e-01 +6.64187148e-02 +1.77721798e-01 -7.04645962e-02 +5.76577127e-01 -7.80025870e-02 +6.17075199e-03 +7.38241971e-02 +9.35166851e-02 +2.69436408e-02 +2.78710015e-02 +2.94521242e-01 -2.71170810e-02 +9.31883678e-02 +6.43501103e-01 +1.22277163e-01 +3.66899520e-02 -4.45773974e-02 -7.52527639e-02 +1.05868123e-01 -3.47969607e-02 +3.31226438e-02 +1.06377430e-01 +1.19964969e+00 +4.86021563e-02 +7.57635981e-02 -4.39295731e-02 -5.27950674e-02 +5.39208293e-01 -4.66195583e-01 +4.98353317e-02 -2.52735466e-01 +5.84593713e-02 +1.70487352e-02 +7.49238133e-02 -3.04292422e-02 +4.29508060e-01 +3.85171250e-02 +1.23695545e-01 +6.66343272e-01 -1.55920163e-01 +3.04780126e-01 +2.80418253e+00 +2.05928892e-01 +6.28030673e-02 +1.93873808e-01 -2.90013943e-02 -2.70457476e-01 +1.76068326e-03 -5.13841286e-02 +2.00252086e-02 +1.24517702e-01 -7.23840892e-02 -7.50858560e-02 +1.62553325e-01 -2.15881765e-02 +9.77459177e-02 +1.65796742e-01 -3.52601111e-01 -4.94247489e-02 -4.81063098e-01 -2.60022551e-01 -5.06427512e-02 +1.21083274e-01 +5.92548475e-02 +9.43674445e-02 +3.55706513e-01 -5.32638393e-02 +3.51490825e-01 -7.23631680e-02 +2.53826708e-01 +1.95676669e-01 +4.58706282e-02 -1.15442336e-01 +6.77157342e-02 -8.90041739e-02 +3.88096087e-02 -7.71842226e-02 +4.64277575e-03 +2.06826422e-02 +6.17281973e-01 -6.73003420e-02 +7.32917607e-01 +6.94765210e-01 +9.04290657e-03 +6.07432611e-02 -1.96354706e-02 +1.75842613e-01 -3.56334955e-01 +1.37256486e-02 +2.43332125e-02 +1.95387915e-01 +2.01438928e+00 +1.03810981e-01 -4.42926377e-01 +3.98387551e-01 -5.25133386e-02 +2.60263085e-01 +5.85310236e-02 +7.65740424e-02 +5.25802791e-01 +1.76834121e-01 +2.76074022e-01 -3.53792757e-02 +7.90215060e-02 -5.13479859e-02 +1.12571426e-01 -4.60364908e-01 +7.80504793e-02 -2.30435282e-01 -8.84548277e-02 -1.49694070e-01 +8.60676318e-02 +4.51023243e-02 +1.60369694e-01 -1.31432128e+00 +2.30435072e-03 +1.87029600e-01 +2.59075463e-01 +4.34767194e-02 +1.12007469e-01 -3.38838212e-02 +1.14292167e-01 +1.52081400e-02 +3.05000544e-01 +9.35628563e-02 -1.13828224e-03 -1.47219941e-01 +1.03647053e-01 +1.04464263e-01 -9.10130665e-02 +2.23041996e-02 -4.42233495e-02 -7.91319534e-02 -9.44312513e-02 -3.82502154e-02 -4.14593183e-02 -1.86218753e-01 +9.75344256e-02 +1.09924763e-01 +3.89917381e-02 +8.81422013e-02 +8.18998888e-02 +2.58736312e-01 +6.12916350e-02 +8.86902958e-03 +9.89250243e-02 +8.93824548e-02 +1.07423142e-01 +6.35039955e-02 +2.10138373e-02 -6.91954792e-02 +9.59294513e-02 +1.69959888e-01 -4.76425700e-02 -2.43408009e-01 +7.16931000e-02 +3.35703976e-02 +9.24296901e-02 -1.62843559e-02 +8.70337635e-02 -4.02668081e-02 -9.31667089e-02 +5.92723228e-02 -6.13607228e-01 -1.71676595e-02 -4.55611311e-02 +1.30269215e-01 -2.05203429e-01 +1.49546057e-01 +4.94074123e-03 -1.55266196e-01 +9.43087637e-02 +1.63366902e+00 -8.74987468e-02 