#Parameter# /_0 {30,3} 1441 ZERO_GRAD
-1.20896744e-02 -2.90051550e-01 -4.56649393e-01 +2.50548482e-01 -2.73295969e-01 -1.60868481e-01 -2.79420495e-01 -2.39728913e-01 -1.18643209e-01 -1.78172812e-01 -1.14029922e-01 -3.05710047e-01 +1.61331341e-01 +4.25852276e-03 +5.28856665e-02 +1.76784530e-01 -1.59209147e-01 -1.70392752e-01 -6.00659013e-01 +5.00392377e-01 +7.64685962e-03 +5.16125374e-02 -1.40675560e-01 -1.21082969e-01 +2.02214330e-01 -2.53351070e-02 +1.00423872e+00 +1.02524282e-02 -9.64444518e-01 -1.16396680e-01 -9.28053111e-02 +2.51416713e-02 +2.64647394e-01 +5.63371658e-01 -1.49537232e-02 +1.06145322e-01 +2.58565187e-01 -1.61917601e-03 -1.01218022e-01 +8.39626696e-03 +5.16528368e-01 +3.22767526e-01 +2.63254903e-02 +6.04681373e-02 -1.39144901e-02 +1.60849988e-02 -2.17180178e-01 -8.16161260e-02 +2.68327475e-01 -2.44522065e-01 -1.10748720e+00 -3.28302011e-02 +5.29244184e-01 +4.38911356e-02 -1.35348231e-01 +2.25922450e-01 -2.02666238e-01 +8.47301900e-01 -1.47677399e-02 +2.59641744e-02 -3.10153905e-02 +4.90854792e-02 +8.79363064e-03 -3.28678340e-01 -8.85643288e-02 -4.43933457e-01 -3.23189616e-01 +3.65032852e-01 +4.83529419e-01 +1.48549348e-01 +3.98948900e-02 -4.24502641e-01 -6.18571937e-02 +3.72957766e-01 +4.54441309e-01 -4.09427404e-01 -3.79513204e-01 +3.90121102e-01 -5.04976586e-02 -1.76934704e-01 -2.77549233e-02 +1.02132976e-01 -4.84597594e-01 +4.44719642e-02 -4.25166875e-01 +3.01089436e-01 -1.32400334e-01 -1.80848509e-01 +1.07521482e-01 +2.56453544e-01 
#Parameter# /_1 {30} 481 ZERO_GRAD
+4.09892201e-02 -3.31909284e-02 -1.78775460e-01 +1.22237645e-01 +2.85683662e-01 +2.16163293e-01 +1.12084508e-01 -6.14350319e-01 -8.23201358e-01 -2.83061117e-01 -4.70299095e-01 +3.63116384e-01 -2.48524576e-01 -5.61085701e-01 -7.08693683e-01 +7.81153083e-01 -2.03918159e-01 -6.34934247e-01 -3.90677214e-01 +3.43576252e-01 -4.57424730e-01 -3.13640237e-01 +1.48549274e-01 -1.65446863e-01 +6.19385302e-01 -4.58545983e-01 -1.69040233e-01 -4.49842602e-01 -7.18562126e-01 -4.64745998e-01 
#Parameter# /_2 {90,30} 43201 ZERO_GRAD
-7.64167756e-02 +1.41559064e-01 +2.61672765e-01 +7.27600744e-03 +1.50955498e-01 +2.48069048e-01 -1.91509113e-01 +4.49547805e-02 -6.61922753e-01 -1.38994530e-01 +3.80039252e-02 -7.42348790e-01 -1.46264091e-01 -8.09667051e-01 +3.54371607e-01 +1.21287227e-01 +3.35737735e-01 -1.87930122e-01 +1.32482842e-01 -2.52354175e-01 +1.32690167e+00 +2.40467235e-01 -1.38618052e-01 +2.51316093e-02 -7.77220502e-02 +2.35489041e-01 +1.15289859e-01 -3.18405151e-01 -1.18998900e-01 +1.23396665e-01 -1.36906400e-01 +2.44660124e-01 +1.55538186e-01 +9.75704566e-02 +1.57151401e-01 -5.96006632e-01 -2.39976794e-01 +1.55305341e-01 -8.37195218e-01 +5.16851693e-02 +8.76720995e-02 -8.48432258e-03 +8.32631588e-02 +1.97437137e-01 -1.53705170e-02 +2.18364701e-01 +1.12439498e-01 +5.11216174e-04 +1.22703284e-01 +2.20221654e-01 +2.85852253e-02 +2.23981261e-01 -2.34225079e-01 -2.51788616e-01 -4.46252413e-02 +4.60095033e-02 -1.96858928e-01 +3.87924053e-02 -3.66463840e-01 -2.75284886e-01 -4.36832346e-02 -1.50197208e-01 -2.64955848e-01 -2.03399718e-01 +1.33569419e-01 -4.18040901e-03 -8.94994065e-02 -2.57960651e-02 +2.33392566e-02 +2.31366709e-01 -4.64950353e-01 +7.78069422e-02 +1.98458180e-01 +4.96681556e-02 +8.55018795e-02 -1.99030470e-02 +2.82037497e-01 -4.28233445e-02 +2.83833325e-01 +4.14682552e-02 +1.14617683e-02 -2.58208122e-02 -3.18902224e-01 +1.42245233e-01 -3.08727443e-01 +2.38050014e-01 -1.78442568e-01 +1.37807801e-01 -6.57866299e-02 -2.83151954e-01 +5.12200519e-02 +9.30516124e-02 +1.15997136e-01 +3.29761624e-01 -4.70012277e-02 +3.70799303e-02 -1.97561774e-02 +2.99864501e-01 +1.37962699e-01 +6.03267178e-02 -8.80241301e-03 -2.06445336e+00 +5.24599031e-02 -4.04021949e-01 +2.55669385e-01 +5.07968441e-02 +2.95995444e-01 -1.65448740e-01 -1.93321928e-01 -1.15455817e-02 +6.44114196e-01 +8.98048002e-03 -1.51935816e+00 -8.10307637e-02 +1.51940584e-01 -1.92120925e-01 +6.96688816e-02 -8.94449651e-02 -1.33382216e-01 +1.03235938e-01 -9.39129740e-02 -6.24269843e-02 -1.93093523e-01 -1.68250322e-01 +1.06462590e-01 +7.70508572e-02 -5.37581593e-02 -2.58890599e-01 +1.67879254e-01 +2.02869102e-01 -1.55316263e-01 +3.55019495e-02 -5.68163767e-02 -3.64133239e-01 -7.11071789e-02 -1.82689186e-02 -1.88163608e-01 -5.10914735e-02 +9.73410159e-02 -3.06906700e-01 +1.16324157e-01 -3.05187237e-03 -3.94391209e-01 +2.75350660e-01 +1.00967534e-01 -1.15624920e-01 +6.11905269e-02 -3.07798475e-01 +3.42804730e-01 -1.91581771e-01 -2.29958177e-01 +3.71517316e-02 +1.36338770e-01 -9.10635069e-02 -3.04771885e-02 +3.47801983e-01 -1.05524883e-01 -1.17631125e+00 +8.37846175e-02 -1.48472330e-02 -1.87637322e-02 -1.87868755e-02 -7.71173954e-01 +1.61553979e-01 +2.31789216e-01 -1.56919494e-01 +8.46388713e-02 +1.20800652e-01 -2.94116475e-02 -2.45615840e-01 -5.10443114e-02 +9.91999060e-02 -1.37360618e-01 +1.27808601e-01 -8.67999792e-02 -6.50655031e-02 -2.37194747e-02 +5.22188507e-02 +9.96911377e-02 +1.75387010e-01 +9.26316231e-02 +3.01362991e-01 +1.99698865e-01 -1.38202399e-01 -2.56657314e+00 -2.07660842e+00 -1.59242585e-01 +2.04221487e-01 +1.38214245e-01 +3.64502877e-01 -5.85105866e-02 -1.78782535e+00 +1.23177327e-01 +3.39288302e-02 +1.46697477e-01 +3.23675781e-01 -7.28071332e-02 -1.22004319e-02 -1.71886399e-01 +1.69899851e-01 +2.33788371e-01 -2.95471046e-02 -7.80999243e-01 -9.39995721e-02 +2.21749201e-01 -1.40501738e-01 -4.82643880e-02 +1.64013207e-01 -6.29605055e-02 +2.78342277e-01 +1.30417958e-01 -4.01859224e-01 +7.10191876e-02 -3.42069954e-01 +1.04973847e-02 +1.39275506e-01 -8.80899429e-02 +3.94628316e-01 +1.98519379e-01 +3.26357126e-01 +6.77451119e-02 -1.38073504e-01 +4.97741587e-02 +5.04182018e-02 -1.31964013e-01 -5.53081222e-02 -2.36375928e+00 -1.16080508e-01 -8.53706077e-02 -2.60714471e-01 +1.52606577e-01 -6.80799186e-02 +9.62022096e-02 +4.53281790e-01 -1.09473772e-01 -3.01748365e-02 -1.42557070e-01 -9.48694050e-01 -5.31337373e-02 +9.19674058e-03 -1.22342825e-01 -5.68213984e-02 +8.19630474e-02 +4.40012328e-02 +1.80988871e-02 +3.90900932e-02 -1.26291186e-01 -1.15710986e+00 +8.78380090e-02 +5.95219284e-02 +1.47443965e-01 -7.59545621e-03 -8.18846822e-01 +2.65318334e-01 -2.31141543e+00 +3.57153080e-02 -6.16461039e-01 +3.03799808e-01 -1.15384310e-01 -1.25043488e+00 -1.70535803e-01 -1.74299926e-02 +2.14259043e-01 -4.94089834e-02 -4.39566793e-03 -1.54083684e-01 -1.26837865e-01 -6.68463349e-01 -1.72635123e-01 +2.49554455e-01 +9.61156785e-02 -6.34180069e-01 -3.02310377e-01 +5.55591047e-01 -5.50082475e-02 -4.45893049e-01 +1.62802204e-01 -6.20554924e-01 -3.49860251e-01 +1.44336164e-01 +4.83663470e-01 +3.54398280e-01 -2.20820695e-01 +1.82839066e-01 -4.26896513e-01 +1.69407073e-02 -4.39020663e-01 -4.83897060e-01 -1.03333771e+00 -3.18476051e-01 +1.04416542e-01 -9.22550678e-01 -1.19124852e-01 -1.10523559e-01 +6.22500896e-01 -4.06742334e-01 -1.58440679e-01 -1.55553982e-01 -2.61044018e-02 +5.89535356e-01 -1.98080719e-01 -1.24210691e+00 -1.70934096e-01 -2.33873144e-01 -4.75507706e-01 -4.18168515e-01 +4.20309722e-01 -4.01211679e-01 -9.46234167e-01 -1.25801849e+00 -6.14062287e-02 -3.07272673e-01 -7.53699303e-01 +4.93369512e-02 -6.77143991e-01 -5.17833471e-01 -8.88956860e-02 -5.80295086e-01 -4.71039474e-01 -5.40898502e-01 -1.79511860e-01 -1.08721852e+00 -5.90759754e-01 -3.39498013e-01 -1.60678542e+00 -1.21655703e-01 +4.05969679e-01 +3.54443677e-02 +2.71619290e-01 +8.35137963e-02 -5.80550209e-02 +4.69529554e-02 -1.81548715e-01 -1.27287045e-01 -7.40179837e-01 -4.11632806e-01 -2.05022261e-01 -3.26520689e-02 +1.18444182e-01 -2.78406143e-01 -1.11944824e-01 +1.52694136e-01 -1.55204758e-02 -6.49680972e-01 -2.51860112e-01 -2.30668306e-01 -5.40514290e-01 +7.40558028e-01 -1.18689442e+00 -9.76828020e-03 -4.64652926e-01 +1.56997144e-01 -9.65932727e-01 -3.09496999e-01 -3.03398132e-01 -8.70061398e-01 -6.79991916e-02 -5.34087360e-01 -9.28354412e-02 -9.33311105e-01 -1.50814518e-01 +2.45006636e-01 +1.31506220e-01 -2.12927088e-01 +4.00777943e-02 -4.20973264e-02 -3.38368379e-02 +3.43862087e-01 -2.72899240e-01 +1.77154332e-01 -1.20190658e-01 -5.49836099e-01 +2.97548212e-02 -5.15075326e-01 -1.27228245e-01 +5.09293191e-02 +1.75076574e-01 -1.44553661e-01 +1.73977643e-01 +5.63389156e-03 +2.86253065e-01 +1.03944488e-01 -1.65350747e+00 -6.62960857e-02 +1.65766001e-01 -1.40748955e-02 -1.21236905e-01 -3.28692138e-01 -1.90902531e-01 +1.86745748e-01 +1.70127317e-01 -5.86865880e-02 +2.32007559e-02 -2.69270062e-01 -1.06751733e-01 +7.32722878e-02 -4.30529952e-01 -1.63069248e-01 -2.57583737e-01 +2.40987971e-01 -1.04633272e-01 -2.08503450e-03 +2.47660875e-02 -5.29895313e-02 -8.06817189e-02 +1.03457205e-01 +2.82045063e-02 -1.53642297e-02 -1.56833977e-02 -3.34753931e-01 +3.50943394e-02 +1.17908299e-01 -6.83521748e-01 +2.83271343e-01 +1.15443870e-01 -1.68548286e-01 -3.55449766e-01 -4.74553615e-01 -7.65977502e-01 +3.60344499e-02 -8.86420012e-02 +1.35166019e-01 +1.66322514e-02 +1.16747096e-02 +9.12175179e-02 +5.07045188e-04 -1.25346854e-01 -5.28830528e-01 -4.66296524e-02 -8.08062479e-02 -2.33635843e-01 -4.67960946e-02 -4.39571828e-01 +9.65018794e-02 +2.17439458e-01 +7.62631223e-02 +2.78004110e-02 +1.83632582e-01 +3.14543754e-01 -1.01102553e-01 -1.50840893e-01 +9.81546268e-02 -9.30627510e-02 -3.36890042e-01 -6.77046999e-02 +8.51551592e-02 -9.63907465e-02 +1.39434204e-01 -1.74233377e-01 -1.25648275e-01 -6.48425613e-03 -8.54672790e-02 +2.07728684e-01 -2.03071341e-01 -8.53809621e-03 +8.68133083e-02 +2.55191009e-02 -2.78537065e-01 -1.83800220e-01 -4.33929801e-01 +1.67868331e-01 -1.94393426e-01 -1.93922237e-01 -2.08848640e-01 -9.19562802e-02 +5.81445135e-02 +2.43413836e-01 -3.34778249e-01 -2.27632850e-01 -1.81889847e-01 +8.45473111e-02 +1.05322294e-01 -9.32708904e-02 -2.38517560e-02 +2.49753520e-01 -5.24838120e-02 -5.92130609e-02 -8.58730450e-02 +1.18874647e-01 -3.64296854e-01 -1.33507103e-01 -2.35397220e-01 -2.69026160e-01 +5.08898310e-02 -5.79575121e-01 -2.39267379e-01 -6.40694574e-02 +3.92660111e-01 -8.02190006e-01 +4.47189093e-01 -6.88152984e-02 +1.42667100e-01 -3.95749122e-01 -1.81327522e-01 -4.64737043e-02 -2.66399115e-01 -4.60294634e-02 -1.21863639e+00 +2.76752561e-01 -3.73787209e-02 -2.46930122e-01 -1.07054278e-01 +9.23998281e-02 -3.11423047e-03 -7.11976707e-01 +6.10014141e-01 +1.93834811e-01 +1.61899880e-01 +1.65502384e-01 +4.22900543e-02 -1.66903839e-01 -1.94191068e-01 +2.78661788e-01 -1.71272993e-01 +1.48447827e-01 -3.20619494e-02 -1.07750380e-02 -1.18247740e-01 +2.25463852e-01 +2.62480348e-01 +1.24898046e-01 +3.86772119e-02 -1.73121020e-01 -5.88883400e-01 -1.80927962e-01 +3.14030528e-01 -1.08544014e-01 -2.45591775e-01 -4.05594707e-01 -4.45253760e-01 +1.88385889e-01 -4.05982494e-01 -3.84596497e-01 -9.25917029e-02 +3.32134187e-01 -1.92346454e-01 +1.27706453e-01 +2.18900263e-01 +1.38647854e-01 -8.08056965e-02 -2.60518521e-01 +6.94163501e-01 +9.04515460e-02 -6.04246743e-03 +4.50458713e-02 +3.05865780e-02 +7.10144043e-02 -5.22414930e-02 -1.57056853e-01 -4.36590374e-01 +1.47608414e-01 -1.66089684e-01 +1.26927674e-01 -7.88575485e-02 +3.05576503e-01 +1.51700079e-01 -2.10891873e-01 +2.07574621e-01 -4.31035757e-02 -8.63357127e-01 -1.46951392e-01 -4.61148500e-01 +2.27964208e-01 -2.09564239e-01 -2.31951505e-01 -8.61408487e-02 -1.03874095e-01 -1.10256267e+00 -6.67522252e-02 -2.25084141e-01 +6.68188706e-02 +2.73482889e-01 -2.76033700e-01 +3.00283097e-02 +7.61197388e-01 +1.10624135e-01 +1.26084089e-01 +2.37631146e-02 +2.46289410e-02 +3.89255993e-02 -9.21085328e-02 +1.12516351e-01 -3.51618558e-01 -1.67014331e-01 +7.41316855e-01 +9.23252180e-02 -2.42870048e-01 -6.78993538e-02 -3.34926397e-01 +5.47069460e-02 +1.93372294e-01 -7.64888108e-01 -9.24428180e-02 +2.43415430e-01 +1.51287362e-01 -1.82553664e-01 -2.38214191e-02 +9.53644812e-02 -2.50840813e-01 -1.22958660e+00 -1.53533205e-01 +6.36755750e-02 -5.60099065e-01 +1.68577686e-01 -1.05866618e-01 +1.57513276e-01 +1.64523885e-01 +2.00463042e-01 -4.90763426e-01 -1.47381797e-01 -1.90056577e-01 +1.46669641e-01 +1.75058097e-01 -2.22649753e-01 +1.56452373e-01 +8.39791149e-02 +1.10524036e-01 -2.44079828e-01 -9.49658155e-01 +1.09013893e-01 +1.03803623e+00 +3.53704154e-01 +2.38584146e-01 -1.00125469e-01 +2.46386215e-01 +6.36340737e-01 +1.70140207e-01 -1.83625475e-01 +2.43716300e-01 +1.85072690e-01 +1.64289922e-01 -4.22953181e-02 -5.30852914e-01 +2.03442544e-01 -1.42912066e+00 -1.48209727e+00 +3.19781631e-01 -3.72883141e-01 -8.34931135e-02 +2.27982327e-01 +4.89767045e-02 -6.29891336e-01 -5.91788674e-03 +3.29847783e-01 -1.54830503e+00 -6.67110324e-01 -8.32877934e-01 +1.65885925e-01 +5.02337515e-01 +1.47700623e-01 -6.91264212e-01 -8.07585835e-01 +2.55284578e-01 -8.03025216e-02 +2.12221295e-01 -4.25081730e-01 +2.69043326e-01 +6.76138252e-02 -8.98416564e-02 +9.39950645e-02 -9.25064534e-02 -8.59177887e-01 +5.21066934e-02 +6.52399734e-02 -1.00582041e-01 -2.35928178e-01 +3.32956344e-01 +1.14121832e-01 -4.27620858e-01 +1.18543483e-01 +3.11651826e-02 +2.87195742e-01 -6.72847211e-01 +1.68768004e-01 +3.02330226e-01 +1.27127886e-01 -1.04580270e-02 +1.37402460e-01 -6.90218866e-01 +1.28844395e-01 -3.68445188e-01 -1.10838711e+00 +2.62163281e-01 -2.53763765e-01 +1.67241469e-02 -3.90126228e-01 +4.46212411e-01 +4.73698318e-01 +4.02585387e-01 +1.98144764e-01 +3.37190896e-01 -1.38544679e-01 -9.31300938e-01 +1.85149804e-01 +3.07863504e-01 -3.26036978e+00 +2.05386475e-01 -1.80302739e-01 -4.63204533e-01 -2.37529978e-01 +8.77654776e-02 +5.51871583e-02 +3.42869610e-01 -2.64424515e+00 -5.57314418e-02 -3.34547311e-02 -2.28329253e+00 +2.06310287e-01 -1.07622814e+00 +7.08863139e-02 +5.18963158e-01 -3.55835222e-02 +1.81022242e-01 +4.32651043e-01 -1.49053752e-01 -1.95434853e-01 -1.89652994e-01 +4.80770171e-01 +1.83066264e-01 -8.74624699e-02 -1.71753794e-01 -2.59816259e-01 -9.73438770e-02 +3.88994485e-01 -6.43720850e-02 +3.41486812e-01 +3.36984545e-02 -1.15289368e-01 -8.89248550e-01 +9.32199135e-03 +3.02750677e-01 +4.30133492e-02 -1.12456053e-01 +5.98259926e-01 -4.57764059e-01 +2.01084483e-02 -1.44608676e+00 +4.21279669e-01 -7.00279027e-02 -9.34259415e-01 -1.03205335e+00 -8.40828538e-01 +8.15585792e-01 -1.30885869e-01 -9.87175763e-01 -2.68650323e-01 +3.96623194e-01 -2.19411194e-01 -4.74267937e-02 -1.13294113e+00 -2.54964232e-01 -7.27296710e-01 -1.50036216e+00 +3.39712828e-01 +9.90217831e-03 +1.09661388e+00 +5.96025229e-01 +2.86371946e-01 +2.08688349e-01 -1.24703590e-02 -3.11475936e-02 +5.37569642e-01 -7.92544782e-01 +1.63955137e-01 +6.37212217e-01 -1.33619100e-01 +3.82084340e-01 +2.98909575e-01 -7.94602692e-01 -2.08755660e+00 -1.01973701e+00 -7.01813757e-01 +6.02144122e-01 +8.36374581e-01 +1.81399602e-02 -4.08268899e-01 +2.93032646e-01 +3.78299594e-01 -4.26296139e+00 +7.90172666e-02 +2.94947952e-01 +4.26295698e-02 -8.87319267e-01 -1.96069941e-01 +1.88748449e-01 -1.13443747e-01 -1.75800040e-01 +4.45609957e-01 -4.23154563e-01 -8.39654744e-01 -7.82830417e-01 -1.38405990e-02 +6.25549734e-01 +8.33599210e-01 +6.82141662e-01 -2.17761278e-01 -1.20148957e+00 -2.49243632e-01 -8.74101400e-01 +1.83159232e-01 +5.58848321e-01 -2.64687181e-01 -8.73528659e-01 +4.96313214e-01 -3.84140797e-02 -6.83589816e-01 -2.03882232e-01 -4.77808475e-01 +3.25758636e-01 -2.39560306e-02 -1.64663032e-01 +1.27149403e-01 -7.28313103e-02 +1.80968255e-01 -1.06625184e-01 -5.69363534e-02 +1.77084923e-01 +1.33691892e-01 -1.60892516e-01 +9.56556499e-02 +7.20891729e-02 -6.95548594e-01 +2.86453441e-02 -2.64203757e-01 -4.52953465e-02 -8.84186804e-01 +7.89054632e-02 +4.28011715e-02 -5.13642877e-02 +2.20404789e-02 +6.97544813e-01 -1.67145193e-01 -6.01724327e-01 -8.53106976e-02 +1.95104271e-01 -2.57930905e-01 +6.89279437e-02 -7.84695670e-02 +1.39889687e-01 -1.70236994e-02 -1.61544103e-02 +9.31740105e-02 -1.70627832e-01 +3.86521593e-02 +8.39888453e-02 -2.86733598e-01 -1.30824119e-01 -9.22599155e-03 -1.21229403e-02 -1.07094580e-02 +8.85911584e-02 +1.55410483e-01 +5.29804863e-02 -2.59788856e-02 +9.59260389e-02 -1.03027159e-02 +1.72607556e-01 -4.09746356e-02 -4.07297015e-02 -1.79086328e-01 -8.49546120e-02 -4.95791227e-01 -9.04383417e-03 +2.04446930e-02 +1.35133609e-01 +2.41321139e-02 -8.92590955e-02 +9.76373479e-02 +1.10514769e-02 +3.76621597e-02 +1.72150791e-01 +1.10019840e-01 -5.12306802e-02 -2.23551422e-01 -3.38146202e-02 -3.89377761e+00 -1.48138897e-02 -1.35970816e-01 -3.24742869e-02 -1.08099997e-01 +1.05898514e-01 +5.61085232e-02 -2.70833284e-01 -6.68159485e-01 -1.40070665e+00 -2.26626262e-01 -1.40050340e+00 +1.54713750e-01 -7.63541758e-02 -5.19093648e-02 +1.18868470e-01 +4.79266718e-02 +5.32106310e-02 +2.84177326e-02 -7.68026412e-01 -9.65440795e-02 +4.15083356e-02 -2.06089807e+00 +5.44605069e-02 +1.68420658e-01 -1.00603104e-01 +5.26834615e-02 +2.94126511e-01 +3.95060629e-01 +7.83713907e-02 -2.03155771e-01 +6.34158030e-02 -6.02564104e-02 +5.88632703e-01 -3.54046375e-01 +1.24982921e-02 +3.96361291e-01 +3.70763727e-02 +3.20928723e-01 +9.23924521e-02 +4.11241591e-01 -6.40425384e-02 -1.34632751e-01 +2.77399391e-01 +4.17672843e-01 -4.34926808e-01 +5.54504432e-03 -6.47674024e-01 -2.10954666e-01 -1.32572889e-01 -4.82970715e-01 +2.54551526e-02 -2.82069534e-01 +9.80072096e-03 +2.62552388e-02 -3.11659519e-02 +2.74363637e-01 -2.77105451e-01 +5.46149053e-02 -3.84742673e-03 +3.42551768e-01 +1.15746580e-01 +4.16902751e-01 +4.81340080e-01 +3.07836756e-02 +8.50812420e-02 +7.54703730e-02 +2.25194409e-01 -9.76510793e-02 -4.84674089e-02 +1.58602446e-01 -1.11407842e-02 -2.17215881e-01 -2.22814381e-02 +5.98461255e-02 +1.92898661e-01 -7.15948595e-03 +4.34281856e-01 +3.39261174e-01 +2.17060838e-02 -2.66040951e-01 +2.66277760e-01 -1.91406116e-01 +3.38893801e-01 +2.56912131e-02 +3.09168044e-02 -1.25438988e-01 -7.55205657e-03 +1.52562827e-01 -3.58319759e-01 -9.98993367e-02 -6.74426323e-03 -1.16867535e-01 +1.95555612e-01 +4.37878132e-01 +5.17564356e-01 +7.55379274e-02 +7.53399968e-01 +1.48156151e-01 +2.74221599e-02 -5.59221804e-01 -6.88248575e-02 -1.78335980e-01 +1.71312749e-01 -1.95363626e-01 +6.51593059e-02 -5.99090680e-02 +3.88910413e-01 -1.57221466e-01 -2.78264433e-01 +3.70231956e-01 -5.14886640e-02 -3.07161957e-02 -1.15630761e-01 +8.36128891e-02 -9.17044282e-02 -7.73836076e-02 -2.50336021e-01 -3.19039762e-01 -2.24028438e-01 +1.06729835e-01 +2.24790704e-02 -3.24910790e-01 +1.70182601e-01 -2.02163845e-01 +2.29650456e-02 -8.25590134e-01 -5.22861443e-02 -6.35077357e-01 +2.28599995e-01 +2.17069671e-01 -2.04019144e-01 +5.39733589e-01 +2.87503488e-02 +1.17252611e-01 +1.10700661e-02 -1.63857266e-01 -6.34318709e-01 +1.17772073e-01 -2.23829061e-01 -3.97214323e-01 +3.58998954e-01 -1.91090018e-01 -1.51705474e-01 +5.73991463e-02 -1.74200386e-01 -1.68721247e-02 -7.71476403e-02 -2.72068083e-01 -7.64572993e-02 +8.33661482e-02 +3.10653448e-02 -2.04418138e-01 -1.17465973e-01 -4.32393044e-01 -1.21312477e-01 -1.41309232e-01 -3.37760360e-03 +3.23792130e-01 +1.37705117e-01 -5.35967946e-01 +1.35986164e-01 +1.12371707e+00 -9.16043520e-02 +1.85836274e-02 +2.42912546e-01 -2.13093892e-01 -1.54136181e+00 +2.09188983e-01 -9.33748335e-02 +9.55690295e-02 -2.73422503e+00 +3.10031101e-02 -9.00080085e-01 -1.53681353e-01 -7.16883913e-02 +3.58922929e-02 +1.19955473e-01 -1.81596205e-01 -3.22185814e-01 -1.92122646e-02 -1.58921614e-01 -5.20081580e-01 -5.84252417e-01 -1.04135215e-01 -5.64866364e-01 -2.00540841e-01 -7.28718117e-02 +5.05504571e-02 +4.08943444e-02 +2.93882713e-02 -1.76620901e-01 -3.70508939e-01 -2.01352853e-02 -1.97503358e-01 +1.14522818e-02 -5.17756194e-02 +3.94279480e-01 -4.37353738e-03 +1.59328178e-01 -3.03387225e-01 -1.26457095e-01 -1.82623580e-01 -1.54765487e+00 +8.04105215e-03 +2.48176814e-03 -4.51803617e-02 -1.69606119e-01 +1.05000250e-01 -2.24448666e-01 +8.94261301e-02 +9.18586254e-02 +4.97777537e-02 +1.63308665e-01 -2.64613777e-02 -1.72167778e-01 +1.46849006e-01 -1.25717372e-01 +2.14695148e-02 +3.01963519e-02 -3.58717963e-02 -7.99024031e-02 -1.48693100e-01 -1.68548688e-01 -7.50177056e-02 +4.75220196e-03 +1.01022959e-01 -2.11969942e-01 -1.74136609e-01 +8.14272240e-02 -4.08909395e-02 -9.19239894e-02 +2.52691489e-02 -1.02046102e-01 +1.51047945e-01 +9.50373039e-02 +1.40276849e-01 +7.04768524e-02 -7.38568306e-02 +6.41637295e-02 +1.40032500e-01 +1.86718315e-01 +2.52622832e-02 -6.86941296e-02 +1.06639139e-01 -4.10800194e-03 -2.02300381e-02 -2.07310379e-03 -3.28793302e-02 +8.76846313e-02 -1.50490955e-01 +1.61773860e-01 +1.34314969e-01 -2.21237227e-01 +1.29657492e-01 +1.39129028e-01 +9.05803889e-02 -1.41856685e-01 -1.19532555e-01 +1.05196111e-01 +1.27597988e-01 +2.71163024e-02 +1.42788738e-01 -1.48175150e-01 +3.22676525e-02 +8.70621204e-02 +2.93606594e-02 -1.27420127e-01 -1.96769893e-01 +1.50389560e-02 +7.16033578e-02 +1.93509553e-02 -9.79977250e-02 -1.49820551e-01 -2.13378981e-01 -1.67601302e-01 -5.52866235e-02 -2.44021360e-02 +3.45177427e-02 -1.81343690e-01 -1.35559723e-01 +1.52374297e-01 +8.57323874e-03 -9.92323309e-02 -2.39111446e-02 +8.99365321e-02 +1.65782586e-01 -2.83347238e-02 +6.72086179e-02 +1.53871864e-01 -7.77076483e-02 +9.93371829e-02 -3.92455980e-02 +1.30812094e-01 -1.69555321e-01 -2.20335200e-01 -1.79957330e-01 -1.87096965e+00 -1.50168628e-01 -1.54626834e+00 -4.30401802e+00 +1.75200537e-01 -3.35635513e-01 -3.33120078e-01 -6.19986594e-01 +3.45140040e-01 -2.22907633e-01 +4.63521034e-02 +2.72112906e-01 +2.80212641e-01 -1.51208639e-01 -3.28933388e-01 +1.83300629e-01 -2.63423681e+00 +2.64307857e-01 -4.84332182e-02 -1.33482262e-01 +1.47055119e-01 -2.01799795e-01 -1.76137078e+00 -2.32051581e-01 +4.67003345e-01 +2.14783669e-01 -1.80289242e-02 -2.12908506e+00 -6.84174523e-02 +2.02199787e-01 +3.11552659e-02 -1.91249296e-01 -6.13471530e-02 -1.13291360e-01 -3.16187143e-02 -2.73532653e+00 -3.87260556e-01 -1.24507391e+00 +3.74286659e-02 +4.35978323e-01 -1.77079752e-01 +3.91265213e-01 +2.79418081e-01 +2.62562156e-01 -2.31150818e+00 +2.95096844e-01 -2.16857135e-01 +3.22484136e-01 -1.66874453e-02 -1.28174290e-01 +3.70211959e-01 -2.84907632e-02 -1.80693626e-01 -9.79474783e-01 +9.84761119e-02 +6.82640672e-01 -1.08121186e-01 +1.79950058e-01 +1.37748584e-01 -9.32431221e-02 -2.09570769e-02 +1.29565969e-01 +1.65304095e-01 +2.38787923e-02 +4.43722308e-02 -1.95954382e-01 -1.13856149e+00 -5.06151676e-01 +1.47748917e-01 -1.86049417e-01 +4.03562367e-01 +1.57331377e-01 -2.91547030e-02 +1.21138534e-02 -6.46360636e-01 -1.59749246e+00 -1.02442190e-01 -9.82948065e-01 +1.85098335e-01 +3.74834359e-01 +2.28066053e-02 +4.08906341e-01 +7.60120004e-02 -1.63834706e-01 -4.34882231e-02 +1.10824123e-01 +1.46517605e-01 -8.70802104e-01 +2.03294069e-01 +2.11253002e-01 -1.52755991e-01 -1.96375195e-02 +2.56483644e-01 -2.47323966e+00 -9.76411775e-02 -3.83878171e-01 +4.19827729e-01 -1.87999904e+00 +1.61656618e-01 -3.51008940e+00 -1.97867230e-01 +2.91844040e-01 -6.26553074e-02 -5.46330623e-02 -2.07574040e-01 +2.17766628e-01 -3.99972171e-01 -2.17494980e-01 +6.59195855e-02 -3.03514540e-01 +3.81879479e-01 +8.76987427e-02 -2.07175326e+00 +1.18174190e-02 +3.33093256e-01 +2.28281948e-03 -1.63515925e-01 -2.10160279e+00 +1.84240952e-01 -3.42801452e-01 -1.21209359e+00 +1.08157679e-01 +2.82275558e-01 -5.76149046e-01 +2.80424744e-01 -6.13145053e-01 -5.39403617e-01 -6.50271297e-01 -1.60944417e-01 +4.69434232e-01 -2.30008513e-01 +5.74092746e-01 +4.79559809e-01 -3.77510302e-02 -1.88235521e-01 +3.09442967e-01 -1.06386438e-01 -2.30155969e+00 -5.06751835e-01 -3.21940601e-01 +2.10340485e-01 -4.33151871e-01 +3.15649323e-02 -6.76512182e-01 +1.07461795e-01 +5.39560974e-01 +4.61803883e-01 +2.93947011e-01 +2.09732786e-01 +1.30499214e-01 -1.93474025e-01 +1.36687905e-01 +2.52263665e-01 -5.73184133e-01 -6.26917854e-02 -1.56522191e+00 -2.30869092e-02 -5.82578965e-02 +3.12679887e-01 -1.26293987e-01 +5.86749017e-01 -1.16555631e-01 -2.00891328e+00 -1.35994526e-02 -1.00789917e+00 -1.65537441e+00 -4.34568316e-01 +1.05386257e-01 +4.80086237e-01 +1.09514587e-01 +4.16971922e-01 +3.13810736e-01 -6.17747724e-01 -6.76577091e-02 +1.83880061e-01 -2.19525456e+00 +4.45109695e-01 -1.58900404e+00 +3.95380221e-02 -1.71843851e+00 -5.65280676e-01 -5.34838438e-01 -7.99161017e-01 -5.00294447e-01 -2.31254673e+00 -3.71390522e-01 -5.47435105e-01 +3.07063777e-02 -3.94747925e+00 -9.62853655e-02 -2.21879870e-01 -1.12271525e-01 -4.04641509e-01 -8.10302943e-02 -1.10838704e-01 -1.04531252e+00 -8.27953637e-01 -8.54585457e+00 -2.36200869e-01 -1.38431907e-01 -3.67178410e-01 -2.92852633e-02 -5.05388379e-01 -3.75063658e-01 -2.71820474e+00 -6.65785551e-01 -1.18879579e-01 -5.38105130e-01 -2.08002493e-01 -2.58828580e-01 -1.65246457e-01 -3.37536216e+00 -9.51603591e-01 -2.99542457e-01 -5.12619972e-01 -5.15894666e-02 -1.93841174e-01 -2.88875997e-01 -6.15665922e-03 -2.00971270e+00 -1.17845587e-01 -2.13186288e+00 -2.84516144e+00 -1.96588027e+00 -5.87219298e-01 -1.55897319e+00 -3.48039955e-01 -4.53354955e-01 -5.43175101e-01 -8.29397589e-02 -1.26103926e+00 -6.70317948e-01 -6.72271490e-01 -1.48518467e+00 -4.03921157e-01 -4.45978165e-01 -1.06219716e-01 -1.10036826e+00 -2.02477217e+00 -1.66098744e-01 -2.60995179e-01 +1.70771793e-01 -1.34434855e+00 +2.30034620e-01 -9.58565995e-03 +8.98149461e-02 -7.57363558e-01 -1.27292728e+00 -2.47117305e+00 +5.51050939e-02 -7.31979370e-01 +1.28657833e-01 +7.76181892e-02 +2.15463191e-02 -4.59305346e-01 -1.86063662e-01 -4.76111658e-02 -3.59743893e-01 -1.95988774e+00 -2.90771633e-01 -2.99861836e+00 -2.79070258e+00 -6.99106604e-02 -1.68399978e+00 -8.64650756e-02 -3.76077965e-02 -2.24534988e+00 -9.51724768e-01 +9.33099017e-02 -1.01387337e-01 -4.65279371e-02 +1.82190090e-01 -1.69092715e-02 +5.39483652e-02 -2.52785645e-02 -1.36729674e-02 -1.78175658e-01 +2.49683797e-01 +1.10069313e-03 -3.04206252e-01 +7.02679008e-02 +6.25585541e-02 +2.50391185e-01 -1.46260411e-01 -1.55510521e-02 +4.75410484e-02 +9.20356885e-02 +3.23905647e-02 -1.12068009e+00 +1.34962156e-01 -1.12315319e-01 -2.44738132e-01 +1.21342756e-01 -4.13471669e-01 +1.13106675e-01 -2.12651834e-01 +3.90011221e-02 +9.24933851e-02 -1.31727308e-01 +6.80994242e-02 +3.86510402e-01 -2.14750618e-01 -8.23444352e-02 +2.79984951e-01 +1.09974474e-01 +1.39989555e-01 -5.10872267e-02 -6.12610690e-02 +6.41132891e-02 +4.32252809e-02 +1.04198895e-01 -2.14577690e-01 +3.43043134e-02 +1.42060280e-01 -3.46803516e-01 -1.33387968e-01 +4.87865508e-03 -3.71556550e-01 +1.20408237e-02 +1.68617085e-01 -5.32988645e-02 -3.34063709e-01 -5.48073836e-02 -2.49833524e-01 -5.94296865e-02 +1.28326431e-01 +1.85111195e-01 +1.01520658e-01 -2.86282033e-01 -1.57353908e-01 -3.54995988e-02 -1.13153487e-01 +3.96930315e-02 -2.14120001e-03 +6.67863861e-02 +3.86733443e-01 -9.33237299e-02 -5.45871966e-02 -4.11552265e-02 -2.04046726e-01 -4.92298901e-01 +1.71166524e-01 +1.07024163e-01 +3.72955889e-01 +2.06614330e-01 +1.00807078e-01 +1.23671740e-01 -2.46696144e-01 -8.99454858e-03 -2.46982411e-01 +9.17562321e-02 +1.05993710e-01 -1.15456797e-01 -2.07032897e-02 -4.87807728e-02 +2.04850286e-01 +2.92174034e-02 +2.13588551e-02 +1.45654574e-01 -1.45719618e-01 +7.98535869e-02 +9.48377699e-02 +1.90005228e-02 +2.98633158e-01 +3.49668860e-01 +1.31038889e-01 -1.26602113e-01 +2.28377089e-01 +2.97966391e-01 +4.73159030e-02 -4.42924872e-02 -8.88790563e-02 +3.58930558e-01 -2.04573236e-02 -1.15990829e+00 +1.02962628e-01 +1.78971171e-01 +1.18456326e-01 -5.60024142e-01 -2.95769513e-01 +2.01465890e-01 -9.28305835e-02 -4.98109050e-02 +9.33645293e-02 +2.79028356e-01 -1.65873185e-01 -1.30202204e-01 -1.05319142e+00 +1.28443509e-01 +2.75353994e-03 -2.66521513e-01 +2.61147887e-01 +4.50309888e-02 -3.60606760e-01 +2.99856126e-01 +3.63929152e-01 -2.19569826e+00 +1.58060253e-01 +1.02116011e-01 +3.37149441e-01 -2.64290035e-01 +5.39784022e-02 +3.34258437e-01 +1.60972714e-01 +7.82357603e-02 +4.92740981e-02 -1.66013226e-01 -1.15030026e+00 +3.82366002e-01 -3.11576068e-01 +4.02577549e-01 -4.77782667e-01 -1.58791736e-01 -5.76201081e-02 +2.27931201e-01 +2.62993902e-01 -1.03534245e+00 +1.81003250e-02 +3.88510197e-01 -2.38925844e-01 -1.34281850e+00 +1.74879774e-01 +6.86522573e-02 -7.43400156e-01 -2.19731674e-01 +3.33230823e-01 +2.38503963e-02 +1.12907678e-01 -3.96403596e-02 +1.73535615e-01 +2.05194786e-01 -5.68886161e-01 -6.64493978e-01 -4.33123037e-02 +9.36291441e-02 +1.10950358e-01 -5.83904922e-01 +4.46077585e-01 +3.21415484e-01 +8.96764249e-02 -3.49697381e-01 +4.10519093e-01 -1.16482008e+00 -8.27762410e-02 +3.05856355e-02 -1.38024437e+00 +4.14391339e-01 -2.70949155e-01 -1.01856753e-01 -1.50474623e-01 -1.90075248e-01 -6.08817767e-03 +1.74897030e-01 +9.18704495e-02 -5.52082062e-01 -1.71790645e-01 +3.12890440e-01 +2.49246821e-01 +1.82706174e-02 +4.85832751e-01 -1.09538026e-01 -1.04422319e+00 +1.15043536e-01 -7.33470082e-01 -3.18605870e-01 +2.04809718e-02 +4.02297616e-01 +2.59981781e-01 -1.65414900e-01 +3.46973032e-01 -1.69738486e-01 +1.08846478e-01 +2.11585969e-01 +5.89087546e-01 -6.93391383e-01 +6.42361522e-01 +1.90176293e-01 +1.19198181e-01 +4.35782485e-02 -2.32120797e-01 +2.49028847e-01 +8.33620429e-02 +1.39371246e-01 +5.47845304e-01 -7.87711516e-02 +8.11151788e-02 +2.99608499e-01 -1.87932625e-01 -4.20709774e-02 -4.03937921e-02 +6.21454895e-01 +1.89627811e-01 -1.40531540e-01 +2.98868537e-01 -1.64870888e-01 +5.32796264e-01 +9.38346609e-04 -1.88590422e-01 +2.60548383e-01 -6.01722062e-01 -8.58763885e-03 +4.54961091e-01 -1.32316779e-02 +1.36887103e-01 -7.87071168e-01 +9.46050510e-02 -5.11689961e-01 +2.26992309e-01 +1.55972943e-01 -2.89947521e-02 -1.07594892e-01 -1.63614511e-01 -1.92398831e-01 -3.02088652e-02 +1.98241159e-01 -7.17711926e-04 +3.53747964e-01 +4.30379927e-01 -9.79492888e-02 -2.20048398e-01 +2.37890750e-01 -4.71379340e-01 -3.41366529e-02 -2.12870955e-01 +1.59423545e-01 +2.77269751e-01 -1.09547682e-01 +1.90947577e-01 -3.36338073e-01 +2.04930693e-01 +3.81056994e-01 -6.39769971e-01 +8.80605578e-02 +3.67050953e-02 -1.23591565e-01 +1.87597126e-01 -3.29855710e-01 +3.98423284e-01 -2.01742962e-01 +1.64696872e-01 +2.39196956e-01 +2.15683073e-01 -1.60387367e-01 -1.75223369e-02 -5.62914275e-02 +3.92613918e-01 +3.04269522e-01 -1.94783270e+00 -1.21608905e-01 -4.23446536e-01 -5.23867831e-03 -3.75167608e-01 +2.48223349e-01 -2.40342274e-01 -2.27139201e-02 -1.26941159e-01 -3.97157162e-01 -8.87809098e-02 +8.08570832e-02 +5.24444431e-02 +5.58540737e-03 -6.41145632e-02 -2.64536459e-02 -2.36964434e-01 -7.55300373e-03 -3.30367267e-01 +2.01795846e-02 -2.14352918e+00 -1.43914729e-01 -1.42879203e-01 -4.71045747e-02 +6.50467444e-03 -7.05781728e-02 -1.34022832e-01 -1.21049806e-01 +2.46742174e-01 -1.55966468e-02 +2.51523346e-01 -1.49856895e-01 -1.02808081e-01 +1.01437226e-01 +1.88806236e-01 -1.03939421e-01 +4.40346524e-02 -1.52184218e-01 -5.24796406e-03 -1.31471315e-02 +8.88874754e-02 +8.44272971e-02 -5.91920689e-02 +1.98763534e-01 -2.17032403e-01 +6.22038590e-03 +2.47597322e-01 -1.14954300e-01 -1.17742032e-01 -2.31327131e-01 -7.08945394e-02 +2.93553830e-03 -1.48111939e-01 -5.17848670e-01 -1.72768384e-01 -3.53680737e-02 -4.10113275e-01 +1.45863891e-01 -3.43723118e-01 -2.14967370e-01 +1.53946415e-01 +1.74055144e-01 -2.37647086e-01 -1.21866971e-01 -3.04071808e+00 -8.10830772e-01 -5.11757255e-01 -7.14619979e-02 -6.68306172e-01 +1.51287824e-01 +4.81344312e-02 -1.02917604e-01 -2.82492757e+00 -2.12871253e-01 -3.87550555e-02 +2.10704207e-02 +8.24650675e-02 -1.33286312e-01 -1.74045652e-01 -5.75038679e-02 -1.92336991e-01 -1.45991668e-01 -3.90915722e-01 -1.17784917e-01 -1.69301236e+00 +3.41642022e-01 +2.09157929e-01 -2.12850475e+00 -1.94615245e-01 +4.84930575e-02 -1.59735650e-01 -7.98657909e-02 -2.15213165e-01 +2.18730140e-02 -5.93420267e-02 -3.89075540e-02 -4.51403707e-02 -2.21097302e-02 -8.35018456e-02 -7.15325251e-02 -2.03917190e-01 -6.85207069e-01 -3.88751954e-01 -7.87719369e-01 -1.50332198e-01 -9.73318368e-02 -1.38053453e+00 -1.92652214e+00 -3.02037656e-01 +8.87589827e-02 -6.14305697e-02 -1.32889360e-01 -4.84014712e-02 -1.18809946e-01 -1.40215969e+00 +1.50010154e-01 -2.12332338e-01 -5.39727354e+00 -1.00186998e-02 -9.15141851e-02 -8.62057656e-02 -1.00610830e-01 -2.07181498e-02 -1.56681836e+00 -1.58906564e-01 +6.93581998e-02 -4.28062417e-02 +4.39371645e-01 -4.13612509e+00 -2.23417550e-01 +3.80530864e-01 +1.88722655e-01 -3.53726208e-01 -2.64241576e-01 +2.34624550e-01 +4.82112356e-02 -7.89398849e-02 -2.60933733e+00 +2.89988220e-01 +8.25507287e-03 -8.72474834e-02 +3.32992464e-01 -1.64349839e-01 -4.07562144e-02 -1.33301377e-01 -1.46521091e+00 -7.88243040e-02 +2.81933919e-02 -1.17316449e+00 +3.72739464e-01 +1.74754094e-02 -2.05393717e-01 -3.99820134e-02 -3.12827349e+00 -1.15923919e-01 +1.48719355e-01 +1.85324978e-02 +1.58061713e-01 -2.00838864e-01 -4.53130901e-01 +1.91568792e-01 +6.17582649e-02 +9.28772166e-02 -9.25867707e-02 -1.70235372e+00 +1.02316752e-01 -1.08683789e+00 -1.58094212e-01 +1.57083273e-01 -5.09778309e+00 -1.24549968e-02 -1.74029037e-01 -9.97225195e-03 -1.14649080e-01 -2.16324717e-01 -8.30237195e-02 +2.07310781e-01 -2.03547031e-01 +5.41500524e-02 +5.19634876e-03 -5.63525856e-02 -8.95200148e-02 -1.89246446e-01 +3.42732817e-02 +8.44447613e-02 -1.59948304e-01 -6.35939538e-02 -1.04315244e-01 +2.20998555e-01 -5.85990585e-02 -1.75003037e-01 -3.86117585e-03 +1.30687738e-02 +1.66157552e-03 -4.12550643e-02 +1.35870755e-01 -3.50330584e-03 -9.75944921e-02 -3.52987498e-02 -7.93724433e-02 -3.15706953e-02 -2.14362279e-01 -5.72538637e-02 +4.59891818e-02 +1.79475531e-01 +1.79120928e-01 -1.55346915e-01 -6.96221069e-02 +1.09036127e-02 +5.00035770e-02 +1.95372641e-01 +1.75011590e-01 -1.25641957e-01 +1.07831202e-01 -1.93656251e-01 +1.37168273e-01 +1.68652743e-01 -1.13145687e-01 -2.25442108e-02 -7.79646337e-02 +6.87623173e-02 +1.79692119e-01 +9.48724598e-02 -2.14597788e-02 -7.94136152e-02 -1.26168747e-02 -5.60172126e-02 -9.79012474e-02 +5.22654206e-02 +1.41616672e-01 -1.68522805e-01 -1.62224308e-01 -1.65735424e-01 -6.88626617e-02 +1.78802580e-01 +6.80104271e-02 -1.66510090e-01 -1.27947301e-01 +1.51878834e-01 +1.70308352e-01 -8.99550840e-02 -4.16692309e-02 +6.73295557e-02 -5.25632724e-02 +3.76938060e-02 +5.32835983e-02 +1.47127330e-01 -1.69619873e-01 +3.42462249e-02 -2.13485330e-01 +1.39465719e-01 -1.68447033e-01 +1.36506617e-01 -2.72788648e-02 +1.32828936e-01 +2.06583604e-01 -5.40902764e-02 +2.12545425e-01 +6.15484789e-02 +1.17901117e-02 +1.17172264e-01 +9.36701745e-02 +2.84290820e-01 +1.30034229e-02 -6.85644805e-01 -4.44269329e-02 -3.35534245e-01 -2.06603020e-01 +6.40617728e-01 +4.72667366e-01 +2.37159408e-03 -3.38724911e-01 -1.31940687e+00 -8.83597881e-02 -7.63757825e-01 -2.18566641e-01 -2.01999098e-01 +2.07221005e-02 +4.51683581e-01 -5.72493255e-01 -5.37726730e-02 +6.15451299e-03 -1.65824354e-01 -8.16546202e-01 -1.33600533e-01 -7.78580382e-02 -9.60882157e-02 -1.21164590e-01 -6.36344194e-01 +1.02338701e-01 -1.52174786e-01 +6.04719259e-02 -5.62545955e-02 +7.44496845e-03 +8.08546692e-02 -5.18656671e-01 +1.80738848e-02 -2.94965774e-01 -9.71613348e-01 -2.93940634e-01 -9.50850546e-02 +1.80058014e-02 +1.27278313e-01 -3.24150860e-01 -5.48515797e-01 +1.12950737e-02 +5.17867804e-01 +3.40156965e-02 -2.92921722e-01 -1.98086631e-02 -1.59268025e-02 -1.12448908e-01 -8.38637426e-02 -1.59667090e-01 +2.01149479e-01 +9.81114566e-01 +7.29195252e-02 +3.55071239e-02 +2.44745966e-02 -1.44105136e-01 +1.36530221e-01 -2.96065420e-01 -9.56436992e-03 -3.48248720e-01 -1.10791028e-01 -1.15277253e-01 -1.41969278e-01 -1.78912450e-02 -1.08992958e+00 -9.77471113e-01 +3.95474046e-01 -8.54486525e-01 +5.71979992e-02 +6.63499460e-02 -1.38729200e-01 -8.75133947e-02 +8.73031393e-02 -3.95369798e-01 -2.60741785e-02 +1.32918298e-01 -1.52249366e-01 -7.84657747e-02 -1.41609573e+00 +8.40420127e-01 -2.84471326e-02 -1.31739154e-01 +2.79845506e-01 -1.56717852e-01 -1.03960186e-01 +1.00305431e-01 +1.76353276e-01 -1.77468240e-01 -1.34125408e-02 +2.99786162e-02 -1.05462477e-01 -7.22804546e-01 -7.14867473e-01 -8.86466801e-02 +2.54793987e-02 +1.94211543e-01 +5.33584543e-02 +4.20028046e-02 -2.04354718e-01 +1.55748338e-01 +5.59314899e-02 +1.61601856e-01 +1.25274882e-01 -3.03259194e-01 +3.31424698e-02 +9.09679234e-02 +3.49986590e-02 -1.10000622e+00 +4.06462066e-02 -2.51505636e-02 +9.03500319e-02 +3.43122669e-02 -1.60358310e-01 -6.70327991e-02 -2.06981320e-03 +4.94154915e-02 +1.24544218e-01 -2.15722561e-01 -4.16419178e-01 +6.28970042e-02 -4.44145501e-01 +5.83152659e-02 -3.47409770e-02 +1.55990466e-01 -4.70437184e-02 +7.86408857e-02 +1.68310050e-02 -2.04726860e-01 -3.33582796e-02 +2.61878848e-01 +3.99298705e-02 -8.60930420e-03 -7.57276788e-02 -4.67885077e-01 -1.61046274e-02 -2.99442243e-02 -1.21501252e-01 +8.96215066e-02 -2.20622160e-02 +3.22008971e-03 -5.03455639e-01 -4.91336882e-02 +2.29592621e-02 -2.05723912e-01 -2.05187291e-01 -1.86356455e-01 +2.89158020e-02 +4.89403754e-02 +2.02916209e-02 +2.52177077e-03 -8.28181654e-02 +7.96109289e-02 -3.58467519e-01 -1.47729799e-01 -5.52797318e-01 +5.56295328e-02 +9.71539170e-02 +3.05322576e-02 -8.18542689e-02 -8.33368599e-02 -3.88658881e-01 -5.61863661e-01 -1.06677318e+00 -4.11485210e-02 +1.25396401e-01 +2.54534543e-01 +1.72683969e-01 -4.25132215e-02 -6.09347783e-02 +2.88747009e-02 -1.98006034e-02 -1.29018450e+00 -8.60324651e-02 +1.47625014e-01 -1.02392443e-01 +2.35708337e-02 +3.06151286e-02 -6.88836649e-02 -9.37530994e-01 +7.80830234e-02 +5.27836323e-01 -2.09756404e-01 -6.83975697e-01 -2.35753939e-01 -7.07480133e-01 -1.80818707e-01 +3.47477913e-01 -4.48457390e-01 -8.48185122e-01 +1.97989434e-01 +4.65441495e-01 -1.48839816e-01 -5.60570769e-02 -6.27825975e-01 -8.08849394e-01 +8.91080678e-01 +3.77721037e-03 -2.89043644e-03 -8.38765442e-01 -3.65520179e-01 -8.75411779e-02 +1.68085247e-01 -1.34796903e-01 -6.05368137e-01 +1.74959019e-01 -1.14907220e-01 +4.77475673e-01 +1.58897340e-01 -3.32494467e-01 +2.14984804e-01 -1.30331768e-02 +6.31676495e-01 +1.40124008e-01 -2.49368265e-01 -4.44057405e-01 +3.28420222e-01 -8.19915347e-03 +8.88576806e-02 -2.35879794e-01 -7.17667699e-01 +9.71128349e-04 -6.47604167e-02 -3.36774260e-01 -2.06440985e-02 -6.10246301e-01 -1.80425510e-01 -4.26729143e-01 +5.55806495e-02 -9.20554876e-01 -1.37312889e-01 -2.01262295e-01 +3.77375335e-01 -6.22388601e-01 -8.85743976e-01 +6.35883063e-02 -1.74604464e+00 -5.10283448e-02 -7.45071113e-01 +5.47480546e-02 -6.04234695e-01 -3.31748277e-02 -4.08693314e-01 -6.92882776e-01 -8.89374316e-02 -1.31069374e+00 -1.13262093e+00 +1.72137216e-01 +2.10016519e-01 -8.24236721e-02 -2.87758052e-01 -2.84645319e-01 -5.73623404e-02 +1.14522083e-02 -6.58968806e-01 +3.79817247e-01 -1.08953571e+00 -1.57406196e-01 -6.61905229e-01 +3.54040802e-01 -1.26745254e-01 -5.47148228e-01 -2.93326318e-01 -1.99675828e-01 -5.90493344e-02 -1.43776655e-01 -6.72667503e-01 -1.21420927e-01 -1.10529535e-01 -4.65846181e-01 -3.68584991e-01 +2.21990034e-01 +1.40811950e-02 +2.29045749e-01 +2.28750840e-01 -3.22666526e-01 +2.13645354e-01 -6.24141023e-02 +1.12048440e-01 +3.31950247e-01 -1.98443308e-01 +1.97724581e-01 -1.33369482e+00 -2.29931697e-01 -5.10057747e-01 +1.89598963e-01 -4.29347128e-01 +1.02180041e-01 -5.10180116e-01 -3.75183076e-01 +4.15681809e-01 -1.93384990e-01 -5.25088012e-01 -3.94041568e-01 +3.82573873e-01 -9.74365532e-01 -1.06398895e-01 -3.78272444e-01 -2.88486648e-02 -1.14094830e+00 -1.21904882e-02 -3.76687717e+00 +2.77733088e-01 +1.68770235e-02 +2.20693037e-01 -2.94663429e-01 +1.83920637e-01 -6.25743717e-02 +3.25775705e-02 +3.48075986e-01 -2.52565533e-01 +3.15565914e-01 +4.64263737e-01 +1.00047253e-01 -5.26391327e-01 +1.88235834e-01 -3.08239490e-01 -9.04075876e-02 +1.12829581e-01 -3.99513155e-01 +4.05346096e-01 -9.73267630e-02 +1.24844261e-01 +5.40374704e-02 +2.35784337e-01 -7.68536776e-02 +2.09761783e-01 -1.08649611e-01 -7.65477598e-01 +1.22651579e-02 -4.82669055e-01 +6.29272982e-02 +5.04574738e-02 -2.10514355e+00 +4.90632057e-02 +9.36300233e-02 +5.29707074e-01 -5.17672226e-02 +4.75351155e-01 -5.42097501e-02 +7.59545490e-02 -1.83220044e-01 -2.81926036e-01 +6.46730736e-02 -1.95551544e-01 -5.46733677e-01 -2.72829533e-01 -4.28621203e-01 +4.68827009e-01 -7.73173347e-02 +2.27714375e-01 +3.97554487e-01 -2.54663583e-02 -5.30879460e-02 +4.46683504e-02 -3.65244895e-01 +3.75438422e-01 -3.83733869e-01 +1.78618282e-02 -8.37570250e-01 -1.33029103e-01 -4.24653023e-01 -5.68549894e-02 +6.06839769e-02 -1.14108004e-01 -3.33990872e-01 -4.94131893e-01 -7.37013444e-02 +2.03831568e-02 -1.95526958e+00 -1.47287101e-02 -2.92023420e-01 -7.38366127e-01 -1.82773113e-01 -6.13537021e-02 +2.78474353e-02 +8.77451971e-02 +8.70543569e-02 -2.30190739e-01 -7.16499090e-01 -7.75686726e-02 -1.52141899e-01 -2.21305475e-01 -9.29941952e-01 +1.68136343e-01 -3.31386328e-01 -1.10175878e-01 +7.81991333e-03 -2.21960302e-02 -1.57543600e-01 -1.21409774e-01 +1.29925206e-01 -7.72043094e-02 -3.70083511e-01 -4.62759554e-01 -1.52202621e-01 -5.49444780e-02 -5.47462583e-01 -1.04865119e-01 -1.78089425e-01 -6.19365871e-01 -2.49759510e-01 -1.34752348e-01 -2.00189710e-01 +1.96161821e-01 +5.01893461e-02 -4.13533211e-01 -2.02591196e-01 -1.38929993e-01 -6.85364246e-01 -4.97434556e-01 +1.43587843e-01 +8.70194659e-03 +3.67095843e-02 -3.61172527e-01 -3.08165163e-01 -2.98531055e-01 -1.46693408e-01 -3.97748768e-01 -1.28870010e-01 -8.77853334e-02 +1.51324168e-01 -6.76913142e-01 +7.42870346e-02 -1.18006036e-01 -2.04117703e+00 -1.43768632e+00 -6.80156499e-02 -1.21292984e+00 -2.22266406e-01 -2.20404148e-01 -7.26060867e-02 +8.29211250e-03 -4.31261629e-01 -4.95547771e-01 -2.68428087e-01 -9.15749550e-01 -3.66291314e-01 -2.94670075e-01 -9.56152081e-02 +2.05856875e-01 -7.42129564e-01 +9.92410481e-02 +2.26917583e-02 +1.57811344e-01 -4.08190675e-02 +1.16610497e-01 +7.96212927e-02 +1.80020258e-01 +5.50882399e-01 -1.13059625e-01 -2.05829844e-01 +1.16655611e-01 -6.59725741e-02 -1.42106473e+00 -1.05240360e-01 +5.68418443e-01 -1.15190303e+00 -4.69371319e-01 +6.57117486e-01 +9.20435116e-02 +3.48533154e-01 -3.50759327e-02 -4.83674794e-01 +1.55740473e-02 +3.88562083e-01 -2.67671436e-01 +8.68968368e-01 +1.74038634e-01 -1.01183784e+00 -1.15020936e-02 -2.58405283e-02 -4.98238146e-01 -6.45739555e-01 -6.71770215e-01 -6.16813958e-01 +6.07249700e-02 -6.78570032e-01 +1.31725818e-01 +2.07768917e-01 -1.08487999e+00 +6.79592341e-02 +4.43737984e-01 +1.46721393e-01 +8.89203310e-01 -2.60635614e-01 +6.16079926e-01 +3.68612446e-02 -2.23093599e-01 -5.79637170e-01 -4.00477350e-01 -1.40317333e+00 -5.79178929e-01 +6.22322917e-01 +1.06924690e-01 +7.08252966e-01 -4.00625050e-01 -5.19663274e-01 +3.80198687e-01 -1.26293731e+00 +2.00524020e+00 +1.74235642e-01 +2.16568604e-01 -3.65338951e-01 +3.06387953e-02 -1.02195956e-01 +6.44193113e-01 -2.97826934e+00 +8.04190245e-03 +1.05820112e-01 -5.80507219e-01 -2.03602210e-01 -3.72713900e+00 +6.07846528e-02 -1.56183705e-01 +1.08844304e+00 -7.66028881e-01 -9.88119066e-01 +1.21139324e+00 -1.27978668e-01 -6.72373891e-01 -9.17770639e-02 -1.18550263e-01 +5.74211553e-02 +1.28123909e-01 -7.88037419e-01 -1.22711205e+00 +8.90766387e-04 -2.26365596e-01 -1.90783513e+00 +8.53444278e-01 +4.03632820e-01 +3.71295661e-02 -6.03052914e-01 +8.89635682e-02 -3.97573858e-02 -3.03953588e-01 +6.63771629e-02 -1.60162300e-01 -1.25645652e-01 +2.02677488e-01 -1.07324457e+00 +1.08225062e-01 +2.09927559e-02 -5.30643511e+00 -6.62400424e-01 -6.93865359e-01 -2.89550629e-02 +2.47467831e-02 -2.31254175e-01 +8.45016763e-02 -4.92160350e-01 +4.58840430e-01 +3.16433758e-01 -9.69962478e-02 +1.78994797e-02 -1.86732840e-02 -4.37921077e-01 -8.04510951e-01 -8.58868718e-01 -3.10178906e-01 -1.05975293e-01 -4.77695167e-02 -5.63924730e-01 -3.98605061e+00 +1.49765968e-01 +7.00785071e-02 +4.07095522e-01 -1.21482596e-01 +7.59760514e-02 +3.44797522e-01 -2.67984301e-01 +1.90191939e-01 -4.42571640e+00 -3.71131420e+00 -2.22381856e-02 -3.14419150e-01 -8.22409391e-02 -7.70839676e-02 +2.92327236e-02 -1.85470450e+00 +5.68568349e-01 -7.74361342e-02 +2.61584073e-01 -4.89814300e-03 -2.03199935e+00 +1.06342368e-01 -5.27887225e-01 -4.73578274e-01 -7.93504477e-01 -2.59268165e-01 -1.65598094e+00 -8.89741164e-03 -1.58646721e-02 -3.93386054e+00 -9.29014683e-02 -2.35720515e-01 +7.85525218e-02 -4.53128994e-01 -4.36537750e-02 +2.68602014e-01 -1.96505323e-01 -2.53812242e+00 +3.38876575e-01 -2.08699610e-02 -4.19489026e-01 -6.92573130e-01 -6.87023163e-01 -6.07353449e-01 +1.35515109e-01 -7.80071676e-01 +4.09642726e-01 -5.09554505e-01 -9.56129313e-01 -1.35880485e-01 +2.51287460e-01 -9.98806953e-01 -1.19011767e-01 -2.06544131e-01 +1.77905992e-01 -6.91102624e-01 -3.06668496e+00 +5.21764755e-01 +4.01465565e-01 -1.68309450e-01 -2.02741265e+00 -2.65535545e+00 +8.41600001e-01 +2.24177212e-01 -4.78964329e-01 -2.05735517e+00 +5.77924177e-02 -4.84169096e-01 -2.26129746e+00 +3.02346140e-01 +2.63975840e-02 -4.26929653e-01 -7.63540715e-02 +2.28683814e-01 -1.49484485e-01 -1.81316376e-01 +3.89927864e-01 -4.71072234e-02 +1.25050813e-01 -3.80365133e-01 -1.59477130e-01 -8.50821510e-02 +8.15242827e-02 -1.69067693e+00 -4.67555255e-01 +1.13377437e-01 -4.78735566e-02 +9.91574451e-02 -4.01565701e-01 +1.37185127e-01 -2.32977509e-01 -1.17159285e-01 -1.64976799e+00 +1.25628397e-01 +3.75908732e-01 +2.01698348e-01 +8.44225362e-02 -2.05570608e-01 +5.33591099e-02 +2.98129678e-01 +8.36066484e-01 -2.20487893e-01 +2.96341419e-01 -9.31537598e-02 +1.34065434e-01 -2.81845033e-03 +2.53567725e-01 +6.90428764e-02 -2.31463596e-01 -1.10870004e+00 +2.80716326e-02 -7.94409752e-01 -6.98211968e-01 -1.71641365e-01 -7.01824427e-01 +9.58800092e-02 -5.71327060e-02 -3.03076893e-01 -7.33616054e-01 +1.99100196e-01 +9.73147601e-02 +4.02246267e-01 +2.71867752e-01 -4.71460998e-01 +1.62280396e-01 -2.24711156e+00 -1.58456370e-01 +1.36639968e-01 -4.74219054e-01 -4.83080149e-02 -3.16401243e-01 -8.82001892e-02 +1.02242768e-01 +1.09334581e-01 -1.29450724e-01 +3.33281048e-02 -6.99543536e-01 -5.73313534e-01 -5.99543937e-02 +5.12007594e-01 +1.43638074e-01 -9.59062815e-01 +1.68389291e-01 +7.15219304e-02 +1.36127725e-01 +6.08999357e-02 +1.86717153e-01 -1.94421422e+00 +7.61701241e-02 -1.49662301e-01 -4.21306938e-02 +1.78647816e-01 -1.60486788e-01 
#Parameter# /_3 {90} 1441 ZERO_GRAD
-1.53959140e-01 +5.48837706e-02 +7.73206279e-02 -5.54875433e-02 +5.31806313e-02 +9.43165347e-02 -5.69515936e-02 +5.62861599e-02 -1.09430313e-01 -5.05275093e-02 -6.58581406e-02 -6.05656989e-02 -1.81894362e-01 -1.11496866e-01 -1.44721806e-01 -7.74818957e-02 +6.75111711e-02 -7.42401630e-02 +5.03054336e-02 -1.63464412e-01 -5.32826893e-02 +2.54799068e-01 -2.32754394e-01 -8.19649640e-03 +3.85695472e-02 +2.43938282e-01 -1.49124131e-01 +1.56434581e-01 -1.19897395e-01 -1.37299582e-01 -1.71795577e-01 +2.07557589e-01 +4.06111777e-02 +1.70694329e-02 -8.15964863e-02 -4.26735803e-02 -8.33816305e-02 +5.44096828e-02 +2.52043549e-03 -2.56854966e-02 -3.18491459e-02 -1.93770945e-01 +2.05691904e-01 -3.30152869e-01 -2.17634827e-01 -5.27932644e-02 -1.44046530e-01 -1.08936734e-01 +2.30350435e-01 +6.30606636e-02 -6.62973896e-02 +2.85333633e-01 -3.01619709e-01 -3.48906964e-01 +5.00479853e-03 +3.01752597e-01 -7.36125708e-02 -3.15868914e-01 -1.32075936e-01 -5.78459240e-02 -1.93467721e-01 -1.40027627e-01 +6.83004633e-02 -1.81394890e-01 -1.29466038e-02 -7.61289597e-02 -6.56023696e-02 -2.46868040e-02 +9.23138708e-02 +1.72294259e-01 -2.72351831e-01 -2.32982635e-01 -2.07207888e-01 -5.48488796e-02 -1.77521557e-02 -2.95409530e-01 +1.44396394e-01 -7.11531416e-02 +2.53568918e-01 -6.80025900e-03 -1.75430879e-01 -1.08821519e-01 -1.99961171e-01 -2.03167975e-01 -9.88424942e-02 +1.26562893e-01 -1.42990902e-01 +4.06865552e-02 -1.26929477e-01 -3.20089310e-01 
#Parameter# /_4 {576,90} 829441 ZERO_GRAD
-4.06072997e-02 -9.49618872e-03 -5.92198633e-02 -7.77816027e-02 +9.05875191e-02 +3.26635782e-03 +2.87629534e-02 -1.70316957e-02 -5.64450547e-02 +1.76413935e-02 +4.59837615e-02 +1.40934298e-02 -2.41839532e-02 -3.52771617e-02 -4.20784280e-02 +5.63907437e-02 -3.39706056e-02 +8.40796251e-03 -2.05265861e-02 +1.36510925e-02 +2.12500035e-03 -3.05909440e-02 +2.99617890e-02 -3.81799303e-02 -8.62116739e-02 -1.30418371e-02 -7.71922292e-03 +7.57136643e-02 +5.10920286e-02 -9.89281610e-02 -6.86796308e-02 +3.14096361e-02 -4.92178090e-02 -7.71136880e-02 -1.76569130e-02 +2.99490839e-02 -6.56442195e-02 -1.06989749e-01 -5.67677282e-02 -7.68729225e-02 +1.09545216e-02 -1.82298571e-01 +2.48394888e-02 -2.01206878e-02 +8.34962875e-02 +1.21284947e-02 +4.91667800e-02 -2.52063256e-02 +9.63438079e-02 +2.24469192e-02 -2.96474863e-02 +5.17624840e-02 -6.60990477e-02 +2.17355359e-02 +5.27101494e-02 +1.81923993e-02 -2.77928896e-02 +7.65988976e-02 -5.15903607e-02 -1.25774173e-02 +7.54263327e-02 -5.53642549e-02 +4.92664129e-02 +4.51697037e-03 -3.98434997e-02 +2.07486171e-02 +1.47472194e-03 -5.90378530e-02 -4.74577062e-02 +6.39823973e-02 +6.10348471e-02 -8.38307571e-03 +8.26440901e-02 +4.72467616e-02 +1.19841024e-01 +1.61523484e-02 +5.07211871e-02 +6.05842564e-03 -2.28480101e-02 +1.99413784e-02 +3.85820530e-02 -2.17776597e-02 -6.05473891e-02 -1.21447099e-02 -7.30918571e-02 -1.85867324e-02 +2.05263365e-02 +1.98799707e-02 -2.04995666e-02 -3.95067818e-02 -5.90089560e-02 -1.94797311e-02 -3.85432355e-02 -7.32091963e-02 +5.02659231e-02 -3.42382565e-02 +2.70154625e-02 -6.43490776e-02 +4.72689383e-02 -6.11732639e-02 +8.22545439e-02 +1.23627961e-01 +5.46635836e-02 -5.54019138e-02 +2.40748972e-02 -4.77178991e-02 -6.48269430e-04 +3.49054746e-02 +1.86124947e-02 -4.54926938e-02 +2.91752312e-02 +1.31847069e-01 +7.13843154e-04 +6.81060413e-03 -2.82559879e-02 -2.70433314e-02 -6.66619167e-02 +1.92940980e-02 +8.52098316e-02 +3.88984866e-02 -7.29632527e-02 +5.18426411e-02 +9.33200419e-02 +2.23706774e-02 +1.04448795e-01 -3.86771746e-02 +1.12994991e-01 +1.37502309e-02 -2.72156131e-02 +1.51560353e-02 -4.54248302e-02 +1.59143675e-02 +2.98308451e-02 +3.15687992e-02 +5.42989410e-02 +1.40067264e-02 +4.08140533e-02 -4.72602360e-02 -4.79648262e-02 -2.13525016e-02 +1.59844477e-02 -3.55593897e-02 -4.59160767e-02 +4.31772731e-02 +7.19960034e-03 -1.95857380e-02 -1.37935868e-02 -2.82209031e-02 +7.74097280e-04 +8.75617787e-02 +1.22430539e-02 +1.92339998e-02 +3.99714187e-02 -1.46578029e-02 +7.94294775e-02 +1.50577805e-03 -6.07129112e-02 +3.96803208e-02 -1.97542943e-02 -1.43526029e-02 +1.47761852e-02 +1.08312719e-01 +4.92607467e-02 +5.73506691e-02 -9.85246748e-02 -4.32246225e-03 -6.63937330e-02 -6.16638474e-02 -5.87178282e-02 +4.38246690e-02 +5.80938235e-02 +4.25653590e-04 -9.28976983e-02 -2.45192740e-02 -5.74319288e-02 -6.24784157e-02 +1.46103678e-02 +1.62791759e-02 +1.05226919e-01 -2.09721215e-02 +1.74132194e-02 +6.89386874e-02 -4.50296663e-02 +8.79504532e-02 -5.21782227e-02 -4.58724285e-03 +5.91086745e-02 +6.41368160e-06 -1.03073351e-01 -6.77918717e-02 +6.20840229e-02 +5.49885742e-02 -7.60368025e-03 +3.58921252e-02 +1.18515268e-02 -6.09330414e-03 -6.21312559e-02 -2.96786614e-02 +8.31047297e-02 +8.73636231e-02 +6.47082478e-02 -2.53609102e-02 -5.65548986e-02 +1.23181000e-01 +5.75341545e-02 -1.31386612e-02 -1.69182643e-02 +5.88609986e-02 +4.81468290e-02 -3.10421875e-03 -4.46824953e-02 +8.87556523e-02 -2.03770748e-03 -5.47770187e-02 -3.93017791e-02 +1.22537397e-01 +6.26588836e-02 +6.58587366e-02 -4.41820696e-02 -7.18533844e-02 -1.47448983e-02 +3.09055974e-03 -2.83863395e-02 -1.91286616e-02 +2.42320485e-02 -1.67013351e-02 +2.29156725e-02 -3.99143323e-02 +1.68090984e-02 -2.42829043e-03 -7.36642405e-02 +2.36126268e-03 +6.09089546e-02 +2.49261744e-02 -1.71383787e-02 +5.81018031e-02 -1.78068690e-02 -2.73524616e-02 +3.66597287e-02 +9.00979117e-02 -1.35144321e-02 -7.82212615e-02 +1.51361329e-02 -6.78188503e-02 +3.43288817e-02 +6.01122305e-02 +7.55723193e-02 -4.59433272e-02 +6.01934008e-02 +3.83672342e-02 +6.03106692e-02 +1.08171068e-01 +7.62433559e-02 -3.52308899e-02 -1.70010775e-02 -1.36324354e-02 -1.98062435e-02 +7.62294903e-02 -3.09590548e-02 +1.10779768e-02 +2.25353725e-02 +5.97214606e-03 -4.23941109e-03 -7.71472752e-02 -4.29448895e-02 +2.33940147e-02 +3.91022190e-02 -3.78279425e-02 -7.72258490e-02 -4.86594625e-02 -2.44488586e-02 +6.51751533e-02 +5.93831502e-02 +8.58529136e-02 -1.23702306e-02 -5.80365770e-02 -1.85648501e-02 -1.53972758e-02 -2.54244674e-02 +5.75941354e-02 -1.45644806e-02 +7.59780314e-03 +3.75437252e-02 +1.75116714e-02 +5.11844829e-02 -5.09320460e-02 -4.48479690e-03 +1.12443037e-01 -3.21969315e-02 -3.53500247e-02 +3.90527397e-03 -3.34478766e-02 +4.56487946e-02 -2.51711793e-02 -6.42929152e-02 -3.05057075e-02 -7.87750706e-02 -8.72124918e-03 -7.36705086e-04 -4.97382395e-02 -1.01490892e-01 -6.04814962e-02 -1.06629469e-02 +4.65985872e-02 +2.47638375e-02 +6.19611852e-02 -4.66160476e-02 -8.07845443e-02 -1.00752888e-02 -2.38426942e-02 -5.43805286e-02 -5.98921557e-04 +1.71581823e-02 +5.89261167e-02 -7.74812624e-02 +3.04655712e-02 -4.11151014e-02 -3.55363567e-03 -8.78374800e-02 +1.34562477e-02 +6.78598508e-02 +2.85761040e-02 +9.13967937e-02 -5.42783290e-02 +2.70619839e-02 +9.50901732e-02 -8.70008487e-03 -2.04371531e-02 +3.01590934e-03 -7.57947192e-02 +2.93457042e-02 -2.14939527e-02 +2.81191655e-02 -8.62104595e-02 -3.54971141e-02 -4.42685969e-02 +3.16151455e-02 -8.48552659e-02 +2.69705970e-02 -2.70956177e-02 -8.69019106e-02 +2.29990631e-02 -2.44551729e-02 -5.02099376e-03 -1.24513507e-02 -5.12582958e-02 -1.24054641e-01 +1.61217600e-02 -1.94093771e-02 -3.62686962e-02 -5.00462726e-02 -6.92588557e-03 +6.48053065e-02 +1.37033928e-02 -4.85608494e-03 -1.56603381e-02 -2.43323147e-02 +2.32714973e-02 +4.25521806e-02 -4.16066647e-02 +5.45852110e-02 -7.61062503e-02 +6.61807880e-02 +1.45551814e-02 -9.36570242e-02 +9.10743140e-03 +4.62486856e-02 -7.21790791e-02 +6.21073954e-02 +5.26226200e-02 -7.66736269e-02 +2.86161322e-02 -2.32770341e-03 -7.67930672e-02 +3.61400396e-02 +5.12467548e-02 -8.75786878e-03 -4.97137569e-02 +7.25636855e-02 +1.88962948e-02 +6.75974488e-02 +4.10606004e-02 -8.01771358e-02 -1.64747704e-02 +4.95565832e-02 +1.67396525e-03 +7.86298737e-02 +2.08417675e-03 -6.52135685e-02 -1.06553145e-01 +7.03433007e-02 -9.43347625e-03 -2.43284833e-02 -5.25019541e-02 +6.65560961e-02 -7.16483817e-02 -5.86964302e-02 +4.09659445e-02 +1.64335091e-02 -1.11721810e-02 -2.03179196e-02 +8.69452953e-02 -7.10824654e-02 +3.36039141e-02 +3.65182050e-02 +9.67852101e-02 +1.36997513e-02 -8.80141258e-02 +5.31288087e-02 +2.23860936e-03 -3.06778904e-02 +6.40062541e-02 +6.90414710e-03 -8.94130841e-02 +6.82877935e-03 +5.21977246e-02 +3.60709205e-02 -2.26317123e-02 -1.66292936e-02 -1.03103831e-01 -2.96412129e-02 -5.60252219e-02 -5.17038964e-02 -8.04631114e-02 -7.88703114e-02 -1.05388882e-02 -4.49956302e-03 +4.71898466e-02 +5.04224710e-02 -2.29869783e-02 -4.10806164e-02 -1.27137944e-01 +2.19378565e-02 -6.20954717e-03 -1.19435750e-01 -5.18203676e-02 +3.39130908e-02 -1.99912628e-03 +3.95112149e-02 +9.13229510e-02 -2.35014874e-03 -4.93817478e-02 -2.07109805e-02 +7.19472840e-02 +3.02406922e-02 -4.71320264e-02 +2.74392851e-02 -7.62267644e-03 +6.85709566e-02 +1.20784737e-01 +2.17538383e-02 +3.30212340e-02 -5.69279306e-02 -5.84347211e-02 -6.14784621e-02 -6.91520199e-02 +3.44853703e-04 -3.35893370e-02 +3.61553505e-02 -6.75486103e-02 -6.52502328e-02 -4.87343743e-02 -6.24284521e-02 -4.63827401e-02 +5.18654054e-03 -7.43045518e-03 -6.42559901e-02 -3.10619678e-02 +4.25791517e-02 +3.47196087e-02 -2.32248418e-02 -4.45207842e-02 +1.47436801e-02 -2.60542631e-02 +6.13607317e-02 +5.30054560e-03 -3.67875304e-03 -4.22136299e-02 -5.00943279e-03 -5.38100451e-02 -1.06225938e-01 -1.80592504e-03 +6.78729713e-02 -4.39771526e-02 +9.38486867e-03 -2.24333871e-02 -4.86412831e-02 +5.21594808e-02 -1.08946510e-01 -9.83518064e-02 +3.08624785e-02 -4.88342717e-02 +2.95669325e-02 -1.00503445e-01 -5.37630841e-02 -3.84014621e-02 +4.87751849e-02 -1.48270037e-02 +7.09121302e-03 +6.24186359e-02 -5.17637730e-02 +5.87683022e-02 +7.58782551e-02 -3.06353085e-02 +5.31282537e-02 +7.76025057e-02 -6.55033812e-02 -9.29619651e-03 +9.08689350e-02 -6.09484613e-02 +4.50602770e-02 -4.36506569e-02 -5.78260832e-02 +4.57297936e-02 +2.07645632e-02 +1.52569823e-02 +3.20832208e-02 -5.51110059e-02 -4.37336229e-02 -2.33294945e-02 +5.90806305e-02 +4.96748798e-02 -1.26583297e-02 +4.95751947e-02 -4.37645838e-02 +8.59945193e-02 -2.97075249e-02 +6.60658116e-03 -6.20307885e-02 -1.63017567e-02 -6.30889833e-02 +2.92835794e-02 +6.37184232e-02 -3.01617812e-02 +1.07422173e-02 +2.01219227e-02 -1.94948018e-02 +2.53143925e-02 +1.57029014e-02 +4.39021178e-02 -9.38975904e-03 -7.44087063e-03 +3.74553055e-02 -2.22439691e-02 +5.40439412e-02 -1.95714682e-02 +5.06542064e-02 -1.09654889e-02 -5.68860509e-02 -1.55156711e-02 +6.73662648e-02 -5.45616401e-03 -3.23880115e-03 +6.30175462e-03 -5.95342088e-03 +1.04024440e-01 -2.74631716e-02 +5.82975261e-02 +3.49750072e-02 +8.51722732e-02 +8.74097124e-02 -5.64302392e-02 -4.66497317e-02 +8.70882347e-02 +8.35614651e-02 +1.59810185e-02 +2.37560831e-02 -1.17365215e-02 +2.49619577e-02 -4.36574668e-02 +5.31532161e-04 +4.65162322e-02 +4.71922979e-02 +3.60190533e-02 +3.71837467e-02 -4.13459130e-02 -2.05741990e-02 +5.01861982e-03 +8.80577322e-03 +2.12083664e-02 -1.05213290e-02 +5.52270822e-02 +1.30452290e-02 -3.38836312e-02 -1.43808834e-02 -9.80818644e-02 -6.45073131e-02 -8.08732286e-02 -9.91057009e-02 +2.19914243e-01 -1.38178051e-01 -5.39555252e-01 -1.49071455e-01 +3.66714358e-01 +5.49420476e-01 +4.33302820e-01 +1.79628357e-01 +7.51802027e-02 +2.53342539e-02 +8.13452248e-03 +3.42987617e-03 +3.91758382e-02 -1.16099350e-01 -1.15863457e-01 -6.43028095e-02 -1.25489049e-02 -2.98371874e-02 -1.47486862e-03 +3.49551886e-02 -5.52022969e-03 -6.21911064e-02 -9.14459527e-02 -3.69047336e-02 +2.68624008e-01 -2.73466080e-01 -5.33806443e-01 +2.54342761e-02 +4.78909910e-01 +4.59992945e-01 +2.15629399e-01 +1.04614250e-01 +4.04146649e-02 +1.89848635e-02 +9.95063107e-04 -2.83878809e-03 +8.70726258e-02 +1.40735909e-01 +9.61891934e-02 -4.50605117e-02 -1.02584392e-01 -1.10982724e-01 -1.55450314e-01 -1.44293472e-01 -1.59414113e-01 -1.90468550e-01 -1.51126727e-01 -8.74010324e-02 +2.51942009e-01 -3.27631861e-01 -3.76450777e-01 +3.43028098e-01 +5.49940467e-01 +3.80418926e-01 +1.54385790e-01 +8.30144882e-02 +5.78966029e-02 +3.68237384e-02 +1.36510590e-02 +3.99479493e-02 +2.64389552e-02 +9.30088535e-02 +9.31128785e-02 +1.20197050e-01 +7.73892924e-02 +8.19281638e-02 +3.66142504e-02 -2.26868782e-02 -5.70641048e-02 -4.96343710e-02 -1.69181988e-01 -1.04267895e-01 -3.44791412e-02 -5.24269164e-01 -1.76165730e-01 +4.16730165e-01 +2.67914087e-01 -3.53555195e-02 -2.36778185e-01 -3.03420454e-01 -1.98002979e-01 +2.98453029e-02 +4.28582802e-02 +2.76368740e-03 +1.18576810e-02 -1.18897565e-01 -8.91915187e-02 -1.35939673e-01 +2.43919250e-03 +5.30246273e-02 +1.05672300e-01 +1.05647512e-01 +9.62784961e-02 +2.76359990e-02 -3.56779806e-03 +7.41124377e-02 +4.94621098e-02 -2.03046635e-01 +4.98217463e-01 +6.97678983e-01 +3.07101786e-01 +1.94691832e-03 -1.00026809e-01 -1.82288393e-01 -3.14175069e-01 -1.73807181e-02 +4.11308594e-02 +5.50157540e-02 -3.88209410e-02 -2.21798569e-01 -1.71295255e-01 -1.44640282e-01 -1.42388240e-01 -1.47950038e-01 -1.27629295e-01 -4.84948605e-02 -3.54937743e-03 +1.50374975e-02 +5.20831347e-02 +1.76519707e-01 +8.78327936e-02 +1.89169899e-01 +7.39114285e-01 +4.25578713e-01 +7.33988285e-02 -2.43123602e-02 -1.06867239e-01 -9.08188671e-02 -1.29026085e-01 -4.31406535e-02 +9.70412511e-03 -3.28916707e-03 -5.82863986e-02 -1.51892319e-01 -1.52851194e-01 -1.37080759e-01 -1.42100707e-01 -1.66229531e-01 -1.33772671e-01 -9.46563631e-02 -7.37169534e-02 -5.32506406e-02 -1.41606750e-02 +1.20111108e-01 +9.23765823e-02 +4.83307302e-01 +5.70909202e-01 +1.15085021e-01 +4.24298272e-02 +6.45544901e-02 +6.51694387e-02 -2.20290180e-02 +2.03215722e-02 -3.44405100e-02 -3.08689028e-02 +1.26276081e-02 -4.80776913e-02 -9.68678296e-02 -1.14925653e-01 -1.49881393e-01 -1.07657477e-01 -1.14823610e-01 -1.80974141e-01 -1.23708025e-01 -2.28706170e-02 +3.93241830e-02 +7.40959421e-02 +1.87873527e-01 +3.25158268e-01 +3.73641044e-01 +1.15802534e-01 +2.44715847e-02 -4.62155184e-03 +4.64468598e-02 +1.28497511e-01 +6.87416941e-02 -9.29272398e-02 -6.34646416e-02 -1.29072592e-01 +6.20767288e-03 -1.52097102e-02 -1.28541529e-01 -2.37954095e-01 -1.94363728e-01 -1.88774571e-01 -2.21961677e-01 -2.79608876e-01 -2.53296703e-01 -1.99160233e-01 -3.46201248e-02 +2.15542614e-02 +1.08721003e-01 +1.59249946e-01 +8.94540176e-02 +5.22586368e-02 +2.18046252e-02 +1.53952092e-02 +8.09691101e-02 +1.04284860e-01 +2.57444885e-02 -1.67663887e-01 -1.02766939e-01 -1.38036311e-01 +4.07718215e-03 -7.52138123e-02 -2.16621175e-01 -2.92848974e-01 -3.18001777e-01 -2.82112926e-01 -2.88252026e-01 -2.93221533e-01 -2.82332689e-01 -2.17372820e-01 -1.13667570e-01 -2.88448036e-02 +2.39069127e-02 +3.02872295e-03 -6.08222978e-03 +6.15048409e-02 +1.10398978e-01 +1.38174161e-01 +1.07770614e-01 +2.73818336e-02 -2.91093737e-02 -1.05142683e-01 -5.47974184e-02 -1.11096211e-01 -1.99006088e-02 -8.27936754e-02 -1.94093660e-01 -2.72951782e-01 -2.27198079e-01 -1.63692519e-01 -1.32713065e-01 -1.23281159e-01 -9.63971466e-02 -9.16497409e-02 -6.15409240e-02 -8.59928429e-02 -4.70979512e-02 +1.52682737e-02 +3.63802090e-02 +2.09673028e-02 +2.66142581e-02 +2.93199476e-02 +8.71772543e-02 +3.02288178e-02 +2.14958526e-02 +3.05812131e-03 +1.03473179e-02 -6.38375133e-02 -1.53792277e-02 -1.26314491e-01 -1.95321709e-01 -1.72258511e-01 -1.21836856e-01 -2.09370349e-02 +3.45091224e-02 +5.20889759e-02 +6.77521974e-02 +6.49336874e-02 +7.23077208e-02 +7.71720484e-02 +9.34944823e-02 +9.65874866e-02 +1.04689308e-01 +9.15457979e-02 +8.06983858e-02 +7.18096718e-02 +5.65549806e-02 +6.23382814e-02 +6.08982965e-02 +5.46952300e-02 +9.76975635e-02 -7.32448474e-02 -5.69787733e-02 -1.46598697e-01 -1.84343353e-01 -1.32661209e-01 -9.96074378e-02 +2.27410309e-02 +3.02465092e-02 +4.07723002e-02 +4.59942184e-02 +4.68573049e-02 +6.53646514e-02 +9.53407511e-02 +1.13264494e-01 +1.08598568e-01 +1.38399586e-01 +1.39672428e-01 +1.20597869e-01 +1.01001084e-01 +7.01401308e-02 +7.02899843e-02 +3.63945700e-02 +3.21579389e-02 +8.99368823e-02 +1.08782984e-02 -1.61678903e-02 -1.64248183e-01 -1.82796657e-01 -1.61687225e-01 -9.79414135e-02 -1.44540025e-02 +3.13049518e-02 +3.47655639e-02 +6.15390763e-02 +7.24028945e-02 +8.59126225e-02 +8.85204822e-02 +1.24876700e-01 +1.50304466e-01 +1.65024459e-01 +1.83315635e-01 +1.47349238e-01 +1.31623179e-01 +9.22266841e-02 +7.01315776e-02 +5.39710931e-02 +2.28207465e-02 +4.58219014e-02 -1.50306523e-02 -3.22140343e-02 -1.17588334e-01 -1.55734479e-01 -1.30371034e-01 -8.78521875e-02 -2.34978627e-02 -3.21138911e-02 -3.91627997e-02 -1.19359605e-02 +2.71426961e-02 -3.53871426e-03 -5.11101307e-03 +3.43314558e-02 +1.33035779e-01 +1.23987913e-01 +1.12031184e-01 +1.00825734e-01 +8.07252899e-02 +7.20841885e-02 +5.29680289e-02 +3.67949419e-02 +2.46403739e-02 +5.46672270e-02 -6.89766649e-03 -9.46042314e-02 -1.85139120e-01 -1.27152354e-01 -8.58842880e-02 +1.53529476e-02 +5.25063695e-03 -1.67478379e-02 -3.46854664e-02 -2.63966396e-02 -5.15862145e-02 -6.45849705e-02 -6.94333985e-02 -4.67766300e-02 +1.46819234e-01 +1.50970966e-01 +4.41036634e-02 +3.11547518e-02 +5.24465553e-02 +5.77757470e-02 +3.46791148e-02 +3.13679762e-02 +3.34946178e-02 +3.71085517e-02 +2.73537561e-02 -7.60199130e-02 -1.99156642e-01 -1.30733415e-01 -4.03277911e-02 +7.75532946e-02 +1.25657931e-01 +6.68977946e-02 +1.85833536e-02 +2.18047518e-02 -1.55169971e-03 +2.53813528e-03 -3.60700227e-02 -2.63737757e-02 +1.21430814e-01 +2.19247371e-01 +1.23822294e-01 +2.07930021e-02 +3.63777811e-03 +1.28781563e-02 +3.33204493e-02 +3.38812210e-02 +1.12125222e-02 +3.19317393e-02 +1.02299973e-02 -9.82649997e-02 -1.55725732e-01 -1.33697242e-01 -6.55701384e-02 +5.07191904e-02 +1.05270803e-01 +1.07243598e-01 +7.57460296e-02 +1.73172429e-02 -2.41606459e-02 -1.72377843e-02 -5.65542951e-02 -5.41354790e-02 +1.21416114e-02 +1.85592294e-01 +1.55319482e-01 +8.74864385e-02 +3.77637111e-02 -4.05066274e-03 -1.06105395e-02 +2.69656852e-02 +3.50855477e-02 +3.79479192e-02 +6.33500963e-02 -1.29381031e-01 -1.84939861e-01 -9.94751826e-02 -6.00673184e-02 +2.22301595e-02 +5.48003055e-02 +4.54219021e-02 +3.36208083e-02 +2.65376493e-02 +2.93806624e-02 +6.63040131e-02 +4.44012433e-02 +1.95265620e-03 +3.03033944e-02 +1.98758155e-01 +1.74071208e-01 +9.68169868e-02 +5.92745133e-02 +3.88396606e-02 +4.09432985e-02 +6.48975596e-02 +2.91470569e-02 +1.62458122e-02 +5.50735407e-02 -1.39039040e-01 -1.80852994e-01 -1.31201223e-01 -2.22394876e-02 -5.92180435e-03 +2.53586005e-02 +3.25612985e-02 +4.01197337e-02 +4.98432368e-02 +5.94538189e-02 +7.45089054e-02 +7.61295557e-02 +6.42386302e-02 +3.05371750e-02 +1.46162391e-01 +1.86349869e-01 +1.47271022e-01 +9.94206965e-02 +9.18357894e-02 +8.08478221e-02 +8.44506919e-02 +5.54366410e-02 +2.32764464e-02 +1.06009170e-02 -1.77641094e-01 -1.40437350e-01 -8.39201733e-02 -2.49378961e-02 +6.56788424e-03 +3.26279253e-02 +1.88434124e-02 +2.29150336e-02 +2.29567159e-02 +3.49950567e-02 +4.14002351e-02 +5.62720485e-02 +6.50478080e-02 -2.68460019e-03 +8.50859731e-02 +1.34849563e-01 +6.56057447e-02 +6.08757213e-02 +6.60502240e-02 +6.88062087e-02 +7.34633505e-02 +3.96655686e-02 +3.53082940e-02 +1.14041716e-02 -1.79560915e-01 -9.90636498e-02 -8.35766867e-02 -2.75555998e-02 +3.76111805e-03 +2.57886220e-02 +2.55709104e-02 +2.70395763e-02 +3.98700349e-02 +4.73200865e-02 +3.89044397e-02 +6.28310516e-02 +7.22802803e-02 +2.66113076e-02 +2.15787534e-02 +9.07230824e-02 +6.22845665e-02 +6.91162497e-02 +5.34489937e-02 +6.02808632e-02 +3.72219086e-02 +2.72115152e-02 +3.90044376e-02 +1.25467768e-02 -1.49899662e-01 -1.67052910e-01 -9.49109495e-02 -7.07399696e-02 -3.19481045e-02 -1.83297542e-03 +3.02798003e-02 +3.44955698e-02 +4.11783792e-02 +3.68638411e-02 +3.83675210e-02 +3.54705453e-02 +5.97701520e-02 +5.38671166e-02 +5.40795811e-02 +5.60229421e-02 +4.42805253e-02 +5.13610356e-02 +3.94031890e-02 +3.79046611e-02 +4.48420048e-02 +5.54740392e-02 +1.80356596e-02 -2.47745644e-02 -1.81677625e-01 -1.78114951e-01 -1.68697134e-01 -1.35396630e-01 -7.60059729e-02 -4.81354035e-02 -1.66092848e-03 +1.96882263e-02 +2.46876217e-02 +2.26804297e-02 +3.22782360e-02 +3.48982923e-02 +5.36563955e-02 +6.07968606e-02 +3.34416777e-02 +5.76480776e-02 +3.50244716e-02 +1.41834421e-02 +1.65793356e-02 +4.20308113e-02 +2.00022813e-02 +1.31622916e-02 +5.70915313e-03 -1.26995342e-02 -2.00590547e-02 -1.44586843e-02 -4.11539935e-02 -1.49142873e-02 -1.25161586e-02 +3.23966821e-03 -5.90262376e-03 -3.62762026e-02 -2.91211195e-02 -3.45655009e-02 -2.63841078e-03 +2.82616373e-02 +1.01145031e-03 -1.50885135e-02 -6.48387289e-03 +6.17322512e-02 +5.03192395e-02 -5.55883273e-02 -1.19450763e-01 -1.07721999e-01 -6.11913465e-02 -3.36593166e-02 -2.78883595e-02 -4.67930622e-02 -3.37984823e-02 +1.02406426e-03 -2.50487309e-02 -1.18041476e-02 -8.86171777e-03 +6.98270183e-03 +1.92501955e-02 -1.17993895e-02 +3.35140619e-03 -7.28348736e-03 -4.82387748e-03 -1.33050317e-02 -4.56488645e-03 -4.96498570e-02 -3.54984403e-02 +3.07138897e-02 -8.24510679e-02 -1.14368021e-01 -1.27677411e-01 -2.42447369e-02 +4.73092273e-02 +8.82044062e-02 +5.33630699e-02 -4.57686670e-02 -2.72258278e-02 +1.59145147e-02 +2.01800749e-01 +1.99396819e-01 +7.91349858e-02 +1.16733173e-02 -5.66790951e-03 -6.62690476e-02 -7.09164813e-02 -8.15870166e-02 -9.51255336e-02 -3.02933883e-02 -3.97268198e-02 +2.15514563e-02 +7.67227486e-02 +7.32149035e-02 +1.24673620e-02 -7.85410702e-02 -9.59311575e-02 +1.15367947e-02 +6.50980845e-02 +1.02224790e-01 +1.69277608e-01 -1.49038779e-02 -4.85821813e-03 -2.74984539e-03 +1.58637166e-01 -1.67766303e-01 -3.62635702e-02 +1.53905630e-01 +2.78476506e-01 +2.53188133e-01 +1.90172821e-01 +1.73789382e-01 +1.50499836e-01 +1.55135751e-01 +1.17240287e-01 +1.23375349e-01 +1.30429640e-01 +7.22709969e-02 -5.28844409e-02 -3.56550775e-02 +1.34720996e-01 +3.62023056e-01 +5.26706815e-01 +1.67514235e-01 +1.47444218e-01 -3.37414667e-02 -2.94019394e-02 -1.76036898e-02 +4.53907140e-02 -4.03925747e-01 -5.75550854e-01 -4.26261216e-01 -2.24956572e-01 -9.21415538e-03 +1.07074685e-01 +1.50352359e-01 +1.63605347e-01 +2.24608123e-01 +2.36348465e-01 +2.53506601e-01 +2.45465115e-01 +2.11772785e-01 +1.58227444e-01 +4.07905698e-01 +5.98700285e-01 +7.62855768e-01 +8.70355070e-01 +2.72856295e-01 +3.85140479e-02 -4.55583744e-02 -3.07809352e-03 -1.73614938e-02 -1.38894573e-01 -3.46045047e-01 -6.15887105e-01 -5.53889871e-01 -5.62047660e-01 -4.80255425e-01 -2.17697099e-01 -9.18650702e-02 -1.85578819e-02 +7.94805810e-02 +1.31396234e-01 +1.85137659e-01 +2.21590385e-01 +1.00112952e-01 +1.84073150e-01 +2.36430883e-01 +2.95778185e-01 +6.72189116e-01 +8.94951224e-01 +4.15930152e-01 -4.82468717e-02 -7.10501075e-02 -3.00008319e-02 -4.80949581e-02 -1.07283518e-01 -1.69887021e-01 -2.57027507e-01 -2.69979388e-01 -2.79607475e-01 -3.65271538e-01 -4.24471438e-01 -4.07152534e-01 -3.57032388e-01 -2.55713731e-01 -1.63267761e-01 -1.14888161e-01 -1.03026547e-01 -7.29362741e-02 -1.04541807e-02 +4.60715853e-02 +1.50877059e-01 +3.66420239e-01 +7.16892540e-01 +6.88662946e-01 +2.34349295e-02 -8.30208510e-02 -3.41643323e-03 -3.81515734e-02 +2.29984187e-02 +8.46565515e-02 +9.19840857e-02 +3.31295431e-02 +6.39337599e-02 +7.29839876e-02 -1.03325851e-01 -1.47835135e-01 -1.65639475e-01 -1.53014272e-01 -7.88300782e-02 -5.13337813e-02 -5.56560680e-02 -1.44550115e-01 -1.20146044e-01 -2.09630698e-01 -6.63989112e-02 +1.18693568e-01 +4.17755246e-01 +6.14934623e-01 +9.32992473e-02 -9.44857895e-02 -8.39615986e-03 -1.57518871e-02 -2.18007714e-02 +3.04915477e-02 +1.77914992e-01 +2.92092562e-01 +3.60664576e-01 +3.13698232e-01 +2.59048223e-01 +1.17075644e-01 +1.06093790e-02 +9.53407958e-03 +8.79216474e-03 -2.07734983e-02 -7.51506090e-02 -7.45366812e-02 -2.83276826e-01 -3.07120591e-01 -2.56123573e-01 -1.85682222e-01 -1.15073048e-01 +2.59502735e-02 +6.04117475e-03 -6.48361668e-02 -2.93327798e-03 -4.83453609e-02 -1.12539604e-01 +1.69656053e-02 +1.67318493e-01 +3.29565644e-01 +3.73998761e-01 +3.67466897e-01 +3.37840378e-01 +3.20993125e-01 +2.64936447e-01 +1.96456030e-01 +1.45183951e-01 +1.35531172e-01 +1.79588333e-01 +4.17862758e-02 -1.33598477e-01 -2.94690251e-01 -3.05262655e-01 -2.78120548e-01 -2.06802949e-01 -1.05565354e-01 +4.84238453e-02 +8.77591502e-03 -1.13982772e-02 -7.82512054e-02 -9.89276022e-02 -6.29185960e-02 +2.15863008e-02 +1.36248723e-01 +2.04590663e-01 +2.45378286e-01 +2.32383355e-01 +2.20540181e-01 +2.28959531e-01 +2.79148012e-01 +2.91655391e-01 +2.31608197e-01 +2.21605465e-01 +1.86666504e-01 +1.01311550e-01 +3.36014852e-02 -1.23150600e-02 -2.79547684e-02 -2.67969649e-02 +3.20381820e-02 +6.58308342e-02 -2.22882107e-02 -8.70789587e-03 -1.00832030e-01 -1.47198319e-01 -1.18070625e-01 -6.96439818e-02 -1.42811658e-02 +1.69427227e-02 +3.83022018e-02 +4.24915813e-02 +3.06071807e-02 +3.99673507e-02 +5.34735546e-02 +8.05027932e-02 +7.71491826e-02 +1.09585062e-01 +9.78172719e-02 +9.01989862e-02 +9.09176469e-02 +8.30706581e-02 +8.52297843e-02 +1.03477977e-01 +1.12344138e-01 +1.05805971e-01 -4.68437783e-02 -2.95470841e-02 -1.19943917e-01 -1.47417054e-01 -1.00993469e-01 -6.42798916e-02 -1.32436017e-02 +2.46154587e-03 +1.17568672e-02 +2.02853652e-03 +1.18111167e-03 +4.14713100e-02 +7.34166875e-02 +1.05830714e-01 +1.11691177e-01 +1.22864909e-01 +1.20783903e-01 +1.07890718e-01 +1.08310983e-01 +1.12934455e-01 +1.12310044e-01 +1.06558368e-01 +1.09837115e-01 +1.04554974e-01 -2.84862146e-02 -3.54031697e-02 -1.34667337e-01 -1.38300881e-01 -1.15040138e-01 -7.88080543e-02 -4.66402024e-02 -5.40572777e-02 -7.83652887e-02 -5.40773310e-02 -2.65814364e-02 +1.97966280e-03 +2.42552496e-02 +7.44811073e-02 +1.33393407e-01 +1.44641593e-01 +1.56117693e-01 +1.07363142e-01 +1.22695491e-01 +1.35487840e-01 +1.10992104e-01 +1.16820954e-01 +1.08722068e-01 +1.02273405e-01 -2.09335163e-02 -4.78884391e-02 -1.30065382e-01 -1.26271725e-01 -1.05391361e-01 -1.06449291e-01 -1.48184970e-01 -1.87390417e-01 -1.81687683e-01 -1.59364671e-01 -8.14442039e-02 -9.17121395e-02 -6.54196292e-02 -2.27343198e-02 -2.51862649e-02 -2.33343765e-02 -1.54626034e-02 +3.20960931e-03 -7.91295804e-03 +2.36829463e-02 +4.40945029e-02 +7.69023970e-02 +1.01125523e-01 +1.17657758e-01 -3.73657793e-03 -7.41541758e-02 -1.40444860e-01 -1.04968809e-01 -5.74698038e-02 +5.44159999e-03 -2.28708144e-03 -3.12732495e-02 -6.98579475e-02 -8.73632059e-02 -3.99414189e-02 +4.26182710e-03 +3.47005390e-02 -3.17608304e-02 -7.26579204e-02 -7.94422925e-02 -7.30139762e-03 -2.82569900e-02 -6.64310157e-02 -7.08896294e-02 -5.38291186e-02 +1.57442763e-02 +1.06155030e-01 +1.07852980e-01 +2.70773582e-02 -6.31364286e-02 -1.45272866e-01 -1.00669526e-01 +1.90932881e-02 +2.27872014e-01 +3.39033991e-01 +2.87975222e-01 +2.01238334e-01 +2.85283417e-01 +3.26621652e-01 +3.21939021e-01 +2.98141599e-01 +1.95084363e-01 +1.46177843e-01 -3.66186607e-03 +8.37269588e-04 -9.97663569e-03 -5.26790917e-02 -4.28671204e-02 +1.73965152e-02 +8.33763629e-02 +1.19131595e-01 +1.07269175e-01 +2.32888274e-02 -9.85826626e-02 -1.32629395e-01 -1.15160227e-01 -5.86930104e-02 +1.63085729e-01 +4.63994056e-01 +5.16772151e-01 +4.47966486e-01 +3.77246946e-01 +2.93996185e-01 +2.33841002e-01 +1.79380774e-01 +1.47736907e-01 +1.55507728e-01 +1.30667865e-01 +1.85053367e-02 +9.32574347e-02 +7.27599338e-02 +7.12230504e-02 +1.22904465e-01 +1.67354017e-01 +1.35068730e-01 +9.97079685e-02 +6.68710470e-02 -1.16118893e-01 -1.43167391e-01 -8.48709792e-02 -8.96973386e-02 +1.15090236e-01 +2.80506611e-01 +2.17489868e-01 +1.38900071e-01 +9.63322073e-02 +8.99549425e-02 +6.39481619e-02 +1.71429999e-02 -3.83859538e-02 -2.80463025e-02 +6.59118593e-02 -1.54622374e-02 +8.52323398e-02 +1.54488489e-01 +1.89785451e-01 +1.91634014e-01 +1.85130686e-01 +1.09284416e-01 +1.09939083e-01 +8.38463381e-02 -1.27799213e-01 -1.35906667e-01 -8.86466727e-02 -7.96519816e-02 +2.93169927e-04 +4.92114313e-02 +8.18075761e-02 +1.01864107e-01 +1.19556151e-01 +1.32500380e-01 +1.66482732e-01 +1.57729849e-01 +1.02219656e-01 +6.59592077e-02 +5.37267774e-02 -7.44305253e-02 -1.46514177e-01 -5.90531081e-02 +7.92658255e-02 +1.88913271e-01 +9.71759781e-02 +7.29501620e-02 +1.10005386e-01 +7.09740743e-02 -1.44199848e-01 -1.08126566e-01 -5.74636832e-02 -3.57714333e-02 -2.48468760e-02 -1.38203539e-02 -1.20177856e-02 -5.32146660e-04 +4.18861490e-03 +1.82692129e-02 +6.62039891e-02 +7.20808133e-02 +8.02942887e-02 +7.58162215e-02 +1.92946821e-01 +2.28561029e-01 +5.42049147e-02 -1.13137695e-03 -3.98255922e-02 -4.73089367e-02 -1.47415921e-02 +6.60353974e-02 +1.05473816e-01 +9.33402032e-02 -1.40562370e-01 -9.41344127e-02 -4.97334450e-02 -1.87308136e-02 +3.51365277e-04 +1.13031119e-02 +1.74636748e-02 +1.32036256e-02 +2.87584569e-02 +3.12939845e-02 +3.51980627e-02 +3.30795161e-02 +4.34134491e-02 +2.30766572e-02 +6.81339204e-02 +1.60204694e-01 +1.40382648e-01 +1.40111312e-01 +1.27093568e-01 +1.18804604e-01 +7.71197975e-02 +7.68210888e-02 +1.05719477e-01 +1.08851254e-01 -1.28522575e-01 -1.13133520e-01 -5.93073331e-02 -4.26164679e-02 -2.83014402e-02 -9.57654137e-03 +1.83458664e-02 +1.56759992e-02 +2.40108538e-02 +3.45556028e-02 +4.59230170e-02 +5.23760468e-02 +5.93759529e-02 +6.74369112e-02 +7.84981251e-02 +7.56107196e-02 +8.31096768e-02 +9.06125978e-02 +1.05070859e-01 +1.01827294e-01 +1.01474650e-01 +9.56024230e-02 +9.89432782e-02 +7.16998950e-02 -1.52095065e-01 -1.37884349e-01 -1.17730461e-01 -1.11128077e-01 -6.65440336e-02 -6.02680705e-02 -1.34028019e-02 +1.98062230e-03 +1.80848110e-02 +2.84766350e-02 +4.04176898e-02 +3.82903665e-02 +2.70119589e-02 +6.73170537e-02 +4.02015522e-02 +7.70600364e-02 +7.69983158e-02 +4.64784876e-02 +6.58475533e-02 +8.90941247e-02 +9.14743468e-02 +1.02746025e-01 +7.76048228e-02 +7.78566599e-02 -1.11770809e-01 -1.50364861e-01 -1.04360521e-01 -8.51790532e-02 -6.99406490e-02 -4.69161160e-02 -9.07495096e-02 -7.22325966e-02 -7.22274110e-02 -5.69567941e-02 -4.67443541e-02 -1.45743776e-03 -3.61551009e-02 +3.99285890e-02 +7.00959414e-02 +1.49754941e-01 +1.95183352e-01 +2.46825963e-01 +2.39215687e-01 +2.31916159e-01 +2.82115310e-01 +3.19748193e-01 +2.86593527e-01 +4.72357988e-01 -1.95642620e-01 -6.98094070e-02 -7.43404925e-02 -8.28205198e-02 -5.54001518e-02 -1.00238226e-01 -7.68393725e-02 -1.14597842e-01 -4.89390120e-02 -4.41840701e-02 -3.57208885e-02 -5.22275418e-02 -5.46844564e-02 -4.36108485e-02 +3.32457796e-02 +4.63821329e-02 +1.24596193e-01 +8.99820775e-02 +1.63307637e-01 +1.81904212e-01 +1.17008507e-01 +1.78873017e-01 +1.85625777e-01 +2.84638077e-01 -1.80134609e-01 -1.51010290e-01 -2.05690593e-01 -1.52944118e-01 -1.28256023e-01 -5.21936826e-02 +2.61569619e-02 -4.66268416e-03 -8.35421495e-03 -2.17907410e-02 +2.41541155e-02 +5.46278059e-02 +4.40815743e-03 +1.30966771e-02 -1.19117508e-03 +1.30438358e-01 +1.57417521e-01 +1.92986056e-01 +1.60588458e-01 +9.52007398e-02 +1.17850944e-01 +5.42684905e-02 +1.47559375e-01 +2.90916830e-01 -1.79254428e-01 -1.32441789e-01 -2.22805411e-01 -2.11648166e-01 -2.14989066e-01 -1.97481319e-01 -1.50569513e-01 -1.29638895e-01 -1.20229729e-01 -8.07084367e-02 -7.44823813e-02 -8.19200352e-02 -1.18170097e-01 -1.46198943e-01 -4.37235609e-02 +8.90228003e-02 +1.05720349e-01 +1.22589134e-01 +1.42593101e-01 +9.90539193e-02 +5.77508844e-02 +7.77292103e-02 +1.66157261e-01 +2.79898554e-01 -1.99764445e-01 -1.46924272e-01 -2.16510236e-01 -2.47951344e-01 -1.80220574e-01 -1.59014761e-01 -1.23675436e-01 -1.08787574e-01 -1.09081149e-01 -1.15534134e-01 -1.05680048e-01 -8.81935880e-02 -9.62812677e-02 -6.26537502e-02 +2.99041606e-02 +1.11862525e-01 +4.43968885e-02 +3.38838138e-02 -2.96861981e-04 +2.97166388e-02 +8.72724596e-03 +6.28240258e-02 +9.57491025e-02 +2.58785963e-01 -1.64026797e-01 -1.73686698e-01 -2.34600976e-01 -2.57470429e-01 -1.42584279e-01 -5.49535640e-02 -3.30044515e-02 -5.89675307e-02 -4.28520516e-02 -8.49305168e-02 -5.28546907e-02 -9.35112163e-02 -8.34784508e-02 -4.97990772e-02 +4.87748198e-02 +7.50535727e-02 +1.56533066e-02 -5.05299168e-03 -6.78555146e-02 -6.94539621e-02 -6.66133612e-02 -3.79612409e-02 +7.11226985e-02 +2.38100559e-01 -1.44529745e-01 -1.78590998e-01 -2.07841530e-01 -1.65747106e-01 -1.43328533e-01 -1.30331039e-01 -9.17033553e-02 -3.79796661e-02 -6.46316446e-03 +2.28510308e-03 -4.78411317e-02 -3.97607274e-02 -2.13889536e-02 +2.21960247e-02 +5.19593321e-02 +1.22430352e-02 -2.48832107e-02 -6.50991499e-02 -1.01181842e-01 -1.50441036e-01 -1.05183326e-01 -5.95917329e-02 +2.08381517e-03 +2.44819105e-01 -1.17732473e-01 -1.39512748e-01 -2.34513745e-01 -1.52419567e-01 -1.65741980e-01 -1.62237138e-01 -1.62298247e-01 -6.80215210e-02 -4.87844609e-02 -4.45610099e-02 -3.81481573e-02 -6.09465688e-02 -3.83032858e-02 -2.24168487e-02 +2.24542734e-03 -2.25711260e-02 -4.58826199e-02 -1.25788018e-01 -1.54155314e-01 -1.42184451e-01 -1.26636550e-01 -1.45447731e-01 -2.25337571e-03 +2.86583811e-01 -1.42358288e-01 -1.31237060e-01 -1.40141279e-01 -1.26211628e-01 -1.22903056e-01 -8.36642534e-02 -1.06836990e-01 -1.02332793e-01 -4.60032448e-02 -1.63827688e-02 -2.87753791e-02 -3.02074812e-02 -4.28590411e-03 +1.19274976e-02 -7.20632169e-03 -6.41162097e-02 -1.41909927e-01 -1.57666340e-01 -1.95052862e-01 -2.09635586e-01 -1.00121222e-01 -1.11946255e-01 +2.49325167e-02 +3.67698848e-01 -4.75116521e-02 -1.43770367e-01 -1.52515560e-01 -1.02694549e-01 -4.72522192e-02 -5.17695816e-03 -2.52856147e-02 -6.67384416e-02 -2.34059338e-02 -2.73664482e-02 +1.75187073e-03 +3.44254151e-02 -1.48779359e-02 -1.33374101e-03 -3.31255496e-02 -9.43982974e-02 -1.81530133e-01 -2.53359407e-01 -2.31618151e-01 -1.70452833e-01 -8.15342963e-02 -2.30563395e-02 +1.25715241e-01 +4.27036107e-01 -1.08095445e-01 -1.14943035e-01 -8.72746706e-02 -1.94883253e-02 +1.74652394e-02 +4.72723432e-02 +7.97768906e-02 +5.61924726e-02 +5.31433076e-02 +3.82070839e-02 +6.43375218e-02 +6.33777902e-02 +9.47661176e-02 +7.00109228e-02 +2.58369558e-02 -7.81729743e-02 -1.43496469e-01 -1.36877596e-01 -6.90641627e-02 -6.22719303e-02 -2.45847758e-02 +4.20750938e-02 +1.69962585e-01 +4.64797229e-01 -5.21317832e-02 -9.69436914e-02 -4.57769111e-02 -2.16417643e-03 +3.15476544e-02 +4.85842414e-02 +4.98297997e-02 +4.69804667e-02 +6.24075346e-02 +2.71500051e-02 +4.92675342e-02 +5.95467910e-02 +3.06942184e-02 +1.00188851e-02 +2.17827223e-02 +3.35828364e-02 +4.10475433e-02 +1.76077313e-03 -1.87495761e-02 +2.45571230e-02 +8.96887481e-02 +6.09228797e-02 +1.41329020e-01 +4.56913024e-01 -8.29984769e-02 -7.90978670e-02 -3.76092158e-02 +1.97513085e-02 +1.98044237e-02 +7.03966245e-02 +5.06380908e-02 +9.81063396e-02 +9.65596884e-02 +1.03097938e-01 +7.26991072e-02 +5.89353740e-02 +6.68701977e-02 +4.11557071e-02 -1.32468774e-03 -2.68442202e-02 -2.01555490e-02 -1.29853338e-02 -4.46994882e-03 +3.63861248e-02 +4.60507609e-02 +8.11918303e-02 +1.14990100e-01 +4.40559864e-01 -7.16053173e-02 -7.90722072e-02 -3.10815759e-02 +1.51873417e-02 -1.14819761e-02 +1.32962642e-02 +4.27483730e-02 +7.49361068e-02 +1.03627212e-01 +9.89150405e-02 +6.60228729e-02 +8.49054903e-02 +2.46446431e-02 +3.21653746e-02 +2.41639577e-02 +1.46048767e-02 -4.93059829e-02 -6.80787191e-02 -4.38036062e-02 -2.30665156e-03 +7.04866648e-02 +7.37928227e-02 +1.44764751e-01 +4.45210814e-01 -9.47142541e-02 -9.39846933e-02 -8.60241335e-03 +2.35142168e-02 +8.59189965e-03 +4.38596383e-02 +5.51856868e-02 +8.79216865e-02 +6.55519441e-02 +9.90341976e-02 +8.99910033e-02 +9.40010920e-02 +3.85423042e-02 +1.38133485e-02 -4.38882224e-03 -1.49491755e-02 -6.31133243e-02 -8.71425420e-02 -8.77435040e-03 -4.79093613e-03 +5.56469895e-02 +1.17047518e-01 +1.41507819e-01 +3.91499102e-01 -1.18470252e-01 -6.03634194e-02 -5.52924797e-02 -2.55066063e-02 -1.73968226e-02 +1.92719663e-03 +2.75428127e-02 +5.48646413e-02 +1.03647806e-01 +5.85835166e-02 +1.12699285e-01 +7.35478103e-02 +4.11990248e-02 +4.17524613e-02 +3.38857584e-02 -1.22370862e-03 +2.26242114e-02 -3.22541483e-02 -2.00908445e-02 -2.82742586e-02 +4.83123139e-02 +1.00384794e-01 +7.73276836e-02 +4.03035164e-01 -1.19283430e-01 -8.67694169e-02 +2.08356665e-04 +9.33608739e-04 +1.70119188e-03 -1.29953527e-03 -1.34832449e-02 +8.33949596e-02 +5.70369922e-02 +8.06377456e-02 +1.24776654e-01 +7.84522295e-02 +5.70947379e-02 +6.40175864e-02 +2.88105942e-02 +3.70288827e-02 -1.56175140e-02 +2.70244889e-02 -1.14110792e-02 +6.07914589e-02 +6.11644648e-02 +1.00966215e-01 +1.38007119e-01 +3.61925989e-01 -7.79322237e-02 -5.68284392e-02 -2.82916557e-02 +6.79111555e-02 +1.00699700e-02 -1.41998781e-02 +6.13834523e-03 +5.48640005e-02 +6.96318373e-02 +5.78000508e-02 +8.20555612e-02 +8.05293992e-02 +5.36274277e-02 -1.16744619e-02 +4.15501818e-02 +1.53074842e-02 +8.13397467e-02 +7.75219500e-02 +8.14704150e-02 +6.92109913e-02 +7.02017322e-02 +7.36301690e-02 +1.43555328e-01 +3.66227835e-01 -1.31469503e-01 -5.29807732e-02 +2.35238690e-02 +1.77583992e-02 +5.45409098e-02 +3.40287276e-02 +3.59427147e-02 +2.06187852e-02 +4.70641740e-02 +5.52049503e-02 +3.30839381e-02 +4.37877253e-02 +1.53050646e-02 +1.41245592e-02 +3.69194988e-03 -6.71725348e-03 +4.05805260e-02 +1.13945760e-01 +9.06852186e-02 +7.46061131e-02 +8.95442367e-02 +1.01315416e-01 +1.15626380e-01 +2.65867501e-01 -9.70308185e-02 +3.51881469e-03 +1.86574105e-02 +2.87625473e-02 +3.33314412e-03 +5.44614457e-02 +5.27308062e-02 +1.09266438e-01 +1.07399352e-01 +5.58830053e-02 +1.08702995e-01 +6.32902235e-02 +8.34604800e-02 +5.94635084e-02 +1.10238586e-02 -4.72809374e-02 +2.76228432e-02 +2.16148365e-02 +3.02909985e-02 +5.73202185e-02 +3.52071486e-02 +8.54746401e-02 +1.14215113e-01 +3.13032091e-01 -1.52465761e-01 -7.05734408e-03 +3.13871279e-02 +2.72614155e-02 +6.24493919e-02 +6.83642924e-02 +4.49232310e-02 +4.68596891e-02 +3.72010283e-02 +2.12231074e-02 +4.81875949e-02 +4.71006595e-02 +2.11162176e-02 +6.66998476e-02 +1.24577386e-02 +8.04706383e-03 +6.60442337e-02 +5.75795472e-02 +2.53231209e-02 +1.48324957e-02 +4.26128507e-02 +5.37091494e-02 +1.37069166e-01 +3.27346891e-01 -1.17949501e-01 +1.03531172e-02 +7.93119334e-03 +5.84023148e-02 +2.11135820e-02 +3.55321728e-02 +6.69328794e-02 +3.80286761e-02 +8.05573910e-02 +4.50373329e-02 +8.22474733e-02 +2.16575898e-02 -5.08503197e-03 +2.73557231e-02 +1.17012970e-02 +2.08165664e-02 +8.11556913e-03 +2.43826266e-02 +6.27226159e-02 +7.58937523e-02 +3.37614715e-02 +3.17034051e-02 +1.05412394e-01 +2.60008067e-01 -9.16261747e-02 -1.10093756e-02 -4.78787487e-03 +1.06748790e-02 +5.25422134e-02 +1.84135959e-02 +6.26083463e-02 +7.14579448e-02 +6.34972900e-02 +5.49573787e-02 +7.55903572e-02 +6.44033849e-02 +5.07190302e-02 -9.36082937e-03 +3.06412554e-03 +3.35730948e-02 +5.59926406e-02 +3.94934081e-02 +6.13730773e-02 +8.82540494e-02 +8.86068195e-02 +1.33033648e-01 +1.42667264e-01 +2.58772850e-01 -1.07253499e-01 -6.55558109e-02 -5.86486422e-02 -8.34167004e-03 -5.20897238e-03 -4.91651446e-02 -1.31152859e-02 -5.97716309e-03 +1.04497615e-02 +4.60321940e-02 +2.62073744e-02 +2.07358487e-02 +3.88927152e-03 +2.83999611e-02 +6.63825870e-02 +1.08905226e-01 +1.46350667e-01 +1.59571171e-01 +1.75940812e-01 +1.99069455e-01 +2.67392218e-01 +2.82331944e-01 +2.93405950e-01 +3.86343211e-01 +2.88573047e-03 -5.29471436e-04 -5.47749363e-03 +1.38997287e-03 +5.52244810e-03 +4.25176043e-03 +1.35737974e-02 +4.30531939e-03 -2.89446339e-02 -2.05254499e-02 -7.83768110e-03 -5.56770153e-03 -2.75616851e-02 -4.94410545e-02 +2.17761770e-02 +1.25631914e-01 +6.71890751e-02 -2.92942170e-02 -8.59786496e-02 -8.61788914e-02 -1.04282804e-01 -5.51325195e-02 +5.03146462e-03 +7.03154830e-03 -7.89147429e-03 +6.44130306e-03 +1.92373677e-03 +1.02052819e-02 -1.46889668e-02 +1.44802276e-02 +4.49047610e-03 +7.07949139e-03 +1.53466277e-02 +1.49158761e-02 +2.65604220e-02 +3.13631780e-02 +2.93274485e-02 -1.91663094e-02 +1.05214685e-01 +1.47333488e-01 +4.15412970e-02 -4.12758142e-02 -1.85775328e-02 +1.93776581e-02 +1.02673108e-02 +7.79176056e-02 +4.68383916e-02 -7.08253542e-03 +1.25730801e-02 +2.52385046e-02 +4.84848581e-02 +2.88263801e-02 +1.67537108e-02 +1.93617363e-02 +1.24065746e-02 +4.60752577e-04 -1.49001442e-02 -1.72050651e-02 +1.56491492e-02 +5.13087325e-02 +7.71386027e-02 +7.54779205e-02 +2.44731918e-01 +2.28714958e-01 -2.50433087e-02 -2.20468625e-01 -2.95288533e-01 -3.41618985e-01 -4.03751135e-01 -4.45147842e-01 -5.15621752e-02 +1.53444996e-02 +1.33453426e-03 +3.29312906e-02 +4.06050868e-02 -4.30348739e-02 -4.53333184e-02 +6.42169174e-03 +9.34507102e-02 +1.68954000e-01 +2.02463984e-01 +2.14236125e-01 +2.06101730e-01 +2.09868133e-01 +2.02743500e-01 +1.32669508e-01 +1.83704033e-01 -9.21982527e-02 -4.94312584e-01 -4.87834841e-01 -4.27572876e-01 -2.99528599e-01 -2.66058713e-01 -5.12809038e-01 -2.29240671e-01 +6.09334884e-03 +1.82573404e-02 +1.43866967e-02 +3.58830616e-02 -4.67506461e-02 -6.30545765e-02 -6.73483312e-02 -5.41431680e-02 +3.19699682e-02 +1.07023947e-01 +1.73687741e-01 +1.91034868e-01 +2.15032756e-01 +2.07406104e-01 +1.76941887e-01 +9.95902270e-02 -2.83001542e-01 -4.23010647e-01 -3.32234472e-01 -2.29904205e-01 -1.27798468e-01 -2.36345291e-01 -4.44093496e-01 -2.54614621e-01 +1.14731062e-02 +9.38991178e-03 +3.86569202e-02 +6.32072836e-02 -8.99000745e-03 +7.90523551e-03 +2.92475801e-02 +1.88295469e-02 +2.03690510e-02 +3.36120389e-02 +2.31429189e-02 +3.49720605e-02 +4.86576669e-02 +4.75484282e-02 +2.79288366e-02 -1.41382903e-01 -2.42034048e-01 -1.83353439e-01 -5.16858548e-02 +7.51370490e-02 +5.85974865e-02 -1.39655292e-01 -4.04306114e-01 -1.74709916e-01 +1.03750052e-02 +5.33965358e-04 +5.90191893e-02 +4.19279002e-02 +5.54001592e-02 +3.73366177e-02 +9.35436867e-04 -1.39917033e-02 +2.30311789e-02 +2.78415121e-02 +3.23511548e-02 +4.78896238e-02 +6.12647943e-02 +6.60914406e-02 +8.17609876e-02 -5.76953739e-02 -1.20035417e-01 -2.80506089e-02 +9.64803472e-02 +1.33382395e-01 +1.36920437e-01 +3.78223858e-03 -2.57417709e-01 -3.34910229e-02 +3.81463836e-03 +2.46040709e-02 +4.71643060e-02 +4.71408665e-02 +5.98938875e-02 -5.75486291e-03 -4.24908549e-02 -5.33189029e-02 -5.26061952e-02 -1.88981909e-02 -3.18220519e-02 -1.73333287e-02 -2.32610833e-02 +3.94735811e-03 +1.09669091e-02 -5.67757227e-02 +1.50043992e-02 +1.55098483e-01 +1.90518484e-01 +2.11486250e-01 +1.66666850e-01 +1.18009880e-01 -5.06708515e-04 -2.37563141e-02 -1.18078617e-02 +2.25729421e-02 +5.82361184e-02 -3.98192875e-04 -4.73813079e-02 -7.41948783e-02 -1.05587102e-01 -1.21012226e-01 -1.44468680e-01 -1.42606497e-01 -9.70597118e-02 -5.36082722e-02 -4.75212485e-02 -3.95526513e-02 -2.47861706e-02 -8.45224131e-03 +9.30053368e-02 +2.54570514e-01 +2.94583142e-01 +3.00175488e-01 +2.76292235e-01 +2.07311854e-01 +1.33547500e-01 -4.38002311e-03 -4.01963033e-02 +3.68254744e-02 +3.46465856e-02 -6.63539320e-02 -1.58876032e-01 -2.24779934e-01 -2.49672279e-01 -2.52004653e-01 -2.71966249e-01 -2.88730830e-01 -2.67198771e-01 -2.54570872e-01 -1.78187966e-01 -1.72597349e-01 -1.73057675e-01 -1.33498639e-01 +3.38204503e-02 +1.70757338e-01 +3.19662571e-01 +3.65833610e-01 +3.80377650e-01 +2.76903719e-01 +1.84725285e-01 +4.09159325e-02 +2.88885571e-02 +1.39500098e-02 -6.24698261e-03 -7.16893226e-02 -1.39220089e-01 -1.78598866e-01 -2.14236200e-01 -2.16868594e-01 -1.91847235e-01 -1.63103104e-01 -1.32429525e-01 -1.21715106e-01 -1.75771549e-01 -1.59243926e-01 -3.64130102e-02 +9.37280878e-02 +1.93755344e-01 +2.85890937e-01 +3.41254562e-01 +3.78413767e-01 +4.17733610e-01 +3.72893184e-01 +2.74655670e-01 +9.47580561e-02 +6.03944361e-02 +2.41254568e-02 -1.27356686e-02 -4.86326702e-02 -5.36532477e-02 -3.93101759e-02 -4.94544692e-02 -3.66353244e-02 -2.60618217e-02 -8.23594444e-03 -1.02607794e-02 +8.23005685e-04 -8.72731581e-03 +1.82881355e-02 +2.86179204e-02 +5.89676760e-02 +9.33614746e-02 +1.02396972e-01 +1.39490098e-01 +1.30306497e-01 +1.52038500e-01 +1.35461554e-01 +1.04427621e-01 +4.34485003e-02 +2.24083924e-04 +2.64287554e-02 -2.59128716e-02 -5.60015179e-02 -4.90540378e-02 -3.40095535e-02 -1.05473036e-02 -1.12843374e-02 +9.18889884e-03 +1.53774098e-02 +1.69788189e-02 -2.13285908e-03 -9.78013850e-04 -1.37205413e-02 -7.15297684e-02 -1.27124578e-01 -1.01755984e-01 -8.52270573e-02 -5.22719435e-02 -2.56809182e-02 +1.15084071e-02 +3.43768261e-02 +6.33529648e-02 +3.49928290e-02 -6.91419188e-03 +2.78579202e-02 -4.37394492e-02 -6.06432967e-02 -4.41827811e-02 -9.43392701e-03 +2.14961432e-02 +7.26217106e-02 +1.47647962e-01 +1.36472955e-01 +7.50360787e-02 +8.80548507e-02 +1.29697978e-01 +8.19996670e-02 -1.89836562e-01 -3.01999807e-01 -4.24011648e-01 -4.21034157e-01 -2.53037751e-01 -1.43815681e-01 -5.05399406e-02 +9.42511484e-03 +6.45604655e-02 +5.56332022e-02 -1.19299069e-02 +3.42691727e-02 -2.97118686e-02 -4.63786684e-02 -3.17456126e-02 +7.79206380e-02 +2.87656337e-01 +5.25000215e-01 +6.92485571e-01 +5.22226095e-01 +3.42280984e-01 +4.40901697e-01 +3.94084543e-01 +1.78686649e-01 +2.79550701e-02 -1.96358845e-01 -3.54417115e-01 -4.41047728e-01 -4.62764293e-01 -3.69910508e-01 -1.74370781e-01 -3.12897898e-02 +4.05835733e-02 +6.35573789e-02 +2.40206975e-03 +8.04935861e-03 -5.11486903e-02 -6.28272295e-02 -1.98720954e-02 +2.51546115e-01 +6.54522777e-01 +8.12290668e-01 +8.47658396e-01 +8.13263953e-01 +7.95515895e-01 +6.62905157e-01 +5.39725840e-01 +4.52515990e-01 +5.24561286e-01 +4.51026618e-01 +2.76398193e-02 -1.40030265e-01 -2.53773123e-01 -2.32405961e-01 -2.26823658e-01 -1.21786095e-01 +5.31785600e-02 +4.40600440e-02 +9.58514307e-03 +1.25041436e-02 -3.74156050e-02 -5.33430353e-02 -1.63308461e-03 +2.16800496e-01 +4.61615354e-01 +5.78261971e-01 +7.03645945e-01 +4.87501770e-01 +1.74763471e-01 -1.74031965e-02 -5.42433113e-02 -8.80481675e-02 +2.45988533e-01 +7.10197449e-01 +5.65354824e-01 +4.50173318e-02 -8.01847503e-02 -1.39490291e-01 -1.41576499e-01 -4.63010557e-02 +4.22850959e-02 +5.47658354e-02 -4.00887011e-03 -1.56806894e-02 -6.10022284e-02 -4.57841754e-02 +1.24024488e-02 -8.49681068e-03 +5.03991544e-02 +1.79316729e-01 -1.06512390e-01 -4.03470695e-01 -4.97736961e-01 -5.02078295e-01 -5.24023950e-01 -5.59358180e-01 -3.13823730e-01 +1.95946470e-01 +5.53215981e-01 +3.67862612e-01 -3.95246930e-02 -1.33087963e-01 -5.15471026e-02 +8.97011012e-02 +8.16316754e-02 +5.41488826e-02 +2.29126252e-02 -1.86460409e-02 -6.08722158e-02 -4.26759124e-02 +2.08637975e-02 -1.36696413e-01 -2.94737041e-01 -3.19426507e-01 -3.55878890e-01 -3.21942210e-01 -2.34758690e-01 -2.37759680e-01 -1.99848324e-01 -2.86766142e-01 -2.83276021e-01 +5.14470153e-02 +5.16966105e-01 +5.46975553e-01 +2.61963606e-01 -8.34340602e-03 +3.09050251e-02 +2.07037956e-01 +9.06248018e-02 +5.24232015e-02 +3.84854414e-02 -2.33062487e-02 -4.79193516e-02 -3.69928777e-02 +3.02644558e-02 -3.30245830e-02 -2.53768228e-02 -2.76063825e-03 +4.81897742e-02 +9.90676209e-02 +1.02027774e-01 +1.13811679e-01 +1.21957153e-01 +1.00563899e-01 +6.18566275e-02 +2.45040730e-01 +6.53552949e-01 +9.12517369e-01 +7.48715580e-01 +4.99086231e-01 +3.57114613e-01 +4.44569439e-01 +2.09414184e-01 +7.05145150e-02 +1.84972584e-02 -4.82171029e-02 -4.95729670e-02 -3.63186523e-02 +2.48985309e-02 +4.94186208e-02 +3.74942683e-02 +3.61236185e-02 +3.36962231e-02 +2.65379269e-02 +1.42135182e-02 +4.81703877e-02 +4.86739911e-02 -1.73393195e-03 -1.69973835e-01 -6.30771443e-02 +2.40402311e-01 +5.93036115e-01 +6.20948911e-01 +5.04739881e-01 +4.72853303e-01 +4.79286820e-01 +1.52978092e-01 +4.69067097e-02 +4.39502858e-02 -5.33784404e-02 -5.02818041e-02 -3.94757874e-02 -2.20870301e-02 -2.02140268e-02 -2.27053650e-02 -1.20968064e-02 -1.73632689e-02 -6.09401334e-03 -7.26030627e-03 +5.43554407e-03 +1.36393309e-02 -1.14433339e-03 -1.49275988e-01 -1.90444186e-01 -1.42957747e-01 -1.74226705e-02 +4.47125323e-02 +9.49657932e-02 +1.54998615e-01 +1.85464963e-01 +1.48241475e-01 +4.71406952e-02 +3.93683240e-02 -5.50269820e-02 -3.56649272e-02 -4.76979129e-02 -3.46286520e-02 -3.27285416e-02 -4.05826345e-02 -2.52563264e-02 -1.62943508e-02 -9.71230585e-03 -7.98217207e-03 -2.93792156e-03 +6.15463592e-04 +1.38089797e-02 -4.93423268e-03 -3.62043940e-02 -2.06633508e-02 -4.72077262e-03 +8.07917863e-03 +3.44181508e-02 +5.44094928e-02 +3.54202688e-02 +5.68051860e-02 +3.97784710e-02 +5.49798906e-02 -3.90586853e-02 -4.77328524e-02 -4.67783362e-02 -4.00942564e-02 -2.60910932e-02 -2.79472899e-02 -2.35282890e-02 -2.11111736e-02 -1.29776448e-02 -8.63074791e-04 +1.17541337e-02 +2.45976541e-02 +1.92496777e-02 +2.48368196e-02 +3.43129933e-02 +3.30391936e-02 +5.09004705e-02 +5.30340709e-02 +6.04934394e-02 +5.37187755e-02 +4.94058356e-02 +5.58360405e-02 +5.16876094e-02 +7.09803626e-02 +3.51215177e-03 +1.20378276e-02 +1.80925205e-02 +2.31131706e-02 +8.13992135e-03 +1.59641877e-02 +1.80542637e-02 -1.51517894e-03 +2.18415130e-02 +5.39278658e-03 -1.50599089e-02 -1.44884624e-02 +1.16971135e-03 +3.17546986e-02 +1.53189888e-02 -6.99609146e-02 -2.68991087e-02 +6.99605495e-02 +1.02270804e-01 +7.27703199e-02 +5.27684651e-02 +1.90362781e-02 +3.26392619e-04 +1.31598953e-02 +3.29408199e-02 +1.69291422e-02 +2.16199178e-02 +3.31476331e-02 +2.64048893e-02 +1.81703884e-02 +1.82679202e-02 +3.08060786e-03 +6.18131692e-03 +9.27650649e-03 -1.96509063e-03 -1.60430502e-02 +2.91188201e-03 +4.06098440e-02 -3.03376764e-02 -8.55034739e-02 +2.05661468e-02 +9.12094712e-02 +7.81801119e-02 +2.37124730e-02 +5.72929950e-03 -2.58305818e-02 -2.53028739e-02 +1.03022484e-02 -4.33438690e-03 +1.50434412e-02 +3.21640000e-02 +4.77556661e-02 +1.78366136e-02 -2.73233023e-03 -1.02822315e-02 -2.81733051e-02 -2.64036190e-02 -6.98165083e-03 -9.90771875e-03 +4.82496759e-03 +2.09747981e-02 +4.83348146e-02 -5.89997359e-02 -9.72927585e-02 +3.27865668e-02 +1.07556753e-01 +1.38180509e-01 +1.32580042e-01 +1.35651514e-01 +1.67927846e-01 +1.17121050e-02 +2.68152989e-02 +2.09164317e-03 +1.43614598e-02 -2.00920198e-02 -2.78742379e-03 -3.52604240e-02 -9.91791040e-02 -9.54026580e-02 -7.18066245e-02 -2.96466835e-02 -1.06130550e-02 +1.10498499e-02 +3.56734209e-02 +3.60226519e-02 +3.03095151e-02 -3.47167738e-02 +3.89850028e-02 +1.30660832e-01 +8.17547515e-02 -2.02634558e-02 -1.64966762e-01 -2.24413559e-01 +1.86107662e-02 +8.37046281e-02 +3.22817639e-02 +1.99518702e-03 +2.36807726e-02 -5.23495711e-02 -1.56958122e-02 +4.32650484e-02 +2.62145810e-02 -1.44970426e-02 -4.01440524e-02 -1.75203234e-02 +1.14215361e-02 +3.22528109e-02 +3.61009426e-02 +2.88663153e-02 -1.74644962e-02 -4.52664867e-02 +3.07044424e-02 -2.00129021e-02 -1.80983275e-01 -3.05767357e-01 -3.78013313e-01 -3.60504091e-01 -1.15303412e-01 +8.88735428e-02 +3.77271175e-02 +6.28126971e-03 +9.46867932e-03 -5.08718044e-02 -3.50865796e-02 +4.58984710e-02 +5.53757399e-02 +8.99633020e-02 +8.97288322e-02 +4.62288633e-02 +3.21476418e-03 +1.83067354e-03 -1.83450729e-02 -4.34888788e-02 -1.05498746e-01 -1.21537872e-01 -1.68648902e-02 -9.31903422e-02 -9.74816382e-02 -9.28516313e-02 -1.91797405e-01 -3.62657368e-01 -2.53142565e-01 +4.13083173e-02 +4.73162569e-02 +5.90728782e-03 -3.01984162e-03 -6.27999613e-03 -5.41725382e-02 -4.90930118e-02 -5.15757594e-03 +5.66537604e-02 +7.71576315e-02 +1.11581236e-01 +1.35955811e-01 +1.24510676e-01 +1.05228767e-01 +7.91789442e-02 +6.23401776e-02 +6.01093322e-02 +9.38873142e-02 +2.94348616e-02 +2.17202436e-02 +4.91922274e-02 -1.86206435e-03 -2.23869443e-01 -3.48656297e-01 -2.63580550e-02 +6.87768236e-02 -6.77246554e-03 +8.32332391e-03 -2.77957618e-02 -8.52370039e-02 -5.26967198e-02 -2.32925061e-02 +6.71338430e-03 +4.60992940e-02 +8.97695571e-02 +1.18629679e-01 +1.17225498e-01 +1.22029282e-01 +1.13129176e-01 +8.91807973e-02 +1.21025696e-01 +1.20571904e-01 +1.01771750e-01 +1.67770714e-01 +1.33880466e-01 +7.30210543e-02 -7.75399059e-02 -2.20654458e-01 -1.98667462e-04 +7.37580359e-02 +4.23203502e-03 -7.78790563e-03 -4.53512706e-02 -5.51935323e-02 -4.12039123e-02 -4.62229587e-02 -4.72824536e-02 -3.48946564e-02 -7.16396561e-03 +5.30498587e-02 +9.12984237e-02 +1.23869978e-01 +1.29981682e-01 +1.47369683e-01 +1.28716275e-01 +6.30323440e-02 +9.95132029e-02 +1.13888264e-01 +1.16154425e-01 +1.00534685e-01 +4.59645092e-02 +8.59084576e-02 +1.05702296e-01 +1.05587728e-01 -2.63378257e-03 +5.75021841e-03 +3.57424398e-03 +1.87162291e-02 +1.63031109e-02 -9.44693666e-03 +4.28272819e-04 +1.17098419e-02 +3.24964374e-02 +3.04460339e-02 +3.80300023e-02 +7.34360367e-02 +7.39785284e-02 +8.09003413e-02 +2.75609065e-02 -1.32948747e-02 -2.83926204e-02 -3.16856019e-02 +9.36943851e-03 +3.25720534e-02 +6.15737885e-02 +7.34928772e-02 +5.79565391e-02 +1.26979621e-02 -2.20578443e-03 -7.50031229e-03 +7.36457109e-03 +5.73277958e-02 +8.91537815e-02 +9.05237868e-02 +8.51185396e-02 +5.01357280e-02 +4.21884768e-02 +3.15630697e-02 +2.29436997e-02 +3.75400856e-02 +4.27500233e-02 +2.09448859e-02 -5.41198328e-02 -9.62315127e-02 -1.28086790e-01 -1.35689601e-01 -1.54841319e-01 -1.73798487e-01 -1.71312809e-01 -1.19362861e-01 -5.39350212e-02 -4.08735648e-02 -4.48458683e-04 -1.05129061e-02 -7.20068766e-03 +1.76251829e-02 +2.12570466e-02 +4.55151275e-02 +4.75436822e-02 +4.26504724e-02 +3.97891290e-02 +4.28010970e-02 +3.06426603e-02 +5.74448518e-02 +6.15881383e-02 +5.89638650e-02 +3.62645984e-02 +2.93726358e-03 -1.54728408e-03 -1.91655532e-02 -1.32392999e-02 -2.76857764e-02 -2.26073097e-02 -2.59437170e-02 -5.53750480e-03 -4.53797635e-03 -7.78806303e-03 -1.78617239e-02 -1.13006132e-02 +7.21814856e-03 +3.17971557e-02 +2.35520247e-02 +4.90603149e-02 +5.44255301e-02 +1.03938110e-01 +1.06781863e-01 +1.78716898e-01 +2.30194017e-01 +2.67914832e-01 +2.88637042e-01 +3.60627651e-01 +2.99380064e-01 +2.39306077e-01 +1.95602894e-01 +1.45166546e-01 +8.91702175e-02 +5.27166910e-02 +1.11604687e-02 +1.07779270e-02 +2.34525278e-02 -3.66042368e-03 -2.99470429e-03 +7.19255768e-03 +1.38044506e-02 +2.38679014e-02 +3.78209427e-02 +8.43352154e-02 +9.04399008e-02 +1.50353327e-01 +2.24347562e-01 +1.72522381e-01 -8.00536573e-02 -8.81756246e-02 +2.62982607e-01 +3.74665856e-01 +4.58102405e-01 +4.32231963e-01 +4.49367166e-01 +3.40527236e-01 +2.05586344e-01 +1.00114495e-01 +2.26231143e-02 +9.95142851e-03 +2.19314452e-02 -8.38305708e-03 -1.98029215e-04 +9.78706375e-05 +7.25882500e-03 -1.05072418e-03 -5.22920825e-02 -1.62505105e-01 -2.93481350e-01 -1.30219370e-01 -1.70559466e-01 -5.14354467e-01 -6.03580892e-01 -4.48395669e-01 -3.95488262e-01 -3.76338243e-01 -3.76508683e-01 -3.06118786e-01 -2.29329318e-01 -1.34636685e-01 -2.86655147e-02 +2.49617198e-03 +2.82077026e-02 +1.12338541e-02 -5.26884617e-03 -1.39741423e-02 -5.50827135e-05 +1.76947415e-02 +9.17320605e-03 -1.19619504e-01 -4.42101687e-01 -6.27806008e-01 -6.62192106e-01 -6.96231008e-01 -7.98909426e-01 -7.80279279e-01 -7.11759329e-01 -5.92747748e-01 -4.29163963e-01 -3.38252038e-01 -4.31318194e-01 -6.62037671e-01 -7.43197739e-01 -6.37277246e-01 -5.13200521e-01 -2.63453126e-01 -2.64599156e-02 +2.52464972e-02 +1.91187561e-02 -2.38639116e-03 -1.41358553e-02 -1.21333892e-03 -7.68822245e-03 -2.26646081e-01 -5.18886566e-01 -5.95920563e-01 -6.92152083e-01 -5.51375508e-01 -2.05713838e-01 +3.11164837e-02 +1.05335683e-01 +2.02786624e-01 +7.18011409e-02 +1.02597333e-01 -3.84396166e-02 -3.71287763e-01 -5.32306075e-01 -5.12886465e-01 -1.77559376e-01 +2.33743060e-02 +2.27882210e-02 +2.60875989e-02 +1.12235351e-02 -3.85153835e-04 +5.56085957e-03 +1.04311993e-02 +4.19444032e-02 +4.06279154e-02 -5.18507846e-02 -1.86324164e-01 +1.81015030e-01 +5.67477345e-01 +6.87917948e-01 +6.14332378e-01 +6.72068834e-01 +7.69025207e-01 +6.14927173e-01 +7.09495544e-01 +8.89916182e-01 +7.02642322e-01 +2.31764466e-01 +4.03425246e-01 +5.18600464e-01 +4.18205500e-01 +8.54191482e-02 +2.22815406e-02 +2.90654358e-02 -2.21398380e-02 +1.92962699e-02 +1.11177517e-02 +7.47587904e-02 +2.95172453e-01 +3.84173453e-01 +3.84770840e-01 +3.56320381e-01 +2.85954356e-01 +1.09226584e-01 +2.98040155e-02 +1.04381286e-01 +2.48369753e-01 +2.22905368e-01 +2.14583382e-01 