#Parameter# /_0 {30,3} 1441 ZERO_GRAD
+1.45486045e+00 -4.03767228e-01 +2.20606685e-01 -2.41237372e-01 -1.39333332e+00 -2.21290991e-01 +2.51331124e-02 +3.36319581e-02 +1.48502455e-04 +2.14817119e+00 +6.02040410e-01 -5.34623303e-02 +7.38843322e-01 -1.11659420e+00 +7.86711127e-02 +3.40740755e-02 -2.96217620e-01 +3.66104506e-02 +2.77320985e-02 +4.25044656e-01 -1.10389180e-02 -2.93802679e-01 -2.82589883e-01 -1.19348854e-01 +9.97283906e-02 -3.81729662e-01 -7.16349721e-01 -3.31039215e-03 +1.06022573e+00 +4.45837647e-01 -3.32220614e-01 +1.60338566e-01 -4.75247875e-02 -9.58454446e-04 -1.55754795e-03 -2.18079202e-02 -3.55356157e-01 -1.22003341e+00 +2.57161587e-01 -2.42345836e-02 -1.08098602e+00 +1.14812084e-01 -5.79803765e-01 -7.62581527e-02 +5.32245710e-02 -1.25084994e-02 +2.42342502e-01 -1.75631773e+00 -2.26087257e-01 +2.60819606e-02 +1.41939294e+00 +8.30616504e-02 +2.28682071e-01 -1.53546870e-01 -5.49562462e-02 +3.76560539e-01 -1.37196541e-01 -2.61815369e-01 -3.71113745e-03 +2.47655109e-01 -4.66702402e-01 +1.18805796e-01 -6.09817445e-01 +7.84113526e-01 -2.76195854e-01 +5.46825647e-01 -6.75859213e-01 -3.20978880e-01 -3.80966008e-01 -5.94025433e-01 -3.56168598e-02 +4.92966712e-01 +4.63890145e-03 -3.57512236e-01 +6.17703378e-01 +6.66172197e-03 -4.85532731e-01 -1.93686292e-01 -7.03216374e-01 -5.68152308e-01 -1.23344466e-01 +3.84955138e-01 -5.04553854e-01 +6.73327029e-01 +6.24155760e-01 -3.47028702e-01 -3.96529399e-03 -8.72959495e-02 -4.64696884e-01 -5.32294959e-02 
#Parameter# /_1 {30} 481 ZERO_GRAD
+1.07914835e-01 -2.42268667e-01 +3.29579175e-01 -1.45155549e+00 -2.30152681e-01 -9.74678934e-01 +7.64338672e-01 -5.56023240e-01 +2.01370656e-01 +1.55439615e-01 -5.93256593e-01 -8.97067308e-01 +1.66351900e-01 -4.78056163e-01 -1.06665444e+00 -6.62989169e-02 +6.09240294e-01 -4.77546215e-01 +1.07821906e+00 +1.06600988e+00 -1.13422775e+00 -8.06619644e-01 +4.64341789e-01 -1.12491071e+00 -1.02816141e+00 -2.72745732e-03 -2.43147820e-01 +1.14410900e-01 -4.29465801e-01 +1.46974921e-01 
#Parameter# /_2 {90,30} 43201 ZERO_GRAD
-2.25670367e-01 -1.70165017e-01 -1.51907039e+00 +8.22762847e-02 -1.21499915e-02 +2.20445599e-02 -8.41111839e-01 -2.91588306e-01 -1.14278130e-01 -3.85593653e-01 -1.81715846e-01 -1.19925261e-01 +4.11748104e-02 -6.51913062e-02 -5.93580127e-01 -1.78272319e+00 -5.40505826e-01 +8.11603963e-02 -4.28044766e-01 -1.45254433e-01 -3.82744819e-01 -1.09540276e-01 +3.91490042e-01 -5.53344011e-01 -1.45709097e+00 -1.40724435e-01 -2.40739688e-01 -2.02828860e+00 -2.19685867e-01 -5.01337945e-01 +9.44575816e-02 -1.15279877e+00 -3.94753546e-01 -2.29168582e+00 -1.37624824e-02 +2.10998897e-02 -1.01715219e+00 -3.69649678e-01 -5.04930437e-01 -2.00022116e-01 -4.53180254e-01 -4.99480546e-01 -1.82306752e-01 -2.69385147e+00 -3.57066817e-03 -2.31966674e-01 -2.87890919e-02 -1.56114578e-01 -8.68623555e-01 -6.01656079e-01 -8.98405313e-02 -3.87645304e-01 -2.32043505e-01 +9.48753674e-03 -3.22555043e-02 -5.83057776e-02 -3.35700810e-01 -1.21256240e-01 -9.75293815e-02 -1.97819129e-01 -1.21653013e-01 -1.48113504e-01 +1.66298553e-01 +5.29897101e-02 -3.21537942e-01 +7.49535765e-03 -6.55163169e-01 -2.65817225e-01 -1.26715577e+00 -1.04381394e+00 -1.54497057e-01 -2.56018937e-01 -2.07481578e-01 -8.97533119e-01 -1.32365191e+00 +8.95561948e-02 -9.50144082e-02 +5.69144711e-02 -2.23829169e-02 -1.34038007e+00 -1.76103577e-01 -1.85089350e-01 -5.82040668e-01 -2.29132032e+00 -6.60004854e-01 -3.39177042e-01 -1.25579369e+00 -3.19134653e-01 -2.82364547e-01 -6.92871094e-01 -4.15025353e-01 +3.26863796e-01 -4.00531739e-01 +2.63948262e-01 -1.34159493e+00 +4.22775567e-01 -7.60006681e-02 +1.40580803e-01 +7.18338229e-03 -1.77649930e-02 +3.91393840e-01 +1.02131836e-01 -1.03033140e-01 -1.90280259e-01 +9.80379954e-02 -3.33938718e+00 +3.09425503e-01 +3.65175128e-01 -1.02110314e+00 -1.00542471e-01 -4.41030681e-01 +3.85071516e-01 +2.85637885e-01 -1.36885196e-01 -3.16533774e-01 -3.43075395e+00 -1.85543060e-01 +1.26976624e-01 -1.91805780e-01 -6.45808801e-02 -1.69096768e-01 +2.63956100e-01 +1.55846309e-02 -5.68741001e-02 +3.19585145e-01 +1.45872504e-01 -1.44777253e-01 -5.47496192e-02 +3.17105323e-01 +1.86397508e-01 +1.47039235e-01 -8.11917940e-04 +1.61200743e-02 -7.32947063e+00 +3.11944515e-01 -6.07933402e-01 +5.69992065e-01 +4.68880892e-01 +4.78728451e-02 -1.21962287e-01 +2.95342386e-01 +1.81013733e-01 +5.47016680e-01 +5.87285161e-02 -5.81341982e-01 +2.28028417e-01 -7.54069164e-02 +2.26101175e-01 +2.09881276e-01 +3.94110084e-01 +1.04018137e-01 +3.30977887e-01 -1.15233839e-01 +2.14445516e-01 -1.61799006e-02 +2.95532763e-01 +1.34349927e-01 +7.85576850e-02 -8.93166661e-02 -1.16417706e-01 -5.02714396e-01 -4.76256669e-01 +3.55826885e-01 -8.42561364e-01 +8.01576301e-02 -3.46090496e-01 +3.94310541e-02 -1.35001138e-01 +2.68647075e-01 -2.83807206e+00 +4.38285679e-01 -5.59028648e-02 +5.36607914e-02 +3.14414382e-01 +1.09064505e-01 +5.87836862e-01 -9.43651378e-01 -3.11439067e-01 +4.69152927e-01 +2.83416003e-01 -5.71212023e-02 +1.37268761e-02 +5.59009891e-03 +3.61987144e-01 +1.22337148e-01 -1.27353996e-01 -2.65810460e-01 -6.47610784e-01 -5.76561213e-01 -9.80630815e-02 -3.02312344e-01 -5.78813348e-03 -8.21998939e-02 -1.20650180e-01 -1.25469118e-01 +1.55678988e-01 -2.04321787e-01 -7.34804049e-02 -5.64621150e-01 -2.37309471e-01 +1.44905180e-01 -1.29554287e-01 -1.19962962e-02 -8.76675770e-02 -5.15752546e-02 +3.17364246e-01 -1.17049158e-01 +1.39243379e-01 -3.51936549e-01 -1.88179061e-01 +7.42938593e-02 +2.62696117e-01 +1.21666931e-01 -1.54526874e-01 -4.63613942e-02 +8.42316635e-03 -5.21885693e-01 -4.66970384e-01 -1.98754936e-01 -3.26235853e-02 -3.10370643e-02 +9.18509886e-02 +1.35650665e-01 +3.67187820e-02 -6.60812259e-02 +7.78734982e-02 -4.16686293e-03 +1.79775134e-01 -3.64987969e-01 +1.96411416e-01 +1.46971285e-01 -6.68130293e-02 +1.55736208e-01 +1.10134669e-01 +3.80586565e-01 +5.24819903e-02 +8.72435197e-02 -1.67044863e-01 +2.42103875e-01 -4.20957178e-01 -8.51849765e-02 +4.02409174e-02 +1.32655472e-01 -7.75175273e-01 -1.10929953e-02 -5.26716225e-02 -1.47549044e-02 -5.70343621e-03 +1.37764364e-01 +1.52088180e-01 +1.27957150e-01 +5.76667953e-04 -4.12599057e-01 -5.59397079e-02 -1.85323036e+00 -1.00523375e-01 -1.05944820e-01 -2.22422794e-01 +1.98400274e-01 +1.13842241e-01 -9.58745331e-02 -1.24092214e-01 -1.09847859e-01 +3.06363225e-01 +9.41507369e-02 -9.30503607e-02 -7.29231015e-02 +1.23653142e-02 +1.25123829e-01 -1.36544272e-01 -1.70487392e+00 +1.91389918e+00 -1.24847927e+01 -1.69467580e+00 +6.65647566e-01 -5.96485019e-01 -6.38079718e-02 -7.21354127e-01 -4.19021904e-01 +5.87082028e-01 -1.60391343e+00 -5.71372509e-01 +4.54789065e-02 +3.51001099e-02 +4.47469391e-02 -8.55519831e-01 +3.71958405e-01 -1.96215260e+00 +1.88139796e+00 +1.66836643e+00 +4.13430333e-01 -7.68477738e-01 -1.50830317e+00 +1.84893206e-01 -5.43855572e+00 -7.07533479e-01 -5.52209735e-01 +9.01155710e-01 +1.27493858e+00 +1.06869325e-01 +2.31563255e-01 +9.59805846e-01 +8.59555528e-02 -9.61873233e-01 +5.01223803e-01 -1.00325155e+00 +3.73645008e-01 +6.63738430e-01 -3.79314542e-01 -2.43108660e-01 +6.79283559e-01 +3.17231834e-01 +1.80381358e-01 -1.06107712e+00 -1.58189154e+00 -9.90591240e+00 -2.01348782e+00 -2.73688984e+00 +5.16725540e-01 -5.07262230e+00 -1.98187590e-01 +4.44008619e-01 -1.34153342e+00 +6.39325660e-03 -6.85546398e-01 -1.45899928e+00 -6.54905128e+00 +1.27196681e+00 -1.63600653e-01 -1.04052663e+00 +1.08528465e-01 +9.76786137e-01 -8.23037052e+00 -1.45929027e+00 -3.31808138e+00 -6.54847860e-01 +7.71024346e-01 +6.79132268e-02 +4.81996864e-01 +1.31807849e-01 -2.23256662e-01 -9.91368815e-02 +3.08598906e-01 -1.08686078e+00 +6.43608391e-01 -5.10404587e-01 -2.96524739e+00 +1.53460771e-01 -1.34718180e+00 -2.13065878e-01 -4.66575652e-01 -1.17191112e+00 +7.88664639e-01 -8.92794323e+00 +6.47412658e-01 +1.24898505e+00 +8.79128933e-01 +3.77456024e-02 -9.73093927e-01 +7.54305422e-01 -2.20738888e-01 -9.12040591e-01 -2.24346757e+00 +2.44925827e-01 +3.84117328e-02 -2.79524028e-01 +4.57339250e-02 +2.09626243e-01 +2.22170994e-01 -2.15652370e+00 +1.33972010e-02 +2.28042990e-01 -5.83319552e-02 -1.31300852e-01 -3.87553483e-01 -1.45024821e-01 -1.37517810e-01 -1.65793404e-01 -1.69709936e-01 -1.20998114e-01 -3.15716445e-01 +4.82361913e-01 -4.34368324e+00 -7.55963624e-02 -2.33231235e+00 -3.22638154e-02 -1.77657418e-02 -1.36031485e+01 -1.21642292e-01 -5.34134007e+00 +1.22771375e-01 +3.19551975e-01 -3.23823661e-01 -1.83928418e+00 +4.64603186e-01 -4.82209958e-02 +1.46719068e-01 +1.91562966e-01 -5.00849485e-01 +2.06794754e-01 -1.16205819e-01 -9.34480280e-02 +7.44376623e-04 -1.09915718e-01 +2.20861897e-01 -5.05593777e-01 -5.73411398e-02 +2.40457021e-02 +1.33229554e-01 -6.55246139e-01 -1.82566524e-01 -2.03267455e+00 +3.00177306e-01 -2.07664639e-01 +1.78489909e-01 +2.19771221e-01 -5.46229295e-02 +1.17414342e-02 +1.76612750e-01 -1.00861117e-01 -4.64764684e-02 -4.09676361e+00 -1.53228760e+00 -2.17297360e-01 -3.57966423e-01 +3.52462709e-01 -9.02261829e+00 +2.66287208e-01 +1.35570288e-01 +1.19434126e-01 +8.23777914e-02 -1.49625972e-01 +9.59139541e-02 -5.70531413e-02 +1.64000541e-01 -2.12423299e-02 -2.15815020e+00 -2.09805623e-01 -3.01607400e-02 +5.93727045e-02 +4.10435081e-01 +9.93179753e-02 -1.41839705e+01 -3.10572922e-01 -4.92152452e+00 -6.99324036e+00 -4.19151992e-01 -2.01071113e-01 +9.15582031e-02 +2.09416568e-01 -1.38360763e+00 +6.53473198e-01 -2.10470676e+00 -1.47431397e+00 -6.18172139e-02 +4.06602263e-01 -1.43112481e-01 -1.01570487e+00 +6.59907520e-01 +1.70868620e-01 +8.52783620e-01 +1.07862577e-01 +7.23815290e-03 -1.04786620e-01 +1.94830760e-01 -5.40108383e-01 +7.14770973e-01 +4.04309891e-02 -7.31000245e-01 -1.54467952e+00 +1.95042953e-01 -3.92122954e-01 -3.61980081e-01 -4.74290490e-01 -1.41269910e+00 +4.29276913e-01 +3.04495841e-01 +1.34860516e-01 -1.45123214e-01 -1.59757540e-01 -1.36634207e+00 -2.96036339e+00 -1.12308681e-01 -6.00050747e-01 +1.50712490e-01 +7.62139916e-01 +2.90979624e-01 -9.15197849e-01 +2.00637817e-01 -3.00527096e-01 +4.44724053e-01 -7.79435039e-01 -1.46543980e-01 +2.19321907e-01 -1.23001605e-01 -1.15539515e+00 -4.81620580e-01 -5.11280179e-01 +1.70013800e-01 -5.99552274e-01 +1.29174471e-01 +3.50442410e-01 +2.11864039e-01 -4.83674603e-03 +3.78479660e-02 -4.61746722e-01 -4.43680859e+00 -9.33776081e-01 -4.62248981e-01 -1.35092890e+00 -1.01076618e-01 +3.37840289e-01 -9.24253583e-01 -2.95894957e+00 -8.96566093e-01 +1.19249117e+00 +3.35494727e-01 +7.77991721e-03 +2.31735930e-01 -1.59026701e-02 -1.96092781e-02 -3.50854427e-01 +5.12834907e-01 +3.11208963e-01 -8.57687414e-01 -9.59792733e-01 +1.96931601e-01 +2.10170895e-01 -8.95884216e-01 -7.94857144e-02 +6.22071147e-01 +1.61910832e-01 +3.68631601e-01 -9.49778795e-01 +3.05623472e-01 +5.54414332e-01 -1.43613890e-01 -4.90046889e-02 -1.10976136e+00 +3.77172738e-01 -5.97627401e-01 -1.58451903e+00 -9.83266890e-01 +1.41176075e-01 -1.21595353e-01 -1.00528812e-02 +7.98505470e-02 +3.57696235e-01 -2.35749763e-02 +1.28141358e-01 +4.00836915e-02 +3.17293018e-01 +5.38039729e-02 -3.24349962e-02 -1.52231872e-01 +2.47256905e-02 +5.76763637e-02 -1.36402875e-01 -4.60427850e-01 -2.86832809e+00 -1.21390022e-01 +3.30821611e-02 -4.93228771e-02 -2.42207155e-01 -3.88480902e-01 +1.84232086e-01 -4.03433228e+00 +1.94521725e-01 -7.77557075e-01 +1.54289559e-01 -5.66090830e-02 +9.62484777e-02 +1.70007244e-01 -2.11350605e-01 +3.12970072e-01 -3.29976827e-01 -2.46644330e+00 +8.03218558e-02 -2.82286435e-01 -4.70909737e-02 -4.33687955e-01 -5.29984593e-01 -6.10030890e-02 +1.64516523e-01 -4.99995828e-01 -5.00273407e-01 +1.17539719e-01 -3.10026050e-01 -1.20836961e+00 +1.34565100e-01 -1.09503113e-01 +7.60054439e-02 -5.45498788e-01 -1.98241875e-01 +1.73126787e-01 +2.83696741e-01 +2.90627062e-01 -1.61152339e+00 -2.09309310e-01 -1.59474477e-01 -2.12402195e-01 -7.48659521e-02 -7.61428699e-02 -4.44592625e-01 +4.65218946e-02 +2.64421981e-02 +2.00554401e-01 +4.02597398e-01 -1.56253958e+00 -5.37621260e-01 +1.53532326e-02 -2.60296643e-01 -1.50482953e-01 -2.80990601e+00 -7.90933788e-01 +2.30229832e-02 +5.64649664e-02 -1.52254045e-01 -9.69550729e-01 +9.80079621e-02 +6.95195720e-02 -1.37341619e-01 -1.47400773e+00 -1.83879852e-01 +7.78874755e-02 -2.36507103e-01 -4.72711176e-02 -2.10664496e-01 -2.13251638e+00 +2.82034785e-01 +6.60538375e-01 +8.80063415e-01 -4.85054827e+00 -7.31531203e-01 +5.00654995e-01 -3.68702970e-02 -1.03731975e-01 -4.90136445e-03 +4.26233606e-03 -1.10546410e-01 +5.43781109e-02 +1.30195469e-01 -1.09199405e-01 +2.87092756e-02 +1.68474078e-01 -2.06745699e-01 -5.75086623e-02 +6.91693798e-02 +3.68862063e-01 +1.17333278e-01 +1.64448008e-01 -8.07620764e-01 -1.43945202e-01 +6.78634867e-02 -8.45325589e-01 +9.16621506e-01 +1.43139720e+00 -1.20180711e-01 +6.44698041e-03 -1.78370833e-01 +6.28326684e-02 +9.60367098e-02 +1.57932565e-01 +1.22901149e-01 +4.59401309e-03 -8.05489361e-01 +1.31376529e+00 -3.49345692e-02 -8.15158486e-01 -1.12355314e-02 -5.25325239e-01 -8.11786592e-01 +1.09344788e-01 +8.62087846e-01 +1.86695457e-01 -5.38281977e-01 +1.94686547e-01 -2.53783017e-01 +1.19277465e+00 -2.96933794e+00 +1.83753446e-01 -1.37185063e-02 +1.20029271e-01 +1.23011209e-01 +1.57807723e-01 -1.45901322e+00 -8.58160675e-01 -5.74612543e-02 -1.15596592e-01 +8.52871910e-02 -3.35060135e-02 +2.93179741e-03 +1.56706378e-01 -8.16715285e-02 +1.23563841e-01 -1.26485372e+00 -2.25986943e-01 +1.23814784e-01 -3.21545810e-01 +2.14016318e+00 +1.64853871e-01 -2.37636287e-02 +5.45813441e-02 +3.73952895e-01 +9.86724868e-02 -7.98373669e-02 +2.64979571e-01 +1.92089483e-01 +2.76353329e-01 +8.12332407e-02 +4.08991486e-01 -1.42733462e-03 +3.41140807e-01 -6.07104540e-01 +1.60851374e-01 -1.49467615e-02 -1.55602649e-01 +1.35442525e-01 +3.53194587e-02 +2.92544395e-01 +9.88855585e-03 -8.28693584e-02 +1.18123822e-01 +4.49584752e-01 +2.27336183e-01 -7.50483036e-01 +2.85951551e-02 -5.20476997e-01 +4.84029353e-01 +2.63883293e-01 -3.73617798e-01 +6.92006767e-01 -7.00147301e-02 -3.32394876e-02 +1.99694291e-01 -3.08642715e-01 -1.06817521e-01 -6.62651896e-01 -2.70152599e-01 -1.73393890e-01 +1.85543612e-01 -4.64644693e-02 +6.61570370e-01 +3.16246301e-01 -1.08074093e+00 +5.08800626e-01 -1.63779303e-01 +2.13197008e-01 -1.83473602e-01 -4.86424118e-01 +2.54012078e-01 -3.99315581e-02 -1.78550199e-01 -3.06522667e-01 -8.85624997e-03 -1.93012321e+00 -6.09330833e-01 -3.56916189e-02 +4.46380258e-01 -3.50525416e-02 +8.71469975e-02 -1.55685231e-01 -1.33949861e-01 +6.30490959e-01 +1.46141788e-02 -2.78513372e-01 +1.41897080e-02 +1.06147937e-01 +5.22006601e-02 +1.22336950e-02 -7.90757313e-02 +4.14451033e-01 -1.40562296e-01 +5.31153083e-02 -9.97861754e-03 -5.63790090e-02 +7.95086101e-02 -1.78747222e-01 -1.11486129e-01 -5.33580422e-01 +1.43977165e-01 -2.07804352e-01 +2.22349420e-01 +1.57054171e-01 -9.88804400e-01 -3.25903654e-01 +1.02550209e-01 +1.66413765e-02 -2.74213850e-01 -1.05949175e-02 -6.78552035e-03 -4.00223956e-02 -1.83426633e-01 -1.87602714e-01 -5.50138891e-01 -2.44721904e-01 -1.27872217e+00 +5.85639328e-02 -3.02201390e-01 -3.04769158e-01 -6.25703484e-02 +5.76168336e-02 -2.27239996e-01 -1.47298962e-01 +1.41494244e-01 -1.82327956e-01 -2.36358821e-01 +2.70081967e-01 -2.05146208e-01 -4.55873549e-01 -2.07108870e-01 -3.34042311e-01 -1.10585773e+00 -1.85421295e-02 -1.27132177e-01 +3.30679491e-02 -1.12787098e-01 +2.45162994e-02 -5.94673008e-02 -4.83426690e-01 +3.49723138e-02 +1.65566746e-02 +6.58085616e-03 -1.49730295e-01 -2.73847301e-02 -2.69973427e-01 -4.97194409e-01 -5.46693206e-01 -1.73297912e-01 -5.67077637e-01 -2.22363219e-01 -2.12894022e-01 -2.68182063e+00 -1.15574919e-01 -2.03861570e+00 -4.16503139e-02 +1.33506700e-01 -5.64896345e+00 +4.17525321e-02 -6.14033794e+00 -2.67655313e-01 +5.24306774e-01 -7.68576115e-02 -5.05941927e-01 -3.28456014e-02 -1.39700565e-02 -1.88466287e+00 -1.19136654e-01 +6.13066927e-02 +1.00496776e-01 -1.99527919e-01 -1.58757359e-01 +1.72058167e-03 -6.68782353e-01 -4.26792175e-01 -3.21563649e+00 +4.86784242e-02 +1.84511170e-01 -3.96191525e+00 -3.37296426e-01 +3.74621674e-02 +1.62928045e-01 -9.52167362e-02 -7.37316012e-02 -2.87845939e-01 -7.19971210e-02 -3.12573373e-01 +2.36423444e-02 -9.27978307e-02 -2.94312924e-01 -1.85971543e-01 -4.03217077e-02 -3.73369169e+00 -2.03208148e-01 -7.75185466e-01 +5.23800924e-02 -4.48242873e-01 -8.27483181e-03 -2.52370143e+00 +1.53152391e-01 -2.70938307e-01 -3.26209754e-01 -2.19173089e-01 -7.65464425e-01 -4.89105880e-01 +6.18942529e-02 +5.52618131e-02 -5.12814708e-02 +7.88345933e-02 -2.43791834e-01 -1.27531603e-01 -2.88163632e-01 -6.50494039e-01 +2.75077540e-02 -1.02965534e+00 -6.16690099e-01 -4.46917486e+00 -2.48454441e-03 -2.12520529e-02 +1.02688417e-01 -5.51374853e-01 -2.29656428e-01 -2.24165499e-01 +1.76405340e-01 -2.71387994e-01 +4.03330699e-02 -1.77894437e+00 -1.25976518e-01 +2.66809791e-01 +1.94159850e-01 -2.17845035e+00 -2.19456375e-01 -8.72849450e-02 -9.31792557e-02 -2.59641856e-01 -8.44760463e-02 -7.28154242e-01 +1.03465289e-01 -8.34489688e-02 -3.53423283e-02 -2.93797106e-01 -2.78773397e-01 -1.04782237e-02 -3.52307484e-02 -4.29563522e-01 -2.20736313e+00 -4.75288391e-01 -2.85449266e-01 -1.47337373e-02 -6.64268196e-01 -1.84827149e+00 -1.33058019e-02 -1.75046504e-01 -3.30550343e-01 -2.00440347e-01 -3.93886477e-01 -6.73619747e-01 -4.22387749e-01 -4.63164240e-01 -8.16223547e-02 -1.45776495e-01 -7.80668914e-01 +3.06196250e-02 -1.85188735e+00 -9.22140658e-01 -4.58773911e-01 -1.55225500e-01 +8.20388570e-02 -7.28303909e-01 -3.31277430e-01 +1.45675495e-01 +4.92388904e-01 -1.61785975e-01 +7.58459345e-02 -1.38448191e+00 -1.63940579e-01 -1.84253827e-02 +1.79718677e-02 -5.41441999e-02 -1.21937692e-01 -1.86003283e-01 -9.40806866e-02 -2.94583082e-01 +1.04966603e-01 +1.66553035e-01 -7.85394832e-02 +3.24957639e-01 -4.08336148e-02 -7.22104371e-01 -5.73430717e-01 -7.42891878e-02 +5.72242253e-02 -1.14042699e-01 -8.30179527e-02 -2.56002039e-01 -1.83492160e+00 -4.10890914e-02 -5.36748841e-02 +4.90379967e-02 -1.53372690e-01 -7.32319430e-02 -2.88795972e+00 +2.20223814e-01 -5.67062914e-01 +2.97392458e-01 +5.09356707e-03 +2.72222519e-01 +1.08076721e-01 +7.16370121e-02 -1.54144299e+00 -4.06688392e-01 -1.09157181e+01 +1.79720938e-01 +2.28429101e-02 +6.71137962e-03 +6.27732575e-01 -1.15886760e+00 +3.79106514e-02 +2.21907329e-02 +1.23913474e-01 +8.30961823e-01 +3.79810840e-01 -2.03409180e-01 -3.08743745e-01 +8.97903219e-02 -2.54959822e+00 -3.14169407e-01 +3.00008804e-01 -2.26212680e-01 -2.43652031e-01 +4.36307639e-02 -1.14520478e+00 +3.72091681e-02 -8.25154036e-02 +1.65255636e-01 +3.23875666e-01 +3.41029584e-01 +2.49322712e-01 -1.29970396e+00 -9.61202011e-02 -4.56576571e-02 +1.18540251e+00 +1.72372788e-01 -7.55649865e-01 -5.59687853e-01 -2.39513844e-01 +6.63965583e-01 -1.52930975e-01 +1.46726519e-01 -4.47981954e-01 -1.92249954e-01 -4.19772655e-01 +8.40198919e-02 -3.54194969e-01 +8.68610263e-01 +1.03219271e-01 -1.24393918e-01 +7.28486121e-01 +6.26760900e-01 -7.95884490e-01 -3.57376146e+00 +1.86333373e-01 +4.66938496e-01 -1.31312951e-01 -6.05507195e-01 -4.12312686e-01 +1.54620361e+00 -2.64094138e+00 -2.07788691e-01 +1.29171658e+00 +1.89261228e-01 +4.09931242e-01 -8.55545476e-02 +2.61119080e+00 +6.92327857e-01 -6.17396891e-01 +3.28581363e-01 -3.43978107e-01 +3.75676185e-01 +4.94950771e-01 +2.27183953e-01 -1.60034627e-01 -1.75452739e-01 -2.17451358e+00 -6.38970912e-01 +1.28826165e+00 +9.58414376e-02 -1.63399726e-01 -3.29939222e+00 -2.85714889e+00 -1.41604388e+00 -5.06394506e-01 +9.08372253e-02 -5.62936425e-01 +3.91630173e-01 +4.62982744e-01 +5.05773962e-01 -7.63296485e-02 -1.45132983e+00 +3.96258026e-01 -1.39946595e-01 +2.84829199e-01 +3.44988793e-01 -1.30033135e+00 +1.45690531e-01 -5.76571345e-01 -5.49543762e+00 -3.89719725e+00 -2.28072762e+00 -9.00258571e-02 +8.99294436e-01 -8.64612818e-01 -1.08990418e-02 -7.38768838e-03 +9.59980413e-02 -4.71123266e+00 -5.28095253e-02 -8.34615648e-01 +7.92261288e-02 -1.06974728e-02 -2.03822345e-01 -8.07291642e-02 +1.59688279e-01 -3.64125296e-02 +2.31720746e-01 -2.39052828e-02 +8.77009239e-03 -4.78101969e-02 +1.40344948e-01 +3.80800255e-02 +6.60511196e-01 -7.34779656e-01 -2.31959790e-01 +5.01561880e-01 -9.28185761e-01 +1.48109376e-01 +1.19635485e-01 -5.72459793e+00 +1.77198082e-01 -7.22855330e+00 -2.51629353e-02 +8.90036151e-02 -1.97893986e-03 +1.21221378e-01 +1.05228268e-01 +1.20388024e-01 -6.85725987e-01 -3.20562196e+00 +1.30257338e-01 +4.25841689e-01 +1.33636713e-01 -8.54115635e-02 -1.19033670e+01 -2.07868353e-01 -1.95364082e+00 -9.02395189e-01 -4.67212796e-01 +1.85343936e-01 -5.12278509e+00 +1.13686688e-01 -1.49567410e-01 -1.08074374e-01 +1.53466105e-01 -3.76609601e-02 +8.52001980e-02 -7.55640641e-02 -4.58550788e-02 -6.82747304e-01 +1.58915117e-01 +1.25474110e-01 -2.93703318e-01 +9.37274024e-02 -4.60735083e-01 -1.38617650e-01 -2.14641190e+00 +3.58766824e-01 -4.17321622e-01 -2.04057693e-01 -4.54772934e-02 -4.35490179e+00 -1.56993806e-01 +1.72118083e-01 -1.29212782e-01 +2.06563890e-01 -2.99984086e-02 -3.34559888e-01 +2.34898210e-01 +1.01285927e-01 +6.46308959e-02 +2.98336327e-01 +4.02478725e-02 -6.36059880e-01 -3.77786607e-01 +5.75912416e-01 -1.08029850e-01 -1.00366461e+00 +3.37805122e-01 +5.13992131e-01 +9.35853004e-01 -3.98078412e-01 -5.67139983e-01 +2.37390280e-01 +3.09461039e-02 -1.77665100e-01 -2.03293848e+00 +1.43280715e-01 +2.33708501e-01 -4.06379998e-01 -2.31779471e-01 -5.56854084e-02 -3.37798178e-01 -1.54009491e-01 -6.01538062e-01 +4.35998827e-01 -1.89488173e-01 +2.69096613e-01 -8.00316930e-01 -2.47297183e-01 -1.63308695e-01 -4.31020617e-01 +1.91495091e-01 -3.76585573e-01 +1.04231738e-01 -1.59915864e-01 -1.24041581e+00 -7.58008540e-01 -5.04065454e-01 +3.80972207e-01 +3.52883607e-01 +1.31338974e-02 -4.38186377e-01 +5.43168545e-01 -7.79441074e-02 -2.72686839e-01 -1.51576698e-01 -3.19031358e-01 -1.98390745e-02 +5.89281261e-01 +1.41604936e+00 -1.08364975e+00 -5.01171872e-02 -3.62974256e-01 -2.31184319e-01 +1.47548497e-01 +2.15140566e-01 +5.14422953e-02 -6.07777476e-01 -2.32621163e-01 -1.85737107e-02 -8.38791668e-01 -1.75744388e-02 -1.57546580e-01 -2.57120997e-01 +1.71667486e-01 -1.14092183e+00 +1.06162584e+00 -5.10338783e-01 +9.24795344e-02 +1.15654778e+00 -5.91104686e-01 +1.25558481e-01 +1.94678083e-01 -1.00733030e+00 -3.86593610e-01 +7.72642374e-01 +2.49432534e-01 +2.53698900e-02 -2.14258999e-01 -2.80210882e-01 -1.28614217e-01 -1.65792644e+00 +2.11068213e-01 -4.32427973e-01 -4.00618702e-01 +8.45326483e-03 +1.44845024e-01 -3.13372076e-01 +1.33845404e-01 -5.77542484e-01 +8.54315817e-01 -5.05503833e-01 -1.22894537e+00 -3.84692580e-01 -2.45065361e-01 -2.27767810e-01 +6.93437397e-01 -8.83543789e-01 -2.12849811e-01 +1.14506178e-01 +5.69737792e-01 +1.47370541e+00 -1.99700999e+00 +7.52003565e-02 -4.92297947e-01 +2.37134039e-01 -5.34408712e+00 -1.04254198e+00 +1.11608577e+00 +6.34351850e-01 -2.28558660e+00 +3.73780727e-02 -2.87673771e-01 -4.49500322e-01 -1.35020331e-01 -2.05849320e-01 +7.28434231e-03 +4.07399982e-01 +7.36093998e-01 +3.97075236e-01 -1.19329080e-01 -2.59604454e+00 +2.52661252e+00 +4.77515370e-01 -1.21116328e+00 -3.36701107e+00 +2.56337881e-01 +2.79501289e-01 -2.14022398e-01 +1.91074640e-01 -1.29341817e+00 -1.93185925e+00 -4.88008976e-01 -7.63735399e-02 -6.76161289e-01 -1.02011931e+00 -1.25032380e-01 +1.42657745e+00 -4.05980498e-01 +1.05700850e+00 -7.65717328e-01 -2.62660336e+00 +2.48772755e-01 -1.41101217e+00 -9.73450765e-03 -5.53193152e-01 -3.36293072e-01 -4.78746271e+00 -6.64679110e-01 -1.45581380e-01 +1.34837878e+00 -4.22849320e-02 +7.43212521e-01 -2.05292374e-01 -1.10735381e+00 +1.04827237e+00 +1.68806419e-01 +6.60111904e-01 -2.36334816e-01 +5.10371089e-01 +2.48124763e-01 -6.07273392e-02 +8.94378275e-02 -2.24941468e+00 -1.45933998e+00 +2.56037321e-02 -2.03711963e+00 +3.40400666e-01 +8.81303325e-02 -2.99040270e+00 -4.81204319e+00 -1.70362020e+00 -1.43430054e+00 +4.48602021e-01 -7.42822886e+00 +1.11270773e+00 +4.71249580e-01 +1.32179236e+00 +1.68561384e-01 -1.85409236e+00 -2.83034658e+00 -6.75340369e-02 -2.45743647e-01 +2.08116531e-01 -2.39874697e+00 +5.81624880e-02 -3.51003893e-02 +9.41254735e-01 -1.04534365e-01 +2.30093330e-01 +1.23465963e-01 +5.42038530e-02 -6.73980534e-01 +2.89995670e-02 +7.16032237e-02 +1.31026536e-01 +1.69086289e-02 -1.74176365e-01 -1.61612183e-01 +5.30897230e-02 -3.34594041e-01 +1.24429483e-02 -1.01690567e+00 +7.64916465e-02 +1.87867418e-01 +1.04695641e-01 -3.48213851e-01 -2.19572503e-02 +1.07914977e-01 +6.39674664e-02 +1.06273733e-01 -6.49081990e-02 -3.45920593e-01 -1.49796903e-01 -2.61321366e-01 -7.05352187e-01 +7.72841368e-03 -2.97790649e-03 -1.96072567e+00 -2.98303574e-01 -4.23818976e-01 -5.98657057e-02 +2.17613861e-01 -8.59976113e-02 -1.80317182e-02 -1.82385504e-01 +6.94515407e-02 +1.43907607e-01 -4.79547918e-01 -3.59368045e-03 +1.40646577e-01 +8.25368613e-02 +6.15646578e-02 -6.56642541e-02 +5.37530109e-02 -3.70213956e-01 -2.26857901e-01 +5.08041859e-01 +4.78642248e-02 -5.27764499e-01 +2.39694178e-01 -2.43081991e-02 -3.58831175e-02 +1.08542100e-01 +5.29994667e-01 +2.15851273e-02 -3.08473825e-01 -3.63235809e-02 -3.11887741e-01 -1.36003226e-01 -4.91843224e-02 +2.41719224e-02 -5.84742017e-02 -4.54684198e-01 -1.17227696e-01 +1.92755356e-01 +4.18901920e-01 +1.11070191e-02 -2.42724657e-01 -9.09020659e-03 +1.05827232e-04 -4.81857091e-01 +1.12169877e-01 +1.60256878e-01 +3.84106636e-01 +8.37569311e-02 +2.29222551e-01 +1.08588099e-01 +1.95260987e-01 +1.91557899e-01 -2.66128600e-01 +1.39700413e-01 -1.76693514e-01 -5.50567269e-01 +1.69041334e-03 +3.10634654e-02 +6.82155192e-01 +1.65941417e-01 +1.27058953e-01 -3.92294228e-02 -2.00004601e+00 +9.01129320e-02 -3.53000700e-01 +3.47280428e-02 +9.77972746e-02 +1.94765791e-01 -1.66902816e+00 -1.30295604e-01 +6.21299207e-01 +9.58721817e-01 -5.41402876e-01 -4.11129892e-01 -5.91088384e-02 -5.44882119e-01 -4.13004681e-02 -8.76984656e-01 -3.79547507e-01 -5.64028263e-01 -1.74861574e+00 +3.07524949e-01 -7.78570414e-01 +1.10457256e-01 +2.61661351e-01 -1.29577488e-01 +4.62917358e-01 -4.61729616e-02 -2.56622374e-01 -1.09784499e-01 +2.09434256e-01 +2.99702108e-01 -3.11004907e-01 -3.65481228e-01 +3.34023803e-01 -2.59807818e-02 -1.43763334e-01 -1.81143716e-01 +8.05956870e-03 -3.27052185e-05 -2.71643043e-01 -1.94454342e-02 +4.13256317e-01 -3.53635609e-01 -2.36857295e+00 -6.40977144e-01 -5.63232154e-02 -8.12171042e-01 -3.40088904e-02 +2.40269631e-01 -1.64201224e+00 -5.54918349e-01 +2.67908841e-01 +1.30619720e-01 +1.69552546e-02 -4.27319497e-01 +1.83300853e-01 +5.91179430e-01 +1.82358697e-01 -2.34853816e+00 -3.14866722e-01 -1.70154914e-01 -9.26201701e-01 -1.40056342e-01 +4.23317142e-02 +1.86055958e-01 -2.23262340e-01 +1.50413483e-01 +3.87461558e-02 +4.19162035e-01 -2.66387574e-02 -5.18698931e-01 -1.37731624e+00 -6.74782172e-02 -2.67518878e-01 +4.95125413e-01 +4.21121627e-01 -4.62857723e-01 -7.00315610e-02 -5.31568468e-01 +1.46346450e-01 -6.40513778e-01 +5.13857305e-02 +3.74759465e-01 -9.73124504e-01 +8.94082934e-02 -5.79768866e-02 +3.51196706e-01 -5.62578551e-02 +3.73387598e-02 -1.38799310e-01 -1.50839211e-02 -2.14886522e+00 +7.26368800e-02 -4.95761424e-01 +1.78964958e-02 +6.71388730e-02 -2.43989304e-01 -6.02508821e-02 -9.82934609e-04 -6.07003048e-02 +4.78408068e-01 +3.28445286e-01 -5.39620042e-01 +7.34024821e-03 -1.14483321e+00 -2.97313750e-01 -2.78053194e-01 +3.46884191e-01 +5.58873191e-02 -1.94353390e+00 +1.86756194e-01 -2.68233442e+00 -3.15898098e-02 -1.68573529e-01 -2.10658029e-01 -1.89292789e+00 +4.15047854e-02 -2.31819794e-01 +1.02386080e-01 -9.15226713e-02 -7.72317529e-01 -8.42107534e-02 -5.02854884e-02 -2.63848174e-02 -9.47502442e-03 +3.01586688e-01 +1.85443819e-01 -1.14674795e+00 -2.02314388e-02 +2.97231734e-01 +8.33710507e-02 -9.67679739e-01 +4.03353721e-01 -1.09488325e+01 +1.98622927e-01 -4.07433137e-02 -3.72975230e-01 +4.36529741e-02 -3.81290019e-01 +2.91520357e-01 +8.69958252e-02 -4.05679345e-02 +6.40773922e-02 -1.01425871e-01 -1.35965014e+00 +6.75217295e-03 -4.53373384e+00 -1.30611968e+00 -1.22936354e+01 -1.10372365e-01 +8.93186331e-02 +7.54256099e-02 +1.13490194e-01 +3.90094556e-02 -1.29234523e-01 +4.53029305e-01 +2.87804753e-02 -5.94554208e-02 -2.20696107e-02 -1.77656442e-01 +3.24512601e-01 -1.84646800e-01 -1.75611436e-01 -7.23637268e-02 -2.92875028e+00 -7.67516270e-02 -6.34159899e+00 -1.73788935e-01 -2.75196838e+00 +5.36812544e-02 +9.95208547e-02 -6.10095143e-01 -5.04670858e-01 +1.85084611e-01 -8.95231366e-01 -5.10933280e-01 -3.54814669e-03 -1.18284869e+00 +1.19700931e-01 +1.38471752e-01 +4.66592833e-02 +8.22282955e-02 +1.03084952e-01 -4.27038729e-01 -4.55430560e-02 -1.34742811e-01 -1.22944698e-01 -4.60566711e+00 -3.62874925e-01 -2.75972933e-01 +4.25805785e-02 +5.84735930e-01 -1.80484559e-02 -6.36273861e-01 -7.28296816e-01 -8.02260637e-02 -1.13784075e+00 +1.17864981e-01 +1.11192062e-01 -2.15931490e-01 +2.09023431e-01 -1.30731165e+00 +2.34380618e-01 -4.23877358e-01 -1.09268978e-01 -3.03117186e-01 -4.79510352e-02 +1.42645404e-01 +3.23344022e-01 +2.22788915e-01 -1.55464590e+00 -3.44836950e-01 +3.49743992e-01 +2.45383233e-01 +1.92320149e-03 +1.15131252e-01 -2.69257605e-01 -4.04994488e-01 -3.07883978e-01 -1.02311231e-01 -1.70052624e+00 -1.54409981e+00 -5.85335255e+00 -2.65775532e-01 -2.21859813e-01 -5.05650714e-02 -5.84574044e-01 -8.11482966e-01 -2.94446498e-01 +2.28052378e-01 -1.95544168e-01 +1.49375701e+00 +1.73885584e-01 +1.74487844e-01 -8.66725266e-01 +1.44287884e-01 -9.97506440e-01 -3.11615169e-01 -2.07308635e-01 -8.16686273e-01 -6.78475380e-01 -2.84215736e+00 -5.65944426e-02 -9.71675664e-02 +4.56957445e-02 -3.25577044e+00 +1.92906097e-01 +3.65458816e-01 -1.26943064e+00 +1.83220550e-01 -1.97834384e+00 -4.42291021e+00 +6.75111488e-02 -2.43195057e-01 +1.28073192e+00 -1.84453726e-01 +8.66012722e-02 -2.65576303e-01 -2.38341875e-02 -2.18478292e-01 +3.98590028e-01 +1.13958530e-02 -3.27700138e-01 +2.28345975e-01 -6.14980400e-01 -1.78400731e+00 -4.63868737e-01 -1.76088631e+00 -7.21609771e-01 -4.63817090e-01 -7.81935275e-01 -7.81299829e-01 -4.97647434e-01 -1.06255865e+00 -7.88756758e-02 -1.32228836e-01 -1.54066396e+00 +2.79544085e-01 -1.03579223e+00 -1.57406318e+00 -1.08100867e+00 -7.44015396e-01 +1.59026995e-01 +8.39980133e-03 +1.92009017e-03 +2.77964845e-02 -6.19952738e-01 -1.25749195e+00 -8.61309946e-01 -1.16126776e+00 -4.51771379e-01 +7.73101971e-02 -1.62433934e+00 -6.06465518e-01 -2.73517966e-01 -7.48151958e-01 -5.49090266e-01 +6.23813510e-01 -7.40265667e-01 -1.47423351e+00 -2.86660314e+00 -4.47160578e+00 -3.35388064e-01 -1.86190748e+00 +7.14041367e-02 -7.27957666e-01 -4.35948753e+00 -1.87826827e-01 -5.43522716e-01 -2.15369654e+00 -9.10592318e-01 -2.97648758e-01 -5.86795270e-01 -9.54528868e-01 -4.86111492e-01 +1.19741477e-01 +5.82626224e-01 +7.50012338e-01 -5.34780324e-01 -6.70777857e-01 +1.58690922e-02 -2.40534949e+00 -1.86658166e-02 -8.61507356e-01 -5.34194224e-02 -1.95682657e+00 -2.26677418e+00 -1.45022380e+00 -1.16992795e+00 -5.22591889e-01 -5.46729386e-01 -9.36980724e-01 -4.34600748e-02 +7.84550533e-02 -1.63018286e-01 -3.04545736e+00 -4.05693680e-01 -1.79524958e+00 -2.67585444e+00 +1.04509510e-01 -5.83674192e-01 +2.31031030e-01 +5.59311919e-02 -4.11975503e-01 -1.17390287e+00 -5.18257737e-01 -1.12718725e+00 -2.18328297e-01 -4.10386622e-01 -2.73317158e-01 +4.48726654e-01 -3.83863479e-01 +1.41875833e-01 -1.75818548e-01 +7.09753811e-01 -8.97197425e-01 +7.43345767e-02 +2.02834177e+00 -5.39656758e-01 -4.88263083e+00 -2.58990973e-01 -4.21572113e+00 -4.95058239e-01 -8.26347351e-01 +1.01314999e-01 -3.26813638e-01 +7.81791806e-01 +2.48042941e+00 -2.04916072e+00 +1.69206941e+00 +2.94725955e-01 +1.39372838e+00 +1.90648168e-01 -1.18789327e+00 -1.16777861e+00 +3.17452811e-02 +1.07071340e+00 +1.56485951e+00 -8.79102290e-01 +1.47174215e+00 -5.84953129e-01 -2.01641154e+00 -1.40625775e-01 +1.37641168e+00 -1.50031433e-01 -1.85166788e+00 -1.52164543e+00 +2.86255074e+00 -1.40281427e+00 -1.82956493e+00 +1.18941355e+00 -5.41476488e-01 -2.47694635e+00 -7.81393349e-01 +1.02803566e-01 +7.02150166e-02 -3.47453743e-01 -8.85753274e-01 +1.70911682e+00 +1.42443359e+00 -5.45871794e-01 -1.72767770e+00 +2.15725768e-02 +4.03674357e-02 +1.15908086e+00 -9.65903047e-03 -4.98357287e-04 -1.04479671e+00 +1.76914203e+00 -4.32141811e-01 -2.71783739e-01 +1.85632813e+00 -2.13075742e-01 +1.02661645e+00 -1.45820987e+00 +1.72077143e+00 +1.95221639e+00 -3.99532199e-01 -2.23723456e-01 -8.61091018e-01 +2.64148664e+00 -1.43449426e+00 -1.32971272e-01 +2.59235322e-01 -1.65586197e+00 +9.85586762e-01 -2.38419741e-01 -5.70950150e-01 +1.10562336e+00 +4.71218070e-03 +6.17897734e-02 +2.14737964e+00 -1.41754329e+00 -1.10661590e+00 -5.21290016e+00 +9.12533581e-01 -3.43533993e+00 -4.56919521e-01 -1.99966800e+00 +1.59644008e-01 +1.80918872e-02 -2.33761668e+00 +1.16721904e+00 -5.05333853e+00 +1.13200486e-01 -9.40184236e-01 -1.34635761e-01 +6.22611940e-01 +4.41790760e-01 -2.82902211e-01 -1.78805098e-01 -8.85880813e-02 +9.53644633e-01 +1.21682979e-01 -4.15876880e-03 -8.99216011e-02 +5.48101403e-03 -1.49493471e-01 -3.90288621e-01 +6.95491374e-01 -3.15541655e-01 +2.16487423e-01 +1.99109569e-01 +5.66342711e-01 +2.46113800e-02 -5.45530021e-01 +4.94399182e-02 -3.71799946e-01 +1.83879197e-01 -4.57318008e-01 -9.34248641e-02 +5.37841730e-02 +1.39377922e-01 -6.11785948e-01 -2.09480733e-01 +2.81625718e-01 +1.36577606e-01 +3.61781597e-01 +4.00639236e-01 +4.92349684e-01 +1.89321101e-01 +3.75058055e-01 +1.72857150e-01 -5.27020216e-01 -1.21212445e-01 -3.77092063e-01 -1.51152328e-01 -3.12994540e-01 +9.11061466e-02 +6.48158789e-01 +2.56595686e-02 +2.83576638e-01 +6.26094162e-01 -5.06101668e-01 -4.33723778e-01 -1.45999774e-01 -9.93781388e-01 -1.12995243e+00 -1.63974082e+00 -2.99021769e+00 +3.14533934e-02 +2.76661336e-01 -2.82347891e-02 +4.26154673e-01 +4.24943902e-02 -1.55399466e+00 +9.40035656e-02 -8.94772589e-01 -6.23097360e-01 +1.36801759e-02 +1.99072689e-01 -4.67574716e-01 -1.14662893e-01 +2.37847362e-02 +5.14398754e-01 -4.34980690e-01 +1.05186470e-01 -4.28512782e-01 +3.43570173e-01 -1.02410153e-01 +7.00165555e-02 -9.19757128e-01 +4.98152703e-01 +4.82863337e-01 -3.53014827e-01 +1.48630404e+00 -4.33546126e-01 +5.01085281e-01 -2.31249785e+00 +1.69728115e-01 -3.41196209e-01 +3.63374025e-01 -9.99433100e-02 +1.48510322e-01 -1.86116195e+00 +8.23134407e-02 -2.18942128e-02 -1.17585018e-01 +2.63994575e-01 +2.02106267e-01 -1.38909901e-02 -9.55426872e-01 +2.42491290e-01 -2.19669878e-01 -9.22290310e-02 +2.13548690e-02 +4.58589733e-01 -1.51624417e+00 -3.42711657e-01 -1.35368988e-01 +3.29462975e-01 -4.58930492e-01 +2.47500483e-02 -4.97285098e-01 -1.20685399e+00 -8.00438881e-01 -1.42221189e+00 -3.19925278e-01 -1.64878651e-01 +5.94338477e-02 -1.16148400e+00 -6.23824060e-01 -1.40003994e-01 +3.54729056e-01 -1.76675946e-01 -1.64053547e+00 +3.52921076e-02 -9.74923432e-01 -1.58910584e+00 -3.42904359e-01 -1.81871265e-01 +3.56864005e-01 +1.77470788e-01 +6.70887828e-01 -2.38578245e-01 -1.47318840e-01 -8.51228535e-01 -6.88569427e-01 -2.05656402e-02 +7.05493018e-02 -1.00642943e+00 -6.25770986e-01 -7.66265169e-02 -3.10633123e-01 -6.30305469e-01 -1.46239877e-01 -1.18971251e-01 -4.12241250e-01 +1.16501145e-01 -3.33880968e-02 -1.94989607e-01 -1.90309465e-01 -1.39835656e-01 -1.02860421e-01 -5.75069606e-01 +1.32206202e-01 +2.05949873e-01 +2.50728309e-01 -2.06998542e-01 -4.67205822e-01 -1.67526245e+00 -4.15864170e-01 -1.81450248e-01 -6.43813685e-02 +2.41318867e-01 -7.92483032e-01 +3.85342687e-01 +5.79850793e-01 +5.12528479e-01 -1.99226588e-02 -2.03636289e-01 -1.34347570e+00 -6.08774781e-01 +3.10436159e-01 -1.82303131e-01 +2.86568999e-01 -2.19972372e-01 +4.66027558e-01 +4.78267670e-02 -1.87695935e-01 -3.69175583e-01 -6.12232387e-01 +5.36997378e-01 +6.48236811e-01 -1.04432380e+00 +2.66511291e-01 -7.28547692e-01 -2.15299392e+00 -1.67257264e-02 -1.40069202e-01 -6.87340260e-01 +2.62277186e-01 -2.97154856e+00 +4.01800781e-01 -1.58832610e-01 -1.22918122e-01 -1.47869051e+00 -7.07131505e-01 +1.24690108e-01 +2.81581789e-01 -1.43811989e+00 +4.22230996e-02 +1.57297894e-01 -6.86689436e-01 -6.54625058e-01 -3.51938069e-01 -6.59210145e-01 +3.19509894e-01 +4.06895392e-02 +2.92295098e-01 -3.39674735e+00 -1.54535994e-01 +1.55171128e-02 -1.92292845e+00 -1.59642473e-02 -6.05240129e-02 -4.32393700e-02 -5.23188293e-01 +9.04075727e-02 +4.93797883e-02 -1.86229300e+00 +1.15391123e+00 -9.77764502e-02 -1.04834341e-01 -2.65152663e-01 +3.83236781e-02 +3.12325805e-01 -2.22521156e-01 -6.25620067e-01 -1.86956331e-01 +1.78814337e-01 -2.02976972e-01 +6.04903698e-02 +1.66701496e-01 -4.64312509e-02 +1.97451115e-01 -8.10225960e-03 -2.03024775e-01 -5.27132654e+00 -1.35889637e+00 -1.25108886e+00 -1.24766386e+00 -1.90303013e-01 -4.82845545e+00 -5.43204188e-01 -1.37323213e+00 -2.22250551e-01 +7.74233043e-02 +3.00120920e-01 -6.49036840e-02 -2.16372497e-02 -4.20078993e-01 +4.18905877e-02 +1.09700277e-01 -6.58733726e-01 -9.75262225e-02 -6.15036488e-01 -4.66110520e-02 -1.36989212e+00 -2.06604242e-01 +3.07938725e-01 -8.17914248e-01 -9.77193594e-01 -3.50254774e-01 +2.32110992e-01 -5.40332556e+00 +4.20538455e-01 -6.06421804e+00 +2.83427984e-01 -1.42386228e-01 +8.40466842e-02 +9.29348171e-02 -4.74078029e-01 +1.22959584e-01 -2.44563431e-01 -9.22988728e-02 -3.20641518e-01 +1.13728635e-01 -1.06422149e-01 -1.59384191e-01 -1.17652975e-02 +3.83662522e-01 +4.16629463e-01 -2.10446239e+00 -1.67912748e-02 -1.58601880e-01 +1.90126389e-01 -5.09448862e+00 -1.08323944e+00 +2.86668748e-01 -6.96634576e-02 -1.09617937e+00 -1.27213284e-01 -5.82241178e-01 -8.05989429e-02 -9.47846889e-01 -1.37438506e-01 -1.47313297e+00 -2.34216601e-01 +5.30033350e-01 -6.56195939e-01 +6.15133846e-04 -5.71186125e-01 -4.46050596e+00 +1.67076856e-01 -3.03179234e-01 -1.18373108e+00 -2.00570047e-01 +2.61070639e-01 -7.32554346e-02 +4.47327584e-01 -4.15283251e+00 -1.24602842e+00 -2.11112216e-01 +3.90526885e-03 +5.60068898e-02 +5.08636177e-01 -5.57852499e-02 +4.44069207e-01 +1.58800438e-01 +6.56928420e-01 -5.27917683e-01 -4.23324145e-02 +3.23635906e-01 -1.02295327e+00 -1.71399027e-01 +1.00801659e+00 -2.87247610e+00 -6.90492058e+00 -1.75865710e+00 -1.57146811e+00 +4.56046522e-01 -1.00599170e-01 +1.77328754e-02 -1.14644788e-01 -1.39326203e+00 -2.42617890e-01 -1.72482729e-01 +3.88434798e-01 -1.19449151e+00 -1.08868062e-01 +2.36447174e-02 +1.00811638e-01 +1.52619600e-01 -2.32477522e+00 -7.38718927e-01 -4.97359961e-01 -1.36015022e+00 +1.70970336e-01 +1.49642721e-01 +7.83722475e-02 -5.90378666e+00 -2.21016860e+00 -1.48812056e+00 +3.22765589e-01 -4.24549484e+00 +6.22674763e-01 +7.70685636e-03 +6.83232427e-01 -2.01595306e-01 -9.18741003e-02 -2.00714445e+00 -9.82097238e-02 -6.85648143e-01 -1.03854167e+00 -6.23977520e-02 -1.71759441e-01 +1.83131337e-01 -2.94068664e-01 +3.78654078e-02 +2.91580290e-01 +1.75454050e-01 +5.50269932e-02 +6.73165798e-01 +5.73619455e-02 -1.88236475e-01 +5.21709859e-01 -3.45274876e-03 +4.59806263e-01 +1.86481267e-01 -5.88785648e-01 -1.25246599e-01 +1.58235848e-01 +1.91603541e-01 -2.08403850e+00 -2.17139468e-01 +1.37935532e-02 -4.76446688e-01 +1.49863198e-01 +1.48594931e-01 -2.01705962e-01 +1.85135797e-01 -9.47750881e-02 +2.29725868e-01 -4.58803922e-02 -6.86993897e-01 -9.07209516e-02 -2.22584620e-01 +6.67908192e-01 +3.27733606e-02 -1.28498822e-01 -1.17354348e-01 -3.20418030e-01 -6.82299018e-01 -1.91291824e-01 -5.78096390e-01 -8.21184576e-01 +6.29117638e-02 +3.38400036e-01 +1.15037417e+00 +8.62151206e-01 -3.40650320e-01 -6.97532475e-01 +9.51688215e-02 -1.27475417e+00 +9.59726647e-02 -1.23535979e+00 -5.60549676e-01 +1.62293196e-01 -2.62040317e-01 -6.34313524e-02 -6.05674982e-02 -2.23537404e-02 +3.67004843e-03 -9.87276912e-01 +4.20509309e-01 +5.12288988e-01 +4.44745392e-01 +3.75278085e-03 -2.74596751e-01 +5.60054302e-01 +1.88324600e-01 +1.53897583e-01 +1.30014136e-01 -7.68635213e-01 -2.30483964e-01 -5.31882465e-01 -3.68055999e-02 +1.51801968e+00 -4.09016572e-02 +3.74743432e-01 +2.05253396e-04 +4.19472083e-02 -2.58763969e-01 -1.03358366e-01 +4.62905407e-01 +1.01450458e-01 -1.76775038e-01 -1.26668170e-01 -1.10643590e-02 -1.02662361e+00 +5.18035260e-04 +2.44634628e-01 +1.53676853e-01 +1.43303573e+00 +7.58367553e-02 -5.03297262e-02 -7.57633328e-01 +3.73411290e-02 -8.93893167e-02 +2.31076181e-01 -3.93198222e-01 -2.61856258e-01 +6.98891878e-02 -2.55699884e-02 -9.05958638e-02 -3.42921090e+00 -9.63741899e-01 -5.17958224e-01 -1.20252502e+00 +6.38101026e-02 -5.09101689e-01 -6.24428354e-02 +2.49346212e-01 +1.03598154e+00 +3.38956714e-01 +1.00304738e-01 +8.28805491e-02 +1.26841724e-01 -4.10250485e-01 -4.48808283e-01 +1.46709055e-01 +1.19547375e-01 -1.89370096e+00 -2.11024404e-01 +1.10228813e+00 +5.90858907e-02 +3.02088380e-01 -8.70114416e-02 +8.50502178e-02 -3.83596659e-01 -6.47093952e-02 -3.15109909e-01 +2.68683881e-02 +1.28569491e-02 +2.95935690e-01 +8.13959986e-02 +8.12428117e-01 -3.15913945e-01 -8.48928317e-02 +6.04057387e-02 +7.97592938e-01 -3.02139759e-01 -3.79620492e-01 +1.26757950e-01 +4.66193296e-02 +5.31715274e-01 +1.61718681e-01 -6.75860226e-01 -2.70052642e-01 +2.40612030e-01 -3.91693830e-01 +3.41479182e-02 -1.81468320e+00 +1.19100714e+00 -3.95050049e-01 -7.84247160e-01 +7.70592242e-02 -3.88987780e-01 +5.41066751e-03 -2.09440347e-02 +1.33600831e-01 -1.47580160e-02 -7.35952612e-03 +5.22223003e-02 +5.05337045e-02 +2.71604247e-02 +7.82033354e-02 -1.11794084e-01 +1.14114925e-01 -6.10424057e-02 -8.86654556e-01 +2.49247923e-01 +4.56639566e-03 -6.81497574e-01 -9.90332603e+00 -2.40170926e-01 +6.82398453e-02 +1.08600296e-01 -1.31507993e-01 -7.27745831e-01 +3.67750041e-02 +3.31861563e-02 +2.21791849e-01 +7.39662170e-01 -1.67768195e-01 -3.22443229e-04 -2.32617807e+00 +1.60823017e-01 -2.49619469e-01 -1.95344582e-01 -9.01762992e-02 -2.21876979e+00 -1.98014721e-01 -3.14902633e-01 -2.50986308e-01 +1.21932733e+00 -9.15177345e-01 -1.45767435e-01 -5.76825857e-01 +5.12818843e-02 +1.01712212e-01 +6.83590174e-02 +9.37394425e-02 +4.96261902e-02 -1.11128703e-01 +7.02943146e-01 +1.27455220e-01 +5.48968688e-02 -2.01185316e-01 +4.71963873e-03 -2.98141502e-02 +2.16066577e-02 -3.77481312e-01 -1.83861241e-01 +3.84078085e-01 -4.31249708e-01 -8.99569154e-01 -6.37379885e-02 +9.47085842e-02 +8.92376781e-01 +2.39851370e-01 -8.82690400e-03 -8.30317885e-02 -2.78481781e-01 +8.27074796e-02 -7.43010342e-02 +2.99466670e-01 -8.64753366e-01 +3.69025826e-01 -4.54530120e-02 +3.03725719e-01 +4.69656661e-02 -2.84497663e-02 -3.60123932e-01 -2.21073315e-01 +5.41095495e-01 -5.90567529e-01 -5.96564054e-01 +2.27199756e-02 +3.27185392e-02 -2.54229116e+00 -3.09322570e-02 -1.54324687e+00 +6.08652309e-02 -1.00282621e+00 -4.75515515e-01 -3.27263564e-01 -1.07981443e-01 -4.59509389e-03 -2.83553526e-02 +1.68022484e-01 -1.74338773e-01 -5.24932742e-02 -4.99549776e-01 +1.55782655e-01 -2.29331821e-01 +2.11820211e-02 -5.41945845e-02 -8.17703009e-02 -3.37211564e-02 -1.32081985e+00 +5.63658634e-03 -2.58854032e-01 -1.18922278e-01 -2.04419708e+00 -5.94704337e-02 -1.48427606e+00 -5.71983904e-02 -1.67652503e-01 -3.14824581e-02 -1.10537899e+00 -2.04330459e-02 +9.07549337e-02 -1.10650109e-02 -1.83734924e-01 -5.02384961e-01 +4.69727665e-02 +2.12271158e-02 +1.86817478e-02 +1.87754065e-01 +1.58604071e-01 +8.44051391e-02 +9.67453271e-02 -2.95284484e-02 +1.38874603e-02 -1.31756127e-01 -1.63059577e-01 -1.57481074e-01 -1.67448074e-01 +6.18567467e-02 -1.60901397e-02 -8.38591382e-02 -5.05486168e-02 -1.18123099e-01 +7.98597187e-02 +1.72672570e-01 -2.35206671e-02 -1.43314242e-01 -1.14525214e-01 +7.52550587e-02 -7.51868561e-02 -1.01730138e-01 +1.77995861e-02 -3.37460525e-02 -5.42208506e-03 +3.39003764e-02 -2.72159845e-01 -1.53365150e-01 -3.61795016e-02 -7.12341890e-02 +1.02651313e-01 -1.21529371e-01 -6.93481416e-03 -4.39477451e-02 +1.92318093e-02 +2.11159408e-01 +5.60399033e-02 +1.27254024e-01 -5.33879595e-03 -1.03069171e-01 -1.18242241e-01 -4.27511744e-02 +1.06904969e-01 -1.48261949e-01 -1.82516694e-01 -8.52651224e-02 +5.98487072e-02 -1.74478367e-01 -2.64401436e-02 +4.44705449e-02 -7.24347532e-02 +1.48060257e-02 +4.11580317e-02 +2.39165546e-03 -1.43380478e-01 -1.12866193e-01 -1.43536076e-01 +3.84580866e-02 -1.09506123e-01 -1.55986756e-01 -1.26372343e-02 -3.87734175e-02 -1.14366012e-02 -4.12106747e-03 -1.78329814e-02 -1.57478511e-01 +9.92280170e-02 +7.35373944e-02 -8.89091641e-02 -1.53341249e-01 -8.02876577e-02 -1.81467652e-01 +2.90001687e-02 +1.62816405e-01 -1.15493551e-01 +1.06195770e-02 +1.07985325e-01 +8.24973434e-02 -1.40171155e-01 -1.54654622e-01 -1.91159010e-01 -2.39656657e-01 -7.69157290e-01 -6.26837078e-04 -7.08734021e-02 -1.47771633e+00 -5.92895806e-01 -4.07907009e-01 -1.14066148e+00 -4.94594479e+00 -3.53977382e-02 -6.65359354e+00 -7.93916762e-01 -1.87850475e-01 -1.45231849e-02 -2.33320504e-01 +3.93480688e-01 -2.78501332e-01 -7.03829050e-01 +9.83207673e-02 +7.22813159e-02 -4.87318076e-02 -9.35217887e-02 +4.22864631e-02 -6.15863025e-01 +6.42027482e-02 -1.85309485e-01 +1.51016321e-02 +1.33575454e-01 +3.49681415e-02 +7.25422874e-02 -2.96383142e-01 -1.89513803e+00 -1.72428653e-01 -6.17927670e-01 +6.80693835e-02 -4.87115574e+00 -2.84065120e-02 -5.85302860e-02 -1.89789832e-01 -1.17627986e-01 -1.00830160e-01 +1.45959914e-01 +6.09997138e-02 -2.24751115e-01 +1.64655462e-01 -1.89312305e-02 -4.56508827e+00 -1.16894150e+01 +2.70039260e-01 -5.43191314e-01 -2.29774833e-01 -3.43193896e-02 -4.29118514e-01 +8.65230262e-02 -6.69549227e-01 -1.03459835e+00 -4.99327946e+00 +2.06962183e-01 -1.49395728e+00 -4.83569765e+00 +2.15333432e-01 +3.69713642e-02 +3.65334167e-03 -8.64199162e+00 -5.14917910e-01 -1.16481893e-01 +7.39681199e-02 +2.26242855e-01 -3.10250130e-02 -4.53718901e-02 +1.17665388e-01 +3.40045154e-01 -2.69122720e-01 -1.19095162e-01 -2.91600966e+00 -4.45011234e+00 -9.60535035e-02 -1.56161308e-01 -3.34147096e-01 +3.94078821e-01 -5.88564575e-01 -1.69073611e-01 -6.17672130e-02 -8.41025531e-01 +1.35831848e-01 +2.44771555e-01 +3.24730635e-01 +1.08677626e-01 -4.57770020e-01 -1.37362391e-01 
#Parameter# /_3 {90} 1441 ZERO_GRAD
-1.11433730e-01 -2.34222442e-01 +2.58371979e-01 -1.96385831e-01 -2.17561647e-01 -2.15065032e-01 -2.03978181e-01 -5.73216438e-01 -5.04670203e-01 -1.11173823e-01 -2.42301241e-01 -1.14444099e-01 -2.47662533e-02 -4.03032266e-02 +2.36564944e-03 -4.25527543e-01 +7.57953674e-02 -1.41759679e-01 -2.16227621e-01 -4.05914597e-02 -2.02946648e-01 -4.16870207e-01 +1.69174746e-01 +4.47850712e-02 +2.39784837e-01 -3.45897734e-01 -4.54774164e-02 -2.43702441e-01 +7.49214217e-02 +2.87121952e-01 -1.04859658e-01 -1.80914029e-02 -1.70701489e-01 +1.65561080e-01 -3.71609211e-01 -3.81835923e-02 -3.11403662e-01 -2.36449316e-01 -3.40136401e-02 -1.24281578e-01 +1.13036849e-01 -5.21049425e-02 -1.46720663e-01 -3.73189628e-01 -1.44253716e-01 +2.03425944e-01 -9.31909680e-02 -3.19881737e-01 -5.29989302e-01 +1.71356082e-01 -2.20261380e-01 -7.26013556e-02 -1.74426526e-01 -1.59961104e-01 -3.75025161e-02 -6.80485042e-03 +2.09967315e-01 +4.64311875e-02 -4.83829267e-02 -9.70549211e-02 -1.54639333e-01 -2.61090308e-01 +2.48166636e-01 +2.88540358e-03 -1.21164873e-01 -6.44849420e-01 -1.56447664e-01 -3.24137043e-03 -2.24714920e-01 -3.82996723e-02 -2.40999281e-01 -2.42410734e-01 -3.23465437e-01 +5.65278754e-02 -2.67353833e-01 +4.37317230e-02 +6.91667944e-03 -1.59020796e-01 -2.56652180e-02 -2.39325970e-01 -3.58739346e-01 +1.65699989e-01 -6.24560565e-02 -8.26805681e-02 -3.54025006e-01 -2.51867294e-01 -6.20026410e-01 -1.71699792e-01 -1.29355296e-01 -4.27039236e-01 
#Parameter# /_4 {576,90} 829441 ZERO_GRAD
+4.60852869e-03 +8.30280036e-03 +1.66926300e-03 +3.91747151e-03 +2.86504452e-04 +5.67149138e-03 +3.98329785e-03 +3.54439777e-04 +3.06674605e-03 -3.93052527e-04 +5.93024865e-03 -2.77087325e-03 +8.65369744e-04 +3.01810843e-03 +8.49048328e-03 +1.17692363e-03 -4.14327113e-03 -7.27694063e-03 +2.24072486e-03 +6.08399697e-03 +4.08774242e-03 +2.46409653e-03 +2.56571290e-03 +9.46584344e-03 +3.32846260e-03 +1.20657193e-03 +8.16669315e-03 +1.85247324e-03 -1.52085011e-03 +3.96961300e-03 +3.00240936e-03 -2.62881257e-03 -2.47254083e-03 -4.16860310e-03 +8.67509563e-03 +1.04162367e-02 +1.25089958e-02 +1.03186006e-02 +1.44648207e-02 +4.83789854e-03 -2.95073017e-02 -5.33257192e-03 -1.11428034e-02 -8.80742632e-03 -9.87617113e-03 +8.45803786e-03 +8.48729257e-03 +1.22655788e-02 +7.08932662e-03 +7.73154432e-03 -9.63305793e-05 +6.14012266e-03 +1.16551090e-02 +4.10969695e-03 +8.65157880e-03 +3.39240953e-03 -1.96109735e-03 -8.21156614e-03 -7.12536057e-05 -3.11843213e-03 -1.51292710e-02 -3.63042709e-05 +1.25366068e-02 +1.99270863e-02 +3.60498875e-02 +4.19204459e-02 +2.98005398e-02 +3.67168263e-02 +2.78573297e-02 +3.85897197e-02 +3.77193838e-02 +1.44164693e-02 +4.86670667e-03 +7.94910826e-03 -1.67609821e-03 +1.15497028e-02 +7.75184389e-03 -3.45072313e-03 -4.04393999e-03 -2.35815793e-02 -1.95160713e-02 -2.47715060e-02 -1.49590317e-02 -6.58261779e-05 +6.08436298e-03 +1.32752657e-02 +3.52604464e-02 +2.14849357e-02 +1.61519200e-02 -2.98935222e-03 -3.39744613e-02 -2.41815224e-02 -1.55148376e-02 -2.35415641e-02 +3.60378586e-02 +3.51107505e-04 +4.94735921e-03 +1.85670156e-03 +8.96184891e-03 +1.26711316e-02 +8.88327044e-03 +4.33909707e-03 -5.74949803e-03 +1.60635600e-03 -1.09200319e-03 -2.07420550e-02 -1.59331206e-02 -2.50353906e-02 -2.21417460e-04 +1.02798790e-02 +1.51858656e-02 +2.11882237e-02 +3.76626290e-03 -2.20612753e-02 -2.23654509e-02 -1.15015742e-03 -1.34205527e-03 -2.42197365e-02 -6.98559452e-03 +5.74499881e-03 +6.18217699e-03 +1.06306667e-04 +1.70853287e-02 -1.70638470e-03 +1.33465156e-02 +1.40298204e-02 +9.94767249e-03 -8.71754717e-03 +1.23838056e-03 -5.83067257e-03 -1.08649861e-02 -5.43899077e-04 +1.59177184e-02 +1.21929124e-02 +1.17350854e-02 +5.93222864e-03 -2.09036227e-02 +3.89711582e-04 +2.59752218e-02 -4.23642946e-03 -1.79810319e-02 +4.66166390e-03 -1.44964494e-02 +2.59934855e-03 +3.28760780e-03 +9.72584728e-03 -1.92040473e-03 +8.53439793e-03 +7.10948929e-03 -1.25504541e-03 -2.17685755e-03 +2.24704971e-03 -6.01955783e-03 +6.90510357e-03 +4.34247195e-04 +3.61458841e-03 +7.99325295e-04 +6.50855107e-03 +7.06209196e-03 +7.82790035e-03 +4.72860551e-03 +2.21343078e-02 +2.22613253e-02 +9.92738362e-03 -2.43986510e-02 -2.18457971e-02 -1.89111140e-02 -7.03824358e-03 +3.39736766e-03 +7.72433029e-03 -1.58897191e-02 -9.03394073e-03 -3.80000868e-03 -8.19909014e-03 -7.92426616e-03 +2.95624230e-03 -6.79648248e-03 -1.48804504e-02 -1.13346139e-02 -1.34402262e-02 -6.68904465e-03 -4.67802677e-03 -1.09859640e-02 -5.35318768e-03 +9.83146019e-03 -7.15799956e-03 -1.00613665e-02 -6.56821998e-03 -1.22049646e-02 -3.19775715e-02 -1.15235951e-02 -1.29247978e-02 -1.52910862e-03 -1.59946783e-03 -5.08404057e-03 -1.85455773e-02 -1.86461024e-02 -1.92775708e-02 -5.69341937e-03 -3.36814672e-03 +8.38714465e-03 +7.58250058e-03 -4.78025572e-03 +3.82357184e-03 -1.00300843e-02 -9.15812049e-03 +1.25459861e-02 +2.81500779e-02 +5.56993578e-03 -8.72842222e-03 -3.64707522e-02 -3.37186716e-02 -1.97137594e-02 -4.63195965e-02 -3.88480462e-02 -1.55272940e-02 +7.92710762e-03 +1.09942108e-02 -3.48999235e-03 +4.10790322e-03 +1.20756694e-03 -2.23446339e-02 -1.67622901e-02 -1.98895186e-02 -1.63201150e-02 -1.11131165e-02 -2.44093616e-03 +7.57836131e-03 +1.10813156e-02 -5.15834522e-03 -1.84264444e-02 -1.56382211e-02 -2.82538217e-02 -2.59082746e-02 -4.89313938e-02 -6.35234267e-02 -7.62236267e-02 -5.07344790e-02 -4.65362445e-02 -3.72760259e-02 +4.18082392e-03 -1.99798495e-03 -1.99501566e-03 -1.88961730e-03 +3.40696122e-03 +4.08854336e-03 +2.58274190e-03 +4.10667359e-04 +6.07841136e-03 +4.19029081e-03 +8.79667234e-03 +1.74720952e-07 -7.72735104e-03 -3.07716383e-03 -1.42429853e-02 -3.02560460e-02 -4.67071682e-02 -5.43350950e-02 -5.58380410e-02 -6.15243539e-02 -6.11382611e-02 -5.44227473e-02 -3.12725715e-02 -1.97038576e-02 +3.04034166e-03 -4.67356015e-03 -1.05552105e-02 -1.07192956e-02 -4.20091068e-03 +1.60888332e-04 -7.46611226e-03 +4.25737491e-03 +3.73109337e-03 +2.11049640e-03 +4.02671332e-03 -8.11995764e-04 +1.03532607e-02 +8.16542748e-03 +1.07296696e-02 +1.23784719e-02 +7.91181251e-03 -4.75769583e-03 +2.00010440e-03 +3.31936777e-03 -6.98073953e-03 -7.15041906e-03 -1.53317871e-02 +4.18523233e-03 +3.39803123e-03 +9.63595521e-04 -1.57451387e-02 -1.34986630e-02 -7.70384073e-03 -1.04080094e-02 -5.79360221e-03 -1.35345319e-02 -9.42430831e-03 -6.16037101e-03 -8.30995105e-03 +3.64038046e-04 +6.99839881e-03 +2.81119645e-02 +6.33469298e-02 +6.51557818e-02 +7.39718080e-02 +4.00781929e-02 +3.45354788e-02 +1.37086818e-02 +2.84913438e-03 -6.69476110e-03 -2.81118148e-04 +1.94570969e-03 +6.14456646e-03 -1.78871342e-04 -3.61120678e-03 -4.21275478e-03 -4.73658321e-03 -4.19774652e-03 +1.51276938e-04 -3.68620316e-03 -3.01073678e-02 -4.88501787e-02 -5.72900325e-02 +3.43534090e-02 +7.56204352e-02 -3.44062634e-02 -5.79542629e-02 -5.93516268e-02 -8.79628733e-02 -1.68399638e-04 +6.71262965e-02 +6.00525476e-02 +1.89679805e-02 -3.05862841e-03 -2.37033213e-03 -6.83713844e-03 +5.37014892e-03 -1.23904627e-02 -1.49756940e-02 +2.36132126e-02 +6.45517409e-02 +7.04295859e-02 +3.23310159e-02 -7.32712867e-03 -6.09274320e-02 -8.40154737e-02 -4.26581278e-02 +1.93547562e-01 +4.70358908e-01 +4.45392251e-01 +2.78203133e-02 -2.15081602e-01 -3.26283395e-01 -3.72831136e-01 -3.50455403e-01 -2.41059139e-01 -1.22077219e-01 -1.11454185e-02 -9.40627791e-03 -7.27952225e-03 +1.67061843e-03 -9.87870153e-03 -1.12063736e-02 +3.83343883e-02 +1.02178231e-01 +9.69755426e-02 +1.90659836e-02 -4.64822389e-02 -1.06266290e-01 -9.80968848e-02 +3.10009774e-02 +2.30167821e-01 +5.60001552e-01 +7.77248800e-01 +6.66343570e-01 +2.28626445e-01 -1.20678633e-01 -2.12224394e-01 -2.66299993e-01 -2.79416800e-01 -2.61110574e-01 -4.28695381e-02 -3.97433341e-03 -1.01396320e-02 +2.51577003e-03 -3.89031228e-03 -7.17126392e-03 +2.36906465e-02 +5.43855838e-02 +1.12932390e-02 -6.06873110e-02 -1.36221483e-01 -2.10349232e-01 -2.04852566e-01 -1.12008147e-01 +5.89405373e-02 +3.25032175e-01 +6.13527298e-01 +7.05263913e-01 +6.99773669e-01 +3.87306511e-01 +1.43459171e-01 +7.33483359e-02 +5.22046871e-02 +3.19121853e-02 -1.32951066e-02 -7.65062822e-03 -1.20725101e-02 +2.52440781e-03 -4.53974027e-03 -2.69319490e-03 +2.56704669e-02 +2.22921912e-02 -7.20944256e-02 -1.84236556e-01 -2.67155558e-01 -2.73942232e-01 -2.39779562e-01 -1.94605872e-01 -8.65411758e-02 +9.03633535e-02 +3.54952097e-01 +5.20312905e-01 +6.39241755e-01 +7.59042084e-01 +6.17922008e-01 +4.82792079e-01 +4.85470086e-01 +3.02475989e-01 +1.24173928e-02 -6.85576489e-03 +2.76374328e-03 -2.70788884e-03 -8.04347079e-03 -3.50103364e-03 +1.51171135e-02 +3.52466553e-02 -9.62708369e-02 -1.20516948e-01 -1.07053950e-01 -1.00662634e-01 -9.18266550e-02 -1.17882997e-01 -1.58934176e-01 -1.13505259e-01 +1.86831653e-02 +1.27373785e-01 +1.99525446e-01 +4.51149434e-01 +6.94983900e-01 +8.05874407e-01 +6.92510903e-01 +3.37330133e-01 +1.34167355e-02 -7.96600152e-03 -4.33001202e-03 -8.45748745e-03 -9.56109259e-03 -7.64658768e-03 +3.33439223e-02 +7.37032667e-02 +8.14041048e-02 +1.02325335e-01 +9.25601348e-02 +8.96654353e-02 +7.22816810e-02 +1.38093038e-02 -4.47456837e-02 -1.26562804e-01 -1.25260890e-01 -1.35161117e-01 -2.52552211e-01 -2.49417812e-01 -4.65353467e-02 +2.56576508e-01 +4.64335471e-01 +1.54318854e-01 -3.65142860e-02 -1.38653629e-02 -9.04783315e-04 -1.01848440e-02 -4.94091120e-03 -3.48528358e-03 +1.36571368e-02 +3.25240232e-02 +2.17658989e-02 +1.87541042e-02 +7.88103044e-03 +1.10550588e-02 -5.91766555e-03 -1.24599664e-02 -1.26218079e-02 -4.25825343e-02 -6.16036654e-02 -3.31973955e-02 -1.48878574e-01 -2.55567670e-01 -2.78500587e-01 -2.59860992e-01 -1.85856119e-01 -1.18093349e-01 -8.08282271e-02 -7.09681772e-03 -6.70463173e-03 -5.22568263e-03 -1.30399335e-02 -2.56458926e-03 -6.23237761e-03 -1.01519171e-02 -1.41960634e-02 -1.51361534e-02 -7.69686466e-03 -3.92859057e-03 -2.11325493e-02 -1.09474696e-02 -1.13893719e-02 -1.54490126e-02 -1.00383731e-02 +5.13705276e-02 +1.74550097e-02 -1.95225552e-02 -3.89967784e-02 -4.21530716e-02 -5.14645129e-02 -6.15263395e-02 -4.43209335e-02 -1.74385943e-02 -1.55793531e-02 -4.27543884e-03 -5.49200922e-03 -3.01345787e-03 -1.87148880e-02 -3.56497942e-03 -1.68445632e-02 -9.24214907e-03 -8.28275643e-03 -1.70585793e-02 -1.03536369e-02 -5.25658578e-03 -3.35789821e-03 -9.45750345e-03 -1.15926964e-02 +6.47868216e-03 -2.15012184e-03 +3.75206862e-03 +1.79947237e-03 -8.64200629e-05 -5.23041561e-03 -3.05447495e-03 -5.31680137e-03 -9.10881720e-03 -6.06545620e-03 -2.82779383e-03 -6.34722319e-03 -1.08806361e-02 -3.62000265e-03 -6.87055197e-03 -2.49025435e-03 -9.35605355e-03 -5.11044357e-03 -7.54367141e-03 -6.50249142e-03 -6.90321997e-03 -6.99903863e-03 -8.92728381e-03 -5.92065789e-03 -7.63353100e-03 -1.24159371e-02 -8.98953713e-03 -2.20741648e-02 -6.32065907e-03 -4.71415929e-03 -1.26837874e-02 -4.07390716e-03 -1.43646924e-02 -1.53950527e-02 +4.41081962e-03 -8.40330869e-02 -5.41165881e-02 +1.22747906e-02 -7.19650388e-02 -3.64858024e-02 -7.03149140e-02 -7.02966079e-02 -1.12110004e-01 -1.31247923e-01 -5.91907986e-02 -1.85703084e-01 -4.90571745e-02 -8.02685544e-02 -1.07801445e-01 -1.61135703e-01 -7.27377310e-02 -2.81680822e-02 -8.23615044e-02 -2.06331819e-01 -9.60095748e-02 -2.16203317e-01 -1.61177441e-01 -1.07913822e-01 -4.70209606e-02 -1.85508013e-01 -3.52819934e-02 -6.25058915e-03 -2.59893686e-02 -8.87824968e-02 -2.17819866e-02 -8.85164738e-02 -7.73776397e-02 -6.32721558e-02 -1.05376974e-01 -2.36379370e-01 -2.68539280e-01 -6.50447831e-02 -1.46381244e-01 -1.59362406e-01 -5.29161245e-02 +1.02607571e-02 -1.63729459e-01 -9.53059196e-02 -2.39852462e-02 -1.69935659e-01 -2.27879405e-01 -1.06328748e-01 -1.29642189e-01 +1.35739213e-02 +5.66042475e-02 -3.96923348e-02 -7.74444118e-02 +7.48194754e-02 -6.95842803e-02 -4.99806292e-02 -8.66409987e-02 -1.29244151e-02 -1.86212271e-01 -1.74374446e-01 -1.58784106e-01 -1.63710907e-01 -1.32363692e-01 -2.18818724e-01 -2.54059225e-01 -2.38233894e-01 -1.32513717e-01 -2.93179363e-01 -3.36573869e-01 -2.66218632e-01 -2.22030744e-01 -9.74741206e-02 -8.38311017e-02 -1.33872017e-01 +2.65634626e-01 +4.49301377e-02 +6.04100898e-03 -5.41203097e-02 -1.47905573e-01 -2.68820465e-01 -2.63890594e-01 -4.51780051e-01 -3.52604419e-01 -3.72294456e-01 -2.77254045e-01 -1.55657351e-01 -3.10187906e-01 -2.05005750e-01 -2.91553408e-01 -2.07684189e-01 -2.17014030e-01 -2.03558907e-01 -3.18025678e-01 -3.06225210e-01 -2.48751119e-01 -7.35153705e-02 -6.76385611e-02 +2.07280163e-02 +1.47495091e-01 +1.18129849e-01 -5.00887573e-01 -7.03886986e-01 -7.53084600e-01 -7.50450075e-01 -7.24469602e-01 -6.80398405e-01 -4.60228920e-01 -3.23017091e-01 -1.44977763e-01 -7.06328377e-02 -1.37233362e-01 -1.12491041e-01 -7.15377182e-02 -2.16561809e-01 -1.42883211e-01 -1.71023309e-01 -1.62242681e-01 -2.44686022e-01 -2.67756552e-01 -1.28506944e-01 -1.43553212e-01 +1.17992528e-01 +2.80657619e-01 +8.21384192e-02 -5.52520812e-01 -1.15323210e+00 -1.02606416e+00 -1.02093482e+00 -8.79528284e-01 -7.16527224e-01 -5.09085953e-01 -3.93360943e-01 -1.85423195e-01 -1.97373912e-01 -1.82015494e-01 -1.39293537e-01 -1.09793723e-01 -1.77292854e-01 +2.68143229e-02 -9.56787616e-02 -1.46515608e-01 -2.07001239e-01 -3.31932425e-01 -1.10230088e-01 -8.65528435e-02 +9.95549187e-02 +2.49568850e-01 +1.53240681e-01 -4.86030549e-01 -1.14121151e+00 -1.11956358e+00 -9.79357481e-01 -8.90028417e-01 -5.77012122e-01 -3.75106692e-01 -2.20631480e-01 -8.99958685e-02 +1.01823928e-02 -4.38616239e-02 -7.18285749e-03 +1.41649768e-01 +2.44378403e-01 +1.54178217e-01 +6.08587898e-02 -6.93079382e-02 -2.54856497e-01 -4.09308702e-01 -4.70594689e-02 -8.14209878e-03 +2.96578347e-03 +3.40422928e-01 +8.58593211e-02 -4.51478362e-01 -1.05805564e+00 -1.09915984e+00 -9.13297296e-01 -6.39608562e-01 -4.38429594e-01 -6.61191642e-02 -3.68641093e-02 +1.78970128e-01 +2.35523984e-01 +2.34163448e-01 +3.04418027e-01 +3.77878219e-01 +4.48093802e-01 +3.22329432e-01 +1.94620892e-01 -4.10555713e-02 -2.28780597e-01 -3.57958615e-01 -1.66812867e-01 -3.42206880e-02 +1.42663702e-01 +4.47981894e-01 +1.39380023e-01 -4.25060451e-01 -1.11360383e+00 -1.17865646e+00 -9.83057737e-01 -5.31475723e-01 -2.09914893e-01 +8.92785415e-02 +2.50164449e-01 +2.87280798e-01 +4.18661863e-01 +4.20153290e-01 +4.12374407e-01 +5.11563897e-01 +5.10843277e-01 +4.56880748e-01 +3.94784927e-01 +2.41232440e-01 -2.04989836e-01 -4.06377196e-01 -5.56392781e-02 -8.52996334e-02 +3.39103937e-01 +5.68936408e-01 +1.50666013e-01 -4.76030111e-01 -1.18117917e+00 -1.37191582e+00 -1.27060390e+00 -9.24634337e-01 -2.05255881e-01 +8.85749534e-02 +2.85103679e-01 +3.90884489e-01 +4.30721641e-01 +2.89016396e-01 +4.01357085e-01 +3.92227262e-01 +5.01681864e-01 +4.71005768e-01 +5.18839598e-01 +3.99818897e-01 +6.00205511e-02 -2.90225923e-01 -1.19420193e-01 -1.13150170e-02 +2.89209276e-01 +5.43776155e-01 +1.03659831e-01 -9.55011725e-01 -1.46428680e+00 -1.67957258e+00 -1.45057499e+00 -1.18317771e+00 -6.06352448e-01 -9.44538862e-02 +1.33444995e-01 +2.21653327e-01 +1.43999398e-01 +1.69570833e-01 +2.12513253e-01 +2.22314999e-01 +2.71917343e-01 +3.04530740e-01 +2.59929240e-01 +2.94511080e-01 +2.03290969e-01 +3.37342881e-02 -2.18066663e-01 +4.33642939e-02 +5.04287183e-01 +5.97826540e-01 -2.09927201e-01 -1.13104904e+00 -1.65852189e+00 -1.81444299e+00 -1.62219965e+00 -1.28865409e+00 -7.95016110e-01 -2.51605242e-01 -8.92076734e-03 +1.02499261e-01 +9.66781527e-02 +8.97263438e-02 +1.10982858e-01 +1.20738544e-01 +1.07025102e-01 +1.08282454e-01 +1.02853134e-01 +6.13953136e-02 +1.02579361e-04 +1.81393728e-01 -2.38798544e-01 +1.64412051e-01 +6.46901369e-01 +4.33803707e-01 -3.32232922e-01 -1.21527040e+00 -1.73631549e+00 -1.82163942e+00 -1.56236947e+00 -1.17175865e+00 -7.40605175e-01 -2.34055147e-01 +4.07580100e-02 +1.34775907e-01 +1.31002143e-01 +1.05707787e-01 +1.07568562e-01 +1.39893413e-01 +1.26441255e-01 +8.98956954e-02 +1.17124915e-01 +5.78479394e-02 -5.54176085e-02 +1.94086537e-01 -3.02552432e-02 +6.19755760e-02 +5.80469489e-01 +2.99534738e-01 -5.16596079e-01 -1.33347440e+00 -1.78649735e+00 -1.73124456e+00 -1.51444161e+00 -1.08889472e+00 -5.38261175e-01 -8.29227567e-02 +5.88999316e-02 +1.33270800e-01 +1.18176006e-01 +1.35583609e-01 +1.17680863e-01 +1.34233564e-01 +1.28696308e-01 +1.41126126e-01 +9.10848975e-02 +6.43952936e-02 -2.32925694e-02 +5.09719886e-02 +8.85773171e-03 +2.24102840e-01 +6.96431816e-01 +2.17816368e-01 -7.55839705e-01 -1.51293147e+00 -1.77852273e+00 -1.71953177e+00 -1.44700313e+00 -9.10677075e-01 -3.40050310e-01 -1.05148800e-01 +8.68611336e-02 +1.53551772e-01 +1.47662118e-01 +1.20342910e-01 +1.38212129e-01 +1.10857494e-01 +1.30693376e-01 +1.16333075e-01 +9.56683978e-02 +7.34860599e-02 -2.01762300e-02 -7.45247072e-03 -1.60909042e-01 +2.62568921e-01 +6.69435859e-01 -9.73904878e-02 -8.61352265e-01 -1.58704960e+00 -1.81306565e+00 -1.63349342e+00 -1.28699017e+00 -7.69137084e-01 -3.89201194e-01 -1.44234285e-01 +7.38068148e-02 +1.45209149e-01 +1.56097695e-01 +1.48975745e-01 +1.13636434e-01 +1.08070992e-01 +1.09500192e-01 +1.41877398e-01 +8.81622434e-02 +7.64302537e-02 +2.16344818e-02 -9.87371709e-03 +1.35057166e-01 +3.33438009e-01 +5.33108473e-01 -1.42876059e-01 -1.11408091e+00 -1.76309168e+00 -1.72599614e+00 -1.57446027e+00 -1.03710902e+00 -7.80901432e-01 -3.73779863e-01 -1.13647461e-01 +1.00324020e-01 +1.22489870e-01 +1.31598532e-01 +1.29374593e-01 +1.33564904e-01 +1.55298233e-01 +1.65555760e-01 +1.25749737e-01 +1.26773894e-01 +8.03208873e-02 +5.06599359e-02 -8.29979256e-02 -6.91272132e-03 +4.76734310e-01 +5.41803062e-01 -4.35934782e-01 -1.40755224e+00 -1.79992056e+00 -1.69354749e+00 -1.32693470e+00 -1.04377723e+00 -7.17669845e-01 -4.01375681e-01 -7.19917119e-02 +7.79322311e-02 +9.05697942e-02 +1.43633530e-01 +1.32532910e-01 +1.56680018e-01 +1.08323231e-01 +1.45879596e-01 +1.19116217e-01 +1.35415733e-01 +9.51961428e-02 +6.93812892e-02 -1.19166918e-01 +1.57320648e-01 +4.83642519e-01 +2.39218757e-01 -6.10654712e-01 -1.57781386e+00 -1.79359984e+00 -1.65009725e+00 -1.37830245e+00 -1.07721901e+00 -7.98174858e-01 -4.31803524e-01 -1.02212720e-01 +5.82239814e-02 +1.29631341e-01 +1.42628714e-01 +1.37095854e-01 +1.43402323e-01 +9.73076522e-02 +1.19914331e-01 +1.26495823e-01 +1.02856062e-01 +1.13051578e-01 +6.88055903e-02 -4.16857824e-02 +2.35666096e-01 +5.56987464e-01 +1.50738105e-01 -8.22300375e-01 -1.69500315e+00 -1.79385245e+00 -1.66877925e+00 -1.44012415e+00 -1.20828390e+00 -8.86333883e-01 -5.25335550e-01 -6.88244700e-02 +7.38874972e-02 +1.36589095e-01 +1.23752370e-01 +1.58546090e-01 +1.59371734e-01 +1.43661216e-01 +1.30872756e-01 +1.27877370e-01 +1.02587365e-01 +9.86749828e-02 +1.12761952e-01 -1.29436876e-03 +9.77413803e-02 +6.98138654e-01 +2.73311306e-02 -1.24747121e+00 -1.80903447e+00 -1.85936570e+00 -1.73755825e+00 -1.60624766e+00 -1.32413685e+00 -9.99954462e-01 -5.66515565e-01 -1.82567790e-01 +6.82122484e-02 +1.20852001e-01 +1.41968563e-01 +1.44701719e-01 +1.61607668e-01 +1.38239235e-01 +1.23899773e-01 +1.44248977e-01 +1.20168224e-01 +1.02449298e-01 +9.56668183e-02 +6.41312776e-03 -1.06232977e-02 +5.86085558e-01 -3.01640838e-01 -1.40689230e+00 -1.71512425e+00 -1.84325421e+00 -1.82769489e+00 -1.71524549e+00 -1.45130968e+00 -1.13646913e+00 -7.01439440e-01 -2.60340601e-01 +5.52735813e-02 +1.26233876e-01 +1.45756871e-01 +1.19222194e-01 +1.24389820e-01 +1.37942284e-01 +1.04399607e-01 +1.29600689e-01 +1.10814720e-01 +1.21481836e-01 +1.16909020e-01 +4.43802103e-02 -4.27528704e-03 +5.98123789e-01 -5.17896235e-01 -1.06324673e+00 -1.33345711e+00 -1.61185217e+00 -1.80740499e+00 -1.80333650e+00 -1.68917847e+00 -1.33872354e+00 -8.65261853e-01 -2.87985712e-01 +1.70577839e-02 +1.19718857e-01 +1.43456787e-01 +1.26335040e-01 +1.36743084e-01 +1.31708294e-01 +1.08942129e-01 +1.31991103e-01 +1.07183777e-01 +1.01700492e-01 +7.33369738e-02 +8.07009116e-02 -9.73765999e-02 +6.00736082e-01 +1.25359580e-01 -1.12562433e-01 -5.14500797e-01 -9.82638121e-01 -1.37252998e+00 -1.71898556e+00 -1.73181236e+00 -1.58662856e+00 -1.19467652e+00 -5.39002240e-01 -2.97705196e-02 +1.53105959e-01 +1.39332712e-01 +1.37165561e-01 +1.79881498e-01 +1.07018188e-01 +2.69342419e-02 +1.29691705e-01 +7.51809329e-02 +6.88519329e-02 +8.89410600e-02 +1.49463080e-02 -3.08833877e-03 +2.63974905e-01 +2.48025447e-01 +2.08238363e-01 +2.32861623e-01 +1.97384909e-01 +2.46813864e-01 +1.93404168e-01 +2.26503581e-01 +2.25551650e-01 +2.54109770e-01 +2.11994201e-01 +1.83157489e-01 +1.88109890e-01 +1.69217363e-01 +2.07917109e-01 +1.93321064e-01 +1.87467888e-01 +2.07929730e-01 +2.02667207e-01 +2.47272670e-01 +2.04742447e-01 +2.41670549e-01 +2.14655146e-01 +2.19501644e-01 +2.35868096e-01 +2.48363316e-01 +2.44233862e-01 +2.51605541e-01 +1.96506441e-01 +1.97256312e-01 +1.99809283e-01 +2.28811562e-01 +2.51260132e-01 +2.31200248e-01 +2.19281748e-01 +1.98106393e-01 +1.97685763e-01 +2.03835383e-01 +2.08864510e-01 +1.91884071e-01 +1.81773663e-01 +1.85192257e-01 +2.06905067e-01 +2.32765317e-01 +2.48468667e-01 +2.75518060e-01 +2.84556448e-01 +2.31935397e-01 +2.29124174e-01 +2.91973948e-01 +3.62385690e-01 +3.54527026e-01 +3.59063596e-01 +3.32334369e-01 +3.34126860e-01 +3.12483311e-01 +3.19630623e-01 +3.44174802e-01 +3.20522577e-01 +2.93637305e-01 +3.04089367e-01 +2.85640895e-01 +3.05672854e-01 +2.97214568e-01 +2.98364669e-01 +3.26550871e-01 +3.52025330e-01 +3.37686986e-01 +3.65345418e-01 +4.08719212e-01 +2.76055992e-01 +2.38615721e-01 +2.44517565e-01 +2.85994679e-01 +3.37286353e-01 +3.52896035e-01 +3.44683468e-01 +3.65043223e-01 +3.58539134e-01 +3.66748810e-01 +3.61445338e-01 +3.76028925e-01 +3.59823763e-01 +3.10758382e-01 +3.04893374e-01 +3.13436151e-01 +2.93222696e-01 +3.35079134e-01 +3.62747431e-01 +3.61320019e-01 +3.75523418e-01 +3.85507196e-01 +3.99583697e-01 +3.93210709e-01 +2.84041435e-01 +2.16194540e-01 +2.18351707e-01 +3.10512424e-01 +3.25300366e-01 +3.81658018e-01 +4.13592517e-01 +3.72187853e-01 +3.80183905e-01 +3.37238431e-01 +3.22972894e-01 +3.43274355e-01 +3.30971360e-01 +3.27592462e-01 +3.04824471e-01 +3.23517680e-01 +3.30593735e-01 +3.32144350e-01 +3.76029849e-01 +3.93399924e-01 +4.45276082e-01 +5.09876370e-01 +4.84600008e-01 +4.15443540e-01 +3.01426023e-01 +2.28430510e-01 +2.25520283e-01 +2.84194708e-01 +2.85482377e-01 +3.80409032e-01 +4.90557551e-01 +5.19943893e-01 +4.73973453e-01 +4.56012189e-01 +4.32983816e-01 +4.12841648e-01 +4.02857006e-01 +3.78299266e-01 +3.67608517e-01 +3.76092911e-01 +4.16597903e-01 +4.47330594e-01 +4.63791370e-01 +5.22263467e-01 +5.69088995e-01 +5.56469560e-01 +5.13799787e-01 +4.46331173e-01 +3.27002645e-01 +1.85829774e-01 +2.24368915e-01 +2.65989363e-01 +3.06911260e-01 +4.43958998e-01 +5.18332481e-01 +5.58107138e-01 +5.76494336e-01 +5.76335669e-01 +5.54148018e-01 +5.03034532e-01 +5.35037577e-01 +4.95170742e-01 +5.02542973e-01 +4.77995545e-01 +4.99651432e-01 +5.56798220e-01 +5.80873072e-01 +6.16106808e-01 +6.24132156e-01 +5.95712841e-01 +5.63364625e-01 +5.09696782e-01 +3.41209114e-01 +2.14305669e-01 +2.29805246e-01 +2.62328207e-01 +3.11941922e-01 +4.64748591e-01 +5.35760760e-01 +6.10360801e-01 +6.41878009e-01 +6.62099123e-01 +6.34583771e-01 +5.92019260e-01 +6.23432755e-01 +6.19154572e-01 +5.72848618e-01 +5.61728358e-01 +6.07919812e-01 +6.52929902e-01 +6.89440906e-01 +6.72509551e-01 +6.59155428e-01 +6.46240294e-01 +6.64925933e-01 +5.80063701e-01 +3.99970829e-01 +2.03073919e-01 +2.15145379e-01 +2.32437715e-01 +3.17340404e-01 +4.78442192e-01 +5.93276680e-01 +6.52630925e-01 +6.87979162e-01 +7.03913271e-01 +6.81822479e-01 +6.87772691e-01 +6.83360636e-01 +6.94748342e-01 +6.61444485e-01 +6.80057526e-01 +7.14525461e-01 +7.09092617e-01 +6.99092686e-01 +6.90140545e-01 +6.95892930e-01 +6.95855677e-01 +7.33329892e-01 +7.13319778e-01 +4.63054538e-01 +2.09878162e-01 +2.25438893e-01 +1.94958404e-01 +3.69775206e-01 +5.36135674e-01 +6.42531157e-01 +6.84550822e-01 +6.94503546e-01 +6.97864890e-01 +6.85412407e-01 +6.93701625e-01 +6.96790278e-01 +7.07346618e-01 +7.13006258e-01 +7.08451509e-01 +7.02428162e-01 +6.80313408e-01 +6.64901137e-01 +6.67722702e-01 +6.81439042e-01 +7.11998284e-01 +7.67422020e-01 +7.43000925e-01 +4.99594867e-01 +2.36810237e-01 +2.36755967e-01 +1.86367303e-01 +4.20705289e-01 +5.91045499e-01 +6.67055011e-01 +6.96200490e-01 +6.77015066e-01 +6.96943998e-01 +6.85278714e-01 +6.91366792e-01 +6.92253947e-01 +6.87402666e-01 +6.90753520e-01 +6.78114831e-01 +6.55896008e-01 +6.48060143e-01 +6.51078701e-01 +6.66956246e-01 +6.69010639e-01 +6.81122959e-01 +7.59185851e-01 +8.03154647e-01 +6.15712523e-01 +2.31460795e-01 +1.85386017e-01 +1.98998123e-01 +4.24752027e-01 +5.54719746e-01 +6.28112614e-01 +6.17050827e-01 +6.07587397e-01 +6.08957648e-01 +6.03340745e-01 +6.11667156e-01 +6.12875760e-01 +6.27048612e-01 +6.38510346e-01 +6.20170116e-01 +6.20092213e-01 +6.10678673e-01 +5.97050667e-01 +6.16824150e-01 +6.02064252e-01 +6.31969810e-01 +6.57578170e-01 +7.33240306e-01 +5.84885895e-01 +2.35650837e-01 +1.68754429e-01 +2.07864687e-01 +4.43787962e-01 +5.67362130e-01 +6.04857564e-01 +5.99942982e-01 +5.80941498e-01 +5.63355744e-01 +5.54858208e-01 +5.55865288e-01 +5.57013094e-01 +5.62291622e-01 +5.60927153e-01 +5.65244138e-01 +5.69585502e-01 +5.53920627e-01 +5.56976438e-01 +5.48107803e-01 +5.57593107e-01 +5.63225389e-01 +6.15238249e-01 +6.67051554e-01 +6.23125315e-01 +2.59582579e-01 +1.46846682e-01 +2.50962853e-01 +4.60390449e-01 +5.78190625e-01 +5.89877427e-01 +5.73345423e-01 +5.76065361e-01 +5.60323000e-01 +5.57536066e-01 +5.57334423e-01 +5.53200305e-01 +5.69334209e-01 +5.58689356e-01 +5.60039580e-01 +5.64841866e-01 +5.60202956e-01 +5.54003239e-01 +5.74603677e-01 +5.68209171e-01 +5.82952440e-01 +5.99118054e-01 +6.59166992e-01 +6.45301580e-01 +3.03948045e-01 +1.42725036e-01 +2.84490943e-01 +5.12304842e-01 +5.97997785e-01 +5.89684010e-01 +5.84770977e-01 +5.71457386e-01 +5.68774879e-01 +5.70389271e-01 +5.68263233e-01 +5.68625033e-01 +5.58760524e-01 +5.58332682e-01 +5.57336092e-01 +5.51453531e-01 +5.53781033e-01 +5.55036187e-01 +5.46501398e-01 +5.47278225e-01 +5.63646317e-01 +6.08263612e-01 +6.31727457e-01 +6.80113375e-01 +3.62262398e-01 +1.57105848e-01 +3.56206626e-01 +5.32936275e-01 +5.87480903e-01 +5.92205286e-01 +5.93171954e-01 +5.79366326e-01 +5.67831397e-01 +5.55689096e-01 +5.70279121e-01 +5.59896231e-01 +5.67573488e-01 +5.55029154e-01 +5.60049593e-01 +5.46805620e-01 +5.45332313e-01 +5.36482036e-01 +5.33761978e-01 +5.47377169e-01 +5.65238357e-01 +5.81093669e-01 +6.28758490e-01 +6.69273853e-01 +3.73130828e-01 +1.66280463e-01 +3.92633051e-01 +5.57503879e-01 +6.00322247e-01 +5.86085737e-01 +5.66945732e-01 +5.68598390e-01 +5.60955226e-01 +5.49526513e-01 +5.46800613e-01 +5.44432163e-01 +5.65135241e-01 +5.64078569e-01 +5.67936420e-01 +5.56413531e-01 +5.39123356e-01 +5.47409713e-01 +5.39316654e-01 +5.45469701e-01 +5.62439024e-01 +5.77487409e-01 +6.25653028e-01 +6.98982418e-01 +4.46493387e-01 +1.65607542e-01 +4.15791839e-01 +5.51752508e-01 +6.00488544e-01 +5.89967549e-01 +5.67021847e-01 +5.74373305e-01 +5.56506872e-01 +5.47271073e-01 +5.56783557e-01 +5.46139896e-01 +5.70438683e-01 +5.65481961e-01 +5.73822439e-01 +5.51250696e-01 +5.58454931e-01 +5.39382219e-01 +5.43792605e-01 +5.27437747e-01 +5.49269021e-01 +5.58061719e-01 +6.00736856e-01 +6.84582174e-01 +5.22131383e-01 +2.13619694e-01 +4.88987803e-01 +5.85474014e-01 +5.93253195e-01 +5.84503174e-01 +5.66552341e-01 +5.64840078e-01 +5.49615800e-01 +5.60513794e-01 +5.53704619e-01 +5.52860200e-01 +5.59110522e-01 +5.55870295e-01 +5.60225904e-01 +5.54271877e-01 +5.55021584e-01 +5.58333516e-01 +5.57491720e-01 +5.51878989e-01 +5.58347523e-01 +5.60369134e-01 +6.13600194e-01 +6.78147018e-01 +5.78604281e-01 +2.30099693e-01 +5.09277761e-01 +5.88902235e-01 +5.92436075e-01 +5.88772118e-01 +5.72454870e-01 +5.77096224e-01 +5.63200593e-01 +5.68041503e-01 +5.60401201e-01 +5.63030779e-01 +5.64089000e-01 +5.69510460e-01 +5.64727664e-01 +5.55284321e-01 +5.46245515e-01 +5.42745590e-01 +5.50754189e-01 +5.45634449e-01 +5.57862401e-01 +5.55566311e-01 +5.75827897e-01 +6.57483459e-01 +6.26280129e-01 +3.08424145e-01 +5.39727032e-01 +5.99069417e-01 +5.76425314e-01 +5.74789464e-01 +5.77313125e-01 +5.70961475e-01 +5.54146647e-01 +5.63088417e-01 +5.57604074e-01 +5.62706530e-01 +5.64000309e-01 +5.74866414e-01 +5.65483153e-01 +5.57566762e-01 +5.52719831e-01 +5.42536438e-01 +5.50209641e-01 +5.47995329e-01 +5.52180350e-01 +5.50762296e-01 +5.74372113e-01 +6.36691868e-01 +6.51914120e-01 +3.76744330e-01 +5.75564802e-01 +6.01401865e-01 +5.85955501e-01 +5.83177149e-01 +5.71764350e-01 +5.78454196e-01 +5.71686029e-01 +5.62462926e-01 +5.55612564e-01 +5.55683792e-01 +5.66129327e-01 +5.61180413e-01 +5.56925893e-01 +5.61679244e-01 +5.40078282e-01 +5.45455396e-01 +5.38372219e-01 +5.47215760e-01 +5.58878779e-01 +5.43696463e-01 +5.76035321e-01 +6.32595181e-01 +6.65987968e-01 +3.99138391e-01 +5.83002746e-01 +6.09346151e-01 +6.11767054e-01 +5.81614614e-01 +5.86427987e-01 +5.80979645e-01 +5.69769800e-01 +5.68385839e-01 +5.57965517e-01 +5.61921179e-01 +5.60058832e-01 +5.62539876e-01 +5.61455309e-01 +5.54682851e-01 +5.51820636e-01 +5.60512900e-01 +5.51221430e-01 +5.56884587e-01 +5.56779444e-01 +5.71113110e-01 +5.77331901e-01 +6.14265025e-01 +6.59318984e-01 +4.30294335e-01 +5.17790437e-01 +5.55841267e-01 +5.70901692e-01 +5.87017357e-01 +6.02886975e-01 +6.00362659e-01 +5.79852998e-01 +5.87204874e-01 +5.53616166e-01 +5.48625290e-01 +5.66106498e-01 +5.77484608e-01 +5.63907385e-01 +5.58319390e-01 +5.35093665e-01 +5.66133142e-01 +5.70889771e-01 +5.84006846e-01 +5.79407990e-01 +6.16052389e-01 +6.32285774e-01 +6.51197851e-01 +6.54119313e-01 -6.13726862e-03 -8.28805938e-03 -4.34060320e-02 -2.45797820e-03 -2.96180360e-02 -2.40958910e-02 -6.02142839e-03 -4.08863537e-02 -1.17434692e-02 -1.12312986e-02 -1.46042639e-02 -1.55871501e-02 -1.55785028e-02 -4.57619131e-02 -1.16083331e-01 -1.77550521e-02 +1.20850727e-01 +1.06718495e-01 +1.33169880e-02 -1.39504578e-02 -4.00700122e-02 -4.36009392e-02 -3.57418396e-02 -3.65075432e-02 -2.54892055e-02 -5.33086471e-02 -8.44984874e-02 +1.74178146e-02 +6.42703846e-02 +9.72817689e-02 +1.03711031e-01 +6.93096668e-02 +1.36937089e-02 +6.55747764e-03 -1.62777212e-02 -5.04528955e-02 -6.23128489e-02 -1.34068593e-01 -1.57424882e-01 +1.82857383e-02 +1.49301738e-01 +1.24447085e-01 +1.06284834e-01 +1.09323300e-01 +7.10736737e-02 +2.81447563e-02 -1.83142442e-02 -4.42414321e-02 -1.55147202e-02 -1.31025389e-01 -2.44430810e-01 -4.07077223e-01 -5.79904675e-01 -6.26986086e-01 -5.22508860e-01 -3.48509461e-01 -1.60704508e-01 +2.10076328e-02 +1.24064267e-01 +2.52307057e-01 +3.58447760e-01 +3.49710166e-01 +2.98626184e-01 +3.72046411e-01 +2.74807572e-01 -7.03170942e-03 -1.86509982e-01 -3.45157057e-01 -3.83263588e-01 -3.25723976e-01 -3.54688801e-02 -2.85154395e-02 -2.08141934e-02 -5.37315868e-02 +3.87938261e-01 +8.30145299e-01 +7.87763953e-01 +6.17302477e-01 +3.48146290e-01 +3.01324688e-02 -2.95766562e-01 -5.42556345e-01 -6.90072775e-01 -7.73356020e-01 -7.23354936e-01 -6.88233972e-01 -5.64844131e-01 -2.44395182e-01 -1.73796177e-01 -8.14666152e-02 +7.73069561e-02 +1.77773401e-01 +2.24100709e-01 -1.22747876e-01 -7.24980906e-02 -1.39422147e-02 -1.15540335e-02 +1.12662814e-03 +4.55340296e-01 +3.03911448e-01 +1.36643220e-02 +1.75039351e-01 +4.27263290e-01 +6.69421554e-01 +8.73449266e-01 +9.73356903e-01 +9.81044948e-01 +1.01540792e+00 +1.00369549e+00 +8.48767757e-01 +8.68783832e-01 +7.99708128e-01 +4.37982857e-01 +1.83871344e-01 -3.86770889e-02 -1.35447979e-01 +4.40279469e-02 +6.48991466e-02 -6.73779622e-02 +4.53800574e-04 -6.08671503e-03 +1.82333216e-02 +1.44484609e-01 -9.27237198e-02 -4.69574854e-02 -4.96677011e-02 -1.01714887e-01 -1.57735243e-01 -1.29973650e-01 -8.55232179e-02 -3.10718436e-02 -4.83857747e-03 +8.98629241e-03 -1.05269395e-01 +1.19941998e-02 -5.73838651e-02 -1.06291503e-01 -2.67216805e-02 +7.71256685e-02 +3.57437544e-02 -1.40644491e-01 +1.01341516e-01 -2.27368008e-02 -5.15130395e-03 -3.08772456e-02 -5.96105307e-03 -1.44544572e-01 -1.30808383e-01 -3.48360203e-02 -3.16733010e-02 -3.40259448e-02 -1.30785868e-01 -1.99321061e-01 -1.83328494e-01 -2.08905324e-01 -2.32688174e-01 -2.21593007e-01 -1.72812372e-01 -1.51828751e-02 -6.00067787e-02 -4.79644425e-02 -1.75331980e-02 +5.20469472e-02 +1.07831471e-01 +8.50897995e-05 -7.15724751e-03 -1.45365316e-02 -1.39477914e-02 -3.37049030e-02 -6.81362860e-03 -8.02092552e-02 -3.04497778e-03 -4.36557550e-03 +4.12956811e-02 +4.97941971e-02 +6.41831383e-02 -5.45051023e-02 -1.64795354e-01 -2.52512783e-01 -3.34004283e-01 -3.34761918e-01 -2.42690146e-01 -1.25447795e-01 -5.76234888e-03 +3.69116701e-02 +5.74595621e-03 +1.24948882e-02 +4.60149273e-02 +1.12691246e-01 +2.34852694e-02 -6.22324413e-03 -2.47842558e-02 +6.39066915e-04 -1.69444724e-03 +1.72283240e-02 +4.14266512e-02 +2.99932522e-04 +4.44723264e-04 +5.29785492e-02 +1.39836282e-01 +1.65031031e-01 +8.73204470e-02 -6.53907238e-03 -1.08314298e-01 -1.10560916e-01 +1.11132385e-02 +1.58410192e-01 +2.55002677e-01 +2.09660783e-01 +1.16829887e-01 +2.99837422e-02 +2.20430456e-02 +1.13816492e-01 +1.31966814e-01 -2.32107975e-02 -4.18842435e-02 -1.99455544e-02 -1.81462839e-02 -2.37016100e-03 -7.05323666e-02 -8.55586082e-02 -6.79000467e-02 -3.50557230e-02 -2.25382708e-02 -4.17490080e-02 -3.50508988e-02 +2.53044795e-02 +9.82015505e-02 +6.35764822e-02 +6.84844479e-02 +2.40432192e-02 +3.66759747e-02 +5.85327670e-02 +3.71873342e-02 +3.93674988e-03 -8.07809737e-03 -6.17653765e-02 -8.09000880e-02 -4.89082523e-02 -6.56454638e-02 -1.48804784e-02 -1.88086983e-02 -1.28551414e-02 +1.89399961e-02 +5.65874502e-02 +7.52004832e-02 +8.31012800e-02 +9.92728993e-02 +1.10314049e-01 +1.54965878e-01 +1.74452946e-01 +8.84794593e-02 +8.01358521e-02 +1.96838468e-01 +2.23144412e-01 +1.73740476e-01 +1.18850335e-01 +1.07689500e-01 +8.00064504e-02 +6.24700375e-02 +4.98406142e-02 -9.83368140e-03 -4.96314913e-02 -4.85613756e-02 -2.35088263e-03 -2.98008397e-02 +1.25947250e-02 +1.48506751e-02 +2.99062058e-02 +3.72955017e-02 +5.54966591e-02 +5.47223017e-02 +5.06995656e-02 +5.31553626e-02 +3.79885882e-02 +8.22833851e-02 +5.97648732e-02 +5.05573750e-02 +4.45949808e-02 +2.98716202e-02 -1.10171386e-03 -7.83014204e-03 +4.60350234e-03 -8.44362099e-03 -8.34656879e-03 -1.48220209e-03 -1.12156235e-02 -2.31159441e-02 -1.37981307e-02 +3.44256041e-05 -1.02541391e-02 +4.27397946e-03 +1.89475138e-02 -7.71570113e-03 +1.43978167e-02 +1.56783964e-02 -1.24519356e-02 -2.31847297e-02 +1.55236227e-02 +3.80082661e-03 +7.18787825e-03 -8.93329829e-03 -1.98270101e-02 -2.18607765e-02 -1.73827633e-02 -1.22269914e-02 -1.41157489e-02 +4.46170277e-04 +2.53203767e-03 +1.28160790e-03 -2.88740173e-02 -2.71435250e-02 -2.54116058e-02 -1.30381305e-02 +2.07217736e-03 +2.17106985e-03 -3.01690330e-03 +1.22955414e-02 -7.17168162e-03 -4.92401887e-03 +2.22142367e-03 +1.06844921e-02 +5.94029622e-03 -2.79713981e-03 +2.01403052e-02 +8.74455646e-03 +4.28443961e-03 -1.82514377e-02 -1.04828635e-02 +2.64484179e-03 -2.19182149e-02 -1.76857039e-02 -4.83412948e-03 +1.15109142e-02 +6.46339962e-03 -1.22514721e-02 -7.36028515e-03 -1.24106370e-02 -4.00552386e-03 +3.24170548e-03 +1.00805294e-02 +4.03417856e-04 +2.63188384e-03 +1.78374082e-03 +2.35067457e-02 +3.29003646e-03 +1.38769299e-03 -1.82169862e-02 -2.10753549e-02 -1.13542471e-02 +2.64270958e-02 +8.37869104e-03 +2.59726308e-02 +1.42831672e-02 +1.04598550e-03 +9.03302804e-03 +1.39568588e-02 +1.28115052e-02 +1.54462932e-02 +4.39793244e-03 -8.50643683e-03 -1.01366052e-02 -6.52939174e-03 -1.62702538e-02 +5.14465338e-03 -9.40187892e-05 +1.39096333e-02 +1.15671605e-02 +1.87315084e-02 +2.05084179e-02 -1.13193423e-03 -1.86791681e-02 -2.14662850e-02 -4.46200483e-02 -5.53792808e-03 +6.08287565e-02 +4.82225791e-02 +2.71606501e-02 +1.69070959e-02 -2.86080199e-03 +1.33485235e-02 +1.99958757e-02 +1.17946574e-02 -1.92392152e-02 -9.41932388e-03 -2.13025771e-02 +3.58923548e-03 -7.67304795e-04 -7.13830674e-03 +1.60438605e-02 -1.17392151e-03 +1.00508910e-02 +1.27091454e-02 +2.02319082e-02 +9.34267510e-03 +1.13800466e-02 -7.19435886e-03 -4.25775200e-02 -8.10436308e-02 -3.01507059e-02 +3.81866284e-02 +4.81747240e-02 +3.17701660e-02 +3.43228057e-02 +5.73108457e-02 +3.22500020e-02 +1.19818859e-02 +3.60540138e-03 -8.41170608e-04 +2.93090870e-03 -3.87517066e-04 -1.39172450e-02 +6.10046135e-03 -1.17584430e-02 +1.87591016e-02 +1.21020675e-02 +1.88234970e-02 +2.15595048e-02 +1.02842238e-03 +1.29312752e-02 +9.17238649e-03 +3.58597971e-02 -4.07713978e-03 -6.69226348e-02 -1.12914545e-02 +3.62121649e-02 +6.27398118e-02 +5.93623035e-02 +5.01382798e-02 +6.61246525e-03 +1.29299257e-02 -1.42914010e-03 -9.37793776e-03 +1.21299308e-02 -3.40395025e-03 -2.83527508e-04 -1.30682839e-02 -2.30566226e-03 -1.08230617e-02 +1.51770720e-02 +1.71711165e-02 +9.38372780e-03 +2.31436063e-02 +1.46021396e-02 +3.18494067e-02 +1.47516066e-02 +3.18195969e-02 -7.10488856e-02 -6.10437915e-02 +8.39245133e-03 +4.89197113e-02 +5.65524101e-02 +1.24587333e-02 +5.53457392e-03 +7.69084925e-03 -3.01942904e-03 -1.38044562e-02 +8.47451854e-03 -5.63893793e-03 -3.20626865e-03 -1.91490855e-02 -1.91403162e-02 -1.63245127e-02 -1.21757500e-02 +4.56016831e-04 +5.95538586e-04 +1.70538314e-02 +2.58469898e-02 +8.48398264e-03 +3.75120267e-02 +7.08371997e-02 -3.88051989e-03 -5.97105250e-02 -5.29528186e-02 -6.37986977e-03 +6.16098708e-03 -1.47422692e-02 -6.76845387e-03 +2.24260874e-02 +4.78395727e-03 -1.03207659e-02 -2.20288988e-02 +1.04756176e-03 +2.84814206e-03 -1.80789488e-04 +4.01315698e-03 +1.13572963e-02 +1.62359164e-03 +8.42622388e-03 +7.67758070e-03 +1.82564482e-02 +7.48483650e-03 +1.46032684e-02 -2.02821251e-02 +5.17803505e-02 +4.25440148e-02 -9.40728758e-04 -4.22230400e-02 -5.09872660e-02 -3.03134136e-02 -3.43842357e-02 -1.64434649e-02 +2.06152480e-02 +6.02829736e-03 -1.39191477e-02 -7.51578528e-03 -2.35358458e-02 +1.61480736e-02 -2.04237542e-04 -6.10171352e-03 -1.67891488e-03 -1.67624261e-02 -2.11356506e-02 +1.96363013e-02 +1.68204177e-02 +3.65251931e-03 +3.98708537e-04 -3.66924666e-02 +5.39728615e-04 +2.16727592e-02 +2.27843933e-02 +1.22574745e-02 +3.54946824e-03 -3.09393834e-03 +1.61525584e-03 -1.50164180e-02 +9.12866648e-03 +1.11038648e-02 -9.23656335e-04 +2.44361639e-04 -2.30083708e-02 +1.13199279e-02 +8.74899048e-03 +1.86838042e-02 -2.14802203e-04 +1.89921036e-02 +7.89828505e-03 +7.99631886e-03 -4.65148827e-03 +1.36075485e-02 +5.70241408e-03 -9.37970821e-03 -1.37297520e-02 -6.10200828e-03 +4.03919769e-03 -5.51297935e-03 +1.85390525e-02 +1.38251735e-02 +1.43618817e-02 +2.15680129e-03 +1.88474748e-02 +2.20581330e-02 -2.71949433e-02 +1.64827425e-02 +4.38499684e-03 +1.79602876e-02 +1.16342050e-03 -4.07188246e-03 +1.29921944e-03 +8.87425803e-03 +9.26825032e-03 +4.50486830e-03 +1.46559288e-03 +5.34086721e-03 +1.95883010e-02 +1.11513622e-02 +1.66320754e-03 -2.89995829e-03 +7.06845254e-04 -1.88930170e-03 +1.06914365e-03 -5.56312589e-05 +5.52190514e-03 +9.24115255e-03 +1.00930175e-02 +1.61337927e-02 +1.10160140e-02 +2.82618939e-03 +1.05531039e-02 +1.54182473e-02 +2.95535289e-02 +7.00637605e-03 +8.25883180e-04 +1.35568203e-02 -3.58054321e-03 -4.52686427e-03 -1.21479947e-03 +1.50874862e-02 +2.08110586e-02 +1.55585539e-03 +2.82097738e-02 +8.26555304e-03 +2.26103868e-02 +1.63146313e-02 +1.19931186e-02 +1.00560887e-02 +1.34956539e-02 +1.26272924e-02 +2.63061025e-03 +7.24020507e-03 +1.76806804e-02 +2.72586942e-02 +5.31813409e-03 +1.47280153e-02 +1.75858159e-02 +4.63729631e-03 +1.58335455e-02 -5.07533038e-03 +7.58760516e-03 -1.23307555e-05 -1.26717577e-03 -5.19414141e-04 +8.73892847e-03 +4.16233344e-03 +9.35053825e-03 +5.83512848e-03 +1.70762781e-02 +8.20322521e-03 +7.30715180e-03 +3.83559475e-03 +1.71274170e-02 +4.49258368e-03 +5.79538802e-03 +2.58768983e-02 -2.75349827e-03 +1.69765744e-02 +1.42435580e-02 +6.02131290e-03 +8.05490837e-03 +2.81832938e-04 +1.63098443e-02 +2.13770736e-02 +1.39469299e-02 +1.72005314e-02 -1.13205668e-02 +1.43309834e-03 +9.92148649e-03 +4.79420554e-03 +9.04771779e-03 -6.28746254e-03 +6.45271316e-03 -6.69760723e-03 +6.08789315e-03 -5.77452686e-03 -1.86570419e-03 +1.10571757e-02 +7.10706413e-03 +1.07361702e-02 +1.87554881e-02 +4.22774954e-03 +6.10116869e-03 -2.75708456e-03 +2.06070766e-02 +1.59971267e-02 -8.40844441e-05 +5.89938229e-03 +7.09303096e-03 +1.47896912e-02 -3.00256838e-03 +1.95506215e-02 -5.11380518e-03 +5.51576400e-03 +1.19528640e-02 +2.32089050e-02 +2.13690456e-02 +4.70118830e-03 +4.93873516e-03 +2.11043470e-02 +3.51030077e-03 +3.49836866e-03 +3.02830525e-03 +5.58790332e-03 +1.91320234e-03 +2.74763355e-04 +2.64367159e-03 +1.70109570e-02 +7.11261854e-03 +2.92103854e-03 +2.26137005e-02 +1.34252980e-02 -4.57919348e-04 +1.37110781e-02 +5.64778573e-04 +1.89334024e-02 +2.01130118e-02 +1.26194889e-02 +5.42534189e-03 +6.89025084e-03 +1.46423755e-02 +1.53438346e-02 +2.13727150e-02 +1.23925519e-03 +2.00599451e-02 +3.45971878e-03 +1.23342527e-02 +1.61738414e-02 +1.85823496e-02 +2.87190992e-02 -1.61565957e-03 +2.09404621e-03 +2.48442101e-03 +1.70591101e-02 +1.57862920e-02 +8.91394354e-03 -4.22282639e-04 +4.18844726e-03 +1.27201658e-02 +4.34225798e-03 +1.14327548e-02 +1.97309908e-02 +1.63935944e-02 +2.21223459e-02 -4.45849914e-03 +1.30103352e-02 +4.41116747e-04 +1.78261159e-03 +3.78421391e-03 +6.03072532e-03 +7.66555837e-04 +6.99530449e-03 +1.65731683e-02 -2.85935646e-04 +8.43019038e-03 -2.09619015e-04 +1.73927601e-02 +6.80419384e-03 +1.85047113e-03 +5.43275964e-04 +1.15658734e-02 +5.98922314e-04 +1.33376801e-03 +2.79910117e-03 +3.34185138e-02 +1.30096516e-02 +7.12307310e-03 +1.52752653e-03 +1.62139535e-02 +2.30314652e-03 +2.88924924e-03 +2.11667661e-02 +5.14992978e-04 +2.25203801e-02 +1.50869479e-02 +3.13642807e-02 +2.48766709e-02 +1.06554292e-02 +2.04905104e-02 +1.72327757e-02 +1.87327957e-03 +8.48501548e-03 +2.26424690e-02 +2.26307730e-03 +1.26979165e-02 +1.58962682e-02 +3.56132258e-03 +1.01373419e-02 +1.32968463e-02 +1.11930883e-02 +1.53812615e-03 +3.76891606e-02 +3.84225417e-03 +1.47741046e-02 +2.06031837e-02 +2.10281834e-02 +1.69164594e-02 +1.12613123e-02 +1.78545958e-03 +5.78095950e-03 -3.33580235e-03 +1.43169956e-02 +1.55752129e-03 +9.33794957e-03 -7.60649680e-04 +2.97912606e-03 +2.13733912e-02 +8.22801515e-03 +6.98813563e-03 -5.87549410e-04 +1.68633051e-02 +1.70032587e-03 +1.06470389e-02 +1.13690896e-02 +2.96109123e-03 +1.23002082e-02 +1.90078765e-02 -3.07967945e-04 +2.03108527e-02 +4.18894412e-03 +1.78015046e-02 +6.56050397e-03 +2.19619814e-02 +6.11466588e-04 +6.63825078e-03 -1.09583524e-03 +1.88946782e-03 +7.11739063e-03 +4.10216302e-03 +3.24042439e-02 +6.55742362e-03 +2.58277431e-02 +2.84911189e-02 -1.09719287e-03 +6.75298553e-03 +9.08775721e-03 -5.79962647e-03 +3.66840325e-03 +2.36955117e-02 +2.84339450e-02 +2.16212347e-02 +1.44676957e-02 +6.25777058e-03 +9.13211424e-03 +2.39237957e-02 +9.06017236e-03 +2.15867292e-02 +1.49663938e-02 +8.89351405e-03 +2.68368190e-03 +1.11789424e-02 +4.41268180e-03 +9.41520743e-03 +2.02786885e-02 +9.00346786e-03 +2.38767732e-02 +3.78618157e-03 +1.28689660e-02 -1.04781380e-02 -5.44237485e-03 -1.80145800e-02 -1.29051553e-02 +3.00619230e-02 +5.95898228e-03 +1.93181448e-02 +1.36090228e-02 +9.56275687e-03 +2.08233036e-02 +3.01377545e-03 +2.69643851e-02 +1.00074532e-02 +1.80765819e-02 +1.45394402e-02 +1.69564839e-02 +1.97302718e-02 +3.04634087e-02 +2.23879777e-02 +6.80265762e-03 +1.81552917e-02 +6.61925832e-03 +6.14738697e-03 +1.40494416e-02 -3.31677776e-03 +5.56397717e-03 -1.32913310e-02 +5.33488207e-03 +1.63802858e-02 +9.23197623e-03 +5.64266834e-03 +1.57233924e-02 +1.48161184e-02 -2.46573286e-03 +1.88521184e-02 +2.42443709e-03 +3.32844956e-03 +6.02260744e-03 +9.48980171e-03 +1.22152772e-02 +2.16643158e-02 +2.03533005e-02 +1.16828270e-02 +1.52733224e-02 +2.26777121e-02 +1.44336829e-02 +2.40467885e-03 +2.68118107e-03 -1.02646723e-02 +3.01914639e-03 -1.19626299e-02 +1.24748179e-03 +7.53441500e-03 +1.55362543e-02 +6.56188466e-03 +1.26279369e-02 +1.79382283e-02 +2.20959983e-03 +1.05550596e-02 +8.36691167e-03 +1.49534382e-02 -6.26058143e-04 +5.08382497e-03 +1.62714254e-02 +7.03289639e-03 +1.31808519e-02 +6.76797517e-03 +9.57623031e-03 +1.71391340e-03 +1.89645626e-02 +2.90697515e-02 +2.74616317e-03 +1.12829288e-03 +1.28197791e-02 -5.15619572e-03 +1.02710277e-02 +8.57007969e-03 -1.29924831e-03 +5.74600999e-04 +1.90250147e-02 +1.53022530e-02 +9.10573348e-04 +1.14483917e-02 +3.71289183e-03 +6.25408348e-03 +2.85961404e-02 +1.05808990e-03 +2.03828476e-02 +1.27097927e-02 +7.80306524e-03 +6.37407973e-03 +1.07567143e-02 +1.03601022e-02 +1.73227806e-02 +6.54723402e-03 +1.65301878e-02 -6.28915988e-03 -5.59018878e-03 +8.94420780e-04 +2.22339351e-02 +2.26763003e-02 +1.93031952e-02 +5.80154173e-03 +1.08026257e-02 +9.86517407e-03 +8.13365541e-03 +6.65472820e-03 +2.89525092e-02 +1.06514187e-03 +1.83157735e-02 +1.79365408e-02 +1.64215155e-02 +2.06095278e-02 +1.43993984e-03 +1.16408346e-02 -4.58762515e-04 +1.02537293e-02 +1.03480946e-02 -2.90992646e-03 +3.72182508e-03 -2.46052956e-03 -1.27362832e-02 -2.18135472e-02 -8.21525883e-03 +4.37825313e-03 +1.37410024e-02 +1.09867249e-02 +1.92607064e-02 +1.43035008e-02 +2.36804020e-02 +2.51480378e-02 +1.08280941e-03 +6.48670830e-03 +1.89714544e-02 +1.37695088e-03 +2.53153685e-03 +1.90477492e-03 +8.00246466e-03 +1.65140559e-03 +2.17958186e-02 +1.93300545e-02 -1.05440030e-02 -7.94713967e-04 +2.04731934e-02 +5.58275878e-02 +1.00960225e-01 +4.72323671e-02 -9.69112571e-03 +4.32235338e-02 +1.70927751e-03 +1.05943698e-02 +8.06179014e-04 +1.54555468e-02 +7.80958030e-03 +4.30532405e-03 +8.47172923e-03 +5.05392207e-03 +1.10680349e-02 +4.57862951e-03 +1.34465611e-02 +1.16961421e-02 -2.81471908e-02 +1.76227596e-02 +4.61858921e-02 +2.89342105e-02 +4.36108969e-02 +4.19501737e-02 +4.14489657e-02 +1.01475723e-01 +2.58528650e-01 +1.65402487e-01 -2.23509371e-02 +1.30375773e-01 +5.46371117e-02 +6.31857291e-03 +6.38388144e-03 +1.47620142e-02 +1.78205203e-02 +1.61873251e-02 +1.55187054e-02 +1.65029857e-02 +4.77960100e-04 +1.29721267e-03 +5.10063116e-03 +1.96408364e-03 -1.13921566e-02 -1.06814737e-03 +2.53280587e-02 +3.70585024e-02 +2.46076495e-03 -2.08461517e-03 +7.01268157e-03 +1.00235857e-01 +2.95505583e-01 +2.29150519e-01 -8.78658444e-02 +5.77844754e-02 +6.24595396e-02 +1.05962437e-02 +1.96043644e-02 +1.80886798e-02 +1.73509568e-02 +5.37868915e-03 +6.32762164e-03 +8.15334730e-03 +4.55087796e-03 +2.71567777e-02 +2.34853514e-02 +4.87230020e-03 -2.10197642e-02 -1.44106671e-02 +7.75123062e-03 +1.02510424e-02 +2.46398784e-02 +6.83286041e-02 +1.46204174e-01 +2.37100899e-01 +4.83612627e-01 +4.81660724e-01 +4.25826721e-02 +5.31638088e-03 +8.35440159e-02 -1.00498321e-02 -3.49078663e-02 -1.81440413e-02 -3.48698464e-03 -9.79819149e-03 -7.54762487e-03 +7.56030018e-03 +4.73850593e-03 +2.05644835e-02 +2.29444169e-03 -1.62194413e-03 -1.22643346e-02 +2.07533743e-02 +5.39366826e-02 +5.93100861e-02 +1.15001582e-01 +1.61167219e-01 +2.70013034e-01 +3.99779916e-01 +6.86734021e-01 +7.25071907e-01 +3.40836108e-01 +1.51767105e-01 +2.78983980e-01 +1.50810093e-01 +5.84321246e-02 +1.08686574e-02 -1.38773955e-02 -1.22152129e-02 +1.76731951e-03 +1.85965672e-02 +2.34690518e-03 -2.38142000e-03 +6.04853220e-03 +6.96812000e-04 +9.87092499e-03 -5.95889613e-03 -1.09447585e-03 +1.58507302e-02 +1.35457898e-02 +2.96603739e-02 +1.02637433e-01 +2.18181998e-01 +4.19895262e-01 +5.42051256e-01 +3.28250378e-01 +1.33830175e-01 +1.81120113e-01 +1.50464445e-01 +1.09384730e-01 +6.46322817e-02 +4.01912853e-02 +1.93445869e-02 +1.66490432e-02 +1.94838475e-02 +1.46216750e-02 -6.53974013e-04 -2.86849099e-04 +9.88591928e-04 +2.69010626e-02 +7.00880401e-03 +9.20053571e-03 +1.52167045e-02 +8.68511759e-03 +1.07708601e-02 +1.14136813e-02 +2.54434720e-02 +1.02753259e-01 +1.98363721e-01 +1.28963456e-01 +5.26164621e-02 +4.05968167e-02 +3.15811895e-02 +1.32086249e-02 +5.78598445e-03 +1.91106163e-02 +1.75866969e-02 +1.53944744e-02 +9.25949216e-03 +5.31101460e-03 +1.17961466e-02 +4.44576284e-03 +4.51921718e-03 +6.52208552e-03 +3.21759610e-03 +1.45641835e-02 +1.43687730e-03 +1.77827931e-03 +1.53524254e-03 +5.04544610e-03 +1.64134204e-02 +9.13196243e-04 +2.03232691e-02 +5.42595843e-03 +8.01710226e-03 +1.87283084e-02 +1.32421672e-03 +1.13391429e-02 +6.01242902e-03 +3.92438611e-03 +1.92702282e-02 +9.33645584e-04 +1.96785107e-02 +1.74319129e-02 -4.44905944e-02 -1.72497835e-02 -2.27531623e-02 +6.31294679e-03 -2.59443168e-02 +2.81936582e-02 +1.51253501e-02 +2.81193033e-02 +1.04317509e-01 +8.88302699e-02 +1.48374692e-01 +1.68860689e-01 +2.04910100e-01 +2.02428192e-01 +7.42191598e-02 +2.26302102e-01 +3.20007563e-01 +2.32577458e-01 +1.87132448e-01 +2.52578259e-01 +3.88385832e-01 +5.19633293e-01 +6.48456335e-01 +7.62713134e-01 -1.81131754e-02 -2.36569494e-02 +4.12974739e-03 +7.73888920e-03 -8.66266992e-03 +8.30307975e-03 +2.01581232e-02 +2.47627608e-02 +6.70644194e-02 +1.31367102e-01 +1.24218538e-01 +1.64776951e-01 +2.24602863e-01 +1.94382593e-01 +1.10263132e-01 +3.15147728e-01 +2.85195202e-01 +2.17240393e-01 +2.23089233e-01 +3.72687191e-01 +5.35900891e-01 +6.42347038e-01 +7.98283637e-01 +8.38062823e-01 -1.82829909e-02 -1.59955658e-02 +5.70026189e-02 +6.96772933e-02 +6.87787011e-02 +7.18034804e-02 +7.66705126e-02 +6.27456754e-02 +6.72201961e-02 +1.07194521e-01 +1.23667076e-01 +1.69589207e-01 +2.25616634e-01 +1.52597815e-01 +1.28323212e-01 +3.09261978e-01 +1.75022617e-01 +1.51654929e-01 +2.47165442e-01 +4.08513963e-01 +5.78419805e-01 +7.85742760e-01 +8.74918997e-01 +9.34508920e-01 -3.36254500e-02 -3.44621763e-02 +5.05256839e-03 -1.83144063e-02 -1.79919787e-02 -1.26389721e-02 -5.04745450e-03 +2.86319498e-02 +3.74025516e-02 +1.17061928e-01 +1.33141413e-01 +1.77601680e-01 +2.91621864e-01 +2.37331748e-01 +2.90432930e-01 +3.39510053e-01 +2.19846204e-01 +2.59729922e-01 +3.62172335e-01 +5.36018789e-01 +7.32758641e-01 +8.46384048e-01 +9.90053952e-01 +1.01441789e+00 -3.16141918e-02 -2.83713248e-02 -3.31984013e-02 +1.25211790e-01 +3.54877636e-02 +2.80022025e-02 +3.35356295e-02 +1.85437687e-02 +2.12250371e-02 +4.26978804e-02 +8.65028575e-02 +1.23469129e-01 +2.17302084e-01 +2.56635755e-01 +4.16841745e-01 +3.87787163e-01 +3.44471902e-01 +4.58288848e-01 +6.15662336e-01 +8.18566382e-01 +9.27819073e-01 +9.68167305e-01 +1.02705550e+00 +9.92724955e-01 -3.64040248e-02 +7.02526653e-03 +1.82495452e-02 +1.09688312e-01 +3.59866731e-02 -1.19724840e-01 -1.21966943e-01 -8.69903937e-02 -2.56855283e-02 +3.64958346e-02 +1.31287903e-01 +1.92709297e-01 +2.47202352e-01 +3.39463025e-01 +4.47852135e-01 +2.84121394e-01 +3.76699537e-01 +5.86764693e-01 +7.96799123e-01 +8.92587125e-01 +1.00012457e+00 +1.00853264e+00 +9.94290292e-01 +1.05099809e+00 -4.69112247e-02 +2.39843018e-02 -1.38835963e-02 -3.87181621e-03 -3.87522541e-02 -5.55082783e-02 -9.53502283e-02 -1.13457553e-01 -1.07593894e-01 -1.00608647e-01 -2.12239083e-02 +4.34002243e-02 +1.06154077e-01 +2.99255639e-01 +3.62896740e-01 +3.96923989e-01 +6.59908593e-01 +9.13732648e-01 +9.56362367e-01 +9.76720512e-01 +9.45280910e-01 +9.62510049e-01 +9.95128751e-01 +1.00359797e+00 -1.24163385e-02 +2.90623610e-03 -1.29880667e-01 -1.77956939e-01 -1.30127966e-01 -7.61131793e-02 -7.49059469e-02 -1.67279407e-01 -1.25824198e-01 -6.86297491e-02 +2.20722537e-02 +1.13368943e-01 +2.12933436e-01 +4.52210188e-01 +4.39257950e-01 +5.97463429e-01 +8.17244411e-01 +9.49213862e-01 +9.60156500e-01 +9.65637982e-01 +1.07300305e+00 +1.03453767e+00 +9.71411347e-01 +9.48169351e-01 +1.78425433e-03 -2.50606388e-02 -1.37270316e-01 -1.96092814e-01 -1.75420582e-01 -1.43242732e-01 -1.54438436e-01 -1.85094222e-01 -1.84792534e-01 -1.53380305e-01 -6.61954135e-02 +4.68987301e-02 +1.72030434e-01 +2.46166393e-01 +2.95543909e-01 +5.63836396e-01 +7.88729310e-01 +8.94825876e-01 +9.86026406e-01 +1.05657196e+00 +1.06068230e+00 +9.58785236e-01 +7.37077117e-01 +6.27025783e-01 +1.26845893e-02 -2.13208664e-02 -4.81501929e-02 -4.98889312e-02 -1.26444653e-01 -1.86489120e-01 -1.37076020e-01 -1.05719596e-01 -8.66668373e-02 -8.57436657e-02 -5.40739968e-02 +5.70783690e-02 +2.95508444e-01 +4.78383631e-01 +7.01803923e-01 +9.16924477e-01 +8.90251517e-01 +8.31874847e-01 +7.75419176e-01 +6.32464767e-01 +4.84851390e-01 +3.87634844e-01 +2.78409243e-01 +2.29623884e-01 +1.51468255e-02 -2.33607925e-02 -3.05633526e-02 -3.81434709e-02 -6.16659820e-02 -8.19093287e-02 -1.11446351e-01 -1.03672408e-01 -1.31685913e-01 -1.26939908e-01 -1.10405155e-01 -4.03399058e-02 +2.44140863e-01 +3.14346582e-01 +3.90967041e-01 +3.84876579e-01 +3.40358883e-01 +2.87987530e-01 +1.52347818e-01 +1.00944536e-02 +3.23816203e-02 -2.15864964e-02 -8.07127729e-02 -1.20849106e-02 +2.78100912e-02 -4.34665047e-02 -4.36097849e-03 +1.12839649e-02 +1.48507499e-03 -7.17882859e-03 -6.88188942e-03 -4.97248163e-03 +1.25855971e-02 -1.90343577e-02 +1.44760814e-02 +2.74938028e-02 +2.69933287e-02 +6.43780828e-02 +5.47996908e-02 +4.47648950e-02 +4.72510941e-02 +1.85374673e-02 +3.68327857e-03 +3.39445472e-02 +1.14973083e-01 +8.57613459e-02 -1.33810155e-02 -1.27344392e-02 +3.12044658e-02 -1.92116555e-02 +1.15535399e-02 +6.57177391e-03 +1.21593010e-02 -4.10441402e-03 -7.30953086e-03 -1.22840388e-03 -3.84080573e-03 -1.45549541e-02 +3.81280994e-03 -3.87412612e-04 +3.63605155e-04 -3.19232955e-03 -3.36360210e-03 +6.09383080e-03 +1.71441436e-02 +2.38172915e-02 +3.75958905e-02 +6.49301335e-02 +1.19358294e-01 +1.10583171e-01 +3.22446972e-03 -3.28230532e-03 +2.99626198e-02 -3.38592827e-02 +1.36963706e-02 +1.01913437e-02 +1.61825493e-02 +4.45470074e-03 -3.89265269e-03 -7.90415704e-03 +1.00086827e-03 +1.21628745e-02 -7.42703537e-03 -4.42160468e-04 -1.25288675e-02 -2.18689591e-02 -3.81741137e-03 +6.03452278e-03 +1.30550759e-02 +2.93784812e-02 +3.08953393e-02 +4.09946665e-02 +1.06478997e-01 +1.25877142e-01 +4.17033397e-02 -1.14810327e-02 +1.95473414e-02 -2.72268709e-02 +6.18998241e-03 +1.48487538e-02 +1.60915051e-02 +3.39024584e-03 +4.52045072e-03 -4.16974910e-03 +1.08512323e-02 +2.37876712e-03 +2.59862631e-04 +7.67646916e-03 -1.08842161e-02 -2.14640666e-02 -1.29099945e-02 +8.49917065e-03 -1.38585572e-03 -2.96260667e-04 +1.49475792e-02 +4.63501737e-02 +9.39665586e-02 +1.24433205e-01 +3.49455662e-02 -1.35641890e-02 +4.89501050e-03 -3.08271907e-02 +2.26277392e-02 +1.74362957e-02 +1.45834638e-04 +6.16151281e-03 +2.14569271e-02 +9.31188581e-04 +1.20748635e-02 +1.47887971e-03 +8.10044166e-03 -5.16391499e-03 -2.90154386e-03 +1.14106957e-03 -3.06917392e-02 -2.35239640e-02 -1.93646867e-02 -1.22719510e-02 +6.51693111e-03 +3.23681273e-02 +7.41865635e-02 +1.37820810e-01 +9.82684195e-02 -4.61898074e-02 -8.14570859e-03 -8.71846080e-03 +1.41713843e-02 +9.07318667e-03 -2.70082499e-04 -1.63880177e-03 -1.30907632e-02 +4.55834583e-04 +3.10688117e-03 +1.13679748e-03 -1.90181576e-03 -1.49781478e-03 -2.01948988e-03 -3.88424890e-03 +1.82228361e-03 -1.33116795e-02 -1.93088185e-02 -1.99964792e-02 -9.19223763e-03 +1.51526202e-02 +5.32906502e-02 +1.22032315e-01 +8.68975520e-02 -2.22329386e-02 -1.33289974e-02 -1.63014967e-03 +3.69126117e-03 +1.86056085e-02 +1.67525858e-02 +1.63041800e-02 +5.21900272e-03 -9.87092685e-03 +3.15524754e-03 -5.25335874e-03 -7.77978590e-03 +1.98501651e-03 -3.90812755e-03 -7.22834282e-03 -3.37063242e-03 +1.02871340e-02 -9.02783126e-03 -1.08267758e-02 -9.03892051e-03 +1.06446426e-02 +4.70580198e-02 +1.12019628e-01 +9.87337306e-02 -2.26097722e-02 -2.36718468e-02 +7.04615796e-03 +8.47282633e-03 +1.85150430e-02 -9.26668523e-04 -1.04469135e-02 -1.47982035e-02 -3.47587350e-03 +1.17135104e-02 -2.84408242e-03 -7.25736795e-03 -7.18828849e-03 -7.85679207e-04 -1.04434611e-02 -1.74449179e-02 